~o
<STREAMINFO> 1 39
<VECSIZE> 39<NULLD><MFCC_D_A_0><DIAGC>
~h "nine"
<BEGINHMM>
<NUMSTATES> 6
<STATE> 2
<MEAN> 39
 -3.250680e+00 6.732204e+00 5.822648e+00 -6.120572e+00 1.271929e+01 -1.571246e+01 3.187262e+00 -1.227984e+01 -1.553853e+01 -5.822766e+00 -5.405486e+00 -3.578093e+00 7.693818e+01 5.094711e-01 -3.680548e-01 -4.729364e-01 -1.834261e+00 -6.629524e-01 -1.524687e+00 1.196056e+00 -3.166737e-01 2.182136e-01 -5.323924e-01 1.509970e+00 7.127208e-02 2.780940e+00 -2.958042e-01 -4.305913e-01 -4.808247e-01 -2.224052e-01 -3.552471e-01 1.655407e-01 9.089448e-02 4.123541e-01 3.516413e-01 -2.784570e-02 2.750407e-01 1.353318e-01 7.131935e-03
<VARIANCE> 39
 9.106123e+00 1.906376e+01 1.106598e+01 4.888351e+01 5.084307e+01 3.067623e+01 4.261386e+01 2.639016e+01 3.809472e+01 1.569780e+01 5.015641e+01 2.000301e+01 6.884825e+01 2.860177e+00 4.321568e+00 3.040376e+00 2.428579e+00 7.999759e+00 3.730739e+00 3.016726e+00 3.905120e+00 5.758997e+00 1.295161e+00 4.896761e+00 2.131535e+00 2.268506e+00 3.066345e-01 5.519467e-01 2.970951e-01 4.818609e-01 1.280958e+00 9.051664e-01 6.241940e-01 5.362497e-01 8.453090e-01 2.412717e-01 8.660572e-01 4.513476e-01 5.809554e-01
<GCONST> 1.228524e+02
<STATE> 3
<MEAN> 39
 -4.088817e+00 -1.592924e+00 -7.229053e+00 -2.017662e+01 7.498852e+00 -1.873984e+01 1.025331e+01 -6.457652e+00 -2.001660e+00 -1.693054e+01 5.929473e+00 2.630261e+00 9.296960e+01 -6.350826e-02 -2.308162e-01 -2.011712e-01 -7.179976e-02 6.016278e-01 -1.314541e-02 -3.517201e-01 1.681067e-01 7.828648e-01 -4.292833e-01 3.441730e-01 -2.706696e-02 -2.833915e-02 -3.979945e-02 4.373097e-02 2.255358e-01 1.609078e-01 7.462909e-02 -9.209133e-02 -1.101129e-01 -7.037236e-02 1.327411e-02 8.116589e-02 -5.253804e-02 -1.580221e-01 -1.323876e-01
<VARIANCE> 39
 2.439183e+00 6.492946e+00 1.605333e+01 8.817241e+00 2.203723e+01 2.270770e+01 1.567783e+01 1.046823e+01 3.701910e+01 3.694992e+01 2.280959e+01 2.025809e+01 2.934782e+00 2.055592e-01 4.702369e-01 1.548364e+00 7.716283e-01 1.269454e+00 2.895496e+00 1.148574e+00 1.045015e+00 1.492662e+00 2.553117e+00 1.892846e+00 2.423449e+00 2.602288e-01 3.218586e-02 8.769338e-02 1.415457e-01 2.095571e-01 2.698515e-01 4.832321e-01 1.492632e-01 1.719603e-01 2.830821e-01 3.548158e-01 4.416495e-01 2.546109e-01 1.165900e-01
<GCONST> 8.426205e+01
<STATE> 4
<MEAN> 39
 -1.021325e+01 -3.592841e+00 7.788902e+00 -1.062271e+01 1.368586e+01 -3.397389e+01 -1.089364e+00 -5.302603e+00 6.874155e+00 -1.602076e+01 8.176621e+00 -7.647200e+00 8.745353e+01 -5.333387e-01 1.547665e-02 1.782976e+00 1.203736e+00 -1.758643e-01 -1.121688e+00 -3.942628e-01 3.430153e-01 -4.672159e-01 -1.155237e-01 -1.001612e+00 -2.629211e-01 -8.141907e-01 8.383929e-03 -2.660416e-02 -5.536449e-02 -3.296662e-02 -4.988454e-02 2.735980e-01 1.360334e-01 4.707015e-02 -2.101930e-01 -5.615452e-02 -8.795210e-02 1.882113e-01 -7.279773e-02
<VARIANCE> 39
 7.991440e+00 5.548792e+00 5.928848e+01 2.786321e+01 1.089145e+01 3.186397e+01 1.009538e+01 1.479055e+01 2.069575e+01 1.050041e+01 3.002609e+01 1.660259e+01 1.373304e+01 2.045065e-01 4.880785e-01 4.851473e-01 5.528196e-01 7.775962e-01 1.797600e+00 1.172027e+00 1.238079e+00 1.691653e+00 1.243229e+00 1.104538e+00 1.621354e+00 2.119819e-01 3.372676e-02 6.592289e-02 6.993519e-02 8.083394e-02 1.440690e-01 1.812875e-01 1.481506e-01 1.996740e-01 1.735649e-01 2.192488e-01 2.323722e-01 1.840580e-01 1.729375e-02
<GCONST> 7.588068e+01
<STATE> 5
<MEAN> 39
 -1.526602e+01 -8.113818e+00 1.586842e+01 -2.191015e+00 4.766369e+00 -2.672830e+01 -1.150036e+00 3.064382e+00 -6.597508e+00 -1.330591e+01 -4.164597e-01 -1.168816e+00 7.276263e+01 1.929185e-02 -1.907741e-01 -1.100335e+00 4.954604e-01 -1.218692e+00 1.986792e+00 -3.326000e-02 5.916665e-01 -5.607122e-01 8.057253e-01 -2.151320e-01 5.054702e-01 -1.387493e+00 6.858067e-02 9.286395e-02 -2.119232e-01 -8.954033e-02 -3.090351e-02 8.466218e-02 -2.592676e-02 -1.367491e-01 1.984551e-01 4.859054e-02 2.304604e-02 -6.274612e-02 1.582458e-02
<VARIANCE> 39
 1.441662e+01 2.576384e+01 4.536955e+01 1.788982e+01 6.076120e+01 9.086959e+01 2.145789e+01 3.542262e+01 4.076148e+01 3.061005e+01 1.697054e+01 3.347274e+01 3.175525e+01 8.538226e-01 1.312314e+00 2.233760e+00 1.281624e+00 2.693187e+00 1.863390e+00 1.829818e+00 2.398184e+00 2.895363e+00 2.004958e+00 1.405434e+00 1.783349e+00 4.067585e-01 1.205086e-01 1.407639e-01 1.998671e-01 3.085128e-01 5.565581e-01 3.033130e-01 3.909832e-01 3.922908e-01 4.049268e-01 3.760771e-01 2.568532e-01 3.164040e-01 4.821842e-02
<GCONST> 1.045678e+02
<TRANSP> 6
 0.000000e+00 1.000000e+00 0.000000e+00 0.000000e+00 0.000000e+00 0.000000e+00
 0.000000e+00 8.967037e-01 1.032964e-01 0.000000e+00 0.000000e+00 0.000000e+00
 0.000000e+00 0.000000e+00 9.470717e-01 5.292834e-02 0.000000e+00 0.000000e+00
 0.000000e+00 0.000000e+00 0.000000e+00 9.210556e-01 7.894438e-02 0.000000e+00
 0.000000e+00 0.000000e+00 0.000000e+00 0.000000e+00 9.222314e-01 7.776868e-02
 0.000000e+00 0.000000e+00 0.000000e+00 0.000000e+00 0.000000e+00 0.000000e+00
<ENDHMM>
