~o
<STREAMINFO> 1 39
<VECSIZE> 39<NULLD><MFCC_D_A_0><DIAGC>
~h "ten"
<BEGINHMM>
<NUMSTATES> 6
<STATE> 2
<MEAN> 39
 -1.062987e+01 -1.074601e+01 1.905639e+00 -1.149382e+01 3.869007e+00 -1.818936e+01 9.670563e+00 -1.142098e+01 3.918978e+00 -2.752333e+00 3.759277e+00 -7.346002e+00 9.348621e+01 7.832395e-01 2.578814e-01 -5.864331e-01 -7.537989e-02 -1.890838e-01 -1.174601e+00 1.326762e-01 -2.256689e-01 -9.714065e-01 2.659333e-02 -3.509294e-01 -3.844740e-01 7.070413e-01 -1.784545e-02 2.182067e-01 -2.225192e-01 9.846520e-02 -1.964869e-01 1.309573e-01 -2.160058e-01 1.441489e-01 -3.053723e-01 -5.070482e-02 -1.308485e-01 1.454611e-01 -4.822133e-01
<VARIANCE> 39
 2.593585e+01 2.349427e+01 2.362256e+01 1.239116e+01 1.008461e+01 4.755482e+01 2.859246e+01 1.416274e+01 4.344178e+01 1.682141e+01 1.906445e+01 1.938073e+01 5.996108e+00 2.089094e+00 4.539917e+00 1.960232e+00 1.861660e+00 1.640009e+00 2.497399e+00 3.874264e+00 2.064391e+00 6.344961e+00 2.354695e+00 3.118599e+00 2.736463e+00 3.327947e+00 4.578264e-01 5.694469e-01 3.613094e-01 5.676516e-01 2.445106e-01 6.187974e-01 4.854556e-01 5.085669e-01 9.039074e-01 4.128523e-01 7.368941e-01 6.902821e-01 1.227915e+00
<GCONST> 1.156543e+02
<STATE> 3
<MEAN> 39
 -5.732303e+00 -2.327641e+00 -4.421976e+00 -1.580386e+01 1.050058e+00 -2.360763e+01 4.225426e+00 -1.325580e+01 -1.000896e+01 -4.542681e+00 8.689197e+00 -5.593189e+00 9.530529e+01 6.780100e-02 6.131052e-02 3.840261e-01 -5.505869e-01 7.681442e-01 7.425780e-02 5.125466e-02 -2.046552e-01 -2.383806e-01 -6.697229e-02 1.892614e+00 3.127871e-01 -2.540724e-01 -7.567372e-02 -1.434785e-01 2.460786e-01 1.190816e-02 3.108287e-01 -1.493575e-02 2.389946e-01 -7.436486e-02 1.910566e-01 1.442182e-02 9.594809e-02 -1.031768e-01 -1.835561e-01
<VARIANCE> 39
 2.404409e+00 8.528952e+00 8.054800e+00 1.431611e+01 2.063328e+01 2.086999e+01 3.447602e+01 1.152643e+01 1.697537e+01 1.813829e+01 6.392492e+01 2.580298e+01 4.632932e+00 9.078949e-02 7.257847e-01 1.076289e+00 4.790580e-01 1.760225e+00 1.103038e+00 2.198740e+00 9.320375e-01 1.587930e+00 1.486726e+00 1.457074e+00 1.842280e+00 2.437113e-01 3.723362e-02 1.844976e-01 1.013308e-01 1.127915e-01 2.048504e-01 2.230899e-01 3.117591e-01 1.660715e-01 4.831732e-01 3.204309e-01 5.824390e-01 2.794167e-01 3.817679e-02
<GCONST> 8.215516e+01
<STATE> 4
<MEAN> 39
 -6.532410e+00 2.677562e-01 5.088060e+00 -1.087194e+01 1.408462e+01 -1.668776e+01 4.411467e+00 -1.506168e+01 -1.180253e+01 -7.101734e+00 8.534702e+00 -5.032321e+00 8.086322e+01 4.667360e-02 5.853388e-01 4.474565e-01 1.303313e+00 2.578460e-01 1.167053e+00 -5.338480e-01 4.236796e-01 -2.755116e-01 -1.883343e-01 -1.739529e+00 2.003428e-01 -1.767896e+00 8.945417e-02 1.109041e-02 -1.670521e-01 1.201352e-01 -2.711133e-01 5.184505e-02 -1.265645e-01 1.493850e-01 -5.724108e-02 4.340632e-02 -1.311175e-01 1.719301e-02 -1.762909e-02
<VARIANCE> 39
 1.691597e+01 2.884945e+01 9.405465e+00 3.775942e+01 1.845958e+01 4.140906e+01 2.127799e+01 1.420517e+01 1.857662e+01 1.698970e+01 7.140662e+01 2.484586e+01 4.380022e+01 2.162632e+00 1.674490e+00 1.308523e+00 2.942242e+00 3.182414e+00 2.010154e+00 2.025643e+00 1.748328e+00 2.302575e+00 1.177876e+00 3.034600e+00 1.704223e+00 1.766801e+00 4.408607e-01 3.551677e-01 1.910532e-01 6.953982e-01 4.032418e-01 4.636074e-01 4.204088e-01 2.899353e-01 4.998598e-01 2.189355e-01 7.567512e-01 3.122056e-01 3.544824e-01
<GCONST> 1.097245e+02
<STATE> 5
<MEAN> 39
 -5.316979e+00 2.605223e+00 5.482088e+00 6.206183e-01 5.432752e+00 -6.037022e+00 -3.472040e+00 -7.056769e+00 -1.361536e+01 -7.061357e+00 -3.931475e+00 -6.401149e+00 6.690157e+01 -3.904915e-01 -4.104084e-01 -3.197051e-01 2.865228e-01 -1.091965e+00 7.516862e-01 -3.768339e-01 6.265696e-01 5.399556e-01 2.434245e-01 -2.281461e-01 3.420144e-02 -8.376338e-01 -1.096015e-01 -7.032119e-02 -5.082170e-02 -1.522121e-01 1.720032e-02 -3.869343e-02 9.063697e-02 -5.135150e-02 1.961673e-01 4.260563e-02 9.412581e-02 5.750728e-02 9.144408e-02
<VARIANCE> 39
 8.934061e+00 1.223622e+01 9.827469e+00 1.777717e+01 2.231010e+01 1.914073e+01 1.407493e+01 1.637774e+01 1.877336e+01 2.082679e+01 1.826078e+01 2.170599e+01 9.882257e+00 5.810974e-01 9.047204e-01 1.575029e+00 2.390817e+00 1.027891e+00 1.347016e+00 1.557599e+00 1.631891e+00 1.660138e+00 1.975759e+00 1.596349e+00 2.152375e+00 2.534013e-01 8.907622e-02 1.302847e-01 3.007415e-01 3.468564e-01 2.032688e-01 2.841203e-01 2.635789e-01 3.117071e-01 2.514782e-01 3.736000e-01 2.672374e-01 3.488459e-01 3.342646e-02
<GCONST> 9.006067e+01
<TRANSP> 6
 0.000000e+00 1.000000e+00 0.000000e+00 0.000000e+00 0.000000e+00 0.000000e+00
 0.000000e+00 9.186028e-01 8.139721e-02 0.000000e+00 0.000000e+00 0.000000e+00
 0.000000e+00 0.000000e+00 9.091482e-01 9.085186e-02 0.000000e+00 0.000000e+00
 0.000000e+00 0.000000e+00 0.000000e+00 9.121819e-01 8.781812e-02 0.000000e+00
 0.000000e+00 0.000000e+00 0.000000e+00 0.000000e+00 9.124383e-01 8.756173e-02
 0.000000e+00 0.000000e+00 0.000000e+00 0.000000e+00 0.000000e+00 0.000000e+00
<ENDHMM>
