~o
<STREAMINFO> 1 39
<VECSIZE> 39<NULLD><MFCC_D_A_0><DIAGC>
~h "four"
<BEGINHMM>
<NUMSTATES> 6
<STATE> 2
<MEAN> 39
 -1.675883e+01 -3.818112e+00 -2.808059e+00 -1.465584e+01 4.292622e+00 -1.260928e+01 6.921203e-01 -5.248794e+00 -3.301745e+00 -6.144653e+00 7.833335e-01 -7.883105e+00 8.130659e+01 7.013820e-01 3.743166e-01 1.948945e-01 -6.376614e-01 -7.924447e-01 -1.041028e+00 -4.193833e-01 -4.523689e-01 -1.408097e-01 -2.290244e-01 -2.249407e-01 -1.602908e-01 1.052519e+00 5.162193e-02 -1.222681e-02 -3.952770e-02 1.159170e-01 -1.265919e-01 7.817308e-02 -1.036596e-01 -4.662779e-02 -5.150880e-03 5.505576e-02 1.129732e-02 1.415083e-01 -4.224608e-02
<VARIANCE> 39
 8.372747e+01 5.135936e+01 3.453143e+01 4.163247e+01 5.840064e+01 5.957235e+01 3.440798e+01 2.143380e+01 2.224984e+01 1.784148e+01 2.511669e+01 1.917305e+01 5.740227e+01 5.534603e+00 4.853835e+00 2.834332e+00 2.535425e+00 3.982858e+00 3.862101e+00 3.621990e+00 2.258852e+00 2.779573e+00 1.914123e+00 2.677388e+00 1.836516e+00 2.274340e+00 5.960372e-01 8.295319e-01 4.366031e-01 4.982922e-01 7.927664e-01 9.173535e-01 6.765732e-01 4.856574e-01 5.841118e-01 3.773025e-01 5.388089e-01 3.452938e-01 2.263611e-01
<GCONST> 1.241263e+02
<STATE> 3
<MEAN> 39
 -3.897061e-01 1.752917e+00 -7.298225e-01 -1.554267e+01 -7.757017e+00 -1.977708e+01 -9.101980e+00 -7.297482e+00 -2.211480e+00 -5.431685e+00 -6.278902e-01 -5.219866e+00 8.921544e+01 8.225771e-02 -4.246439e-01 -5.556966e-01 -4.081267e-02 -3.038483e-02 2.250621e-01 7.354321e-02 4.403460e-01 8.705301e-01 -3.065101e-01 1.541407e-01 2.130867e-01 1.466942e-01 6.055826e-03 6.255326e-02 -3.863242e-02 -1.453870e-01 8.285115e-02 9.267593e-03 1.389138e-01 -5.500474e-03 5.019399e-02 -1.130543e-01 -7.737076e-02 -9.115028e-02 -9.840512e-02
<VARIANCE> 39
 2.336618e+00 2.039414e+01 4.198402e+01 1.519780e+01 1.477670e+01 3.498285e+01 2.535333e+01 4.495190e+01 4.611362e+01 2.501290e+01 1.659136e+01 1.894486e+01 1.028566e+01 1.488924e-01 6.482230e-01 8.593194e-01 1.373550e+00 1.220664e+00 2.075393e+00 2.260880e+00 1.695391e+00 2.270864e+00 2.749983e+00 1.108364e+00 1.221632e+00 3.757427e-01 3.713053e-02 1.139663e-01 1.157554e-01 1.656855e-01 2.245666e-01 3.275303e-01 2.897725e-01 3.140283e-01 3.645155e-01 3.664773e-01 1.802987e-01 2.155593e-01 4.683452e-02
<GCONST> 8.892702e+01
<STATE> 4
<MEAN> 39
 2.516864e+00 2.663937e+00 -1.440114e+01 -1.991342e+01 3.857876e+00 -9.769156e+00 -1.574719e+00 -1.527073e+01 -3.547231e+00 -9.610183e+00 -3.074103e-01 -1.140689e+00 7.820464e+01 -1.644609e-01 -7.377941e-02 -2.948591e-01 3.151858e-01 5.512952e-01 1.208150e+00 8.861021e-02 -7.106770e-01 -1.109203e+00 4.736877e-01 2.300028e-01 2.226708e-01 -1.139454e+00 -9.501082e-02 -1.251579e-01 6.122851e-02 9.599018e-02 -1.116393e-01 3.065038e-02 -5.080724e-02 1.756003e-01 3.696193e-02 2.052430e-01 9.091859e-02 2.191270e-02 -1.356686e-02
<VARIANCE> 39
 2.257675e+01 2.284764e+01 3.179971e+01 3.111640e+01 7.360681e+01 6.533138e+01 2.742052e+01 5.818912e+01 1.283086e+02 3.859227e+01 3.040696e+01 2.127777e+01 5.054031e+01 2.893158e+00 2.084922e+00 3.114141e+00 2.687461e+00 4.965911e+00 2.392679e+00 3.145838e+00 3.923916e+00 3.602324e+00 3.002574e+00 1.724200e+00 1.657323e+00 1.345488e+00 5.036300e-01 2.746033e-01 4.073485e-01 3.905160e-01 7.540306e-01 3.994464e-01 5.977236e-01 4.986359e-01 7.488665e-01 5.752954e-01 3.277253e-01 2.928613e-01 2.447768e-01
<GCONST> 1.213932e+02
<STATE> 5
<MEAN> 39
 -8.491817e+00 -5.546195e+00 -8.955759e+00 -9.238479e+00 1.775173e+00 3.983137e+00 -2.815651e+00 -9.399056e+00 -8.249164e+00 1.083692e+00 4.880284e+00 1.403882e+00 6.369992e+01 -1.041466e+00 -3.644781e-01 8.102629e-01 8.568114e-01 -1.359552e-01 -1.483215e-01 2.283014e-01 1.061658e+00 7.186079e-01 2.471286e-01 -2.011662e-01 8.164369e-02 -6.477248e-01 7.475823e-02 1.734412e-01 9.755415e-02 1.213363e-02 5.087406e-02 -2.267144e-01 5.801035e-04 -1.383976e-01 -5.600143e-02 -1.946384e-01 -1.747702e-01 -7.484797e-02 7.325718e-02
<VARIANCE> 39
 1.531101e+01 7.023896e+00 4.017223e+01 3.048049e+01 1.392446e+01 1.781116e+01 1.397445e+01 2.191497e+01 1.597830e+01 2.534600e+01 3.234187e+01 1.496834e+01 6.298607e+00 2.823468e-01 5.404016e-01 1.200732e+00 1.255384e+00 1.223407e+00 1.381705e+00 1.168791e+00 1.478459e+00 1.339225e+00 2.341529e+00 2.375499e+00 1.220819e+00 1.088276e-01 6.639003e-02 5.963010e-02 1.653010e-01 2.449806e-01 2.628045e-01 2.524821e-01 2.423330e-01 2.950719e-01 1.884490e-01 3.323129e-01 3.121907e-01 1.766022e-01 2.795560e-02
<GCONST> 8.498674e+01
<TRANSP> 6
 0.000000e+00 1.000000e+00 0.000000e+00 0.000000e+00 0.000000e+00 0.000000e+00
 0.000000e+00 9.494838e-01 5.051621e-02 0.000000e+00 0.000000e+00 0.000000e+00
 0.000000e+00 0.000000e+00 9.430695e-01 5.693055e-02 0.000000e+00 0.000000e+00
 0.000000e+00 0.000000e+00 0.000000e+00 9.460819e-01 5.391813e-02 0.000000e+00
 0.000000e+00 0.000000e+00 0.000000e+00 0.000000e+00 9.055938e-01 9.440621e-02
 0.000000e+00 0.000000e+00 0.000000e+00 0.000000e+00 0.000000e+00 0.000000e+00
<ENDHMM>
