~o
<STREAMINFO> 1 39
<VECSIZE> 39<NULLD><MFCC_D_A_0><DIAGC>
~h "two"
<BEGINHMM>
<NUMSTATES> 6
<STATE> 2
<MEAN> 39
 -2.023984e+01 -8.883699e+00 7.731723e-01 -8.156867e+00 2.104060e+00 -1.010757e+01 2.197410e-01 -1.205006e+01 -4.211747e+00 2.949949e-01 4.798697e+00 -7.703247e+00 8.995033e+01 7.405290e-01 6.409498e-01 -3.284423e-01 -2.686337e-01 5.968127e-01 -6.610929e-01 9.077172e-02 -1.084398e+00 -1.186283e+00 -3.518402e-01 -4.723443e-02 1.343921e-01 1.204627e+00 4.084148e-01 4.524856e-01 -5.194506e-02 1.914209e-01 -1.138632e-01 -7.119432e-02 2.855242e-02 7.490860e-02 -3.232252e-01 -3.263750e-01 -4.572343e-01 1.696179e-01 -6.227188e-01
<VARIANCE> 39
 2.312419e+01 1.460993e+01 1.712333e+01 1.010683e+01 2.135964e+01 2.435907e+01 1.570792e+01 2.322038e+01 1.902098e+01 1.706252e+01 2.051058e+01 1.455391e+01 4.724870e+01 3.879345e+00 3.949932e+00 1.781286e+00 1.597991e+00 1.933820e+00 5.232790e+00 1.749067e+00 2.035079e+00 3.797762e+00 3.167966e+00 5.778653e+00 2.240696e+00 1.226238e+01 3.555269e-01 3.610339e-01 3.873747e-01 2.712844e-01 5.474013e-01 1.078259e+00 3.661248e-01 3.808843e-01 5.135118e-01 5.112467e-01 5.970135e-01 3.757485e-01 1.679272e+00
<GCONST> 1.159414e+02
<STATE> 3
<MEAN> 39
 -7.195149e+00 5.079060e+00 3.043321e-01 -1.039777e+01 -3.248245e+00 -2.004869e+01 3.893599e+00 -1.580694e+01 -1.819078e+01 -1.090075e+01 -7.318585e+00 -5.068655e+00 9.086619e+01 4.275285e-01 6.165944e-01 4.501342e-01 -5.756783e-01 -5.071132e-01 -1.986846e-01 6.086253e-01 5.148886e-01 -1.373239e-01 -9.396284e-01 -5.890300e-01 -1.951048e-01 -3.250434e-03 -1.546144e-01 -1.756653e-01 1.444357e-01 -1.857392e-01 1.138733e-01 7.989901e-02 1.312835e-01 1.237205e-01 2.951571e-01 -4.628560e-03 2.364291e-01 -8.238085e-02 -1.461727e-01
<VARIANCE> 39
 4.120891e+00 1.318910e+01 1.350146e+01 1.587360e+01 2.040073e+01 4.316960e+01 4.948691e+01 2.976663e+01 2.835880e+01 3.086942e+01 1.586084e+01 2.069914e+01 1.047965e+01 8.400169e-01 1.351494e+00 1.379673e+00 1.939325e+00 2.114909e+00 5.514149e+00 4.577431e+00 3.183003e+00 3.859926e+00 2.841351e+00 2.076576e+00 1.573185e+00 1.286963e+00 1.517727e-01 2.647661e-01 2.558623e-01 4.386185e-01 3.018905e-01 1.126457e+00 8.459929e-01 6.550366e-01 5.893489e-01 5.566542e-01 4.508067e-01 3.039093e-01 2.079634e-01
<GCONST> 1.083683e+02
<STATE> 4
<MEAN> 39
 -7.161077e+00 8.888615e+00 6.963273e+00 -1.838500e+01 6.286627e-02 -1.844002e+01 8.681195e+00 -5.470845e+00 -1.140687e+01 -1.435989e+01 -9.646869e+00 -8.911189e+00 7.827396e+01 -1.963864e-02 -4.342715e-01 -3.501944e-01 -4.137956e-02 9.675108e-02 9.868052e-01 -6.666543e-01 7.846945e-01 6.351464e-01 9.330166e-01 3.331075e-01 2.269270e-01 -1.468804e+00 -2.576625e-02 -1.413312e-01 -2.178725e-01 3.445267e-01 -1.122463e-01 2.799174e-01 -2.660699e-01 1.734015e-02 7.990188e-02 2.664401e-01 1.073634e-01 1.871925e-01 -5.898779e-03
<VARIANCE> 39
 8.229081e+00 3.392772e+01 2.426423e+01 2.871973e+01 3.035406e+01 5.424238e+01 5.204477e+01 2.074244e+01 1.822938e+01 7.517901e+01 2.395256e+01 3.460504e+01 4.658467e+01 1.155292e+00 4.446372e+00 4.402592e+00 5.147081e+00 4.165447e+00 7.243461e+00 5.918155e+00 2.177039e+00 1.973880e+00 5.822730e+00 2.513466e+00 4.270627e+00 1.720118e+00 2.354286e-01 7.854644e-01 8.219399e-01 1.146287e+00 6.532351e-01 1.089309e+00 1.120591e+00 4.813082e-01 3.416777e-01 1.042919e+00 3.688411e-01 7.130424e-01 3.725417e-01
<GCONST> 1.260483e+02
<STATE> 5
<MEAN> 39
 -6.321649e+00 2.668385e+00 2.946316e+00 -3.741590e+00 -1.819687e+00 -1.827236e+00 4.648244e-01 4.899605e-01 -2.894824e+00 -2.680469e+00 -3.181468e+00 -2.939455e+00 6.477318e+01 -4.287705e-01 -2.150787e-01 3.407795e-01 1.723288e+00 4.594079e-01 7.183292e-01 -1.203275e-01 -8.075562e-02 4.867737e-01 3.058849e-01 2.431975e-01 1.420889e-01 -7.172729e-01 -8.262984e-02 5.303815e-02 8.725242e-02 -1.956081e-01 2.101846e-01 -2.241439e-01 8.607236e-02 -1.103836e-01 -1.269179e-01 -1.109550e-01 -9.842049e-02 -1.043032e-01 9.763745e-02
<VARIANCE> 39
 1.130615e+01 1.645026e+01 2.730276e+01 5.018090e+01 2.228299e+01 1.518045e+01 1.297423e+01 1.455583e+01 1.033482e+01 8.839170e+00 9.947995e+00 8.120975e+00 5.260279e+00 1.091080e+00 1.248142e+00 1.900999e+00 3.899184e+00 2.185558e+00 1.382882e+00 1.304719e+00 1.720710e+00 1.253435e+00 1.288477e+00 1.297785e+00 1.002739e+00 8.711537e-01 1.748440e-01 2.934590e-01 4.527227e-01 5.242138e-01 5.151113e-01 3.577155e-01 2.938605e-01 3.744930e-01 2.709295e-01 3.005955e-01 3.271633e-01 2.647607e-01 1.610169e-01
<GCONST> 9.550178e+01
<TRANSP> 6
 0.000000e+00 1.000000e+00 0.000000e+00 0.000000e+00 0.000000e+00 0.000000e+00
 0.000000e+00 8.946596e-01 1.053404e-01 0.000000e+00 0.000000e+00 0.000000e+00
 0.000000e+00 0.000000e+00 9.277986e-01 7.220136e-02 0.000000e+00 0.000000e+00
 0.000000e+00 0.000000e+00 0.000000e+00 9.240631e-01 7.593694e-02 0.000000e+00
 0.000000e+00 0.000000e+00 0.000000e+00 0.000000e+00 8.967795e-01 1.032206e-01
 0.000000e+00 0.000000e+00 0.000000e+00 0.000000e+00 0.000000e+00 0.000000e+00
<ENDHMM>
