~o
<STREAMINFO> 1 39
<VECSIZE> 39<NULLD><MFCC_D_A_0><DIAGC>
~h "zero"
<BEGINHMM>
<NUMSTATES> 6
<STATE> 2
<MEAN> 39
 -2.529334e+01 -8.345682e+00 1.008117e+01 -1.912567e+01 1.164136e+01 -1.575108e+01 -4.549553e-01 -1.197501e+01 2.033100e+00 -8.311834e+00 1.079731e-01 -8.781570e+00 8.148507e+01 1.378682e+00 2.068786e-01 3.204322e-01 8.041952e-01 1.155441e-01 -1.739773e+00 -9.953206e-01 -9.879997e-01 -9.275895e-01 -6.225711e-01 -6.399401e-01 -7.557346e-01 1.600476e+00 5.395139e-01 1.671909e-01 -2.960366e-01 4.944124e-01 -3.906904e-01 -6.183368e-02 -2.255302e-01 1.311575e-01 -3.310198e-01 6.623618e-02 -1.520519e-01 1.464794e-01 -2.904683e-01
<VARIANCE> 39
 8.405474e+01 3.504009e+01 3.451611e+01 4.574170e+01 2.005615e+01 3.180493e+01 4.576859e+01 2.452100e+01 3.467064e+01 2.087045e+01 3.875433e+01 2.316237e+01 2.588762e+01 1.070894e+01 6.298578e+00 4.949743e+00 8.265433e+00 3.907464e+00 5.162738e+00 4.184023e+00 2.637783e+00 4.657063e+00 2.444082e+00 5.111149e+00 2.774208e+00 2.810757e+00 1.210758e+00 1.012642e+00 1.366908e+00 1.160789e+00 7.384419e-01 8.974844e-01 7.655568e-01 5.609713e-01 6.531283e-01 5.764353e-01 8.108911e-01 5.685307e-01 2.476927e-01
<GCONST> 1.328565e+02
<STATE> 3
<MEAN> 39
 -4.178570e+00 -2.668375e+00 4.235567e+00 -7.066905e+00 7.230096e+00 -3.375497e+01 -6.272936e+00 -1.985661e+01 -8.235922e+00 -1.076228e+01 -5.651932e+00 -1.084608e+01 8.657441e+01 5.870012e-01 1.477926e-01 -1.477191e+00 -1.922979e-01 2.711002e-01 -1.918687e-01 4.323570e-01 -2.874884e-01 -5.546951e-02 2.870443e-01 3.290341e-01 1.215592e-01 -1.499731e-01 -8.274129e-02 2.216875e-02 -3.295860e-02 -2.075176e-01 1.815528e-01 3.278725e-01 -1.322647e-02 5.034553e-02 7.575753e-02 -2.241424e-02 4.852869e-02 -2.211374e-02 -7.855304e-02
<VARIANCE> 39
 9.739155e+00 5.408672e+00 6.207242e+01 1.128946e+01 1.098776e+01 1.365049e+01 2.729822e+01 1.646603e+01 1.779130e+01 1.787764e+01 1.463577e+01 1.456129e+01 2.696457e+00 1.568944e-01 7.957041e-01 1.382076e+00 9.634012e-01 1.287954e+00 1.988700e+00 1.456503e+00 1.012857e+00 1.001714e+00 1.351844e+00 7.484214e-01 8.645718e-01 2.225375e-01 9.128609e-02 1.423225e-01 1.995589e-01 2.169015e-01 1.113041e-01 2.469231e-01 3.052493e-01 2.225915e-01 2.467762e-01 2.302733e-01 1.524630e-01 1.449904e-01 1.162191e-02
<GCONST> 7.842723e+01
<STATE> 4
<MEAN> 39
 3.191596e+00 4.728613e+00 -1.012134e+01 -2.133887e+01 1.686279e+01 -2.248591e+01 -5.142936e+00 -1.304239e+01 -1.019822e+01 -1.204073e+01 -8.075622e-01 -1.967872e+00 8.097221e+01 1.085940e-01 8.838696e-02 3.814183e-01 -7.067111e-01 -6.984659e-01 5.442043e-01 1.910903e-01 1.050358e+00 2.807515e-01 -7.868945e-01 -6.233839e-02 7.716854e-01 -2.149694e-01 -4.222266e-02 -4.301830e-02 1.310757e-01 1.192844e-01 -2.596475e-01 -7.652809e-02 1.052799e-01 3.064276e-02 3.864831e-02 -2.569765e-02 -8.608454e-02 -5.477135e-02 -2.153113e-02
<VARIANCE> 39
 3.044492e+00 9.474612e+00 9.039515e+00 2.986839e+01 4.704005e+01 2.076263e+01 3.236018e+01 7.043705e+01 2.868443e+01 3.232540e+01 2.907756e+01 4.262709e+01 3.634934e+00 1.593346e-01 9.312532e-01 5.609674e-01 1.507156e+00 4.479216e+00 1.603780e+00 3.418651e+00 2.537298e+00 1.361473e+00 1.641680e+00 2.553945e+00 1.148834e+00 2.711104e-01 1.835711e-02 1.023155e-01 7.670505e-02 1.504182e-01 2.652034e-01 2.275666e-01 5.975292e-01 4.694167e-01 1.811104e-01 2.819447e-01 4.425847e-01 2.556274e-01 3.737520e-02
<GCONST> 8.987145e+01
<STATE> 5
<MEAN> 39
 -1.349234e+00 3.516624e+00 -1.622938e+00 -1.606680e+01 -9.219637e+00 -1.065964e+01 2.026122e+00 1.704454e+00 -5.181550e+00 -1.411562e+01 -7.899775e+00 -3.846873e+00 6.969365e+01 -6.503894e-01 -2.620621e-01 1.998119e-02 6.978363e-01 -4.361641e-01 8.841968e-01 2.358061e-02 3.524173e-01 1.719953e-01 1.023635e+00 -2.038361e-02 -4.128810e-01 -8.665394e-01 -2.845010e-02 -4.346303e-02 -4.595124e-02 3.385909e-02 1.929727e-01 -1.695890e-02 -7.632741e-02 -1.004446e-01 -1.411807e-02 8.430786e-02 7.500388e-02 5.001457e-02 2.706658e-02
<VARIANCE> 39
 2.084260e+01 2.091731e+01 1.696225e+01 2.291041e+01 2.036004e+01 6.034202e+01 2.322937e+01 2.287613e+01 1.894941e+01 6.913734e+01 2.443577e+01 2.578870e+01 2.549206e+01 6.154892e-01 1.301650e+00 1.213270e+00 1.077206e+00 2.301859e+00 1.808064e+00 1.473440e+00 1.938174e+00 2.106239e+00 1.833882e+00 2.278703e+00 1.941285e+00 2.281304e-01 8.571604e-02 1.426077e-01 1.301640e-01 1.934794e-01 2.393066e-01 3.203870e-01 2.630328e-01 3.701890e-01 4.220458e-01 2.877539e-01 3.523872e-01 2.609244e-01 3.148224e-02
<GCONST> 9.691393e+01
<TRANSP> 6
 0.000000e+00 1.000000e+00 0.000000e+00 0.000000e+00 0.000000e+00 0.000000e+00
 0.000000e+00 9.114259e-01 8.857411e-02 0.000000e+00 0.000000e+00 0.000000e+00
 0.000000e+00 0.000000e+00 9.375634e-01 6.243660e-02 0.000000e+00 0.000000e+00
 0.000000e+00 0.000000e+00 0.000000e+00 9.450009e-01 5.499909e-02 0.000000e+00
 0.000000e+00 0.000000e+00 0.000000e+00 0.000000e+00 9.482181e-01 5.178192e-02
 0.000000e+00 0.000000e+00 0.000000e+00 0.000000e+00 0.000000e+00 0.000000e+00
<ENDHMM>
