~o
<STREAMINFO> 1 39
<VECSIZE> 39<NULLD><MFCC_D_A_0><DIAGC>
~h "three"
<BEGINHMM>
<NUMSTATES> 6
<STATE> 2
<MEAN> 39
 -1.753622e+01 -8.204594e+00 -1.462866e-02 -1.274902e+01 6.569501e-01 -1.015124e+01 -3.384429e+00 -8.450905e+00 1.406321e+00 -7.180271e+00 1.848863e+00 -6.671419e+00 8.593498e+01 1.199284e+00 1.744543e+00 6.701918e-01 4.806478e-01 1.438684e+00 -2.590043e+00 -1.222204e+00 -2.001608e+00 -1.534123e+00 -7.854081e-01 -8.503602e-01 -9.930301e-01 3.509444e+00 7.601792e-01 1.167093e+00 1.365701e-02 1.304186e+00 5.973520e-01 -1.386533e-01 -1.076805e-02 -1.912515e-02 -9.234455e-01 2.043714e-01 -6.776344e-01 4.415027e-01 -1.767718e+00
<VARIANCE> 39
 6.187506e+00 2.634640e+01 9.897831e+00 3.686007e+01 3.050137e+01 1.350351e+01 1.729315e+01 1.635787e+01 2.350587e+01 3.091049e+01 1.573278e+01 2.273752e+01 1.076567e+02 3.488075e+00 8.747681e+00 1.319413e+00 1.193266e+01 3.392041e+00 2.316906e+00 1.140068e+00 2.252199e+00 7.634321e+00 3.357825e+00 3.530881e+00 2.444201e+00 2.199724e+01 2.783322e-01 6.362157e-01 2.445368e-01 1.016613e+00 5.048022e-01 3.581568e-01 4.035829e-01 2.786348e-01 6.662686e-01 7.890929e-01 3.649339e-01 5.360324e-01 2.320000e+00
<GCONST> 1.207011e+02
<STATE> 3
<MEAN> 39
 -3.868245e+00 8.003481e+00 -6.816492e+00 -9.387485e+00 1.372458e+01 -2.152594e+01 -1.098392e+00 -1.686242e+01 -1.112129e+01 -1.084208e+01 -7.877077e+00 -2.707746e+00 8.624198e+01 3.900191e-01 2.358251e-01 -5.612435e-01 3.266501e-01 1.957510e-01 -5.445237e-01 -3.495460e-02 -2.604612e-01 1.673846e-01 -2.668715e-02 -2.759862e-02 -3.896471e-02 9.973836e-02 -1.933758e-01 -2.106822e-01 7.249542e-02 -1.524991e-02 -1.781712e-01 7.971592e-02 -2.556410e-03 1.713086e-01 2.299842e-01 -2.789135e-02 1.098682e-01 -1.119647e-01 4.374198e-02
<VARIANCE> 39
 7.570855e+00 1.203564e+01 3.547730e+01 4.438485e+01 2.999971e+01 3.532955e+01 4.031159e+01 2.305002e+01 3.231546e+01 2.190080e+01 2.570456e+01 2.132461e+01 1.497327e+01 1.233479e+00 2.030094e+00 1.214049e+00 4.052850e+00 4.280292e+00 3.749404e+00 3.867892e+00 2.437858e+00 3.367899e+00 2.473207e+00 2.592300e+00 2.290224e+00 7.397544e-01 1.224006e-01 2.281876e-01 2.458017e-01 5.428716e-01 7.392849e-01 8.057758e-01 5.983258e-01 5.115966e-01 4.884360e-01 5.330004e-01 3.471669e-01 3.192314e-01 1.303409e-01
<GCONST> 1.111794e+02
<STATE> 4
<MEAN> 39
 -1.033437e+01 2.654495e+00 5.842189e+00 2.536519e+00 5.653580e+00 -2.955375e+01 -7.207099e+00 -7.995286e+00 -2.761957e+00 -1.845732e+01 -6.532266e-01 -8.284887e+00 8.821172e+01 -6.679248e-01 7.250091e-02 1.988402e+00 2.552758e-01 -1.512727e-01 -1.618847e-01 4.001172e-01 1.012620e+00 -1.719528e-01 -9.774574e-01 1.852628e-01 4.943628e-02 -5.789282e-01 3.991091e-02 3.698931e-02 -4.740332e-02 -1.263286e-01 1.132572e-01 1.819996e-01 1.868874e-01 -9.683733e-02 -1.083838e-01 1.071822e-01 -4.340290e-02 1.185459e-01 -1.190602e-01
<VARIANCE> 39
 7.967714e+00 1.990866e+01 8.854350e+01 8.653077e+00 1.268513e+01 2.608630e+01 1.615503e+01 4.394356e+01 2.389438e+01 4.284101e+01 1.385330e+01 1.881123e+01 1.356759e+01 2.367309e-01 1.052979e+00 1.171048e+00 7.413002e-01 1.358419e+00 2.768496e+00 1.335776e+00 2.039649e+00 1.318644e+00 2.032816e+00 9.333005e-01 2.001683e+00 6.162885e-01 3.809313e-02 1.726157e-01 2.459726e-01 1.601700e-01 1.753748e-01 6.662938e-01 1.592952e-01 3.076517e-01 2.996963e-01 4.090063e-01 2.200873e-01 4.413532e-01 5.248578e-02
<GCONST> 9.197818e+01
<STATE> 5
<MEAN> 39
 -1.504745e+01 -5.348426e-01 1.411840e+01 9.341849e-01 4.663443e+00 -1.610839e+01 9.454556e-01 -2.132516e+00 -5.179763e+00 -1.290150e+01 -1.749440e+00 -5.276877e+00 7.135658e+01 1.498663e-01 -6.882196e-01 -1.391477e+00 -4.650198e-01 -5.855307e-01 2.051303e+00 2.693401e-02 2.500422e-01 3.500675e-02 1.467072e+00 -1.654139e-01 5.137611e-01 -1.413562e+00 5.398311e-02 1.435785e-03 -1.619721e-01 -7.280599e-02 -7.499760e-02 -3.224383e-02 -1.137150e-01 6.222099e-03 4.401896e-02 2.091369e-03 2.827338e-02 4.438489e-02 7.057787e-02
<VARIANCE> 39
 5.675329e+00 2.892954e+01 8.477809e+01 2.612738e+01 2.786762e+01 1.176922e+02 2.617729e+01 2.976436e+01 2.330477e+01 7.015556e+01 1.316498e+01 2.113313e+01 5.718310e+01 9.542783e-01 1.542663e+00 6.859524e+00 2.458772e+00 1.979917e+00 5.371144e+00 2.556201e+00 1.808714e+00 2.184936e+00 2.898776e+00 1.571997e+00 2.001749e+00 8.681483e-01 1.264185e-01 3.193918e-01 1.236008e+00 4.764558e-01 4.343027e-01 1.042586e+00 4.399475e-01 2.622780e-01 4.434667e-01 5.402317e-01 3.097428e-01 4.358099e-01 1.490251e-01
<GCONST> 1.142412e+02
<TRANSP> 6
 0.000000e+00 1.000000e+00 0.000000e+00 0.000000e+00 0.000000e+00 0.000000e+00
 0.000000e+00 7.368652e-01 2.631348e-01 0.000000e+00 0.000000e+00 0.000000e+00
 0.000000e+00 0.000000e+00 9.515764e-01 4.842366e-02 0.000000e+00 0.000000e+00
 0.000000e+00 0.000000e+00 0.000000e+00 9.313186e-01 6.868140e-02 0.000000e+00
 0.000000e+00 0.000000e+00 0.000000e+00 0.000000e+00 9.258642e-01 7.413586e-02
 0.000000e+00 0.000000e+00 0.000000e+00 0.000000e+00 0.000000e+00 0.000000e+00
<ENDHMM>
