~o
<STREAMINFO> 1 39
<VECSIZE> 39<NULLD><MFCC_D_A_0><DIAGC>
~h "divide"
<BEGINHMM>
<NUMSTATES> 6
<STATE> 2
<MEAN> 39
 -9.253594e+00 2.898381e+00 5.337942e+00 -6.162084e+00 6.655294e+00 -1.780193e+01 -8.142349e+00 -9.774746e+00 -8.973039e+00 -1.548027e+01 -4.152261e+00 -9.068689e+00 8.191541e+01 9.089063e-01 1.815557e-01 -6.113510e-01 -5.454153e-01 -2.241846e-01 -2.099386e-01 1.383311e-01 -1.663614e-01 -7.429599e-01 -1.655772e-01 2.925718e-01 1.048806e-01 4.639355e-01 1.808867e-02 -8.784758e-02 -2.186240e-01 -6.605428e-02 -9.467659e-02 1.943958e-01 1.593264e-01 3.721356e-02 1.021540e-01 1.897135e-01 6.551385e-02 7.320566e-02 -1.923896e-01
<VARIANCE> 39
 3.845402e+01 3.087434e+01 4.361681e+01 6.363327e+01 3.182226e+01 6.462570e+01 5.094258e+01 3.259964e+01 3.594233e+01 2.700271e+01 2.919050e+01 2.136229e+01 1.550346e+01 4.263897e+00 2.898531e+00 3.396750e+00 5.354437e+00 3.174949e+00 7.760205e+00 5.280638e+00 1.939829e+00 3.609496e+00 4.011550e+00 3.051060e+00 2.282408e+00 2.432869e+00 8.621824e-01 3.864802e-01 2.654496e-01 8.188733e-01 3.449075e-01 9.728415e-01 7.117769e-01 3.797036e-01 8.268667e-01 6.807650e-01 5.084260e-01 3.877232e-01 5.685404e-01
<GCONST> 1.264432e+02
<STATE> 3
<MEAN> 39
 -1.517705e+00 -2.255325e+00 -1.687922e+01 -1.851321e+01 1.019095e+00 -1.393600e+01 1.668870e+00 -1.041829e+01 -4.168023e+00 -1.408231e+01 5.816507e+00 -4.788015e+00 8.821870e+01 -2.361236e-01 -1.493379e-01 -4.598807e-02 3.248257e-01 7.650883e-01 -3.596572e-01 -3.471991e-01 2.380871e-01 1.140540e+00 7.603142e-03 4.849996e-01 -2.419762e-01 4.364171e-02 -1.141777e-01 4.937243e-02 2.901700e-01 9.938870e-02 4.763898e-02 -1.298807e-01 -1.827664e-01 5.989544e-02 -3.949418e-02 -6.525924e-02 -1.654608e-02 -2.226757e-02 -5.120685e-02
<VARIANCE> 39
 2.993532e+00 7.409809e+00 1.874349e+01 7.245997e+00 3.766319e+01 3.330254e+01 2.667889e+01 2.988536e+01 5.623466e+01 2.405684e+01 3.416751e+01 1.350359e+01 3.830598e+00 2.910303e-01 5.503623e-01 2.795825e+00 6.886551e-01 1.125916e+00 2.488461e+00 1.934176e+00 1.045288e+00 1.232826e+00 1.409388e+00 1.487704e+00 9.637436e-01 7.967963e-02 2.854185e-02 1.128649e-01 1.347990e-01 1.019282e-01 1.793956e-01 2.293822e-01 1.318474e-01 1.650860e-01 2.341827e-01 2.490972e-01 2.885554e-01 1.573945e-01 2.168596e-02
<GCONST> 8.032355e+01
<STATE> 4
<MEAN> 39
 -1.023693e+01 -2.668779e+00 3.781763e+00 -7.358455e+00 1.100732e+01 -2.923445e+01 -1.315517e+01 -5.340871e+00 9.665564e-01 -1.523708e+01 9.371601e+00 -6.807326e+00 8.547663e+01 -5.761804e-01 5.055768e-01 1.991217e+00 1.131060e+00 3.161962e-01 -2.087470e-02 -2.064182e-01 -2.059068e-01 -1.357562e+00 -4.696026e-01 -1.315755e+00 1.954226e-01 -1.276024e+00 1.887244e-01 4.151829e-02 -5.805396e-01 -2.195234e-01 -1.381045e-01 7.201077e-01 4.747296e-01 -1.387957e-01 -1.067092e-01 2.461962e-01 -1.645607e-01 1.261818e-01 -3.834055e-01
<VARIANCE> 39
 5.476409e+00 1.794359e+01 5.506225e+01 1.762383e+01 1.349515e+01 1.909350e+01 1.802945e+01 2.375925e+01 3.301809e+01 1.746430e+01 2.177194e+01 1.186954e+01 1.370993e+01 5.082978e-01 9.000415e-01 3.288954e+00 7.616835e-01 1.168380e+00 5.508552e+00 4.095866e+00 1.414886e+00 1.172955e+00 1.626907e+00 1.652882e+00 9.411840e-01 1.674082e+00 2.844129e-02 2.460371e-01 4.389152e-01 1.690748e-01 4.277686e-01 3.227441e-01 3.129104e-01 2.875196e-01 3.407841e-01 5.052536e-01 2.441426e-01 2.324532e-01 1.147589e-01
<GCONST> 9.589822e+01
<STATE> 5
<MEAN> 39
 -1.628642e+01 -6.396240e+00 1.562518e+00 -9.569722e+00 1.408045e+00 -1.187734e+01 -6.876431e+00 -7.895493e+00 -2.432772e+00 -5.114786e+00 3.968035e-01 -3.557027e+00 7.178470e+01 -3.297642e-01 -4.957909e-01 -3.685678e-01 -2.810229e-01 -6.656085e-01 9.426101e-01 1.608730e-01 2.792473e-01 2.414185e-01 9.593382e-01 -9.894271e-02 2.113540e-01 -7.074056e-01 -2.015057e-02 2.434192e-02 1.182273e-01 7.360029e-02 3.886572e-02 -1.624780e-01 -1.002043e-01 5.513814e-02 2.083824e-02 -8.185194e-02 1.762507e-02 -2.772899e-02 1.063088e-01
<VARIANCE> 39
 3.859317e+01 2.491600e+01 1.739754e+01 2.616287e+01 2.756526e+01 2.989048e+01 2.071790e+01 1.935008e+01 2.129856e+01 3.578465e+01 2.231171e+01 2.316540e+01 7.489560e+01 4.332858e+00 1.849034e+00 3.987765e+00 3.275341e+00 2.960436e+00 5.746637e+00 3.058781e+00 2.556870e+00 1.943892e+00 4.740034e+00 2.197319e+00 2.823646e+00 1.309253e+01 8.593495e-01 3.633275e-01 7.534385e-01 6.727728e-01 5.063658e-01 8.708650e-01 7.421280e-01 4.380142e-01 3.988321e-01 7.983354e-01 4.918060e-01 5.329371e-01 2.278940e+00
<GCONST> 1.252879e+02
<TRANSP> 6
 0.000000e+00 1.000000e+00 0.000000e+00 0.000000e+00 0.000000e+00 0.000000e+00
 0.000000e+00 9.486647e-01 5.133526e-02 0.000000e+00 0.000000e+00 0.000000e+00
 0.000000e+00 0.000000e+00 9.439321e-01 5.606796e-02 0.000000e+00 0.000000e+00
 0.000000e+00 0.000000e+00 0.000000e+00 8.934175e-01 1.065826e-01 0.000000e+00
 0.000000e+00 0.000000e+00 0.000000e+00 0.000000e+00 9.447583e-01 5.524169e-02
 0.000000e+00 0.000000e+00 0.000000e+00 0.000000e+00 0.000000e+00 0.000000e+00
<ENDHMM>
