~o
<STREAMINFO> 1 39
<VECSIZE> 39<NULLD><MFCC_D_A_0><DIAGC>
~h "one"
<BEGINHMM>
<NUMSTATES> 6
<STATE> 2
<MEAN> 39
 -4.896158e+00 1.075899e+01 1.261779e+00 -1.334542e+01 -4.817379e+00 -1.783455e+01 -2.146413e+00 -4.088711e+00 -6.239764e+00 -9.124412e+00 -5.545735e+00 -9.044177e+00 8.101915e+01 6.829840e-01 -8.414299e-01 -1.010749e+00 -3.328027e-01 -9.391584e-01 -4.016414e-02 -1.419145e-02 1.786326e-01 2.064668e-01 -7.672664e-02 -1.600330e-01 3.335263e-01 2.466532e+00 -2.108798e-01 -3.451039e-01 -1.767677e-01 1.322482e-01 1.772203e-01 3.008734e-01 1.201586e-01 1.317095e-01 2.246773e-01 1.201635e-01 1.048506e-01 1.450371e-01 -1.541152e-01
<VARIANCE> 39
 1.974813e+01 5.236937e+01 2.885310e+01 4.849527e+01 6.287079e+01 6.312403e+01 6.015793e+01 2.467777e+01 2.583268e+01 4.372213e+01 2.312840e+01 2.934035e+01 9.229453e+01 1.734051e+00 8.788522e+00 2.820996e+00 3.509482e+00 5.672947e+00 6.343410e+00 2.973717e+00 2.086907e+00 3.949606e+00 5.218014e+00 2.082062e+00 2.456114e+00 2.827700e+00 2.955300e-01 1.510020e+00 5.515834e-01 6.884856e-01 1.097041e+00 9.710273e-01 5.147026e-01 3.748378e-01 7.318796e-01 1.001083e+00 4.970966e-01 3.663057e-01 5.444103e-01
<GCONST> 1.296684e+02
<STATE> 3
<MEAN> 39
 -5.861741e+00 2.858975e+00 -5.738469e+00 -1.520869e+01 -1.806921e+00 -1.296925e+01 1.585597e+00 -1.632679e+00 -4.411611e+00 -1.279228e+01 4.618538e+00 1.391614e-02 9.299319e+01 -4.347198e-01 4.933021e-01 3.798889e-01 7.521053e-02 1.191787e+00 -1.135583e-01 2.913924e-01 -4.731084e-01 -4.913890e-01 -3.717970e-01 1.858143e+00 1.342189e-01 -3.657527e-01 1.716230e-03 1.901959e-01 2.251378e-01 1.467947e-01 1.400581e-01 -2.419241e-02 -1.120543e-01 -1.374188e-01 -8.571858e-02 9.370961e-02 -1.570277e-01 -1.358936e-01 -2.611354e-01
<VARIANCE> 39
 5.373894e+00 1.241881e+01 1.583480e+01 1.132731e+01 3.597248e+01 2.355755e+01 3.310326e+01 3.121581e+01 4.666536e+01 3.081240e+01 9.800175e+01 2.364519e+01 4.521991e+00 1.770160e-01 8.543390e-01 1.215233e+00 1.417820e+00 1.757211e+00 2.030483e+00 1.475143e+00 2.671492e+00 2.145213e+00 2.896910e+00 3.534209e+00 2.752910e+00 6.360761e-01 4.462197e-02 1.946434e-01 1.885603e-01 3.355858e-01 2.790454e-01 5.041092e-01 1.791386e-01 4.258614e-01 4.830965e-01 5.257083e-01 1.024976e+00 3.373223e-01 1.000576e-01
<GCONST> 9.945076e+01
<STATE> 4
<MEAN> 39
 -7.747762e+00 5.287323e+00 3.881099e+00 -5.936277e+00 1.678298e+01 -1.033912e+01 -3.055800e+00 -7.541914e+00 -4.557128e+00 -7.613500e+00 6.523128e+00 -5.306645e+00 7.761429e+01 2.971067e-01 -5.194473e-01 5.657201e-01 1.093493e+00 6.466670e-01 7.534317e-01 -5.675181e-01 -1.969766e-02 3.005882e-01 6.555015e-01 -1.367165e+00 -1.283399e-01 -1.525123e+00 6.845397e-02 -1.263888e-01 -2.090162e-01 -7.862025e-02 -3.553863e-01 -5.464997e-02 3.048893e-02 9.538998e-02 -8.576318e-03 -4.764581e-02 9.673765e-02 5.403454e-02 1.057924e-01
<VARIANCE> 39
 1.616058e+01 1.476197e+01 1.653941e+01 2.913168e+01 4.064792e+01 3.879445e+01 2.498758e+01 2.283884e+01 5.950101e+01 2.785524e+01 7.672137e+01 1.382046e+01 3.024514e+01 6.101941e-01 6.086234e-01 1.399502e+00 3.361507e+00 4.312239e+00 2.231366e+00 1.793264e+00 2.303765e+00 2.022765e+00 2.153814e+00 3.734119e+00 9.778549e-01 1.273948e+00 1.174417e-01 1.421037e-01 2.159507e-01 6.728384e-01 6.168159e-01 4.264841e-01 3.216842e-01 3.964281e-01 3.482616e-01 3.879073e-01 7.576278e-01 1.426939e-01 2.006177e-01
<GCONST> 1.068282e+02
<STATE> 5
<MEAN> 39
 -5.674162e+00 8.467833e-01 4.011943e+00 3.264602e+00 8.561734e+00 -3.339147e+00 -6.551836e+00 -6.941177e+00 -5.370354e+00 -1.467230e+00 1.012431e+00 -5.357932e+00 6.693936e+01 -3.848598e-01 -3.195967e-01 -2.040159e-01 3.067291e-01 -7.559291e-01 4.971287e-01 1.083621e-01 2.946633e-01 8.621706e-02 3.918426e-01 -2.322757e-01 6.526763e-02 -6.811836e-01 -7.358336e-02 1.868779e-02 3.653678e-02 -1.170473e-01 1.138391e-01 -3.899809e-02 5.378231e-02 2.356382e-02 1.890952e-02 -5.053165e-02 6.232013e-03 2.856173e-02 4.732701e-02
<VARIANCE> 39
 1.565209e+01 1.952229e+01 1.634599e+01 8.288895e+00 2.795782e+01 1.848377e+01 2.530223e+01 2.114423e+01 1.986790e+01 5.436560e+01 2.469355e+01 2.080953e+01 1.470450e+01 6.576246e-01 7.042555e-01 9.334111e-01 9.750264e-01 1.671229e+00 1.481557e+00 1.792525e+00 1.687235e+00 1.465259e+00 1.979898e+00 1.246928e+00 1.547463e+00 2.089530e-01 7.989386e-02 1.167740e-01 1.431434e-01 1.408541e-01 2.586093e-01 2.948751e-01 2.920967e-01 3.487398e-01 2.704941e-01 3.473353e-01 2.578149e-01 3.178416e-01 3.471658e-02
<GCONST> 9.039577e+01
<TRANSP> 6
 0.000000e+00 1.000000e+00 0.000000e+00 0.000000e+00 0.000000e+00 0.000000e+00
 0.000000e+00 8.927296e-01 1.072704e-01 0.000000e+00 0.000000e+00 0.000000e+00
 0.000000e+00 0.000000e+00 9.222886e-01 7.771140e-02 0.000000e+00 0.000000e+00
 0.000000e+00 0.000000e+00 0.000000e+00 9.111102e-01 8.888984e-02 0.000000e+00
 0.000000e+00 0.000000e+00 0.000000e+00 0.000000e+00 9.245843e-01 7.541566e-02
 0.000000e+00 0.000000e+00 0.000000e+00 0.000000e+00 0.000000e+00 0.000000e+00
<ENDHMM>
