~o
<STREAMINFO> 1 39
<VECSIZE> 39<NULLD><MFCC_D_A_0><DIAGC>
~h "sil"
<BEGINHMM>
<NUMSTATES> 6
<STATE> 2
<MEAN> 39
 -1.558953e+01 -3.384727e+00 -4.509131e-01 -4.583858e+00 1.939492e+00 -3.063214e+00 -2.112152e+00 -3.654682e+00 -3.734670e+00 -2.724214e+00 -6.040988e-02 -1.837527e+00 6.193980e+01 2.888556e-02 -4.305664e-03 -7.671153e-02 9.907991e-02 -1.109409e-01 1.220395e-01 -1.894319e-02 -5.401120e-03 3.844873e-02 -4.480268e-02 -7.180285e-02 -3.127871e-02 -9.186430e-02 1.656953e-02 -6.557382e-03 4.628916e-03 2.256773e-02 -3.601642e-02 -2.707188e-02 -2.745210e-03 -1.743324e-02 3.704182e-02 -4.428767e-03 5.728242e-03 -1.198931e-02 2.856710e-02
<VARIANCE> 39
 2.263359e+01 2.433115e+01 3.644946e+01 4.175499e+01 2.544633e+01 3.075155e+01 2.353621e+01 3.408665e+01 2.444556e+01 2.036835e+01 2.330869e+01 2.011578e+01 1.684896e+01 1.253801e+00 1.328805e+00 1.642325e+00 2.032776e+00 2.148329e+00 2.224815e+00 2.160817e+00 2.202918e+00 2.124614e+00 2.001474e+00 1.599070e+00 1.531709e+00 1.695544e+00 2.225692e-01 2.330515e-01 2.953366e-01 3.431368e-01 4.018548e-01 3.937872e-01 4.143804e-01 4.082862e-01 4.180039e-01 3.911977e-01 3.039656e-01 2.944182e-01 3.212693e-01
<GCONST> 1.073345e+02
<STATE> 3
<MEAN> 39
 -1.551850e+01 -2.474365e+00 -1.245145e+00 -3.222715e+00 -4.564025e-01 -3.540789e+00 -2.004257e+00 -3.049850e+00 -2.188879e+00 -2.760986e+00 -1.325279e+00 -2.205264e+00 5.995487e+01 2.769989e-02 -3.523839e-02 3.560711e-03 2.486791e-02 -2.581482e-02 -1.849964e-03 2.786898e-02 -1.030145e-02 3.313985e-02 -2.703787e-02 -8.839355e-03 -1.955139e-02 5.101615e-02 1.492224e-03 -2.330974e-03 9.599295e-03 -1.439365e-02 9.013290e-03 -3.572984e-03 -8.456404e-03 6.091889e-05 -1.327529e-02 6.614010e-03 4.411012e-03 2.071765e-03 1.092256e-02
<VARIANCE> 39
 5.861377e+00 4.565446e+00 7.222655e+00 1.011182e+01 8.873455e+00 1.080643e+01 1.025308e+01 1.277622e+01 1.090324e+01 1.074961e+01 1.073008e+01 9.508202e+00 3.735334e+00 1.699410e-01 2.227059e-01 3.908565e-01 6.102589e-01 8.154948e-01 9.132984e-01 1.044299e+00 1.086107e+00 1.146045e+00 1.083750e+00 1.051076e+00 9.085433e-01 8.218554e-02 3.327890e-02 4.536142e-02 8.114059e-02 1.201494e-01 1.622011e-01 1.872583e-01 2.195194e-01 2.213725e-01 2.343125e-01 2.268749e-01 2.209549e-01 1.882328e-01 1.326627e-02
<GCONST> 6.411428e+01
<STATE> 4
<MEAN> 39
 -1.427739e+01 -4.354664e+00 -1.122157e+00 -2.802503e+00 -2.313217e+00 -2.472758e+00 -3.123597e+00 -1.721811e+00 -3.032246e+00 -1.951372e+00 -2.399534e+00 -1.561978e+00 5.905266e+01 -3.833213e-03 3.003231e-03 -8.534644e-03 1.096196e-02 -2.143006e-02 2.230773e-02 -2.491065e-02 9.168372e-03 -4.457855e-03 2.130372e-02 4.792790e-04 9.874803e-03 -3.822423e-02 6.270186e-04 3.626516e-03 4.542647e-03 -2.593214e-03 9.415586e-03 -3.728518e-03 6.212289e-03 5.681564e-03 -1.086092e-03 2.101199e-04 2.802928e-04 1.015332e-03 5.095001e-03
<VARIANCE> 39
 1.933769e+00 2.325354e+00 2.866557e+00 4.735161e+00 5.257725e+00 6.304972e+00 7.062124e+00 7.681379e+00 7.845239e+00 7.720826e+00 7.167808e+00 6.599354e+00 1.546591e+00 6.301954e-02 1.302791e-01 2.304563e-01 3.468042e-01 4.641950e-01 5.796491e-01 6.737764e-01 7.533758e-01 7.772068e-01 7.973298e-01 7.348820e-01 6.354222e-01 1.981411e-02 1.290656e-02 2.695957e-02 4.831439e-02 7.134748e-02 9.569225e-02 1.197973e-01 1.388983e-01 1.554131e-01 1.603605e-01 1.649977e-01 1.531102e-01 1.275773e-01 3.917545e-03
<GCONST> 4.215038e+01
<STATE> 5
<MEAN> 39
 -1.531948e+01 -2.431562e+00 5.527093e-01 -4.626161e+00 1.996936e+00 -4.203099e+00 -9.612294e-01 -3.430313e+00 -2.725878e+00 -2.944759e+00 -1.225622e+00 -2.755066e+00 6.397206e+01 5.368662e-02 4.225776e-02 3.556089e-01 -5.525103e-01 5.143078e-01 -6.036747e-01 1.662456e-01 -3.873754e-01 -1.634270e-01 -1.840458e-01 6.337777e-03 -2.492679e-01 1.232100e+00 1.682478e-02 6.554475e-03 3.717490e-02 -9.639192e-02 3.711475e-02 -1.614076e-01 2.391078e-03 -1.161193e-01 -2.903038e-02 -1.187449e-01 2.030611e-02 -6.763744e-02 3.079461e-01
<VARIANCE> 39
 2.235394e+01 2.793521e+01 2.603995e+01 4.178536e+01 2.800200e+01 4.041381e+01 2.279053e+01 2.829678e+01 2.528354e+01 2.029495e+01 2.167432e+01 1.535676e+01 4.221695e+01 2.709892e+00 3.188187e+00 2.734238e+00 3.610168e+00 3.108319e+00 4.412093e+00 2.434081e+00 2.645675e+00 2.887655e+00 2.630379e+00 2.386467e+00 1.548834e+00 6.534284e+00 4.422915e-01 5.364081e-01 4.975026e-01 6.580084e-01 5.700530e-01 7.593592e-01 5.008430e-01 4.788369e-01 4.794966e-01 4.890486e-01 4.267613e-01 2.887567e-01 9.866757e-01
<GCONST> 1.201587e+02
<TRANSP> 6
 0.000000e+00 6.148825e-01 3.851175e-01 0.000000e+00 0.000000e+00 0.000000e+00
 0.000000e+00 9.221160e-01 7.548261e-02 2.401379e-03 0.000000e+00 0.000000e+00
 0.000000e+00 0.000000e+00 9.508436e-01 3.272924e-02 1.642711e-02 0.000000e+00
 0.000000e+00 0.000000e+00 0.000000e+00 9.706858e-01 1.085236e-02 1.846186e-02
 0.000000e+00 0.000000e+00 0.000000e+00 0.000000e+00 8.972325e-01 1.027675e-01
 0.000000e+00 0.000000e+00 0.000000e+00 0.000000e+00 0.000000e+00 0.000000e+00
<ENDHMM>
