~o
<STREAMINFO> 1 39
<VECSIZE> 39<NULLD><MFCC_D_A_0><DIAGC>
~h "five"
<BEGINHMM>
<NUMSTATES> 6
<STATE> 2
<MEAN> 39
 -1.959476e+01 -7.709653e+00 -5.313382e+00 -1.283681e+01 3.335869e+00 -9.712208e+00 2.052695e+00 -7.637419e+00 -5.031585e-01 -7.710327e+00 3.292951e+00 -5.474282e+00 8.271320e+01 6.687248e-01 2.178829e-01 -1.988708e-01 -4.207593e-01 -5.288113e-01 -5.688986e-01 1.200553e-01 3.282653e-02 -1.508762e-01 -6.241554e-01 -3.042251e-01 1.573349e-01 1.212432e+00 7.769005e-02 2.550464e-02 7.514783e-03 2.789431e-02 -5.766511e-02 1.172877e-02 -5.041264e-02 9.783282e-02 3.547145e-02 -9.792819e-03 -7.812134e-03 4.466639e-02 -5.506795e-02
<VARIANCE> 39
 8.355535e+01 3.363457e+01 1.637017e+01 1.647018e+01 3.479340e+01 2.994909e+01 2.293585e+01 1.929446e+01 2.568908e+01 3.177945e+01 2.213072e+01 1.597610e+01 5.655833e+01 6.255804e+00 3.308858e+00 1.928205e+00 1.026150e+00 2.933423e+00 2.492391e+00 2.454098e+00 2.016224e+00 2.691640e+00 2.617624e+00 2.776596e+00 1.459242e+00 1.526482e+00 7.326851e-01 6.705104e-01 3.568462e-01 2.210589e-01 4.951777e-01 5.589705e-01 4.711654e-01 4.061125e-01 5.497445e-01 4.735458e-01 6.008929e-01 2.612560e-01 2.372760e-01
<GCONST> 1.151158e+02
<STATE> 3
<MEAN> 39
 -3.596375e+00 -4.292597e+00 -9.870357e+00 -1.683514e+01 -1.869387e+00 -1.198751e+01 1.991826e+00 -2.940732e+00 -1.915976e-01 -1.542484e+01 5.128708e-01 1.174249e-02 9.330992e+01 -2.505791e-01 -2.588226e-01 1.085310e-01 1.890153e-01 7.838432e-01 -4.036583e-01 -3.740864e-01 5.223116e-02 7.109280e-01 1.990332e-01 4.800295e-01 -1.801608e-01 4.819779e-02 -7.573045e-02 5.566010e-02 1.901731e-01 7.949211e-02 8.680210e-02 -2.191444e-01 -7.722311e-02 -6.209267e-02 1.089802e-02 4.552335e-02 -1.726607e-02 -9.702844e-02 -1.066508e-01
<VARIANCE> 39
 7.471290e+00 1.252516e+01 9.628539e+00 1.592742e+01 3.354498e+01 3.966083e+01 2.236861e+01 1.870376e+01 2.529898e+01 4.338100e+01 2.433134e+01 1.435421e+01 7.259968e+00 3.319579e-01 6.467742e-01 1.020367e+00 1.510258e+00 1.606126e+00 4.679085e+00 1.882669e+00 1.470724e+00 1.989998e+00 1.992255e+00 1.178217e+00 1.274441e+00 2.960145e-01 6.529228e-02 1.281540e-01 1.125028e-01 2.991335e-01 3.423175e-01 4.100109e-01 2.744419e-01 2.480264e-01 3.850244e-01 4.194855e-01 2.208321e-01 1.975844e-01 6.819998e-02
<GCONST> 9.134699e+01
<STATE> 4
<MEAN> 39
 -1.091899e+01 -3.963531e+00 5.441470e+00 -6.760651e+00 1.017164e+01 -2.966256e+01 -8.465229e+00 -6.156780e+00 2.537786e+00 -1.398009e+01 -2.937542e-01 -6.317600e+00 8.300129e+01 -4.794673e-01 -1.042288e-01 3.644419e-01 4.016438e-01 2.171469e-01 7.672052e-01 -4.282068e-02 -2.163460e-01 -5.602591e-01 3.063966e-01 -5.062634e-01 -1.860824e-01 -1.231369e+00 -1.554241e-01 3.201643e-03 -2.236031e-01 -1.499749e-01 -1.400955e-01 3.727809e-01 2.668123e-01 -2.552137e-02 -5.429323e-02 -2.488653e-02 1.129070e-01 1.046824e-01 9.969117e-02
<VARIANCE> 39
 1.394582e+01 2.965829e+01 4.768725e+01 3.183522e+01 3.396887e+01 8.631070e+01 2.171929e+01 1.956074e+01 4.817344e+01 5.258066e+01 5.601521e+01 2.748587e+01 5.677202e+01 1.807498e+00 2.348172e+00 5.238334e+00 2.228741e+00 2.796891e+00 1.016805e+01 3.513759e+00 1.494669e+00 2.776767e+00 5.829732e+00 3.259496e+00 2.095885e+00 1.105994e+00 4.680810e-01 4.228134e-01 5.411398e-01 2.834415e-01 5.244202e-01 1.145472e+00 6.000689e-01 3.079869e-01 6.643124e-01 1.154572e+00 6.163450e-01 4.693409e-01 2.412901e-01
<GCONST> 1.233737e+02
<STATE> 5
<MEAN> 39
 -2.364402e+01 -6.306494e+00 -1.587514e+00 -1.041129e+01 7.699801e+00 -7.212503e+00 9.301049e-01 -7.570342e+00 -1.647392e+00 -7.586815e+00 1.815920e+00 -5.249367e+00 7.438581e+01 3.552529e-02 9.415366e-02 6.456851e-03 1.750479e-01 -4.478891e-01 3.881624e-01 1.168265e-01 2.983258e-01 -9.246993e-02 2.473776e-01 -4.752988e-02 1.987890e-01 -5.712185e-01 1.693912e-01 -6.474050e-03 4.920774e-02 1.162697e-01 1.739440e-03 -6.848131e-02 -1.296225e-01 4.800580e-02 -1.083079e-02 1.525135e-02 -1.104988e-01 9.419558e-03 -7.055696e-02
<VARIANCE> 39
 5.272687e+01 2.544606e+01 1.346062e+01 3.111434e+01 3.004524e+01 3.632944e+01 2.019921e+01 2.667644e+01 2.351969e+01 2.017382e+01 2.626972e+01 1.758265e+01 5.822141e+01 3.769346e+00 1.548410e+00 1.290003e+00 2.329765e+00 2.354639e+00 1.945585e+00 1.732541e+00 1.634806e+00 1.535980e+00 1.913734e+00 2.327824e+00 1.376712e+00 2.355331e+00 2.509878e-01 2.044356e-01 2.135461e-01 3.315568e-01 3.860491e-01 3.961054e-01 2.661287e-01 2.739904e-01 2.929625e-01 4.014325e-01 3.447450e-01 2.369670e-01 2.273106e-01
<GCONST> 1.068494e+02
<TRANSP> 6
 0.000000e+00 1.000000e+00 0.000000e+00 0.000000e+00 0.000000e+00 0.000000e+00
 0.000000e+00 9.514201e-01 4.857992e-02 0.000000e+00 0.000000e+00 0.000000e+00
 0.000000e+00 0.000000e+00 9.428281e-01 5.717195e-02 0.000000e+00 0.000000e+00
 0.000000e+00 0.000000e+00 0.000000e+00 9.361664e-01 6.383357e-02 0.000000e+00
 0.000000e+00 0.000000e+00 0.000000e+00 0.000000e+00 9.538287e-01 4.617132e-02
 0.000000e+00 0.000000e+00 0.000000e+00 0.000000e+00 0.000000e+00 0.000000e+00
<ENDHMM>
