~o
<STREAMINFO> 1 39
<VECSIZE> 39<NULLD><MFCC_D_A_0><DIAGC>
~h "minus"
<BEGINHMM>
<NUMSTATES> 6
<STATE> 2
<MEAN> 39
 -2.269002e+00 7.855152e+00 -9.705315e-01 -1.342418e+01 5.120374e+00 -1.436399e+01 2.820291e+00 -8.242761e+00 -2.127342e+01 -1.778899e+01 -1.274088e+01 -5.602643e+00 7.690379e+01 1.194068e+00 -6.452420e-01 -2.136954e+00 -1.625239e+00 -1.810281e+00 -2.446282e+00 5.323709e-01 -9.418485e-01 4.381337e-01 -1.435608e+00 2.248437e+00 3.575496e-01 3.842732e+00 -7.261249e-01 -9.676891e-01 -4.614385e-01 1.508486e-01 -3.249754e-01 3.519284e-01 -1.537861e-02 9.425232e-02 8.448638e-01 8.067360e-01 8.096874e-01 3.394374e-01 -4.667490e-02
<VARIANCE> 39
 9.191523e+00 1.660272e+01 3.254973e+01 3.049659e+01 5.331045e+01 5.808980e+01 1.496092e+01 2.795147e+01 6.052135e+01 2.306547e+01 7.138755e+01 2.203117e+01 5.539492e+01 3.670617e+00 6.885880e+00 3.724895e+00 2.631187e+00 5.075371e+00 4.613795e+00 1.968601e+00 1.756194e+00 1.279836e+01 6.573205e+00 1.066795e+01 2.802016e+00 2.735152e+00 2.662579e-01 5.962598e-01 7.064654e-01 6.381404e-01 1.067817e+00 1.504361e+00 3.279945e-01 4.078003e-01 1.852233e+00 8.486123e-01 2.087592e+00 5.804654e-01 5.745732e-01
<GCONST> 1.309536e+02
<STATE> 3
<MEAN> 39
 -6.657831e+00 1.363222e+00 -4.035662e+00 -1.169427e+01 2.479123e+00 -2.220720e+01 -2.884023e+00 -1.198937e+01 -1.153811e+01 -1.152423e+01 -9.173559e-01 -1.113518e+01 8.773499e+01 -1.173462e-01 -1.689139e-02 1.668774e-01 1.120858e-01 3.129743e-01 -1.273645e-02 -3.071801e-01 -7.923738e-02 1.332660e-01 4.446778e-01 3.891717e-01 -5.793148e-02 4.003111e-02 4.945196e-02 2.241736e-02 5.043666e-02 -6.317198e-03 6.024835e-02 -2.226907e-03 -1.436542e-02 6.178620e-02 -1.506165e-02 2.078639e-02 -1.724279e-02 3.635762e-02 -7.121896e-02
<VARIANCE> 39
 1.048307e+01 3.486215e+01 7.287777e+01 2.380563e+01 1.852993e+01 7.896065e+01 3.768578e+01 1.726002e+01 2.423471e+01 3.304821e+01 3.586491e+01 3.480815e+01 4.694064e+01 1.325835e+00 2.672262e+00 2.828844e+00 1.419235e+00 1.346922e+00 7.242402e+00 1.542162e+00 1.870163e+00 1.593081e+00 2.779744e+00 4.752648e+00 2.264254e+00 2.828116e+00 2.729902e-01 3.948497e-01 3.485307e-01 2.615675e-01 3.079732e-01 1.192142e+00 2.739106e-01 3.929959e-01 3.068086e-01 4.161599e-01 7.686536e-01 3.093587e-01 3.842393e-01
<GCONST> 1.150582e+02
<STATE> 4
<MEAN> 39
 -9.122375e+00 -2.144377e+00 1.003687e+00 -1.450340e+01 7.146588e+00 -1.635657e+01 -4.712208e+00 -1.089707e+01 -9.813053e+00 -4.969333e+00 9.873517e+00 1.297682e+00 8.572456e+01 -1.122643e+00 -4.052942e-01 6.540087e-01 -1.932701e-01 -1.150709e-01 8.411903e-01 1.194832e-01 2.543581e-01 5.877388e-01 -6.522208e-03 -3.668124e-01 -5.414217e-02 -1.388308e-01 -2.931557e-01 7.117871e-03 4.104746e-04 -1.828532e-02 -8.194999e-02 3.673603e-02 5.649774e-02 1.645221e-02 8.231599e-02 -4.633257e-02 -1.207866e-01 -1.613674e-01 6.987600e-02
<VARIANCE> 39
 3.230866e+01 3.436649e+01 3.838695e+01 1.184211e+01 1.254113e+01 4.297955e+01 3.066476e+01 1.680547e+01 2.572838e+01 2.529885e+01 2.659084e+01 2.358139e+01 2.323844e+01 4.166409e+00 4.177378e+00 1.303253e+00 1.060878e+00 1.385540e+00 1.875591e+00 1.427166e+00 1.749088e+00 3.759836e+00 1.891890e+00 1.674524e+00 3.153710e+00 1.861125e+00 3.922441e-01 7.275904e-01 3.218098e-01 2.157594e-01 2.802231e-01 3.494022e-01 2.616912e-01 2.962161e-01 5.550419e-01 3.597408e-01 3.131835e-01 3.098805e-01 2.672099e-01
<GCONST> 1.086409e+02
<STATE> 5
<MEAN> 39
 -3.261032e+01 -6.164024e+00 3.185474e+00 -1.759123e+01 8.420094e+00 -8.518482e+00 2.689215e+00 -3.924505e+00 2.071852e+00 -3.135352e+00 2.805339e+00 -5.140596e+00 8.399689e+01 2.779896e-01 1.594517e-01 -1.864698e-01 1.606400e-01 -1.625718e-02 -6.439331e-02 1.515383e-01 2.437689e-01 -1.084399e-01 1.293205e-01 -1.759832e-01 1.300325e-01 -9.096669e-01 2.522655e-01 5.500047e-02 -1.143031e-02 9.855789e-02 2.666538e-02 1.360589e-02 -7.076112e-02 -8.449865e-03 -1.332836e-01 1.977434e-02 -3.057040e-02 8.213944e-02 -1.532344e-01
<VARIANCE> 39
 2.681255e+01 1.711922e+01 1.869002e+01 1.882159e+01 2.163828e+01 1.696498e+01 1.814880e+01 1.924181e+01 1.521195e+01 1.063684e+01 1.139576e+01 1.288746e+01 6.168683e+01 3.039860e+00 9.847447e-01 1.324512e+00 1.679908e+00 1.737990e+00 1.459430e+00 1.256730e+00 1.557732e+00 1.061876e+00 8.907609e-01 9.131925e-01 8.488585e-01 2.007862e+00 3.049023e-01 2.039492e-01 2.031851e-01 2.707278e-01 3.085176e-01 3.175697e-01 2.218424e-01 2.550015e-01 2.097051e-01 1.611138e-01 1.654066e-01 1.837125e-01 1.784685e-01
<GCONST> 9.403604e+01
<TRANSP> 6
 0.000000e+00 1.000000e+00 0.000000e+00 0.000000e+00 0.000000e+00 0.000000e+00
 0.000000e+00 8.181103e-01 1.818897e-01 0.000000e+00 0.000000e+00 0.000000e+00
 0.000000e+00 0.000000e+00 9.676875e-01 3.231243e-02 0.000000e+00 0.000000e+00
 0.000000e+00 0.000000e+00 0.000000e+00 9.430660e-01 5.693404e-02 0.000000e+00
 0.000000e+00 0.000000e+00 0.000000e+00 0.000000e+00 9.601440e-01 3.985603e-02
 0.000000e+00 0.000000e+00 0.000000e+00 0.000000e+00 0.000000e+00 0.000000e+00
<ENDHMM>
