~o
<STREAMINFO> 1 39
<VECSIZE> 39<NULLD><MFCC_D_A_0><DIAGC>
~h "seven"
<BEGINHMM>
<NUMSTATES> 6
<STATE> 2
<MEAN> 39
 -2.639284e+01 -7.994707e+00 3.044556e+00 -2.050542e+01 1.056320e+01 -1.536575e+01 4.629955e+00 -8.414695e+00 3.885513e+00 -3.612669e+00 1.882602e+00 -4.558570e+00 8.751928e+01 -5.208468e-02 2.462100e-01 4.306629e-02 2.804813e-02 2.651909e-01 -7.992300e-01 -6.454088e-02 -5.365033e-01 -1.731572e-01 -3.843446e-01 6.563693e-02 -1.777364e-01 1.158732e+00 2.492349e-01 1.859152e-01 -1.537305e-01 2.082141e-01 -1.901430e-01 -1.284658e-02 -2.021118e-01 1.874374e-02 -1.722246e-01 -5.016650e-02 -2.306162e-02 6.773497e-02 -1.594114e-01
<VARIANCE> 39
 6.254860e+01 1.777039e+01 1.702226e+01 2.461239e+01 2.788798e+01 3.022001e+01 3.233937e+01 2.028355e+01 1.133289e+01 1.654507e+01 1.265680e+01 1.027864e+01 4.025541e+01 8.329114e+00 2.847577e+00 2.198246e+00 3.315255e+00 2.961851e+00 2.659593e+00 4.484732e+00 3.405979e+00 2.418707e+00 1.946173e+00 1.433781e+00 1.342121e+00 2.887792e+00 6.990620e-01 4.732446e-01 3.855503e-01 4.716780e-01 2.637253e-01 4.751530e-01 4.401107e-01 6.021163e-01 3.553141e-01 3.824893e-01 3.025161e-01 2.930172e-01 2.568558e-01
<GCONST> 1.129614e+02
<STATE> 3
<MEAN> 39
 -6.330034e+00 3.152997e-02 -5.673362e+00 -1.470487e+01 5.886821e-01 -2.330105e+01 -6.410589e+00 -1.555212e+01 -4.157911e+00 -8.617081e+00 1.537667e+00 -2.788488e+00 9.463490e+01 1.179225e+00 1.874545e-01 -8.426019e-01 -2.113791e-01 -4.949270e-01 -5.353807e-01 2.289693e-01 8.504031e-02 -3.390029e-01 -7.885863e-01 2.162976e-01 5.197243e-01 -1.287461e-01 -4.584651e-01 -2.182533e-01 2.759379e-01 -5.962868e-02 4.070145e-01 1.981416e-01 5.580263e-01 1.863711e-01 8.173285e-02 -2.008938e-01 -3.744463e-02 -7.304478e-02 -4.165361e-01
<VARIANCE> 39
 2.634647e+00 5.788786e+00 1.390538e+01 9.005998e+00 8.239333e+00 2.429551e+01 1.149708e+01 2.054170e+01 1.873797e+01 3.741511e+01 1.281910e+01 2.379684e+01 4.996955e+00 1.911789e+00 8.467076e-01 1.293654e+00 8.817734e-01 1.649616e+00 1.738784e+00 2.519882e+00 2.549562e+00 2.883581e+00 4.148023e+00 1.369564e+00 1.963171e+00 1.761772e+00 5.890937e-01 2.626505e-01 1.930847e-01 2.407968e-01 1.251739e-01 4.212083e-01 3.292026e-01 6.916171e-01 8.322024e-01 7.688677e-01 3.000559e-01 3.950712e-01 1.028029e-01
<GCONST> 9.723101e+01
<STATE> 4
<MEAN> 39
 -4.841749e+00 -5.755836e-01 1.057773e-01 -1.408550e+01 7.070059e+00 -2.173763e+01 2.134450e+00 -1.572369e+01 -8.275835e+00 -1.613963e+01 3.900404e+00 -2.839145e+00 8.565959e+01 -8.363797e-02 1.204156e-01 6.183578e-01 3.261355e-01 7.184109e-01 4.195932e-01 1.486224e-01 4.227392e-02 -8.619245e-02 1.846224e-01 1.387886e-01 -4.384996e-02 -6.357167e-01 1.643496e-02 -2.654257e-02 -5.267071e-02 1.275026e-01 -1.413874e-02 7.948272e-02 -1.689160e-01 1.081491e-01 4.836213e-03 1.975298e-01 -1.112748e-01 4.742260e-02 1.680264e-02
<VARIANCE> 39
 1.143095e+01 2.346211e+01 2.500000e+01 2.434055e+01 1.885706e+01 4.303325e+01 2.041775e+01 2.423204e+01 2.397308e+01 4.712522e+01 6.797572e+01 3.138010e+01 3.064295e+01 1.488046e+00 2.180346e+00 1.905140e+00 3.905027e+00 2.145070e+00 5.050932e+00 2.015691e+00 2.251197e+00 2.537544e+00 4.509758e+00 6.017499e+00 4.293441e+00 5.018109e+00 3.617835e-01 4.008315e-01 3.779107e-01 6.249970e-01 3.510653e-01 8.989958e-01 3.819529e-01 4.600776e-01 4.858613e-01 7.429735e-01 9.053271e-01 9.483048e-01 5.941886e-01
<GCONST> 1.211234e+02
<STATE> 5
<MEAN> 39
 -4.729045e+00 8.315071e-01 3.770989e+00 -3.307715e-01 1.058234e+01 -6.600604e+00 -3.804737e+00 -8.684470e+00 -1.012187e+01 -5.309704e+00 -1.037187e+00 -2.945605e+00 6.942730e+01 -4.368831e-01 -3.555165e-01 -3.386451e-01 5.775213e-01 -8.798460e-01 1.091439e+00 -3.186132e-01 5.671582e-01 2.121827e-01 6.984867e-01 -3.683685e-01 -7.671339e-02 -1.082031e+00 -1.197571e-01 -1.449709e-02 -4.015822e-02 -2.162231e-01 -1.593354e-01 -1.233244e-01 1.014136e-01 -7.954241e-02 1.249207e-01 -5.235587e-02 1.941432e-01 -2.465061e-02 9.084212e-02
<VARIANCE> 39
 1.840372e+01 7.053769e+00 8.715796e+00 2.255749e+01 3.193640e+01 4.901823e+01 1.330713e+01 1.825448e+01 3.062453e+01 1.828493e+01 1.944886e+01 1.627774e+01 2.674356e+01 1.715444e+00 7.638004e-01 1.055398e+00 3.218981e+00 1.526908e+00 2.041240e+00 1.687914e+00 1.763804e+00 2.830973e+00 1.187887e+00 2.730242e+00 2.043529e+00 4.892881e-01 2.251280e-01 1.569106e-01 2.219999e-01 4.392152e-01 3.342034e-01 3.721261e-01 3.065437e-01 3.271483e-01 3.799844e-01 2.461466e-01 4.925061e-01 4.045930e-01 1.123241e-01
<GCONST> 9.975871e+01
<TRANSP> 6
 0.000000e+00 1.000000e+00 0.000000e+00 0.000000e+00 0.000000e+00 0.000000e+00
 0.000000e+00 9.492385e-01 5.076156e-02 0.000000e+00 0.000000e+00 0.000000e+00
 0.000000e+00 0.000000e+00 8.820073e-01 1.179927e-01 0.000000e+00 0.000000e+00
 0.000000e+00 0.000000e+00 0.000000e+00 9.486480e-01 5.135205e-02 0.000000e+00
 0.000000e+00 0.000000e+00 0.000000e+00 0.000000e+00 9.326673e-01 6.733268e-02
 0.000000e+00 0.000000e+00 0.000000e+00 0.000000e+00 0.000000e+00 0.000000e+00
<ENDHMM>
