~o
<STREAMINFO> 1 39
<VECSIZE> 39<NULLD><MFCC_D_A_0><DIAGC>
~h "plus"
<BEGINHMM>
<NUMSTATES> 6
<STATE> 2
<MEAN> 39
 -1.125033e+01 -3.787933e+00 -4.824121e+00 -1.182672e+01 -5.948633e+00 -1.120613e+01 3.247428e+00 -1.500349e+01 -8.158257e+00 -9.800559e+00 2.220387e+00 -1.138364e+00 8.535876e+01 8.727980e-01 7.198874e-01 -9.200598e-01 -4.976918e-01 -6.057482e-01 -1.233172e+00 2.810550e-01 -7.659329e-01 -1.158003e+00 -7.097124e-01 -2.056189e-01 1.499561e-01 1.376510e+00 4.910637e-02 3.006158e-02 -6.095865e-02 7.703982e-02 1.284274e-01 1.284157e-02 -7.611538e-02 2.507662e-01 1.335967e-01 1.404020e-01 -1.380724e-01 -3.941112e-02 -4.047659e-01
<VARIANCE> 39
 3.125374e+01 5.942329e+01 1.973634e+01 1.303792e+01 2.130882e+01 5.752362e+01 2.562468e+01 2.654573e+01 5.445982e+01 3.743427e+01 3.174818e+01 1.549424e+01 1.446469e+01 2.433587e+00 5.846645e+00 1.879065e+00 1.618317e+00 1.592528e+00 3.942984e+00 1.600083e+00 2.350423e+00 4.221913e+00 3.173591e+00 3.539361e+00 1.633331e+00 2.588391e+00 5.295349e-01 1.233001e+00 3.578505e-01 3.023542e-01 2.728651e-01 7.542518e-01 3.063910e-01 4.490968e-01 1.037567e+00 6.207367e-01 7.854140e-01 3.169087e-01 6.014031e-01
<GCONST> 1.185548e+02
<STATE> 3
<MEAN> 39
 -3.833285e+00 -5.607557e+00 -1.700328e+01 -1.639685e+01 2.419699e-01 -1.521229e+01 2.770472e+00 -1.306723e+01 -1.161059e+00 -1.260944e+01 3.791899e+00 -2.317362e+00 8.852145e+01 6.155385e-02 -4.856713e-01 -1.097171e-01 -2.173600e-01 5.935279e-01 4.200709e-01 -8.689416e-02 1.131697e-01 1.292658e+00 -1.309465e-01 2.783482e-01 1.956538e-01 -6.080719e-01 -8.017854e-02 1.543461e-01 1.634890e-01 1.610050e-02 -4.322538e-02 5.081657e-02 -3.316116e-02 -8.671055e-02 -7.940209e-02 -3.271288e-02 -7.677409e-03 6.725010e-02 -1.344887e-01
<VARIANCE> 39
 4.101914e+00 1.816134e+01 2.204917e+01 1.320347e+01 2.527378e+01 2.526360e+01 1.759443e+01 1.705378e+01 9.119216e+01 2.817011e+01 3.308162e+01 2.807796e+01 1.558555e+01 4.081811e-01 1.249288e+00 2.134973e+00 6.240065e-01 1.284807e+00 1.414979e+00 1.224065e+00 1.787867e+00 2.179896e+00 1.873015e+00 1.944103e+00 1.755823e+00 6.809447e-01 7.651983e-02 1.596157e-01 2.367748e-01 1.322783e-01 2.572823e-01 2.579042e-01 2.511722e-01 2.661992e-01 3.958761e-01 3.739860e-01 3.093216e-01 2.645876e-01 7.650901e-02
<GCONST> 9.423090e+01
<STATE> 4
<MEAN> 39
 -1.256148e+01 -3.709594e+00 -4.754791e+00 -1.928119e+01 5.592028e+00 -9.175862e+00 -4.416961e-01 -1.479157e+01 4.012979e+00 -1.056409e+01 6.954744e+00 1.562494e+00 7.669766e+01 -2.873607e+00 -1.909895e-01 2.147720e+00 -2.440612e-01 3.345412e-03 8.308716e-01 -3.289473e-01 1.178563e+00 -9.029828e-01 1.643756e+00 -3.465248e-01 -6.829464e-01 4.436399e-01 -4.913454e-01 -2.576858e-01 -9.043260e-02 1.073322e-01 -1.128851e-01 1.362806e-02 2.163597e-01 4.226279e-01 4.082688e-02 1.334794e-01 -1.234775e-01 -1.893557e-01 5.476742e-01
<VARIANCE> 39
 4.499474e+01 2.121666e+01 4.234632e+01 1.223126e+01 1.747918e+01 2.852172e+01 2.627564e+01 2.830204e+01 5.764326e+01 6.087638e+01 2.176642e+01 3.520366e+01 2.257327e+01 4.707920e+00 4.217371e+00 1.567085e+00 1.164849e+00 2.839228e+00 2.123375e+00 3.013695e+00 4.571910e+00 3.506512e+00 6.520051e+00 1.718719e+00 2.751677e+00 5.596725e+00 5.435562e-01 7.277232e-01 3.617945e-01 2.112266e-01 6.009095e-01 4.494380e-01 5.433807e-01 5.346767e-01 6.875593e-01 1.357104e+00 3.237086e-01 4.672849e-01 5.074631e-01
<GCONST> 1.212681e+02
<STATE> 5
<MEAN> 39
 -3.304090e+01 -5.795018e+00 2.781627e+00 -1.675023e+01 7.942845e+00 -7.646448e+00 2.914075e+00 -4.263499e+00 1.240257e+00 -3.103421e+00 1.845491e+00 -4.163511e+00 8.351784e+01 3.310958e-01 2.151397e-01 5.036202e-02 3.094948e-01 1.165353e-01 -1.182193e-01 3.889585e-02 6.460309e-02 -1.696604e-01 -3.650983e-03 -2.441889e-01 4.796922e-02 -7.914678e-01 2.523624e-01 3.568500e-02 -6.512503e-02 2.673913e-02 1.042803e-03 -1.163372e-02 -5.967198e-02 -6.228861e-02 -6.656061e-02 -2.441873e-02 -5.627413e-03 5.547538e-02 -1.730333e-01
<VARIANCE> 39
 3.581856e+01 6.885311e+00 1.137221e+01 1.384013e+01 1.781671e+01 1.680841e+01 1.575389e+01 1.211910e+01 1.114124e+01 9.140572e+00 9.055511e+00 7.126248e+00 4.665803e+01 3.336037e+00 6.342348e-01 7.413623e-01 8.734306e-01 1.454481e+00 1.399792e+00 1.558192e+00 1.571169e+00 1.241748e+00 1.325651e+00 9.473171e-01 7.372268e-01 2.250730e+00 3.631431e-01 1.429805e-01 1.330168e-01 1.548408e-01 2.432706e-01 2.427448e-01 2.780463e-01 3.533950e-01 2.321326e-01 3.426760e-01 1.866676e-01 1.310634e-01 1.466425e-01
<GCONST> 8.855117e+01
<TRANSP> 6
 0.000000e+00 1.000000e+00 0.000000e+00 0.000000e+00 0.000000e+00 0.000000e+00
 0.000000e+00 9.129129e-01 8.708712e-02 0.000000e+00 0.000000e+00 0.000000e+00
 0.000000e+00 0.000000e+00 9.433371e-01 5.666295e-02 0.000000e+00 0.000000e+00
 0.000000e+00 0.000000e+00 0.000000e+00 8.695593e-01 1.304406e-01 0.000000e+00
 0.000000e+00 0.000000e+00 0.000000e+00 0.000000e+00 9.585106e-01 4.148943e-02
 0.000000e+00 0.000000e+00 0.000000e+00 0.000000e+00 0.000000e+00 0.000000e+00
<ENDHMM>
