~o
<STREAMINFO> 1 39
<VECSIZE> 39<NULLD><MFCC_D_A_0><DIAGC>
~h "sil"
<BEGINHMM>
<NUMSTATES> 6
<STATE> 2
<MEAN> 39
 -1.558950e+01 -3.384722e+00 -4.509705e-01 -4.583925e+00 1.939476e+00 -3.063213e+00 -2.112143e+00 -3.654726e+00 -3.734705e+00 -2.724213e+00 -6.041873e-02 -1.837448e+00 6.193978e+01 2.888042e-02 -4.302969e-03 -7.670787e-02 9.907275e-02 -1.109387e-01 1.220393e-01 -1.893909e-02 -5.394795e-03 3.844829e-02 -4.480211e-02 -7.180617e-02 -3.127853e-02 -9.186540e-02 1.657058e-02 -6.558467e-03 4.628825e-03 2.256908e-02 -3.601688e-02 -2.707121e-02 -2.746152e-03 -1.743223e-02 3.704172e-02 -4.427346e-03 5.729704e-03 -1.198885e-02 2.856615e-02
<VARIANCE> 39
 2.263363e+01 2.433117e+01 3.645012e+01 4.175583e+01 2.544654e+01 3.075190e+01 2.353590e+01 3.408639e+01 2.444518e+01 2.036838e+01 2.330875e+01 2.011558e+01 1.684872e+01 1.253795e+00 1.328811e+00 1.642326e+00 2.032813e+00 2.148350e+00 2.224821e+00 2.160800e+00 2.202888e+00 2.124586e+00 2.001466e+00 1.599059e+00 1.531696e+00 1.695510e+00 2.225675e-01 2.330518e-01 2.953359e-01 3.431433e-01 4.018590e-01 3.937898e-01 4.143793e-01 4.082796e-01 4.179974e-01 3.911951e-01 3.039640e-01 2.944153e-01 3.212604e-01
<GCONST> 1.073344e+02
<STATE> 3
<MEAN> 39
 -1.551852e+01 -2.474383e+00 -1.245190e+00 -3.222764e+00 -4.564300e-01 -3.540825e+00 -2.004256e+00 -3.049867e+00 -2.188878e+00 -2.760996e+00 -1.325274e+00 -2.205269e+00 5.995487e+01 2.770036e-02 -3.523909e-02 3.560778e-03 2.486870e-02 -2.581446e-02 -1.849668e-03 2.786774e-02 -1.030259e-02 3.313953e-02 -2.703731e-02 -8.838189e-03 -1.955131e-02 5.101661e-02 1.492132e-03 -2.330691e-03 9.599522e-03 -1.439367e-02 9.013426e-03 -3.573089e-03 -8.455875e-03 6.072491e-05 -1.327530e-02 6.613791e-03 4.410111e-03 2.071207e-03 1.092258e-02
<VARIANCE> 39
 5.861365e+00 4.565426e+00 7.222554e+00 1.011179e+01 8.873507e+00 1.080646e+01 1.025314e+01 1.277629e+01 1.090330e+01 1.074966e+01 1.073006e+01 9.508278e+00 3.735297e+00 1.699437e-01 2.227075e-01 3.908583e-01 6.102625e-01 8.154990e-01 9.133058e-01 1.044309e+00 1.086118e+00 1.146056e+00 1.083755e+00 1.051083e+00 9.085488e-01 8.218607e-02 3.327947e-02 4.536196e-02 8.114064e-02 1.201499e-01 1.622023e-01 1.872598e-01 2.195221e-01 2.213744e-01 2.343152e-01 2.268756e-01 2.209559e-01 1.882340e-01 1.326634e-02
<GCONST> 6.411447e+01
<STATE> 4
<MEAN> 39
 -1.427738e+01 -4.354666e+00 -1.122167e+00 -2.802517e+00 -2.313228e+00 -2.472766e+00 -3.123605e+00 -1.721820e+00 -3.032253e+00 -1.951376e+00 -2.399540e+00 -1.561984e+00 5.905267e+01 -3.833205e-03 3.003613e-03 -8.534778e-03 1.096182e-02 -2.142937e-02 2.230877e-02 -2.490980e-02 9.168967e-03 -4.457755e-03 2.130393e-02 4.795109e-04 9.874870e-03 -3.822430e-02 6.270257e-04 3.626597e-03 4.542691e-03 -2.593241e-03 9.415529e-03 -3.728690e-03 6.212315e-03 5.681454e-03 -1.086395e-03 2.100952e-04 2.800729e-04 1.015443e-03 5.095029e-03
<VARIANCE> 39
 1.933755e+00 2.325337e+00 2.866541e+00 4.735151e+00 5.257724e+00 6.304958e+00 7.062181e+00 7.681386e+00 7.845292e+00 7.720858e+00 7.167822e+00 6.599378e+00 1.546591e+00 6.301959e-02 1.302793e-01 2.304562e-01 3.468040e-01 4.641933e-01 5.796480e-01 6.737785e-01 7.533762e-01 7.772073e-01 7.973335e-01 7.348823e-01 6.354243e-01 1.981411e-02 1.290655e-02 2.695962e-02 4.831430e-02 7.134733e-02 9.569174e-02 1.197973e-01 1.388993e-01 1.554138e-01 1.603610e-01 1.649988e-01 1.531103e-01 1.275778e-01 3.917540e-03
<GCONST> 4.215045e+01
<STATE> 5
<MEAN> 39
 -1.531946e+01 -2.431576e+00 5.527113e-01 -4.626196e+00 1.996953e+00 -4.203111e+00 -9.611874e-01 -3.430297e+00 -2.725896e+00 -2.944720e+00 -1.225636e+00 -2.755051e+00 6.397208e+01 5.368607e-02 4.225356e-02 3.556092e-01 -5.525200e-01 5.143127e-01 -6.036901e-01 1.662535e-01 -3.873832e-01 -1.634308e-01 -1.840519e-01 6.336147e-03 -2.492709e-01 1.232127e+00 1.682761e-02 6.553784e-03 3.717350e-02 -9.639357e-02 3.711391e-02 -1.614082e-01 2.391448e-03 -1.161198e-01 -2.902900e-02 -1.187476e-01 2.030676e-02 -6.763726e-02 3.079529e-01
<VARIANCE> 39
 2.235352e+01 2.793501e+01 2.603977e+01 4.178551e+01 2.800191e+01 4.041419e+01 2.279033e+01 2.829647e+01 2.528372e+01 2.029494e+01 2.167424e+01 1.535648e+01 4.221733e+01 2.709882e+00 3.188216e+00 2.734236e+00 3.610142e+00 3.108329e+00 4.412173e+00 2.434052e+00 2.645684e+00 2.887685e+00 2.630397e+00 2.386483e+00 1.548824e+00 6.534405e+00 4.422878e-01 5.364131e-01 4.975019e-01 6.580041e-01 5.700569e-01 7.593684e-01 5.008399e-01 4.788386e-01 4.795011e-01 4.890528e-01 4.267629e-01 2.887543e-01 9.866939e-01
<GCONST> 1.201588e+02
<TRANSP> 6
 0.000000e+00 6.148800e-01 3.851199e-01 0.000000e+00 0.000000e+00 0.000000e+00
 0.000000e+00 9.221166e-01 7.548214e-02 2.401315e-03 0.000000e+00 0.000000e+00
 0.000000e+00 0.000000e+00 9.508438e-01 3.272917e-02 1.642703e-02 0.000000e+00
 0.000000e+00 0.000000e+00 0.000000e+00 9.706858e-01 1.085236e-02 1.846183e-02
 0.000000e+00 0.000000e+00 0.000000e+00 0.000000e+00 8.972310e-01 1.027690e-01
 0.000000e+00 0.000000e+00 0.000000e+00 0.000000e+00 0.000000e+00 0.000000e+00
<ENDHMM>
