~o
<STREAMINFO> 1 39
<VECSIZE> 39<NULLD><MFCC_D_A_0><DIAGC>
~h "zero"
<BEGINHMM>
<NUMSTATES> 6
<STATE> 2
<MEAN> 39
 -2.529521e+01 -8.346674e+00 1.008061e+01 -1.912672e+01 1.164065e+01 -1.575013e+01 -4.539997e-01 -1.197493e+01 2.034129e+00 -8.311709e+00 1.088288e-01 -8.781824e+00 8.148464e+01 1.378739e+00 2.067410e-01 3.207115e-01 8.040395e-01 1.155470e-01 -1.739831e+00 -9.952964e-01 -9.880757e-01 -9.276879e-01 -6.226994e-01 -6.400563e-01 -7.560568e-01 1.600608e+00 5.397018e-01 1.673352e-01 -2.960086e-01 4.945288e-01 -3.906012e-01 -6.187349e-02 -2.256131e-01 1.311537e-01 -3.310477e-01 6.630417e-02 -1.521136e-01 1.465374e-01 -2.905215e-01
<VARIANCE> 39
 8.403282e+01 3.503623e+01 3.451423e+01 4.573564e+01 2.005433e+01 3.179972e+01 4.576664e+01 2.452285e+01 3.466771e+01 2.087250e+01 3.875240e+01 2.316436e+01 2.588646e+01 1.071009e+01 6.299114e+00 4.949552e+00 8.266150e+00 3.907947e+00 5.163216e+00 4.184299e+00 2.638001e+00 4.657640e+00 2.444254e+00 5.111852e+00 2.773769e+00 2.810894e+00 1.210601e+00 1.012566e+00 1.367095e+00 1.160805e+00 7.384671e-01 8.975461e-01 7.655632e-01 5.610316e-01 6.532065e-01 5.764802e-01 8.109908e-01 5.686032e-01 2.476926e-01
<GCONST> 1.328571e+02
<STATE> 3
<MEAN> 39
 -4.155429e+00 -2.651546e+00 4.154571e+00 -7.060744e+00 7.259254e+00 -3.373042e+01 -6.246406e+00 -1.987053e+01 -8.245697e+00 -1.073195e+01 -5.631451e+00 -1.085949e+01 8.655971e+01 5.855317e-01 1.522034e-01 -1.472812e+00 -2.023686e-01 2.819034e-01 -1.811511e-01 4.198562e-01 -2.830484e-01 -5.661797e-02 2.792727e-01 3.348577e-01 1.196994e-01 -1.515048e-01 -8.323146e-02 2.189295e-02 -2.916945e-02 -2.107692e-01 1.821256e-01 3.256980e-01 -1.207814e-02 5.092426e-02 7.482561e-02 -2.479143e-02 4.820374e-02 -2.173287e-02 -7.778280e-02
<VARIANCE> 39
 9.814149e+00 5.447251e+00 6.324294e+01 1.127592e+01 1.113520e+01 1.372941e+01 2.735254e+01 1.649335e+01 1.779377e+01 1.802394e+01 1.466728e+01 1.455335e+01 2.731393e+00 1.568825e-01 7.963879e-01 1.381264e+00 9.854350e-01 1.308670e+00 2.004865e+00 1.485991e+00 1.012620e+00 9.983132e-01 1.362713e+00 7.545207e-01 8.631110e-01 2.221843e-01 9.099316e-02 1.418201e-01 2.018312e-01 2.184616e-01 1.113919e-01 2.470541e-01 3.043855e-01 2.218485e-01 2.459708e-01 2.307435e-01 1.519163e-01 1.446669e-01 1.169911e-02
<GCONST> 7.858760e+01
<STATE> 4
<MEAN> 39
 3.162379e+00 4.675690e+00 -9.594866e+00 -2.150107e+01 1.552470e+01 -2.234291e+01 -4.632534e+00 -1.216679e+01 -9.770598e+00 -1.284157e+01 -9.786723e-01 -1.502304e+00 8.077304e+01 7.316248e-02 1.216394e-01 4.698696e-01 -5.985382e-01 -8.406302e-01 5.514915e-01 2.198187e-01 1.081301e+00 2.348514e-01 -7.788503e-01 -1.000662e-01 6.503228e-01 -2.891574e-01 -3.537035e-02 -3.051555e-02 1.189059e-01 1.242877e-01 -2.301528e-01 -4.979805e-02 6.750976e-02 3.474253e-02 1.690741e-02 7.605921e-03 -6.807022e-02 -7.703495e-02 -2.650341e-02
<VARIANCE> 39
 3.318657e+00 9.202627e+00 1.210409e+01 2.727111e+01 6.726406e+01 2.018776e+01 3.526738e+01 7.507901e+01 2.959645e+01 3.912809e+01 2.970901e+01 4.308332e+01 3.891486e+00 1.817963e-01 8.969585e-01 6.315179e-01 1.544442e+00 4.380303e+00 1.522950e+00 3.272944e+00 2.468047e+00 1.358842e+00 1.581778e+00 2.458037e+00 1.343175e+00 3.376787e-01 2.112378e-02 1.017372e-01 7.930897e-02 1.414223e-01 2.639525e-01 2.297908e-01 5.801834e-01 4.421370e-01 1.836423e-01 2.881740e-01 4.351936e-01 2.533321e-01 3.646213e-02
<GCONST> 9.132923e+01
<STATE> 5
<MEAN> 39
 -1.676010e+00 3.492068e+00 -1.495559e+00 -1.552654e+01 -9.857142e+00 -9.830936e+00 2.029000e+00 1.984126e+00 -5.242310e+00 -1.344014e+01 -8.286224e+00 -4.459643e+00 6.898619e+01 -6.738358e-01 -3.310443e-01 -1.024595e-01 7.004956e-01 -2.730058e-01 8.971568e-01 -1.135533e-02 2.634924e-01 2.158442e-01 1.164336e+00 1.746686e-02 -3.716156e-01 -8.370627e-01 -3.429715e-02 -5.729166e-02 -4.976624e-02 2.571365e-02 1.949628e-01 -4.111946e-02 -5.021627e-02 -1.161700e-01 6.074033e-03 5.886428e-02 6.810649e-02 8.239719e-02 3.601360e-02
<VARIANCE> 39
 2.057302e+01 2.217365e+01 1.761409e+01 2.050514e+01 1.578041e+01 5.514352e+01 2.316472e+01 2.225516e+01 1.967039e+01 6.652049e+01 2.189892e+01 2.086498e+01 2.079850e+01 6.375638e-01 1.324400e+00 1.085276e+00 1.132412e+00 2.076364e+00 1.909208e+00 1.450243e+00 1.881787e+00 2.179178e+00 1.653425e+00 2.352766e+00 1.985224e+00 2.184198e-01 8.823773e-02 1.465125e-01 1.311229e-01 2.018898e-01 2.517660e-01 3.279734e-01 2.669578e-01 3.907166e-01 4.407540e-01 2.859299e-01 3.588318e-01 2.570952e-01 3.132124e-02
<GCONST> 9.610699e+01
<TRANSP> 6
 0.000000e+00 1.000000e+00 0.000000e+00 0.000000e+00 0.000000e+00 0.000000e+00
 0.000000e+00 9.114158e-01 8.858421e-02 0.000000e+00 0.000000e+00 0.000000e+00
 0.000000e+00 0.000000e+00 9.378568e-01 6.214318e-02 0.000000e+00 0.000000e+00
 0.000000e+00 0.000000e+00 0.000000e+00 9.488679e-01 5.113214e-02 0.000000e+00
 0.000000e+00 0.000000e+00 0.000000e+00 0.000000e+00 9.440150e-01 5.598507e-02
 0.000000e+00 0.000000e+00 0.000000e+00 0.000000e+00 0.000000e+00 0.000000e+00
<ENDHMM>
