~o
<STREAMINFO> 1 39
<VECSIZE> 39<NULLD><MFCC_D_A_0><DIAGC>
~h "plus"
<BEGINHMM>
<NUMSTATES> 6
<STATE> 2
<MEAN> 39
 -1.124752e+01 -3.782846e+00 -4.828699e+00 -1.182774e+01 -5.950021e+00 -1.120973e+01 3.247299e+00 -1.500495e+01 -8.162415e+00 -9.803408e+00 2.221894e+00 -1.138033e+00 8.536291e+01 8.722214e-01 7.186391e-01 -9.201001e-01 -4.979845e-01 -6.045725e-01 -1.232630e+00 2.809063e-01 -7.647449e-01 -1.156229e+00 -7.081428e-01 -2.051522e-01 1.494313e-01 1.376027e+00 4.928214e-02 2.963038e-02 -6.051941e-02 7.698719e-02 1.284414e-01 1.296871e-02 -7.622847e-02 2.508521e-01 1.338831e-01 1.405641e-01 -1.386713e-01 -3.933507e-02 -4.047416e-01
<VARIANCE> 39
 3.124972e+01 5.943299e+01 1.976167e+01 1.303977e+01 2.130302e+01 5.753041e+01 2.563419e+01 2.653687e+01 5.445823e+01 3.743514e+01 3.173715e+01 1.549841e+01 1.448947e+01 2.432827e+00 5.846172e+00 1.878258e+00 1.617586e+00 1.593973e+00 3.941251e+00 1.599578e+00 2.351848e+00 4.225714e+00 3.176416e+00 3.539587e+00 1.633747e+00 2.587293e+00 5.293173e-01 1.232594e+00 3.580978e-01 3.022103e-01 2.727431e-01 7.541432e-01 3.063118e-01 4.488742e-01 1.037286e+00 6.206579e-01 7.857245e-01 3.168378e-01 6.010841e-01
<GCONST> 1.185563e+02
<STATE> 3
<MEAN> 39
 -3.832236e+00 -5.611917e+00 -1.700435e+01 -1.639837e+01 2.453447e-01 -1.521087e+01 2.770022e+00 -1.306595e+01 -1.154052e+00 -1.260934e+01 3.792098e+00 -2.317175e+00 8.851898e+01 6.143240e-02 -4.850742e-01 -1.090936e-01 -2.170702e-01 5.931842e-01 4.204755e-01 -8.702843e-02 1.126925e-01 1.292186e+00 -1.316627e-01 2.781520e-01 1.960475e-01 -6.087490e-01 -8.037836e-02 1.547086e-01 1.632976e-01 1.612753e-02 -4.323353e-02 5.076147e-02 -3.306215e-02 -8.683787e-02 -7.972052e-02 -3.281959e-02 -7.237227e-03 6.719410e-02 -1.344147e-01
<VARIANCE> 39
 4.099297e+00 1.812692e+01 2.205048e+01 1.319955e+01 2.525121e+01 2.526092e+01 1.758505e+01 1.705160e+01 9.116051e+01 2.817457e+01 3.309024e+01 2.808406e+01 1.558717e+01 4.084970e-01 1.249538e+00 2.135752e+00 6.239684e-01 1.284946e+00 1.415215e+00 1.224348e+00 1.787734e+00 2.180461e+00 1.871702e+00 1.943231e+00 1.755538e+00 6.809714e-01 7.646345e-02 1.593932e-01 2.366732e-01 1.323045e-01 2.573589e-01 2.577815e-01 2.512049e-01 2.662129e-01 3.956710e-01 3.738823e-01 3.087965e-01 2.646090e-01 7.649995e-02
<GCONST> 9.422263e+01
<STATE> 4
<MEAN> 39
 -1.256390e+01 -3.707610e+00 -4.752648e+00 -1.928142e+01 5.593122e+00 -9.175456e+00 -4.420694e-01 -1.479145e+01 4.011492e+00 -1.056211e+01 6.953946e+00 1.561859e+00 7.669576e+01 -2.874114e+00 -1.914904e-01 2.147788e+00 -2.440371e-01 3.244765e-03 8.307088e-01 -3.288363e-01 1.178997e+00 -9.030645e-01 1.644168e+00 -3.465386e-01 -6.833307e-01 4.444787e-01 -4.913945e-01 -2.579029e-01 -9.053276e-02 1.073244e-01 -1.130561e-01 1.359156e-02 2.164254e-01 4.226571e-01 4.098496e-02 1.333806e-01 -1.235119e-01 -1.893231e-01 5.479317e-01
<VARIANCE> 39
 4.498943e+01 2.120954e+01 4.234356e+01 1.223266e+01 1.747884e+01 2.852526e+01 2.628217e+01 2.830778e+01 5.763960e+01 6.087518e+01 2.176809e+01 3.520609e+01 2.256745e+01 4.708541e+00 4.217929e+00 1.567228e+00 1.165070e+00 2.839906e+00 2.123762e+00 3.014350e+00 4.572746e+00 3.506899e+00 6.520992e+00 1.719206e+00 2.751573e+00 5.595929e+00 5.437057e-01 7.278028e-01 3.618213e-01 2.112930e-01 6.009581e-01 4.494973e-01 5.434801e-01 5.348055e-01 6.876748e-01 1.357451e+00 3.237674e-01 4.673829e-01 5.073612e-01
<GCONST> 1.212718e+02
<STATE> 5
<MEAN> 39
 -3.304082e+01 -5.795016e+00 2.781633e+00 -1.675030e+01 7.942800e+00 -7.646489e+00 2.914023e+00 -4.263449e+00 1.240245e+00 -3.103469e+00 1.845532e+00 -4.163479e+00 8.351780e+01 3.310973e-01 2.151396e-01 5.036391e-02 3.094954e-01 1.165445e-01 -1.181987e-01 3.889652e-02 6.461291e-02 -1.696666e-01 -3.648815e-03 -2.441902e-01 4.797572e-02 -7.914644e-01 2.523602e-01 3.568415e-02 -6.512402e-02 2.674069e-02 1.043313e-03 -1.163047e-02 -5.967174e-02 -6.229012e-02 -6.656048e-02 -2.441604e-02 -5.626833e-03 5.547307e-02 -1.730330e-01
<VARIANCE> 39
 3.581940e+01 6.885302e+00 1.137231e+01 1.383999e+01 1.781668e+01 1.680836e+01 1.575366e+01 1.211912e+01 1.114152e+01 9.140796e+00 9.055493e+00 7.126160e+00 4.665829e+01 3.336038e+00 6.342517e-01 7.413416e-01 8.734885e-01 1.454514e+00 1.399855e+00 1.558162e+00 1.571184e+00 1.241767e+00 1.325700e+00 9.473025e-01 7.372038e-01 2.250723e+00 3.631420e-01 1.429844e-01 1.330149e-01 1.548514e-01 2.432833e-01 2.427511e-01 2.780400e-01 3.533976e-01 2.321373e-01 3.426855e-01 1.866632e-01 1.310600e-01 1.466403e-01
<GCONST> 8.855145e+01
<TRANSP> 6
 0.000000e+00 1.000000e+00 0.000000e+00 0.000000e+00 0.000000e+00 0.000000e+00
 0.000000e+00 9.129649e-01 8.703505e-02 0.000000e+00 0.000000e+00 0.000000e+00
 0.000000e+00 0.000000e+00 9.433231e-01 5.667690e-02 0.000000e+00 0.000000e+00
 0.000000e+00 0.000000e+00 0.000000e+00 8.695179e-01 1.304822e-01 0.000000e+00
 0.000000e+00 0.000000e+00 0.000000e+00 0.000000e+00 9.585107e-01 4.148930e-02
 0.000000e+00 0.000000e+00 0.000000e+00 0.000000e+00 0.000000e+00 0.000000e+00
<ENDHMM>
