~o
<STREAMINFO> 1 39
<VECSIZE> 39<NULLD><MFCC_D_A_0><DIAGC>
~h "two"
<BEGINHMM>
<NUMSTATES> 6
<STATE> 2
<MEAN> 39
 -2.023995e+01 -8.883679e+00 7.732818e-01 -8.156816e+00 2.104000e+00 -1.010732e+01 2.198285e-01 -1.204982e+01 -4.211448e+00 2.950853e-01 4.798736e+00 -7.703405e+00 8.995060e+01 7.405132e-01 6.408883e-01 -3.284545e-01 -2.686632e-01 5.968739e-01 -6.610285e-01 9.075598e-02 -1.084405e+00 -1.186185e+00 -3.518012e-01 -4.714507e-02 1.343636e-01 1.204652e+00 4.084297e-01 4.524893e-01 -5.196672e-02 1.914163e-01 -1.138513e-01 -7.121853e-02 2.855273e-02 7.489222e-02 -3.232537e-01 -3.263893e-01 -4.572389e-01 1.696396e-01 -6.227616e-01
<VARIANCE> 39
 2.312403e+01 1.460947e+01 1.712343e+01 1.010685e+01 2.135986e+01 2.435922e+01 1.570788e+01 2.321948e+01 1.901907e+01 1.706197e+01 2.051075e+01 1.455386e+01 4.724832e+01 3.879360e+00 3.949712e+00 1.781337e+00 1.598008e+00 1.933625e+00 5.232979e+00 1.749052e+00 2.035188e+00 3.797480e+00 3.167947e+00 5.778433e+00 2.240692e+00 1.226258e+01 3.555199e-01 3.610487e-01 3.873755e-01 2.712907e-01 5.474042e-01 1.078294e+00 3.661336e-01 3.809005e-01 5.134662e-01 5.112173e-01 5.970337e-01 3.757446e-01 1.679229e+00
<GCONST> 1.159410e+02
<STATE> 3
<MEAN> 39
 -7.196376e+00 5.075247e+00 2.987746e-01 -1.039086e+01 -3.247269e+00 -2.005004e+01 3.886824e+00 -1.581073e+01 -1.819115e+01 -1.089379e+01 -7.315343e+00 -5.066411e+00 9.086871e+01 4.273254e-01 6.166348e-01 4.479045e-01 -5.728508e-01 -5.077330e-01 -1.970318e-01 6.051140e-01 5.150450e-01 -1.374894e-01 -9.371077e-01 -5.890834e-01 -1.941334e-01 -1.440916e-03 -1.546907e-01 -1.757141e-01 1.446760e-01 -1.858584e-01 1.140321e-01 8.019374e-02 1.318607e-01 1.234846e-01 2.953209e-01 -4.699240e-03 2.365963e-01 -8.269956e-02 -1.462013e-01
<VARIANCE> 39
 4.119188e+00 1.317207e+01 1.347820e+01 1.583471e+01 2.040652e+01 4.318142e+01 4.945441e+01 2.976792e+01 2.837602e+01 3.082455e+01 1.584678e+01 2.068221e+01 1.048104e+01 8.403761e-01 1.352384e+00 1.374386e+00 1.930316e+00 2.115530e+00 5.515041e+00 4.563819e+00 3.183640e+00 3.862555e+00 2.833414e+00 2.077673e+00 1.572514e+00 1.284013e+00 1.518762e-01 2.647441e-01 2.559633e-01 4.387846e-01 3.018960e-01 1.127211e+00 8.461469e-01 6.553342e-01 5.897121e-01 5.567897e-01 4.511017e-01 3.038920e-01 2.080636e-01
<GCONST> 1.083505e+02
<STATE> 4
<MEAN> 39
 -7.159810e+00 8.888883e+00 6.962682e+00 -1.838457e+01 5.870424e-02 -1.844050e+01 8.683572e+00 -5.477221e+00 -1.141308e+01 -1.436341e+01 -9.648075e+00 -8.909789e+00 7.828431e+01 -1.891568e-02 -4.331710e-01 -3.470563e-01 -4.492924e-02 9.682556e-02 9.838063e-01 -6.616392e-01 7.842731e-01 6.344224e-01 9.285204e-01 3.321373e-01 2.255064e-01 -1.469254e+00 -2.581047e-02 -1.413252e-01 -2.177826e-01 3.441367e-01 -1.122129e-01 2.794492e-01 -2.663258e-01 1.770542e-02 7.992411e-02 2.662513e-01 1.073357e-01 1.872522e-01 -5.976856e-03
<VARIANCE> 39
 8.226695e+00 3.390950e+01 2.424418e+01 2.869545e+01 3.035496e+01 5.421338e+01 5.202908e+01 2.077752e+01 1.826042e+01 7.514452e+01 2.394868e+01 3.460394e+01 4.664167e+01 1.154978e+00 4.443630e+00 4.409726e+00 5.156751e+00 4.162289e+00 7.246695e+00 5.942206e+00 2.177692e+00 1.973698e+00 5.841477e+00 2.512695e+00 4.269701e+00 1.719360e+00 2.352344e-01 7.849519e-01 8.212264e-01 1.145590e+00 6.528500e-01 1.088701e+00 1.119769e+00 4.812725e-01 3.414762e-01 1.042340e+00 3.685378e-01 7.125599e-01 3.722862e-01
<GCONST> 1.260495e+02
<STATE> 5
<MEAN> 39
 -6.321498e+00 2.668512e+00 2.946266e+00 -3.741678e+00 -1.819602e+00 -1.827241e+00 4.647155e-01 4.898160e-01 -2.895233e+00 -2.680522e+00 -3.181453e+00 -2.939346e+00 6.477337e+01 -4.288044e-01 -2.151252e-01 3.407736e-01 1.723319e+00 4.593244e-01 7.183613e-01 -1.204045e-01 -8.077208e-02 4.868198e-01 3.058454e-01 2.432711e-01 1.421053e-01 -7.172673e-01 -8.263738e-02 5.304991e-02 8.728106e-02 -1.956077e-01 2.101853e-01 -2.241689e-01 8.611262e-02 -1.103783e-01 -1.268644e-01 -1.109378e-01 -9.843875e-02 -1.042973e-01 9.761158e-02
<VARIANCE> 39
 1.130621e+01 1.645021e+01 2.730379e+01 5.018339e+01 2.228174e+01 1.518040e+01 1.297577e+01 1.455601e+01 1.033913e+01 8.839207e+00 9.947352e+00 8.120382e+00 5.261191e+00 1.091135e+00 1.248130e+00 1.900912e+00 3.899300e+00 2.185672e+00 1.382941e+00 1.304785e+00 1.720692e+00 1.253483e+00 1.288526e+00 1.297854e+00 1.002738e+00 8.711154e-01 1.748400e-01 2.934459e-01 4.527325e-01 5.242285e-01 5.150999e-01 3.577097e-01 2.939231e-01 3.744937e-01 2.709889e-01 3.006116e-01 3.271527e-01 2.647447e-01 1.610336e-01
<GCONST> 9.550311e+01
<TRANSP> 6
 0.000000e+00 1.000000e+00 0.000000e+00 0.000000e+00 0.000000e+00 0.000000e+00
 0.000000e+00 8.946574e-01 1.053426e-01 0.000000e+00 0.000000e+00 0.000000e+00
 0.000000e+00 0.000000e+00 9.277305e-01 7.226949e-02 0.000000e+00 0.000000e+00
 0.000000e+00 0.000000e+00 0.000000e+00 9.241374e-01 7.586262e-02 0.000000e+00
 0.000000e+00 0.000000e+00 0.000000e+00 0.000000e+00 8.967847e-01 1.032153e-01
 0.000000e+00 0.000000e+00 0.000000e+00 0.000000e+00 0.000000e+00 0.000000e+00
<ENDHMM>
