~o
<STREAMINFO> 1 39
<VECSIZE> 39<NULLD><MFCC_D_A_0><DIAGC>
~h "nine"
<BEGINHMM>
<NUMSTATES> 6
<STATE> 2
<MEAN> 39
 -3.250736e+00 6.732234e+00 5.822753e+00 -6.120651e+00 1.271914e+01 -1.571243e+01 3.187161e+00 -1.227974e+01 -1.553839e+01 -5.822766e+00 -5.405419e+00 -3.578254e+00 7.693820e+01 5.094764e-01 -3.680577e-01 -4.729389e-01 -1.834279e+00 -6.629547e-01 -1.524722e+00 1.196085e+00 -3.166917e-01 2.182574e-01 -5.324073e-01 1.509973e+00 7.125382e-02 2.780961e+00 -2.958044e-01 -4.305983e-01 -4.808333e-01 -2.224046e-01 -3.552412e-01 1.655432e-01 9.089989e-02 4.123504e-01 3.516430e-01 -2.785279e-02 2.750427e-01 1.353343e-01 7.129643e-03
<VARIANCE> 39
 9.106085e+00 1.906404e+01 1.106595e+01 4.888336e+01 5.084372e+01 3.067731e+01 4.261561e+01 2.639064e+01 3.809499e+01 1.569809e+01 5.015570e+01 2.000267e+01 6.884853e+01 2.860183e+00 4.321640e+00 3.040443e+00 2.428559e+00 7.999831e+00 3.730831e+00 3.016918e+00 3.905142e+00 5.758976e+00 1.295149e+00 4.896634e+00 2.131512e+00 2.268464e+00 3.066429e-01 5.519565e-01 2.970937e-01 4.818631e-01 1.280994e+00 9.051930e-01 6.242359e-01 5.362523e-01 8.453111e-01 2.412682e-01 8.660371e-01 4.513356e-01 5.809508e-01
<GCONST> 1.228527e+02
<STATE> 3
<MEAN> 39
 -4.088768e+00 -1.592945e+00 -7.229197e+00 -2.017656e+01 7.498883e+00 -1.873975e+01 1.025330e+01 -6.457713e+00 -2.001617e+00 -1.693051e+01 5.929482e+00 2.630211e+00 9.296960e+01 -6.350405e-02 -2.308192e-01 -2.011886e-01 -7.180595e-02 6.016286e-01 -1.312071e-02 -3.517166e-01 1.680977e-01 7.828578e-01 -4.292904e-01 3.441938e-01 -2.705366e-02 -2.833454e-02 -3.980160e-02 4.373258e-02 2.255423e-01 1.609075e-01 7.462511e-02 -9.208994e-02 -1.101164e-01 -7.036959e-02 1.327359e-02 8.117010e-02 -5.253606e-02 -1.580273e-01 -1.323878e-01
<VARIANCE> 39
 2.439112e+00 6.492843e+00 1.605329e+01 8.817099e+00 2.203681e+01 2.270770e+01 1.567658e+01 1.046817e+01 3.701768e+01 3.694858e+01 2.280966e+01 2.025772e+01 2.934716e+00 2.055592e-01 4.702359e-01 1.548389e+00 7.716014e-01 1.269417e+00 2.895491e+00 1.148524e+00 1.045007e+00 1.492590e+00 2.553014e+00 1.892864e+00 2.423471e+00 2.602274e-01 3.218563e-02 8.769458e-02 1.415420e-01 2.095569e-01 2.698464e-01 4.832353e-01 1.492618e-01 1.719608e-01 2.830679e-01 3.548037e-01 4.416516e-01 2.546075e-01 1.165884e-01
<GCONST> 8.426142e+01
<STATE> 4
<MEAN> 39
 -1.021321e+01 -3.592804e+00 7.788947e+00 -1.062266e+01 1.368572e+01 -3.397376e+01 -1.089212e+00 -5.302513e+00 6.874105e+00 -1.602077e+01 8.176692e+00 -7.647280e+00 8.745351e+01 -5.333367e-01 1.548213e-02 1.782986e+00 1.203735e+00 -1.758572e-01 -1.121697e+00 -3.942633e-01 3.430386e-01 -4.672010e-01 -1.155179e-01 -1.001612e+00 -2.629070e-01 -8.141881e-01 8.386566e-03 -2.660270e-02 -5.536741e-02 -3.296501e-02 -4.988032e-02 2.735901e-01 1.360319e-01 4.706778e-02 -2.101889e-01 -5.615558e-02 -8.795436e-02 1.882193e-01 -7.279643e-02
<VARIANCE> 39
 7.991409e+00 5.548615e+00 5.929031e+01 2.786449e+01 1.089118e+01 3.186424e+01 1.009539e+01 1.479032e+01 2.069497e+01 1.050020e+01 3.002634e+01 1.660214e+01 1.373330e+01 2.045035e-01 4.880669e-01 4.851435e-01 5.528089e-01 7.775818e-01 1.797601e+00 1.172057e+00 1.238051e+00 1.691578e+00 1.243228e+00 1.104485e+00 1.621387e+00 2.119757e-01 3.372621e-02 6.592167e-02 6.993389e-02 8.083384e-02 1.440632e-01 1.812886e-01 1.481529e-01 1.996703e-01 1.735577e-01 2.192421e-01 2.323678e-01 1.840503e-01 1.729346e-02
<GCONST> 7.588023e+01
<STATE> 5
<MEAN> 39
 -1.526586e+01 -8.113523e+00 1.586837e+01 -2.190853e+00 4.766554e+00 -2.672843e+01 -1.150076e+00 3.064500e+00 -6.597605e+00 -1.330596e+01 -4.164233e-01 -1.168801e+00 7.276258e+01 1.929263e-02 -1.907758e-01 -1.100372e+00 4.954688e-01 -1.218696e+00 1.986821e+00 -3.328055e-02 5.916643e-01 -5.607298e-01 8.057401e-01 -2.151432e-01 5.054680e-01 -1.387513e+00 6.857803e-02 9.286049e-02 -2.119243e-01 -8.953878e-02 -3.090565e-02 8.466811e-02 -2.592480e-02 -1.367520e-01 1.984602e-01 4.858747e-02 2.304412e-02 -6.274954e-02 1.582410e-02
<VARIANCE> 39
 1.441617e+01 2.576164e+01 4.537006e+01 1.788981e+01 6.075771e+01 9.086850e+01 2.145743e+01 3.542245e+01 4.076137e+01 3.061037e+01 1.697084e+01 3.347221e+01 3.175555e+01 8.537890e-01 1.312223e+00 2.233747e+00 1.281584e+00 2.693054e+00 1.863438e+00 1.829760e+00 2.398194e+00 2.895500e+00 2.004893e+00 1.405439e+00 1.783361e+00 4.067305e-01 1.205062e-01 1.407603e-01 1.998729e-01 3.085041e-01 5.565353e-01 3.033180e-01 3.909689e-01 3.922903e-01 4.049403e-01 3.760674e-01 2.568485e-01 3.164120e-01 4.821680e-02
<GCONST> 1.045673e+02
<TRANSP> 6
 0.000000e+00 1.000000e+00 0.000000e+00 0.000000e+00 0.000000e+00 0.000000e+00
 0.000000e+00 8.967026e-01 1.032974e-01 0.000000e+00 0.000000e+00 0.000000e+00
 0.000000e+00 0.000000e+00 9.470710e-01 5.292897e-02 0.000000e+00 0.000000e+00
 0.000000e+00 0.000000e+00 0.000000e+00 9.210567e-01 7.894333e-02 0.000000e+00
 0.000000e+00 0.000000e+00 0.000000e+00 0.000000e+00 9.222300e-01 7.777002e-02
 0.000000e+00 0.000000e+00 0.000000e+00 0.000000e+00 0.000000e+00 0.000000e+00
<ENDHMM>
