~o
<STREAMINFO> 1 39
<VECSIZE> 39<NULLD><MFCC_D_A_0><DIAGC>
~h "multiply"
<BEGINHMM>
<NUMSTATES> 6
<STATE> 2
<MEAN> 39
 -4.812406e+00 6.821450e+00 -3.145531e+00 -1.469170e+01 -2.160275e+00 -1.554891e+01 1.093493e+01 -8.211272e+00 -2.352974e+01 -1.672381e+01 -4.494347e+00 -8.312810e+00 8.174989e+01 -3.963681e-01 7.351383e-03 -2.631512e-02 -1.851058e-01 -1.812779e-01 -1.948372e-01 6.095151e-02 -3.526662e-01 4.517424e-01 -1.224989e-01 3.977810e-01 -2.928145e-01 7.761961e-01 -3.090274e-01 -2.794102e-01 -7.625217e-02 8.497690e-02 -1.131012e-01 1.510347e-01 -1.436459e-01 3.152743e-02 4.118771e-01 2.937947e-01 2.366766e-01 1.228923e-01 1.594926e-02
<VARIANCE> 39
 1.820455e+01 1.296324e+01 4.712794e+01 2.449944e+01 7.970522e+01 3.188620e+01 4.249852e+01 2.130653e+01 4.990977e+01 2.268215e+01 6.242154e+01 3.373081e+01 5.277247e+01 5.419919e+00 2.684098e+00 3.759442e+00 3.149329e+00 6.903833e+00 5.514496e+00 4.562998e+00 2.727419e+00 1.255668e+01 3.788400e+00 7.233638e+00 3.225324e+00 6.324100e+00 5.845432e-01 6.395808e-01 6.211444e-01 5.247747e-01 9.935005e-01 8.941267e-01 6.267176e-01 5.836710e-01 1.721160e+00 7.030663e-01 1.248095e+00 6.035063e-01 6.572359e-01
<GCONST> 1.339163e+02
<STATE> 3
<MEAN> 39
 -1.209382e+01 -1.724912e+00 -1.263417e+00 -7.744959e+00 -2.791327e-01 -1.601245e+01 -2.102597e+00 -9.361347e+00 -3.917877e+00 -8.017728e+00 7.342160e-01 -3.876611e+00 8.091339e+01 3.202017e-01 -1.786961e-02 -3.163633e-01 -2.283249e-01 -1.264212e-01 -1.436827e-01 9.560547e-03 1.071535e-01 1.378065e-01 -8.288567e-02 1.324401e-01 3.828727e-01 2.177323e-01 1.193071e-01 4.592121e-02 -9.263061e-03 -2.028859e-02 1.073961e-01 -4.018666e-02 6.924873e-02 2.067914e-02 -1.004110e-01 -8.942180e-02 -6.394587e-02 -1.123133e-02 -7.397997e-02
<VARIANCE> 39
 3.155997e+01 5.557620e+01 1.794310e+01 4.494306e+01 3.839783e+01 9.818112e+01 3.382189e+01 2.124693e+01 1.870776e+01 3.931492e+01 3.179051e+01 2.545202e+01 9.711973e+01 2.911927e+00 7.479354e+00 2.219020e+00 2.180149e+00 3.455984e+00 6.817664e+00 2.904965e+00 2.224815e+00 2.930806e+00 5.202057e+00 3.729799e+00 2.042076e+00 6.194718e+00 6.582453e-01 1.308740e+00 4.192317e-01 3.361192e-01 5.550138e-01 1.006083e+00 5.171926e-01 4.445660e-01 8.030937e-01 8.438980e-01 7.473017e-01 4.282145e-01 8.607138e-01
<GCONST> 1.289457e+02
<STATE> 4
<MEAN> 39
 -6.916810e+00 -1.067142e+00 -1.147723e+01 -2.047944e+01 8.555636e+00 -1.337624e+01 9.385294e-01 -1.027510e+01 1.060902e+01 -1.827653e+01 4.255054e+00 1.168412e+00 8.953307e+01 -1.791201e-01 -3.291669e-01 2.433011e-01 3.136797e-01 6.804050e-01 -2.844349e-01 -6.127157e-01 -1.527169e-01 9.000360e-01 7.336339e-02 1.721495e-01 -4.906235e-01 -3.232852e-01 -7.904815e-02 1.017703e-01 2.036801e-01 1.344348e-01 -1.472432e-01 -9.785162e-02 -6.464262e-02 1.661124e-02 -1.473304e-01 2.745244e-02 -5.998169e-02 -6.930438e-02 -7.993946e-02
<VARIANCE> 39
 4.025834e+00 1.230844e+01 1.482812e+01 1.102963e+01 4.121709e+01 2.476872e+01 1.938340e+01 1.804496e+01 4.536949e+01 2.468976e+01 1.499011e+01 3.221316e+01 1.117554e+01 3.115955e-01 7.267085e-01 1.488799e+00 1.276144e+00 1.913347e+00 1.975096e+00 1.013837e+00 1.039803e+00 2.058877e+00 1.735105e+00 1.045372e+00 1.162990e+00 2.691753e-01 5.475451e-02 1.170258e-01 1.409209e-01 1.724436e-01 2.666751e-01 2.170801e-01 1.526281e-01 2.215527e-01 2.308987e-01 2.730909e-01 1.962453e-01 1.957950e-01 4.082864e-02
<GCONST> 8.554805e+01
<STATE> 5
<MEAN> 39
 -1.308398e+01 -8.642740e+00 5.046072e+00 -3.262099e+00 3.055851e+00 -2.415416e+01 -7.681039e+00 7.911813e-01 4.718109e+00 -1.089565e+01 -5.919024e-02 -3.864783e+00 7.431331e+01 -1.443725e-01 -3.383420e-01 2.454168e-01 7.678899e-01 -6.720568e-01 2.654690e-01 1.109016e-01 8.807911e-01 -7.351112e-01 3.610547e-01 -4.443592e-01 2.607785e-01 -1.077974e+00 4.365969e-02 6.413186e-02 -1.163130e-01 -1.206706e-01 5.383913e-02 1.818593e-01 4.579881e-02 -1.004910e-01 -2.459981e-03 -2.689552e-03 -3.963888e-03 1.415231e-02 9.089834e-03
<VARIANCE> 39
 7.197977e+00 3.375700e+01 4.463226e+01 4.527705e+01 7.613467e+01 4.479716e+01 2.063958e+01 9.005864e+01 5.536792e+01 4.066788e+01 3.157228e+01 3.435239e+01 5.690462e+01 8.972286e-01 1.782220e+00 2.443501e+00 1.742844e+00 3.440396e+00 3.753043e+00 1.682301e+00 3.227374e+00 1.998016e+00 3.251740e+00 1.860747e+00 1.503876e+00 4.235229e-01 1.414922e-01 2.138572e-01 1.975006e-01 2.804191e-01 5.375719e-01 4.638447e-01 2.799087e-01 4.578995e-01 3.570159e-01 6.505556e-01 3.653751e-01 2.449458e-01 7.768022e-02
<GCONST> 1.111398e+02
<TRANSP> 6
 0.000000e+00 1.000000e+00 0.000000e+00 0.000000e+00 0.000000e+00 0.000000e+00
 0.000000e+00 9.553596e-01 4.464040e-02 0.000000e+00 0.000000e+00 0.000000e+00
 0.000000e+00 0.000000e+00 9.730893e-01 2.691068e-02 0.000000e+00 0.000000e+00
 0.000000e+00 0.000000e+00 0.000000e+00 9.430327e-01 5.696725e-02 0.000000e+00
 0.000000e+00 0.000000e+00 0.000000e+00 0.000000e+00 9.523455e-01 4.765450e-02
 0.000000e+00 0.000000e+00 0.000000e+00 0.000000e+00 0.000000e+00 0.000000e+00
<ENDHMM>
