~o
<STREAMINFO> 1 39
<VECSIZE> 39<NULLD><MFCC_D_A_0><DIAGC>
~h "four"
<BEGINHMM>
<NUMSTATES> 6
<STATE> 2
<MEAN> 39
 -1.691279e+01 -3.894050e+00 -2.833274e+00 -1.466609e+01 4.366730e+00 -1.249786e+01 7.585484e-01 -5.134930e+00 -3.275696e+00 -6.171674e+00 8.429544e-01 -7.920988e+00 8.123859e+01 7.068700e-01 3.915066e-01 2.110290e-01 -6.543484e-01 -7.999797e-01 -1.080761e+00 -4.162069e-01 -4.483679e-01 -1.289459e-01 -2.343057e-01 -2.439306e-01 -1.863358e-01 1.048010e+00 6.056816e-02 -5.480065e-03 -3.631212e-02 1.197265e-01 -1.302555e-01 6.653483e-02 -1.131277e-01 -5.622031e-02 -6.578319e-03 6.196719e-02 4.087463e-03 1.425525e-01 -4.017491e-02
<VARIANCE> 39
 8.195223e+01 5.113057e+01 3.470231e+01 4.196676e+01 5.829093e+01 5.840380e+01 3.377510e+01 2.006808e+01 2.233799e+01 1.781801e+01 2.492796e+01 1.903132e+01 5.741755e+01 5.582127e+00 4.856963e+00 2.821108e+00 2.525489e+00 4.012568e+00 3.702425e+00 3.642920e+00 2.262932e+00 2.786199e+00 1.923724e+00 2.662917e+00 1.777490e+00 2.288566e+00 5.923765e-01 8.319919e-01 4.390690e-01 5.004822e-01 7.976787e-01 9.094229e-01 6.658967e-01 4.772334e-01 5.880128e-01 3.744553e-01 5.379481e-01 3.477608e-01 2.279856e-01
<GCONST> 1.239267e+02
<STATE> 3
<MEAN> 39
 -3.885461e-01 1.749658e+00 -7.773420e-01 -1.551549e+01 -7.703976e+00 -1.980825e+01 -9.057074e+00 -7.340006e+00 -2.183065e+00 -5.436370e+00 -7.060649e-01 -5.201651e+00 8.922539e+01 8.618398e-02 -4.241657e-01 -5.604958e-01 -3.896603e-02 -3.411141e-02 2.488012e-01 9.292955e-02 4.290695e-01 8.157558e-01 -3.093090e-01 1.764614e-01 2.355414e-01 1.503989e-01 9.136418e-04 5.965014e-02 -4.885022e-02 -1.552579e-01 9.632379e-02 2.664593e-02 1.499194e-01 -7.404965e-03 4.411284e-02 -1.119168e-01 -6.674011e-02 -8.735177e-02 -1.029761e-01
<VARIANCE> 39
 2.323673e+00 2.030640e+01 4.172096e+01 1.502893e+01 1.493415e+01 3.515752e+01 2.561161e+01 4.583007e+01 4.616889e+01 2.484239e+01 1.668175e+01 1.885777e+01 1.021392e+01 1.502931e-01 6.755745e-01 8.697904e-01 1.381418e+00 1.207134e+00 2.163226e+00 2.323370e+00 1.706626e+00 2.433867e+00 2.726071e+00 1.126471e+00 1.266502e+00 4.072686e-01 4.817694e-02 1.236801e-01 1.204031e-01 1.730025e-01 2.376258e-01 3.429852e-01 3.044113e-01 3.390469e-01 3.653569e-01 3.699121e-01 1.869969e-01 2.137842e-01 4.845338e-02
<GCONST> 8.998625e+01
<STATE> 4
<MEAN> 39
 2.543240e+00 2.700768e+00 -1.447388e+01 -1.996089e+01 3.953725e+00 -9.695177e+00 -1.522343e+00 -1.540237e+01 -3.624836e+00 -9.621490e+00 -2.771217e-01 -1.107525e+00 7.808946e+01 -1.700722e-01 -8.128157e-02 -2.975145e-01 3.283245e-01 5.607674e-01 1.223486e+00 6.149826e-02 -7.236065e-01 -1.096841e+00 4.899777e-01 2.251160e-01 2.251649e-01 -1.140796e+00 -1.000543e-01 -1.320590e-01 6.868742e-02 1.063890e-01 -1.248117e-01 2.703226e-02 -5.568397e-02 1.889288e-01 4.373379e-02 2.013459e-01 9.071825e-02 2.046434e-02 -1.003858e-02
<VARIANCE> 39
 2.268426e+01 2.285380e+01 3.135832e+01 3.111463e+01 7.308495e+01 6.515163e+01 2.724867e+01 5.666391e+01 1.285264e+02 3.886347e+01 3.054104e+01 2.127250e+01 4.941898e+01 2.914259e+00 2.093295e+00 3.140008e+00 2.687589e+00 4.994564e+00 2.382825e+00 3.089855e+00 3.931928e+00 3.571030e+00 2.990930e+00 1.728485e+00 1.665461e+00 1.355861e+00 5.047032e-01 2.698707e-01 4.045157e-01 3.803006e-01 7.401857e-01 4.009017e-01 5.953737e-01 4.810502e-01 7.495607e-01 5.781574e-01 3.286503e-01 2.944465e-01 2.442548e-01
<GCONST> 1.212482e+02
<STATE> 5
<MEAN> 39
 -8.491870e+00 -5.545298e+00 -8.953974e+00 -9.237684e+00 1.774778e+00 3.981884e+00 -2.816119e+00 -9.399899e+00 -8.250995e+00 1.082105e+00 4.877788e+00 1.403278e+00 6.369976e+01 -1.041552e+00 -3.646471e-01 8.101540e-01 8.569301e-01 -1.361585e-01 -1.479357e-01 2.283300e-01 1.061937e+00 7.189224e-01 2.470103e-01 -2.006279e-01 8.121780e-02 -6.478333e-01 7.482383e-02 1.735462e-01 9.748912e-02 1.208934e-02 5.100143e-02 -2.267133e-01 7.483423e-04 -1.383781e-01 -5.597834e-02 -1.946165e-01 -1.748287e-01 -7.485506e-02 7.333720e-02
<VARIANCE> 39
 1.530783e+01 7.027792e+00 4.016847e+01 3.047134e+01 1.392344e+01 1.782045e+01 1.397515e+01 2.192048e+01 1.599184e+01 2.535649e+01 3.236377e+01 1.496995e+01 6.296679e+00 2.821978e-01 5.405068e-01 1.200626e+00 1.255280e+00 1.223583e+00 1.382779e+00 1.168578e+00 1.478757e+00 1.339270e+00 2.340443e+00 2.377165e+00 1.221780e+00 1.088922e-01 6.637899e-02 5.967859e-02 1.652972e-01 2.449511e-01 2.628774e-01 2.524572e-01 2.425025e-01 2.950422e-01 1.884232e-01 3.322683e-01 3.121766e-01 1.765438e-01 2.798344e-02
<GCONST> 8.499291e+01
<TRANSP> 6
 0.000000e+00 1.000000e+00 0.000000e+00 0.000000e+00 0.000000e+00 0.000000e+00
 0.000000e+00 9.490092e-01 5.099076e-02 0.000000e+00 0.000000e+00 0.000000e+00
 0.000000e+00 0.000000e+00 9.441845e-01 5.581556e-02 0.000000e+00 0.000000e+00
 0.000000e+00 0.000000e+00 0.000000e+00 9.455895e-01 5.441044e-02 0.000000e+00
 0.000000e+00 0.000000e+00 0.000000e+00 0.000000e+00 9.056050e-01 9.439505e-02
 0.000000e+00 0.000000e+00 0.000000e+00 0.000000e+00 0.000000e+00 0.000000e+00
<ENDHMM>
