~o
<STREAMINFO> 1 39
<VECSIZE> 39<NULLD><MFCC_D_A_0><DIAGC>
~h "minus"
<BEGINHMM>
<NUMSTATES> 6
<STATE> 2
<MEAN> 39
 -2.269025e+00 7.855142e+00 -9.706292e-01 -1.342431e+01 5.120461e+00 -1.436392e+01 2.820328e+00 -8.242653e+00 -2.127339e+01 -1.778882e+01 -1.274082e+01 -5.602655e+00 7.690395e+01 1.194076e+00 -6.452493e-01 -2.136944e+00 -1.625225e+00 -1.810351e+00 -2.446228e+00 5.323668e-01 -9.418963e-01 4.382023e-01 -1.435552e+00 2.248424e+00 3.575536e-01 3.842718e+00 -7.261199e-01 -9.676790e-01 -4.614128e-01 1.508412e-01 -3.249757e-01 3.519385e-01 -1.539231e-02 9.425147e-02 8.448491e-01 8.067269e-01 8.096501e-01 3.394192e-01 -4.668472e-02
<VARIANCE> 39
 9.191954e+00 1.660324e+01 3.255035e+01 3.049786e+01 5.331142e+01 5.808997e+01 1.496034e+01 2.795167e+01 6.052238e+01 2.306532e+01 7.138950e+01 2.203182e+01 5.539537e+01 3.670620e+00 6.885935e+00 3.724814e+00 2.631398e+00 5.075421e+00 4.613949e+00 1.968620e+00 1.756214e+00 1.279828e+01 6.573305e+00 1.066778e+01 2.802023e+00 2.735218e+00 2.662598e-01 5.962602e-01 7.064615e-01 6.381789e-01 1.067851e+00 1.504360e+00 3.279929e-01 4.078008e-01 1.852247e+00 8.486235e-01 2.087620e+00 5.804829e-01 5.745805e-01
<GCONST> 1.309541e+02
<STATE> 3
<MEAN> 39
 -6.657831e+00 1.363273e+00 -4.035711e+00 -1.169425e+01 2.479031e+00 -2.220729e+01 -2.883865e+00 -1.198932e+01 -1.153796e+01 -1.152436e+01 -9.173646e-01 -1.113533e+01 8.773502e+01 -1.173439e-01 -1.689039e-02 1.668795e-01 1.120965e-01 3.129784e-01 -1.275325e-02 -3.071769e-01 -7.923578e-02 1.332674e-01 4.446614e-01 3.891717e-01 -5.793665e-02 4.002428e-02 4.945166e-02 2.241888e-02 5.043469e-02 -6.316674e-03 6.025114e-02 -2.231178e-03 -1.436488e-02 6.178879e-02 -1.506411e-02 2.078434e-02 -1.723951e-02 3.636029e-02 -7.121754e-02
<VARIANCE> 39
 1.048287e+01 3.486195e+01 7.287669e+01 2.380537e+01 1.852968e+01 7.896042e+01 3.768437e+01 1.726015e+01 2.423291e+01 3.304652e+01 3.586563e+01 3.480732e+01 4.694057e+01 1.325810e+00 2.672246e+00 2.828727e+00 1.419215e+00 1.346899e+00 7.242301e+00 1.542110e+00 1.870198e+00 1.593071e+00 2.779606e+00 4.752757e+00 2.264238e+00 2.828073e+00 2.729837e-01 3.948478e-01 3.485079e-01 2.615722e-01 3.079701e-01 1.192105e+00 2.739002e-01 3.930098e-01 3.068109e-01 4.161450e-01 7.686690e-01 3.093601e-01 3.842373e-01
<GCONST> 1.150577e+02
<STATE> 4
<MEAN> 39
 -9.122476e+00 -2.144253e+00 1.003629e+00 -1.450327e+01 7.146503e+00 -1.635668e+01 -4.712184e+00 -1.089714e+01 -9.812804e+00 -4.969417e+00 9.873644e+00 1.297530e+00 8.572458e+01 -1.122642e+00 -4.052858e-01 6.540073e-01 -1.932838e-01 -1.150736e-01 8.412037e-01 1.194667e-01 2.543470e-01 5.877361e-01 -6.515775e-03 -3.668186e-01 -5.411636e-02 -1.388326e-01 -2.931535e-01 7.118161e-03 4.131457e-04 -1.828753e-02 -8.194884e-02 3.673801e-02 5.649912e-02 1.644773e-02 8.231772e-02 -4.633210e-02 -1.207894e-01 -1.613649e-01 6.987601e-02
<VARIANCE> 39
 3.230738e+01 3.436660e+01 3.838675e+01 1.184173e+01 1.254119e+01 4.298119e+01 3.066521e+01 1.680583e+01 2.572732e+01 2.529882e+01 2.659043e+01 2.358039e+01 2.323926e+01 4.166275e+00 4.177278e+00 1.303267e+00 1.060846e+00 1.385518e+00 1.875582e+00 1.427124e+00 1.749074e+00 3.759676e+00 1.891878e+00 1.674545e+00 3.153552e+00 1.861137e+00 3.922382e-01 7.275643e-01 3.218155e-01 2.157506e-01 2.802221e-01 3.493997e-01 2.616849e-01 2.962168e-01 5.550092e-01 3.597355e-01 3.131831e-01 3.098596e-01 2.672084e-01
<GCONST> 1.086404e+02
<STATE> 5
<MEAN> 39
 -3.261032e+01 -6.164062e+00 3.185327e+00 -1.759127e+01 8.419971e+00 -8.518414e+00 2.689135e+00 -3.924590e+00 2.072203e+00 -3.135488e+00 2.805302e+00 -5.140396e+00 8.399704e+01 2.779849e-01 1.594491e-01 -1.864721e-01 1.606398e-01 -1.625938e-02 -6.438307e-02 1.515541e-01 2.437795e-01 -1.084334e-01 1.293197e-01 -1.759764e-01 1.300259e-01 -9.096657e-01 2.522663e-01 5.500167e-02 -1.143004e-02 9.855815e-02 2.666437e-02 1.360570e-02 -7.075926e-02 -8.448839e-03 -1.332844e-01 1.977330e-02 -3.056573e-02 8.213473e-02 -1.532354e-01
<VARIANCE> 39
 2.681229e+01 1.711911e+01 1.869051e+01 1.882188e+01 2.163791e+01 1.696502e+01 1.814932e+01 1.924177e+01 1.521072e+01 1.063669e+01 1.139547e+01 1.288692e+01 6.168735e+01 3.039900e+00 9.847369e-01 1.324494e+00 1.679843e+00 1.737949e+00 1.459455e+00 1.256715e+00 1.557796e+00 1.061879e+00 8.907630e-01 9.131592e-01 8.488435e-01 2.007884e+00 3.049102e-01 2.039460e-01 2.031821e-01 2.707105e-01 3.085133e-01 3.175760e-01 2.218417e-01 2.550090e-01 2.097071e-01 1.611106e-01 1.654058e-01 1.837053e-01 1.784651e-01
<GCONST> 9.403578e+01
<TRANSP> 6
 0.000000e+00 1.000000e+00 0.000000e+00 0.000000e+00 0.000000e+00 0.000000e+00
 0.000000e+00 8.181121e-01 1.818879e-01 0.000000e+00 0.000000e+00 0.000000e+00
 0.000000e+00 0.000000e+00 9.676876e-01 3.231242e-02 0.000000e+00 0.000000e+00
 0.000000e+00 0.000000e+00 0.000000e+00 9.430661e-01 5.693398e-02 0.000000e+00
 0.000000e+00 0.000000e+00 0.000000e+00 0.000000e+00 9.601439e-01 3.985613e-02
 0.000000e+00 0.000000e+00 0.000000e+00 0.000000e+00 0.000000e+00 0.000000e+00
<ENDHMM>
