~o
<STREAMINFO> 1 39
<VECSIZE> 39<NULLD><MFCC_D_A_0><DIAGC>
~h "eight"
<BEGINHMM>
<NUMSTATES> 6
<STATE> 2
<MEAN> 39
 -7.488023e+00 -4.498583e+00 1.990159e+00 -7.328479e+00 3.684738e+00 -3.448483e+01 -2.412624e+00 -1.104699e+01 -1.777769e+00 -1.100078e+01 2.076535e+00 -6.995279e+00 9.055838e+01 -9.079235e-02 7.806220e-01 1.195045e+00 9.544645e-02 7.679454e-01 -4.502098e-01 -4.749448e-01 9.753518e-02 -1.142649e-01 -2.045916e+00 -3.312052e-01 -1.890285e-01 3.351722e-01 -1.680058e-01 9.287340e-02 5.022208e-02 7.853980e-02 4.091468e-02 4.842484e-01 2.437190e-02 1.707941e-01 -7.222831e-02 -3.294412e-02 -1.070756e-01 7.634579e-02 -5.670221e-01
<VARIANCE> 39
 8.738048e+00 2.864202e+01 5.289061e+01 1.265585e+01 3.102734e+01 3.901158e+01 3.873617e+01 2.162864e+01 2.240260e+01 1.213021e+02 1.967008e+01 2.648519e+01 3.407970e+01 1.270267e+00 2.141191e+00 1.771981e+00 1.352823e+00 2.285119e+00 5.318801e+00 2.726876e+00 1.870611e+00 2.041917e+00 2.513351e+00 1.764843e+00 1.965292e+00 7.570671e+00 1.338505e-01 5.787553e-01 3.807064e-01 2.136284e-01 4.989019e-01 1.585122e+00 5.955021e-01 3.141743e-01 3.818949e-01 9.005743e-01 4.359587e-01 3.378143e-01 5.956398e-01
<GCONST> 1.156540e+02
<STATE> 3
<MEAN> 39
 -1.338012e+01 -7.464612e-01 5.008342e+00 -5.470659e+00 4.867631e+00 -1.651392e+01 -3.263311e+00 -3.484100e+00 -3.259670e+00 -1.042413e+01 -2.350512e+00 -3.330703e+00 6.771439e+01 -5.156592e-02 -2.598992e-01 -1.090931e+00 -4.270738e-02 -1.017908e+00 2.300835e+00 1.099216e-01 3.764402e-01 6.712893e-02 1.755339e+00 -1.649434e-01 5.129774e-01 -1.518188e+00 1.340118e-02 -1.284723e-01 -2.783707e-02 -1.256286e-01 -1.852231e-02 -1.346887e-01 2.316000e-02 -5.266012e-02 8.209291e-02 -1.346859e-02 9.574692e-02 -4.902686e-02 3.622708e-01
<VARIANCE> 39
 7.635197e+00 9.307624e+00 4.009421e+01 2.114600e+01 7.481849e+01 1.242768e+02 1.787031e+01 1.690713e+01 2.140677e+01 1.223632e+02 3.371397e+01 2.873138e+01 4.493432e+01 9.898895e-01 8.939174e-01 2.599872e+00 2.141791e+00 4.464849e+00 2.325779e+00 2.329207e+00 1.884238e+00 2.009329e+00 5.399494e+00 2.604051e+00 2.200297e+00 1.577943e+00 2.387784e-01 1.709823e-01 7.164837e-01 5.615768e-01 9.003806e-01 5.451273e-01 4.792191e-01 3.446887e-01 4.049463e-01 1.193216e+00 4.541738e-01 4.133174e-01 3.791429e-01
<GCONST> 1.160926e+02
<STATE> 4
<MEAN> 39
 -2.146691e+01 -7.809923e+00 2.118733e+00 -1.401333e+01 3.680567e+00 -7.501116e+00 -3.154506e-01 -5.363729e+00 1.800417e+00 -5.760180e+00 1.297920e+00 -4.783212e+00 7.927018e+01 -2.182847e+00 -1.048070e+00 1.135030e+00 -2.124837e+00 1.231217e+00 -1.142797e+00 4.568625e-01 -1.309119e+00 1.511934e+00 -8.609037e-01 9.480227e-01 -1.045934e+00 5.347682e+00 2.791816e-01 2.240343e-01 1.760489e-01 4.785831e-01 -3.166788e-01 1.421187e-02 -6.344155e-02 -2.200770e-01 2.054706e-02 9.384971e-02 -9.177007e-02 4.881826e-02 -9.743674e-02
<VARIANCE> 39
 5.126709e+01 2.562806e+01 3.197375e+01 5.522596e+01 3.993017e+01 2.203641e+01 2.050431e+01 2.261809e+01 2.578298e+01 1.790554e+01 1.108041e+01 2.037066e+01 2.162609e+02 3.338632e+00 2.804892e+00 3.432289e+00 6.523645e+00 4.937719e+00 1.640138e+00 2.922298e+00 1.689530e+00 1.467741e+00 1.832169e+00 1.086952e+00 1.733608e+00 9.736417e+00 1.213589e+00 6.303425e-01 7.696063e-01 1.598748e+00 1.076101e+00 5.059415e-01 5.373091e-01 3.474470e-01 4.861707e-01 4.903898e-01 2.368781e-01 4.255743e-01 3.906512e+00
<GCONST> 1.244044e+02
<STATE> 5
<MEAN> 39
 -1.564357e+01 -8.252397e+00 8.060994e+00 -9.806904e+00 1.562086e+00 -8.432847e+00 2.008242e+00 -1.052344e+01 3.801928e+00 -4.266337e+00 4.019144e+00 -7.459642e+00 8.402135e+01 1.013742e+00 3.721242e-01 -1.924113e-01 8.676694e-01 -4.040183e-01 5.512809e-01 -1.030223e-01 4.487843e-01 -5.164862e-01 5.112839e-01 -2.503217e-01 2.446362e-01 -1.885561e+00 -6.103021e-02 1.082649e-03 -1.022804e-01 -3.837733e-02 6.661557e-02 9.153786e-02 3.669519e-03 1.486430e-01 -3.298327e-02 -2.528001e-02 -7.141217e-02 4.007053e-02 -1.830810e-01
<VARIANCE> 39
 4.073481e+01 1.572787e+01 1.931670e+01 2.218291e+01 1.289504e+01 1.849335e+01 2.065761e+01 2.692112e+01 2.524988e+01 2.080282e+01 1.420708e+01 1.467175e+01 1.358290e+02 1.211056e+00 1.311698e+00 1.811298e+00 1.210020e+00 1.241713e+00 1.981065e+00 2.227162e+00 1.926182e+00 1.618020e+00 1.382055e+00 1.573749e+00 1.536627e+00 2.053881e+00 1.992311e-01 2.677740e-01 2.716295e-01 2.751776e-01 2.476040e-01 4.191945e-01 3.671072e-01 2.857569e-01 2.873884e-01 2.746430e-01 2.861874e-01 2.558970e-01 2.859043e-01
<GCONST> 1.020717e+02
<TRANSP> 6
 0.000000e+00 1.000000e+00 0.000000e+00 0.000000e+00 0.000000e+00 0.000000e+00
 0.000000e+00 9.380158e-01 6.198429e-02 0.000000e+00 0.000000e+00 0.000000e+00
 0.000000e+00 0.000000e+00 9.304800e-01 6.951998e-02 0.000000e+00 0.000000e+00
 0.000000e+00 0.000000e+00 0.000000e+00 8.446332e-01 1.553669e-01 0.000000e+00
 0.000000e+00 0.000000e+00 0.000000e+00 0.000000e+00 9.380653e-01 6.193470e-02
 0.000000e+00 0.000000e+00 0.000000e+00 0.000000e+00 0.000000e+00 0.000000e+00
<ENDHMM>
