~o
<STREAMINFO> 1 39
<VECSIZE> 39<NULLD><MFCC_D_A_0><DIAGC>
~h "divide"
<BEGINHMM>
<NUMSTATES> 6
<STATE> 2
<MEAN> 39
 -9.253525e+00 2.897928e+00 5.337992e+00 -6.161860e+00 6.655118e+00 -1.780214e+01 -8.142367e+00 -9.774932e+00 -8.973254e+00 -1.548023e+01 -4.152445e+00 -9.068848e+00 8.191550e+01 9.088982e-01 1.815576e-01 -6.113760e-01 -5.454140e-01 -2.241982e-01 -2.099411e-01 1.383349e-01 -1.663917e-01 -7.429647e-01 -1.655707e-01 2.925834e-01 1.048663e-01 4.639209e-01 1.808671e-02 -8.784147e-02 -2.186254e-01 -6.605912e-02 -9.467809e-02 1.943950e-01 1.593338e-01 3.721214e-02 1.021600e-01 1.897166e-01 6.551435e-02 7.320534e-02 -1.923917e-01
<VARIANCE> 39
 3.845286e+01 3.087491e+01 4.361681e+01 6.363490e+01 3.182208e+01 6.462703e+01 5.094107e+01 3.259941e+01 3.594213e+01 2.700293e+01 2.919041e+01 2.136180e+01 1.550337e+01 4.263767e+00 2.898540e+00 3.396535e+00 5.354593e+00 3.174894e+00 7.760485e+00 5.280568e+00 1.939877e+00 3.609653e+00 4.011600e+00 3.051013e+00 2.282377e+00 2.432850e+00 8.621628e-01 3.864891e-01 2.654288e-01 8.188850e-01 3.448980e-01 9.728723e-01 7.117590e-01 3.797137e-01 8.268996e-01 6.807703e-01 5.084188e-01 3.877150e-01 5.685415e-01
<GCONST> 1.264431e+02
<STATE> 3
<MEAN> 39
 -1.517670e+00 -2.255512e+00 -1.687937e+01 -1.851311e+01 1.018702e+00 -1.393624e+01 1.669223e+00 -1.041887e+01 -4.168304e+00 -1.408199e+01 5.816189e+00 -4.788126e+00 8.821870e+01 -2.361253e-01 -1.493421e-01 -4.599259e-02 3.248209e-01 7.650920e-01 -3.596600e-01 -3.472177e-01 2.380897e-01 1.140526e+00 7.622311e-03 4.850065e-01 -2.419701e-01 4.364737e-02 -1.141773e-01 4.936956e-02 2.901729e-01 9.938896e-02 4.764094e-02 -1.298792e-01 -1.827759e-01 5.990377e-02 -3.949387e-02 -6.526988e-02 -1.654015e-02 -2.226988e-02 -5.120613e-02
<VARIANCE> 39
 2.993704e+00 7.409451e+00 1.874313e+01 7.245923e+00 3.766360e+01 3.330192e+01 2.667952e+01 2.987995e+01 5.623355e+01 2.405675e+01 3.416700e+01 1.350230e+01 3.830603e+00 2.910322e-01 5.503480e-01 2.795879e+00 6.886348e-01 1.125951e+00 2.488451e+00 1.934231e+00 1.045290e+00 1.232821e+00 1.409398e+00 1.487766e+00 9.637569e-01 7.967754e-02 2.854194e-02 1.128624e-01 1.347960e-01 1.019289e-01 1.793955e-01 2.293841e-01 1.318412e-01 1.650881e-01 2.341826e-01 2.491054e-01 2.885627e-01 1.573959e-01 2.168521e-02
<GCONST> 8.032323e+01
<STATE> 4
<MEAN> 39
 -1.023682e+01 -2.669060e+00 3.781937e+00 -7.358449e+00 1.100744e+01 -2.923483e+01 -1.315504e+01 -5.341238e+00 9.663138e-01 -1.523730e+01 9.371613e+00 -6.807559e+00 8.547658e+01 -5.761671e-01 5.055847e-01 1.991208e+00 1.131035e+00 3.162216e-01 -2.088364e-02 -2.063897e-01 -2.058596e-01 -1.357543e+00 -4.696645e-01 -1.315772e+00 1.954053e-01 -1.276025e+00 1.887205e-01 4.151958e-02 -5.805502e-01 -2.195262e-01 -1.381178e-01 7.201134e-01 4.747314e-01 -1.387979e-01 -1.067071e-01 2.462215e-01 -1.645720e-01 1.261867e-01 -3.833993e-01
<VARIANCE> 39
 5.476325e+00 1.794095e+01 5.506309e+01 1.762323e+01 1.349531e+01 1.909171e+01 1.802723e+01 2.375536e+01 3.301736e+01 1.746506e+01 2.177328e+01 1.186983e+01 1.371008e+01 5.082780e-01 9.000351e-01 3.289049e+00 7.616951e-01 1.168360e+00 5.508549e+00 4.095762e+00 1.414871e+00 1.172871e+00 1.626907e+00 1.652964e+00 9.412038e-01 1.674025e+00 2.843939e-02 2.460362e-01 4.388998e-01 1.690627e-01 4.277752e-01 3.227485e-01 3.128898e-01 2.875174e-01 3.407633e-01 5.052473e-01 2.441503e-01 2.324617e-01 1.147572e-01
<GCONST> 9.589745e+01
<STATE> 5
<MEAN> 39
 -1.628636e+01 -6.396279e+00 1.562585e+00 -9.569769e+00 1.408178e+00 -1.187733e+01 -6.876230e+00 -7.895580e+00 -2.432792e+00 -5.114804e+00 3.964955e-01 -3.557068e+00 7.178473e+01 -3.297741e-01 -4.957832e-01 -3.685596e-01 -2.810155e-01 -6.656005e-01 9.426403e-01 1.608685e-01 2.792496e-01 2.414285e-01 9.593626e-01 -9.894512e-02 2.113741e-01 -7.074060e-01 -2.015034e-02 2.434001e-02 1.182338e-01 7.360148e-02 3.886985e-02 -1.624761e-01 -1.002068e-01 5.513943e-02 2.083535e-02 -8.185463e-02 1.762998e-02 -2.773360e-02 1.063066e-01
<VARIANCE> 39
 3.859272e+01 2.491487e+01 1.739666e+01 2.616276e+01 2.756510e+01 2.988930e+01 2.071744e+01 1.934955e+01 2.129892e+01 3.578399e+01 2.231104e+01 2.316474e+01 7.489638e+01 4.332775e+00 1.848964e+00 3.987570e+00 3.275380e+00 2.960493e+00 5.746608e+00 3.058723e+00 2.556819e+00 1.943852e+00 4.740042e+00 2.197175e+00 2.823606e+00 1.309273e+01 8.593382e-01 3.633130e-01 7.533851e-01 6.727889e-01 5.063714e-01 8.708559e-01 7.421114e-01 4.380013e-01 3.988169e-01 7.983311e-01 4.917748e-01 5.329314e-01 2.278975e+00
<GCONST> 1.252872e+02
<TRANSP> 6
 0.000000e+00 1.000000e+00 0.000000e+00 0.000000e+00 0.000000e+00 0.000000e+00
 0.000000e+00 9.486647e-01 5.133529e-02 0.000000e+00 0.000000e+00 0.000000e+00
 0.000000e+00 0.000000e+00 9.439322e-01 5.606782e-02 0.000000e+00 0.000000e+00
 0.000000e+00 0.000000e+00 0.000000e+00 8.934179e-01 1.065821e-01 0.000000e+00
 0.000000e+00 0.000000e+00 0.000000e+00 0.000000e+00 9.447582e-01 5.524181e-02
 0.000000e+00 0.000000e+00 0.000000e+00 0.000000e+00 0.000000e+00 0.000000e+00
<ENDHMM>
