~o
<STREAMINFO> 1 39
<VECSIZE> 39<NULLD><MFCC_D_A_0><DIAGC>
~h "six"
<BEGINHMM>
<NUMSTATES> 6
<STATE> 2
<MEAN> 39
 -3.054918e+01 -5.336097e+00 3.619143e+00 -1.631817e+01 7.357437e+00 -1.063781e+01 2.792178e+00 -7.349682e+00 2.465191e+00 -2.808068e+00 1.640628e+00 -4.341043e+00 8.660556e+01 -2.036523e-01 2.127717e-01 9.176021e-02 -3.068828e-01 1.965479e-01 -8.017949e-01 -1.713689e-01 -3.636641e-01 -1.091765e-01 -3.172808e-01 -9.047112e-02 -2.780830e-01 1.116102e+00 3.912765e-01 1.237884e-01 -1.024738e-01 2.503083e-01 -1.259977e-01 -1.181599e-01 -2.156549e-01 -4.607683e-02 -1.556613e-01 -5.332819e-02 -9.725842e-02 -8.162906e-02 -1.588678e-01
<VARIANCE> 39
 6.336154e+01 1.676098e+01 2.726975e+01 1.814590e+01 2.492081e+01 2.059363e+01 2.415030e+01 2.367630e+01 1.982993e+01 1.809956e+01 1.133402e+01 1.067665e+01 4.404037e+01 7.658994e+00 1.526447e+00 2.820283e+00 2.617373e+00 2.105227e+00 2.454694e+00 3.883735e+00 2.924701e+00 2.438781e+00 1.874483e+00 1.593932e+00 1.549035e+00 2.169037e+00 6.004459e-01 3.086607e-01 5.498108e-01 4.046866e-01 3.464421e-01 4.663074e-01 3.991245e-01 4.755335e-01 3.228641e-01 3.727440e-01 2.472283e-01 2.634363e-01 1.942200e-01
<GCONST> 1.104703e+02
<STATE> 3
<MEAN> 39
 -1.106163e+01 -3.930687e+00 2.133455e+00 -2.332914e+00 2.297609e+00 -2.450650e+01 -8.427278e+00 -7.158857e+00 -6.261509e+00 -7.068270e+00 -3.039647e+00 -4.798907e+00 8.007693e+01 4.471154e-01 -7.783806e-02 -2.746387e-01 6.824472e-01 -3.119136e-01 5.463297e-01 -1.304629e-02 5.308632e-01 5.501900e-03 1.831236e-01 -2.442459e-02 3.143171e-01 -1.347182e+00 -3.499616e-01 -8.006758e-02 -5.703404e-02 -2.396524e-01 1.898664e-01 1.534971e-01 1.689174e-01 5.171577e-02 1.760311e-01 9.759611e-02 8.935916e-02 2.321554e-02 1.184513e-01
<VARIANCE> 39
 7.455537e+00 1.715595e+01 1.719358e+01 2.437175e+01 2.731396e+01 1.120827e+02 2.345992e+01 4.281686e+01 1.133155e+01 1.948330e+01 2.022080e+01 2.127529e+01 1.694303e+02 3.078413e+00 1.613088e+00 2.036382e+00 2.054144e+00 2.888609e+00 9.218276e+00 2.855689e+00 2.498644e+00 1.654970e+00 2.459394e+00 2.104405e+00 1.873311e+00 3.775420e+00 4.829794e-01 3.433022e-01 4.505900e-01 3.855486e-01 6.271030e-01 1.296365e+00 4.948770e-01 6.256934e-01 2.844727e-01 5.163201e-01 4.581294e-01 4.522415e-01 7.234255e-01
<GCONST> 1.177411e+02
<STATE> 4
<MEAN> 39
 -2.066967e+01 -8.579327e+00 -2.684482e+00 -1.190147e+01 9.954475e+00 -1.023940e+01 -7.011604e+00 -8.463373e+00 6.527507e-01 -9.969581e-01 6.032373e-01 -5.809213e+00 8.187994e+01 -2.727022e+00 -6.366456e-01 2.556185e-01 -2.325381e+00 1.573684e+00 -1.688868e-01 3.799580e-01 -8.321537e-01 1.240446e+00 3.452902e-01 8.816569e-01 -4.322789e-01 4.393824e+00 -1.322697e-01 1.344372e-01 3.656839e-01 2.581025e-01 -4.350953e-01 1.127732e-01 3.131523e-01 3.525310e-01 -2.248249e-02 -1.339784e-01 -9.358067e-02 1.314668e-01 -2.824432e-01
<VARIANCE> 39
 4.638923e+01 1.568230e+01 2.627719e+01 5.988633e+01 4.802477e+01 3.133342e+01 1.483024e+01 2.833989e+01 2.603805e+01 9.698348e+00 2.250517e+01 1.237866e+01 1.619667e+02 1.549297e+00 1.539344e+00 5.263340e+00 5.824381e+00 7.450507e+00 3.099207e+00 2.468312e+00 3.905947e+00 1.940408e+00 1.069926e+00 2.270736e+00 1.597433e+00 6.692322e+00 4.051417e-01 2.794483e-01 7.885060e-01 1.164102e+00 1.259084e+00 6.291848e-01 4.494539e-01 6.579559e-01 4.786468e-01 1.923218e-01 4.860820e-01 2.949832e-01 2.447340e+00
<GCONST> 1.217033e+02
<STATE> 5
<MEAN> 39
 -3.070266e+01 -5.366076e+00 3.842015e+00 -1.777634e+01 1.008123e+01 -9.394564e+00 2.452773e+00 -4.548133e+00 4.052196e-01 -1.988473e+00 2.224225e+00 -4.278617e+00 8.484166e+01 5.719273e-01 2.285204e-01 4.354026e-02 3.171461e-01 -1.835902e-01 1.097983e-01 3.468155e-02 2.761071e-01 -3.980112e-01 7.855065e-02 -2.648435e-01 1.227476e-01 -1.143239e+00 1.278226e-01 -2.378786e-02 -5.460660e-02 9.701853e-02 5.038101e-03 2.039888e-02 -1.082281e-01 -3.040588e-02 -2.684126e-02 -3.545789e-03 -2.192833e-02 -2.146539e-02 -6.345526e-02
<VARIANCE> 39
 5.703921e+01 7.675314e+00 1.185822e+01 2.286414e+01 1.303249e+01 1.442467e+01 2.205015e+01 1.521128e+01 1.842475e+01 9.921673e+00 1.323596e+01 8.902781e+00 1.177947e+02 2.197413e+00 7.407596e-01 1.134200e+00 1.646993e+00 1.248866e+00 1.092332e+00 1.695058e+00 1.472693e+00 1.140563e+00 1.249723e+00 1.172988e+00 8.183607e-01 1.579523e+00 2.598122e-01 1.483510e-01 2.172125e-01 2.189208e-01 2.456127e-01 2.290557e-01 2.481727e-01 2.729244e-01 2.659182e-01 2.656622e-01 2.095231e-01 1.593854e-01 1.623698e-01
<GCONST> 9.252887e+01
<TRANSP> 6
 0.000000e+00 1.000000e+00 0.000000e+00 0.000000e+00 0.000000e+00 0.000000e+00
 0.000000e+00 9.485648e-01 5.143518e-02 0.000000e+00 0.000000e+00 0.000000e+00
 0.000000e+00 0.000000e+00 9.520366e-01 4.796344e-02 0.000000e+00 0.000000e+00
 0.000000e+00 0.000000e+00 0.000000e+00 8.607463e-01 1.392537e-01 0.000000e+00
 0.000000e+00 0.000000e+00 0.000000e+00 0.000000e+00 9.639350e-01 3.606498e-02
 0.000000e+00 0.000000e+00 0.000000e+00 0.000000e+00 0.000000e+00 0.000000e+00
<ENDHMM>
