~o
<STREAMINFO> 1 39
<VECSIZE> 39<NULLD><MFCC_D_A_0><DIAGC>
~h "three"
<BEGINHMM>
<NUMSTATES> 6
<STATE> 2
<MEAN> 39
 -1.753624e+01 -8.204513e+00 -1.455676e-02 -1.274892e+01 6.572255e-01 -1.015134e+01 -3.384452e+00 -8.450949e+00 1.406184e+00 -7.180257e+00 1.848920e+00 -6.671625e+00 8.593505e+01 1.199326e+00 1.744545e+00 6.701934e-01 4.806198e-01 1.438676e+00 -2.590104e+00 -1.222199e+00 -2.001691e+00 -1.534192e+00 -7.853751e-01 -8.503830e-01 -9.930395e-01 3.509413e+00 7.601933e-01 1.167094e+00 1.365099e-02 1.304183e+00 5.973356e-01 -1.386463e-01 -1.076537e-02 -1.914863e-02 -9.234340e-01 2.043746e-01 -6.776307e-01 4.415255e-01 -1.767742e+00
<VARIANCE> 39
 6.187377e+00 2.634673e+01 9.897697e+00 3.686146e+01 3.049911e+01 1.350374e+01 1.729377e+01 1.635835e+01 2.350592e+01 3.091109e+01 1.573278e+01 2.273699e+01 1.076562e+02 3.488077e+00 8.747699e+00 1.319439e+00 1.193270e+01 3.391907e+00 2.316842e+00 1.140109e+00 2.252172e+00 7.634135e+00 3.357869e+00 3.530942e+00 2.444244e+00 2.199733e+01 2.783118e-01 6.362144e-01 2.445349e-01 1.016632e+00 5.047824e-01 3.581628e-01 4.035954e-01 2.786354e-01 6.662500e-01 7.890863e-01 3.649420e-01 5.360101e-01 2.319972e+00
<GCONST> 1.207010e+02
<STATE> 3
<MEAN> 39
 -3.868282e+00 8.003167e+00 -6.816657e+00 -9.387048e+00 1.372426e+01 -2.152638e+01 -1.098781e+00 -1.686270e+01 -1.112081e+01 -1.084211e+01 -7.876724e+00 -2.708196e+00 8.624213e+01 3.899298e-01 2.357710e-01 -5.611116e-01 3.267508e-01 1.956923e-01 -5.445761e-01 -3.502227e-02 -2.603613e-01 1.674648e-01 -2.681016e-02 -2.757008e-02 -3.909797e-02 9.974949e-02 -1.933758e-01 -2.106693e-01 7.253366e-02 -1.528508e-02 -1.781630e-01 7.973313e-02 -2.549819e-03 1.713489e-01 2.299356e-01 -2.793612e-02 1.098730e-01 -1.119191e-01 4.374262e-02
<VARIANCE> 39
 7.570573e+00 1.203688e+01 3.547646e+01 4.438889e+01 2.999871e+01 3.532982e+01 4.031181e+01 2.304972e+01 3.231976e+01 2.190119e+01 2.570637e+01 2.132774e+01 1.497328e+01 1.233545e+00 2.030142e+00 1.214301e+00 4.052748e+00 4.280022e+00 3.749147e+00 3.867798e+00 2.438068e+00 3.367823e+00 2.473254e+00 2.592245e+00 2.290479e+00 7.397059e-01 1.223920e-01 2.281798e-01 2.458226e-01 5.428563e-01 7.392299e-01 8.057201e-01 5.983080e-01 5.116138e-01 4.884740e-01 5.330433e-01 3.471603e-01 3.192574e-01 1.303278e-01
<GCONST> 1.111800e+02
<STATE> 4
<MEAN> 39
 -1.033525e+01 2.654680e+00 5.844648e+00 2.536538e+00 5.653451e+00 -2.955380e+01 -7.206551e+00 -7.994109e+00 -2.762474e+00 -1.845888e+01 -6.528013e-01 -8.284700e+00 8.821110e+01 -6.678751e-01 7.256434e-02 1.988339e+00 2.551644e-01 -1.511841e-01 -1.616787e-01 4.003555e-01 1.012516e+00 -1.720577e-01 -9.772446e-01 1.851587e-01 4.962116e-02 -5.790575e-01 3.993480e-02 3.694710e-02 -4.747903e-02 -1.262638e-01 1.132396e-01 1.820175e-01 1.868711e-01 -9.692470e-02 -1.083380e-01 1.072803e-01 -4.344399e-02 1.184779e-01 -1.190590e-01
<VARIANCE> 39
 7.966537e+00 1.991041e+01 8.853533e+01 8.652923e+00 1.268454e+01 2.608320e+01 1.616183e+01 4.393697e+01 2.389553e+01 4.282961e+01 1.385225e+01 1.881022e+01 1.357254e+01 2.367043e-01 1.052846e+00 1.171087e+00 7.410197e-01 1.358227e+00 2.768251e+00 1.335734e+00 2.039395e+00 1.318586e+00 2.033057e+00 9.333651e-01 2.001095e+00 6.162495e-01 3.809198e-02 1.726467e-01 2.459297e-01 1.601437e-01 1.753569e-01 6.662726e-01 1.592806e-01 3.075759e-01 2.996488e-01 4.089131e-01 2.200770e-01 4.413080e-01 5.248673e-02
<GCONST> 9.197578e+01
<STATE> 5
<MEAN> 39
 -1.504748e+01 -5.355104e-01 1.411791e+01 9.340110e-01 4.663070e+00 -1.610701e+01 9.453666e-01 -2.132476e+00 -5.179561e+00 -1.290055e+01 -1.749793e+00 -5.276550e+00 7.135566e+01 1.499244e-01 -6.882888e-01 -1.391705e+00 -4.651356e-01 -5.856162e-01 2.051379e+00 2.677797e-02 2.500480e-01 3.499007e-02 1.467147e+00 -1.653672e-01 5.138217e-01 -1.413572e+00 5.397837e-02 1.477416e-03 -1.619734e-01 -7.282479e-02 -7.498810e-02 -3.230058e-02 -1.137179e-01 6.250983e-03 4.402643e-02 2.058035e-03 2.830589e-02 4.440215e-02 7.057716e-02
<VARIANCE> 39
 5.675925e+00 2.892721e+01 8.478341e+01 2.612993e+01 2.786749e+01 1.176834e+02 2.617912e+01 2.976246e+01 2.330490e+01 7.015281e+01 1.316439e+01 2.113269e+01 5.717912e+01 9.543366e-01 1.542741e+00 6.859453e+00 2.458915e+00 1.980019e+00 5.371295e+00 2.556101e+00 1.808911e+00 2.184871e+00 2.898913e+00 1.572047e+00 2.001806e+00 8.682132e-01 1.264266e-01 3.193986e-01 1.236040e+00 4.764977e-01 4.343305e-01 1.042586e+00 4.399796e-01 2.622811e-01 4.434848e-01 5.402500e-01 3.097591e-01 4.358316e-01 1.490355e-01
<GCONST> 1.142423e+02
<TRANSP> 6
 0.000000e+00 1.000000e+00 0.000000e+00 0.000000e+00 0.000000e+00 0.000000e+00
 0.000000e+00 7.368606e-01 2.631395e-01 0.000000e+00 0.000000e+00 0.000000e+00
 0.000000e+00 0.000000e+00 9.515789e-01 4.842109e-02 0.000000e+00 0.000000e+00
 0.000000e+00 0.000000e+00 0.000000e+00 9.313185e-01 6.868146e-02 0.000000e+00
 0.000000e+00 0.000000e+00 0.000000e+00 0.000000e+00 9.258576e-01 7.414241e-02
 0.000000e+00 0.000000e+00 0.000000e+00 0.000000e+00 0.000000e+00 0.000000e+00
<ENDHMM>
