~o
<STREAMINFO> 1 39
<VECSIZE> 39<NULLD><MFCC_D_A_0><DIAGC>
~h "eight"
<BEGINHMM>
<NUMSTATES> 6
<STATE> 2
<MEAN> 39
 -7.488096e+00 -4.498320e+00 1.990862e+00 -7.328289e+00 3.685149e+00 -3.448529e+01 -2.412296e+00 -1.104702e+01 -1.777878e+00 -1.100135e+01 2.076499e+00 -6.995514e+00 9.055762e+01 -9.087479e-02 7.806031e-01 1.194985e+00 9.544013e-02 7.680126e-01 -4.501531e-01 -4.748244e-01 9.760400e-02 -1.143562e-01 -2.045811e+00 -3.312361e-01 -1.890524e-01 3.350381e-01 -1.679832e-01 9.285520e-02 5.016805e-02 7.851613e-02 4.091413e-02 4.842660e-01 2.436919e-02 1.707765e-01 -7.221195e-02 -3.287908e-02 -1.071009e-01 7.635660e-02 -5.669797e-01
<VARIANCE> 39
 8.738358e+00 2.864003e+01 5.290045e+01 1.265632e+01 3.103304e+01 3.901088e+01 3.873496e+01 2.162874e+01 2.240369e+01 1.213161e+02 1.967104e+01 2.648522e+01 3.408551e+01 1.270274e+00 2.141035e+00 1.772048e+00 1.352817e+00 2.285299e+00 5.318738e+00 2.726905e+00 1.870746e+00 2.041822e+00 2.513456e+00 1.764841e+00 1.965275e+00 7.570789e+00 1.338547e-01 5.787112e-01 3.807532e-01 2.136408e-01 4.989477e-01 1.585043e+00 5.954742e-01 3.141724e-01 3.818729e-01 9.006193e-01 4.359892e-01 3.378043e-01 5.956554e-01
<GCONST> 1.156550e+02
<STATE> 3
<MEAN> 39
 -1.338010e+01 -7.467314e-01 5.007604e+00 -5.470829e+00 4.867049e+00 -1.651268e+01 -3.263119e+00 -3.483845e+00 -3.259659e+00 -1.042235e+01 -2.350927e+00 -3.330027e+00 6.771348e+01 -5.149041e-02 -2.599591e-01 -1.090986e+00 -4.271471e-02 -1.018049e+00 2.300882e+00 1.098455e-01 3.763791e-01 6.724303e-02 1.755421e+00 -1.648825e-01 5.130110e-01 -1.518097e+00 1.338400e-02 -1.284610e-01 -2.778005e-02 -1.256121e-01 -1.851314e-02 -1.347503e-01 2.316807e-02 -5.265841e-02 8.208409e-02 -1.354762e-02 9.578515e-02 -4.904833e-02 3.622863e-01
<VARIANCE> 39
 7.635164e+00 9.306742e+00 4.008789e+01 2.114701e+01 7.482043e+01 1.242614e+02 1.787040e+01 1.690714e+01 2.140455e+01 1.223390e+02 3.371219e+01 2.872975e+01 4.492512e+01 9.897929e-01 8.937864e-01 2.599858e+00 2.141830e+00 4.464777e+00 2.325960e+00 2.329317e+00 1.884176e+00 2.009224e+00 5.399236e+00 2.604092e+00 2.200308e+00 1.577980e+00 2.387799e-01 1.709830e-01 7.164530e-01 5.615726e-01 9.004513e-01 5.450997e-01 4.792534e-01 3.446925e-01 4.049450e-01 1.193141e+00 4.541498e-01 4.133245e-01 3.791533e-01
<GCONST> 1.160914e+02
<STATE> 4
<MEAN> 39
 -2.146689e+01 -7.809886e+00 2.118725e+00 -1.401334e+01 3.680688e+00 -7.501177e+00 -3.151836e-01 -5.363797e+00 1.800349e+00 -5.760089e+00 1.297969e+00 -4.783165e+00 7.927010e+01 -2.182894e+00 -1.048111e+00 1.135009e+00 -2.124877e+00 1.231241e+00 -1.142863e+00 4.568191e-01 -1.309137e+00 1.511933e+00 -8.608969e-01 9.480299e-01 -1.045921e+00 5.347710e+00 2.791792e-01 2.240177e-01 1.760344e-01 4.785717e-01 -3.167031e-01 1.421535e-02 -6.347231e-02 -2.200581e-01 2.054770e-02 9.386078e-02 -9.177461e-02 4.882060e-02 -9.743314e-02
<VARIANCE> 39
 5.126842e+01 2.562889e+01 3.197433e+01 5.522612e+01 3.993244e+01 2.203696e+01 2.050481e+01 2.261863e+01 2.578313e+01 1.790521e+01 1.108032e+01 2.037047e+01 2.162580e+02 3.338646e+00 2.804849e+00 3.432386e+00 6.523367e+00 4.938073e+00 1.640079e+00 2.922405e+00 1.689569e+00 1.467755e+00 1.832204e+00 1.086933e+00 1.733657e+00 9.736152e+00 1.213631e+00 6.303406e-01 7.696409e-01 1.598757e+00 1.076166e+00 5.059493e-01 5.373285e-01 3.474537e-01 4.861639e-01 4.903874e-01 2.368718e-01 4.255820e-01 3.906461e+00
<GCONST> 1.244048e+02
<STATE> 5
<MEAN> 39
 -1.564370e+01 -8.252450e+00 8.060898e+00 -9.807096e+00 1.562096e+00 -8.432957e+00 2.008161e+00 -1.052331e+01 3.801944e+00 -4.266282e+00 4.019186e+00 -7.459540e+00 8.402141e+01 1.013745e+00 3.721302e-01 -1.923868e-01 8.676739e-01 -4.040157e-01 5.513062e-01 -1.030198e-01 4.487937e-01 -5.164751e-01 5.112669e-01 -2.503284e-01 2.446381e-01 -1.885552e+00 -6.102643e-02 1.085213e-03 -1.022749e-01 -3.837097e-02 6.661459e-02 9.154627e-02 3.675867e-03 1.486353e-01 -3.298595e-02 -2.528135e-02 -7.141323e-02 4.006774e-02 -1.830855e-01
<VARIANCE> 39
 4.073460e+01 1.572839e+01 1.931673e+01 2.218334e+01 1.289449e+01 1.849334e+01 2.065737e+01 2.692172e+01 2.524922e+01 2.080198e+01 1.420690e+01 1.467095e+01 1.358288e+02 1.211045e+00 1.311764e+00 1.811353e+00 1.210021e+00 1.241710e+00 1.981073e+00 2.227169e+00 1.926156e+00 1.618017e+00 1.382026e+00 1.573716e+00 1.536519e+00 2.053927e+00 1.992361e-01 2.677934e-01 2.716455e-01 2.751816e-01 2.476043e-01 4.191938e-01 3.671129e-01 2.857472e-01 2.873884e-01 2.746370e-01 2.861779e-01 2.558750e-01 2.859082e-01
<GCONST> 1.020715e+02
<TRANSP> 6
 0.000000e+00 1.000000e+00 0.000000e+00 0.000000e+00 0.000000e+00 0.000000e+00
 0.000000e+00 9.380189e-01 6.198112e-02 0.000000e+00 0.000000e+00 0.000000e+00
 0.000000e+00 0.000000e+00 9.304769e-01 6.952313e-02 0.000000e+00 0.000000e+00
 0.000000e+00 0.000000e+00 0.000000e+00 8.446316e-01 1.553684e-01 0.000000e+00
 0.000000e+00 0.000000e+00 0.000000e+00 0.000000e+00 9.380654e-01 6.193463e-02
 0.000000e+00 0.000000e+00 0.000000e+00 0.000000e+00 0.000000e+00 0.000000e+00
<ENDHMM>
