~o
<STREAMINFO> 1 39
<VECSIZE> 39<NULLD><MFCC_D_A_0><DIAGC>
~h "one"
<BEGINHMM>
<NUMSTATES> 6
<STATE> 2
<MEAN> 39
 -4.896150e+00 1.075881e+01 1.261689e+00 -1.334568e+01 -4.817337e+00 -1.783426e+01 -2.146597e+00 -4.088832e+00 -6.239554e+00 -9.124557e+00 -5.545509e+00 -9.044090e+00 8.101953e+01 6.829987e-01 -8.414377e-01 -1.010730e+00 -3.327831e-01 -9.391307e-01 -4.014279e-02 -1.423431e-02 1.786075e-01 2.064816e-01 -7.670175e-02 -1.600275e-01 3.335134e-01 2.466539e+00 -2.108847e-01 -3.451055e-01 -1.767632e-01 1.322502e-01 1.772134e-01 3.008679e-01 1.201575e-01 1.317239e-01 2.246797e-01 1.201667e-01 1.048492e-01 1.450391e-01 -1.541262e-01
<VARIANCE> 39
 1.974739e+01 5.236939e+01 2.885271e+01 4.849447e+01 6.286688e+01 6.312135e+01 6.015484e+01 2.467786e+01 2.583317e+01 4.372138e+01 2.312827e+01 2.933887e+01 9.229417e+01 1.734054e+00 8.788426e+00 2.821125e+00 3.509686e+00 5.672715e+00 6.343350e+00 2.973611e+00 2.086896e+00 3.949578e+00 5.218237e+00 2.082084e+00 2.456078e+00 2.827771e+00 2.955254e-01 1.510029e+00 5.516078e-01 6.885334e-01 1.097013e+00 9.710225e-01 5.146931e-01 3.748219e-01 7.318614e-01 1.001122e+00 4.971037e-01 3.663149e-01 5.444287e-01
<GCONST> 1.296683e+02
<STATE> 3
<MEAN> 39
 -5.861798e+00 2.859036e+00 -5.738454e+00 -1.520866e+01 -1.806923e+00 -1.296899e+01 1.585563e+00 -1.632618e+00 -4.411273e+00 -1.279233e+01 4.618771e+00 1.387695e-02 9.299319e+01 -4.347219e-01 4.933034e-01 3.798780e-01 7.521220e-02 1.191761e+00 -1.135603e-01 2.914106e-01 -4.730884e-01 -4.913689e-01 -3.717926e-01 1.858130e+00 1.342256e-01 -3.657548e-01 1.713164e-03 1.901854e-01 2.251315e-01 1.467970e-01 1.400565e-01 -2.418465e-02 -1.120615e-01 -1.374246e-01 -8.571704e-02 9.371819e-02 -1.570239e-01 -1.358892e-01 -2.611261e-01
<VARIANCE> 39
 5.373991e+00 1.241895e+01 1.583449e+01 1.132772e+01 3.597244e+01 2.355781e+01 3.310264e+01 3.121455e+01 4.666338e+01 3.081312e+01 9.800288e+01 2.364564e+01 4.522086e+00 1.770190e-01 8.543221e-01 1.215196e+00 1.417827e+00 1.757239e+00 2.030527e+00 1.475167e+00 2.671474e+00 2.145152e+00 2.897007e+00 3.534273e+00 2.752949e+00 6.360492e-01 4.462261e-02 1.946417e-01 1.885548e-01 3.355852e-01 2.790480e-01 5.041172e-01 1.791435e-01 4.258530e-01 4.830848e-01 5.257108e-01 1.024982e+00 3.373322e-01 1.000562e-01
<GCONST> 9.945081e+01
<STATE> 4
<MEAN> 39
 -7.747918e+00 5.287164e+00 3.881180e+00 -5.936356e+00 1.678287e+01 -1.033872e+01 -3.055924e+00 -7.541754e+00 -4.556508e+00 -7.613214e+00 6.523492e+00 -5.306589e+00 7.761429e+01 2.970989e-01 -5.194667e-01 5.657102e-01 1.093465e+00 6.466573e-01 7.534321e-01 -5.675209e-01 -1.969058e-02 3.005922e-01 6.555238e-01 -1.367142e+00 -1.283315e-01 -1.525123e+00 6.845649e-02 -1.263855e-01 -2.090209e-01 -7.861730e-02 -3.553789e-01 -5.465476e-02 3.049288e-02 9.538771e-02 -8.578829e-03 -4.764698e-02 9.673814e-02 5.402996e-02 1.057884e-01
<VARIANCE> 39
 1.616060e+01 1.476238e+01 1.653962e+01 2.913223e+01 4.064919e+01 3.879464e+01 2.498711e+01 2.283931e+01 5.950009e+01 2.785508e+01 7.672081e+01 1.382002e+01 3.024527e+01 6.101984e-01 6.086203e-01 1.399581e+00 3.361745e+00 4.312322e+00 2.231423e+00 1.793342e+00 2.303795e+00 2.022856e+00 2.153804e+00 3.734173e+00 9.778466e-01 1.273955e+00 1.174443e-01 1.421040e-01 2.159611e-01 6.728945e-01 6.168388e-01 4.264993e-01 3.216982e-01 3.964350e-01 3.482806e-01 3.879139e-01 7.576287e-01 1.426947e-01 2.006211e-01
<GCONST> 1.068289e+02
<STATE> 5
<MEAN> 39
 -5.674273e+00 8.464794e-01 4.011673e+00 3.264547e+00 8.561741e+00 -3.339041e+00 -6.551930e+00 -6.941193e+00 -5.370151e+00 -1.466948e+00 1.012746e+00 -5.357991e+00 6.693935e+01 -3.848519e-01 -3.195990e-01 -2.040296e-01 3.067461e-01 -7.559379e-01 4.971130e-01 1.083605e-01 2.946449e-01 8.617795e-02 3.918371e-01 -2.322902e-01 6.526496e-02 -6.811846e-01 -7.358652e-02 1.869089e-02 3.654606e-02 -1.170530e-01 1.138453e-01 -3.899621e-02 5.378630e-02 2.356645e-02 1.890945e-02 -5.053849e-02 6.229234e-03 2.856320e-02 4.732770e-02
<VARIANCE> 39
 1.565152e+01 1.952279e+01 1.634641e+01 8.288981e+00 2.795747e+01 1.848290e+01 2.530220e+01 2.114373e+01 1.986790e+01 5.436570e+01 2.469376e+01 2.080882e+01 1.470400e+01 6.576372e-01 7.042940e-01 9.334512e-01 9.750564e-01 1.671248e+00 1.481562e+00 1.792568e+00 1.687210e+00 1.465262e+00 1.979869e+00 1.246898e+00 1.547443e+00 2.089569e-01 7.989432e-02 1.167788e-01 1.431495e-01 1.408570e-01 2.586169e-01 2.948772e-01 2.921015e-01 3.487328e-01 2.704884e-01 3.473248e-01 2.578094e-01 3.178358e-01 3.471694e-02
<GCONST> 9.039583e+01
<TRANSP> 6
 0.000000e+00 1.000000e+00 0.000000e+00 0.000000e+00 0.000000e+00 0.000000e+00
 0.000000e+00 8.927292e-01 1.072708e-01 0.000000e+00 0.000000e+00 0.000000e+00
 0.000000e+00 0.000000e+00 9.222893e-01 7.771073e-02 0.000000e+00 0.000000e+00
 0.000000e+00 0.000000e+00 0.000000e+00 9.111109e-01 8.888916e-02 0.000000e+00
 0.000000e+00 0.000000e+00 0.000000e+00 0.000000e+00 9.245822e-01 7.541779e-02
 0.000000e+00 0.000000e+00 0.000000e+00 0.000000e+00 0.000000e+00 0.000000e+00
<ENDHMM>
