~o
<STREAMINFO> 1 39
<VECSIZE> 39<NULLD><MFCC_D_A_0><DIAGC>
~h "three"
<BEGINHMM>
<NUMSTATES> 6
<STATE> 2
<MEAN> 39
 -1.753619e+01 -8.204568e+00 -1.461415e-02 -1.274890e+01 6.569477e-01 -1.015116e+01 -3.384296e+00 -8.450850e+00 1.406384e+00 -7.180169e+00 1.848873e+00 -6.671476e+00 8.593493e+01 1.199258e+00 1.744502e+00 6.701347e-01 4.806380e-01 1.438708e+00 -2.590045e+00 -1.222177e+00 -2.001612e+00 -1.534094e+00 -7.853773e-01 -8.503304e-01 -9.930605e-01 3.509436e+00 7.601810e-01 1.167112e+00 1.366354e-02 1.304187e+00 5.973740e-01 -1.386708e-01 -1.079382e-02 -1.913730e-02 -9.234528e-01 2.043493e-01 -6.776416e-01 4.414936e-01 -1.767707e+00
<VARIANCE> 39
 6.187463e+00 2.634668e+01 9.897482e+00 3.686224e+01 3.050029e+01 1.350358e+01 1.729275e+01 1.635747e+01 2.350456e+01 3.091113e+01 1.573292e+01 2.273793e+01 1.076590e+02 3.488116e+00 8.747896e+00 1.319505e+00 1.193302e+01 3.392066e+00 2.316934e+00 1.140062e+00 2.252181e+00 7.634235e+00 3.357856e+00 3.530982e+00 2.444185e+00 2.199743e+01 2.783259e-01 6.362107e-01 2.445274e-01 1.016636e+00 5.047888e-01 3.581664e-01 4.035791e-01 2.786362e-01 6.662457e-01 7.891026e-01 3.649354e-01 5.360212e-01 2.320017e+00
<GCONST> 1.207011e+02
<STATE> 3
<MEAN> 39
 -3.868288e+00 8.003475e+00 -6.816430e+00 -9.387443e+00 1.372452e+01 -2.152592e+01 -1.098364e+00 -1.686241e+01 -1.112138e+01 -1.084213e+01 -7.877049e+00 -2.707919e+00 8.624209e+01 3.900200e-01 2.358420e-01 -5.612355e-01 3.266389e-01 1.957377e-01 -5.445167e-01 -3.495488e-02 -2.604725e-01 1.673636e-01 -2.669224e-02 -2.761350e-02 -3.896293e-02 9.974129e-02 -1.933759e-01 -2.106810e-01 7.249491e-02 -1.524977e-02 -1.781718e-01 7.971479e-02 -2.553015e-03 1.713063e-01 2.299851e-01 -2.788816e-02 1.098663e-01 -1.119650e-01 4.374028e-02
<VARIANCE> 39
 7.571100e+00 1.203530e+01 3.547668e+01 4.438425e+01 2.999891e+01 3.532970e+01 4.031271e+01 2.305019e+01 3.231436e+01 2.190033e+01 2.570440e+01 2.132491e+01 1.497325e+01 1.233491e+00 2.030087e+00 1.214027e+00 4.052848e+00 4.280214e+00 3.749374e+00 3.868046e+00 2.437842e+00 3.367860e+00 2.473157e+00 2.592320e+00 2.290257e+00 7.397303e-01 1.223997e-01 2.281896e-01 2.457973e-01 5.428767e-01 7.392650e-01 8.057702e-01 5.983585e-01 5.115985e-01 4.884198e-01 5.329903e-01 3.471771e-01 3.192393e-01 1.303380e-01
<GCONST> 1.111793e+02
<STATE> 4
<MEAN> 39
 -1.033438e+01 2.654763e+00 5.842206e+00 2.536375e+00 5.653534e+00 -2.955360e+01 -7.207134e+00 -7.995190e+00 -2.762190e+00 -1.845731e+01 -6.533396e-01 -8.284961e+00 8.821183e+01 -6.679224e-01 7.249258e-02 1.988395e+00 2.552748e-01 -1.512587e-01 -1.618870e-01 4.001019e-01 1.012657e+00 -1.719377e-01 -9.774591e-01 1.852887e-01 4.945226e-02 -5.789194e-01 3.991127e-02 3.698295e-02 -4.740463e-02 -1.263302e-01 1.132516e-01 1.820062e-01 1.868898e-01 -9.683474e-02 -1.083830e-01 1.071826e-01 -4.340043e-02 1.185503e-01 -1.190556e-01
<VARIANCE> 39
 7.967690e+00 1.990917e+01 8.854308e+01 8.652890e+00 1.268534e+01 2.608537e+01 1.615468e+01 4.394596e+01 2.389401e+01 4.284151e+01 1.385350e+01 1.881103e+01 1.356732e+01 2.367286e-01 1.052990e+00 1.171035e+00 7.413073e-01 1.358381e+00 2.768307e+00 1.335809e+00 2.039642e+00 1.318713e+00 2.032846e+00 9.332772e-01 2.001634e+00 6.162781e-01 3.809282e-02 1.726195e-01 2.459715e-01 1.601687e-01 1.753743e-01 6.662512e-01 1.592972e-01 3.076547e-01 2.997138e-01 4.090185e-01 2.200852e-01 4.413425e-01 5.248648e-02
<GCONST> 9.197813e+01
<STATE> 5
<MEAN> 39
 -1.504754e+01 -5.347902e-01 1.411870e+01 9.340364e-01 4.663489e+00 -1.610860e+01 9.455301e-01 -2.132583e+00 -5.179775e+00 -1.290176e+01 -1.749429e+00 -5.276906e+00 7.135689e+01 1.498848e-01 -6.882266e-01 -1.391492e+00 -4.650227e-01 -5.855295e-01 2.051289e+00 2.694940e-02 2.500176e-01 3.501598e-02 1.467072e+00 -1.654148e-01 5.137623e-01 -1.413561e+00 5.398745e-02 1.436655e-03 -1.619741e-01 -7.280828e-02 -7.499951e-02 -3.224600e-02 -1.137158e-01 6.230190e-03 4.401737e-02 2.096904e-03 2.827423e-02 4.438744e-02 7.057443e-02
<VARIANCE> 39
 5.675491e+00 2.893047e+01 8.477944e+01 2.612725e+01 2.786930e+01 1.176901e+02 2.617762e+01 2.976436e+01 2.330397e+01 7.015522e+01 1.316466e+01 2.113263e+01 5.718383e+01 9.543444e-01 1.542726e+00 6.859954e+00 2.458811e+00 1.980027e+00 5.371343e+00 2.556234e+00 1.808771e+00 2.184928e+00 2.898911e+00 1.571978e+00 2.001768e+00 8.681604e-01 1.264230e-01 3.194011e-01 1.236060e+00 4.764597e-01 4.343269e-01 1.042630e+00 4.399512e-01 2.622805e-01 4.434636e-01 5.402480e-01 3.097392e-01 4.358057e-01 1.490297e-01
<GCONST> 1.142420e+02
<TRANSP> 6
 0.000000e+00 1.000000e+00 0.000000e+00 0.000000e+00 0.000000e+00 0.000000e+00
 0.000000e+00 7.368636e-01 2.631364e-01 0.000000e+00 0.000000e+00 0.000000e+00
 0.000000e+00 0.000000e+00 9.515761e-01 4.842395e-02 0.000000e+00 0.000000e+00
 0.000000e+00 0.000000e+00 0.000000e+00 9.313185e-01 6.868149e-02 0.000000e+00
 0.000000e+00 0.000000e+00 0.000000e+00 0.000000e+00 9.258639e-01 7.413606e-02
 0.000000e+00 0.000000e+00 0.000000e+00 0.000000e+00 0.000000e+00 0.000000e+00
<ENDHMM>
