~o
<STREAMINFO> 1 39
<VECSIZE> 39<NULLD><MFCC_D_A_0><DIAGC>
~h "zero"
<BEGINHMM>
<NUMSTATES> 6
<STATE> 2
<MEAN> 39
 -2.529337e+01 -8.345635e+00 1.008112e+01 -1.912570e+01 1.164108e+01 -1.575107e+01 -4.548732e-01 -1.197528e+01 2.033291e+00 -8.311847e+00 1.080458e-01 -8.781727e+00 8.148517e+01 1.378682e+00 2.068927e-01 3.204322e-01 8.042020e-01 1.155536e-01 -1.739795e+00 -9.953508e-01 -9.879645e-01 -9.276497e-01 -6.225522e-01 -6.399354e-01 -7.557781e-01 1.600469e+00 5.395160e-01 1.671926e-01 -2.960398e-01 4.944117e-01 -3.906794e-01 -6.184690e-02 -2.255328e-01 1.311630e-01 -3.310276e-01 6.623758e-02 -1.520592e-01 1.464891e-01 -2.904736e-01
<VARIANCE> 39
 8.405495e+01 3.503945e+01 3.451771e+01 4.574318e+01 2.005533e+01 3.180449e+01 4.577023e+01 2.452101e+01 3.467154e+01 2.086894e+01 3.875492e+01 2.316279e+01 2.588721e+01 1.070897e+01 6.298443e+00 4.950016e+00 8.265745e+00 3.907298e+00 5.162825e+00 4.184098e+00 2.637910e+00 4.657060e+00 2.443963e+00 5.111406e+00 2.774443e+00 2.810827e+00 1.210753e+00 1.012623e+00 1.366980e+00 1.160857e+00 7.383823e-01 8.974910e-01 7.655941e-01 5.609992e-01 6.531273e-01 5.764063e-01 8.109187e-01 5.685791e-01 2.476944e-01
<GCONST> 1.328568e+02
<STATE> 3
<MEAN> 39
 -4.178513e+00 -2.668307e+00 4.235606e+00 -7.066986e+00 7.230076e+00 -3.375500e+01 -6.273012e+00 -1.985663e+01 -8.236065e+00 -1.076209e+01 -5.651685e+00 -1.084613e+01 8.657441e+01 5.870079e-01 1.477996e-01 -1.477191e+00 -1.923105e-01 2.711203e-01 -1.918685e-01 4.323391e-01 -2.874822e-01 -5.545307e-02 2.870275e-01 3.290708e-01 1.215826e-01 -1.499668e-01 -8.274468e-02 2.216945e-02 -3.296061e-02 -2.075158e-01 1.815507e-01 3.278793e-01 -1.323134e-02 5.034231e-02 7.576191e-02 -2.241546e-02 4.852340e-02 -2.211396e-02 -7.855127e-02
<VARIANCE> 39
 9.739540e+00 5.408649e+00 6.207224e+01 1.128994e+01 1.098763e+01 1.364942e+01 2.729849e+01 1.646578e+01 1.779330e+01 1.787765e+01 1.463663e+01 1.456090e+01 2.696362e+00 1.569041e-01 7.957100e-01 1.382077e+00 9.634085e-01 1.287909e+00 1.988754e+00 1.456526e+00 1.012906e+00 1.001711e+00 1.351885e+00 7.484038e-01 8.645648e-01 2.225324e-01 9.128653e-02 1.423227e-01 1.995611e-01 2.169029e-01 1.112999e-01 2.469386e-01 3.052598e-01 2.226044e-01 2.467878e-01 2.302793e-01 1.524551e-01 1.449917e-01 1.162196e-02
<GCONST> 7.842764e+01
<STATE> 4
<MEAN> 39
 3.191594e+00 4.728652e+00 -1.012120e+01 -2.133904e+01 1.686291e+01 -2.248602e+01 -5.143146e+00 -1.304220e+01 -1.019829e+01 -1.204062e+01 -8.075436e-01 -1.967732e+00 8.097224e+01 1.085914e-01 8.837411e-02 3.814296e-01 -7.067092e-01 -6.984600e-01 5.442109e-01 1.910954e-01 1.050372e+00 2.807454e-01 -7.868758e-01 -6.238534e-02 7.716959e-01 -2.149727e-01 -4.221920e-02 -4.301599e-02 1.310758e-01 1.192858e-01 -2.596509e-01 -7.652681e-02 1.052852e-01 3.064235e-02 3.865043e-02 -2.569443e-02 -8.608387e-02 -5.477048e-02 -2.153269e-02
<VARIANCE> 39
 3.044456e+00 9.475116e+00 9.039536e+00 2.986854e+01 4.703866e+01 2.076367e+01 3.236021e+01 7.043861e+01 2.868638e+01 3.232460e+01 2.907845e+01 4.262606e+01 3.634886e+00 1.593321e-01 9.312794e-01 5.609628e-01 1.507185e+00 4.479237e+00 1.603864e+00 3.418585e+00 2.537258e+00 1.361520e+00 1.641722e+00 2.554013e+00 1.148839e+00 2.711159e-01 1.835695e-02 1.023176e-01 7.670894e-02 1.504214e-01 2.651959e-01 2.275899e-01 5.975227e-01 4.694130e-01 1.811134e-01 2.819516e-01 4.425960e-01 2.556347e-01 3.737649e-02
<GCONST> 8.987197e+01
<STATE> 5
<MEAN> 39
 -1.349321e+00 3.516539e+00 -1.622937e+00 -1.606683e+01 -9.219645e+00 -1.065967e+01 2.026186e+00 1.704608e+00 -5.181343e+00 -1.411548e+01 -7.899771e+00 -3.846795e+00 6.969363e+01 -6.503979e-01 -2.620539e-01 1.997621e-02 6.978426e-01 -4.361734e-01 8.841863e-01 2.359343e-02 3.524071e-01 1.720052e-01 1.023615e+00 -2.035673e-02 -4.128793e-01 -8.665426e-01 -2.844994e-02 -4.346443e-02 -4.595127e-02 3.385830e-02 1.929764e-01 -1.695846e-02 -7.632792e-02 -1.004436e-01 -1.412271e-02 8.430374e-02 7.500748e-02 5.001559e-02 2.706754e-02
<VARIANCE> 39
 2.084322e+01 2.091738e+01 1.696172e+01 2.291017e+01 2.035937e+01 6.034245e+01 2.322986e+01 2.287647e+01 1.894951e+01 6.913826e+01 2.443539e+01 2.578896e+01 2.549246e+01 6.154864e-01 1.301644e+00 1.213212e+00 1.077193e+00 2.301800e+00 1.808043e+00 1.473494e+00 1.938266e+00 2.106235e+00 1.833915e+00 2.278709e+00 1.941330e+00 2.281286e-01 8.571482e-02 1.426039e-01 1.301554e-01 1.934768e-01 2.392868e-01 3.203727e-01 2.630413e-01 3.701963e-01 4.220432e-01 2.877494e-01 3.523972e-01 2.609322e-01 3.148174e-02
<GCONST> 9.691379e+01
<TRANSP> 6
 0.000000e+00 1.000000e+00 0.000000e+00 0.000000e+00 0.000000e+00 0.000000e+00
 0.000000e+00 9.114257e-01 8.857436e-02 0.000000e+00 0.000000e+00 0.000000e+00
 0.000000e+00 0.000000e+00 9.375634e-01 6.243658e-02 0.000000e+00 0.000000e+00
 0.000000e+00 0.000000e+00 0.000000e+00 9.450007e-01 5.499929e-02 0.000000e+00
 0.000000e+00 0.000000e+00 0.000000e+00 0.000000e+00 9.482183e-01 5.178168e-02
 0.000000e+00 0.000000e+00 0.000000e+00 0.000000e+00 0.000000e+00 0.000000e+00
<ENDHMM>
