~o
<STREAMINFO> 1 39
<VECSIZE> 39<NULLD><MFCC_D_A_0><DIAGC>
~h "plus"
<BEGINHMM>
<NUMSTATES> 6
<STATE> 2
<MEAN> 39
 -1.125044e+01 -3.787767e+00 -4.824126e+00 -1.182667e+01 -5.948614e+00 -1.120603e+01 3.247186e+00 -1.500344e+01 -8.158303e+00 -9.800668e+00 2.220397e+00 -1.138337e+00 8.535872e+01 8.728085e-01 7.198883e-01 -9.200706e-01 -4.977026e-01 -6.057411e-01 -1.233158e+00 2.810230e-01 -7.659283e-01 -1.157997e+00 -7.096910e-01 -2.056134e-01 1.499592e-01 1.376510e+00 4.911211e-02 3.005213e-02 -6.095846e-02 7.703658e-02 1.284264e-01 1.284132e-02 -7.611125e-02 2.507704e-01 1.336079e-01 1.404044e-01 -1.380763e-01 -3.940788e-02 -4.047678e-01
<VARIANCE> 39
 3.125458e+01 5.942329e+01 1.973668e+01 1.303813e+01 2.130889e+01 5.752348e+01 2.562527e+01 2.654555e+01 5.445960e+01 3.743424e+01 3.174630e+01 1.549403e+01 1.446459e+01 2.433656e+00 5.846683e+00 1.879046e+00 1.618414e+00 1.592550e+00 3.943019e+00 1.600089e+00 2.350480e+00 4.221961e+00 3.173613e+00 3.539221e+00 1.633291e+00 2.588450e+00 5.295448e-01 1.233020e+00 3.578461e-01 3.023745e-01 2.728721e-01 7.542563e-01 3.063883e-01 4.491071e-01 1.037592e+00 6.207421e-01 7.854013e-01 3.168989e-01 6.014134e-01
<GCONST> 1.185550e+02
<STATE> 3
<MEAN> 39
 -3.833246e+00 -5.607462e+00 -1.700325e+01 -1.639690e+01 2.419689e-01 -1.521229e+01 2.770339e+00 -1.306722e+01 -1.160950e+00 -1.260946e+01 3.791806e+00 -2.317330e+00 8.852128e+01 6.155206e-02 -4.856654e-01 -1.097126e-01 -2.173583e-01 5.935214e-01 4.200595e-01 -8.688054e-02 1.131497e-01 1.292659e+00 -1.309385e-01 2.783214e-01 1.956455e-01 -6.080790e-01 -8.017912e-02 1.543497e-01 1.634830e-01 1.610348e-02 -4.322878e-02 5.081439e-02 -3.316272e-02 -8.671544e-02 -7.940682e-02 -3.271414e-02 -7.677653e-03 6.724892e-02 -1.344859e-01
<VARIANCE> 39
 4.101977e+00 1.816104e+01 2.204916e+01 1.320316e+01 2.527365e+01 2.526370e+01 1.759559e+01 1.705412e+01 9.119196e+01 2.816987e+01 3.308106e+01 2.807902e+01 1.558605e+01 4.081819e-01 1.249304e+00 2.134929e+00 6.240320e-01 1.284784e+00 1.414976e+00 1.224112e+00 1.787902e+00 2.179933e+00 1.872984e+00 1.944074e+00 1.755823e+00 6.809611e-01 7.652123e-02 1.596188e-01 2.367745e-01 1.322846e-01 2.572764e-01 2.578996e-01 2.511822e-01 2.661994e-01 3.958818e-01 3.739680e-01 3.093140e-01 2.645827e-01 7.650984e-02
<GCONST> 9.423110e+01
<STATE> 4
<MEAN> 39
 -1.256150e+01 -3.709514e+00 -4.754949e+00 -1.928118e+01 5.591918e+00 -9.176026e+00 -4.417828e-01 -1.479177e+01 4.012987e+00 -1.056407e+01 6.954433e+00 1.562375e+00 7.669759e+01 -2.873603e+00 -1.910096e-01 2.147708e+00 -2.440492e-01 3.321253e-03 8.308614e-01 -3.289449e-01 1.178586e+00 -9.029663e-01 1.643749e+00 -3.464666e-01 -6.829527e-01 4.436739e-01 -4.913406e-01 -2.576838e-01 -9.042205e-02 1.073298e-01 -1.128719e-01 1.363636e-02 2.163638e-01 4.226407e-01 4.083201e-02 1.334775e-01 -1.234660e-01 -1.893449e-01 5.476651e-01
<VARIANCE> 39
 4.499524e+01 2.121681e+01 4.234729e+01 1.223151e+01 1.747966e+01 2.852227e+01 2.627607e+01 2.830406e+01 5.764577e+01 6.087574e+01 2.176700e+01 3.520348e+01 2.257385e+01 4.707855e+00 4.217364e+00 1.567123e+00 1.164895e+00 2.839283e+00 2.123311e+00 3.013760e+00 4.572110e+00 3.506632e+00 6.519889e+00 1.718817e+00 2.751614e+00 5.596716e+00 5.435491e-01 7.277311e-01 3.618188e-01 2.112412e-01 6.009352e-01 4.494230e-01 5.433960e-01 5.346849e-01 6.875876e-01 1.357077e+00 3.237340e-01 4.672786e-01 5.074704e-01
<GCONST> 1.212688e+02
<STATE> 5
<MEAN> 39
 -3.304086e+01 -5.795073e+00 2.781503e+00 -1.675026e+01 7.942791e+00 -7.646482e+00 2.914068e+00 -4.263539e+00 1.240266e+00 -3.103472e+00 1.845466e+00 -4.163492e+00 8.351781e+01 3.311031e-01 2.151399e-01 5.036144e-02 3.094932e-01 1.165444e-01 -1.182079e-01 3.890059e-02 6.460679e-02 -1.696676e-01 -3.653103e-03 -2.441896e-01 4.797466e-02 -7.914722e-01 2.523598e-01 3.568495e-02 -6.512386e-02 2.673982e-02 1.041509e-03 -1.163211e-02 -5.967394e-02 -6.228971e-02 -6.656259e-02 -2.441637e-02 -5.627499e-03 5.547356e-02 -1.730327e-01
<VARIANCE> 39
 3.581896e+01 6.885323e+00 1.137256e+01 1.384015e+01 1.781660e+01 1.680865e+01 1.575348e+01 1.211925e+01 1.114119e+01 9.140585e+00 9.055369e+00 7.126194e+00 4.665832e+01 3.335991e+00 6.342555e-01 7.413471e-01 8.734703e-01 1.454495e+00 1.399855e+00 1.558183e+00 1.571204e+00 1.241754e+00 1.325652e+00 9.473180e-01 7.372091e-01 2.250702e+00 3.631386e-01 1.429834e-01 1.330173e-01 1.548486e-01 2.432782e-01 2.427532e-01 2.780470e-01 3.534082e-01 2.321309e-01 3.426784e-01 1.866672e-01 1.310591e-01 1.466417e-01
<GCONST> 8.855138e+01
<TRANSP> 6
 0.000000e+00 1.000000e+00 0.000000e+00 0.000000e+00 0.000000e+00 0.000000e+00
 0.000000e+00 9.129130e-01 8.708706e-02 0.000000e+00 0.000000e+00 0.000000e+00
 0.000000e+00 0.000000e+00 9.433370e-01 5.666299e-02 0.000000e+00 0.000000e+00
 0.000000e+00 0.000000e+00 0.000000e+00 8.695604e-01 1.304396e-01 0.000000e+00
 0.000000e+00 0.000000e+00 0.000000e+00 0.000000e+00 9.585107e-01 4.148932e-02
 0.000000e+00 0.000000e+00 0.000000e+00 0.000000e+00 0.000000e+00 0.000000e+00
<ENDHMM>
