~o
<STREAMINFO> 1 39
<VECSIZE> 39<NULLD><MFCC_D_A_0><DIAGC>
~h "nine"
<BEGINHMM>
<NUMSTATES> 6
<STATE> 2
<MEAN> 39
 -3.250687e+00 6.732115e+00 5.822650e+00 -6.120493e+00 1.271924e+01 -1.571251e+01 3.187205e+00 -1.227986e+01 -1.553861e+01 -5.822667e+00 -5.405273e+00 -3.578320e+00 7.693825e+01 5.094670e-01 -3.680621e-01 -4.729539e-01 -1.834276e+00 -6.629608e-01 -1.524697e+00 1.196075e+00 -3.166848e-01 2.182279e-01 -5.323889e-01 1.509956e+00 7.123967e-02 2.780944e+00 -2.958048e-01 -4.305923e-01 -4.808196e-01 -2.224037e-01 -3.552415e-01 1.655423e-01 9.089623e-02 4.123574e-01 3.516513e-01 -2.784852e-02 2.750310e-01 1.353331e-01 7.127564e-03
<VARIANCE> 39
 9.105999e+00 1.906358e+01 1.106601e+01 4.888475e+01 5.084478e+01 3.067640e+01 4.261544e+01 2.638980e+01 3.809557e+01 1.569754e+01 5.015440e+01 2.000213e+01 6.884829e+01 2.860177e+00 4.321517e+00 3.040326e+00 2.428606e+00 7.999953e+00 3.730682e+00 3.016868e+00 3.905189e+00 5.759026e+00 1.295115e+00 4.896522e+00 2.131463e+00 2.268486e+00 3.066421e-01 5.519559e-01 2.970840e-01 4.818704e-01 1.281007e+00 9.051549e-01 6.242292e-01 5.362521e-01 8.453125e-01 2.412590e-01 8.660383e-01 4.513327e-01 5.809546e-01
<GCONST> 1.228524e+02
<STATE> 3
<MEAN> 39
 -4.088758e+00 -1.592939e+00 -7.229083e+00 -2.017656e+01 7.498718e+00 -1.873982e+01 1.025337e+01 -6.457604e+00 -2.001579e+00 -1.693050e+01 5.929502e+00 2.630160e+00 9.296959e+01 -6.350727e-02 -2.308146e-01 -2.011667e-01 -7.179997e-02 6.016205e-01 -1.313964e-02 -3.517175e-01 1.681011e-01 7.828720e-01 -4.292932e-01 3.441871e-01 -2.704597e-02 -2.834059e-02 -3.980108e-02 4.373341e-02 2.255360e-01 1.609073e-01 7.462668e-02 -9.209336e-02 -1.101120e-01 -7.037248e-02 1.327344e-02 8.116310e-02 -5.253240e-02 -1.580215e-01 -1.323875e-01
<VARIANCE> 39
 2.439070e+00 6.492826e+00 1.605279e+01 8.817142e+00 2.203653e+01 2.270799e+01 1.567751e+01 1.046847e+01 3.701851e+01 3.694943e+01 2.280934e+01 2.025862e+01 2.934511e+00 2.055643e-01 4.702247e-01 1.548365e+00 7.716079e-01 1.269463e+00 2.895549e+00 1.148580e+00 1.045013e+00 1.492627e+00 2.553055e+00 1.892830e+00 2.423501e+00 2.602278e-01 3.218633e-02 8.769257e-02 1.415455e-01 2.095549e-01 2.698566e-01 4.832345e-01 1.492680e-01 1.719613e-01 2.830747e-01 3.548079e-01 4.416383e-01 2.546174e-01 1.165873e-01
<GCONST> 8.426176e+01
<STATE> 4
<MEAN> 39
 -1.021318e+01 -3.592800e+00 7.789031e+00 -1.062264e+01 1.368571e+01 -3.397388e+01 -1.089327e+00 -5.302683e+00 6.874302e+00 -1.602084e+01 8.176765e+00 -7.647299e+00 8.745339e+01 -5.333345e-01 1.548823e-02 1.782981e+00 1.203742e+00 -1.758480e-01 -1.121689e+00 -3.942822e-01 3.430286e-01 -4.672178e-01 -1.155352e-01 -1.001627e+00 -2.629081e-01 -8.141975e-01 8.388545e-03 -2.660775e-02 -5.536995e-02 -3.296992e-02 -4.988725e-02 2.736035e-01 1.360324e-01 4.707322e-02 -2.101972e-01 -5.614726e-02 -8.795619e-02 1.882183e-01 -7.279477e-02
<VARIANCE> 39
 7.990858e+00 5.548555e+00 5.928758e+01 2.786360e+01 1.089096e+01 3.186351e+01 1.009531e+01 1.478968e+01 2.069474e+01 1.050076e+01 3.002612e+01 1.660250e+01 1.373286e+01 2.045057e-01 4.880557e-01 4.851595e-01 5.528204e-01 7.775554e-01 1.797630e+00 1.172032e+00 1.238036e+00 1.691645e+00 1.243215e+00 1.104548e+00 1.621416e+00 2.119703e-01 3.372627e-02 6.591985e-02 6.993650e-02 8.083456e-02 1.440639e-01 1.812932e-01 1.481518e-01 1.996640e-01 1.735658e-01 2.192429e-01 2.323734e-01 1.840511e-01 1.729340e-02
<GCONST> 7.588013e+01
<STATE> 5
<MEAN> 39
 -1.526576e+01 -8.113626e+00 1.586829e+01 -2.190826e+00 4.766242e+00 -2.672817e+01 -1.150315e+00 3.064361e+00 -6.597492e+00 -1.330592e+01 -4.163906e-01 -1.168847e+00 7.276254e+01 1.929243e-02 -1.907845e-01 -1.100367e+00 4.954713e-01 -1.218716e+00 1.986836e+00 -3.326337e-02 5.916616e-01 -5.607265e-01 8.057543e-01 -2.151405e-01 5.054662e-01 -1.387512e+00 6.857513e-02 9.286550e-02 -2.119258e-01 -8.954495e-02 -3.089778e-02 8.466487e-02 -2.592009e-02 -1.367548e-01 1.984631e-01 4.858824e-02 2.304390e-02 -6.274603e-02 1.582444e-02
<VARIANCE> 39
 1.441557e+01 2.576280e+01 4.536948e+01 1.789050e+01 6.075990e+01 9.086983e+01 2.145753e+01 3.542072e+01 4.076185e+01 3.061101e+01 1.697087e+01 3.347050e+01 3.175500e+01 8.537915e-01 1.312290e+00 2.233766e+00 1.281598e+00 2.693135e+00 1.863473e+00 1.829787e+00 2.398175e+00 2.895528e+00 2.004924e+00 1.405491e+00 1.783309e+00 4.067401e-01 1.205100e-01 1.407646e-01 1.998700e-01 3.085100e-01 5.565516e-01 3.033286e-01 3.909785e-01 3.922902e-01 4.049420e-01 3.760678e-01 2.568677e-01 3.164099e-01 4.821745e-02
<GCONST> 1.045677e+02
<TRANSP> 6
 0.000000e+00 1.000000e+00 0.000000e+00 0.000000e+00 0.000000e+00 0.000000e+00
 0.000000e+00 8.967032e-01 1.032967e-01 0.000000e+00 0.000000e+00 0.000000e+00
 0.000000e+00 0.000000e+00 9.470718e-01 5.292822e-02 0.000000e+00 0.000000e+00
 0.000000e+00 0.000000e+00 0.000000e+00 9.210555e-01 7.894447e-02 0.000000e+00
 0.000000e+00 0.000000e+00 0.000000e+00 0.000000e+00 9.222300e-01 7.777005e-02
 0.000000e+00 0.000000e+00 0.000000e+00 0.000000e+00 0.000000e+00 0.000000e+00
<ENDHMM>
