~o
<STREAMINFO> 1 39
<VECSIZE> 39<NULLD><MFCC_D_A_0><DIAGC>
~h "ten"
<BEGINHMM>
<NUMSTATES> 6
<STATE> 2
<MEAN> 39
 -1.062982e+01 -1.074602e+01 1.905614e+00 -1.149381e+01 3.869002e+00 -1.818945e+01 9.670605e+00 -1.142092e+01 3.918956e+00 -2.752378e+00 3.759271e+00 -7.346010e+00 9.348620e+01 7.832414e-01 2.578851e-01 -5.864325e-01 -7.538133e-02 -1.890820e-01 -1.174624e+00 1.326875e-01 -2.256843e-01 -9.714063e-01 2.659130e-02 -3.509247e-01 -3.844867e-01 7.070363e-01 -1.785282e-02 2.182048e-01 -2.225214e-01 9.846115e-02 -1.964808e-01 1.309550e-01 -2.160004e-01 1.441447e-01 -3.053720e-01 -5.070527e-02 -1.308417e-01 1.454622e-01 -4.822128e-01
<VARIANCE> 39
 2.593534e+01 2.349437e+01 2.362300e+01 1.239127e+01 1.008452e+01 4.755572e+01 2.859247e+01 1.416287e+01 4.344235e+01 1.682144e+01 1.906467e+01 1.938110e+01 5.996381e+00 2.089119e+00 4.539920e+00 1.960282e+00 1.861677e+00 1.639974e+00 2.497443e+00 3.874220e+00 2.064426e+00 6.345021e+00 2.354689e+00 3.118573e+00 2.736493e+00 3.327917e+00 4.578263e-01 5.694491e-01 3.613214e-01 5.676516e-01 2.445076e-01 6.188021e-01 4.854514e-01 5.085700e-01 9.039071e-01 4.128514e-01 7.368935e-01 6.902904e-01 1.227910e+00
<GCONST> 1.156544e+02
<STATE> 3
<MEAN> 39
 -5.732296e+00 -2.327679e+00 -4.421939e+00 -1.580383e+01 1.050152e+00 -2.360776e+01 4.225553e+00 -1.325590e+01 -1.000903e+01 -4.542707e+00 8.689273e+00 -5.593240e+00 9.530527e+01 6.780307e-02 6.130641e-02 3.840219e-01 -5.505819e-01 7.681378e-01 7.426801e-02 5.123914e-02 -2.046529e-01 -2.383741e-01 -6.695683e-02 1.892611e+00 3.127911e-01 -2.540693e-01 -7.567353e-02 -1.434765e-01 2.460761e-01 1.190531e-02 3.108256e-01 -1.493372e-02 2.389890e-01 -7.436132e-02 1.910558e-01 1.441967e-02 9.594267e-02 -1.031792e-01 -1.835555e-01
<VARIANCE> 39
 2.404523e+00 8.528728e+00 8.054509e+00 1.431608e+01 2.063306e+01 2.087087e+01 3.447661e+01 1.152663e+01 1.697491e+01 1.813807e+01 6.392416e+01 2.580293e+01 4.633042e+00 9.078796e-02 7.257617e-01 1.076252e+00 4.790491e-01 1.760212e+00 1.103028e+00 2.198657e+00 9.320368e-01 1.587880e+00 1.486715e+00 1.457056e+00 1.842283e+00 2.437065e-01 3.723301e-02 1.844963e-01 1.013291e-01 1.127893e-01 2.048513e-01 2.230907e-01 3.117543e-01 1.660747e-01 4.831585e-01 3.204288e-01 5.824261e-01 2.794163e-01 3.817722e-02
<GCONST> 8.215485e+01
<STATE> 4
<MEAN> 39
 -6.532404e+00 2.677457e-01 5.088077e+00 -1.087198e+01 1.408463e+01 -1.668782e+01 4.411478e+00 -1.506159e+01 -1.180261e+01 -7.101641e+00 8.534735e+00 -5.032393e+00 8.086321e+01 4.666306e-02 5.853444e-01 4.474717e-01 1.303308e+00 2.578431e-01 1.167060e+00 -5.338503e-01 4.236924e-01 -2.755123e-01 -1.883289e-01 -1.739518e+00 2.003430e-01 -1.767904e+00 8.945433e-02 1.108810e-02 -1.670509e-01 1.201384e-01 -2.711126e-01 5.184539e-02 -1.265637e-01 1.493811e-01 -5.724022e-02 4.340484e-02 -1.311166e-01 1.719539e-02 -1.762901e-02
<VARIANCE> 39
 1.691573e+01 2.884957e+01 9.405619e+00 3.775961e+01 1.845961e+01 4.140927e+01 2.127762e+01 1.420553e+01 1.857672e+01 1.698999e+01 7.140612e+01 2.484542e+01 4.380050e+01 2.162613e+00 1.674491e+00 1.308509e+00 2.942308e+00 3.182441e+00 2.010089e+00 2.025607e+00 1.748323e+00 2.302583e+00 1.177914e+00 3.034584e+00 1.704193e+00 1.766804e+00 4.408577e-01 3.551646e-01 1.910508e-01 6.954120e-01 4.032416e-01 4.635897e-01 4.203972e-01 2.899400e-01 4.998638e-01 2.189418e-01 7.567408e-01 3.121995e-01 3.544847e-01
<GCONST> 1.097245e+02
<STATE> 5
<MEAN> 39
 -5.317016e+00 2.605198e+00 5.482114e+00 6.206149e-01 5.432741e+00 -6.037067e+00 -3.472003e+00 -7.056703e+00 -1.361533e+01 -7.061341e+00 -3.931412e+00 -6.401113e+00 6.690155e+01 -3.904817e-01 -4.104104e-01 -3.197138e-01 2.865273e-01 -1.091964e+00 7.516840e-01 -3.768261e-01 6.265678e-01 5.399653e-01 2.434145e-01 -2.281543e-01 3.420840e-02 -8.376290e-01 -1.096020e-01 -7.031994e-02 -5.082117e-02 -1.522128e-01 1.720044e-02 -3.869611e-02 9.063662e-02 -5.134967e-02 1.961652e-01 4.260463e-02 9.412544e-02 5.750823e-02 9.144360e-02
<VARIANCE> 39
 8.933954e+00 1.223658e+01 9.827512e+00 1.777739e+01 2.231008e+01 1.914101e+01 1.407446e+01 1.637756e+01 1.877375e+01 2.082680e+01 1.826078e+01 2.170591e+01 9.882154e+00 5.811091e-01 9.047456e-01 1.575021e+00 2.390862e+00 1.027867e+00 1.347040e+00 1.557586e+00 1.631883e+00 1.660139e+00 1.975745e+00 1.596318e+00 2.152365e+00 2.534045e-01 8.907788e-02 1.302910e-01 3.007397e-01 3.468669e-01 2.032639e-01 2.841251e-01 2.635778e-01 3.117089e-01 2.514767e-01 3.735981e-01 2.672299e-01 3.488449e-01 3.342707e-02
<GCONST> 9.006079e+01
<TRANSP> 6
 0.000000e+00 1.000000e+00 0.000000e+00 0.000000e+00 0.000000e+00 0.000000e+00
 0.000000e+00 9.186027e-01 8.139732e-02 0.000000e+00 0.000000e+00 0.000000e+00
 0.000000e+00 0.000000e+00 9.091480e-01 9.085207e-02 0.000000e+00 0.000000e+00
 0.000000e+00 0.000000e+00 0.000000e+00 9.121819e-01 8.781812e-02 0.000000e+00
 0.000000e+00 0.000000e+00 0.000000e+00 0.000000e+00 9.124381e-01 8.756192e-02
 0.000000e+00 0.000000e+00 0.000000e+00 0.000000e+00 0.000000e+00 0.000000e+00
<ENDHMM>
