~o
<STREAMINFO> 1 39
<VECSIZE> 39<NULLD><MFCC_D_A_0><DIAGC>
~h "divide"
<BEGINHMM>
<NUMSTATES> 6
<STATE> 2
<MEAN> 39
 -9.253654e+00 2.898039e+00 5.338095e+00 -6.161896e+00 6.655252e+00 -1.780215e+01 -8.142541e+00 -9.775176e+00 -8.973236e+00 -1.548015e+01 -4.152410e+00 -9.068740e+00 8.191541e+01 9.089025e-01 1.815539e-01 -6.113730e-01 -5.454083e-01 -2.241917e-01 -2.099538e-01 1.383315e-01 -1.663855e-01 -7.429597e-01 -1.655784e-01 2.925716e-01 1.048735e-01 4.639251e-01 1.808680e-02 -8.784386e-02 -2.186277e-01 -6.605914e-02 -9.467913e-02 1.943960e-01 1.593354e-01 3.721289e-02 1.021584e-01 1.897140e-01 6.551319e-02 7.320115e-02 -1.923884e-01
<VARIANCE> 39
 3.845314e+01 3.087422e+01 4.361679e+01 6.363329e+01 3.182178e+01 6.462727e+01 5.094050e+01 3.259920e+01 3.594162e+01 2.700248e+01 2.919006e+01 2.136234e+01 1.550302e+01 4.263844e+00 2.898538e+00 3.396574e+00 5.354565e+00 3.174902e+00 7.760581e+00 5.280560e+00 1.939861e+00 3.609544e+00 4.011456e+00 3.050978e+00 2.282412e+00 2.432787e+00 8.621693e-01 3.864869e-01 2.654285e-01 8.188855e-01 3.448965e-01 9.728975e-01 7.117556e-01 3.797159e-01 8.268718e-01 6.807383e-01 5.084168e-01 3.877233e-01 5.685307e-01
<GCONST> 1.264429e+02
<STATE> 3
<MEAN> 39
 -1.517680e+00 -2.255478e+00 -1.687939e+01 -1.851316e+01 1.018897e+00 -1.393650e+01 1.669183e+00 -1.041884e+01 -4.168407e+00 -1.408197e+01 5.816258e+00 -4.788193e+00 8.821862e+01 -2.361208e-01 -1.493401e-01 -4.599914e-02 3.248221e-01 7.650864e-01 -3.596468e-01 -3.472085e-01 2.381021e-01 1.140524e+00 7.624229e-03 4.850165e-01 -2.419711e-01 4.364590e-02 -1.141791e-01 4.936958e-02 2.901741e-01 9.938854e-02 4.764663e-02 -1.298787e-01 -1.827769e-01 5.990174e-02 -3.949069e-02 -6.526861e-02 -1.653921e-02 -2.226578e-02 -5.120599e-02
<VARIANCE> 39
 2.993500e+00 7.409326e+00 1.874346e+01 7.246086e+00 3.766266e+01 3.330095e+01 2.667962e+01 2.988035e+01 5.623315e+01 2.405578e+01 3.416645e+01 1.350251e+01 3.830318e+00 2.910361e-01 5.503564e-01 2.795907e+00 6.886461e-01 1.125911e+00 2.488408e+00 1.934241e+00 1.045314e+00 1.232817e+00 1.409392e+00 1.487709e+00 9.637539e-01 7.967688e-02 2.854245e-02 1.128650e-01 1.347958e-01 1.019277e-01 1.793883e-01 2.293831e-01 1.318424e-01 1.650928e-01 2.341787e-01 2.491039e-01 2.885502e-01 1.573976e-01 2.168481e-02
<GCONST> 8.032296e+01
<STATE> 4
<MEAN> 39
 -1.023684e+01 -2.669078e+00 3.781896e+00 -7.358469e+00 1.100755e+01 -2.923488e+01 -1.315505e+01 -5.341217e+00 9.663702e-01 -1.523716e+01 9.371666e+00 -6.807407e+00 8.547649e+01 -5.761727e-01 5.055880e-01 1.991218e+00 1.131036e+00 3.162217e-01 -2.088208e-02 -2.064102e-01 -2.058722e-01 -1.357538e+00 -4.696509e-01 -1.315773e+00 1.954154e-01 -1.276029e+00 1.887201e-01 4.152017e-02 -5.805519e-01 -2.195230e-01 -1.381233e-01 7.201141e-01 4.747305e-01 -1.388009e-01 -1.067150e-01 2.462197e-01 -1.645720e-01 1.261847e-01 -3.833985e-01
<VARIANCE> 39
 5.476295e+00 1.794129e+01 5.506363e+01 1.762373e+01 1.349531e+01 1.909231e+01 1.802716e+01 2.375569e+01 3.301758e+01 1.746509e+01 2.177262e+01 1.186973e+01 1.370994e+01 5.082759e-01 9.000584e-01 3.289057e+00 7.616985e-01 1.168357e+00 5.508683e+00 4.095707e+00 1.414849e+00 1.172919e+00 1.626882e+00 1.652977e+00 9.411996e-01 1.673995e+00 2.843964e-02 2.460434e-01 4.389126e-01 1.690672e-01 4.277776e-01 3.227550e-01 3.128884e-01 2.875144e-01 3.407722e-01 5.052384e-01 2.441490e-01 2.324550e-01 1.147561e-01
<GCONST> 9.589766e+01
<STATE> 5
<MEAN> 39
 -1.628642e+01 -6.396283e+00 1.562589e+00 -9.569771e+00 1.408154e+00 -1.187737e+01 -6.876347e+00 -7.895547e+00 -2.432839e+00 -5.114809e+00 3.964703e-01 -3.557020e+00 7.178468e+01 -3.297758e-01 -4.957874e-01 -3.685557e-01 -2.810236e-01 -6.656066e-01 9.426295e-01 1.608686e-01 2.792553e-01 2.414279e-01 9.593477e-01 -9.894346e-02 2.113670e-01 -7.073976e-01 -2.014853e-02 2.434030e-02 1.182345e-01 7.360127e-02 3.887031e-02 -1.624746e-01 -1.002050e-01 5.514423e-02 2.083767e-02 -8.185101e-02 1.763458e-02 -2.773262e-02 1.063047e-01
<VARIANCE> 39
 3.859295e+01 2.491463e+01 1.739706e+01 2.616296e+01 2.756536e+01 2.988915e+01 2.071676e+01 1.934899e+01 2.129876e+01 3.578313e+01 2.231115e+01 2.316521e+01 7.489606e+01 4.332848e+00 1.848960e+00 3.987652e+00 3.275412e+00 2.960557e+00 5.746617e+00 3.058646e+00 2.556768e+00 1.943866e+00 4.740054e+00 2.197176e+00 2.823636e+00 1.309270e+01 8.593544e-01 3.633153e-01 7.533963e-01 6.728007e-01 5.063823e-01 8.708600e-01 7.420973e-01 4.379950e-01 3.988250e-01 7.983285e-01 4.917779e-01 5.329369e-01 2.278968e+00
<GCONST> 1.252873e+02
<TRANSP> 6
 0.000000e+00 1.000000e+00 0.000000e+00 0.000000e+00 0.000000e+00 0.000000e+00
 0.000000e+00 9.486646e-01 5.133538e-02 0.000000e+00 0.000000e+00 0.000000e+00
 0.000000e+00 0.000000e+00 9.439320e-01 5.606798e-02 0.000000e+00 0.000000e+00
 0.000000e+00 0.000000e+00 0.000000e+00 8.934177e-01 1.065823e-01 0.000000e+00
 0.000000e+00 0.000000e+00 0.000000e+00 0.000000e+00 9.447580e-01 5.524201e-02
 0.000000e+00 0.000000e+00 0.000000e+00 0.000000e+00 0.000000e+00 0.000000e+00
<ENDHMM>
