~o
<STREAMINFO> 1 39
<VECSIZE> 39<NULLD><MFCC_D_A_0><DIAGC>
~h "minus"
<BEGINHMM>
<NUMSTATES> 6
<STATE> 2
<MEAN> 39
 -2.269065e+00 7.855179e+00 -9.707384e-01 -1.342411e+01 5.120044e+00 -1.436403e+01 2.820171e+00 -8.242349e+00 -2.127300e+01 -1.778872e+01 -1.274072e+01 -5.602924e+00 7.690408e+01 1.194112e+00 -6.452415e-01 -2.137092e+00 -1.625248e+00 -1.810408e+00 -2.446302e+00 5.323759e-01 -9.419301e-01 4.381526e-01 -1.435647e+00 2.248498e+00 3.575779e-01 3.842853e+00 -7.261480e-01 -9.677147e-01 -4.614323e-01 1.508334e-01 -3.249603e-01 3.519556e-01 -1.538349e-02 9.423403e-02 8.448389e-01 8.067630e-01 8.096698e-01 3.394532e-01 -4.669151e-02
<VARIANCE> 39
 9.192125e+00 1.660284e+01 3.255194e+01 3.049794e+01 5.331032e+01 5.809110e+01 1.496096e+01 2.795089e+01 6.051990e+01 2.306557e+01 7.139112e+01 2.203158e+01 5.539687e+01 3.670714e+00 6.886003e+00 3.724930e+00 2.631423e+00 5.075127e+00 4.614140e+00 1.968659e+00 1.756177e+00 1.279748e+01 6.573427e+00 1.066797e+01 2.802135e+00 2.735236e+00 2.662693e-01 5.962690e-01 7.065195e-01 6.382077e-01 1.067835e+00 1.504400e+00 3.279995e-01 4.077937e-01 1.852145e+00 8.486066e-01 2.087709e+00 5.804982e-01 5.746109e-01
<GCONST> 1.309545e+02
<STATE> 3
<MEAN> 39
 -6.657906e+00 1.363303e+00 -4.035934e+00 -1.169420e+01 2.478995e+00 -2.220723e+01 -2.884097e+00 -1.198922e+01 -1.153810e+01 -1.152419e+01 -9.173733e-01 -1.113527e+01 8.773520e+01 -1.173474e-01 -1.689264e-02 1.668771e-01 1.120912e-01 3.129876e-01 -1.275021e-02 -3.071855e-01 -7.923695e-02 1.332637e-01 4.446735e-01 3.891733e-01 -5.792682e-02 4.002836e-02 4.945209e-02 2.241592e-02 5.043571e-02 -6.312306e-03 6.024856e-02 -2.230252e-03 -1.436518e-02 6.179333e-02 -1.506143e-02 2.078601e-02 -1.723952e-02 3.635656e-02 -7.121871e-02
<VARIANCE> 39
 1.048281e+01 3.486228e+01 7.287700e+01 2.380480e+01 1.853019e+01 7.896144e+01 3.768423e+01 1.726021e+01 2.423394e+01 3.304696e+01 3.586523e+01 3.480733e+01 4.693944e+01 1.325834e+00 2.672319e+00 2.828789e+00 1.419217e+00 1.346945e+00 7.242393e+00 1.542138e+00 1.870225e+00 1.593077e+00 2.779701e+00 4.752732e+00 2.264239e+00 2.828072e+00 2.729905e-01 3.948568e-01 3.485239e-01 2.615765e-01 3.079797e-01 1.192128e+00 2.739045e-01 3.930134e-01 3.068125e-01 4.161599e-01 7.686697e-01 3.093620e-01 3.842385e-01
<GCONST> 1.150582e+02
<STATE> 4
<MEAN> 39
 -9.122456e+00 -2.144332e+00 1.003336e+00 -1.450303e+01 7.146388e+00 -1.635658e+01 -4.712591e+00 -1.089695e+01 -9.813016e+00 -4.969062e+00 9.873648e+00 1.297624e+00 8.572482e+01 -1.122658e+00 -4.052795e-01 6.540375e-01 -1.932726e-01 -1.150885e-01 8.412095e-01 1.194829e-01 2.543533e-01 5.877552e-01 -6.528849e-03 -3.668288e-01 -5.411686e-02 -1.388331e-01 -2.931577e-01 7.123210e-03 4.168537e-04 -1.829318e-02 -8.194416e-02 3.674119e-02 5.650456e-02 1.644633e-02 8.231775e-02 -4.633498e-02 -1.207944e-01 -1.613645e-01 6.987180e-02
<VARIANCE> 39
 3.230731e+01 3.436647e+01 3.838721e+01 1.184183e+01 1.254106e+01 4.298123e+01 3.066275e+01 1.680531e+01 2.572803e+01 2.529798e+01 2.659010e+01 2.357984e+01 2.323792e+01 4.166340e+00 4.177358e+00 1.303299e+00 1.060836e+00 1.385508e+00 1.875570e+00 1.427077e+00 1.749124e+00 3.759740e+00 1.891824e+00 1.674547e+00 3.153509e+00 1.861081e+00 3.922258e-01 7.275719e-01 3.218328e-01 2.157526e-01 2.802266e-01 3.493994e-01 2.616775e-01 2.962256e-01 5.550165e-01 3.597273e-01 3.131827e-01 3.098569e-01 2.672049e-01
<GCONST> 1.086402e+02
<STATE> 5
<MEAN> 39
 -3.261044e+01 -6.163759e+00 3.185233e+00 -1.759105e+01 8.419865e+00 -8.518367e+00 2.689081e+00 -3.924560e+00 2.072123e+00 -3.135383e+00 2.805211e+00 -5.140286e+00 8.399710e+01 2.779960e-01 1.594449e-01 -1.864782e-01 1.606339e-01 -1.625523e-02 -6.439279e-02 1.515674e-01 2.437587e-01 -1.084302e-01 1.293094e-01 -1.759666e-01 1.300145e-01 -9.096683e-01 2.522664e-01 5.500119e-02 -1.142772e-02 9.855633e-02 2.666692e-02 1.360215e-02 -7.076421e-02 -8.451524e-03 -1.332834e-01 1.977314e-02 -3.056498e-02 8.213732e-02 -1.532337e-01
<VARIANCE> 39
 2.681278e+01 1.711869e+01 1.868994e+01 1.882205e+01 2.163804e+01 1.696493e+01 1.814946e+01 1.924113e+01 1.521114e+01 1.063632e+01 1.139489e+01 1.288664e+01 6.168711e+01 3.039882e+00 9.847412e-01 1.324475e+00 1.679826e+00 1.737957e+00 1.459463e+00 1.256694e+00 1.557767e+00 1.061839e+00 8.907459e-01 9.131468e-01 8.488094e-01 2.007904e+00 3.049175e-01 2.039494e-01 2.031770e-01 2.707097e-01 3.085155e-01 3.175818e-01 2.218361e-01 2.550098e-01 2.097058e-01 1.611105e-01 1.654049e-01 1.837007e-01 1.784697e-01
<GCONST> 9.403548e+01
<TRANSP> 6
 0.000000e+00 1.000000e+00 0.000000e+00 0.000000e+00 0.000000e+00 0.000000e+00
 0.000000e+00 8.181055e-01 1.818945e-01 0.000000e+00 0.000000e+00 0.000000e+00
 0.000000e+00 0.000000e+00 9.676875e-01 3.231249e-02 0.000000e+00 0.000000e+00
 0.000000e+00 0.000000e+00 0.000000e+00 9.430659e-01 5.693415e-02 0.000000e+00
 0.000000e+00 0.000000e+00 0.000000e+00 0.000000e+00 9.601439e-01 3.985610e-02
 0.000000e+00 0.000000e+00 0.000000e+00 0.000000e+00 0.000000e+00 0.000000e+00
<ENDHMM>
