~o
<STREAMINFO> 1 39
<VECSIZE> 39<NULLD><MFCC_D_A_0><DIAGC>
~h "seven"
<BEGINHMM>
<NUMSTATES> 6
<STATE> 2
<MEAN> 39
 -2.639273e+01 -7.994837e+00 3.044579e+00 -2.050559e+01 1.056321e+01 -1.536596e+01 4.629930e+00 -8.414885e+00 3.885590e+00 -3.612741e+00 1.882640e+00 -4.558590e+00 8.751945e+01 -5.208341e-02 2.461999e-01 4.308112e-02 2.805006e-02 2.651995e-01 -7.992249e-01 -6.452094e-02 -5.364978e-01 -1.731515e-01 -3.843521e-01 6.562166e-02 -1.777458e-01 1.158718e+00 2.492380e-01 1.859200e-01 -1.537308e-01 2.082196e-01 -1.901443e-01 -1.284945e-02 -2.021024e-01 1.873659e-02 -1.722194e-01 -5.016327e-02 -2.305602e-02 6.773706e-02 -1.594137e-01
<VARIANCE> 39
 6.254611e+01 1.777053e+01 1.702238e+01 2.461297e+01 2.788845e+01 3.021806e+01 3.233963e+01 2.028415e+01 1.133299e+01 1.654509e+01 1.265719e+01 1.027856e+01 4.025446e+01 8.328904e+00 2.847623e+00 2.198227e+00 3.315442e+00 2.961888e+00 2.659599e+00 4.484641e+00 3.406033e+00 2.418705e+00 1.946175e+00 1.433793e+00 1.342169e+00 2.887804e+00 6.990312e-01 4.732532e-01 3.855479e-01 4.717110e-01 2.637202e-01 4.751532e-01 4.401036e-01 6.021184e-01 3.553090e-01 3.825033e-01 3.025237e-01 2.930213e-01 2.568483e-01
<GCONST> 1.129616e+02
<STATE> 3
<MEAN> 39
 -6.329033e+00 3.124447e-02 -5.674833e+00 -1.470492e+01 5.884606e-01 -2.330232e+01 -6.408283e+00 -1.555376e+01 -4.157694e+00 -8.615556e+00 1.538808e+00 -2.788612e+00 9.463406e+01 1.179249e+00 1.873684e-01 -8.422855e-01 -2.113705e-01 -4.945166e-01 -5.353283e-01 2.295126e-01 8.462060e-02 -3.390447e-01 -7.889122e-01 2.162926e-01 5.196589e-01 -1.291346e-01 -4.584170e-01 -2.181455e-01 2.760070e-01 -5.940726e-02 4.069791e-01 1.983387e-01 5.578839e-01 1.864713e-01 8.164872e-02 -2.009704e-01 -3.767744e-02 -7.293287e-02 -4.165862e-01
<VARIANCE> 39
 2.638043e+00 5.788513e+00 1.391444e+01 9.004722e+00 8.237889e+00 2.429705e+01 1.151740e+01 2.055499e+01 1.873662e+01 3.744315e+01 1.282166e+01 2.379404e+01 4.998923e+00 1.911370e+00 8.466285e-01 1.294031e+00 8.818563e-01 1.650006e+00 1.738454e+00 2.520606e+00 2.550452e+00 2.883258e+00 4.148103e+00 1.369579e+00 1.962850e+00 1.762132e+00 5.889811e-01 2.626492e-01 1.930874e-01 2.409855e-01 1.251599e-01 4.212254e-01 3.292643e-01 6.915615e-01 8.320748e-01 7.690121e-01 3.002431e-01 3.951167e-01 1.027978e-01
<GCONST> 9.723827e+01
<STATE> 4
<MEAN> 39
 -4.841914e+00 -5.759787e-01 1.068087e-01 -1.408533e+01 7.070666e+00 -2.173754e+01 2.134936e+00 -1.572376e+01 -8.275849e+00 -1.614069e+01 3.900571e+00 -2.838943e+00 8.565904e+01 -8.377051e-02 1.204562e-01 6.183360e-01 3.261977e-01 7.183364e-01 4.196436e-01 1.483738e-01 4.245875e-02 -8.618790e-02 1.848694e-01 1.387973e-01 -4.387043e-02 -6.356061e-01 1.645864e-02 -2.656759e-02 -5.273489e-02 1.274263e-01 -1.416754e-02 7.939811e-02 -1.689296e-01 1.081046e-01 4.856265e-03 1.976072e-01 -1.111810e-01 4.737902e-02 1.686754e-02
<VARIANCE> 39
 1.143162e+01 2.346413e+01 2.498999e+01 2.434095e+01 1.885287e+01 4.303209e+01 2.041833e+01 2.422771e+01 2.397246e+01 4.710181e+01 6.798125e+01 3.138276e+01 3.064328e+01 1.488025e+00 2.180470e+00 1.905474e+00 3.904913e+00 2.145067e+00 5.051102e+00 2.015203e+00 2.250784e+00 2.537538e+00 4.509109e+00 6.017902e+00 4.293801e+00 5.018404e+00 3.618127e-01 4.008432e-01 3.779334e-01 6.249081e-01 3.510614e-01 8.989245e-01 3.819384e-01 4.600617e-01 4.858748e-01 7.428002e-01 9.052934e-01 9.483505e-01 5.942019e-01
<GCONST> 1.211220e+02
<STATE> 5
<MEAN> 39
 -4.728875e+00 8.315179e-01 3.770834e+00 -3.307046e-01 1.058216e+01 -6.600868e+00 -3.804762e+00 -8.684780e+00 -1.012240e+01 -5.309732e+00 -1.037002e+00 -2.945794e+00 6.942709e+01 -4.368834e-01 -3.555140e-01 -3.386320e-01 5.775194e-01 -8.798416e-01 1.091498e+00 -3.186182e-01 5.671921e-01 2.122265e-01 6.984813e-01 -3.683787e-01 -7.671597e-02 -1.082033e+00 -1.197672e-01 -1.450466e-02 -4.015195e-02 -2.162363e-01 -1.593284e-01 -1.233305e-01 1.014293e-01 -7.954345e-02 1.249422e-01 -5.235957e-02 1.941458e-01 -2.463720e-02 9.084839e-02
<VARIANCE> 39
 1.840132e+01 7.053567e+00 8.715451e+00 2.255520e+01 3.193629e+01 4.901955e+01 1.330735e+01 1.825391e+01 3.062421e+01 1.828489e+01 1.944853e+01 1.627783e+01 2.674200e+01 1.715178e+00 7.637569e-01 1.055329e+00 3.218605e+00 1.526707e+00 2.041041e+00 1.687859e+00 1.763761e+00 2.830950e+00 1.187873e+00 2.730117e+00 2.043429e+00 4.891740e-01 2.250652e-01 1.568990e-01 2.219809e-01 4.391340e-01 3.341416e-01 3.720713e-01 3.065160e-01 3.271380e-01 3.799630e-01 2.461301e-01 4.924763e-01 4.045697e-01 1.122989e-01
<GCONST> 9.975583e+01
<TRANSP> 6
 0.000000e+00 1.000000e+00 0.000000e+00 0.000000e+00 0.000000e+00 0.000000e+00
 0.000000e+00 9.492388e-01 5.076117e-02 0.000000e+00 0.000000e+00 0.000000e+00
 0.000000e+00 0.000000e+00 8.820330e-01 1.179671e-01 0.000000e+00 0.000000e+00
 0.000000e+00 0.000000e+00 0.000000e+00 9.486432e-01 5.135681e-02 0.000000e+00
 0.000000e+00 0.000000e+00 0.000000e+00 0.000000e+00 9.326664e-01 6.733364e-02
 0.000000e+00 0.000000e+00 0.000000e+00 0.000000e+00 0.000000e+00 0.000000e+00
<ENDHMM>
