~o
<STREAMINFO> 1 39
<VECSIZE> 39<NULLD><MFCC_D_A_0><DIAGC>
~h "six"
<BEGINHMM>
<NUMSTATES> 6
<STATE> 2
<MEAN> 39
 -3.054904e+01 -5.335848e+00 3.619252e+00 -1.631812e+01 7.357448e+00 -1.063788e+01 2.792220e+00 -7.349740e+00 2.465160e+00 -2.808164e+00 1.640608e+00 -4.341002e+00 8.660558e+01 -2.036687e-01 2.127567e-01 9.175233e-02 -3.068956e-01 1.965631e-01 -8.018152e-01 -1.713679e-01 -3.636840e-01 -1.091714e-01 -3.172831e-01 -9.046862e-02 -2.780978e-01 1.116127e+00 3.912680e-01 1.237808e-01 -1.024772e-01 2.503062e-01 -1.259968e-01 -1.181617e-01 -2.156540e-01 -4.607499e-02 -1.556569e-01 -5.333532e-02 -9.725512e-02 -8.163095e-02 -1.588645e-01
<VARIANCE> 39
 6.336662e+01 1.676093e+01 2.727110e+01 1.814687e+01 2.492177e+01 2.059412e+01 2.415114e+01 2.367569e+01 1.983010e+01 1.809994e+01 1.133434e+01 1.067728e+01 4.404246e+01 7.659211e+00 1.526434e+00 2.820395e+00 2.617465e+00 2.105256e+00 2.454684e+00 3.883831e+00 2.924743e+00 2.438781e+00 1.874454e+00 1.593957e+00 1.549121e+00 2.169138e+00 6.004750e-01 3.086604e-01 5.498218e-01 4.046990e-01 3.464509e-01 4.662908e-01 3.991297e-01 4.755381e-01 3.228631e-01 3.727376e-01 2.472300e-01 2.634522e-01 1.942296e-01
<GCONST> 1.104712e+02
<STATE> 3
<MEAN> 39
 -1.106174e+01 -3.930771e+00 2.133441e+00 -2.332962e+00 2.297569e+00 -2.450652e+01 -8.427320e+00 -7.158759e+00 -6.261393e+00 -7.068262e+00 -3.039656e+00 -4.798763e+00 8.007706e+01 4.471126e-01 -7.784592e-02 -2.746342e-01 6.824405e-01 -3.119375e-01 5.463475e-01 -1.304873e-02 5.308660e-01 5.498479e-03 1.831321e-01 -2.442573e-02 3.143308e-01 -1.347193e+00 -3.499565e-01 -8.006044e-02 -5.703026e-02 -2.396514e-01 1.898662e-01 1.535044e-01 1.689169e-01 5.171032e-02 1.760225e-01 9.759513e-02 8.935940e-02 2.321384e-02 1.184498e-01
<VARIANCE> 39
 7.455143e+00 1.715534e+01 1.719403e+01 2.437210e+01 2.731357e+01 1.120786e+02 2.345980e+01 4.281600e+01 1.133167e+01 1.948369e+01 2.022093e+01 2.127544e+01 1.694333e+02 3.078369e+00 1.613019e+00 2.036397e+00 2.054142e+00 2.888634e+00 9.217869e+00 2.855669e+00 2.498625e+00 1.654921e+00 2.459444e+00 2.104363e+00 1.873322e+00 3.775516e+00 4.829720e-01 3.432883e-01 4.505936e-01 3.855458e-01 6.271121e-01 1.296329e+00 4.948715e-01 6.256937e-01 2.844681e-01 5.163346e-01 4.581261e-01 4.522510e-01 7.234449e-01
<GCONST> 1.177409e+02
<STATE> 4
<MEAN> 39
 -2.066959e+01 -8.579192e+00 -2.684564e+00 -1.190152e+01 9.954335e+00 -1.023941e+01 -7.011731e+00 -8.463336e+00 6.525619e-01 -9.969292e-01 6.032394e-01 -5.809296e+00 8.188002e+01 -2.727062e+00 -6.366361e-01 2.556088e-01 -2.325423e+00 1.573739e+00 -1.689025e-01 3.799773e-01 -8.321475e-01 1.240469e+00 3.453075e-01 8.816398e-01 -4.322990e-01 4.393923e+00 -1.322797e-01 1.344308e-01 3.656905e-01 2.581094e-01 -4.351010e-01 1.127524e-01 3.131561e-01 3.525404e-01 -2.246320e-02 -1.339757e-01 -9.359211e-02 1.314729e-01 -2.824452e-01
<VARIANCE> 39
 4.639014e+01 1.568181e+01 2.627633e+01 5.988708e+01 4.802697e+01 3.133170e+01 1.482923e+01 2.833889e+01 2.603780e+01 9.698468e+00 2.250524e+01 1.237896e+01 1.619716e+02 1.549277e+00 1.539247e+00 5.263253e+00 5.824431e+00 7.450920e+00 3.098876e+00 2.468234e+00 3.905979e+00 1.940306e+00 1.069901e+00 2.270870e+00 1.597518e+00 6.692585e+00 4.051496e-01 2.794465e-01 7.884825e-01 1.164120e+00 1.259181e+00 6.291319e-01 4.494323e-01 6.579693e-01 4.786281e-01 1.923196e-01 4.861048e-01 2.949983e-01 2.447482e+00
<GCONST> 1.217032e+02
<STATE> 5
<MEAN> 39
 -3.070280e+01 -5.365962e+00 3.842079e+00 -1.777645e+01 1.008127e+01 -9.394645e+00 2.452833e+00 -4.548090e+00 4.052214e-01 -1.988449e+00 2.224274e+00 -4.278604e+00 8.484192e+01 5.719234e-01 2.285232e-01 4.355131e-02 3.171369e-01 -1.835744e-01 1.098017e-01 3.468894e-02 2.761079e-01 -3.980112e-01 7.855080e-02 -2.648279e-01 1.227574e-01 -1.143241e+00 1.278253e-01 -2.378805e-02 -5.460713e-02 9.702036e-02 5.040964e-03 2.040043e-02 -1.082278e-01 -3.040394e-02 -2.684641e-02 -3.544062e-03 -2.193146e-02 -2.146504e-02 -6.345844e-02
<VARIANCE> 39
 5.703843e+01 7.675417e+00 1.185850e+01 2.286273e+01 1.303238e+01 1.442437e+01 2.204927e+01 1.521079e+01 1.842400e+01 9.921584e+00 1.323531e+01 8.902767e+00 1.177932e+02 2.197453e+00 7.407750e-01 1.134217e+00 1.646946e+00 1.248884e+00 1.092335e+00 1.695038e+00 1.472664e+00 1.140548e+00 1.249706e+00 1.172994e+00 8.183588e-01 1.579552e+00 2.598169e-01 1.483535e-01 2.172183e-01 2.189135e-01 2.456193e-01 2.290545e-01 2.481680e-01 2.729168e-01 2.659162e-01 2.656547e-01 2.095218e-01 1.593863e-01 1.623712e-01
<GCONST> 9.252858e+01
<TRANSP> 6
 0.000000e+00 1.000000e+00 0.000000e+00 0.000000e+00 0.000000e+00 0.000000e+00
 0.000000e+00 9.485649e-01 5.143512e-02 0.000000e+00 0.000000e+00 0.000000e+00
 0.000000e+00 0.000000e+00 9.520366e-01 4.796343e-02 0.000000e+00 0.000000e+00
 0.000000e+00 0.000000e+00 0.000000e+00 8.607441e-01 1.392559e-01 0.000000e+00
 0.000000e+00 0.000000e+00 0.000000e+00 0.000000e+00 9.639349e-01 3.606509e-02
 0.000000e+00 0.000000e+00 0.000000e+00 0.000000e+00 0.000000e+00 0.000000e+00
<ENDHMM>
