~o
<STREAMINFO> 1 39
<VECSIZE> 39<NULLD><MFCC_D_A_0><DIAGC>
~h "sil"
<BEGINHMM>
<NUMSTATES> 6
<STATE> 2
<MEAN> 39
 -1.558966e+01 -3.384765e+00 -4.510529e-01 -4.584036e+00 1.939445e+00 -3.063256e+00 -2.112177e+00 -3.654771e+00 -3.734644e+00 -2.724243e+00 -6.035325e-02 -1.837487e+00 6.193973e+01 2.888074e-02 -4.306456e-03 -7.670891e-02 9.907259e-02 -1.109413e-01 1.220340e-01 -1.894511e-02 -5.401567e-03 3.844685e-02 -4.480608e-02 -7.180365e-02 -3.128640e-02 -9.185841e-02 1.657137e-02 -6.558648e-03 4.628325e-03 2.256976e-02 -3.601766e-02 -2.707000e-02 -2.745135e-03 -1.743082e-02 3.704195e-02 -4.426274e-03 5.729039e-03 -1.198713e-02 2.856542e-02
<VARIANCE> 39
 2.263350e+01 2.433041e+01 3.644881e+01 4.175426e+01 2.544611e+01 3.075162e+01 2.353634e+01 3.408697e+01 2.444535e+01 2.036859e+01 2.330854e+01 2.011596e+01 1.684861e+01 1.253831e+00 1.328816e+00 1.642322e+00 2.032810e+00 2.148328e+00 2.224864e+00 2.160832e+00 2.202941e+00 2.124578e+00 2.001488e+00 1.599075e+00 1.531724e+00 1.695500e+00 2.225741e-01 2.330553e-01 2.953340e-01 3.431435e-01 4.018557e-01 3.937978e-01 4.143845e-01 4.082921e-01 4.179953e-01 3.911975e-01 3.039661e-01 2.944212e-01 3.212591e-01
<GCONST> 1.073346e+02
<STATE> 3
<MEAN> 39
 -1.551853e+01 -2.474369e+00 -1.245185e+00 -3.222744e+00 -4.564228e-01 -3.540813e+00 -2.004249e+00 -3.049870e+00 -2.188866e+00 -2.760987e+00 -1.325257e+00 -2.205262e+00 5.995486e+01 2.770010e-02 -3.523889e-02 3.560614e-03 2.486940e-02 -2.581398e-02 -1.850695e-03 2.787103e-02 -1.030065e-02 3.314148e-02 -2.703683e-02 -8.837617e-03 -1.955132e-02 5.101728e-02 1.491901e-03 -2.330871e-03 9.599427e-03 -1.439393e-02 9.013783e-03 -3.572677e-03 -8.456266e-03 6.050260e-05 -1.327577e-02 6.613950e-03 4.410779e-03 2.071444e-03 1.092248e-02
<VARIANCE> 39
 5.861355e+00 4.565425e+00 7.222631e+00 1.011187e+01 8.873504e+00 1.080651e+01 1.025311e+01 1.277635e+01 1.090327e+01 1.074967e+01 1.073005e+01 9.508262e+00 3.735332e+00 1.699423e-01 2.227074e-01 3.908574e-01 6.102638e-01 8.154985e-01 9.133053e-01 1.044303e+00 1.086118e+00 1.146056e+00 1.083757e+00 1.051079e+00 9.085521e-01 8.218611e-02 3.327915e-02 4.536187e-02 8.114044e-02 1.201498e-01 1.622027e-01 1.872595e-01 2.195209e-01 2.213750e-01 2.343151e-01 2.268762e-01 2.209558e-01 1.882353e-01 1.326629e-02
<GCONST> 6.411447e+01
<STATE> 4
<MEAN> 39
 -1.427740e+01 -4.354659e+00 -1.122165e+00 -2.802507e+00 -2.313202e+00 -2.472764e+00 -3.123580e+00 -1.721820e+00 -3.032229e+00 -1.951377e+00 -2.399528e+00 -1.561998e+00 5.905268e+01 -3.833048e-03 3.002992e-03 -8.534765e-03 1.096168e-02 -2.143050e-02 2.230776e-02 -2.491007e-02 9.168758e-03 -4.458134e-03 2.130317e-02 4.778766e-04 9.874366e-03 -3.822407e-02 6.271006e-04 3.626673e-03 4.542858e-03 -2.593208e-03 9.415747e-03 -3.728563e-03 6.212330e-03 5.681417e-03 -1.086344e-03 2.102337e-04 2.801434e-04 1.015396e-03 5.095126e-03
<VARIANCE> 39
 1.933772e+00 2.325340e+00 2.866552e+00 4.735142e+00 5.257717e+00 6.304980e+00 7.062163e+00 7.681383e+00 7.845256e+00 7.720780e+00 7.167797e+00 6.599347e+00 1.546591e+00 6.301954e-02 1.302782e-01 2.304555e-01 3.468019e-01 4.641949e-01 5.796472e-01 6.737756e-01 7.533766e-01 7.772050e-01 7.973310e-01 7.348794e-01 6.354219e-01 1.981411e-02 1.290659e-02 2.695942e-02 4.831415e-02 7.134710e-02 9.569184e-02 1.197972e-01 1.388989e-01 1.554134e-01 1.603609e-01 1.649985e-01 1.531097e-01 1.275773e-01 3.917544e-03
<GCONST> 4.215034e+01
<STATE> 5
<MEAN> 39
 -1.531949e+01 -2.431582e+00 5.527280e-01 -4.626202e+00 1.996954e+00 -4.203104e+00 -9.612023e-01 -3.430301e+00 -2.725879e+00 -2.944752e+00 -1.225595e+00 -2.755070e+00 6.397210e+01 5.368321e-02 4.225026e-02 3.556115e-01 -5.525175e-01 5.143155e-01 -6.036966e-01 1.662484e-01 -3.873772e-01 -1.634242e-01 -1.840492e-01 6.344899e-03 -2.492729e-01 1.232131e+00 1.682658e-02 6.553429e-03 3.717159e-02 -9.639227e-02 3.711326e-02 -1.614110e-01 2.390219e-03 -1.161197e-01 -2.902810e-02 -1.187455e-01 2.030649e-02 -6.763737e-02 3.079532e-01
<VARIANCE> 39
 2.235359e+01 2.793554e+01 2.603974e+01 4.178563e+01 2.800193e+01 4.041478e+01 2.279071e+01 2.829653e+01 2.528345e+01 2.029514e+01 2.167431e+01 1.535673e+01 4.221754e+01 2.709902e+00 3.188236e+00 2.734246e+00 3.610182e+00 3.108344e+00 4.412254e+00 2.434090e+00 2.645679e+00 2.887640e+00 2.630409e+00 2.386472e+00 1.548857e+00 6.534452e+00 4.422908e-01 5.364196e-01 4.975021e-01 6.580129e-01 5.700557e-01 7.593800e-01 5.008447e-01 4.788359e-01 4.794958e-01 4.890538e-01 4.267621e-01 2.887606e-01 9.866973e-01
<GCONST> 1.201590e+02
<TRANSP> 6
 0.000000e+00 6.148815e-01 3.851186e-01 0.000000e+00 0.000000e+00 0.000000e+00
 0.000000e+00 9.221159e-01 7.548293e-02 2.401269e-03 0.000000e+00 0.000000e+00
 0.000000e+00 0.000000e+00 9.508435e-01 3.272949e-02 1.642697e-02 0.000000e+00
 0.000000e+00 0.000000e+00 0.000000e+00 9.706857e-01 1.085266e-02 1.846164e-02
 0.000000e+00 0.000000e+00 0.000000e+00 0.000000e+00 8.972322e-01 1.027679e-01
 0.000000e+00 0.000000e+00 0.000000e+00 0.000000e+00 0.000000e+00 0.000000e+00
<ENDHMM>
