~o
<STREAMINFO> 1 39
<VECSIZE> 39<NULLD><MFCC_D_A_0><DIAGC>
~h "three"
<BEGINHMM>
<NUMSTATES> 6
<STATE> 2
<MEAN> 39
 -1.753617e+01 -8.204530e+00 -1.464448e-02 -1.274888e+01 6.570631e-01 -1.015126e+01 -3.384404e+00 -8.451004e+00 1.406205e+00 -7.180314e+00 1.848836e+00 -6.671497e+00 8.593491e+01 1.199295e+00 1.744502e+00 6.701811e-01 4.806165e-01 1.438672e+00 -2.590064e+00 -1.222172e+00 -2.001638e+00 -1.534136e+00 -7.853853e-01 -8.503658e-01 -9.930430e-01 3.509451e+00 7.601795e-01 1.167095e+00 1.366207e-02 1.304178e+00 5.973541e-01 -1.386578e-01 -1.077153e-02 -1.913025e-02 -9.234348e-01 2.043790e-01 -6.776350e-01 4.415036e-01 -1.767720e+00
<VARIANCE> 39
 6.187417e+00 2.634717e+01 9.897779e+00 3.686124e+01 3.050009e+01 1.350370e+01 1.729327e+01 1.635856e+01 2.350575e+01 3.091167e+01 1.573277e+01 2.273743e+01 1.076583e+02 3.488048e+00 8.747787e+00 1.319435e+00 1.193276e+01 3.392059e+00 2.316829e+00 1.140123e+00 2.252187e+00 7.634173e+00 3.357956e+00 3.530965e+00 2.444175e+00 2.199744e+01 2.783180e-01 6.362196e-01 2.445326e-01 1.016630e+00 5.047933e-01 3.581539e-01 4.035911e-01 2.786367e-01 6.662515e-01 7.891082e-01 3.649327e-01 5.360171e-01 2.320006e+00
<GCONST> 1.207012e+02
<STATE> 3
<MEAN> 39
 -3.868285e+00 8.003427e+00 -6.816467e+00 -9.387445e+00 1.372451e+01 -2.152602e+01 -1.098492e+00 -1.686250e+01 -1.112132e+01 -1.084219e+01 -7.877048e+00 -2.707786e+00 8.624200e+01 3.900135e-01 2.358250e-01 -5.612369e-01 3.266519e-01 1.957429e-01 -5.445236e-01 -3.496581e-02 -2.604580e-01 1.673913e-01 -2.670890e-02 -2.758990e-02 -3.896477e-02 9.974407e-02 -1.933766e-01 -2.106818e-01 7.249631e-02 -1.525045e-02 -1.781723e-01 7.971688e-02 -2.553560e-03 1.713106e-01 2.299836e-01 -2.789498e-02 1.098691e-01 -1.119628e-01 4.374271e-02
<VARIANCE> 39
 7.570834e+00 1.203576e+01 3.547690e+01 4.438427e+01 2.999888e+01 3.532910e+01 4.031144e+01 2.305016e+01 3.231515e+01 2.190047e+01 2.570489e+01 2.132484e+01 1.497317e+01 1.233472e+00 2.030102e+00 1.214041e+00 4.052780e+00 4.280188e+00 3.749290e+00 3.867928e+00 2.437874e+00 3.367896e+00 2.473216e+00 2.592286e+00 2.290244e+00 7.397329e-01 1.223981e-01 2.281889e-01 2.457980e-01 5.428632e-01 7.392650e-01 8.057536e-01 5.983309e-01 5.115972e-01 4.884332e-01 5.330084e-01 3.471619e-01 3.192309e-01 1.303372e-01
<GCONST> 1.111791e+02
<STATE> 4
<MEAN> 39
 -1.033441e+01 2.654546e+00 5.842294e+00 2.536473e+00 5.653514e+00 -2.955369e+01 -7.207110e+00 -7.995265e+00 -2.762083e+00 -1.845760e+01 -6.531380e-01 -8.284830e+00 8.821169e+01 -6.679156e-01 7.250679e-02 1.988384e+00 2.552720e-01 -1.512681e-01 -1.618732e-01 4.001350e-01 1.012622e+00 -1.719560e-01 -9.774351e-01 1.852569e-01 4.944735e-02 -5.789372e-01 3.991069e-02 3.698771e-02 -4.740341e-02 -1.263227e-01 1.132535e-01 1.819971e-01 1.868840e-01 -9.683571e-02 -1.083794e-01 1.071894e-01 -4.340421e-02 1.185422e-01 -1.190601e-01
<VARIANCE> 39
 7.967585e+00 1.990839e+01 8.854315e+01 8.653236e+00 1.268537e+01 2.608605e+01 1.615522e+01 4.394365e+01 2.389391e+01 4.283945e+01 1.385286e+01 1.881108e+01 1.356794e+01 2.367252e-01 1.052975e+00 1.171047e+00 7.412872e-01 1.358398e+00 2.768462e+00 1.335765e+00 2.039586e+00 1.318639e+00 2.032877e+00 9.332937e-01 2.001611e+00 6.162838e-01 3.809294e-02 1.726193e-01 2.459713e-01 1.601691e-01 1.753749e-01 6.662850e-01 1.592939e-01 3.076431e-01 2.996993e-01 4.090100e-01 2.200845e-01 4.413429e-01 5.248564e-02
<GCONST> 9.197793e+01
<STATE> 5
<MEAN> 39
 -1.504748e+01 -5.347801e-01 1.411836e+01 9.340928e-01 4.663441e+00 -1.610811e+01 9.455427e-01 -2.132569e+00 -5.179748e+00 -1.290149e+01 -1.749478e+00 -5.276788e+00 7.135645e+01 1.498740e-01 -6.882303e-01 -1.391513e+00 -4.650382e-01 -5.855358e-01 2.051300e+00 2.691976e-02 2.500261e-01 3.500281e-02 1.467089e+00 -1.654232e-01 5.137609e-01 -1.413556e+00 5.398588e-02 1.433399e-03 -1.619763e-01 -7.280765e-02 -7.499964e-02 -3.224737e-02 -1.137179e-01 6.223956e-03 4.401459e-02 2.089659e-03 2.827727e-02 4.438674e-02 7.057843e-02
<VARIANCE> 39
 5.675483e+00 2.892970e+01 8.477951e+01 2.612819e+01 2.786802e+01 1.176910e+02 2.617747e+01 2.976434e+01 2.330467e+01 7.015616e+01 1.316479e+01 2.113301e+01 5.718229e+01 9.543102e-01 1.542650e+00 6.859533e+00 2.458803e+00 1.979941e+00 5.371055e+00 2.556196e+00 1.808779e+00 2.184869e+00 2.898778e+00 1.572011e+00 2.001750e+00 8.681493e-01 1.264204e-01 3.193892e-01 1.236006e+00 4.764596e-01 4.343045e-01 1.042573e+00 4.399459e-01 2.622849e-01 4.434515e-01 5.402301e-01 3.097487e-01 4.358075e-01 1.490247e-01
<GCONST> 1.142414e+02
<TRANSP> 6
 0.000000e+00 1.000000e+00 0.000000e+00 0.000000e+00 0.000000e+00 0.000000e+00
 0.000000e+00 7.368644e-01 2.631356e-01 0.000000e+00 0.000000e+00 0.000000e+00
 0.000000e+00 0.000000e+00 9.515761e-01 4.842393e-02 0.000000e+00 0.000000e+00
 0.000000e+00 0.000000e+00 0.000000e+00 9.313192e-01 6.868082e-02 0.000000e+00
 0.000000e+00 0.000000e+00 0.000000e+00 0.000000e+00 9.258636e-01 7.413639e-02
 0.000000e+00 0.000000e+00 0.000000e+00 0.000000e+00 0.000000e+00 0.000000e+00
<ENDHMM>
