~o
<STREAMINFO> 1 39
<VECSIZE> 39<NULLD><MFCC_D_A_0><DIAGC>
~h "minus"
<BEGINHMM>
<NUMSTATES> 6
<STATE> 2
<MEAN> 39
 -2.269174e+00 7.855001e+00 -9.706227e-01 -1.342372e+01 5.120016e+00 -1.436423e+01 2.819968e+00 -8.242539e+00 -2.127286e+01 -1.778877e+01 -1.274050e+01 -5.602815e+00 7.690414e+01 1.194126e+00 -6.452207e-01 -2.137040e+00 -1.625315e+00 -1.810378e+00 -2.446366e+00 5.324515e-01 -9.419317e-01 4.380744e-01 -1.435686e+00 2.248444e+00 3.575748e-01 3.842839e+00 -7.261410e-01 -9.677042e-01 -4.614292e-01 1.507895e-01 -3.249493e-01 3.519578e-01 -1.535935e-02 9.422543e-02 8.448010e-01 8.067483e-01 8.096542e-01 3.394627e-01 -4.670925e-02
<VARIANCE> 39
 9.192346e+00 1.660221e+01 3.255109e+01 3.049859e+01 5.330910e+01 5.809275e+01 1.496139e+01 2.795030e+01 6.052139e+01 2.306586e+01 7.138999e+01 2.203148e+01 5.539658e+01 3.670606e+00 6.885695e+00 3.724906e+00 2.631288e+00 5.075034e+00 4.614246e+00 1.968782e+00 1.756209e+00 1.279723e+01 6.573423e+00 1.066776e+01 2.802124e+00 2.735223e+00 2.662700e-01 5.962456e-01 7.065009e-01 6.382504e-01 1.067821e+00 1.504438e+00 3.280123e-01 4.077963e-01 1.852162e+00 8.486404e-01 2.087655e+00 5.804942e-01 5.746035e-01
<GCONST> 1.309545e+02
<STATE> 3
<MEAN> 39
 -6.657887e+00 1.363219e+00 -4.035754e+00 -1.169421e+01 2.479137e+00 -2.220742e+01 -2.884106e+00 -1.198937e+01 -1.153810e+01 -1.152428e+01 -9.173433e-01 -1.113520e+01 8.773514e+01 -1.173412e-01 -1.691008e-02 1.668625e-01 1.120931e-01 3.129937e-01 -1.274297e-02 -3.071990e-01 -7.923420e-02 1.332796e-01 4.446853e-01 3.891838e-01 -5.793466e-02 4.003461e-02 4.945143e-02 2.241489e-02 5.043628e-02 -6.305515e-03 6.024580e-02 -2.229236e-03 -1.436583e-02 6.179621e-02 -1.505967e-02 2.078806e-02 -1.724093e-02 3.635678e-02 -7.121848e-02
<VARIANCE> 39
 1.048282e+01 3.486215e+01 7.287484e+01 2.380489e+01 1.853000e+01 7.896047e+01 3.768614e+01 1.726068e+01 2.423372e+01 3.304765e+01 3.586513e+01 3.480690e+01 4.693822e+01 1.325846e+00 2.672423e+00 2.828757e+00 1.419191e+00 1.346961e+00 7.242341e+00 1.542165e+00 1.870287e+00 1.593140e+00 2.779674e+00 4.752672e+00 2.264268e+00 2.828038e+00 2.729952e-01 3.948648e-01 3.485171e-01 2.615725e-01 3.079847e-01 1.192123e+00 2.739053e-01 3.930274e-01 3.068213e-01 4.161574e-01 7.686549e-01 3.093719e-01 3.842357e-01
<GCONST> 1.150583e+02
<STATE> 4
<MEAN> 39
 -9.122412e+00 -2.144628e+00 1.003376e+00 -1.450295e+01 7.146420e+00 -1.635666e+01 -4.712653e+00 -1.089682e+01 -9.813005e+00 -4.969008e+00 9.873646e+00 1.297532e+00 8.572478e+01 -1.122663e+00 -4.052570e-01 6.540484e-01 -1.932767e-01 -1.151253e-01 8.412191e-01 1.194922e-01 2.543602e-01 5.877541e-01 -6.548942e-03 -3.668418e-01 -5.410169e-02 -1.388385e-01 -2.931592e-01 7.124044e-03 4.151519e-04 -1.829772e-02 -8.193995e-02 3.674674e-02 5.650442e-02 1.644322e-02 8.232445e-02 -4.633602e-02 -1.207917e-01 -1.613692e-01 6.987561e-02
<VARIANCE> 39
 3.230718e+01 3.436499e+01 3.838778e+01 1.184184e+01 1.254146e+01 4.298255e+01 3.066365e+01 1.680521e+01 2.572787e+01 2.529777e+01 2.659028e+01 2.357970e+01 2.323823e+01 4.166416e+00 4.177271e+00 1.303305e+00 1.060822e+00 1.385497e+00 1.875519e+00 1.427044e+00 1.749156e+00 3.759748e+00 1.891807e+00 1.674584e+00 3.153479e+00 1.861112e+00 3.922462e-01 7.275677e-01 3.218341e-01 2.157502e-01 2.802216e-01 3.493939e-01 2.616790e-01 2.962311e-01 5.550091e-01 3.597286e-01 3.131899e-01 3.098501e-01 2.672061e-01
<GCONST> 1.086402e+02
<STATE> 5
<MEAN> 39
 -3.261034e+01 -6.163764e+00 3.185452e+00 -1.759100e+01 8.419747e+00 -8.518461e+00 2.689147e+00 -3.924724e+00 2.072274e+00 -3.135514e+00 2.805309e+00 -5.140209e+00 8.399707e+01 2.779895e-01 1.594469e-01 -1.864785e-01 1.606371e-01 -1.624291e-02 -6.439023e-02 1.515751e-01 2.437470e-01 -1.084405e-01 1.293129e-01 -1.759603e-01 1.300158e-01 -9.096692e-01 2.522669e-01 5.499997e-02 -1.142832e-02 9.855858e-02 2.666662e-02 1.359947e-02 -7.077152e-02 -8.450744e-03 -1.332842e-01 1.977556e-02 -3.056364e-02 8.213869e-02 -1.532352e-01
<VARIANCE> 39
 2.681294e+01 1.711896e+01 1.868984e+01 1.882238e+01 2.163826e+01 1.696611e+01 1.814997e+01 1.924106e+01 1.521082e+01 1.063617e+01 1.139482e+01 1.288644e+01 6.168712e+01 3.039877e+00 9.847554e-01 1.324484e+00 1.679800e+00 1.737922e+00 1.459500e+00 1.256685e+00 1.557770e+00 1.061831e+00 8.907542e-01 9.131503e-01 8.488159e-01 2.007917e+00 3.049183e-01 2.039523e-01 2.031777e-01 2.707052e-01 3.085119e-01 3.175863e-01 2.218288e-01 2.550118e-01 2.097058e-01 1.611127e-01 1.654065e-01 1.837008e-01 1.784731e-01
<GCONST> 9.403558e+01
<TRANSP> 6
 0.000000e+00 1.000000e+00 0.000000e+00 0.000000e+00 0.000000e+00 0.000000e+00
 0.000000e+00 8.181047e-01 1.818953e-01 0.000000e+00 0.000000e+00 0.000000e+00
 0.000000e+00 0.000000e+00 9.676875e-01 3.231251e-02 0.000000e+00 0.000000e+00
 0.000000e+00 0.000000e+00 0.000000e+00 9.430657e-01 5.693432e-02 0.000000e+00
 0.000000e+00 0.000000e+00 0.000000e+00 0.000000e+00 9.601438e-01 3.985618e-02
 0.000000e+00 0.000000e+00 0.000000e+00 0.000000e+00 0.000000e+00 0.000000e+00
<ENDHMM>
