~o
<STREAMINFO> 1 39
<VECSIZE> 39<NULLD><MFCC_D_A_0><DIAGC>
~h "ten"
<BEGINHMM>
<NUMSTATES> 6
<STATE> 2
<MEAN> 39
 -1.062987e+01 -1.074596e+01 1.905641e+00 -1.149376e+01 3.868989e+00 -1.818932e+01 9.670497e+00 -1.142102e+01 3.918935e+00 -2.752343e+00 3.759254e+00 -7.345971e+00 9.348623e+01 7.832387e-01 2.578801e-01 -5.864281e-01 -7.537775e-02 -1.890840e-01 -1.174604e+00 1.326683e-01 -2.256770e-01 -9.713977e-01 2.659848e-02 -3.509222e-01 -3.844712e-01 7.070438e-01 -1.784568e-02 2.182039e-01 -2.225185e-01 9.846435e-02 -1.964857e-01 1.309569e-01 -2.160042e-01 1.441512e-01 -3.053688e-01 -5.070151e-02 -1.308481e-01 1.454615e-01 -4.822142e-01
<VARIANCE> 39
 2.593609e+01 2.349429e+01 2.362275e+01 1.239122e+01 1.008465e+01 4.755510e+01 2.859211e+01 1.416263e+01 4.344172e+01 1.682148e+01 1.906439e+01 1.938052e+01 5.996181e+00 2.089116e+00 4.539901e+00 1.960260e+00 1.861685e+00 1.640010e+00 2.497420e+00 3.874214e+00 2.064377e+00 6.344949e+00 2.354674e+00 3.118561e+00 2.736416e+00 3.327951e+00 4.578302e-01 5.694514e-01 3.613141e-01 5.676575e-01 2.445146e-01 6.187994e-01 4.854551e-01 5.085639e-01 9.039107e-01 4.128498e-01 7.368816e-01 6.902661e-01 1.227912e+00
<GCONST> 1.156543e+02
<STATE> 3
<MEAN> 39
 -5.732302e+00 -2.327656e+00 -4.421938e+00 -1.580381e+01 1.050030e+00 -2.360758e+01 4.225449e+00 -1.325582e+01 -1.000886e+01 -4.542660e+00 8.689103e+00 -5.593135e+00 9.530531e+01 6.779981e-02 6.132153e-02 3.840171e-01 -5.505939e-01 7.681358e-01 7.425708e-02 5.125910e-02 -2.046582e-01 -2.383867e-01 -6.697942e-02 1.892607e+00 3.127793e-01 -2.540721e-01 -7.567406e-02 -1.434751e-01 2.460762e-01 1.190478e-02 3.108297e-01 -1.493748e-02 2.389905e-01 -7.436705e-02 1.910550e-01 1.442112e-02 9.595254e-02 -1.031798e-01 -1.835559e-01
<VARIANCE> 39
 2.404427e+00 8.528859e+00 8.054473e+00 1.431621e+01 2.063297e+01 2.087033e+01 3.447583e+01 1.152643e+01 1.697525e+01 1.813820e+01 6.392428e+01 2.580292e+01 4.632976e+00 9.078625e-02 7.257671e-01 1.076270e+00 4.790591e-01 1.760212e+00 1.103026e+00 2.198705e+00 9.320484e-01 1.587919e+00 1.486711e+00 1.457069e+00 1.842270e+00 2.437118e-01 3.723305e-02 1.844967e-01 1.013312e-01 1.127908e-01 2.048469e-01 2.230859e-01 3.117605e-01 1.660729e-01 4.831743e-01 3.204264e-01 5.824274e-01 2.794137e-01 3.817673e-02
<GCONST> 8.215491e+01
<STATE> 4
<MEAN> 39
 -6.532343e+00 2.677928e-01 5.088057e+00 -1.087205e+01 1.408464e+01 -1.668790e+01 4.411507e+00 -1.506174e+01 -1.180247e+01 -7.101731e+00 8.534831e+00 -5.032260e+00 8.086331e+01 4.667491e-02 5.853295e-01 4.474637e-01 1.303310e+00 2.578682e-01 1.167043e+00 -5.338538e-01 4.236844e-01 -2.755098e-01 -1.883329e-01 -1.739541e+00 2.003608e-01 -1.767909e+00 8.945452e-02 1.108959e-02 -1.670535e-01 1.201344e-01 -2.711179e-01 5.184661e-02 -1.265617e-01 1.493888e-01 -5.724494e-02 4.340722e-02 -1.311245e-01 1.719568e-02 -1.762982e-02
<VARIANCE> 39
 1.691509e+01 2.884893e+01 9.405557e+00 3.775959e+01 1.845920e+01 4.140866e+01 2.127829e+01 1.420528e+01 1.857650e+01 1.699000e+01 7.140711e+01 2.484521e+01 4.380017e+01 2.162488e+00 1.674490e+00 1.308529e+00 2.942248e+00 3.182347e+00 2.010151e+00 2.025673e+00 1.748347e+00 2.302557e+00 1.177873e+00 3.034606e+00 1.704160e+00 1.766777e+00 4.408296e-01 3.551678e-01 1.910515e-01 6.954018e-01 4.032218e-01 4.636029e-01 4.204120e-01 2.899377e-01 4.998568e-01 2.189367e-01 7.567547e-01 3.121965e-01 3.544797e-01
<GCONST> 1.097242e+02
<STATE> 5
<MEAN> 39
 -5.316963e+00 2.605220e+00 5.482113e+00 6.205595e-01 5.432830e+00 -6.037132e+00 -3.472028e+00 -7.056751e+00 -1.361544e+01 -7.061336e+00 -3.931475e+00 -6.401080e+00 6.690163e+01 -3.904881e-01 -4.103973e-01 -3.196974e-01 2.865378e-01 -1.091961e+00 7.516972e-01 -3.768350e-01 6.265685e-01 5.399494e-01 2.434196e-01 -2.281424e-01 3.418278e-02 -8.376330e-01 -1.096001e-01 -7.032233e-02 -5.081970e-02 -1.522057e-01 1.719983e-02 -3.869093e-02 9.063400e-02 -5.135186e-02 1.961706e-01 4.260429e-02 9.412633e-02 5.750652e-02 9.144302e-02
<VARIANCE> 39
 8.934190e+00 1.223631e+01 9.827607e+00 1.777762e+01 2.231032e+01 1.914096e+01 1.407487e+01 1.637791e+01 1.877328e+01 2.082690e+01 1.826092e+01 2.170598e+01 9.882429e+00 5.811017e-01 9.047244e-01 1.575052e+00 2.390815e+00 1.027906e+00 1.347025e+00 1.557558e+00 1.631922e+00 1.660154e+00 1.975767e+00 1.596333e+00 2.152371e+00 2.533977e-01 8.907729e-02 1.302861e-01 3.007472e-01 3.468581e-01 2.032705e-01 2.841236e-01 2.635734e-01 3.117150e-01 2.514757e-01 3.736001e-01 2.672342e-01 3.488469e-01 3.342666e-02
<GCONST> 9.006089e+01
<TRANSP> 6
 0.000000e+00 1.000000e+00 0.000000e+00 0.000000e+00 0.000000e+00 0.000000e+00
 0.000000e+00 9.186026e-01 8.139738e-02 0.000000e+00 0.000000e+00 0.000000e+00
 0.000000e+00 0.000000e+00 9.091479e-01 9.085207e-02 0.000000e+00 0.000000e+00
 0.000000e+00 0.000000e+00 0.000000e+00 9.121811e-01 8.781894e-02 0.000000e+00
 0.000000e+00 0.000000e+00 0.000000e+00 0.000000e+00 9.124389e-01 8.756104e-02
 0.000000e+00 0.000000e+00 0.000000e+00 0.000000e+00 0.000000e+00 0.000000e+00
<ENDHMM>
