~o
<STREAMINFO> 1 39
<VECSIZE> 39<NULLD><MFCC_D_A_0><DIAGC>
~h "plus"
<BEGINHMM>
<NUMSTATES> 6
<STATE> 2
<MEAN> 39
 -1.124974e+01 -3.786752e+00 -4.825130e+00 -1.182697e+01 -5.948940e+00 -1.120689e+01 3.247214e+00 -1.500378e+01 -8.159203e+00 -9.801291e+00 2.220726e+00 -1.138291e+00 8.535970e+01 8.726665e-01 7.196121e-01 -9.200778e-01 -4.977685e-01 -6.054793e-01 -1.233031e+00 2.810053e-01 -7.656595e-01 -1.157593e+00 -7.093415e-01 -2.055015e-01 1.498421e-01 1.376400e+00 4.914720e-02 2.996112e-02 -6.086099e-02 7.702696e-02 1.284287e-01 1.287008e-02 -7.613603e-02 2.507877e-01 1.336679e-01 1.404414e-01 -1.382119e-01 -3.939424e-02 -4.047605e-01
<VARIANCE> 39
 3.125342e+01 5.942603e+01 1.974217e+01 1.303842e+01 2.130754e+01 5.752438e+01 2.562754e+01 2.654354e+01 5.445944e+01 3.743463e+01 3.174533e+01 1.549524e+01 1.447003e+01 2.433472e+00 5.846558e+00 1.878902e+00 1.618175e+00 1.592849e+00 3.942558e+00 1.599947e+00 2.350744e+00 4.222813e+00 3.174270e+00 3.539407e+00 1.633404e+00 2.588176e+00 5.294926e-01 1.232919e+00 3.579073e-01 3.023258e-01 2.728374e-01 7.542191e-01 3.063664e-01 4.490480e-01 1.037525e+00 6.207303e-01 7.854852e-01 3.168878e-01 6.013374e-01
<GCONST> 1.185552e+02
<STATE> 3
<MEAN> 39
 -3.833005e+00 -5.608484e+00 -1.700361e+01 -1.639721e+01 2.427448e-01 -1.521204e+01 2.770296e+00 -1.306692e+01 -1.159458e+00 -1.260939e+01 3.791813e+00 -2.317397e+00 8.852094e+01 6.154755e-02 -4.855636e-01 -1.096030e-01 -2.172913e-01 5.934539e-01 4.201395e-01 -8.690467e-02 1.130489e-01 1.292581e+00 -1.311196e-01 2.782912e-01 1.957306e-01 -6.082058e-01 -8.021796e-02 1.544268e-01 1.634435e-01 1.610722e-02 -4.323683e-02 5.080177e-02 -3.314190e-02 -8.674905e-02 -7.947375e-02 -3.274905e-02 -7.578634e-03 6.724165e-02 -1.344683e-01
<VARIANCE> 39
 4.101395e+00 1.815366e+01 2.204901e+01 1.320233e+01 2.526876e+01 2.526269e+01 1.759305e+01 1.705326e+01 9.118317e+01 2.817086e+01 3.308314e+01 2.807959e+01 1.558589e+01 4.082273e-01 1.249332e+00 2.135060e+00 6.240156e-01 1.284819e+00 1.415036e+00 1.224155e+00 1.787885e+00 2.179976e+00 1.872694e+00 1.943926e+00 1.755758e+00 6.809121e-01 7.650659e-02 1.595654e-01 2.367493e-01 1.322880e-01 2.572874e-01 2.578759e-01 2.511847e-01 2.662038e-01 3.958313e-01 3.739502e-01 3.092033e-01 2.645900e-01 7.650667e-02
<GCONST> 9.422881e+01
<STATE> 4
<MEAN> 39
 -1.256171e+01 -3.709274e+00 -4.754652e+00 -1.928114e+01 5.592114e+00 -9.175935e+00 -4.417982e-01 -1.479170e+01 4.012831e+00 -1.056393e+01 6.954485e+00 1.562304e+00 7.669743e+01 -2.873653e+00 -1.910521e-01 2.147722e+00 -2.440391e-01 3.332210e-03 8.308443e-01 -3.289236e-01 1.178641e+00 -9.029912e-01 1.643814e+00 -3.464839e-01 -6.830005e-01 4.437492e-01 -4.913539e-01 -2.577151e-01 -9.043717e-02 1.073258e-01 -1.128956e-01 1.362790e-02 2.163736e-01 4.226348e-01 4.085171e-02 1.334753e-01 -1.234750e-01 -1.893400e-01 5.476975e-01
<VARIANCE> 39
 4.499364e+01 2.121590e+01 4.234628e+01 1.223142e+01 1.747915e+01 2.852200e+01 2.627586e+01 2.830395e+01 5.764387e+01 6.087594e+01 2.176692e+01 3.520454e+01 2.257298e+01 4.707949e+00 4.217446e+00 1.567102e+00 1.164870e+00 2.839267e+00 2.123360e+00 3.013741e+00 4.572055e+00 3.506652e+00 6.520030e+00 1.718839e+00 2.751685e+00 5.596611e+00 5.435660e-01 7.277377e-01 3.618085e-01 2.112383e-01 6.009151e-01 4.494327e-01 5.433868e-01 5.346906e-01 6.875943e-01 1.357123e+00 3.237340e-01 4.673027e-01 5.074542e-01
<GCONST> 1.212687e+02
<STATE> 5
<MEAN> 39
 -3.304087e+01 -5.794994e+00 2.781569e+00 -1.675023e+01 7.942862e+00 -7.646546e+00 2.914123e+00 -4.263532e+00 1.240256e+00 -3.103450e+00 1.845521e+00 -4.163524e+00 8.351783e+01 3.310951e-01 2.151394e-01 5.036067e-02 3.094917e-01 1.165392e-01 -1.182107e-01 3.889702e-02 6.460450e-02 -1.696642e-01 -3.650491e-03 -2.441913e-01 4.797297e-02 -7.914684e-01 2.523616e-01 3.568472e-02 -6.512561e-02 2.674046e-02 1.041816e-03 -1.163095e-02 -5.967291e-02 -6.228911e-02 -6.656138e-02 -2.441926e-02 -5.626353e-03 5.547334e-02 -1.730329e-01
<VARIANCE> 39
 3.581887e+01 6.885420e+00 1.137255e+01 1.384012e+01 1.781678e+01 1.680856e+01 1.575383e+01 1.211912e+01 1.114133e+01 9.140637e+00 9.055472e+00 7.126176e+00 4.665834e+01 3.336045e+00 6.342447e-01 7.413599e-01 8.734614e-01 1.454500e+00 1.399841e+00 1.558186e+00 1.571181e+00 1.241764e+00 1.325666e+00 9.473193e-01 7.372138e-01 2.250722e+00 3.631403e-01 1.429815e-01 1.330178e-01 1.548464e-01 2.432775e-01 2.427510e-01 2.780446e-01 3.534019e-01 2.321325e-01 3.426797e-01 1.866669e-01 1.310605e-01 1.466428e-01
<GCONST> 8.855145e+01
<TRANSP> 6
 0.000000e+00 1.000000e+00 0.000000e+00 0.000000e+00 0.000000e+00 0.000000e+00
 0.000000e+00 9.129248e-01 8.707521e-02 0.000000e+00 0.000000e+00 0.000000e+00
 0.000000e+00 0.000000e+00 9.433330e-01 5.666699e-02 0.000000e+00 0.000000e+00
 0.000000e+00 0.000000e+00 0.000000e+00 8.695551e-01 1.304450e-01 0.000000e+00
 0.000000e+00 0.000000e+00 0.000000e+00 0.000000e+00 9.585106e-01 4.148935e-02
 0.000000e+00 0.000000e+00 0.000000e+00 0.000000e+00 0.000000e+00 0.000000e+00
<ENDHMM>
