~o
<STREAMINFO> 1 39
<VECSIZE> 39<NULLD><MFCC_D_A_0><DIAGC>
~h "two"
<BEGINHMM>
<NUMSTATES> 6
<STATE> 2
<MEAN> 39
 -2.023999e+01 -8.883739e+00 7.731586e-01 -8.156848e+00 2.104011e+00 -1.010743e+01 2.197635e-01 -1.204999e+01 -4.211578e+00 2.950625e-01 4.798807e+00 -7.703390e+00 8.995052e+01 7.405269e-01 6.409128e-01 -3.284447e-01 -2.686518e-01 5.968373e-01 -6.610423e-01 9.074451e-02 -1.084412e+00 -1.186238e+00 -3.518389e-01 -4.719067e-02 1.343737e-01 1.204641e+00 4.084284e-01 4.524900e-01 -5.195283e-02 1.914189e-01 -1.138561e-01 -7.120557e-02 2.855262e-02 7.490408e-02 -3.232434e-01 -3.263840e-01 -4.572408e-01 1.696273e-01 -6.227454e-01
<VARIANCE> 39
 2.312384e+01 1.460924e+01 1.712307e+01 1.010664e+01 2.135968e+01 2.435923e+01 1.570768e+01 2.321944e+01 1.901978e+01 1.706257e+01 2.051092e+01 1.455374e+01 4.724701e+01 3.879412e+00 3.949835e+00 1.781282e+00 1.598017e+00 1.933765e+00 5.232882e+00 1.749044e+00 2.035096e+00 3.797690e+00 3.168024e+00 5.778694e+00 2.240684e+00 1.226239e+01 3.555219e-01 3.610421e-01 3.873721e-01 2.712880e-01 5.474100e-01 1.078286e+00 3.661409e-01 3.808860e-01 5.134982e-01 5.112470e-01 5.970415e-01 3.757455e-01 1.679239e+00
<GCONST> 1.159412e+02
<STATE> 3
<MEAN> 39
 -7.195570e+00 5.077508e+00 3.022114e-01 -1.039515e+01 -3.247877e+00 -2.004927e+01 3.891109e+00 -1.580842e+01 -1.819101e+01 -1.089804e+01 -7.317285e+00 -5.067870e+00 9.086713e+01 4.274670e-01 6.166170e-01 4.492947e-01 -5.746057e-01 -5.073364e-01 -1.980765e-01 6.073077e-01 5.149576e-01 -1.374038e-01 -9.386744e-01 -5.890663e-01 -1.947164e-01 -2.565325e-03 -1.546484e-01 -1.756897e-01 1.445282e-01 -1.857854e-01 1.139358e-01 8.001720e-02 1.314970e-01 1.236339e-01 2.952290e-01 -4.655773e-03 2.364965e-01 -8.249824e-02 -1.461823e-01
<VARIANCE> 39
 4.120189e+00 1.318199e+01 1.349225e+01 1.585882e+01 2.040299e+01 4.317499e+01 4.947527e+01 2.976790e+01 2.836572e+01 3.085188e+01 1.585575e+01 2.069239e+01 1.048016e+01 8.401868e-01 1.351868e+00 1.377655e+00 1.935929e+00 2.115190e+00 5.514662e+00 4.572362e+00 3.183283e+00 3.861062e+00 2.838257e+00 2.077016e+00 1.572900e+00 1.285837e+00 1.518201e-01 2.647573e-01 2.558996e-01 4.386872e-01 3.018978e-01 1.126754e+00 8.460627e-01 6.551509e-01 5.894945e-01 5.566949e-01 4.509283e-01 3.039035e-01 2.080008e-01
<GCONST> 1.083618e+02
<STATE> 4
<MEAN> 39
 -7.160611e+00 8.888647e+00 6.963096e+00 -1.838484e+01 6.132071e-02 -1.844020e+01 8.681959e+00 -5.473160e+00 -1.140927e+01 -1.436123e+01 -9.647218e+00 -8.910643e+00 7.827791e+01 -1.936928e-02 -4.338316e-01 -3.489996e-01 -4.274101e-02 9.675873e-02 9.856586e-01 -6.647353e-01 7.845339e-01 6.348801e-01 9.312984e-01 3.327320e-01 2.263692e-01 -1.468968e+00 -2.578193e-02 -1.413264e-01 -2.178382e-01 3.443792e-01 -1.122334e-01 2.797382e-01 -2.661585e-01 1.747605e-02 7.990409e-02 2.663678e-01 1.073520e-01 1.872095e-01 -5.929067e-03
<VARIANCE> 39
 8.228344e+00 3.392066e+01 2.425653e+01 2.871037e+01 3.035407e+01 5.423102e+01 5.203878e+01 2.075583e+01 1.824134e+01 7.516576e+01 2.395018e+01 3.460383e+01 4.660686e+01 1.155201e+00 4.445316e+00 4.405370e+00 5.150727e+00 4.164207e+00 7.244566e+00 5.927151e+00 2.177297e+00 1.973756e+00 5.829982e+00 2.513032e+00 4.270289e+00 1.719885e+00 2.353581e-01 7.852736e-01 8.216869e-01 1.146021e+00 6.530842e-01 1.089061e+00 1.120272e+00 4.813043e-01 3.415943e-01 1.042722e+00 3.687042e-01 7.128613e-01 3.724594e-01
<GCONST> 1.260487e+02
<STATE> 5
<MEAN> 39
 -6.321528e+00 2.668519e+00 2.946394e+00 -3.741458e+00 -1.819576e+00 -1.827158e+00 4.648055e-01 4.898549e-01 -2.894998e+00 -2.680505e+00 -3.181404e+00 -2.939390e+00 6.477326e+01 -4.287763e-01 -2.150870e-01 3.407970e-01 1.723309e+00 4.593866e-01 7.183403e-01 -1.203659e-01 -8.077230e-02 4.867860e-01 3.058628e-01 2.432352e-01 1.421003e-01 -7.172556e-01 -8.263380e-02 5.304344e-02 8.726261e-02 -1.956162e-01 2.101789e-01 -2.241580e-01 8.608285e-02 -1.103737e-01 -1.268904e-01 -1.109437e-01 -9.842218e-02 -1.042990e-01 9.762657e-02
<VARIANCE> 39
 1.130600e+01 1.645000e+01 2.730334e+01 5.018245e+01 2.228206e+01 1.518045e+01 1.297495e+01 1.455618e+01 1.033661e+01 8.839230e+00 9.947780e+00 8.120646e+00 5.260551e+00 1.091117e+00 1.248163e+00 1.901002e+00 3.899312e+00 2.185546e+00 1.382951e+00 1.304770e+00 1.720752e+00 1.253460e+00 1.288499e+00 1.297805e+00 1.002747e+00 8.711266e-01 1.748470e-01 2.934623e-01 4.527396e-01 5.242288e-01 5.151039e-01 3.577191e-01 2.938834e-01 3.745051e-01 2.709529e-01 3.006048e-01 3.271504e-01 2.647532e-01 1.610222e-01
<GCONST> 9.550253e+01
<TRANSP> 6
 0.000000e+00 1.000000e+00 0.000000e+00 0.000000e+00 0.000000e+00 0.000000e+00
 0.000000e+00 8.946584e-01 1.053416e-01 0.000000e+00 0.000000e+00 0.000000e+00
 0.000000e+00 0.000000e+00 9.277719e-01 7.222809e-02 0.000000e+00 0.000000e+00
 0.000000e+00 0.000000e+00 0.000000e+00 9.240919e-01 7.590814e-02 0.000000e+00
 0.000000e+00 0.000000e+00 0.000000e+00 0.000000e+00 8.967826e-01 1.032174e-01
 0.000000e+00 0.000000e+00 0.000000e+00 0.000000e+00 0.000000e+00 0.000000e+00
<ENDHMM>
