~o
<STREAMINFO> 1 39
<VECSIZE> 39<NULLD><MFCC_D_A_0><DIAGC>
~h "nine"
<BEGINHMM>
<NUMSTATES> 6
<STATE> 2
<MEAN> 39
 -3.250641e+00 6.732203e+00 5.822590e+00 -6.120569e+00 1.271921e+01 -1.571246e+01 3.187258e+00 -1.227971e+01 -1.553865e+01 -5.822765e+00 -5.405440e+00 -3.578189e+00 7.693819e+01 5.094689e-01 -3.680507e-01 -4.729523e-01 -1.834261e+00 -6.629579e-01 -1.524697e+00 1.196070e+00 -3.166671e-01 2.182163e-01 -5.323911e-01 1.509945e+00 7.127240e-02 2.780936e+00 -2.958048e-01 -4.305910e-01 -4.808222e-01 -2.224021e-01 -3.552387e-01 1.655443e-01 9.089410e-02 4.123516e-01 3.516430e-01 -2.784123e-02 2.750344e-01 1.353356e-01 7.131159e-03
<VARIANCE> 39
 9.106139e+00 1.906380e+01 1.106606e+01 4.888423e+01 5.084349e+01 3.067652e+01 4.261553e+01 2.639050e+01 3.809528e+01 1.569776e+01 5.015597e+01 2.000259e+01 6.884848e+01 2.860202e+00 4.321587e+00 3.040371e+00 2.428581e+00 7.999783e+00 3.730755e+00 3.016860e+00 3.905148e+00 5.759072e+00 1.295096e+00 4.896679e+00 2.131478e+00 2.268528e+00 3.066380e-01 5.519505e-01 2.971002e-01 4.818671e-01 1.280969e+00 9.051710e-01 6.242265e-01 5.362533e-01 8.453210e-01 2.412548e-01 8.660445e-01 4.513331e-01 5.809600e-01
<GCONST> 1.228526e+02
<STATE> 3
<MEAN> 39
 -4.088810e+00 -1.592912e+00 -7.229219e+00 -2.017658e+01 7.498823e+00 -1.873980e+01 1.025334e+01 -6.457605e+00 -2.001560e+00 -1.693055e+01 5.929483e+00 2.630215e+00 9.296964e+01 -6.351024e-02 -2.308156e-01 -2.011702e-01 -7.180177e-02 6.016333e-01 -1.313939e-02 -3.517220e-01 1.680978e-01 7.828788e-01 -4.292918e-01 3.441822e-01 -2.706226e-02 -2.833943e-02 -3.980025e-02 4.373142e-02 2.255383e-01 1.609061e-01 7.462779e-02 -9.209208e-02 -1.101114e-01 -7.037087e-02 1.327514e-02 8.116338e-02 -5.253491e-02 -1.580218e-01 -1.323875e-01
<VARIANCE> 39
 2.439190e+00 6.492943e+00 1.605275e+01 8.817157e+00 2.203726e+01 2.270780e+01 1.567789e+01 1.046828e+01 3.701915e+01 3.695050e+01 2.280967e+01 2.025814e+01 2.934693e+00 2.055613e-01 4.702382e-01 1.548387e+00 7.716100e-01 1.269439e+00 2.895537e+00 1.148584e+00 1.045009e+00 1.492628e+00 2.553122e+00 1.892851e+00 2.423443e+00 2.602289e-01 3.218585e-02 8.769393e-02 1.415473e-01 2.095550e-01 2.698494e-01 4.832359e-01 1.492658e-01 1.719614e-01 2.830743e-01 3.548168e-01 4.416457e-01 2.546113e-01 1.165893e-01
<GCONST> 8.426199e+01
<STATE> 4
<MEAN> 39
 -1.021331e+01 -3.592820e+00 7.789000e+00 -1.062263e+01 1.368589e+01 -3.397388e+01 -1.089357e+00 -5.302489e+00 6.874271e+00 -1.602080e+01 8.176659e+00 -7.647130e+00 8.745348e+01 -5.333385e-01 1.548193e-02 1.782983e+00 1.203735e+00 -1.758465e-01 -1.121679e+00 -3.942608e-01 3.430286e-01 -4.672137e-01 -1.155207e-01 -1.001610e+00 -2.628995e-01 -8.141984e-01 8.385871e-03 -2.660334e-02 -5.536760e-02 -3.296743e-02 -4.988474e-02 2.735950e-01 1.360315e-01 4.707107e-02 -2.101932e-01 -5.615241e-02 -8.795237e-02 1.882080e-01 -7.279634e-02
<VARIANCE> 39
 7.991237e+00 5.548761e+00 5.928928e+01 2.786374e+01 1.089122e+01 3.186362e+01 1.009526e+01 1.479025e+01 2.069451e+01 1.050036e+01 3.002602e+01 1.660186e+01 1.373321e+01 2.045082e-01 4.880686e-01 4.851388e-01 5.528259e-01 7.775683e-01 1.797581e+00 1.172035e+00 1.238061e+00 1.691626e+00 1.243207e+00 1.104522e+00 1.621339e+00 2.119741e-01 3.372651e-02 6.592181e-02 6.993386e-02 8.083465e-02 1.440653e-01 1.812880e-01 1.481515e-01 1.996719e-01 1.735617e-01 2.192424e-01 2.323685e-01 1.840536e-01 1.729356e-02
<GCONST> 7.588018e+01
<STATE> 5
<MEAN> 39
 -1.526606e+01 -8.113839e+00 1.586851e+01 -2.190888e+00 4.766394e+00 -2.672825e+01 -1.150093e+00 3.064594e+00 -6.597364e+00 -1.330593e+01 -4.164587e-01 -1.168611e+00 7.276254e+01 1.929807e-02 -1.907817e-01 -1.100355e+00 4.954601e-01 -1.218703e+00 1.986794e+00 -3.325597e-02 5.916525e-01 -5.607119e-01 8.057242e-01 -2.151384e-01 5.054583e-01 -1.387481e+00 6.857938e-02 9.286419e-02 -2.119223e-01 -8.954228e-02 -3.090185e-02 8.466440e-02 -2.592152e-02 -1.367520e-01 1.984561e-01 4.859195e-02 2.304575e-02 -6.274655e-02 1.582461e-02
<VARIANCE> 39
 1.441658e+01 2.576408e+01 4.537022e+01 1.788972e+01 6.076159e+01 9.086907e+01 2.145778e+01 3.542057e+01 4.075982e+01 3.060984e+01 1.697070e+01 3.347157e+01 3.175424e+01 8.538204e-01 1.312334e+00 2.233745e+00 1.281596e+00 2.693150e+00 1.863403e+00 1.829791e+00 2.398111e+00 2.895408e+00 2.004911e+00 1.405450e+00 1.783380e+00 4.067479e-01 1.205099e-01 1.407664e-01 1.998672e-01 3.085065e-01 5.565549e-01 3.033146e-01 3.909806e-01 3.922758e-01 4.049358e-01 3.760629e-01 2.568569e-01 3.164137e-01 4.821681e-02
<GCONST> 1.045676e+02
<TRANSP> 6
 0.000000e+00 1.000000e+00 0.000000e+00 0.000000e+00 0.000000e+00 0.000000e+00
 0.000000e+00 8.967040e-01 1.032960e-01 0.000000e+00 0.000000e+00 0.000000e+00
 0.000000e+00 0.000000e+00 9.470717e-01 5.292833e-02 0.000000e+00 0.000000e+00
 0.000000e+00 0.000000e+00 0.000000e+00 9.210565e-01 7.894346e-02 0.000000e+00
 0.000000e+00 0.000000e+00 0.000000e+00 0.000000e+00 9.222314e-01 7.776862e-02
 0.000000e+00 0.000000e+00 0.000000e+00 0.000000e+00 0.000000e+00 0.000000e+00
<ENDHMM>
