~o
<STREAMINFO> 1 39
<VECSIZE> 39<NULLD><MFCC_D_A_0><DIAGC>
~h "one"
<BEGINHMM>
<NUMSTATES> 6
<STATE> 2
<MEAN> 39
 -4.896155e+00 1.075799e+01 1.261107e+00 -1.334548e+01 -4.817261e+00 -1.783384e+01 -2.146911e+00 -4.088501e+00 -6.238966e+00 -9.123954e+00 -5.545510e+00 -9.043864e+00 8.102045e+01 6.828959e-01 -8.414005e-01 -1.010707e+00 -3.327536e-01 -9.390929e-01 -4.005910e-02 -1.415541e-02 1.787347e-01 2.066074e-01 -7.670373e-02 -1.600032e-01 3.335913e-01 2.466391e+00 -2.108701e-01 -3.449720e-01 -1.766833e-01 1.322110e-01 1.771940e-01 3.008023e-01 1.201885e-01 1.317226e-01 2.245820e-01 1.200512e-01 1.048754e-01 1.450826e-01 -1.541522e-01
<VARIANCE> 39
 1.974767e+01 5.237380e+01 2.885415e+01 4.849057e+01 6.286450e+01 6.312192e+01 6.015165e+01 2.467722e+01 2.583663e+01 4.371889e+01 2.312795e+01 2.933864e+01 9.230148e+01 1.734086e+00 8.787805e+00 2.820825e+00 3.509315e+00 5.672540e+00 6.342923e+00 2.973455e+00 2.087014e+00 3.949553e+00 5.217758e+00 2.082019e+00 2.455960e+00 2.827811e+00 2.955104e-01 1.510089e+00 5.516182e-01 6.884732e-01 1.097016e+00 9.710085e-01 5.146838e-01 3.748166e-01 7.319273e-01 1.001160e+00 4.971006e-01 3.663216e-01 5.444201e-01
<GCONST> 1.296678e+02
<STATE> 3
<MEAN> 39
 -5.862136e+00 2.859530e+00 -5.738358e+00 -1.520864e+01 -1.805866e+00 -1.296965e+01 1.586328e+00 -1.632890e+00 -4.412518e+00 -1.279251e+01 4.620389e+00 1.403536e-02 9.299299e+01 -4.346822e-01 4.934291e-01 3.800777e-01 7.539349e-02 1.191976e+00 -1.135217e-01 2.913052e-01 -4.732473e-01 -4.914727e-01 -3.716937e-01 1.857899e+00 1.341823e-01 -3.660173e-01 1.744375e-03 1.900964e-01 2.250799e-01 1.468459e-01 1.401058e-01 -2.409587e-02 -1.121355e-01 -1.374466e-01 -8.560249e-02 9.379607e-02 -1.571830e-01 -1.359345e-01 -2.611390e-01
<VARIANCE> 39
 5.373357e+00 1.241979e+01 1.583462e+01 1.132681e+01 3.597639e+01 2.356113e+01 3.309782e+01 3.121457e+01 4.667216e+01 3.080899e+01 9.800876e+01 2.364229e+01 4.522594e+00 1.770180e-01 8.543139e-01 1.215287e+00 1.418152e+00 1.757311e+00 2.030620e+00 1.475143e+00 2.671124e+00 2.144963e+00 2.897054e+00 3.535771e+00 2.752779e+00 6.364196e-01 4.462425e-02 1.946122e-01 1.885442e-01 3.355678e-01 2.790270e-01 5.041920e-01 1.791211e-01 4.258264e-01 4.831198e-01 5.256045e-01 1.025158e+00 3.372861e-01 1.000489e-01
<GCONST> 9.945148e+01
<STATE> 4
<MEAN> 39
 -7.747589e+00 5.286929e+00 3.881705e+00 -5.935083e+00 1.678387e+01 -1.033832e+01 -3.056480e+00 -7.541862e+00 -4.556173e+00 -7.612769e+00 6.521905e+00 -5.306902e+00 7.761271e+01 2.971230e-01 -5.195882e-01 5.655043e-01 1.093314e+00 6.463060e-01 7.533205e-01 -5.674509e-01 -1.958922e-02 3.005320e-01 6.554497e-01 -1.366960e+00 -1.283540e-01 -1.524955e+00 6.842244e-02 -1.263495e-01 -2.090228e-01 -7.866432e-02 -3.554652e-01 -5.471118e-02 3.054972e-02 9.538710e-02 -8.672707e-03 -4.764471e-02 9.691886e-02 5.402413e-02 1.058495e-01
<VARIANCE> 39
 1.616391e+01 1.476284e+01 1.653662e+01 2.912665e+01 4.064103e+01 3.878983e+01 2.498332e+01 2.283968e+01 5.948989e+01 2.785831e+01 7.671739e+01 1.382043e+01 3.023279e+01 6.101959e-01 6.083516e-01 1.399466e+00 3.361524e+00 4.312131e+00 2.231424e+00 1.793397e+00 2.303699e+00 2.022854e+00 2.153934e+00 3.733904e+00 9.778529e-01 1.273767e+00 1.174432e-01 1.421073e-01 2.159506e-01 6.728354e-01 6.167541e-01 4.264118e-01 3.216894e-01 3.964435e-01 3.482166e-01 3.879188e-01 7.573139e-01 1.426766e-01 2.005694e-01
<GCONST> 1.068256e+02
<STATE> 5
<MEAN> 39
 -5.674377e+00 8.463696e-01 4.011642e+00 3.264981e+00 8.561110e+00 -3.338563e+00 -6.551967e+00 -6.941203e+00 -5.370200e+00 -1.466525e+00 1.012561e+00 -5.357921e+00 6.693880e+01 -3.848915e-01 -3.195900e-01 -2.040030e-01 3.067141e-01 -7.559063e-01 4.971584e-01 1.083499e-01 2.946477e-01 8.623000e-02 3.918239e-01 -2.322570e-01 6.525363e-02 -6.811604e-01 -7.358380e-02 1.868837e-02 3.656045e-02 -1.170554e-01 1.138838e-01 -3.901760e-02 5.378463e-02 2.357560e-02 1.893099e-02 -5.055238e-02 6.206178e-03 2.857021e-02 4.732692e-02
<VARIANCE> 39
 1.565160e+01 1.952325e+01 1.634730e+01 8.287493e+00 2.795347e+01 1.847860e+01 2.530257e+01 2.114420e+01 1.986497e+01 5.436279e+01 2.469236e+01 2.080944e+01 1.470097e+01 6.576510e-01 7.043100e-01 9.334779e-01 9.750829e-01 1.671340e+00 1.481637e+00 1.792644e+00 1.687304e+00 1.465262e+00 1.979852e+00 1.246969e+00 1.547554e+00 2.089653e-01 7.990035e-02 1.167809e-01 1.431549e-01 1.408633e-01 2.586059e-01 2.948732e-01 2.920968e-01 3.487405e-01 2.704951e-01 3.473414e-01 2.578145e-01 3.178596e-01 3.471811e-02
<GCONST> 9.039576e+01
<TRANSP> 6
 0.000000e+00 1.000000e+00 0.000000e+00 0.000000e+00 0.000000e+00 0.000000e+00
 0.000000e+00 8.927396e-01 1.072604e-01 0.000000e+00 0.000000e+00 0.000000e+00
 0.000000e+00 0.000000e+00 9.222900e-01 7.771001e-02 0.000000e+00 0.000000e+00
 0.000000e+00 0.000000e+00 0.000000e+00 9.111121e-01 8.888793e-02 0.000000e+00
 0.000000e+00 0.000000e+00 0.000000e+00 0.000000e+00 9.245765e-01 7.542353e-02
 0.000000e+00 0.000000e+00 0.000000e+00 0.000000e+00 0.000000e+00 0.000000e+00
<ENDHMM>
