~o
<STREAMINFO> 1 39
<VECSIZE> 39<NULLD><MFCC_D_A_0><DIAGC>
~h "multiply"
<BEGINHMM>
<NUMSTATES> 6
<STATE> 2
<MEAN> 39
 -4.812408e+00 6.821475e+00 -3.145463e+00 -1.469178e+01 -2.159929e+00 -1.554896e+01 1.093476e+01 -8.211134e+00 -2.352969e+01 -1.672374e+01 -4.494210e+00 -8.312755e+00 8.175004e+01 -3.963564e-01 7.338204e-03 -2.631144e-02 -1.850995e-01 -1.813027e-01 -1.948388e-01 6.094034e-02 -3.526577e-01 4.517361e-01 -1.224681e-01 3.977665e-01 -2.927970e-01 7.761959e-01 -3.090291e-01 -2.794102e-01 -7.625341e-02 8.497597e-02 -1.131058e-01 1.510368e-01 -1.436456e-01 3.152360e-02 4.118759e-01 2.937948e-01 2.366714e-01 1.228929e-01 1.594999e-02
<VARIANCE> 39
 1.820397e+01 1.296280e+01 4.712811e+01 2.450033e+01 7.970828e+01 3.188660e+01 4.249803e+01 2.130588e+01 4.990812e+01 2.268193e+01 6.242164e+01 3.373176e+01 5.277197e+01 5.419776e+00 2.684050e+00 3.759442e+00 3.149416e+00 6.904099e+00 5.514615e+00 4.563034e+00 2.727377e+00 1.255639e+01 3.788373e+00 7.233602e+00 3.225423e+00 6.324183e+00 5.845391e-01 6.395644e-01 6.211454e-01 5.247797e-01 9.935455e-01 8.941438e-01 6.267221e-01 5.836688e-01 1.721161e+00 7.030486e-01 1.248089e+00 6.035224e-01 6.572464e-01
<GCONST> 1.339164e+02
<STATE> 3
<MEAN> 39
 -1.209369e+01 -1.724757e+00 -1.263280e+00 -7.744958e+00 -2.790774e-01 -1.601238e+01 -2.102541e+00 -9.361271e+00 -3.917922e+00 -8.017809e+00 7.340356e-01 -3.876564e+00 8.091352e+01 3.201872e-01 -1.785824e-02 -3.163486e-01 -2.283275e-01 -1.264218e-01 -1.436871e-01 9.570706e-03 1.071325e-01 1.378211e-01 -8.290992e-02 1.324411e-01 3.828706e-01 2.177306e-01 1.193043e-01 4.592315e-02 -9.264162e-03 -2.028902e-02 1.074014e-01 -4.019061e-02 6.924840e-02 2.067699e-02 -1.004115e-01 -8.941855e-02 -6.394251e-02 -1.123174e-02 -7.397989e-02
<VARIANCE> 39
 3.155915e+01 5.557426e+01 1.794309e+01 4.494290e+01 3.839676e+01 9.817874e+01 3.382168e+01 2.124657e+01 1.870824e+01 3.931627e+01 3.178998e+01 2.545272e+01 9.711931e+01 2.911943e+00 7.479100e+00 2.219069e+00 2.180120e+00 3.455902e+00 6.817502e+00 2.904954e+00 2.224883e+00 2.930968e+00 5.201990e+00 3.729835e+00 2.042189e+00 6.194772e+00 6.582388e-01 1.308695e+00 4.192404e-01 3.361143e-01 5.550019e-01 1.006064e+00 5.171925e-01 4.445892e-01 8.030887e-01 8.438808e-01 7.472926e-01 4.282377e-01 8.607215e-01
<GCONST> 1.289457e+02
<STATE> 4
<MEAN> 39
 -6.916994e+00 -1.066912e+00 -1.147705e+01 -2.047951e+01 8.555858e+00 -1.337643e+01 9.385960e-01 -1.027539e+01 1.060923e+01 -1.827641e+01 4.254842e+00 1.168683e+00 8.953320e+01 -1.791109e-01 -3.291635e-01 2.432748e-01 3.136763e-01 6.803994e-01 -2.844551e-01 -6.127132e-01 -1.526968e-01 8.999913e-01 7.341354e-02 1.721686e-01 -4.906433e-01 -3.232525e-01 -7.903613e-02 1.017662e-01 2.036843e-01 1.344335e-01 -1.472480e-01 -9.785276e-02 -6.464430e-02 1.662253e-02 -1.473465e-01 2.744809e-02 -5.999140e-02 -6.930129e-02 -7.993717e-02
<VARIANCE> 39
 4.026169e+00 1.230848e+01 1.482917e+01 1.102935e+01 4.121693e+01 2.476953e+01 1.938348e+01 1.804455e+01 4.536969e+01 2.468845e+01 1.499046e+01 3.221310e+01 1.117487e+01 3.115687e-01 7.266750e-01 1.488849e+00 1.276132e+00 1.913369e+00 1.975192e+00 1.013804e+00 1.039784e+00 2.059119e+00 1.735104e+00 1.045420e+00 1.162974e+00 2.691788e-01 5.475091e-02 1.170208e-01 1.409142e-01 1.724455e-01 2.666709e-01 2.170880e-01 1.526194e-01 2.215572e-01 2.309085e-01 2.730987e-01 1.962562e-01 1.957927e-01 4.082915e-02
<GCONST> 8.554811e+01
<STATE> 5
<MEAN> 39
 -1.308397e+01 -8.642714e+00 5.046111e+00 -3.262268e+00 3.055577e+00 -2.415418e+01 -7.680950e+00 7.912097e-01 4.717600e+00 -1.089553e+01 -5.921594e-02 -3.864635e+00 7.431339e+01 -1.443766e-01 -3.383486e-01 2.453978e-01 7.678741e-01 -6.720500e-01 2.654819e-01 1.109024e-01 8.807821e-01 -7.350814e-01 3.610108e-01 -4.443532e-01 2.607994e-01 -1.077984e+00 4.365461e-02 6.412530e-02 -1.163083e-01 -1.206682e-01 5.384145e-02 1.818591e-01 4.579663e-02 -1.004885e-01 -2.445644e-03 -2.690612e-03 -3.964765e-03 1.415030e-02 9.087468e-03
<VARIANCE> 39
 7.198884e+00 3.375731e+01 4.462954e+01 4.527645e+01 7.613361e+01 4.479575e+01 2.063985e+01 9.005708e+01 5.536756e+01 4.066551e+01 3.157084e+01 3.435358e+01 5.690568e+01 8.973301e-01 1.782193e+00 2.443463e+00 1.742924e+00 3.440218e+00 3.752998e+00 1.682312e+00 3.227447e+00 1.997976e+00 3.251723e+00 1.860714e+00 1.503927e+00 4.235960e-01 1.415143e-01 2.138532e-01 1.975021e-01 2.804443e-01 5.375354e-01 4.638673e-01 2.799037e-01 4.579252e-01 3.570032e-01 6.505643e-01 3.653694e-01 2.449533e-01 7.769872e-02
<GCONST> 1.111405e+02
<TRANSP> 6
 0.000000e+00 1.000000e+00 0.000000e+00 0.000000e+00 0.000000e+00 0.000000e+00
 0.000000e+00 9.553593e-01 4.464065e-02 0.000000e+00 0.000000e+00 0.000000e+00
 0.000000e+00 0.000000e+00 9.730893e-01 2.691065e-02 0.000000e+00 0.000000e+00
 0.000000e+00 0.000000e+00 0.000000e+00 9.430334e-01 5.696658e-02 0.000000e+00
 0.000000e+00 0.000000e+00 0.000000e+00 0.000000e+00 9.523463e-01 4.765374e-02
 0.000000e+00 0.000000e+00 0.000000e+00 0.000000e+00 0.000000e+00 0.000000e+00
<ENDHMM>
