~o
<STREAMINFO> 1 39
<VECSIZE> 39<NULLD><MFCC_D_A_0><DIAGC>
~h "eight"
<BEGINHMM>
<NUMSTATES> 6
<STATE> 2
<MEAN> 39
 -7.488223e+00 -4.498340e+00 1.990895e+00 -7.328259e+00 3.685066e+00 -3.448495e+01 -2.412609e+00 -1.104676e+01 -1.777964e+00 -1.100169e+01 2.076470e+00 -6.995553e+00 9.055787e+01 -9.085318e-02 7.806373e-01 1.194993e+00 9.545150e-02 7.679847e-01 -4.501140e-01 -4.748722e-01 9.760482e-02 -1.143364e-01 -2.045850e+00 -3.312320e-01 -1.890318e-01 3.350340e-01 -1.679842e-01 9.286115e-02 5.017298e-02 7.851996e-02 4.091100e-02 4.842635e-01 2.437057e-02 1.707738e-01 -7.221353e-02 -3.288729e-02 -1.070924e-01 7.635646e-02 -5.669925e-01
<VARIANCE> 39
 8.738983e+00 2.864241e+01 5.289906e+01 1.265632e+01 3.103009e+01 3.901136e+01 3.873588e+01 2.162909e+01 2.240452e+01 1.213154e+02 1.967071e+01 2.648452e+01 3.408287e+01 1.270284e+00 2.141111e+00 1.771993e+00 1.352800e+00 2.285134e+00 5.318781e+00 2.726900e+00 1.870674e+00 2.041964e+00 2.513441e+00 1.764847e+00 1.965281e+00 7.570761e+00 1.338565e-01 5.787266e-01 3.807425e-01 2.136371e-01 4.988956e-01 1.585053e+00 5.954829e-01 3.141719e-01 3.819014e-01 9.006257e-01 4.359728e-01 3.378061e-01 5.956392e-01
<GCONST> 1.156549e+02
<STATE> 3
<MEAN> 39
 -1.338014e+01 -7.465927e-01 5.007693e+00 -5.470745e+00 4.867099e+00 -1.651273e+01 -3.263270e+00 -3.483845e+00 -3.259527e+00 -1.042294e+01 -2.350710e+00 -3.330269e+00 6.771359e+01 -5.149839e-02 -2.599735e-01 -1.090988e+00 -4.272147e-02 -1.018030e+00 2.300856e+00 1.098777e-01 3.763695e-01 6.722197e-02 1.755450e+00 -1.649027e-01 5.130177e-01 -1.518113e+00 1.338594e-02 -1.284666e-01 -2.778801e-02 -1.256167e-01 -1.851820e-02 -1.347390e-01 2.316147e-02 -5.265436e-02 8.208134e-02 -1.353270e-02 9.577548e-02 -4.904309e-02 3.622869e-01
<VARIANCE> 39
 7.635385e+00 9.307284e+00 4.008845e+01 2.114684e+01 7.481779e+01 1.242593e+02 1.787013e+01 1.690706e+01 2.140502e+01 1.223459e+02 3.371387e+01 2.873078e+01 4.492559e+01 9.898393e-01 8.937978e-01 2.599919e+00 2.141902e+00 4.464602e+00 2.325820e+00 2.329292e+00 1.884218e+00 2.009253e+00 5.399264e+00 2.604111e+00 2.200320e+00 1.577947e+00 2.387866e-01 1.709856e-01 7.164711e-01 5.615945e-01 9.004104e-01 5.450842e-01 4.792441e-01 3.447005e-01 4.049474e-01 1.193157e+00 4.541580e-01 4.133263e-01 3.791421e-01
<GCONST> 1.160918e+02
<STATE> 4
<MEAN> 39
 -2.146687e+01 -7.809879e+00 2.118725e+00 -1.401336e+01 3.680544e+00 -7.501103e+00 -3.154555e-01 -5.363788e+00 1.800343e+00 -5.760208e+00 1.297904e+00 -4.783194e+00 7.927009e+01 -2.182890e+00 -1.048093e+00 1.135045e+00 -2.124873e+00 1.231229e+00 -1.142812e+00 4.568304e-01 -1.309134e+00 1.511930e+00 -8.609078e-01 9.480102e-01 -1.045930e+00 5.347702e+00 2.791781e-01 2.240212e-01 1.760496e-01 4.785834e-01 -3.166824e-01 1.421478e-02 -6.344383e-02 -2.200684e-01 2.055550e-02 9.385666e-02 -9.177409e-02 4.881909e-02 -9.743004e-02
<VARIANCE> 39
 5.126785e+01 2.562856e+01 3.197486e+01 5.522598e+01 3.993020e+01 2.203633e+01 2.050503e+01 2.261807e+01 2.578299e+01 1.790542e+01 1.108035e+01 2.036994e+01 2.162585e+02 3.338583e+00 2.804911e+00 3.432415e+00 6.523494e+00 4.937689e+00 1.640097e+00 2.922400e+00 1.689584e+00 1.467740e+00 1.832163e+00 1.086941e+00 1.733581e+00 9.736221e+00 1.213608e+00 6.303488e-01 7.696373e-01 1.598759e+00 1.076100e+00 5.059355e-01 5.373352e-01 3.474524e-01 4.861691e-01 4.903879e-01 2.368735e-01 4.255677e-01 3.906500e+00
<GCONST> 1.244045e+02
<STATE> 5
<MEAN> 39
 -1.564366e+01 -8.252460e+00 8.060983e+00 -9.807004e+00 1.562061e+00 -8.432885e+00 2.008246e+00 -1.052348e+01 3.801992e+00 -4.266360e+00 4.019103e+00 -7.459667e+00 8.402142e+01 1.013748e+00 3.721251e-01 -1.924071e-01 8.676695e-01 -4.040205e-01 5.512776e-01 -1.030182e-01 4.487860e-01 -5.164779e-01 5.112900e-01 -2.503133e-01 2.446339e-01 -1.885553e+00 -6.102653e-02 1.087235e-03 -1.022760e-01 -3.837329e-02 6.661468e-02 9.154036e-02 3.667234e-03 1.486412e-01 -3.298727e-02 -2.528004e-02 -7.141052e-02 4.007176e-02 -1.830848e-01
<VARIANCE> 39
 4.073491e+01 1.572778e+01 1.931690e+01 2.218283e+01 1.289507e+01 1.849315e+01 2.065742e+01 2.692121e+01 2.524961e+01 2.080277e+01 1.420691e+01 1.467175e+01 1.358287e+02 1.211045e+00 1.311686e+00 1.811292e+00 1.210006e+00 1.241706e+00 1.981090e+00 2.227147e+00 1.926159e+00 1.617998e+00 1.382036e+00 1.573729e+00 1.536630e+00 2.053922e+00 1.992332e-01 2.677732e-01 2.716317e-01 2.751727e-01 2.476018e-01 4.192020e-01 3.671027e-01 2.857522e-01 2.873786e-01 2.746414e-01 2.861829e-01 2.558973e-01 2.859049e-01
<GCONST> 1.020715e+02
<TRANSP> 6
 0.000000e+00 1.000000e+00 0.000000e+00 0.000000e+00 0.000000e+00 0.000000e+00
 0.000000e+00 9.380186e-01 6.198147e-02 0.000000e+00 0.000000e+00 0.000000e+00
 0.000000e+00 0.000000e+00 9.304767e-01 6.952328e-02 0.000000e+00 0.000000e+00
 0.000000e+00 0.000000e+00 0.000000e+00 8.446319e-01 1.553682e-01 0.000000e+00
 0.000000e+00 0.000000e+00 0.000000e+00 0.000000e+00 9.380653e-01 6.193472e-02
 0.000000e+00 0.000000e+00 0.000000e+00 0.000000e+00 0.000000e+00 0.000000e+00
<ENDHMM>
