~o
<STREAMINFO> 1 39
<VECSIZE> 39<NULLD><MFCC_D_A_0><DIAGC>
~h "divide"
<BEGINHMM>
<NUMSTATES> 6
<STATE> 2
<MEAN> 39
 -9.253551e+00 2.898228e+00 5.338042e+00 -6.161940e+00 6.655211e+00 -1.780205e+01 -8.142527e+00 -9.774823e+00 -8.973322e+00 -1.548007e+01 -4.152521e+00 -9.068785e+00 8.191534e+01 9.089009e-01 1.815516e-01 -6.113678e-01 -5.454258e-01 -2.241909e-01 -2.099393e-01 1.383399e-01 -1.663619e-01 -7.429768e-01 -1.655796e-01 2.925695e-01 1.048880e-01 4.639235e-01 1.808821e-02 -8.784471e-02 -2.186269e-01 -6.605917e-02 -9.467924e-02 1.943929e-01 1.593357e-01 3.721219e-02 1.021572e-01 1.897148e-01 6.551445e-02 7.320746e-02 -1.923914e-01
<VARIANCE> 39
 3.845373e+01 3.087519e+01 4.361736e+01 6.363414e+01 3.182180e+01 6.462667e+01 5.094085e+01 3.259926e+01 3.594333e+01 2.700323e+01 2.919081e+01 2.136219e+01 1.550379e+01 4.263817e+00 2.898568e+00 3.396709e+00 5.354497e+00 3.174914e+00 7.760431e+00 5.280563e+00 1.939941e+00 3.609682e+00 4.011531e+00 3.051052e+00 2.282369e+00 2.432893e+00 8.621638e-01 3.864887e-01 2.654408e-01 8.188803e-01 3.449023e-01 9.728730e-01 7.117622e-01 3.797375e-01 8.269083e-01 6.807660e-01 5.084184e-01 3.877170e-01 5.685527e-01
<GCONST> 1.264435e+02
<STATE> 3
<MEAN> 39
 -1.517634e+00 -2.255345e+00 -1.687948e+01 -1.851320e+01 1.019031e+00 -1.393641e+01 1.669180e+00 -1.041857e+01 -4.168457e+00 -1.408203e+01 5.816340e+00 -4.788128e+00 8.821859e+01 -2.361210e-01 -1.493486e-01 -4.599320e-02 3.248222e-01 7.650943e-01 -3.596545e-01 -3.471902e-01 2.380802e-01 1.140529e+00 7.624627e-03 4.850099e-01 -2.419768e-01 4.364382e-02 -1.141789e-01 4.936975e-02 2.901721e-01 9.938914e-02 4.764423e-02 -1.298753e-01 -1.827739e-01 5.990142e-02 -3.949346e-02 -6.526504e-02 -1.654216e-02 -2.227179e-02 -5.120676e-02
<VARIANCE> 39
 2.993568e+00 7.409377e+00 1.874381e+01 7.245983e+00 3.766258e+01 3.330063e+01 2.667863e+01 2.988136e+01 5.623410e+01 2.405598e+01 3.416716e+01 1.350254e+01 3.830319e+00 2.910412e-01 5.503502e-01 2.795919e+00 6.886410e-01 1.125897e+00 2.488347e+00 1.934256e+00 1.045316e+00 1.232819e+00 1.409369e+00 1.487719e+00 9.637436e-01 7.967923e-02 2.854240e-02 1.128620e-01 1.347994e-01 1.019273e-01 1.793910e-01 2.293754e-01 1.318464e-01 1.650900e-01 2.341797e-01 2.490950e-01 2.885575e-01 1.573977e-01 2.168598e-02
<GCONST> 8.032307e+01
<STATE> 4
<MEAN> 39
 -1.023689e+01 -2.669017e+00 3.781773e+00 -7.358321e+00 1.100742e+01 -2.923475e+01 -1.315505e+01 -5.341111e+00 9.661983e-01 -1.523696e+01 9.371487e+00 -6.807509e+00 8.547653e+01 -5.761701e-01 5.055909e-01 1.991193e+00 1.131055e+00 3.161926e-01 -2.088272e-02 -2.064323e-01 -2.058738e-01 -1.357547e+00 -4.696279e-01 -1.315773e+00 1.954000e-01 -1.275999e+00 1.887229e-01 4.151972e-02 -5.805389e-01 -2.195259e-01 -1.381091e-01 7.201000e-01 4.747271e-01 -1.387998e-01 -1.067080e-01 2.461962e-01 -1.645633e-01 1.261819e-01 -3.833930e-01
<VARIANCE> 39
 5.476330e+00 1.794182e+01 5.506255e+01 1.762449e+01 1.349518e+01 1.909232e+01 1.802812e+01 2.375606e+01 3.301787e+01 1.746518e+01 2.177316e+01 1.186964e+01 1.370967e+01 5.082924e-01 9.000293e-01 3.288940e+00 7.616987e-01 1.168372e+00 5.508561e+00 4.095775e+00 1.414824e+00 1.172940e+00 1.626798e+00 1.652907e+00 9.411992e-01 1.673971e+00 2.844021e-02 2.460324e-01 4.388896e-01 1.690700e-01 4.277604e-01 3.227504e-01 3.128929e-01 2.875038e-01 3.407743e-01 5.052218e-01 2.441464e-01 2.324550e-01 1.147561e-01
<GCONST> 9.589745e+01
<STATE> 5
<MEAN> 39
 -1.628644e+01 -6.396246e+00 1.562564e+00 -9.569674e+00 1.408111e+00 -1.187737e+01 -6.876333e+00 -7.895492e+00 -2.432877e+00 -5.114842e+00 3.965673e-01 -3.557097e+00 7.178474e+01 -3.297712e-01 -4.957879e-01 -3.685537e-01 -2.810366e-01 -6.656047e-01 9.426175e-01 1.608722e-01 2.792452e-01 2.414508e-01 9.593449e-01 -9.892082e-02 2.113691e-01 -7.073985e-01 -2.015028e-02 2.434059e-02 1.182328e-01 7.360123e-02 3.886604e-02 -1.624767e-01 -1.002086e-01 5.514320e-02 2.083407e-02 -8.184528e-02 1.762715e-02 -2.772955e-02 1.063035e-01
<VARIANCE> 39
 3.859389e+01 2.491518e+01 1.739664e+01 2.616377e+01 2.756545e+01 2.988951e+01 2.071694e+01 1.934934e+01 2.129963e+01 3.578374e+01 2.231108e+01 2.316569e+01 7.489653e+01 4.332948e+00 1.849000e+00 3.987532e+00 3.275488e+00 2.960476e+00 5.746611e+00 3.058648e+00 2.556823e+00 1.943929e+00 4.739994e+00 2.197241e+00 2.823757e+00 1.309273e+01 8.593721e-01 3.633206e-01 7.533752e-01 6.728133e-01 5.063708e-01 8.708612e-01 7.420986e-01 4.380071e-01 3.988390e-01 7.983282e-01 4.917943e-01 5.329673e-01 2.278969e+00
<GCONST> 1.252877e+02
<TRANSP> 6
 0.000000e+00 1.000000e+00 0.000000e+00 0.000000e+00 0.000000e+00 0.000000e+00
 0.000000e+00 9.486647e-01 5.133538e-02 0.000000e+00 0.000000e+00 0.000000e+00
 0.000000e+00 0.000000e+00 9.439322e-01 5.606785e-02 0.000000e+00 0.000000e+00
 0.000000e+00 0.000000e+00 0.000000e+00 8.934190e-01 1.065811e-01 0.000000e+00
 0.000000e+00 0.000000e+00 0.000000e+00 0.000000e+00 9.447581e-01 5.524186e-02
 0.000000e+00 0.000000e+00 0.000000e+00 0.000000e+00 0.000000e+00 0.000000e+00
<ENDHMM>
