~o
<STREAMINFO> 1 39
<VECSIZE> 39<NULLD><MFCC_D_A_0><DIAGC>
~h "five"
<BEGINHMM>
<NUMSTATES> 6
<STATE> 2
<MEAN> 39
 -1.959475e+01 -7.709647e+00 -5.313229e+00 -1.283680e+01 3.336002e+00 -9.712337e+00 2.052660e+00 -7.637257e+00 -5.031648e-01 -7.710039e+00 3.292849e+00 -5.474287e+00 8.271315e+01 6.686919e-01 2.178553e-01 -1.989159e-01 -4.207487e-01 -5.287660e-01 -5.688863e-01 1.200557e-01 3.281448e-02 -1.508817e-01 -6.241649e-01 -3.042292e-01 1.573228e-01 1.212456e+00 7.768817e-02 2.550445e-02 7.505102e-03 2.790206e-02 -5.767977e-02 1.173905e-02 -5.042920e-02 9.783781e-02 3.547344e-02 -9.783079e-03 -7.815935e-03 4.466446e-02 -5.506818e-02
<VARIANCE> 39
 8.355386e+01 3.363306e+01 1.636941e+01 1.646980e+01 3.479373e+01 2.994881e+01 2.293557e+01 1.929324e+01 2.568878e+01 3.177934e+01 2.212998e+01 1.597614e+01 5.655822e+01 6.256035e+00 3.308815e+00 1.928160e+00 1.026115e+00 2.933506e+00 2.492373e+00 2.453979e+00 2.016166e+00 2.691562e+00 2.617523e+00 2.776444e+00 1.459298e+00 1.526452e+00 7.327166e-01 6.704972e-01 3.568387e-01 2.210479e-01 4.951688e-01 5.589783e-01 4.711272e-01 4.061025e-01 5.497213e-01 4.735209e-01 6.008635e-01 2.612714e-01 2.372734e-01
<GCONST> 1.151151e+02
<STATE> 3
<MEAN> 39
 -3.596388e+00 -4.292954e+00 -9.870696e+00 -1.683497e+01 -1.869500e+00 -1.198755e+01 1.991593e+00 -2.940713e+00 -1.916303e-01 -1.542454e+01 5.127031e-01 1.154280e-02 9.331019e+01 -2.505867e-01 -2.588081e-01 1.085499e-01 1.889824e-01 7.838416e-01 -4.036687e-01 -3.740668e-01 5.223440e-02 7.109277e-01 1.989931e-01 4.800536e-01 -1.801501e-01 4.819254e-02 -7.573099e-02 5.566926e-02 1.901801e-01 7.948810e-02 8.680040e-02 -2.191482e-01 -7.721621e-02 -6.209495e-02 1.089541e-02 4.551581e-02 -1.726852e-02 -9.701705e-02 -1.066553e-01
<VARIANCE> 39
 7.470847e+00 1.252334e+01 9.626990e+00 1.592672e+01 3.354410e+01 3.966122e+01 2.236937e+01 1.870434e+01 2.529871e+01 4.338242e+01 2.433220e+01 1.435372e+01 7.260355e+00 3.319530e-01 6.468049e-01 1.020371e+00 1.510206e+00 1.606128e+00 4.679005e+00 1.882763e+00 1.470799e+00 1.990032e+00 1.992137e+00 1.178194e+00 1.274403e+00 2.960200e-01 6.529267e-02 1.281571e-01 1.124997e-01 2.991244e-01 3.423092e-01 4.099916e-01 2.744499e-01 2.480364e-01 3.850288e-01 4.194545e-01 2.208272e-01 1.975800e-01 6.820022e-02
<GCONST> 9.134657e+01
<STATE> 4
<MEAN> 39
 -1.091916e+01 -3.963472e+00 5.441368e+00 -6.760920e+00 1.017191e+01 -2.966227e+01 -8.465454e+00 -6.156524e+00 2.538405e+00 -1.398020e+01 -2.932389e-01 -6.317083e+00 8.300115e+01 -4.794659e-01 -1.042000e-01 3.644374e-01 4.016627e-01 2.171401e-01 7.672408e-01 -4.280112e-02 -2.162956e-01 -5.602437e-01 3.064361e-01 -5.062665e-01 -1.860704e-01 -1.231427e+00 -1.554195e-01 3.203986e-03 -2.236063e-01 -1.499693e-01 -1.401154e-01 3.727896e-01 2.668141e-01 -2.552211e-02 -5.430858e-02 -2.487999e-02 1.128981e-01 1.046729e-01 9.969276e-02
<VARIANCE> 39
 1.394595e+01 2.965645e+01 4.768663e+01 3.183136e+01 3.396708e+01 8.630807e+01 2.171806e+01 1.955960e+01 4.816634e+01 5.258138e+01 5.601018e+01 2.748491e+01 5.677399e+01 1.807464e+00 2.348016e+00 5.238362e+00 2.228573e+00 2.796960e+00 1.016760e+01 3.513509e+00 1.494608e+00 2.776806e+00 5.829689e+00 3.259316e+00 2.095747e+00 1.105977e+00 4.680941e-01 4.227823e-01 5.411268e-01 2.834108e-01 5.244318e-01 1.145395e+00 5.999847e-01 3.079679e-01 6.643257e-01 1.154555e+00 6.163338e-01 4.693192e-01 2.412931e-01
<GCONST> 1.233722e+02
<STATE> 5
<MEAN> 39
 -2.364382e+01 -6.306387e+00 -1.587624e+00 -1.041089e+01 7.699504e+00 -7.212005e+00 9.301376e-01 -7.569974e+00 -1.647202e+00 -7.586509e+00 1.815966e+00 -5.249247e+00 7.438580e+01 3.553002e-02 9.414821e-02 6.477744e-03 1.750619e-01 -4.478828e-01 3.881547e-01 1.168130e-01 2.982870e-01 -9.248357e-02 2.473599e-01 -4.753848e-02 1.987595e-01 -5.711839e-01 1.693791e-01 -6.477056e-03 4.920754e-02 1.162584e-01 1.754563e-03 -6.848764e-02 -1.296153e-01 4.800370e-02 -1.081869e-02 1.524340e-02 -1.104831e-01 9.420599e-03 -7.055452e-02
<VARIANCE> 39
 5.272992e+01 2.544690e+01 1.346138e+01 3.111459e+01 3.004524e+01 3.632878e+01 2.019851e+01 2.667455e+01 2.351862e+01 2.017375e+01 2.627042e+01 1.758292e+01 5.822230e+01 3.769341e+00 1.548495e+00 1.290030e+00 2.329712e+00 2.354757e+00 1.945646e+00 1.732457e+00 1.634759e+00 1.535893e+00 1.913721e+00 2.327742e+00 1.376714e+00 2.355383e+00 2.509919e-01 2.044466e-01 2.135533e-01 3.315626e-01 3.860625e-01 3.961188e-01 2.661134e-01 2.739864e-01 2.929474e-01 4.014284e-01 3.447364e-01 2.369703e-01 2.273197e-01
<GCONST> 1.068495e+02
<TRANSP> 6
 0.000000e+00 1.000000e+00 0.000000e+00 0.000000e+00 0.000000e+00 0.000000e+00
 0.000000e+00 9.514203e-01 4.857972e-02 0.000000e+00 0.000000e+00 0.000000e+00
 0.000000e+00 0.000000e+00 9.428281e-01 5.717193e-02 0.000000e+00 0.000000e+00
 0.000000e+00 0.000000e+00 0.000000e+00 9.361653e-01 6.383473e-02 0.000000e+00
 0.000000e+00 0.000000e+00 0.000000e+00 0.000000e+00 9.538299e-01 4.617008e-02
 0.000000e+00 0.000000e+00 0.000000e+00 0.000000e+00 0.000000e+00 0.000000e+00
<ENDHMM>
