~o
<STREAMINFO> 1 39
<VECSIZE> 39<NULLD><MFCC_D_A_0><DIAGC>
~h "one"
<BEGINHMM>
<NUMSTATES> 6
<STATE> 2
<MEAN> 39
 -4.896219e+00 1.075882e+01 1.261643e+00 -1.334567e+01 -4.817359e+00 -1.783438e+01 -2.146463e+00 -4.088733e+00 -6.239651e+00 -9.124420e+00 -5.545599e+00 -9.044044e+00 8.101952e+01 6.830013e-01 -8.414214e-01 -1.010730e+00 -3.327640e-01 -9.391387e-01 -4.013636e-02 -1.423133e-02 1.786142e-01 2.064793e-01 -7.671260e-02 -1.600301e-01 3.335206e-01 2.466557e+00 -2.108830e-01 -3.451051e-01 -1.767641e-01 1.322512e-01 1.772185e-01 3.008690e-01 1.201557e-01 1.317230e-01 2.246807e-01 1.201643e-01 1.048456e-01 1.450371e-01 -1.541241e-01
<VARIANCE> 39
 1.974783e+01 5.236944e+01 2.885292e+01 4.849432e+01 6.286748e+01 6.312159e+01 6.015519e+01 2.467800e+01 2.583304e+01 4.372099e+01 2.312862e+01 2.933924e+01 9.229434e+01 1.734047e+00 8.788483e+00 2.821123e+00 3.509651e+00 5.672841e+00 6.343358e+00 2.973641e+00 2.086865e+00 3.949635e+00 5.218080e+00 2.082087e+00 2.456060e+00 2.827798e+00 2.955239e-01 1.510029e+00 5.516105e-01 6.885235e-01 1.097032e+00 9.710203e-01 5.146978e-01 3.748218e-01 7.318721e-01 1.001100e+00 4.971058e-01 3.663122e-01 5.444362e-01
<GCONST> 1.296684e+02
<STATE> 3
<MEAN> 39
 -5.861846e+00 2.859090e+00 -5.738437e+00 -1.520863e+01 -1.806870e+00 -1.296912e+01 1.585653e+00 -1.632454e+00 -4.411520e+00 -1.279217e+01 4.618711e+00 1.391600e-02 9.299321e+01 -4.347230e-01 4.933026e-01 3.798864e-01 7.520250e-02 1.191767e+00 -1.135666e-01 2.914009e-01 -4.730838e-01 -4.913752e-01 -3.717944e-01 1.858137e+00 1.342186e-01 -3.657560e-01 1.713676e-03 1.901857e-01 2.251309e-01 1.467933e-01 1.400562e-01 -2.418836e-02 -1.120602e-01 -1.374286e-01 -8.571397e-02 9.371703e-02 -1.570248e-01 -1.358923e-01 -2.611268e-01
<VARIANCE> 39
 5.373952e+00 1.241887e+01 1.583487e+01 1.132776e+01 3.597246e+01 2.355754e+01 3.310331e+01 3.121454e+01 4.666243e+01 3.081278e+01 9.800388e+01 2.364547e+01 4.522169e+00 1.770207e-01 8.543170e-01 1.215215e+00 1.417837e+00 1.757188e+00 2.030504e+00 1.475185e+00 2.671428e+00 2.145151e+00 2.896930e+00 3.534265e+00 2.752909e+00 6.360539e-01 4.462264e-02 1.946400e-01 1.885593e-01 3.355879e-01 2.790453e-01 5.041060e-01 1.791460e-01 4.258410e-01 4.830846e-01 5.256994e-01 1.024976e+00 3.373170e-01 1.000568e-01
<GCONST> 9.945068e+01
<STATE> 4
<MEAN> 39
 -7.747952e+00 5.287174e+00 3.881198e+00 -5.936371e+00 1.678299e+01 -1.033888e+01 -3.055935e+00 -7.541772e+00 -4.556711e+00 -7.613261e+00 6.523447e+00 -5.306704e+00 7.761425e+01 2.970975e-01 -5.194730e-01 5.657019e-01 1.093457e+00 6.466558e-01 7.534401e-01 -5.675218e-01 -1.969801e-02 3.005863e-01 6.555156e-01 -1.367135e+00 -1.283417e-01 -1.525117e+00 6.845601e-02 -1.263865e-01 -2.090205e-01 -7.861356e-02 -3.553785e-01 -5.464767e-02 3.049272e-02 9.539291e-02 -8.580444e-03 -4.764083e-02 9.673754e-02 5.403515e-02 1.057866e-01
<VARIANCE> 39
 1.616064e+01 1.476254e+01 1.653977e+01 2.913176e+01 4.064877e+01 3.879435e+01 2.498769e+01 2.283902e+01 5.949960e+01 2.785503e+01 7.672108e+01 1.382031e+01 3.024525e+01 6.101958e-01 6.086313e-01 1.399560e+00 3.361639e+00 4.312276e+00 2.231377e+00 1.793362e+00 2.303856e+00 2.022827e+00 2.153822e+00 3.734106e+00 9.778677e-01 1.273943e+00 1.174438e-01 1.421057e-01 2.159580e-01 6.728702e-01 6.168314e-01 4.264919e-01 3.217005e-01 3.964451e-01 3.482707e-01 3.879163e-01 7.576137e-01 1.426947e-01 2.006189e-01
<GCONST> 1.068288e+02
<STATE> 5
<MEAN> 39
 -5.674304e+00 8.464169e-01 4.011620e+00 3.264573e+00 8.561812e+00 -3.339002e+00 -6.552037e+00 -6.941226e+00 -5.370182e+00 -1.466801e+00 1.012701e+00 -5.358065e+00 6.693930e+01 -3.848463e-01 -3.195904e-01 -2.040335e-01 3.067517e-01 -7.559421e-01 4.971181e-01 1.083581e-01 2.946304e-01 8.619641e-02 3.918393e-01 -2.322791e-01 6.526937e-02 -6.811770e-01 -7.358543e-02 1.869420e-02 3.654863e-02 -1.170531e-01 1.138472e-01 -3.899968e-02 5.378764e-02 2.356610e-02 1.890956e-02 -5.054127e-02 6.230129e-03 2.856099e-02 4.732962e-02
<VARIANCE> 39
 1.565143e+01 1.952260e+01 1.634657e+01 8.288973e+00 2.795765e+01 1.848282e+01 2.530249e+01 2.114332e+01 1.986799e+01 5.436535e+01 2.469409e+01 2.080933e+01 1.470359e+01 6.576381e-01 7.042987e-01 9.334805e-01 9.750616e-01 1.671279e+00 1.481557e+00 1.792542e+00 1.687204e+00 1.465232e+00 1.979888e+00 1.246909e+00 1.547448e+00 2.089562e-01 7.989556e-02 1.167809e-01 1.431528e-01 1.408557e-01 2.586184e-01 2.948769e-01 2.920965e-01 3.487366e-01 2.704845e-01 3.473293e-01 2.578117e-01 3.178390e-01 3.471776e-02
<GCONST> 9.039597e+01
<TRANSP> 6
 0.000000e+00 1.000000e+00 0.000000e+00 0.000000e+00 0.000000e+00 0.000000e+00
 0.000000e+00 8.927291e-01 1.072709e-01 0.000000e+00 0.000000e+00 0.000000e+00
 0.000000e+00 0.000000e+00 9.222894e-01 7.771062e-02 0.000000e+00 0.000000e+00
 0.000000e+00 0.000000e+00 0.000000e+00 9.111118e-01 8.888816e-02 0.000000e+00
 0.000000e+00 0.000000e+00 0.000000e+00 0.000000e+00 9.245819e-01 7.541803e-02
 0.000000e+00 0.000000e+00 0.000000e+00 0.000000e+00 0.000000e+00 0.000000e+00
<ENDHMM>

~h "two"
<BEGINHMM>
<NUMSTATES> 6
<STATE> 2
<MEAN> 39
 -2.023986e+01 -8.883678e+00 7.731385e-01 -8.156903e+00 2.104036e+00 -1.010754e+01 2.197198e-01 -1.205009e+01 -4.211780e+00 2.949504e-01 4.798713e+00 -7.703285e+00 8.995045e+01 7.405334e-01 6.409557e-01 -3.284317e-01 -2.686236e-01 5.968177e-01 -6.610594e-01 9.075098e-02 -1.084407e+00 -1.186261e+00 -3.518459e-01 -4.725073e-02 1.343919e-01 1.204629e+00 4.084145e-01 4.524841e-01 -5.194519e-02 1.914179e-01 -1.138605e-01 -7.119366e-02 2.855754e-02 7.491373e-02 -3.232236e-01 -3.263715e-01 -4.572313e-01 1.696158e-01 -6.227273e-01
<VARIANCE> 39
 2.312452e+01 1.461003e+01 1.712322e+01 1.010679e+01 2.135970e+01 2.435963e+01 1.570795e+01 2.322048e+01 1.902064e+01 1.706248e+01 2.051081e+01 1.455399e+01 4.724753e+01 3.879385e+00 3.949891e+00 1.781293e+00 1.598035e+00 1.933842e+00 5.232847e+00 1.749092e+00 2.035097e+00 3.797686e+00 3.167953e+00 5.778705e+00 2.240717e+00 1.226234e+01 3.555288e-01 3.610332e-01 3.873743e-01 2.712871e-01 5.474094e-01 1.078289e+00 3.661372e-01 3.808905e-01 5.134997e-01 5.112433e-01 5.970221e-01 3.757581e-01 1.679244e+00
<GCONST> 1.159415e+02
<STATE> 3
<MEAN> 39
 -7.195064e+00 5.078964e+00 3.043739e-01 -1.039780e+01 -3.248214e+00 -2.004865e+01 3.893580e+00 -1.580685e+01 -1.819082e+01 -1.090076e+01 -7.318617e+00 -5.068708e+00 9.086620e+01 4.275361e-01 6.165756e-01 4.501529e-01 -5.757008e-01 -5.070913e-01 -1.987066e-01 6.086310e-01 5.149015e-01 -1.373399e-01 -9.396525e-01 -5.890282e-01 -1.950940e-01 -3.256866e-03 -1.546154e-01 -1.756666e-01 1.444369e-01 -1.857423e-01 1.138728e-01 7.989743e-02 1.312785e-01 1.237205e-01 2.951579e-01 -4.629652e-03 2.364331e-01 -8.237301e-02 -1.461702e-01
<VARIANCE> 39
 4.120880e+00 1.318826e+01 1.350176e+01 1.587361e+01 2.040043e+01 4.317069e+01 4.948693e+01 2.976732e+01 2.835930e+01 3.086930e+01 1.586117e+01 2.069828e+01 1.047947e+01 8.400398e-01 1.351492e+00 1.379735e+00 1.939402e+00 2.114959e+00 5.514405e+00 4.577577e+00 3.183007e+00 3.859977e+00 2.841354e+00 2.076585e+00 1.573165e+00 1.286960e+00 1.517787e-01 2.647652e-01 2.558679e-01 4.386263e-01 3.018952e-01 1.126489e+00 8.460020e-01 6.550328e-01 5.893482e-01 5.566482e-01 4.508128e-01 3.039067e-01 2.079625e-01
<GCONST> 1.083686e+02
<STATE> 4
<MEAN> 39
 -7.161058e+00 8.888516e+00 6.963372e+00 -1.838507e+01 6.297288e-02 -1.844000e+01 8.681071e+00 -5.470620e+00 -1.140687e+01 -1.435997e+01 -9.646800e+00 -8.911117e+00 7.827399e+01 -1.964268e-02 -4.342349e-01 -3.502137e-01 -4.137116e-02 9.672938e-02 9.868024e-01 -6.666417e-01 7.847016e-01 6.351576e-01 9.330527e-01 3.331091e-01 2.269115e-01 -1.468805e+00 -2.576429e-02 -1.413302e-01 -2.178749e-01 3.445370e-01 -1.122453e-01 2.799268e-01 -2.660679e-01 1.733655e-02 7.989767e-02 2.664451e-01 1.073604e-01 1.871905e-01 -5.898695e-03
<VARIANCE> 39
 8.229219e+00 3.392639e+01 2.426439e+01 2.871954e+01 3.035391e+01 5.424185e+01 5.204456e+01 2.074281e+01 1.822914e+01 7.517937e+01 2.395190e+01 3.460385e+01 4.658465e+01 1.155316e+00 4.446311e+00 4.402611e+00 5.147048e+00 4.165464e+00 7.243289e+00 5.918005e+00 2.177085e+00 1.973847e+00 5.822785e+00 2.513340e+00 4.270483e+00 1.720170e+00 2.354336e-01 7.854522e-01 8.219591e-01 1.146289e+00 6.532448e-01 1.089285e+00 1.120596e+00 4.813293e-01 3.416750e-01 1.042963e+00 3.688223e-01 7.130173e-01 3.725555e-01
<GCONST> 1.260482e+02
<STATE> 5
<MEAN> 39
 -6.321497e+00 2.668615e+00 2.946526e+00 -3.741448e+00 -1.819686e+00 -1.827306e+00 4.648174e-01 4.899357e-01 -2.894855e+00 -2.680438e+00 -3.181429e+00 -2.939435e+00 6.477321e+01 -4.287619e-01 -2.150780e-01 3.408021e-01 1.723295e+00 4.594079e-01 7.183250e-01 -1.203582e-01 -8.078819e-02 4.867671e-01 3.058787e-01 2.431970e-01 1.420859e-01 -7.172544e-01 -8.262821e-02 5.304030e-02 8.725205e-02 -1.956153e-01 2.101812e-01 -2.241434e-01 8.606962e-02 -1.103758e-01 -1.269120e-01 -1.109572e-01 -9.841752e-02 -1.043050e-01 9.763837e-02
<VARIANCE> 39
 1.130609e+01 1.645041e+01 2.730242e+01 5.018060e+01 2.228226e+01 1.518013e+01 1.297439e+01 1.455618e+01 1.033482e+01 8.839010e+00 9.947604e+00 8.120694e+00 5.260116e+00 1.091072e+00 1.248125e+00 1.900946e+00 3.899104e+00 2.185495e+00 1.382944e+00 1.304742e+00 1.720751e+00 1.253435e+00 1.288494e+00 1.297742e+00 1.002713e+00 8.710961e-01 1.748406e-01 2.934576e-01 4.527163e-01 5.242003e-01 5.150941e-01 3.577187e-01 2.938552e-01 3.745078e-01 2.709274e-01 3.006063e-01 3.271489e-01 2.647518e-01 1.610070e-01
<GCONST> 9.550134e+01
<TRANSP> 6
 0.000000e+00 1.000000e+00 0.000000e+00 0.000000e+00 0.000000e+00 0.000000e+00
 0.000000e+00 8.946600e-01 1.053400e-01 0.000000e+00 0.000000e+00 0.000000e+00
 0.000000e+00 0.000000e+00 9.277985e-01 7.220151e-02 0.000000e+00 0.000000e+00
 0.000000e+00 0.000000e+00 0.000000e+00 9.240629e-01 7.593711e-02 0.000000e+00
 0.000000e+00 0.000000e+00 0.000000e+00 0.000000e+00 8.967814e-01 1.032187e-01
 0.000000e+00 0.000000e+00 0.000000e+00 0.000000e+00 0.000000e+00 0.000000e+00
<ENDHMM>

~h "three"
<BEGINHMM>
<NUMSTATES> 6
<STATE> 2
<MEAN> 39
 -1.753621e+01 -8.204511e+00 -1.451645e-02 -1.274892e+01 6.571030e-01 -1.015123e+01 -3.384313e+00 -8.450862e+00 1.406328e+00 -7.180173e+00 1.848957e+00 -6.671605e+00 8.593497e+01 1.199261e+00 1.744495e+00 6.701511e-01 4.805510e-01 1.438663e+00 -2.590101e+00 -1.222180e+00 -2.001650e+00 -1.534099e+00 -7.854041e-01 -8.503260e-01 -9.930668e-01 3.509495e+00 7.601885e-01 1.167109e+00 1.365742e-02 1.304183e+00 5.973586e-01 -1.386565e-01 -1.079922e-02 -1.915144e-02 -9.234411e-01 2.043554e-01 -6.776242e-01 4.415174e-01 -1.767710e+00
<VARIANCE> 39
 6.187425e+00 2.634755e+01 9.897749e+00 3.686224e+01 3.049861e+01 1.350377e+01 1.729337e+01 1.635759e+01 2.350516e+01 3.091051e+01 1.573305e+01 2.273705e+01 1.076583e+02 3.488134e+00 8.747996e+00 1.319523e+00 1.193301e+01 3.391947e+00 2.316875e+00 1.140053e+00 2.252110e+00 7.634162e+00 3.357777e+00 3.531017e+00 2.444271e+00 2.199737e+01 2.783153e-01 6.362299e-01 2.445364e-01 1.016640e+00 5.047737e-01 3.581644e-01 4.035810e-01 2.786268e-01 6.662311e-01 7.890716e-01 3.649444e-01 5.360156e-01 2.319992e+00
<GCONST> 1.207010e+02
<STATE> 3
<MEAN> 39
 -3.868253e+00 8.003481e+00 -6.816511e+00 -9.387759e+00 1.372456e+01 -2.152598e+01 -1.098511e+00 -1.686260e+01 -1.112128e+01 -1.084233e+01 -7.876938e+00 -2.707699e+00 8.624209e+01 3.900195e-01 2.358267e-01 -5.612394e-01 3.266376e-01 1.957428e-01 -5.444989e-01 -3.495880e-02 -2.604776e-01 1.673850e-01 -2.670840e-02 -2.759645e-02 -3.894198e-02 9.974134e-02 -1.933752e-01 -2.106822e-01 7.249454e-02 -1.524536e-02 -1.781696e-01 7.971487e-02 -2.550736e-03 1.713067e-01 2.299859e-01 -2.788810e-02 1.098647e-01 -1.119681e-01 4.373877e-02
<VARIANCE> 39
 7.570989e+00 1.203566e+01 3.547751e+01 4.438506e+01 2.999815e+01 3.532797e+01 4.031211e+01 2.304979e+01 3.231642e+01 2.189967e+01 2.570565e+01 2.132504e+01 1.497377e+01 1.233447e+00 2.030072e+00 1.214034e+00 4.052764e+00 4.280009e+00 3.749163e+00 3.867988e+00 2.437830e+00 3.367938e+00 2.473119e+00 2.592325e+00 2.290215e+00 7.396964e-01 1.223919e-01 2.281841e-01 2.457892e-01 5.428543e-01 7.392173e-01 8.057206e-01 5.983441e-01 5.115941e-01 4.884387e-01 5.329832e-01 3.471698e-01 3.192269e-01 1.303298e-01
<GCONST> 1.111787e+02
<STATE> 4
<MEAN> 39
 -1.033434e+01 2.654438e+00 5.842268e+00 2.536297e+00 5.653642e+00 -2.955352e+01 -7.207193e+00 -7.995489e+00 -2.762093e+00 -1.845755e+01 -6.531252e-01 -8.284925e+00 8.821180e+01 -6.679164e-01 7.249434e-02 1.988386e+00 2.552798e-01 -1.512539e-01 -1.619039e-01 4.001236e-01 1.012645e+00 -1.719668e-01 -9.774473e-01 1.852634e-01 4.942428e-02 -5.789302e-01 3.990863e-02 3.698863e-02 -4.740063e-02 -1.263285e-01 1.132479e-01 1.820032e-01 1.868869e-01 -9.682868e-02 -1.083834e-01 1.071834e-01 -4.340153e-02 1.185515e-01 -1.190581e-01
<VARIANCE> 39
 7.967661e+00 1.990979e+01 8.854388e+01 8.652835e+00 1.268519e+01 2.608469e+01 1.615500e+01 4.394530e+01 2.389533e+01 4.283899e+01 1.385286e+01 1.881076e+01 1.356769e+01 2.367267e-01 1.053055e+00 1.171032e+00 7.413167e-01 1.358353e+00 2.768186e+00 1.335796e+00 2.039577e+00 1.318660e+00 2.032843e+00 9.332661e-01 2.001586e+00 6.162803e-01 3.809305e-02 1.726274e-01 2.459683e-01 1.601697e-01 1.753711e-01 6.662152e-01 1.592980e-01 3.076511e-01 2.997071e-01 4.090174e-01 2.200790e-01 4.413206e-01 5.248551e-02
<GCONST> 9.197782e+01
<STATE> 5
<MEAN> 39
 -1.504756e+01 -5.348361e-01 1.411859e+01 9.339274e-01 4.663533e+00 -1.610839e+01 9.456027e-01 -2.132868e+00 -5.179927e+00 -1.290180e+01 -1.749575e+00 -5.276855e+00 7.135663e+01 1.498715e-01 -6.882284e-01 -1.391528e+00 -4.650306e-01 -5.855455e-01 2.051297e+00 2.692400e-02 2.500226e-01 3.500751e-02 1.467098e+00 -1.654373e-01 5.137625e-01 -1.413570e+00 5.398919e-02 1.429858e-03 -1.619786e-01 -7.280878e-02 -7.500132e-02 -3.224131e-02 -1.137207e-01 6.229121e-03 4.401759e-02 2.095936e-03 2.827895e-02 4.438810e-02 7.057752e-02
<VARIANCE> 39
 5.675601e+00 2.893033e+01 8.477998e+01 2.612760e+01 2.786927e+01 1.176871e+02 2.617813e+01 2.976494e+01 2.330455e+01 7.015594e+01 1.316487e+01 2.113257e+01 5.718235e+01 9.543457e-01 1.542697e+00 6.859780e+00 2.458790e+00 1.980047e+00 5.371123e+00 2.556207e+00 1.808837e+00 2.184864e+00 2.898859e+00 1.572004e+00 2.001714e+00 8.681644e-01 1.264220e-01 3.194019e-01 1.236033e+00 4.764529e-01 4.343285e-01 1.042592e+00 4.399424e-01 2.622903e-01 4.434457e-01 5.402431e-01 3.097422e-01 4.357941e-01 1.490261e-01
<GCONST> 1.142418e+02
<TRANSP> 6
 0.000000e+00 1.000000e+00 0.000000e+00 0.000000e+00 0.000000e+00 0.000000e+00
 0.000000e+00 7.368643e-01 2.631358e-01 0.000000e+00 0.000000e+00 0.000000e+00
 0.000000e+00 0.000000e+00 9.515759e-01 4.842404e-02 0.000000e+00 0.000000e+00
 0.000000e+00 0.000000e+00 0.000000e+00 9.313191e-01 6.868091e-02 0.000000e+00
 0.000000e+00 0.000000e+00 0.000000e+00 0.000000e+00 9.258630e-01 7.413695e-02
 0.000000e+00 0.000000e+00 0.000000e+00 0.000000e+00 0.000000e+00 0.000000e+00
<ENDHMM>

~h "four"
<BEGINHMM>
<NUMSTATES> 6
<STATE> 2
<MEAN> 39
 -1.675877e+01 -3.818194e+00 -2.807978e+00 -1.465574e+01 4.292736e+00 -1.260918e+01 6.922643e-01 -5.248833e+00 -3.301698e+00 -6.144558e+00 7.832795e-01 -7.882932e+00 8.130650e+01 7.013772e-01 3.742905e-01 1.948647e-01 -6.376804e-01 -7.924450e-01 -1.041031e+00 -4.193769e-01 -4.523847e-01 -1.408039e-01 -2.290394e-01 -2.249335e-01 -1.602977e-01 1.052523e+00 5.161966e-02 -1.223086e-02 -3.952561e-02 1.159159e-01 -1.266026e-01 7.817613e-02 -1.036588e-01 -4.662377e-02 -5.153320e-03 5.505204e-02 1.129548e-02 1.415092e-01 -4.224551e-02
<VARIANCE> 39
 8.372894e+01 5.135963e+01 3.453158e+01 4.163228e+01 5.840356e+01 5.957425e+01 3.440818e+01 2.143457e+01 2.224942e+01 1.784166e+01 2.511635e+01 1.917328e+01 5.740262e+01 5.534729e+00 4.853922e+00 2.834389e+00 2.535457e+00 3.983017e+00 3.862080e+00 3.622038e+00 2.258896e+00 2.779608e+00 1.914107e+00 2.677317e+00 1.836549e+00 2.274323e+00 5.960477e-01 8.295286e-01 4.366036e-01 4.982863e-01 7.927860e-01 9.173406e-01 6.765791e-01 4.856706e-01 5.841085e-01 3.773067e-01 5.387890e-01 3.452975e-01 2.263589e-01
<GCONST> 1.241266e+02
<STATE> 3
<MEAN> 39
 -3.896167e-01 1.752886e+00 -7.296848e-01 -1.554270e+01 -7.757005e+00 -1.977713e+01 -9.102205e+00 -7.297579e+00 -2.211589e+00 -5.431682e+00 -6.280296e-01 -5.219827e+00 8.921531e+01 8.225114e-02 -4.246450e-01 -5.556908e-01 -4.080125e-02 -3.039775e-02 2.250631e-01 7.353584e-02 4.403519e-01 8.705495e-01 -3.064776e-01 1.541452e-01 2.130917e-01 1.467016e-01 6.054840e-03 6.255699e-02 -3.862882e-02 -1.453831e-01 8.284098e-02 9.257240e-03 1.389193e-01 -5.498222e-03 5.019949e-02 -1.130529e-01 -7.737441e-02 -9.115472e-02 -9.840728e-02
<VARIANCE> 39
 2.336699e+00 2.039433e+01 4.198510e+01 1.519804e+01 1.477640e+01 3.498114e+01 2.535312e+01 4.495363e+01 4.611241e+01 2.501192e+01 1.659206e+01 1.894551e+01 1.028588e+01 1.488910e-01 6.482080e-01 8.593162e-01 1.373547e+00 1.220632e+00 2.075433e+00 2.260866e+00 1.695452e+00 2.270866e+00 2.749981e+00 1.108363e+00 1.221662e+00 3.757339e-01 3.713096e-02 1.139635e-01 1.157521e-01 1.656878e-01 2.245624e-01 3.275286e-01 2.897695e-01 3.140354e-01 3.645208e-01 3.664767e-01 1.802902e-01 2.155691e-01 4.683431e-02
<GCONST> 8.892704e+01
<STATE> 4
<MEAN> 39
 2.517050e+00 2.663972e+00 -1.440088e+01 -1.991323e+01 3.857290e+00 -9.769045e+00 -1.574935e+00 -1.527052e+01 -3.547205e+00 -9.610054e+00 -3.077540e-01 -1.140661e+00 7.820459e+01 -1.644606e-01 -7.375266e-02 -2.948272e-01 3.151931e-01 5.513073e-01 1.208135e+00 8.862215e-02 -7.106450e-01 -1.109210e+00 4.736342e-01 2.299783e-01 2.226605e-01 -1.139445e+00 -9.501459e-02 -1.251612e-01 6.122401e-02 9.598687e-02 -1.116216e-01 3.065401e-02 -5.080557e-02 1.755967e-01 3.696114e-02 2.052373e-01 9.092228e-02 2.191175e-02 -1.356752e-02
<VARIANCE> 39
 2.257652e+01 2.284649e+01 3.180104e+01 3.111546e+01 7.360688e+01 6.533340e+01 2.741948e+01 5.818841e+01 1.283120e+02 3.859290e+01 3.040565e+01 2.127728e+01 5.053969e+01 2.893260e+00 2.084920e+00 3.114260e+00 2.687336e+00 4.965640e+00 2.392661e+00 3.145760e+00 3.923965e+00 3.602385e+00 3.002567e+00 1.724171e+00 1.657282e+00 1.345566e+00 5.036468e-01 2.746161e-01 4.073617e-01 3.905011e-01 7.540070e-01 3.994444e-01 5.977198e-01 4.986517e-01 7.488585e-01 5.752913e-01 3.277168e-01 2.928536e-01 2.447945e-01
<GCONST> 1.213932e+02
<STATE> 5
<MEAN> 39
 -8.491761e+00 -5.545983e+00 -8.955503e+00 -9.238377e+00 1.775146e+00 3.983129e+00 -2.815460e+00 -9.398904e+00 -8.249162e+00 1.083588e+00 4.880159e+00 1.403926e+00 6.369992e+01 -1.041465e+00 -3.645088e-01 8.101978e-01 8.567770e-01 -1.359751e-01 -1.483128e-01 2.283247e-01 1.061674e+00 7.186736e-01 2.471935e-01 -2.010957e-01 8.164719e-02 -6.477219e-01 7.476919e-02 1.734473e-01 9.755106e-02 1.213335e-02 5.087701e-02 -2.267059e-01 5.708628e-04 -1.384017e-01 -5.600455e-02 -1.946323e-01 -1.747627e-01 -7.485013e-02 7.326265e-02
<VARIANCE> 39
 1.531053e+01 7.024070e+00 4.017161e+01 3.047997e+01 1.392473e+01 1.781147e+01 1.397427e+01 2.191526e+01 1.597888e+01 2.534679e+01 3.234236e+01 1.496831e+01 6.298473e+00 2.823420e-01 5.404173e-01 1.200764e+00 1.255398e+00 1.223380e+00 1.381651e+00 1.168783e+00 1.478473e+00 1.339215e+00 2.341571e+00 2.375507e+00 1.220855e+00 1.088301e-01 6.638953e-02 5.963044e-02 1.653039e-01 2.449840e-01 2.627993e-01 2.524832e-01 2.423287e-01 2.950796e-01 1.884497e-01 3.323087e-01 3.121911e-01 1.766027e-01 2.795776e-02
<GCONST> 8.498695e+01
<TRANSP> 6
 0.000000e+00 1.000000e+00 0.000000e+00 0.000000e+00 0.000000e+00 0.000000e+00
 0.000000e+00 9.494841e-01 5.051593e-02 0.000000e+00 0.000000e+00 0.000000e+00
 0.000000e+00 0.000000e+00 9.430686e-01 5.693138e-02 0.000000e+00 0.000000e+00
 0.000000e+00 0.000000e+00 0.000000e+00 9.460825e-01 5.391748e-02 0.000000e+00
 0.000000e+00 0.000000e+00 0.000000e+00 0.000000e+00 9.055924e-01 9.440758e-02
 0.000000e+00 0.000000e+00 0.000000e+00 0.000000e+00 0.000000e+00 0.000000e+00
<ENDHMM>

~h "five"
<BEGINHMM>
<NUMSTATES> 6
<STATE> 2
<MEAN> 39
 -1.959485e+01 -7.709710e+00 -5.313281e+00 -1.283675e+01 3.335776e+00 -9.712298e+00 2.052358e+00 -7.637243e+00 -5.034016e-01 -7.710061e+00 3.292797e+00 -5.474431e+00 8.271323e+01 6.687014e-01 2.178669e-01 -1.988948e-01 -4.207541e-01 -5.287744e-01 -5.688649e-01 1.200654e-01 3.285324e-02 -1.508708e-01 -6.241576e-01 -3.042227e-01 1.573375e-01 1.212432e+00 7.769162e-02 2.550708e-02 7.510237e-03 2.789644e-02 -5.767434e-02 1.173639e-02 -5.041863e-02 9.783515e-02 3.547698e-02 -9.786958e-03 -7.808515e-03 4.466788e-02 -5.506971e-02
<VARIANCE> 39
 8.355370e+01 3.363423e+01 1.636889e+01 1.646935e+01 3.479251e+01 2.994729e+01 2.293477e+01 1.929327e+01 2.568873e+01 3.177870e+01 2.213030e+01 1.597577e+01 5.655677e+01 6.255880e+00 3.308855e+00 1.928096e+00 1.026150e+00 2.933368e+00 2.492339e+00 2.453854e+00 2.016227e+00 2.691577e+00 2.617444e+00 2.776509e+00 1.459192e+00 1.526477e+00 7.326853e-01 6.704997e-01 3.568249e-01 2.210540e-01 4.951617e-01 5.589626e-01 4.711053e-01 4.061168e-01 5.497372e-01 4.735007e-01 6.008792e-01 2.612433e-01 2.372785e-01
<GCONST> 1.151145e+02
<STATE> 3
<MEAN> 39
 -3.596333e+00 -4.292640e+00 -9.870479e+00 -1.683513e+01 -1.869473e+00 -1.198731e+01 1.991510e+00 -2.940524e+00 -1.914088e-01 -1.542458e+01 5.128526e-01 1.177629e-02 9.330998e+01 -2.505891e-01 -2.588090e-01 1.085448e-01 1.889971e-01 7.838368e-01 -4.036701e-01 -3.740600e-01 5.221826e-02 7.109423e-01 1.990040e-01 4.800339e-01 -1.801436e-01 4.818739e-02 -7.573255e-02 5.566330e-02 1.901767e-01 7.949313e-02 8.679999e-02 -2.191465e-01 -7.721760e-02 -6.209350e-02 1.088556e-02 4.551917e-02 -1.727210e-02 -9.702048e-02 -1.066543e-01
<VARIANCE> 39
 7.471143e+00 1.252393e+01 9.627722e+00 1.592773e+01 3.354476e+01 3.966098e+01 2.236884e+01 1.870367e+01 2.529964e+01 4.338062e+01 2.433080e+01 1.435378e+01 7.260427e+00 3.319583e-01 6.468000e-01 1.020374e+00 1.510294e+00 1.606178e+00 4.679020e+00 1.882683e+00 1.470746e+00 1.990042e+00 1.992130e+00 1.178197e+00 1.274368e+00 2.960195e-01 6.529416e-02 1.281596e-01 1.125031e-01 2.991391e-01 3.423178e-01 4.100005e-01 2.744465e-01 2.480308e-01 3.850309e-01 4.194572e-01 2.208307e-01 1.975700e-01 6.820004e-02
<GCONST> 9.134679e+01
<STATE> 4
<MEAN> 39
 -1.091916e+01 -3.963757e+00 5.441107e+00 -6.760678e+00 1.017148e+01 -2.966212e+01 -8.465458e+00 -6.156368e+00 2.538283e+00 -1.397978e+01 -2.934506e-01 -6.317234e+00 8.300104e+01 -4.794677e-01 -1.042458e-01 3.644084e-01 4.016470e-01 2.171358e-01 7.672118e-01 -4.282932e-02 -2.162936e-01 -5.602622e-01 3.064491e-01 -5.062442e-01 -1.860880e-01 -1.231394e+00 -1.554202e-01 3.209610e-03 -2.236015e-01 -1.499726e-01 -1.400966e-01 3.727802e-01 2.668129e-01 -2.552655e-02 -5.430591e-02 -2.488784e-02 1.128951e-01 1.046729e-01 9.969546e-02
<VARIANCE> 39
 1.394618e+01 2.965786e+01 4.768563e+01 3.183278e+01 3.396684e+01 8.630859e+01 2.171869e+01 1.955996e+01 4.816978e+01 5.258059e+01 5.601012e+01 2.748479e+01 5.677397e+01 1.807475e+00 2.348043e+00 5.238218e+00 2.228650e+00 2.796869e+00 1.016755e+01 3.513622e+00 1.494655e+00 2.776768e+00 5.829776e+00 3.259191e+00 2.095747e+00 1.105984e+00 4.680928e-01 4.227966e-01 5.411245e-01 2.834193e-01 5.244352e-01 1.145419e+00 6.000331e-01 3.079842e-01 6.643075e-01 1.154609e+00 6.162917e-01 4.693103e-01 2.412857e-01
<GCONST> 1.233725e+02
<STATE> 5
<MEAN> 39
 -2.364391e+01 -6.306282e+00 -1.587736e+00 -1.041090e+01 7.699717e+00 -7.212245e+00 9.299845e-01 -7.570241e+00 -1.647466e+00 -7.586632e+00 1.815781e+00 -5.249424e+00 7.438573e+01 3.552932e-02 9.417316e-02 6.488517e-03 1.750592e-01 -4.478655e-01 3.881493e-01 1.168294e-01 2.982697e-01 -9.248209e-02 2.473371e-01 -4.755413e-02 1.987648e-01 -5.711906e-01 1.693811e-01 -6.479911e-03 4.920395e-02 1.162595e-01 1.740386e-03 -6.848092e-02 -1.296180e-01 4.800909e-02 -1.081838e-02 1.525087e-02 -1.104809e-01 9.422312e-03 -7.055579e-02
<VARIANCE> 39
 5.273048e+01 2.544578e+01 1.346119e+01 3.111450e+01 3.004579e+01 3.632821e+01 2.019923e+01 2.667517e+01 2.351941e+01 2.017312e+01 2.627100e+01 1.758375e+01 5.822164e+01 3.769356e+00 1.548476e+00 1.290003e+00 2.329688e+00 2.354649e+00 1.945670e+00 1.732539e+00 1.634862e+00 1.535911e+00 1.913751e+00 2.327739e+00 1.376766e+00 2.355340e+00 2.509894e-01 2.044461e-01 2.135496e-01 3.315612e-01 3.860467e-01 3.961244e-01 2.661194e-01 2.739965e-01 2.929512e-01 4.014334e-01 3.447394e-01 2.369770e-01 2.273116e-01
<GCONST> 1.068497e+02
<TRANSP> 6
 0.000000e+00 1.000000e+00 0.000000e+00 0.000000e+00 0.000000e+00 0.000000e+00
 0.000000e+00 9.514205e-01 4.857955e-02 0.000000e+00 0.000000e+00 0.000000e+00
 0.000000e+00 0.000000e+00 9.428281e-01 5.717195e-02 0.000000e+00 0.000000e+00
 0.000000e+00 0.000000e+00 0.000000e+00 9.361658e-01 6.383424e-02 0.000000e+00
 0.000000e+00 0.000000e+00 0.000000e+00 0.000000e+00 9.538299e-01 4.617006e-02
 0.000000e+00 0.000000e+00 0.000000e+00 0.000000e+00 0.000000e+00 0.000000e+00
<ENDHMM>

~h "six"
<BEGINHMM>
<NUMSTATES> 6
<STATE> 2
<MEAN> 39
 -3.054911e+01 -5.336165e+00 3.619153e+00 -1.631823e+01 7.357526e+00 -1.063793e+01 2.792084e+00 -7.349721e+00 2.465189e+00 -2.808178e+00 1.640678e+00 -4.341012e+00 8.660562e+01 -2.036551e-01 2.127741e-01 9.176466e-02 -3.068812e-01 1.965526e-01 -8.018069e-01 -1.713684e-01 -3.636769e-01 -1.091788e-01 -3.172812e-01 -9.046292e-02 -2.780877e-01 1.116107e+00 3.912706e-01 1.237868e-01 -1.024756e-01 2.503084e-01 -1.259996e-01 -1.181587e-01 -2.156529e-01 -4.607738e-02 -1.556610e-01 -5.332534e-02 -9.725922e-02 -8.162729e-02 -1.588682e-01
<VARIANCE> 39
 6.336176e+01 1.676092e+01 2.726961e+01 1.814613e+01 2.492088e+01 2.059424e+01 2.415062e+01 2.367686e+01 1.983036e+01 1.810005e+01 1.133423e+01 1.067689e+01 4.404078e+01 7.659025e+00 1.526452e+00 2.820343e+00 2.617398e+00 2.105259e+00 2.454806e+00 3.883724e+00 2.924740e+00 2.438794e+00 1.874464e+00 1.593955e+00 1.549031e+00 2.169050e+00 6.004541e-01 3.086601e-01 5.498170e-01 4.046839e-01 3.464532e-01 4.663275e-01 3.991267e-01 4.755420e-01 3.228568e-01 3.727425e-01 2.472294e-01 2.634343e-01 1.942204e-01
<GCONST> 1.104707e+02
<STATE> 3
<MEAN> 39
 -1.106170e+01 -3.930734e+00 2.133457e+00 -2.332834e+00 2.297675e+00 -2.450654e+01 -8.427255e+00 -7.158830e+00 -6.261528e+00 -7.068269e+00 -3.039624e+00 -4.798891e+00 8.007700e+01 4.471090e-01 -7.784223e-02 -2.746370e-01 6.824462e-01 -3.119166e-01 5.463373e-01 -1.304397e-02 5.308687e-01 5.504051e-03 1.831288e-01 -2.442747e-02 3.143214e-01 -1.347184e+00 -3.499581e-01 -8.006629e-02 -5.703345e-02 -2.396523e-01 1.898651e-01 1.534946e-01 1.689155e-01 5.171526e-02 1.760292e-01 9.759282e-02 8.935891e-02 2.321403e-02 1.184508e-01
<VARIANCE> 39
 7.455632e+00 1.715656e+01 1.719334e+01 2.437216e+01 2.731454e+01 1.120824e+02 2.346053e+01 4.281804e+01 1.133169e+01 1.948319e+01 2.022090e+01 2.127519e+01 1.694318e+02 3.078369e+00 1.613088e+00 2.036345e+00 2.054140e+00 2.888657e+00 9.218160e+00 2.855725e+00 2.498707e+00 1.654942e+00 2.459375e+00 2.104388e+00 1.873341e+00 3.775467e+00 4.829808e-01 3.433006e-01 4.505821e-01 3.855436e-01 6.271083e-01 1.296356e+00 4.948769e-01 6.257063e-01 2.844687e-01 5.163135e-01 4.581237e-01 4.522513e-01 7.234331e-01
<GCONST> 1.177412e+02
<STATE> 4
<MEAN> 39
 -2.066968e+01 -8.579345e+00 -2.684459e+00 -1.190148e+01 9.954457e+00 -1.023956e+01 -7.011574e+00 -8.463362e+00 6.527275e-01 -9.970214e-01 6.032106e-01 -5.809240e+00 8.188001e+01 -2.727030e+00 -6.366349e-01 2.556365e-01 -2.325388e+00 1.573702e+00 -1.688940e-01 3.799729e-01 -8.321562e-01 1.240465e+00 3.452768e-01 8.816443e-01 -4.322886e-01 4.393838e+00 -1.322687e-01 1.344351e-01 3.656838e-01 2.581057e-01 -4.350859e-01 1.127859e-01 3.131596e-01 3.525344e-01 -2.247862e-02 -1.339736e-01 -9.357500e-02 1.314684e-01 -2.824475e-01
<VARIANCE> 39
 4.638938e+01 1.568187e+01 2.627734e+01 5.988727e+01 4.802521e+01 3.133260e+01 1.483000e+01 2.834021e+01 2.603810e+01 9.698469e+00 2.250512e+01 1.237900e+01 1.619678e+02 1.549282e+00 1.539299e+00 5.263347e+00 5.824562e+00 7.450416e+00 3.099202e+00 2.468290e+00 3.906020e+00 1.940360e+00 1.069926e+00 2.270713e+00 1.597458e+00 6.692358e+00 4.051395e-01 2.794435e-01 7.885106e-01 1.164140e+00 1.259074e+00 6.291776e-01 4.494363e-01 6.579593e-01 4.786377e-01 1.923207e-01 4.860741e-01 2.949861e-01 2.447361e+00
<GCONST> 1.217032e+02
<STATE> 5
<MEAN> 39
 -3.070261e+01 -5.366137e+00 3.841991e+00 -1.777639e+01 1.008128e+01 -9.394636e+00 2.452801e+00 -4.548168e+00 4.052446e-01 -1.988516e+00 2.224316e+00 -4.278662e+00 8.484168e+01 5.719258e-01 2.285187e-01 4.353772e-02 3.171429e-01 -1.835919e-01 1.098005e-01 3.468170e-02 2.761061e-01 -3.980139e-01 7.854799e-02 -2.648408e-01 1.227522e-01 -1.143241e+00 1.278216e-01 -2.378782e-02 -5.460672e-02 9.701801e-02 5.037890e-03 2.039689e-02 -1.082291e-01 -3.040534e-02 -2.684136e-02 -3.544693e-03 -2.193009e-02 -2.146661e-02 -6.345513e-02
<VARIANCE> 39
 5.703962e+01 7.675343e+00 1.185809e+01 2.286460e+01 1.303263e+01 1.442511e+01 2.205063e+01 1.521167e+01 1.842509e+01 9.921622e+00 1.323619e+01 8.902948e+00 1.177954e+02 2.197424e+00 7.407688e-01 1.134180e+00 1.647009e+00 1.248872e+00 1.092335e+00 1.695051e+00 1.472687e+00 1.140570e+00 1.249712e+00 1.173007e+00 8.183650e-01 1.579526e+00 2.598170e-01 1.483534e-01 2.172090e-01 2.189215e-01 2.456149e-01 2.290561e-01 2.481729e-01 2.729204e-01 2.659197e-01 2.656586e-01 2.095242e-01 1.593861e-01 1.623680e-01
<GCONST> 9.252905e+01
<TRANSP> 6
 0.000000e+00 1.000000e+00 0.000000e+00 0.000000e+00 0.000000e+00 0.000000e+00
 0.000000e+00 9.485649e-01 5.143514e-02 0.000000e+00 0.000000e+00 0.000000e+00
 0.000000e+00 0.000000e+00 9.520367e-01 4.796333e-02 0.000000e+00 0.000000e+00
 0.000000e+00 0.000000e+00 0.000000e+00 8.607462e-01 1.392538e-01 0.000000e+00
 0.000000e+00 0.000000e+00 0.000000e+00 0.000000e+00 9.639351e-01 3.606495e-02
 0.000000e+00 0.000000e+00 0.000000e+00 0.000000e+00 0.000000e+00 0.000000e+00
<ENDHMM>

~h "seven"
<BEGINHMM>
<NUMSTATES> 6
<STATE> 2
<MEAN> 39
 -2.639275e+01 -7.994785e+00 3.044759e+00 -2.050561e+01 1.056345e+01 -1.536601e+01 4.630084e+00 -8.414864e+00 3.885511e+00 -3.612633e+00 1.882611e+00 -4.558587e+00 8.751945e+01 -5.208231e-02 2.461841e-01 4.306336e-02 2.805200e-02 2.651865e-01 -7.992157e-01 -6.453998e-02 -5.365173e-01 -1.731615e-01 -3.843489e-01 6.561498e-02 -1.777400e-01 1.158720e+00 2.492386e-01 1.859167e-01 -1.537383e-01 2.082150e-01 -1.901524e-01 -1.284585e-02 -2.021069e-01 1.874220e-02 -1.722213e-01 -5.016112e-02 -2.305918e-02 6.773935e-02 -1.594148e-01
<VARIANCE> 39
 6.254602e+01 1.776976e+01 1.702340e+01 2.461240e+01 2.788866e+01 3.021794e+01 3.233930e+01 2.028418e+01 1.133321e+01 1.654475e+01 1.265702e+01 1.027823e+01 4.025408e+01 8.328947e+00 2.847520e+00 2.198315e+00 3.315298e+00 2.961999e+00 2.659586e+00 4.484683e+00 3.406002e+00 2.418720e+00 1.946167e+00 1.433768e+00 1.342116e+00 2.887767e+00 6.990269e-01 4.732364e-01 3.855589e-01 4.716879e-01 2.637355e-01 4.751455e-01 4.400981e-01 6.021128e-01 3.553161e-01 3.824959e-01 3.025145e-01 2.930117e-01 2.568482e-01
<GCONST> 1.129613e+02
<STATE> 3
<MEAN> 39
 -6.329972e+00 3.129322e-02 -5.673275e+00 -1.470493e+01 5.887409e-01 -2.330125e+01 -6.410650e+00 -1.555254e+01 -4.157726e+00 -8.616927e+00 1.537715e+00 -2.788130e+00 9.463487e+01 1.179236e+00 1.874845e-01 -8.426498e-01 -2.113487e-01 -4.949476e-01 -5.354024e-01 2.289522e-01 8.504952e-02 -3.389648e-01 -7.885118e-01 2.163510e-01 5.197742e-01 -1.287397e-01 -4.584610e-01 -2.182632e-01 2.759333e-01 -5.963539e-02 4.070154e-01 1.981485e-01 5.580450e-01 1.863796e-01 8.173539e-02 -2.008895e-01 -3.743536e-02 -7.305522e-02 -4.165305e-01
<VARIANCE> 39
 2.634491e+00 5.788693e+00 1.390622e+01 9.006042e+00 8.238970e+00 2.429593e+01 1.149647e+01 2.054090e+01 1.873886e+01 3.741765e+01 1.281903e+01 2.379986e+01 4.996531e+00 1.911754e+00 8.467522e-01 1.293637e+00 8.817485e-01 1.649556e+00 1.738797e+00 2.519834e+00 2.549604e+00 2.883672e+00 4.148241e+00 1.369639e+00 1.963181e+00 1.761682e+00 5.890939e-01 2.626489e-01 1.930905e-01 2.407798e-01 1.251758e-01 4.211844e-01 3.291961e-01 6.916493e-01 8.322460e-01 7.689048e-01 3.000661e-01 3.950529e-01 1.028025e-01
<GCONST> 9.723111e+01
<STATE> 4
<MEAN> 39
 -4.841574e+00 -5.760466e-01 1.057108e-01 -1.408555e+01 7.070033e+00 -2.173798e+01 2.134901e+00 -1.572425e+01 -8.275461e+00 -1.613953e+01 3.900611e+00 -2.838890e+00 8.565959e+01 -8.364201e-02 1.204237e-01 6.183540e-01 3.261224e-01 7.184010e-01 4.195802e-01 1.486454e-01 4.225944e-02 -8.621894e-02 1.845911e-01 1.387729e-01 -4.386276e-02 -6.357279e-01 1.642993e-02 -2.653457e-02 -5.266937e-02 1.275068e-01 -1.413742e-02 7.949133e-02 -1.689210e-01 1.081472e-01 4.832645e-03 1.975313e-01 -1.112787e-01 4.741736e-02 1.679781e-02
<VARIANCE> 39
 1.143080e+01 2.346148e+01 2.500118e+01 2.433910e+01 1.885612e+01 4.303133e+01 2.041694e+01 2.423288e+01 2.397226e+01 4.712494e+01 6.797557e+01 3.138069e+01 3.064335e+01 1.488011e+00 2.180242e+00 1.905140e+00 3.904705e+00 2.144904e+00 5.050756e+00 2.015630e+00 2.251143e+00 2.537433e+00 4.509584e+00 6.017487e+00 4.293541e+00 5.018149e+00 3.617771e-01 4.008049e-01 3.779106e-01 6.249325e-01 3.510371e-01 8.989330e-01 3.819262e-01 4.600609e-01 4.858387e-01 7.429246e-01 9.053162e-01 9.483436e-01 5.941895e-01
<GCONST> 1.211224e+02
<STATE> 5
<MEAN> 39
 -4.728924e+00 8.315274e-01 3.770891e+00 -3.307642e-01 1.058225e+01 -6.600749e+00 -3.804618e+00 -8.684833e+00 -1.012211e+01 -5.309727e+00 -1.037031e+00 -2.945581e+00 6.942719e+01 -4.368853e-01 -3.555232e-01 -3.386472e-01 5.775411e-01 -8.798489e-01 1.091493e+00 -3.186257e-01 5.672222e-01 2.121948e-01 6.984951e-01 -3.683607e-01 -7.672888e-02 -1.082046e+00 -1.197645e-01 -1.450592e-02 -4.015356e-02 -2.162357e-01 -1.593374e-01 -1.233367e-01 1.014211e-01 -7.954268e-02 1.249345e-01 -5.236333e-02 1.941437e-01 -2.464435e-02 9.084869e-02
<VARIANCE> 39
 1.840194e+01 7.053547e+00 8.715646e+00 2.255640e+01 3.193592e+01 4.901851e+01 1.330765e+01 1.825505e+01 3.062368e+01 1.828521e+01 1.944862e+01 1.627788e+01 2.674229e+01 1.715290e+00 7.637675e-01 1.055351e+00 3.218843e+00 1.526769e+00 2.041038e+00 1.687860e+00 1.763792e+00 2.830906e+00 1.187862e+00 2.730238e+00 2.043430e+00 4.892158e-01 2.250896e-01 1.569012e-01 2.219869e-01 4.391711e-01 3.341562e-01 3.720779e-01 3.065191e-01 3.271367e-01 3.799583e-01 2.461351e-01 4.925007e-01 4.045686e-01 1.123083e-01
<GCONST> 9.975674e+01
<TRANSP> 6
 0.000000e+00 1.000000e+00 0.000000e+00 0.000000e+00 0.000000e+00 0.000000e+00
 0.000000e+00 9.492387e-01 5.076135e-02 0.000000e+00 0.000000e+00 0.000000e+00
 0.000000e+00 0.000000e+00 8.820056e-01 1.179945e-01 0.000000e+00 0.000000e+00
 0.000000e+00 0.000000e+00 0.000000e+00 9.486484e-01 5.135166e-02 0.000000e+00
 0.000000e+00 0.000000e+00 0.000000e+00 0.000000e+00 9.326657e-01 6.733432e-02
 0.000000e+00 0.000000e+00 0.000000e+00 0.000000e+00 0.000000e+00 0.000000e+00
<ENDHMM>

~h "eight"
<BEGINHMM>
<NUMSTATES> 6
<STATE> 2
<MEAN> 39
 -7.488255e+00 -4.498336e+00 1.990917e+00 -7.328224e+00 3.685159e+00 -3.448512e+01 -2.412416e+00 -1.104683e+01 -1.778005e+00 -1.100158e+01 2.076521e+00 -6.995557e+00 9.055779e+01 -9.086940e-02 7.806247e-01 1.194978e+00 9.544665e-02 7.680083e-01 -4.501387e-01 -4.748461e-01 9.761290e-02 -1.143480e-01 -2.045827e+00 -3.312229e-01 -1.890508e-01 3.350248e-01 -1.679802e-01 9.286302e-02 5.016673e-02 7.851548e-02 4.091377e-02 4.842658e-01 2.436901e-02 1.707739e-01 -7.221054e-02 -3.288156e-02 -1.070969e-01 7.635618e-02 -5.669879e-01
<VARIANCE> 39
 8.739030e+00 2.864217e+01 5.290050e+01 1.265635e+01 3.103146e+01 3.901128e+01 3.873494e+01 2.162910e+01 2.240444e+01 1.213170e+02 1.967071e+01 2.648438e+01 3.408368e+01 1.270276e+00 2.141097e+00 1.772057e+00 1.352813e+00 2.285180e+00 5.318786e+00 2.726869e+00 1.870715e+00 2.041929e+00 2.513461e+00 1.764825e+00 1.965271e+00 7.570820e+00 1.338539e-01 5.787259e-01 3.807557e-01 2.136386e-01 4.989091e-01 1.585024e+00 5.954708e-01 3.141708e-01 3.818937e-01 9.006276e-01 4.359763e-01 3.378011e-01 5.956520e-01
<GCONST> 1.156551e+02
<STATE> 3
<MEAN> 39
 -1.338016e+01 -7.465901e-01 5.007590e+00 -5.470796e+00 4.867139e+00 -1.651278e+01 -3.263157e+00 -3.483760e+00 -3.259553e+00 -1.042265e+01 -2.350764e+00 -3.330211e+00 6.771352e+01 -5.148316e-02 -2.599789e-01 -1.090997e+00 -4.272882e-02 -1.018066e+00 2.300879e+00 1.098539e-01 3.763627e-01 6.724133e-02 1.755459e+00 -1.649030e-01 5.130308e-01 -1.518111e+00 1.338323e-02 -1.284680e-01 -2.777959e-02 -1.256125e-01 -1.851771e-02 -1.347423e-01 2.316490e-02 -5.265588e-02 8.208242e-02 -1.354321e-02 9.578028e-02 -4.904483e-02 3.622884e-01
<VARIANCE> 39
 7.635385e+00 9.307039e+00 4.008739e+01 2.114713e+01 7.481924e+01 1.242594e+02 1.787027e+01 1.690685e+01 2.140512e+01 1.223422e+02 3.371355e+01 2.873107e+01 4.492452e+01 9.898157e-01 8.937780e-01 2.599916e+00 2.141903e+00 4.464634e+00 2.325858e+00 2.329317e+00 1.884189e+00 2.009282e+00 5.399185e+00 2.604135e+00 2.200339e+00 1.577946e+00 2.387846e-01 1.709846e-01 7.164724e-01 5.615894e-01 9.004290e-01 5.450886e-01 4.792525e-01 3.446950e-01 4.049556e-01 1.193141e+00 4.541566e-01 4.133319e-01 3.791465e-01
<GCONST> 1.160917e+02
<STATE> 4
<MEAN> 39
 -2.146694e+01 -7.809807e+00 2.118710e+00 -1.401333e+01 3.680659e+00 -7.501169e+00 -3.153661e-01 -5.363815e+00 1.800334e+00 -5.760152e+00 1.297900e+00 -4.783206e+00 7.927013e+01 -2.182875e+00 -1.048084e+00 1.135026e+00 -2.124835e+00 1.231252e+00 -1.142798e+00 4.568330e-01 -1.309126e+00 1.511926e+00 -8.609063e-01 9.480152e-01 -1.045939e+00 5.347686e+00 2.791815e-01 2.240213e-01 1.760448e-01 4.785757e-01 -3.166873e-01 1.421448e-02 -6.345084e-02 -2.200625e-01 2.055390e-02 9.385527e-02 -9.176954e-02 4.882084e-02 -9.742926e-02
<VARIANCE> 39
 5.126779e+01 2.562902e+01 3.197424e+01 5.522589e+01 3.993145e+01 2.203648e+01 2.050457e+01 2.261842e+01 2.578243e+01 1.790528e+01 1.108020e+01 2.037052e+01 2.162596e+02 3.338609e+00 2.804975e+00 3.432370e+00 6.523554e+00 4.937819e+00 1.640108e+00 2.922313e+00 1.689584e+00 1.467700e+00 1.832153e+00 1.086940e+00 1.733620e+00 9.736276e+00 1.213599e+00 6.303644e-01 7.696291e-01 1.598755e+00 1.076126e+00 5.059358e-01 5.373199e-01 3.474565e-01 4.861568e-01 4.903834e-01 2.368722e-01 4.255759e-01 3.906488e+00
<GCONST> 1.244045e+02
<STATE> 5
<MEAN> 39
 -1.564364e+01 -8.252461e+00 8.060924e+00 -9.806979e+00 1.562112e+00 -8.432893e+00 2.008270e+00 -1.052338e+01 3.801944e+00 -4.266331e+00 4.019150e+00 -7.459648e+00 8.402138e+01 1.013741e+00 3.721158e-01 -1.924085e-01 8.676619e-01 -4.040317e-01 5.512851e-01 -1.030229e-01 4.487915e-01 -5.164796e-01 5.112870e-01 -2.503181e-01 2.446396e-01 -1.885560e+00 -6.102838e-02 1.086584e-03 -1.022759e-01 -3.837405e-02 6.661357e-02 9.153809e-02 3.668211e-03 1.486383e-01 -3.298611e-02 -2.527816e-02 -7.141151e-02 4.006989e-02 -1.830833e-01
<VARIANCE> 39
 4.073437e+01 1.572751e+01 1.931703e+01 2.218292e+01 1.289513e+01 1.849333e+01 2.065755e+01 2.692156e+01 2.524976e+01 2.080272e+01 1.420706e+01 1.467185e+01 1.358295e+02 1.211055e+00 1.311706e+00 1.811323e+00 1.210025e+00 1.241717e+00 1.981078e+00 2.227168e+00 1.926161e+00 1.618019e+00 1.382041e+00 1.573744e+00 1.536608e+00 2.053900e+00 1.992328e-01 2.677775e-01 2.716359e-01 2.751773e-01 2.476053e-01 4.191959e-01 3.671086e-01 2.857528e-01 2.873855e-01 2.746409e-01 2.861866e-01 2.558921e-01 2.859055e-01
<GCONST> 1.020717e+02
<TRANSP> 6
 0.000000e+00 1.000000e+00 0.000000e+00 0.000000e+00 0.000000e+00 0.000000e+00
 0.000000e+00 9.380190e-01 6.198101e-02 0.000000e+00 0.000000e+00 0.000000e+00
 0.000000e+00 0.000000e+00 9.304761e-01 6.952389e-02 0.000000e+00 0.000000e+00
 0.000000e+00 0.000000e+00 0.000000e+00 8.446327e-01 1.553673e-01 0.000000e+00
 0.000000e+00 0.000000e+00 0.000000e+00 0.000000e+00 9.380654e-01 6.193457e-02
 0.000000e+00 0.000000e+00 0.000000e+00 0.000000e+00 0.000000e+00 0.000000e+00
<ENDHMM>

~h "nine"
<BEGINHMM>
<NUMSTATES> 6
<STATE> 2
<MEAN> 39
 -3.250699e+00 6.732178e+00 5.822667e+00 -6.120601e+00 1.271923e+01 -1.571249e+01 3.187243e+00 -1.227988e+01 -1.553847e+01 -5.822723e+00 -5.405372e+00 -3.578221e+00 7.693822e+01 5.094752e-01 -3.680605e-01 -4.729404e-01 -1.834272e+00 -6.629586e-01 -1.524685e+00 1.196057e+00 -3.166872e-01 2.182210e-01 -5.323996e-01 1.509973e+00 7.125761e-02 2.780947e+00 -2.958045e-01 -4.305938e-01 -4.808249e-01 -2.224050e-01 -3.552460e-01 1.655421e-01 9.089720e-02 4.123568e-01 3.516437e-01 -2.784938e-02 2.750351e-01 1.353370e-01 7.129573e-03
<VARIANCE> 39
 9.106149e+00 1.906372e+01 1.106594e+01 4.888370e+01 5.084379e+01 3.067630e+01 4.261407e+01 2.639023e+01 3.809496e+01 1.569784e+01 5.015570e+01 2.000275e+01 6.884823e+01 2.860181e+00 4.321553e+00 3.040359e+00 2.428590e+00 7.999888e+00 3.730742e+00 3.016768e+00 3.905176e+00 5.759019e+00 1.295111e+00 4.896629e+00 2.131552e+00 2.268482e+00 3.066396e-01 5.519474e-01 2.970879e-01 4.818646e-01 1.280993e+00 9.051677e-01 6.242032e-01 5.362598e-01 8.453128e-01 2.412615e-01 8.660513e-01 4.513508e-01 5.809534e-01
<GCONST> 1.228524e+02
<STATE> 3
<MEAN> 39
 -4.088771e+00 -1.592964e+00 -7.229115e+00 -2.017665e+01 7.498813e+00 -1.873976e+01 1.025331e+01 -6.457693e+00 -2.001553e+00 -1.693055e+01 5.929495e+00 2.630280e+00 9.296960e+01 -6.350765e-02 -2.308168e-01 -2.011742e-01 -7.179950e-02 6.016275e-01 -1.313992e-02 -3.517233e-01 1.681058e-01 7.828685e-01 -4.292833e-01 3.441794e-01 -2.705545e-02 -2.833785e-02 -3.980048e-02 4.373264e-02 2.255373e-01 1.609081e-01 7.462692e-02 -9.209251e-02 -1.101134e-01 -7.037213e-02 1.327412e-02 8.116436e-02 -5.253494e-02 -1.580231e-01 -1.323874e-01
<VARIANCE> 39
 2.439151e+00 6.492964e+00 1.605288e+01 8.817336e+00 2.203709e+01 2.270776e+01 1.567780e+01 1.046827e+01 3.701870e+01 3.694971e+01 2.280966e+01 2.025825e+01 2.934667e+00 2.055618e-01 4.702338e-01 1.548377e+00 7.716321e-01 1.269475e+00 2.895519e+00 1.148577e+00 1.045015e+00 1.492667e+00 2.553121e+00 1.892841e+00 2.423483e+00 2.602312e-01 3.218621e-02 8.769333e-02 1.415454e-01 2.095581e-01 2.698572e-01 4.832336e-01 1.492635e-01 1.719612e-01 2.830839e-01 3.548142e-01 4.416429e-01 2.546143e-01 1.165889e-01
<GCONST> 8.426208e+01
<STATE> 4
<MEAN> 39
 -1.021322e+01 -3.592813e+00 7.788961e+00 -1.062272e+01 1.368580e+01 -3.397383e+01 -1.089391e+00 -5.302651e+00 6.874259e+00 -1.602081e+01 8.176716e+00 -7.647178e+00 8.745348e+01 -5.333415e-01 1.548776e-02 1.782983e+00 1.203739e+00 -1.758522e-01 -1.121683e+00 -3.942636e-01 3.430278e-01 -4.672159e-01 -1.155346e-01 -1.001608e+00 -2.629138e-01 -8.141974e-01 8.385364e-03 -2.660630e-02 -5.536874e-02 -3.296746e-02 -4.988331e-02 2.736008e-01 1.360345e-01 4.707242e-02 -2.101929e-01 -5.615025e-02 -8.795339e-02 1.882125e-01 -7.279716e-02
<VARIANCE> 39
 7.991212e+00 5.548740e+00 5.928828e+01 2.786341e+01 1.089101e+01 3.186385e+01 1.009531e+01 1.479031e+01 2.069495e+01 1.050051e+01 3.002604e+01 1.660213e+01 1.373300e+01 2.045051e-01 4.880760e-01 4.851552e-01 5.528157e-01 7.775665e-01 1.797633e+00 1.172029e+00 1.238068e+00 1.691653e+00 1.243205e+00 1.104535e+00 1.621358e+00 2.119791e-01 3.372626e-02 6.592285e-02 6.993631e-02 8.083332e-02 1.440658e-01 1.812892e-01 1.481509e-01 1.996725e-01 1.735667e-01 2.192432e-01 2.323725e-01 1.840549e-01 1.729375e-02
<GCONST> 7.588040e+01
<STATE> 5
<MEAN> 39
 -1.526593e+01 -8.113732e+00 1.586833e+01 -2.190929e+00 4.766346e+00 -2.672820e+01 -1.150145e+00 3.064432e+00 -6.597451e+00 -1.330593e+01 -4.163568e-01 -1.168784e+00 7.276256e+01 1.929517e-02 -1.907850e-01 -1.100356e+00 4.954709e-01 -1.218708e+00 1.986802e+00 -3.325476e-02 5.916649e-01 -5.607272e-01 8.057343e-01 -2.151446e-01 5.054621e-01 -1.387497e+00 6.857897e-02 9.286488e-02 -2.119229e-01 -8.954232e-02 -3.090237e-02 8.466146e-02 -2.592577e-02 -1.367521e-01 1.984587e-01 4.859019e-02 2.304325e-02 -6.274591e-02 1.582527e-02
<VARIANCE> 39
 1.441611e+01 2.576330e+01 4.536969e+01 1.789012e+01 6.076093e+01 9.086919e+01 2.145791e+01 3.542093e+01 4.076112e+01 3.061014e+01 1.697068e+01 3.347121e+01 3.175476e+01 8.538021e-01 1.312293e+00 2.233730e+00 1.281592e+00 2.693172e+00 1.863410e+00 1.829813e+00 2.398145e+00 2.895403e+00 2.004947e+00 1.405446e+00 1.783335e+00 4.067466e-01 1.205082e-01 1.407629e-01 1.998690e-01 3.085077e-01 5.565588e-01 3.033167e-01 3.909865e-01 3.922825e-01 4.049304e-01 3.760733e-01 2.568550e-01 3.164068e-01 4.821746e-02
<GCONST> 1.045676e+02
<TRANSP> 6
 0.000000e+00 1.000000e+00 0.000000e+00 0.000000e+00 0.000000e+00 0.000000e+00
 0.000000e+00 8.967032e-01 1.032968e-01 0.000000e+00 0.000000e+00 0.000000e+00
 0.000000e+00 0.000000e+00 9.470717e-01 5.292831e-02 0.000000e+00 0.000000e+00
 0.000000e+00 0.000000e+00 0.000000e+00 9.210559e-01 7.894419e-02 0.000000e+00
 0.000000e+00 0.000000e+00 0.000000e+00 0.000000e+00 9.222307e-01 7.776934e-02
 0.000000e+00 0.000000e+00 0.000000e+00 0.000000e+00 0.000000e+00 0.000000e+00
<ENDHMM>

~h "ten"
<BEGINHMM>
<NUMSTATES> 6
<STATE> 2
<MEAN> 39
 -1.062978e+01 -1.074597e+01 1.905667e+00 -1.149376e+01 3.868969e+00 -1.818936e+01 9.670615e+00 -1.142095e+01 3.918891e+00 -2.752394e+00 3.759236e+00 -7.345984e+00 9.348625e+01 7.832396e-01 2.578835e-01 -5.864335e-01 -7.537835e-02 -1.890839e-01 -1.174621e+00 1.326855e-01 -2.256862e-01 -9.714026e-01 2.659369e-02 -3.509195e-01 -3.844817e-01 7.070358e-01 -1.785475e-02 2.182062e-01 -2.225211e-01 9.846060e-02 -1.964820e-01 1.309532e-01 -2.160016e-01 1.441456e-01 -3.053688e-01 -5.070229e-02 -1.308417e-01 1.454614e-01 -4.822136e-01
<VARIANCE> 39
 2.593543e+01 2.349407e+01 2.362278e+01 1.239121e+01 1.008454e+01 4.755575e+01 2.859233e+01 1.416286e+01 4.344205e+01 1.682126e+01 1.906464e+01 1.938111e+01 5.996440e+00 2.089147e+00 4.539870e+00 1.960264e+00 1.861673e+00 1.639975e+00 2.497446e+00 3.874213e+00 2.064420e+00 6.344972e+00 2.354661e+00 3.118556e+00 2.736476e+00 3.327919e+00 4.578325e-01 5.694430e-01 3.613177e-01 5.676502e-01 2.445070e-01 6.188037e-01 4.854527e-01 5.085700e-01 9.039058e-01 4.128492e-01 7.368888e-01 6.902855e-01 1.227911e+00
<GCONST> 1.156544e+02
<STATE> 3
<MEAN> 39
 -5.732311e+00 -2.327676e+00 -4.421922e+00 -1.580377e+01 1.050116e+00 -2.360768e+01 4.225565e+00 -1.325594e+01 -1.000896e+01 -4.542650e+00 8.689254e+00 -5.593198e+00 9.530531e+01 6.779894e-02 6.131489e-02 3.840218e-01 -5.505856e-01 7.681403e-01 7.426048e-02 5.124303e-02 -2.046534e-01 -2.383761e-01 -6.696367e-02 1.892600e+00 3.127840e-01 -2.540738e-01 -7.567274e-02 -1.434724e-01 2.460760e-01 1.190546e-02 3.108258e-01 -1.493466e-02 2.389909e-01 -7.435948e-02 1.910513e-01 1.441489e-02 9.594338e-02 -1.031782e-01 -1.835577e-01
<VARIANCE> 39
 2.404562e+00 8.528780e+00 8.054475e+00 1.431632e+01 2.063339e+01 2.087082e+01 3.447673e+01 1.152654e+01 1.697506e+01 1.813808e+01 6.392410e+01 2.580310e+01 4.633132e+00 9.078974e-02 7.257553e-01 1.076262e+00 4.790570e-01 1.760211e+00 1.103035e+00 2.198695e+00 9.320340e-01 1.587902e+00 1.486715e+00 1.457069e+00 1.842291e+00 2.437125e-01 3.723291e-02 1.844958e-01 1.013301e-01 1.127904e-01 2.048507e-01 2.230904e-01 3.117583e-01 1.660757e-01 4.831648e-01 3.204290e-01 5.824226e-01 2.794168e-01 3.817810e-02
<GCONST> 8.215509e+01
<STATE> 4
<MEAN> 39
 -6.532417e+00 2.678117e-01 5.088109e+00 -1.087199e+01 1.408463e+01 -1.668780e+01 4.411513e+00 -1.506160e+01 -1.180262e+01 -7.101664e+00 8.534751e+00 -5.032404e+00 8.086319e+01 4.666619e-02 5.853376e-01 4.474691e-01 1.303315e+00 2.578387e-01 1.167058e+00 -5.338567e-01 4.236945e-01 -2.755090e-01 -1.883312e-01 -1.739525e+00 2.003466e-01 -1.767911e+00 8.945533e-02 1.108602e-02 -1.670539e-01 1.201390e-01 -2.711146e-01 5.184435e-02 -1.265671e-01 1.493803e-01 -5.723917e-02 4.340794e-02 -1.311193e-01 1.719625e-02 -1.762666e-02
<VARIANCE> 39
 1.691564e+01 2.884965e+01 9.405712e+00 3.775972e+01 1.845956e+01 4.140911e+01 2.127784e+01 1.420562e+01 1.857666e+01 1.699019e+01 7.140603e+01 2.484500e+01 4.380023e+01 2.162594e+00 1.674523e+00 1.308517e+00 2.942333e+00 3.182454e+00 2.010114e+00 2.025650e+00 1.748334e+00 2.302607e+00 1.177915e+00 3.034621e+00 1.704182e+00 1.766803e+00 4.408537e-01 3.551703e-01 1.910516e-01 6.954171e-01 4.032378e-01 4.635959e-01 4.204070e-01 2.899397e-01 4.998700e-01 2.189419e-01 7.567534e-01 3.121984e-01 3.544828e-01
<GCONST> 1.097247e+02
<STATE> 5
<MEAN> 39
 -5.317007e+00 2.605213e+00 5.482114e+00 6.206576e-01 5.432715e+00 -6.037077e+00 -3.472035e+00 -7.056746e+00 -1.361533e+01 -7.061344e+00 -3.931426e+00 -6.401129e+00 6.690154e+01 -3.904788e-01 -4.104069e-01 -3.197108e-01 2.865271e-01 -1.091953e+00 7.516845e-01 -3.768274e-01 6.265642e-01 5.399596e-01 2.434154e-01 -2.281538e-01 3.420450e-02 -8.376243e-01 -1.096019e-01 -7.032003e-02 -5.081910e-02 -1.522136e-01 1.720025e-02 -3.869397e-02 9.063752e-02 -5.134801e-02 1.961654e-01 4.260500e-02 9.412603e-02 5.750724e-02 9.144400e-02
<VARIANCE> 39
 8.934044e+00 1.223666e+01 9.827541e+00 1.777735e+01 2.230977e+01 1.914106e+01 1.407462e+01 1.637755e+01 1.877363e+01 2.082674e+01 1.826075e+01 2.170584e+01 9.882097e+00 5.811081e-01 9.047484e-01 1.575019e+00 2.390841e+00 1.027857e+00 1.347038e+00 1.557580e+00 1.631881e+00 1.660137e+00 1.975748e+00 1.596329e+00 2.152351e+00 2.533987e-01 8.907741e-02 1.302905e-01 3.007392e-01 3.468627e-01 2.032616e-01 2.841267e-01 2.635752e-01 3.117091e-01 2.514773e-01 3.735977e-01 2.672325e-01 3.488419e-01 3.342637e-02
<GCONST> 9.006066e+01
<TRANSP> 6
 0.000000e+00 1.000000e+00 0.000000e+00 0.000000e+00 0.000000e+00 0.000000e+00
 0.000000e+00 9.186026e-01 8.139735e-02 0.000000e+00 0.000000e+00 0.000000e+00
 0.000000e+00 0.000000e+00 9.091485e-01 9.085158e-02 0.000000e+00 0.000000e+00
 0.000000e+00 0.000000e+00 0.000000e+00 9.121815e-01 8.781852e-02 0.000000e+00
 0.000000e+00 0.000000e+00 0.000000e+00 0.000000e+00 9.124386e-01 8.756146e-02
 0.000000e+00 0.000000e+00 0.000000e+00 0.000000e+00 0.000000e+00 0.000000e+00
<ENDHMM>

~h "zero"
<BEGINHMM>
<NUMSTATES> 6
<STATE> 2
<MEAN> 39
 -2.529335e+01 -8.345802e+00 1.008138e+01 -1.912560e+01 1.164113e+01 -1.575113e+01 -4.547441e-01 -1.197532e+01 2.033323e+00 -8.311881e+00 1.079999e-01 -8.781686e+00 8.148526e+01 1.378731e+00 2.068859e-01 3.203828e-01 8.042052e-01 1.155317e-01 -1.739829e+00 -9.953712e-01 -9.879547e-01 -9.276591e-01 -6.225788e-01 -6.399246e-01 -7.557340e-01 1.600467e+00 5.395212e-01 1.671934e-01 -2.960497e-01 4.944096e-01 -3.906702e-01 -6.183819e-02 -2.255347e-01 1.311621e-01 -3.310341e-01 6.624018e-02 -1.520530e-01 1.464977e-01 -2.904795e-01
<VARIANCE> 39
 8.405702e+01 3.504005e+01 3.451727e+01 4.574262e+01 2.005617e+01 3.180596e+01 4.576928e+01 2.452036e+01 3.467257e+01 2.087020e+01 3.875471e+01 2.316185e+01 2.588607e+01 1.070896e+01 6.298624e+00 4.950018e+00 8.265445e+00 3.907352e+00 5.162752e+00 4.183852e+00 2.637888e+00 4.657220e+00 2.444033e+00 5.111389e+00 2.774398e+00 2.810795e+00 1.210793e+00 1.012660e+00 1.366993e+00 1.160803e+00 7.384108e-01 8.974726e-01 7.655486e-01 5.609896e-01 6.531572e-01 5.764160e-01 8.109296e-01 5.685566e-01 2.476882e-01
<GCONST> 1.328568e+02
<STATE> 3
<MEAN> 39
 -4.178499e+00 -2.668351e+00 4.235443e+00 -7.067022e+00 7.229924e+00 -3.375502e+01 -6.272984e+00 -1.985660e+01 -8.236238e+00 -1.076247e+01 -5.651561e+00 -1.084576e+01 8.657442e+01 5.870009e-01 1.477971e-01 -1.477198e+00 -1.923143e-01 2.711119e-01 -1.918440e-01 4.323314e-01 -2.874961e-01 -5.546777e-02 2.870259e-01 3.290549e-01 1.215524e-01 -1.499738e-01 -8.274321e-02 2.217366e-02 -3.295635e-02 -2.075163e-01 1.815532e-01 3.278752e-01 -1.322873e-02 5.034218e-02 7.576162e-02 -2.241317e-02 4.851934e-02 -2.212106e-02 -7.855209e-02
<VARIANCE> 39
 9.739161e+00 5.408551e+00 6.207178e+01 1.129024e+01 1.098750e+01 1.365009e+01 2.729798e+01 1.646604e+01 1.779237e+01 1.787704e+01 1.463702e+01 1.456045e+01 2.696471e+00 1.569049e-01 7.957180e-01 1.382058e+00 9.634159e-01 1.287956e+00 1.988716e+00 1.456517e+00 1.012939e+00 1.001727e+00 1.351921e+00 7.484599e-01 8.645765e-01 2.225353e-01 9.128661e-02 1.423232e-01 1.995580e-01 2.169031e-01 1.113064e-01 2.469355e-01 3.052478e-01 2.226118e-01 2.467846e-01 2.302825e-01 1.524668e-01 1.449899e-01 1.162222e-02
<GCONST> 7.842793e+01
<STATE> 4
<MEAN> 39
 3.191599e+00 4.728528e+00 -1.012134e+01 -2.133893e+01 1.686277e+01 -2.248598e+01 -5.143153e+00 -1.304226e+01 -1.019827e+01 -1.204087e+01 -8.075131e-01 -1.967735e+00 8.097225e+01 1.085957e-01 8.838286e-02 3.814249e-01 -7.067029e-01 -6.984534e-01 5.442137e-01 1.910822e-01 1.050367e+00 2.807576e-01 -7.868865e-01 -6.236001e-02 7.716851e-01 -2.149749e-01 -4.222179e-02 -4.301788e-02 1.310778e-01 1.192835e-01 -2.596522e-01 -7.652380e-02 1.052769e-01 3.064265e-02 3.865147e-02 -2.569903e-02 -8.608405e-02 -5.477348e-02 -2.153239e-02
<VARIANCE> 39
 3.044620e+00 9.474271e+00 9.039640e+00 2.986778e+01 4.703992e+01 2.076320e+01 3.235992e+01 7.043907e+01 2.868582e+01 3.232399e+01 2.907850e+01 4.262774e+01 3.635057e+00 1.593411e-01 9.312363e-01 5.609688e-01 1.507127e+00 4.479243e+00 1.603772e+00 3.418566e+00 2.537338e+00 1.361448e+00 1.641689e+00 2.553982e+00 1.148884e+00 2.711050e-01 1.835755e-02 1.023166e-01 7.670378e-02 1.504140e-01 2.651970e-01 2.275788e-01 5.975235e-01 4.694280e-01 1.811053e-01 2.819459e-01 4.425909e-01 2.556376e-01 3.737549e-02
<GCONST> 8.987165e+01
<STATE> 5
<MEAN> 39
 -1.349318e+00 3.516678e+00 -1.622771e+00 -1.606670e+01 -9.219677e+00 -1.065949e+01 2.026005e+00 1.704515e+00 -5.181404e+00 -1.411551e+01 -7.899626e+00 -3.846942e+00 6.969355e+01 -6.503999e-01 -2.620614e-01 1.998155e-02 6.978486e-01 -4.361567e-01 8.841790e-01 2.359809e-02 3.524119e-01 1.720012e-01 1.023646e+00 -2.037614e-02 -4.128779e-01 -8.665398e-01 -2.844982e-02 -4.346459e-02 -4.595307e-02 3.386025e-02 1.929733e-01 -1.695880e-02 -7.632458e-02 -1.004427e-01 -1.412400e-02 8.430539e-02 7.500529e-02 5.001849e-02 2.706667e-02
<VARIANCE> 39
 2.084297e+01 2.091640e+01 1.696075e+01 2.291054e+01 2.035958e+01 6.034134e+01 2.322900e+01 2.287701e+01 1.894986e+01 6.913973e+01 2.443492e+01 2.578742e+01 2.549230e+01 6.154854e-01 1.301607e+00 1.213202e+00 1.077161e+00 2.301820e+00 1.808052e+00 1.473493e+00 1.938248e+00 2.106221e+00 1.833894e+00 2.278753e+00 1.941236e+00 2.281232e-01 8.571429e-02 1.426018e-01 1.301553e-01 1.934690e-01 2.392851e-01 3.203798e-01 2.630425e-01 3.701957e-01 4.220394e-01 2.877530e-01 3.524056e-01 2.609122e-01 3.147971e-02
<GCONST> 9.691332e+01
<TRANSP> 6
 0.000000e+00 1.000000e+00 0.000000e+00 0.000000e+00 0.000000e+00 0.000000e+00
 0.000000e+00 9.114253e-01 8.857471e-02 0.000000e+00 0.000000e+00 0.000000e+00
 0.000000e+00 0.000000e+00 9.375626e-01 6.243739e-02 0.000000e+00 0.000000e+00
 0.000000e+00 0.000000e+00 0.000000e+00 9.450006e-01 5.499937e-02 0.000000e+00
 0.000000e+00 0.000000e+00 0.000000e+00 0.000000e+00 9.482183e-01 5.178163e-02
 0.000000e+00 0.000000e+00 0.000000e+00 0.000000e+00 0.000000e+00 0.000000e+00
<ENDHMM>

~h "sil"
<BEGINHMM>
<NUMSTATES> 6
<STATE> 2
<MEAN> 39
 -1.558955e+01 -3.384743e+00 -4.509474e-01 -4.583924e+00 1.939534e+00 -3.063193e+00 -2.112134e+00 -3.654634e+00 -3.734647e+00 -2.724195e+00 -6.046123e-02 -1.837469e+00 6.193975e+01 2.888132e-02 -4.307826e-03 -7.671073e-02 9.907497e-02 -1.109435e-01 1.220435e-01 -1.894852e-02 -5.396263e-03 3.844547e-02 -4.480714e-02 -7.180305e-02 -3.128195e-02 -9.186598e-02 1.657027e-02 -6.557462e-03 4.627655e-03 2.256944e-02 -3.601857e-02 -2.707340e-02 -2.744064e-03 -1.743496e-02 3.704318e-02 -4.428508e-03 5.729806e-03 -1.198924e-02 2.856717e-02
<VARIANCE> 39
 2.263366e+01 2.433072e+01 3.644938e+01 4.175531e+01 2.544650e+01 3.075193e+01 2.353632e+01 3.408669e+01 2.444519e+01 2.036874e+01 2.330855e+01 2.011578e+01 1.684874e+01 1.253805e+00 1.328822e+00 1.642310e+00 2.032830e+00 2.148348e+00 2.224840e+00 2.160823e+00 2.202919e+00 2.124588e+00 2.001510e+00 1.599073e+00 1.531711e+00 1.695534e+00 2.225684e-01 2.330557e-01 2.953311e-01 3.431459e-01 4.018582e-01 3.937942e-01 4.143829e-01 4.082865e-01 4.179979e-01 3.912030e-01 3.039660e-01 2.944189e-01 3.212664e-01
<GCONST> 1.073346e+02
<STATE> 3
<MEAN> 39
 -1.551853e+01 -2.474371e+00 -1.245170e+00 -3.222738e+00 -4.563966e-01 -3.540793e+00 -2.004264e+00 -3.049877e+00 -2.188889e+00 -2.761011e+00 -1.325272e+00 -2.205287e+00 5.995487e+01 2.769998e-02 -3.524018e-02 3.560483e-03 2.487082e-02 -2.581470e-02 -1.851644e-03 2.786919e-02 -1.030031e-02 3.314141e-02 -2.703707e-02 -8.837494e-03 -1.955115e-02 5.101668e-02 1.492136e-03 -2.330551e-03 9.599277e-03 -1.439416e-02 9.013933e-03 -3.572836e-03 -8.455992e-03 6.081935e-05 -1.327546e-02 6.614266e-03 4.410740e-03 2.071634e-03 1.092268e-02
<VARIANCE> 39
 5.861329e+00 4.565367e+00 7.222569e+00 1.011177e+01 8.873435e+00 1.080636e+01 1.025309e+01 1.277625e+01 1.090315e+01 1.074957e+01 1.072999e+01 9.508251e+00 3.735294e+00 1.699406e-01 2.227053e-01 3.908577e-01 6.102599e-01 8.154952e-01 9.132962e-01 1.044300e+00 1.086109e+00 1.146044e+00 1.083750e+00 1.051072e+00 9.085426e-01 8.218540e-02 3.327877e-02 4.536147e-02 8.114061e-02 1.201487e-01 1.622009e-01 1.872578e-01 2.195200e-01 2.213726e-01 2.343124e-01 2.268741e-01 2.209537e-01 1.882335e-01 1.326618e-02
<GCONST> 6.411413e+01
<STATE> 4
<MEAN> 39
 -1.427738e+01 -4.354651e+00 -1.122149e+00 -2.802496e+00 -2.313207e+00 -2.472754e+00 -3.123582e+00 -1.721806e+00 -3.032231e+00 -1.951374e+00 -2.399529e+00 -1.561986e+00 5.905267e+01 -3.833073e-03 3.003230e-03 -8.534836e-03 1.096168e-02 -2.143060e-02 2.230742e-02 -2.490990e-02 9.168455e-03 -4.457768e-03 2.130338e-02 4.783375e-04 9.874341e-03 -3.822403e-02 6.271700e-04 3.626744e-03 4.543003e-03 -2.593253e-03 9.415710e-03 -3.728272e-03 6.212226e-03 5.681146e-03 -1.086501e-03 2.100741e-04 2.800098e-04 1.014936e-03 5.095059e-03
<VARIANCE> 39
 1.933813e+00 2.325397e+00 2.866586e+00 4.735198e+00 5.257751e+00 6.305022e+00 7.062195e+00 7.681452e+00 7.845311e+00 7.720924e+00 7.167874e+00 6.599419e+00 1.546591e+00 6.302015e-02 1.302802e-01 2.304582e-01 3.468064e-01 4.641993e-01 5.796522e-01 6.737819e-01 7.533810e-01 7.772086e-01 7.973414e-01 7.348880e-01 6.354271e-01 1.981411e-02 1.290675e-02 2.695984e-02 4.831470e-02 7.134812e-02 9.569293e-02 1.197986e-01 1.388996e-01 1.554145e-01 1.603611e-01 1.650002e-01 1.531108e-01 1.275784e-01 3.917571e-03
<GCONST> 4.215076e+01
<STATE> 5
<MEAN> 39
 -1.531949e+01 -2.431556e+00 5.527487e-01 -4.626151e+00 1.996946e+00 -4.203127e+00 -9.612595e-01 -3.430346e+00 -2.725898e+00 -2.944762e+00 -1.225632e+00 -2.755069e+00 6.397208e+01 5.368199e-02 4.225764e-02 3.556126e-01 -5.525126e-01 5.143097e-01 -6.036780e-01 1.662463e-01 -3.873751e-01 -1.634259e-01 -1.840493e-01 6.336566e-03 -2.492667e-01 1.232102e+00 1.682502e-02 6.554390e-03 3.717459e-02 -9.639288e-02 3.711390e-02 -1.614074e-01 2.389264e-03 -1.161159e-01 -2.902867e-02 -1.187455e-01 2.030606e-02 -6.763549e-02 3.079481e-01
<VARIANCE> 39
 2.235418e+01 2.793559e+01 2.604012e+01 4.178502e+01 2.800190e+01 4.041323e+01 2.279035e+01 2.829686e+01 2.528383e+01 2.029514e+01 2.167412e+01 1.535671e+01 4.221703e+01 2.709924e+00 3.188222e+00 2.734262e+00 3.610142e+00 3.108350e+00 4.412118e+00 2.434067e+00 2.645664e+00 2.887690e+00 2.630393e+00 2.386446e+00 1.548832e+00 6.534319e+00 4.422946e-01 5.364154e-01 4.975030e-01 6.580026e-01 5.700564e-01 7.593588e-01 5.008409e-01 4.788355e-01 4.795000e-01 4.890514e-01 4.267561e-01 2.887569e-01 9.866821e-01
<GCONST> 1.201588e+02
<TRANSP> 6
 0.000000e+00 6.148811e-01 3.851189e-01 0.000000e+00 0.000000e+00 0.000000e+00
 0.000000e+00 9.221148e-01 7.548372e-02 2.401410e-03 0.000000e+00 0.000000e+00
 0.000000e+00 0.000000e+00 9.508431e-01 3.272995e-02 1.642686e-02 0.000000e+00
 0.000000e+00 0.000000e+00 0.000000e+00 9.706860e-01 1.085242e-02 1.846161e-02
 0.000000e+00 0.000000e+00 0.000000e+00 0.000000e+00 8.972327e-01 1.027674e-01
 0.000000e+00 0.000000e+00 0.000000e+00 0.000000e+00 0.000000e+00 0.000000e+00
<ENDHMM>

~h "plus"
<BEGINHMM>
<NUMSTATES> 6
<STATE> 2
<MEAN> 39
 -1.125044e+01 -3.787848e+00 -4.824104e+00 -1.182670e+01 -5.948561e+00 -1.120606e+01 3.247297e+00 -1.500338e+01 -8.158280e+00 -9.800719e+00 2.220248e+00 -1.138285e+00 8.535865e+01 8.727960e-01 7.199017e-01 -9.200713e-01 -4.976988e-01 -6.057438e-01 -1.233155e+00 2.810309e-01 -7.659400e-01 -1.157992e+00 -7.096906e-01 -2.056154e-01 1.499661e-01 1.376500e+00 4.911168e-02 3.005934e-02 -6.096056e-02 7.703617e-02 1.284221e-01 1.284297e-02 -7.610840e-02 2.507652e-01 1.336066e-01 1.404027e-01 -1.380702e-01 -3.941440e-02 -4.047645e-01
<VARIANCE> 39
 3.125465e+01 5.942484e+01 1.973658e+01 1.303822e+01 2.130935e+01 5.752407e+01 2.562533e+01 2.654588e+01 5.445970e+01 3.743463e+01 3.174801e+01 1.549439e+01 1.446417e+01 2.433649e+00 5.846745e+00 1.879104e+00 1.618416e+00 1.592530e+00 3.943052e+00 1.600078e+00 2.350444e+00 4.221959e+00 3.173606e+00 3.539372e+00 1.633329e+00 2.588473e+00 5.295403e-01 1.233019e+00 3.578505e-01 3.023747e-01 2.728706e-01 7.542573e-01 3.063861e-01 4.491039e-01 1.037596e+00 6.207461e-01 7.854212e-01 3.169067e-01 6.014115e-01
<GCONST> 1.185553e+02
<STATE> 3
<MEAN> 39
 -3.833242e+00 -5.607438e+00 -1.700329e+01 -1.639689e+01 2.420691e-01 -1.521242e+01 2.770421e+00 -1.306727e+01 -1.160973e+00 -1.260941e+01 3.791783e+00 -2.317390e+00 8.852123e+01 6.154834e-02 -4.856687e-01 -1.097023e-01 -2.173584e-01 5.935286e-01 4.200500e-01 -8.688194e-02 1.131527e-01 1.292648e+00 -1.309235e-01 2.783249e-01 1.956403e-01 -6.080771e-01 -8.017834e-02 1.543468e-01 1.634855e-01 1.610522e-02 -4.322810e-02 5.081463e-02 -3.316259e-02 -8.671233e-02 -7.940667e-02 -3.271345e-02 -7.681250e-03 6.725369e-02 -1.344867e-01
<VARIANCE> 39
 4.102053e+00 1.816170e+01 2.204923e+01 1.320297e+01 2.527327e+01 2.526296e+01 1.759554e+01 1.705401e+01 9.119077e+01 2.816970e+01 3.308126e+01 2.807932e+01 1.558598e+01 4.081886e-01 1.249329e+00 2.134919e+00 6.240235e-01 1.284738e+00 1.414978e+00 1.224118e+00 1.787909e+00 2.179902e+00 1.872971e+00 1.944103e+00 1.755837e+00 6.809652e-01 7.652215e-02 1.596201e-01 2.367673e-01 1.322824e-01 2.572634e-01 2.578990e-01 2.511831e-01 2.662027e-01 3.958730e-01 3.739592e-01 3.093255e-01 2.645806e-01 7.650949e-02
<GCONST> 9.423096e+01
<STATE> 4
<MEAN> 39
 -1.256157e+01 -3.709521e+00 -4.754935e+00 -1.928115e+01 5.592006e+00 -9.176150e+00 -4.416407e-01 -1.479173e+01 4.012888e+00 -1.056395e+01 6.954503e+00 1.562431e+00 7.669750e+01 -2.873603e+00 -1.910215e-01 2.147691e+00 -2.440486e-01 3.315066e-03 8.308739e-01 -3.289447e-01 1.178590e+00 -9.029377e-01 1.643747e+00 -3.464642e-01 -6.829555e-01 4.436764e-01 -4.913394e-01 -2.576818e-01 -9.041793e-02 1.073280e-01 -1.128742e-01 1.363432e-02 2.163596e-01 4.226335e-01 4.083710e-02 1.334725e-01 -1.234710e-01 -1.893503e-01 5.476689e-01
<VARIANCE> 39
 4.499468e+01 2.121653e+01 4.234580e+01 1.223144e+01 1.747963e+01 2.852223e+01 2.627487e+01 2.830381e+01 5.764413e+01 6.087510e+01 2.176655e+01 3.520464e+01 2.257390e+01 4.707800e+00 4.217302e+00 1.567046e+00 1.164868e+00 2.839291e+00 2.123329e+00 3.013664e+00 4.571985e+00 3.506601e+00 6.519842e+00 1.718832e+00 2.751701e+00 5.596739e+00 5.435445e-01 7.277244e-01 3.618024e-01 2.112370e-01 6.009369e-01 4.494262e-01 5.433829e-01 5.346779e-01 6.875879e-01 1.357073e+00 3.237349e-01 4.672932e-01 5.074731e-01
<GCONST> 1.212685e+02
<STATE> 5
<MEAN> 39
 -3.304084e+01 -5.795044e+00 2.781581e+00 -1.675018e+01 7.942839e+00 -7.646534e+00 2.914107e+00 -4.263541e+00 1.240242e+00 -3.103468e+00 1.845551e+00 -4.163522e+00 8.351778e+01 3.311058e-01 2.151410e-01 5.036442e-02 3.094944e-01 1.165416e-01 -1.182057e-01 3.889503e-02 6.461048e-02 -1.696711e-01 -3.654256e-03 -2.441902e-01 4.797144e-02 -7.914687e-01 2.523602e-01 3.568365e-02 -6.512605e-02 2.673955e-02 1.041700e-03 -1.162984e-02 -5.967373e-02 -6.228750e-02 -6.656335e-02 -2.441579e-02 -5.626347e-03 5.547382e-02 -1.730327e-01
<VARIANCE> 39
 3.581914e+01 6.885342e+00 1.137271e+01 1.384036e+01 1.781685e+01 1.680855e+01 1.575362e+01 1.211927e+01 1.114130e+01 9.140792e+00 9.055349e+00 7.126267e+00 4.665839e+01 3.335995e+00 6.342544e-01 7.413579e-01 8.734729e-01 1.454525e+00 1.399860e+00 1.558188e+00 1.571207e+00 1.241762e+00 1.325679e+00 9.473314e-01 7.372074e-01 2.250705e+00 3.631363e-01 1.429826e-01 1.330193e-01 1.548491e-01 2.432829e-01 2.427521e-01 2.780474e-01 3.534077e-01 2.321304e-01 3.426818e-01 1.866683e-01 1.310587e-01 1.466418e-01
<GCONST> 8.855161e+01
<TRANSP> 6
 0.000000e+00 1.000000e+00 0.000000e+00 0.000000e+00 0.000000e+00 0.000000e+00
 0.000000e+00 9.129134e-01 8.708663e-02 0.000000e+00 0.000000e+00 0.000000e+00
 0.000000e+00 0.000000e+00 9.433372e-01 5.666277e-02 0.000000e+00 0.000000e+00
 0.000000e+00 0.000000e+00 0.000000e+00 8.695601e-01 1.304399e-01 0.000000e+00
 0.000000e+00 0.000000e+00 0.000000e+00 0.000000e+00 9.585108e-01 4.148930e-02
 0.000000e+00 0.000000e+00 0.000000e+00 0.000000e+00 0.000000e+00 0.000000e+00
<ENDHMM>

~h "minus"
<BEGINHMM>
<NUMSTATES> 6
<STATE> 2
<MEAN> 39
 -2.269145e+00 7.855103e+00 -9.707780e-01 -1.342409e+01 5.120009e+00 -1.436395e+01 2.820177e+00 -8.242522e+00 -2.127289e+01 -1.778870e+01 -1.274062e+01 -5.602806e+00 7.690420e+01 1.194103e+00 -6.452335e-01 -2.137061e+00 -1.625250e+00 -1.810414e+00 -2.446299e+00 5.323741e-01 -9.418991e-01 4.381648e-01 -1.435678e+00 2.248507e+00 3.575814e-01 3.842823e+00 -7.261347e-01 -9.676981e-01 -4.614280e-01 1.508193e-01 -3.249432e-01 3.519421e-01 -1.537650e-02 9.426162e-02 8.448073e-01 8.067417e-01 8.096497e-01 3.394431e-01 -4.670348e-02
<VARIANCE> 39
 9.192331e+00 1.660308e+01 3.255118e+01 3.049856e+01 5.331123e+01 5.809117e+01 1.496136e+01 2.795035e+01 6.052147e+01 2.306690e+01 7.139084e+01 2.203173e+01 5.539723e+01 3.670625e+00 6.885926e+00 3.724857e+00 2.631484e+00 5.075177e+00 4.614140e+00 1.968698e+00 1.756105e+00 1.279736e+01 6.573279e+00 1.066764e+01 2.802111e+00 2.735260e+00 2.662660e-01 5.962679e-01 7.064939e-01 6.382312e-01 1.067848e+00 1.504403e+00 3.280034e-01 4.077773e-01 1.852165e+00 8.486146e-01 2.087661e+00 5.804944e-01 5.746072e-01
<GCONST> 1.309545e+02
<STATE> 3
<MEAN> 39
 -6.657897e+00 1.363268e+00 -4.035836e+00 -1.169425e+01 2.478961e+00 -2.220728e+01 -2.884109e+00 -1.198913e+01 -1.153796e+01 -1.152420e+01 -9.173003e-01 -1.113522e+01 8.773524e+01 -1.173439e-01 -1.689271e-02 1.668785e-01 1.120897e-01 3.129847e-01 -1.274612e-02 -3.071839e-01 -7.923589e-02 1.332712e-01 4.446786e-01 3.891726e-01 -5.793258e-02 4.002688e-02 4.945096e-02 2.241767e-02 5.043671e-02 -6.312371e-03 6.024690e-02 -2.227698e-03 -1.436555e-02 6.178817e-02 -1.505929e-02 2.078527e-02 -1.724055e-02 3.635693e-02 -7.121845e-02
<VARIANCE> 39
 1.048257e+01 3.486124e+01 7.287616e+01 2.380492e+01 1.853009e+01 7.896156e+01 3.768460e+01 1.726030e+01 2.423425e+01 3.304671e+01 3.586530e+01 3.480733e+01 4.693985e+01 1.325782e+00 2.672181e+00 2.828755e+00 1.419225e+00 1.346934e+00 7.242443e+00 1.542127e+00 1.870242e+00 1.593138e+00 2.779619e+00 4.752690e+00 2.264262e+00 2.828072e+00 2.729772e-01 3.948351e-01 3.485229e-01 2.615772e-01 3.079778e-01 1.192141e+00 2.739016e-01 3.930197e-01 3.068196e-01 4.161505e-01 7.686597e-01 3.093711e-01 3.842357e-01
<GCONST> 1.150580e+02
<STATE> 4
<MEAN> 39
 -9.122421e+00 -2.144250e+00 1.003410e+00 -1.450311e+01 7.146325e+00 -1.635652e+01 -4.712490e+00 -1.089701e+01 -9.812877e+00 -4.969169e+00 9.873643e+00 1.297532e+00 8.572478e+01 -1.122647e+00 -4.052799e-01 6.540313e-01 -1.932642e-01 -1.150859e-01 8.412061e-01 1.194824e-01 2.543562e-01 5.877418e-01 -6.527241e-03 -3.668305e-01 -5.411178e-02 -1.388342e-01 -2.931547e-01 7.118668e-03 4.134663e-04 -1.829177e-02 -8.194163e-02 3.673711e-02 5.650246e-02 1.644895e-02 8.231527e-02 -4.633061e-02 -1.207878e-01 -1.613619e-01 6.987483e-02
<VARIANCE> 39
 3.230720e+01 3.436622e+01 3.838753e+01 1.184188e+01 1.254128e+01 4.298272e+01 3.066287e+01 1.680531e+01 2.572802e+01 2.529810e+01 2.659043e+01 2.357974e+01 2.323804e+01 4.166302e+00 4.177338e+00 1.303307e+00 1.060875e+00 1.385513e+00 1.875605e+00 1.427071e+00 1.749126e+00 3.759696e+00 1.891854e+00 1.674537e+00 3.153472e+00 1.861081e+00 3.922244e-01 7.275749e-01 3.218292e-01 2.157606e-01 2.802275e-01 3.494051e-01 2.616743e-01 2.962224e-01 5.550085e-01 3.597359e-01 3.131825e-01 3.098556e-01 2.672032e-01
<GCONST> 1.086403e+02
<STATE> 5
<MEAN> 39
 -3.261035e+01 -6.163792e+00 3.185221e+00 -1.759105e+01 8.419829e+00 -8.518322e+00 2.689156e+00 -3.924538e+00 2.072153e+00 -3.135384e+00 2.805221e+00 -5.140326e+00 8.399710e+01 2.779903e-01 1.594481e-01 -1.864834e-01 1.606361e-01 -1.625245e-02 -6.439351e-02 1.515679e-01 2.437542e-01 -1.084367e-01 1.293075e-01 -1.759741e-01 1.300123e-01 -9.096700e-01 2.522663e-01 5.500117e-02 -1.142703e-02 9.855773e-02 2.666577e-02 1.360397e-02 -7.076231e-02 -8.451953e-03 -1.332808e-01 1.977370e-02 -3.056707e-02 8.213586e-02 -1.532341e-01
<VARIANCE> 39
 2.681248e+01 1.711879e+01 1.868979e+01 1.882231e+01 2.163845e+01 1.696521e+01 1.814993e+01 1.924166e+01 1.521138e+01 1.063643e+01 1.139506e+01 1.288693e+01 6.168748e+01 3.039875e+00 9.847224e-01 1.324472e+00 1.679875e+00 1.737954e+00 1.459458e+00 1.256697e+00 1.557763e+00 1.061840e+00 8.907539e-01 9.131464e-01 8.488114e-01 2.007910e+00 3.049156e-01 2.039453e-01 2.031766e-01 2.707188e-01 3.085163e-01 3.175814e-01 2.218372e-01 2.550111e-01 2.097035e-01 1.611109e-01 1.654020e-01 1.836998e-01 1.784703e-01
<GCONST> 9.403565e+01
<TRANSP> 6
 0.000000e+00 1.000000e+00 0.000000e+00 0.000000e+00 0.000000e+00 0.000000e+00
 0.000000e+00 8.181068e-01 1.818932e-01 0.000000e+00 0.000000e+00 0.000000e+00
 0.000000e+00 0.000000e+00 9.676877e-01 3.231236e-02 0.000000e+00 0.000000e+00
 0.000000e+00 0.000000e+00 0.000000e+00 9.430661e-01 5.693390e-02 0.000000e+00
 0.000000e+00 0.000000e+00 0.000000e+00 0.000000e+00 9.601439e-01 3.985608e-02
 0.000000e+00 0.000000e+00 0.000000e+00 0.000000e+00 0.000000e+00 0.000000e+00
<ENDHMM>

~h "multiply"
<BEGINHMM>
<NUMSTATES> 6
<STATE> 2
<MEAN> 39
 -4.812590e+00 6.821270e+00 -3.145544e+00 -1.469168e+01 -2.160321e+00 -1.554865e+01 1.093472e+01 -8.211431e+00 -2.352959e+01 -1.672378e+01 -4.494394e+00 -8.313020e+00 8.175014e+01 -3.963821e-01 7.370595e-03 -2.631475e-02 -1.851323e-01 -1.812789e-01 -1.948410e-01 6.095766e-02 -3.526709e-01 4.517371e-01 -1.224964e-01 3.977762e-01 -2.928366e-01 7.762154e-01 -3.090186e-01 -2.794054e-01 -7.625388e-02 8.498237e-02 -1.130996e-01 1.510370e-01 -1.436441e-01 3.153037e-02 4.118706e-01 2.937938e-01 2.366697e-01 1.228988e-01 1.595024e-02
<VARIANCE> 39
 1.820540e+01 1.296354e+01 4.712791e+01 2.449887e+01 7.970616e+01 3.188641e+01 4.249928e+01 2.130721e+01 4.991166e+01 2.268382e+01 6.242075e+01 3.373092e+01 5.277442e+01 5.419978e+00 2.684067e+00 3.759395e+00 3.149351e+00 6.903906e+00 5.514485e+00 4.563193e+00 2.727578e+00 1.255693e+01 3.788572e+00 7.233581e+00 3.225285e+00 6.324275e+00 5.845577e-01 6.395866e-01 6.211344e-01 5.247813e-01 9.935164e-01 8.941229e-01 6.267780e-01 5.837231e-01 1.721234e+00 7.031420e-01 1.248086e+00 6.034982e-01 6.572622e-01
<GCONST> 1.339171e+02
<STATE> 3
<MEAN> 39
 -1.209367e+01 -1.724826e+00 -1.263466e+00 -7.745041e+00 -2.792714e-01 -1.601245e+01 -2.102644e+00 -9.361477e+00 -3.918035e+00 -8.017685e+00 7.341691e-01 -3.876392e+00 8.091367e+01 3.202104e-01 -1.787659e-02 -3.163523e-01 -2.283179e-01 -1.264284e-01 -1.436850e-01 9.559575e-03 1.071579e-01 1.378030e-01 -8.288641e-02 1.324263e-01 3.828905e-01 2.177265e-01 1.193047e-01 4.592327e-02 -9.262250e-03 -2.029410e-02 1.073947e-01 -4.018925e-02 6.924830e-02 2.067397e-02 -1.004129e-01 -8.942711e-02 -6.394192e-02 -1.123270e-02 -7.397907e-02
<VARIANCE> 39
 3.156021e+01 5.557338e+01 1.794234e+01 4.494178e+01 3.839630e+01 9.818119e+01 3.382352e+01 2.124671e+01 1.870820e+01 3.931507e+01 3.179019e+01 2.545237e+01 9.712040e+01 2.911902e+00 7.479053e+00 2.218973e+00 2.180149e+00 3.455868e+00 6.817698e+00 2.905029e+00 2.224840e+00 2.930709e+00 5.202181e+00 3.729776e+00 2.042104e+00 6.194774e+00 6.582418e-01 1.308685e+00 4.192271e-01 3.361193e-01 5.549989e-01 1.006101e+00 5.171959e-01 4.445758e-01 8.030620e-01 8.439027e-01 7.472926e-01 4.282197e-01 8.607241e-01
<GCONST> 1.289455e+02
<STATE> 4
<MEAN> 39
 -6.916784e+00 -1.067135e+00 -1.147715e+01 -2.047968e+01 8.555206e+00 -1.337597e+01 9.385255e-01 -1.027532e+01 1.060904e+01 -1.827648e+01 4.254805e+00 1.168831e+00 8.953339e+01 -1.791054e-01 -3.291645e-01 2.432844e-01 3.136726e-01 6.803913e-01 -2.844473e-01 -6.127358e-01 -1.527102e-01 9.000353e-01 7.340433e-02 1.721493e-01 -4.906188e-01 -3.232587e-01 -7.904151e-02 1.017669e-01 2.036783e-01 1.344384e-01 -1.472405e-01 -9.785467e-02 -6.464336e-02 1.661813e-02 -1.473289e-01 2.745618e-02 -5.998417e-02 -6.930514e-02 -7.993891e-02
<VARIANCE> 39
 4.025870e+00 1.230810e+01 1.482805e+01 1.103027e+01 4.121633e+01 2.476976e+01 1.938449e+01 1.804453e+01 4.537385e+01 2.468975e+01 1.499039e+01 3.221524e+01 1.117492e+01 3.115819e-01 7.266994e-01 1.488791e+00 1.276236e+00 1.913460e+00 1.975272e+00 1.013851e+00 1.039788e+00 2.058879e+00 1.735165e+00 1.045352e+00 1.163016e+00 2.691682e-01 5.475255e-02 1.170251e-01 1.409127e-01 1.724564e-01 2.667077e-01 2.171016e-01 1.526258e-01 2.215443e-01 2.309064e-01 2.731111e-01 1.962391e-01 1.957991e-01 4.082800e-02
<GCONST> 8.554862e+01
<STATE> 5
<MEAN> 39
 -1.308387e+01 -8.642704e+00 5.046159e+00 -3.262125e+00 3.055784e+00 -2.415415e+01 -7.681146e+00 7.913226e-01 4.718368e+00 -1.089555e+01 -5.935395e-02 -3.864689e+00 7.431345e+01 -1.443728e-01 -3.383368e-01 2.453981e-01 7.678828e-01 -6.720238e-01 2.654729e-01 1.109133e-01 8.807703e-01 -7.351031e-01 3.610224e-01 -4.443312e-01 2.607677e-01 -1.077983e+00 4.365646e-02 6.412636e-02 -1.163071e-01 -1.206689e-01 5.383454e-02 1.818582e-01 4.580025e-02 -1.004924e-01 -2.458026e-03 -2.689255e-03 -3.965924e-03 1.414565e-02 9.090899e-03
<VARIANCE> 39
 7.198080e+00 3.375628e+01 4.463145e+01 4.527789e+01 7.613070e+01 4.479551e+01 2.063977e+01 9.005920e+01 5.536662e+01 4.066838e+01 3.157112e+01 3.435349e+01 5.690663e+01 8.971975e-01 1.782142e+00 2.443524e+00 1.742814e+00 3.440245e+00 3.752858e+00 1.682329e+00 3.227375e+00 1.997940e+00 3.251730e+00 1.860741e+00 1.503920e+00 4.234989e-01 1.414858e-01 2.138423e-01 1.975007e-01 2.804114e-01 5.375426e-01 4.638236e-01 2.799165e-01 4.578929e-01 3.569955e-01 6.505465e-01 3.653710e-01 2.449452e-01 7.767671e-02
<GCONST> 1.111391e+02
<TRANSP> 6
 0.000000e+00 1.000000e+00 0.000000e+00 0.000000e+00 0.000000e+00 0.000000e+00
 0.000000e+00 9.553597e-01 4.464032e-02 0.000000e+00 0.000000e+00 0.000000e+00
 0.000000e+00 0.000000e+00 9.730893e-01 2.691071e-02 0.000000e+00 0.000000e+00
 0.000000e+00 0.000000e+00 0.000000e+00 9.430333e-01 5.696672e-02 0.000000e+00
 0.000000e+00 0.000000e+00 0.000000e+00 0.000000e+00 9.523463e-01 4.765370e-02
 0.000000e+00 0.000000e+00 0.000000e+00 0.000000e+00 0.000000e+00 0.000000e+00
<ENDHMM>

~h "divide"
<BEGINHMM>
<NUMSTATES> 6
<STATE> 2
<MEAN> 39
 -9.253695e+00 2.898137e+00 5.338095e+00 -6.161910e+00 6.655284e+00 -1.780211e+01 -8.142522e+00 -9.775120e+00 -8.973162e+00 -1.548023e+01 -4.152322e+00 -9.068635e+00 8.191544e+01 9.088989e-01 1.815500e-01 -6.113664e-01 -5.454066e-01 -2.241895e-01 -2.099552e-01 1.383347e-01 -1.663828e-01 -7.429544e-01 -1.655781e-01 2.925647e-01 1.048838e-01 4.639318e-01 1.808556e-02 -8.784512e-02 -2.186304e-01 -6.605754e-02 -9.468088e-02 1.943980e-01 1.593332e-01 3.721347e-02 1.021594e-01 1.897145e-01 6.551399e-02 7.319968e-02 -1.923901e-01
<VARIANCE> 39
 3.845290e+01 3.087397e+01 4.361646e+01 6.363295e+01 3.182196e+01 6.462695e+01 5.094112e+01 3.259877e+01 3.594114e+01 2.700185e+01 2.918957e+01 2.136293e+01 1.550288e+01 4.263870e+00 2.898515e+00 3.396649e+00 5.354556e+00 3.174943e+00 7.760561e+00 5.280615e+00 1.939836e+00 3.609510e+00 4.011422e+00 3.050949e+00 2.282432e+00 2.432797e+00 8.621733e-01 3.864810e-01 2.654372e-01 8.188881e-01 3.448980e-01 9.728993e-01 7.117671e-01 3.797060e-01 8.268599e-01 6.807299e-01 5.084133e-01 3.877289e-01 5.685282e-01
<GCONST> 1.264429e+02
<STATE> 3
<MEAN> 39
 -1.517700e+00 -2.255455e+00 -1.687931e+01 -1.851313e+01 1.018930e+00 -1.393653e+01 1.669212e+00 -1.041878e+01 -4.168276e+00 -1.408199e+01 5.816324e+00 -4.788096e+00 8.821864e+01 -2.361173e-01 -1.493329e-01 -4.599044e-02 3.248230e-01 7.650785e-01 -3.596500e-01 -3.472117e-01 2.381050e-01 1.140519e+00 7.617870e-03 4.850216e-01 -2.419800e-01 4.364149e-02 -1.141782e-01 4.937015e-02 2.901731e-01 9.938607e-02 4.764717e-02 -1.298774e-01 -1.827760e-01 5.989981e-02 -3.949048e-02 -6.526817e-02 -1.654002e-02 -2.226270e-02 -5.120608e-02
<VARIANCE> 39
 2.993509e+00 7.409379e+00 1.874343e+01 7.246210e+00 3.766273e+01 3.330192e+01 2.667999e+01 2.988174e+01 5.623236e+01 2.405541e+01 3.416682e+01 1.350256e+01 3.830429e+00 2.910377e-01 5.503476e-01 2.795900e+00 6.886585e-01 1.125914e+00 2.488403e+00 1.934266e+00 1.045324e+00 1.232813e+00 1.409363e+00 1.487680e+00 9.637479e-01 7.967705e-02 2.854155e-02 1.128628e-01 1.347941e-01 1.019294e-01 1.793909e-01 2.293815e-01 1.318432e-01 1.650910e-01 2.341761e-01 2.490989e-01 2.885419e-01 1.573965e-01 2.168438e-02
<GCONST> 8.032294e+01
<STATE> 4
<MEAN> 39
 -1.023687e+01 -2.668964e+00 3.781954e+00 -7.358411e+00 1.100743e+01 -2.923480e+01 -1.315514e+01 -5.341043e+00 9.664615e-01 -1.523722e+01 9.371699e+00 -6.807297e+00 8.547648e+01 -5.761774e-01 5.055746e-01 1.991221e+00 1.131045e+00 3.162301e-01 -2.086280e-02 -2.064132e-01 -2.058855e-01 -1.357539e+00 -4.696386e-01 -1.315775e+00 1.954333e-01 -1.276028e+00 1.887221e-01 4.151960e-02 -5.805523e-01 -2.195245e-01 -1.381191e-01 7.201123e-01 4.747368e-01 -1.388038e-01 -1.067149e-01 2.462209e-01 -1.645715e-01 1.261819e-01 -3.834012e-01
<VARIANCE> 39
 5.476345e+00 1.794172e+01 5.506296e+01 1.762369e+01 1.349514e+01 1.909221e+01 1.802750e+01 2.375640e+01 3.301747e+01 1.746455e+01 2.177242e+01 1.187007e+01 1.370996e+01 5.082840e-01 9.000726e-01 3.289033e+00 7.617028e-01 1.168377e+00 5.508625e+00 4.095766e+00 1.414862e+00 1.172934e+00 1.626892e+00 1.652948e+00 9.412127e-01 1.674006e+00 2.844047e-02 2.460442e-01 4.389175e-01 1.690716e-01 4.277827e-01 3.227533e-01 3.128906e-01 2.875134e-01 3.407817e-01 5.052405e-01 2.441472e-01 2.324569e-01 1.147554e-01
<GCONST> 9.589788e+01
<STATE> 5
<MEAN> 39
 -1.628639e+01 -6.396276e+00 1.562582e+00 -9.569751e+00 1.408123e+00 -1.187737e+01 -6.876418e+00 -7.895531e+00 -2.432795e+00 -5.114807e+00 3.964918e-01 -3.557034e+00 7.178465e+01 -3.297715e-01 -4.957906e-01 -3.685636e-01 -2.810252e-01 -6.656078e-01 9.426184e-01 1.608686e-01 2.792493e-01 2.414256e-01 9.593542e-01 -9.894654e-02 2.113565e-01 -7.073981e-01 -2.014848e-02 2.434110e-02 1.182331e-01 7.360320e-02 3.887033e-02 -1.624736e-01 -1.002038e-01 5.514633e-02 2.083699e-02 -8.185147e-02 1.763451e-02 -2.773044e-02 1.063045e-01
<VARIANCE> 39
 3.859279e+01 2.491496e+01 1.739734e+01 2.616272e+01 2.756552e+01 2.988931e+01 2.071698e+01 1.934908e+01 2.129804e+01 3.578337e+01 2.231137e+01 2.316512e+01 7.489571e+01 4.332851e+00 1.848970e+00 3.987734e+00 3.275378e+00 2.960590e+00 5.746607e+00 3.058705e+00 2.556777e+00 1.943812e+00 4.740059e+00 2.197198e+00 2.823624e+00 1.309266e+01 8.593556e-01 3.633171e-01 7.534161e-01 6.727896e-01 5.063949e-01 8.708606e-01 7.421104e-01 4.379974e-01 3.988163e-01 7.983289e-01 4.917799e-01 5.329331e-01 2.278964e+00
<GCONST> 1.252873e+02
<TRANSP> 6
 0.000000e+00 1.000000e+00 0.000000e+00 0.000000e+00 0.000000e+00 0.000000e+00
 0.000000e+00 9.486645e-01 5.133547e-02 0.000000e+00 0.000000e+00 0.000000e+00
 0.000000e+00 0.000000e+00 9.439322e-01 5.606782e-02 0.000000e+00 0.000000e+00
 0.000000e+00 0.000000e+00 0.000000e+00 8.934170e-01 1.065831e-01 0.000000e+00
 0.000000e+00 0.000000e+00 0.000000e+00 0.000000e+00 9.447579e-01 5.524211e-02
 0.000000e+00 0.000000e+00 0.000000e+00 0.000000e+00 0.000000e+00 0.000000e+00
<ENDHMM>

