~o
<STREAMINFO> 1 39
<VECSIZE> 39<NULLD><MFCC_D_A_0><DIAGC>
~h "six"
<BEGINHMM>
<NUMSTATES> 6
<STATE> 2
<MEAN> 39
 -3.054911e+01 -5.336165e+00 3.619153e+00 -1.631823e+01 7.357526e+00 -1.063793e+01 2.792084e+00 -7.349721e+00 2.465189e+00 -2.808178e+00 1.640678e+00 -4.341012e+00 8.660562e+01 -2.036551e-01 2.127741e-01 9.176466e-02 -3.068812e-01 1.965526e-01 -8.018069e-01 -1.713684e-01 -3.636769e-01 -1.091788e-01 -3.172812e-01 -9.046292e-02 -2.780877e-01 1.116107e+00 3.912706e-01 1.237868e-01 -1.024756e-01 2.503084e-01 -1.259996e-01 -1.181587e-01 -2.156529e-01 -4.607738e-02 -1.556610e-01 -5.332534e-02 -9.725922e-02 -8.162729e-02 -1.588682e-01
<VARIANCE> 39
 6.336176e+01 1.676092e+01 2.726961e+01 1.814613e+01 2.492088e+01 2.059424e+01 2.415062e+01 2.367686e+01 1.983036e+01 1.810005e+01 1.133423e+01 1.067689e+01 4.404078e+01 7.659025e+00 1.526452e+00 2.820343e+00 2.617398e+00 2.105259e+00 2.454806e+00 3.883724e+00 2.924740e+00 2.438794e+00 1.874464e+00 1.593955e+00 1.549031e+00 2.169050e+00 6.004541e-01 3.086601e-01 5.498170e-01 4.046839e-01 3.464532e-01 4.663275e-01 3.991267e-01 4.755420e-01 3.228568e-01 3.727425e-01 2.472294e-01 2.634343e-01 1.942204e-01
<GCONST> 1.104707e+02
<STATE> 3
<MEAN> 39
 -1.106170e+01 -3.930734e+00 2.133457e+00 -2.332834e+00 2.297675e+00 -2.450654e+01 -8.427255e+00 -7.158830e+00 -6.261528e+00 -7.068269e+00 -3.039624e+00 -4.798891e+00 8.007700e+01 4.471090e-01 -7.784223e-02 -2.746370e-01 6.824462e-01 -3.119166e-01 5.463373e-01 -1.304397e-02 5.308687e-01 5.504051e-03 1.831288e-01 -2.442747e-02 3.143214e-01 -1.347184e+00 -3.499581e-01 -8.006629e-02 -5.703345e-02 -2.396523e-01 1.898651e-01 1.534946e-01 1.689155e-01 5.171526e-02 1.760292e-01 9.759282e-02 8.935891e-02 2.321403e-02 1.184508e-01
<VARIANCE> 39
 7.455632e+00 1.715656e+01 1.719334e+01 2.437216e+01 2.731454e+01 1.120824e+02 2.346053e+01 4.281804e+01 1.133169e+01 1.948319e+01 2.022090e+01 2.127519e+01 1.694318e+02 3.078369e+00 1.613088e+00 2.036345e+00 2.054140e+00 2.888657e+00 9.218160e+00 2.855725e+00 2.498707e+00 1.654942e+00 2.459375e+00 2.104388e+00 1.873341e+00 3.775467e+00 4.829808e-01 3.433006e-01 4.505821e-01 3.855436e-01 6.271083e-01 1.296356e+00 4.948769e-01 6.257063e-01 2.844687e-01 5.163135e-01 4.581237e-01 4.522513e-01 7.234331e-01
<GCONST> 1.177412e+02
<STATE> 4
<MEAN> 39
 -2.066968e+01 -8.579345e+00 -2.684459e+00 -1.190148e+01 9.954457e+00 -1.023956e+01 -7.011574e+00 -8.463362e+00 6.527275e-01 -9.970214e-01 6.032106e-01 -5.809240e+00 8.188001e+01 -2.727030e+00 -6.366349e-01 2.556365e-01 -2.325388e+00 1.573702e+00 -1.688940e-01 3.799729e-01 -8.321562e-01 1.240465e+00 3.452768e-01 8.816443e-01 -4.322886e-01 4.393838e+00 -1.322687e-01 1.344351e-01 3.656838e-01 2.581057e-01 -4.350859e-01 1.127859e-01 3.131596e-01 3.525344e-01 -2.247862e-02 -1.339736e-01 -9.357500e-02 1.314684e-01 -2.824475e-01
<VARIANCE> 39
 4.638938e+01 1.568187e+01 2.627734e+01 5.988727e+01 4.802521e+01 3.133260e+01 1.483000e+01 2.834021e+01 2.603810e+01 9.698469e+00 2.250512e+01 1.237900e+01 1.619678e+02 1.549282e+00 1.539299e+00 5.263347e+00 5.824562e+00 7.450416e+00 3.099202e+00 2.468290e+00 3.906020e+00 1.940360e+00 1.069926e+00 2.270713e+00 1.597458e+00 6.692358e+00 4.051395e-01 2.794435e-01 7.885106e-01 1.164140e+00 1.259074e+00 6.291776e-01 4.494363e-01 6.579593e-01 4.786377e-01 1.923207e-01 4.860741e-01 2.949861e-01 2.447361e+00
<GCONST> 1.217032e+02
<STATE> 5
<MEAN> 39
 -3.070261e+01 -5.366137e+00 3.841991e+00 -1.777639e+01 1.008128e+01 -9.394636e+00 2.452801e+00 -4.548168e+00 4.052446e-01 -1.988516e+00 2.224316e+00 -4.278662e+00 8.484168e+01 5.719258e-01 2.285187e-01 4.353772e-02 3.171429e-01 -1.835919e-01 1.098005e-01 3.468170e-02 2.761061e-01 -3.980139e-01 7.854799e-02 -2.648408e-01 1.227522e-01 -1.143241e+00 1.278216e-01 -2.378782e-02 -5.460672e-02 9.701801e-02 5.037890e-03 2.039689e-02 -1.082291e-01 -3.040534e-02 -2.684136e-02 -3.544693e-03 -2.193009e-02 -2.146661e-02 -6.345513e-02
<VARIANCE> 39
 5.703962e+01 7.675343e+00 1.185809e+01 2.286460e+01 1.303263e+01 1.442511e+01 2.205063e+01 1.521167e+01 1.842509e+01 9.921622e+00 1.323619e+01 8.902948e+00 1.177954e+02 2.197424e+00 7.407688e-01 1.134180e+00 1.647009e+00 1.248872e+00 1.092335e+00 1.695051e+00 1.472687e+00 1.140570e+00 1.249712e+00 1.173007e+00 8.183650e-01 1.579526e+00 2.598170e-01 1.483534e-01 2.172090e-01 2.189215e-01 2.456149e-01 2.290561e-01 2.481729e-01 2.729204e-01 2.659197e-01 2.656586e-01 2.095242e-01 1.593861e-01 1.623680e-01
<GCONST> 9.252905e+01
<TRANSP> 6
 0.000000e+00 1.000000e+00 0.000000e+00 0.000000e+00 0.000000e+00 0.000000e+00
 0.000000e+00 9.485649e-01 5.143514e-02 0.000000e+00 0.000000e+00 0.000000e+00
 0.000000e+00 0.000000e+00 9.520367e-01 4.796333e-02 0.000000e+00 0.000000e+00
 0.000000e+00 0.000000e+00 0.000000e+00 8.607462e-01 1.392538e-01 0.000000e+00
 0.000000e+00 0.000000e+00 0.000000e+00 0.000000e+00 9.639351e-01 3.606495e-02
 0.000000e+00 0.000000e+00 0.000000e+00 0.000000e+00 0.000000e+00 0.000000e+00
<ENDHMM>
