~o
<STREAMINFO> 1 39
<VECSIZE> 39<NULLD><MFCC_D_A_0><DIAGC>
~h "five"
<BEGINHMM>
<NUMSTATES> 6
<STATE> 2
<MEAN> 39
 -1.959485e+01 -7.709710e+00 -5.313281e+00 -1.283675e+01 3.335776e+00 -9.712298e+00 2.052358e+00 -7.637243e+00 -5.034016e-01 -7.710061e+00 3.292797e+00 -5.474431e+00 8.271323e+01 6.687014e-01 2.178669e-01 -1.988948e-01 -4.207541e-01 -5.287744e-01 -5.688649e-01 1.200654e-01 3.285324e-02 -1.508708e-01 -6.241576e-01 -3.042227e-01 1.573375e-01 1.212432e+00 7.769162e-02 2.550708e-02 7.510237e-03 2.789644e-02 -5.767434e-02 1.173639e-02 -5.041863e-02 9.783515e-02 3.547698e-02 -9.786958e-03 -7.808515e-03 4.466788e-02 -5.506971e-02
<VARIANCE> 39
 8.355370e+01 3.363423e+01 1.636889e+01 1.646935e+01 3.479251e+01 2.994729e+01 2.293477e+01 1.929327e+01 2.568873e+01 3.177870e+01 2.213030e+01 1.597577e+01 5.655677e+01 6.255880e+00 3.308855e+00 1.928096e+00 1.026150e+00 2.933368e+00 2.492339e+00 2.453854e+00 2.016227e+00 2.691577e+00 2.617444e+00 2.776509e+00 1.459192e+00 1.526477e+00 7.326853e-01 6.704997e-01 3.568249e-01 2.210540e-01 4.951617e-01 5.589626e-01 4.711053e-01 4.061168e-01 5.497372e-01 4.735007e-01 6.008792e-01 2.612433e-01 2.372785e-01
<GCONST> 1.151145e+02
<STATE> 3
<MEAN> 39
 -3.596333e+00 -4.292640e+00 -9.870479e+00 -1.683513e+01 -1.869473e+00 -1.198731e+01 1.991510e+00 -2.940524e+00 -1.914088e-01 -1.542458e+01 5.128526e-01 1.177629e-02 9.330998e+01 -2.505891e-01 -2.588090e-01 1.085448e-01 1.889971e-01 7.838368e-01 -4.036701e-01 -3.740600e-01 5.221826e-02 7.109423e-01 1.990040e-01 4.800339e-01 -1.801436e-01 4.818739e-02 -7.573255e-02 5.566330e-02 1.901767e-01 7.949313e-02 8.679999e-02 -2.191465e-01 -7.721760e-02 -6.209350e-02 1.088556e-02 4.551917e-02 -1.727210e-02 -9.702048e-02 -1.066543e-01
<VARIANCE> 39
 7.471143e+00 1.252393e+01 9.627722e+00 1.592773e+01 3.354476e+01 3.966098e+01 2.236884e+01 1.870367e+01 2.529964e+01 4.338062e+01 2.433080e+01 1.435378e+01 7.260427e+00 3.319583e-01 6.468000e-01 1.020374e+00 1.510294e+00 1.606178e+00 4.679020e+00 1.882683e+00 1.470746e+00 1.990042e+00 1.992130e+00 1.178197e+00 1.274368e+00 2.960195e-01 6.529416e-02 1.281596e-01 1.125031e-01 2.991391e-01 3.423178e-01 4.100005e-01 2.744465e-01 2.480308e-01 3.850309e-01 4.194572e-01 2.208307e-01 1.975700e-01 6.820004e-02
<GCONST> 9.134679e+01
<STATE> 4
<MEAN> 39
 -1.091916e+01 -3.963757e+00 5.441107e+00 -6.760678e+00 1.017148e+01 -2.966212e+01 -8.465458e+00 -6.156368e+00 2.538283e+00 -1.397978e+01 -2.934506e-01 -6.317234e+00 8.300104e+01 -4.794677e-01 -1.042458e-01 3.644084e-01 4.016470e-01 2.171358e-01 7.672118e-01 -4.282932e-02 -2.162936e-01 -5.602622e-01 3.064491e-01 -5.062442e-01 -1.860880e-01 -1.231394e+00 -1.554202e-01 3.209610e-03 -2.236015e-01 -1.499726e-01 -1.400966e-01 3.727802e-01 2.668129e-01 -2.552655e-02 -5.430591e-02 -2.488784e-02 1.128951e-01 1.046729e-01 9.969546e-02
<VARIANCE> 39
 1.394618e+01 2.965786e+01 4.768563e+01 3.183278e+01 3.396684e+01 8.630859e+01 2.171869e+01 1.955996e+01 4.816978e+01 5.258059e+01 5.601012e+01 2.748479e+01 5.677397e+01 1.807475e+00 2.348043e+00 5.238218e+00 2.228650e+00 2.796869e+00 1.016755e+01 3.513622e+00 1.494655e+00 2.776768e+00 5.829776e+00 3.259191e+00 2.095747e+00 1.105984e+00 4.680928e-01 4.227966e-01 5.411245e-01 2.834193e-01 5.244352e-01 1.145419e+00 6.000331e-01 3.079842e-01 6.643075e-01 1.154609e+00 6.162917e-01 4.693103e-01 2.412857e-01
<GCONST> 1.233725e+02
<STATE> 5
<MEAN> 39
 -2.364391e+01 -6.306282e+00 -1.587736e+00 -1.041090e+01 7.699717e+00 -7.212245e+00 9.299845e-01 -7.570241e+00 -1.647466e+00 -7.586632e+00 1.815781e+00 -5.249424e+00 7.438573e+01 3.552932e-02 9.417316e-02 6.488517e-03 1.750592e-01 -4.478655e-01 3.881493e-01 1.168294e-01 2.982697e-01 -9.248209e-02 2.473371e-01 -4.755413e-02 1.987648e-01 -5.711906e-01 1.693811e-01 -6.479911e-03 4.920395e-02 1.162595e-01 1.740386e-03 -6.848092e-02 -1.296180e-01 4.800909e-02 -1.081838e-02 1.525087e-02 -1.104809e-01 9.422312e-03 -7.055579e-02
<VARIANCE> 39
 5.273048e+01 2.544578e+01 1.346119e+01 3.111450e+01 3.004579e+01 3.632821e+01 2.019923e+01 2.667517e+01 2.351941e+01 2.017312e+01 2.627100e+01 1.758375e+01 5.822164e+01 3.769356e+00 1.548476e+00 1.290003e+00 2.329688e+00 2.354649e+00 1.945670e+00 1.732539e+00 1.634862e+00 1.535911e+00 1.913751e+00 2.327739e+00 1.376766e+00 2.355340e+00 2.509894e-01 2.044461e-01 2.135496e-01 3.315612e-01 3.860467e-01 3.961244e-01 2.661194e-01 2.739965e-01 2.929512e-01 4.014334e-01 3.447394e-01 2.369770e-01 2.273116e-01
<GCONST> 1.068497e+02
<TRANSP> 6
 0.000000e+00 1.000000e+00 0.000000e+00 0.000000e+00 0.000000e+00 0.000000e+00
 0.000000e+00 9.514205e-01 4.857955e-02 0.000000e+00 0.000000e+00 0.000000e+00
 0.000000e+00 0.000000e+00 9.428281e-01 5.717195e-02 0.000000e+00 0.000000e+00
 0.000000e+00 0.000000e+00 0.000000e+00 9.361658e-01 6.383424e-02 0.000000e+00
 0.000000e+00 0.000000e+00 0.000000e+00 0.000000e+00 9.538299e-01 4.617006e-02
 0.000000e+00 0.000000e+00 0.000000e+00 0.000000e+00 0.000000e+00 0.000000e+00
<ENDHMM>
