~o
<STREAMINFO> 1 39
<VECSIZE> 39<NULLD><MFCC_D_A_0><DIAGC>
~h "seven"
<BEGINHMM>
<NUMSTATES> 6
<STATE> 2
<MEAN> 39
 -2.639275e+01 -7.994785e+00 3.044759e+00 -2.050561e+01 1.056345e+01 -1.536601e+01 4.630084e+00 -8.414864e+00 3.885511e+00 -3.612633e+00 1.882611e+00 -4.558587e+00 8.751945e+01 -5.208231e-02 2.461841e-01 4.306336e-02 2.805200e-02 2.651865e-01 -7.992157e-01 -6.453998e-02 -5.365173e-01 -1.731615e-01 -3.843489e-01 6.561498e-02 -1.777400e-01 1.158720e+00 2.492386e-01 1.859167e-01 -1.537383e-01 2.082150e-01 -1.901524e-01 -1.284585e-02 -2.021069e-01 1.874220e-02 -1.722213e-01 -5.016112e-02 -2.305918e-02 6.773935e-02 -1.594148e-01
<VARIANCE> 39
 6.254602e+01 1.776976e+01 1.702340e+01 2.461240e+01 2.788866e+01 3.021794e+01 3.233930e+01 2.028418e+01 1.133321e+01 1.654475e+01 1.265702e+01 1.027823e+01 4.025408e+01 8.328947e+00 2.847520e+00 2.198315e+00 3.315298e+00 2.961999e+00 2.659586e+00 4.484683e+00 3.406002e+00 2.418720e+00 1.946167e+00 1.433768e+00 1.342116e+00 2.887767e+00 6.990269e-01 4.732364e-01 3.855589e-01 4.716879e-01 2.637355e-01 4.751455e-01 4.400981e-01 6.021128e-01 3.553161e-01 3.824959e-01 3.025145e-01 2.930117e-01 2.568482e-01
<GCONST> 1.129613e+02
<STATE> 3
<MEAN> 39
 -6.329972e+00 3.129322e-02 -5.673275e+00 -1.470493e+01 5.887409e-01 -2.330125e+01 -6.410650e+00 -1.555254e+01 -4.157726e+00 -8.616927e+00 1.537715e+00 -2.788130e+00 9.463487e+01 1.179236e+00 1.874845e-01 -8.426498e-01 -2.113487e-01 -4.949476e-01 -5.354024e-01 2.289522e-01 8.504952e-02 -3.389648e-01 -7.885118e-01 2.163510e-01 5.197742e-01 -1.287397e-01 -4.584610e-01 -2.182632e-01 2.759333e-01 -5.963539e-02 4.070154e-01 1.981485e-01 5.580450e-01 1.863796e-01 8.173539e-02 -2.008895e-01 -3.743536e-02 -7.305522e-02 -4.165305e-01
<VARIANCE> 39
 2.634491e+00 5.788693e+00 1.390622e+01 9.006042e+00 8.238970e+00 2.429593e+01 1.149647e+01 2.054090e+01 1.873886e+01 3.741765e+01 1.281903e+01 2.379986e+01 4.996531e+00 1.911754e+00 8.467522e-01 1.293637e+00 8.817485e-01 1.649556e+00 1.738797e+00 2.519834e+00 2.549604e+00 2.883672e+00 4.148241e+00 1.369639e+00 1.963181e+00 1.761682e+00 5.890939e-01 2.626489e-01 1.930905e-01 2.407798e-01 1.251758e-01 4.211844e-01 3.291961e-01 6.916493e-01 8.322460e-01 7.689048e-01 3.000661e-01 3.950529e-01 1.028025e-01
<GCONST> 9.723111e+01
<STATE> 4
<MEAN> 39
 -4.841574e+00 -5.760466e-01 1.057108e-01 -1.408555e+01 7.070033e+00 -2.173798e+01 2.134901e+00 -1.572425e+01 -8.275461e+00 -1.613953e+01 3.900611e+00 -2.838890e+00 8.565959e+01 -8.364201e-02 1.204237e-01 6.183540e-01 3.261224e-01 7.184010e-01 4.195802e-01 1.486454e-01 4.225944e-02 -8.621894e-02 1.845911e-01 1.387729e-01 -4.386276e-02 -6.357279e-01 1.642993e-02 -2.653457e-02 -5.266937e-02 1.275068e-01 -1.413742e-02 7.949133e-02 -1.689210e-01 1.081472e-01 4.832645e-03 1.975313e-01 -1.112787e-01 4.741736e-02 1.679781e-02
<VARIANCE> 39
 1.143080e+01 2.346148e+01 2.500118e+01 2.433910e+01 1.885612e+01 4.303133e+01 2.041694e+01 2.423288e+01 2.397226e+01 4.712494e+01 6.797557e+01 3.138069e+01 3.064335e+01 1.488011e+00 2.180242e+00 1.905140e+00 3.904705e+00 2.144904e+00 5.050756e+00 2.015630e+00 2.251143e+00 2.537433e+00 4.509584e+00 6.017487e+00 4.293541e+00 5.018149e+00 3.617771e-01 4.008049e-01 3.779106e-01 6.249325e-01 3.510371e-01 8.989330e-01 3.819262e-01 4.600609e-01 4.858387e-01 7.429246e-01 9.053162e-01 9.483436e-01 5.941895e-01
<GCONST> 1.211224e+02
<STATE> 5
<MEAN> 39
 -4.728924e+00 8.315274e-01 3.770891e+00 -3.307642e-01 1.058225e+01 -6.600749e+00 -3.804618e+00 -8.684833e+00 -1.012211e+01 -5.309727e+00 -1.037031e+00 -2.945581e+00 6.942719e+01 -4.368853e-01 -3.555232e-01 -3.386472e-01 5.775411e-01 -8.798489e-01 1.091493e+00 -3.186257e-01 5.672222e-01 2.121948e-01 6.984951e-01 -3.683607e-01 -7.672888e-02 -1.082046e+00 -1.197645e-01 -1.450592e-02 -4.015356e-02 -2.162357e-01 -1.593374e-01 -1.233367e-01 1.014211e-01 -7.954268e-02 1.249345e-01 -5.236333e-02 1.941437e-01 -2.464435e-02 9.084869e-02
<VARIANCE> 39
 1.840194e+01 7.053547e+00 8.715646e+00 2.255640e+01 3.193592e+01 4.901851e+01 1.330765e+01 1.825505e+01 3.062368e+01 1.828521e+01 1.944862e+01 1.627788e+01 2.674229e+01 1.715290e+00 7.637675e-01 1.055351e+00 3.218843e+00 1.526769e+00 2.041038e+00 1.687860e+00 1.763792e+00 2.830906e+00 1.187862e+00 2.730238e+00 2.043430e+00 4.892158e-01 2.250896e-01 1.569012e-01 2.219869e-01 4.391711e-01 3.341562e-01 3.720779e-01 3.065191e-01 3.271367e-01 3.799583e-01 2.461351e-01 4.925007e-01 4.045686e-01 1.123083e-01
<GCONST> 9.975674e+01
<TRANSP> 6
 0.000000e+00 1.000000e+00 0.000000e+00 0.000000e+00 0.000000e+00 0.000000e+00
 0.000000e+00 9.492387e-01 5.076135e-02 0.000000e+00 0.000000e+00 0.000000e+00
 0.000000e+00 0.000000e+00 8.820056e-01 1.179945e-01 0.000000e+00 0.000000e+00
 0.000000e+00 0.000000e+00 0.000000e+00 9.486484e-01 5.135166e-02 0.000000e+00
 0.000000e+00 0.000000e+00 0.000000e+00 0.000000e+00 9.326657e-01 6.733432e-02
 0.000000e+00 0.000000e+00 0.000000e+00 0.000000e+00 0.000000e+00 0.000000e+00
<ENDHMM>
