~o
<STREAMINFO> 1 39
<VECSIZE> 39<NULLD><MFCC_D_A_0><DIAGC>
~h "multiply"
<BEGINHMM>
<NUMSTATES> 6
<STATE> 2
<MEAN> 39
 -4.812590e+00 6.821270e+00 -3.145544e+00 -1.469168e+01 -2.160321e+00 -1.554865e+01 1.093472e+01 -8.211431e+00 -2.352959e+01 -1.672378e+01 -4.494394e+00 -8.313020e+00 8.175014e+01 -3.963821e-01 7.370595e-03 -2.631475e-02 -1.851323e-01 -1.812789e-01 -1.948410e-01 6.095766e-02 -3.526709e-01 4.517371e-01 -1.224964e-01 3.977762e-01 -2.928366e-01 7.762154e-01 -3.090186e-01 -2.794054e-01 -7.625388e-02 8.498237e-02 -1.130996e-01 1.510370e-01 -1.436441e-01 3.153037e-02 4.118706e-01 2.937938e-01 2.366697e-01 1.228988e-01 1.595024e-02
<VARIANCE> 39
 1.820540e+01 1.296354e+01 4.712791e+01 2.449887e+01 7.970616e+01 3.188641e+01 4.249928e+01 2.130721e+01 4.991166e+01 2.268382e+01 6.242075e+01 3.373092e+01 5.277442e+01 5.419978e+00 2.684067e+00 3.759395e+00 3.149351e+00 6.903906e+00 5.514485e+00 4.563193e+00 2.727578e+00 1.255693e+01 3.788572e+00 7.233581e+00 3.225285e+00 6.324275e+00 5.845577e-01 6.395866e-01 6.211344e-01 5.247813e-01 9.935164e-01 8.941229e-01 6.267780e-01 5.837231e-01 1.721234e+00 7.031420e-01 1.248086e+00 6.034982e-01 6.572622e-01
<GCONST> 1.339171e+02
<STATE> 3
<MEAN> 39
 -1.209367e+01 -1.724826e+00 -1.263466e+00 -7.745041e+00 -2.792714e-01 -1.601245e+01 -2.102644e+00 -9.361477e+00 -3.918035e+00 -8.017685e+00 7.341691e-01 -3.876392e+00 8.091367e+01 3.202104e-01 -1.787659e-02 -3.163523e-01 -2.283179e-01 -1.264284e-01 -1.436850e-01 9.559575e-03 1.071579e-01 1.378030e-01 -8.288641e-02 1.324263e-01 3.828905e-01 2.177265e-01 1.193047e-01 4.592327e-02 -9.262250e-03 -2.029410e-02 1.073947e-01 -4.018925e-02 6.924830e-02 2.067397e-02 -1.004129e-01 -8.942711e-02 -6.394192e-02 -1.123270e-02 -7.397907e-02
<VARIANCE> 39
 3.156021e+01 5.557338e+01 1.794234e+01 4.494178e+01 3.839630e+01 9.818119e+01 3.382352e+01 2.124671e+01 1.870820e+01 3.931507e+01 3.179019e+01 2.545237e+01 9.712040e+01 2.911902e+00 7.479053e+00 2.218973e+00 2.180149e+00 3.455868e+00 6.817698e+00 2.905029e+00 2.224840e+00 2.930709e+00 5.202181e+00 3.729776e+00 2.042104e+00 6.194774e+00 6.582418e-01 1.308685e+00 4.192271e-01 3.361193e-01 5.549989e-01 1.006101e+00 5.171959e-01 4.445758e-01 8.030620e-01 8.439027e-01 7.472926e-01 4.282197e-01 8.607241e-01
<GCONST> 1.289455e+02
<STATE> 4
<MEAN> 39
 -6.916784e+00 -1.067135e+00 -1.147715e+01 -2.047968e+01 8.555206e+00 -1.337597e+01 9.385255e-01 -1.027532e+01 1.060904e+01 -1.827648e+01 4.254805e+00 1.168831e+00 8.953339e+01 -1.791054e-01 -3.291645e-01 2.432844e-01 3.136726e-01 6.803913e-01 -2.844473e-01 -6.127358e-01 -1.527102e-01 9.000353e-01 7.340433e-02 1.721493e-01 -4.906188e-01 -3.232587e-01 -7.904151e-02 1.017669e-01 2.036783e-01 1.344384e-01 -1.472405e-01 -9.785467e-02 -6.464336e-02 1.661813e-02 -1.473289e-01 2.745618e-02 -5.998417e-02 -6.930514e-02 -7.993891e-02
<VARIANCE> 39
 4.025870e+00 1.230810e+01 1.482805e+01 1.103027e+01 4.121633e+01 2.476976e+01 1.938449e+01 1.804453e+01 4.537385e+01 2.468975e+01 1.499039e+01 3.221524e+01 1.117492e+01 3.115819e-01 7.266994e-01 1.488791e+00 1.276236e+00 1.913460e+00 1.975272e+00 1.013851e+00 1.039788e+00 2.058879e+00 1.735165e+00 1.045352e+00 1.163016e+00 2.691682e-01 5.475255e-02 1.170251e-01 1.409127e-01 1.724564e-01 2.667077e-01 2.171016e-01 1.526258e-01 2.215443e-01 2.309064e-01 2.731111e-01 1.962391e-01 1.957991e-01 4.082800e-02
<GCONST> 8.554862e+01
<STATE> 5
<MEAN> 39
 -1.308387e+01 -8.642704e+00 5.046159e+00 -3.262125e+00 3.055784e+00 -2.415415e+01 -7.681146e+00 7.913226e-01 4.718368e+00 -1.089555e+01 -5.935395e-02 -3.864689e+00 7.431345e+01 -1.443728e-01 -3.383368e-01 2.453981e-01 7.678828e-01 -6.720238e-01 2.654729e-01 1.109133e-01 8.807703e-01 -7.351031e-01 3.610224e-01 -4.443312e-01 2.607677e-01 -1.077983e+00 4.365646e-02 6.412636e-02 -1.163071e-01 -1.206689e-01 5.383454e-02 1.818582e-01 4.580025e-02 -1.004924e-01 -2.458026e-03 -2.689255e-03 -3.965924e-03 1.414565e-02 9.090899e-03
<VARIANCE> 39
 7.198080e+00 3.375628e+01 4.463145e+01 4.527789e+01 7.613070e+01 4.479551e+01 2.063977e+01 9.005920e+01 5.536662e+01 4.066838e+01 3.157112e+01 3.435349e+01 5.690663e+01 8.971975e-01 1.782142e+00 2.443524e+00 1.742814e+00 3.440245e+00 3.752858e+00 1.682329e+00 3.227375e+00 1.997940e+00 3.251730e+00 1.860741e+00 1.503920e+00 4.234989e-01 1.414858e-01 2.138423e-01 1.975007e-01 2.804114e-01 5.375426e-01 4.638236e-01 2.799165e-01 4.578929e-01 3.569955e-01 6.505465e-01 3.653710e-01 2.449452e-01 7.767671e-02
<GCONST> 1.111391e+02
<TRANSP> 6
 0.000000e+00 1.000000e+00 0.000000e+00 0.000000e+00 0.000000e+00 0.000000e+00
 0.000000e+00 9.553597e-01 4.464032e-02 0.000000e+00 0.000000e+00 0.000000e+00
 0.000000e+00 0.000000e+00 9.730893e-01 2.691071e-02 0.000000e+00 0.000000e+00
 0.000000e+00 0.000000e+00 0.000000e+00 9.430333e-01 5.696672e-02 0.000000e+00
 0.000000e+00 0.000000e+00 0.000000e+00 0.000000e+00 9.523463e-01 4.765370e-02
 0.000000e+00 0.000000e+00 0.000000e+00 0.000000e+00 0.000000e+00 0.000000e+00
<ENDHMM>
