~o
<STREAMINFO> 1 39
<VECSIZE> 39<NULLD><MFCC_D_A_0><DIAGC>
~h "two"
<BEGINHMM>
<NUMSTATES> 6
<STATE> 2
<MEAN> 39
 -2.023986e+01 -8.883678e+00 7.731385e-01 -8.156903e+00 2.104036e+00 -1.010754e+01 2.197198e-01 -1.205009e+01 -4.211780e+00 2.949504e-01 4.798713e+00 -7.703285e+00 8.995045e+01 7.405334e-01 6.409557e-01 -3.284317e-01 -2.686236e-01 5.968177e-01 -6.610594e-01 9.075098e-02 -1.084407e+00 -1.186261e+00 -3.518459e-01 -4.725073e-02 1.343919e-01 1.204629e+00 4.084145e-01 4.524841e-01 -5.194519e-02 1.914179e-01 -1.138605e-01 -7.119366e-02 2.855754e-02 7.491373e-02 -3.232236e-01 -3.263715e-01 -4.572313e-01 1.696158e-01 -6.227273e-01
<VARIANCE> 39
 2.312452e+01 1.461003e+01 1.712322e+01 1.010679e+01 2.135970e+01 2.435963e+01 1.570795e+01 2.322048e+01 1.902064e+01 1.706248e+01 2.051081e+01 1.455399e+01 4.724753e+01 3.879385e+00 3.949891e+00 1.781293e+00 1.598035e+00 1.933842e+00 5.232847e+00 1.749092e+00 2.035097e+00 3.797686e+00 3.167953e+00 5.778705e+00 2.240717e+00 1.226234e+01 3.555288e-01 3.610332e-01 3.873743e-01 2.712871e-01 5.474094e-01 1.078289e+00 3.661372e-01 3.808905e-01 5.134997e-01 5.112433e-01 5.970221e-01 3.757581e-01 1.679244e+00
<GCONST> 1.159415e+02
<STATE> 3
<MEAN> 39
 -7.195064e+00 5.078964e+00 3.043739e-01 -1.039780e+01 -3.248214e+00 -2.004865e+01 3.893580e+00 -1.580685e+01 -1.819082e+01 -1.090076e+01 -7.318617e+00 -5.068708e+00 9.086620e+01 4.275361e-01 6.165756e-01 4.501529e-01 -5.757008e-01 -5.070913e-01 -1.987066e-01 6.086310e-01 5.149015e-01 -1.373399e-01 -9.396525e-01 -5.890282e-01 -1.950940e-01 -3.256866e-03 -1.546154e-01 -1.756666e-01 1.444369e-01 -1.857423e-01 1.138728e-01 7.989743e-02 1.312785e-01 1.237205e-01 2.951579e-01 -4.629652e-03 2.364331e-01 -8.237301e-02 -1.461702e-01
<VARIANCE> 39
 4.120880e+00 1.318826e+01 1.350176e+01 1.587361e+01 2.040043e+01 4.317069e+01 4.948693e+01 2.976732e+01 2.835930e+01 3.086930e+01 1.586117e+01 2.069828e+01 1.047947e+01 8.400398e-01 1.351492e+00 1.379735e+00 1.939402e+00 2.114959e+00 5.514405e+00 4.577577e+00 3.183007e+00 3.859977e+00 2.841354e+00 2.076585e+00 1.573165e+00 1.286960e+00 1.517787e-01 2.647652e-01 2.558679e-01 4.386263e-01 3.018952e-01 1.126489e+00 8.460020e-01 6.550328e-01 5.893482e-01 5.566482e-01 4.508128e-01 3.039067e-01 2.079625e-01
<GCONST> 1.083686e+02
<STATE> 4
<MEAN> 39
 -7.161058e+00 8.888516e+00 6.963372e+00 -1.838507e+01 6.297288e-02 -1.844000e+01 8.681071e+00 -5.470620e+00 -1.140687e+01 -1.435997e+01 -9.646800e+00 -8.911117e+00 7.827399e+01 -1.964268e-02 -4.342349e-01 -3.502137e-01 -4.137116e-02 9.672938e-02 9.868024e-01 -6.666417e-01 7.847016e-01 6.351576e-01 9.330527e-01 3.331091e-01 2.269115e-01 -1.468805e+00 -2.576429e-02 -1.413302e-01 -2.178749e-01 3.445370e-01 -1.122453e-01 2.799268e-01 -2.660679e-01 1.733655e-02 7.989767e-02 2.664451e-01 1.073604e-01 1.871905e-01 -5.898695e-03
<VARIANCE> 39
 8.229219e+00 3.392639e+01 2.426439e+01 2.871954e+01 3.035391e+01 5.424185e+01 5.204456e+01 2.074281e+01 1.822914e+01 7.517937e+01 2.395190e+01 3.460385e+01 4.658465e+01 1.155316e+00 4.446311e+00 4.402611e+00 5.147048e+00 4.165464e+00 7.243289e+00 5.918005e+00 2.177085e+00 1.973847e+00 5.822785e+00 2.513340e+00 4.270483e+00 1.720170e+00 2.354336e-01 7.854522e-01 8.219591e-01 1.146289e+00 6.532448e-01 1.089285e+00 1.120596e+00 4.813293e-01 3.416750e-01 1.042963e+00 3.688223e-01 7.130173e-01 3.725555e-01
<GCONST> 1.260482e+02
<STATE> 5
<MEAN> 39
 -6.321497e+00 2.668615e+00 2.946526e+00 -3.741448e+00 -1.819686e+00 -1.827306e+00 4.648174e-01 4.899357e-01 -2.894855e+00 -2.680438e+00 -3.181429e+00 -2.939435e+00 6.477321e+01 -4.287619e-01 -2.150780e-01 3.408021e-01 1.723295e+00 4.594079e-01 7.183250e-01 -1.203582e-01 -8.078819e-02 4.867671e-01 3.058787e-01 2.431970e-01 1.420859e-01 -7.172544e-01 -8.262821e-02 5.304030e-02 8.725205e-02 -1.956153e-01 2.101812e-01 -2.241434e-01 8.606962e-02 -1.103758e-01 -1.269120e-01 -1.109572e-01 -9.841752e-02 -1.043050e-01 9.763837e-02
<VARIANCE> 39
 1.130609e+01 1.645041e+01 2.730242e+01 5.018060e+01 2.228226e+01 1.518013e+01 1.297439e+01 1.455618e+01 1.033482e+01 8.839010e+00 9.947604e+00 8.120694e+00 5.260116e+00 1.091072e+00 1.248125e+00 1.900946e+00 3.899104e+00 2.185495e+00 1.382944e+00 1.304742e+00 1.720751e+00 1.253435e+00 1.288494e+00 1.297742e+00 1.002713e+00 8.710961e-01 1.748406e-01 2.934576e-01 4.527163e-01 5.242003e-01 5.150941e-01 3.577187e-01 2.938552e-01 3.745078e-01 2.709274e-01 3.006063e-01 3.271489e-01 2.647518e-01 1.610070e-01
<GCONST> 9.550134e+01
<TRANSP> 6
 0.000000e+00 1.000000e+00 0.000000e+00 0.000000e+00 0.000000e+00 0.000000e+00
 0.000000e+00 8.946600e-01 1.053400e-01 0.000000e+00 0.000000e+00 0.000000e+00
 0.000000e+00 0.000000e+00 9.277985e-01 7.220151e-02 0.000000e+00 0.000000e+00
 0.000000e+00 0.000000e+00 0.000000e+00 9.240629e-01 7.593711e-02 0.000000e+00
 0.000000e+00 0.000000e+00 0.000000e+00 0.000000e+00 8.967814e-01 1.032187e-01
 0.000000e+00 0.000000e+00 0.000000e+00 0.000000e+00 0.000000e+00 0.000000e+00
<ENDHMM>
