~o
<STREAMINFO> 1 39
<VECSIZE> 39<NULLD><MFCC_D_A_0><DIAGC>
~h "divide"
<BEGINHMM>
<NUMSTATES> 6
<STATE> 2
<MEAN> 39
 -9.253695e+00 2.898137e+00 5.338095e+00 -6.161910e+00 6.655284e+00 -1.780211e+01 -8.142522e+00 -9.775120e+00 -8.973162e+00 -1.548023e+01 -4.152322e+00 -9.068635e+00 8.191544e+01 9.088989e-01 1.815500e-01 -6.113664e-01 -5.454066e-01 -2.241895e-01 -2.099552e-01 1.383347e-01 -1.663828e-01 -7.429544e-01 -1.655781e-01 2.925647e-01 1.048838e-01 4.639318e-01 1.808556e-02 -8.784512e-02 -2.186304e-01 -6.605754e-02 -9.468088e-02 1.943980e-01 1.593332e-01 3.721347e-02 1.021594e-01 1.897145e-01 6.551399e-02 7.319968e-02 -1.923901e-01
<VARIANCE> 39
 3.845290e+01 3.087397e+01 4.361646e+01 6.363295e+01 3.182196e+01 6.462695e+01 5.094112e+01 3.259877e+01 3.594114e+01 2.700185e+01 2.918957e+01 2.136293e+01 1.550288e+01 4.263870e+00 2.898515e+00 3.396649e+00 5.354556e+00 3.174943e+00 7.760561e+00 5.280615e+00 1.939836e+00 3.609510e+00 4.011422e+00 3.050949e+00 2.282432e+00 2.432797e+00 8.621733e-01 3.864810e-01 2.654372e-01 8.188881e-01 3.448980e-01 9.728993e-01 7.117671e-01 3.797060e-01 8.268599e-01 6.807299e-01 5.084133e-01 3.877289e-01 5.685282e-01
<GCONST> 1.264429e+02
<STATE> 3
<MEAN> 39
 -1.517700e+00 -2.255455e+00 -1.687931e+01 -1.851313e+01 1.018930e+00 -1.393653e+01 1.669212e+00 -1.041878e+01 -4.168276e+00 -1.408199e+01 5.816324e+00 -4.788096e+00 8.821864e+01 -2.361173e-01 -1.493329e-01 -4.599044e-02 3.248230e-01 7.650785e-01 -3.596500e-01 -3.472117e-01 2.381050e-01 1.140519e+00 7.617870e-03 4.850216e-01 -2.419800e-01 4.364149e-02 -1.141782e-01 4.937015e-02 2.901731e-01 9.938607e-02 4.764717e-02 -1.298774e-01 -1.827760e-01 5.989981e-02 -3.949048e-02 -6.526817e-02 -1.654002e-02 -2.226270e-02 -5.120608e-02
<VARIANCE> 39
 2.993509e+00 7.409379e+00 1.874343e+01 7.246210e+00 3.766273e+01 3.330192e+01 2.667999e+01 2.988174e+01 5.623236e+01 2.405541e+01 3.416682e+01 1.350256e+01 3.830429e+00 2.910377e-01 5.503476e-01 2.795900e+00 6.886585e-01 1.125914e+00 2.488403e+00 1.934266e+00 1.045324e+00 1.232813e+00 1.409363e+00 1.487680e+00 9.637479e-01 7.967705e-02 2.854155e-02 1.128628e-01 1.347941e-01 1.019294e-01 1.793909e-01 2.293815e-01 1.318432e-01 1.650910e-01 2.341761e-01 2.490989e-01 2.885419e-01 1.573965e-01 2.168438e-02
<GCONST> 8.032294e+01
<STATE> 4
<MEAN> 39
 -1.023687e+01 -2.668964e+00 3.781954e+00 -7.358411e+00 1.100743e+01 -2.923480e+01 -1.315514e+01 -5.341043e+00 9.664615e-01 -1.523722e+01 9.371699e+00 -6.807297e+00 8.547648e+01 -5.761774e-01 5.055746e-01 1.991221e+00 1.131045e+00 3.162301e-01 -2.086280e-02 -2.064132e-01 -2.058855e-01 -1.357539e+00 -4.696386e-01 -1.315775e+00 1.954333e-01 -1.276028e+00 1.887221e-01 4.151960e-02 -5.805523e-01 -2.195245e-01 -1.381191e-01 7.201123e-01 4.747368e-01 -1.388038e-01 -1.067149e-01 2.462209e-01 -1.645715e-01 1.261819e-01 -3.834012e-01
<VARIANCE> 39
 5.476345e+00 1.794172e+01 5.506296e+01 1.762369e+01 1.349514e+01 1.909221e+01 1.802750e+01 2.375640e+01 3.301747e+01 1.746455e+01 2.177242e+01 1.187007e+01 1.370996e+01 5.082840e-01 9.000726e-01 3.289033e+00 7.617028e-01 1.168377e+00 5.508625e+00 4.095766e+00 1.414862e+00 1.172934e+00 1.626892e+00 1.652948e+00 9.412127e-01 1.674006e+00 2.844047e-02 2.460442e-01 4.389175e-01 1.690716e-01 4.277827e-01 3.227533e-01 3.128906e-01 2.875134e-01 3.407817e-01 5.052405e-01 2.441472e-01 2.324569e-01 1.147554e-01
<GCONST> 9.589788e+01
<STATE> 5
<MEAN> 39
 -1.628639e+01 -6.396276e+00 1.562582e+00 -9.569751e+00 1.408123e+00 -1.187737e+01 -6.876418e+00 -7.895531e+00 -2.432795e+00 -5.114807e+00 3.964918e-01 -3.557034e+00 7.178465e+01 -3.297715e-01 -4.957906e-01 -3.685636e-01 -2.810252e-01 -6.656078e-01 9.426184e-01 1.608686e-01 2.792493e-01 2.414256e-01 9.593542e-01 -9.894654e-02 2.113565e-01 -7.073981e-01 -2.014848e-02 2.434110e-02 1.182331e-01 7.360320e-02 3.887033e-02 -1.624736e-01 -1.002038e-01 5.514633e-02 2.083699e-02 -8.185147e-02 1.763451e-02 -2.773044e-02 1.063045e-01
<VARIANCE> 39
 3.859279e+01 2.491496e+01 1.739734e+01 2.616272e+01 2.756552e+01 2.988931e+01 2.071698e+01 1.934908e+01 2.129804e+01 3.578337e+01 2.231137e+01 2.316512e+01 7.489571e+01 4.332851e+00 1.848970e+00 3.987734e+00 3.275378e+00 2.960590e+00 5.746607e+00 3.058705e+00 2.556777e+00 1.943812e+00 4.740059e+00 2.197198e+00 2.823624e+00 1.309266e+01 8.593556e-01 3.633171e-01 7.534161e-01 6.727896e-01 5.063949e-01 8.708606e-01 7.421104e-01 4.379974e-01 3.988163e-01 7.983289e-01 4.917799e-01 5.329331e-01 2.278964e+00
<GCONST> 1.252873e+02
<TRANSP> 6
 0.000000e+00 1.000000e+00 0.000000e+00 0.000000e+00 0.000000e+00 0.000000e+00
 0.000000e+00 9.486645e-01 5.133547e-02 0.000000e+00 0.000000e+00 0.000000e+00
 0.000000e+00 0.000000e+00 9.439322e-01 5.606782e-02 0.000000e+00 0.000000e+00
 0.000000e+00 0.000000e+00 0.000000e+00 8.934170e-01 1.065831e-01 0.000000e+00
 0.000000e+00 0.000000e+00 0.000000e+00 0.000000e+00 9.447579e-01 5.524211e-02
 0.000000e+00 0.000000e+00 0.000000e+00 0.000000e+00 0.000000e+00 0.000000e+00
<ENDHMM>
