~o
<STREAMINFO> 1 39
<VECSIZE> 39<NULLD><MFCC_D_A_0><DIAGC>
~h "ten"
<BEGINHMM>
<NUMSTATES> 6
<STATE> 2
<MEAN> 39
 -1.062978e+01 -1.074597e+01 1.905667e+00 -1.149376e+01 3.868969e+00 -1.818936e+01 9.670615e+00 -1.142095e+01 3.918891e+00 -2.752394e+00 3.759236e+00 -7.345984e+00 9.348625e+01 7.832396e-01 2.578835e-01 -5.864335e-01 -7.537835e-02 -1.890839e-01 -1.174621e+00 1.326855e-01 -2.256862e-01 -9.714026e-01 2.659369e-02 -3.509195e-01 -3.844817e-01 7.070358e-01 -1.785475e-02 2.182062e-01 -2.225211e-01 9.846060e-02 -1.964820e-01 1.309532e-01 -2.160016e-01 1.441456e-01 -3.053688e-01 -5.070229e-02 -1.308417e-01 1.454614e-01 -4.822136e-01
<VARIANCE> 39
 2.593543e+01 2.349407e+01 2.362278e+01 1.239121e+01 1.008454e+01 4.755575e+01 2.859233e+01 1.416286e+01 4.344205e+01 1.682126e+01 1.906464e+01 1.938111e+01 5.996440e+00 2.089147e+00 4.539870e+00 1.960264e+00 1.861673e+00 1.639975e+00 2.497446e+00 3.874213e+00 2.064420e+00 6.344972e+00 2.354661e+00 3.118556e+00 2.736476e+00 3.327919e+00 4.578325e-01 5.694430e-01 3.613177e-01 5.676502e-01 2.445070e-01 6.188037e-01 4.854527e-01 5.085700e-01 9.039058e-01 4.128492e-01 7.368888e-01 6.902855e-01 1.227911e+00
<GCONST> 1.156544e+02
<STATE> 3
<MEAN> 39
 -5.732311e+00 -2.327676e+00 -4.421922e+00 -1.580377e+01 1.050116e+00 -2.360768e+01 4.225565e+00 -1.325594e+01 -1.000896e+01 -4.542650e+00 8.689254e+00 -5.593198e+00 9.530531e+01 6.779894e-02 6.131489e-02 3.840218e-01 -5.505856e-01 7.681403e-01 7.426048e-02 5.124303e-02 -2.046534e-01 -2.383761e-01 -6.696367e-02 1.892600e+00 3.127840e-01 -2.540738e-01 -7.567274e-02 -1.434724e-01 2.460760e-01 1.190546e-02 3.108258e-01 -1.493466e-02 2.389909e-01 -7.435948e-02 1.910513e-01 1.441489e-02 9.594338e-02 -1.031782e-01 -1.835577e-01
<VARIANCE> 39
 2.404562e+00 8.528780e+00 8.054475e+00 1.431632e+01 2.063339e+01 2.087082e+01 3.447673e+01 1.152654e+01 1.697506e+01 1.813808e+01 6.392410e+01 2.580310e+01 4.633132e+00 9.078974e-02 7.257553e-01 1.076262e+00 4.790570e-01 1.760211e+00 1.103035e+00 2.198695e+00 9.320340e-01 1.587902e+00 1.486715e+00 1.457069e+00 1.842291e+00 2.437125e-01 3.723291e-02 1.844958e-01 1.013301e-01 1.127904e-01 2.048507e-01 2.230904e-01 3.117583e-01 1.660757e-01 4.831648e-01 3.204290e-01 5.824226e-01 2.794168e-01 3.817810e-02
<GCONST> 8.215509e+01
<STATE> 4
<MEAN> 39
 -6.532417e+00 2.678117e-01 5.088109e+00 -1.087199e+01 1.408463e+01 -1.668780e+01 4.411513e+00 -1.506160e+01 -1.180262e+01 -7.101664e+00 8.534751e+00 -5.032404e+00 8.086319e+01 4.666619e-02 5.853376e-01 4.474691e-01 1.303315e+00 2.578387e-01 1.167058e+00 -5.338567e-01 4.236945e-01 -2.755090e-01 -1.883312e-01 -1.739525e+00 2.003466e-01 -1.767911e+00 8.945533e-02 1.108602e-02 -1.670539e-01 1.201390e-01 -2.711146e-01 5.184435e-02 -1.265671e-01 1.493803e-01 -5.723917e-02 4.340794e-02 -1.311193e-01 1.719625e-02 -1.762666e-02
<VARIANCE> 39
 1.691564e+01 2.884965e+01 9.405712e+00 3.775972e+01 1.845956e+01 4.140911e+01 2.127784e+01 1.420562e+01 1.857666e+01 1.699019e+01 7.140603e+01 2.484500e+01 4.380023e+01 2.162594e+00 1.674523e+00 1.308517e+00 2.942333e+00 3.182454e+00 2.010114e+00 2.025650e+00 1.748334e+00 2.302607e+00 1.177915e+00 3.034621e+00 1.704182e+00 1.766803e+00 4.408537e-01 3.551703e-01 1.910516e-01 6.954171e-01 4.032378e-01 4.635959e-01 4.204070e-01 2.899397e-01 4.998700e-01 2.189419e-01 7.567534e-01 3.121984e-01 3.544828e-01
<GCONST> 1.097247e+02
<STATE> 5
<MEAN> 39
 -5.317007e+00 2.605213e+00 5.482114e+00 6.206576e-01 5.432715e+00 -6.037077e+00 -3.472035e+00 -7.056746e+00 -1.361533e+01 -7.061344e+00 -3.931426e+00 -6.401129e+00 6.690154e+01 -3.904788e-01 -4.104069e-01 -3.197108e-01 2.865271e-01 -1.091953e+00 7.516845e-01 -3.768274e-01 6.265642e-01 5.399596e-01 2.434154e-01 -2.281538e-01 3.420450e-02 -8.376243e-01 -1.096019e-01 -7.032003e-02 -5.081910e-02 -1.522136e-01 1.720025e-02 -3.869397e-02 9.063752e-02 -5.134801e-02 1.961654e-01 4.260500e-02 9.412603e-02 5.750724e-02 9.144400e-02
<VARIANCE> 39
 8.934044e+00 1.223666e+01 9.827541e+00 1.777735e+01 2.230977e+01 1.914106e+01 1.407462e+01 1.637755e+01 1.877363e+01 2.082674e+01 1.826075e+01 2.170584e+01 9.882097e+00 5.811081e-01 9.047484e-01 1.575019e+00 2.390841e+00 1.027857e+00 1.347038e+00 1.557580e+00 1.631881e+00 1.660137e+00 1.975748e+00 1.596329e+00 2.152351e+00 2.533987e-01 8.907741e-02 1.302905e-01 3.007392e-01 3.468627e-01 2.032616e-01 2.841267e-01 2.635752e-01 3.117091e-01 2.514773e-01 3.735977e-01 2.672325e-01 3.488419e-01 3.342637e-02
<GCONST> 9.006066e+01
<TRANSP> 6
 0.000000e+00 1.000000e+00 0.000000e+00 0.000000e+00 0.000000e+00 0.000000e+00
 0.000000e+00 9.186026e-01 8.139735e-02 0.000000e+00 0.000000e+00 0.000000e+00
 0.000000e+00 0.000000e+00 9.091485e-01 9.085158e-02 0.000000e+00 0.000000e+00
 0.000000e+00 0.000000e+00 0.000000e+00 9.121815e-01 8.781852e-02 0.000000e+00
 0.000000e+00 0.000000e+00 0.000000e+00 0.000000e+00 9.124386e-01 8.756146e-02
 0.000000e+00 0.000000e+00 0.000000e+00 0.000000e+00 0.000000e+00 0.000000e+00
<ENDHMM>
