~o
<STREAMINFO> 1 39
<VECSIZE> 39<NULLD><MFCC_D_A_0><DIAGC>
~h "one"
<BEGINHMM>
<NUMSTATES> 6
<STATE> 2
<MEAN> 39
 -4.896219e+00 1.075882e+01 1.261643e+00 -1.334567e+01 -4.817359e+00 -1.783438e+01 -2.146463e+00 -4.088733e+00 -6.239651e+00 -9.124420e+00 -5.545599e+00 -9.044044e+00 8.101952e+01 6.830013e-01 -8.414214e-01 -1.010730e+00 -3.327640e-01 -9.391387e-01 -4.013636e-02 -1.423133e-02 1.786142e-01 2.064793e-01 -7.671260e-02 -1.600301e-01 3.335206e-01 2.466557e+00 -2.108830e-01 -3.451051e-01 -1.767641e-01 1.322512e-01 1.772185e-01 3.008690e-01 1.201557e-01 1.317230e-01 2.246807e-01 1.201643e-01 1.048456e-01 1.450371e-01 -1.541241e-01
<VARIANCE> 39
 1.974783e+01 5.236944e+01 2.885292e+01 4.849432e+01 6.286748e+01 6.312159e+01 6.015519e+01 2.467800e+01 2.583304e+01 4.372099e+01 2.312862e+01 2.933924e+01 9.229434e+01 1.734047e+00 8.788483e+00 2.821123e+00 3.509651e+00 5.672841e+00 6.343358e+00 2.973641e+00 2.086865e+00 3.949635e+00 5.218080e+00 2.082087e+00 2.456060e+00 2.827798e+00 2.955239e-01 1.510029e+00 5.516105e-01 6.885235e-01 1.097032e+00 9.710203e-01 5.146978e-01 3.748218e-01 7.318721e-01 1.001100e+00 4.971058e-01 3.663122e-01 5.444362e-01
<GCONST> 1.296684e+02
<STATE> 3
<MEAN> 39
 -5.861846e+00 2.859090e+00 -5.738437e+00 -1.520863e+01 -1.806870e+00 -1.296912e+01 1.585653e+00 -1.632454e+00 -4.411520e+00 -1.279217e+01 4.618711e+00 1.391600e-02 9.299321e+01 -4.347230e-01 4.933026e-01 3.798864e-01 7.520250e-02 1.191767e+00 -1.135666e-01 2.914009e-01 -4.730838e-01 -4.913752e-01 -3.717944e-01 1.858137e+00 1.342186e-01 -3.657560e-01 1.713676e-03 1.901857e-01 2.251309e-01 1.467933e-01 1.400562e-01 -2.418836e-02 -1.120602e-01 -1.374286e-01 -8.571397e-02 9.371703e-02 -1.570248e-01 -1.358923e-01 -2.611268e-01
<VARIANCE> 39
 5.373952e+00 1.241887e+01 1.583487e+01 1.132776e+01 3.597246e+01 2.355754e+01 3.310331e+01 3.121454e+01 4.666243e+01 3.081278e+01 9.800388e+01 2.364547e+01 4.522169e+00 1.770207e-01 8.543170e-01 1.215215e+00 1.417837e+00 1.757188e+00 2.030504e+00 1.475185e+00 2.671428e+00 2.145151e+00 2.896930e+00 3.534265e+00 2.752909e+00 6.360539e-01 4.462264e-02 1.946400e-01 1.885593e-01 3.355879e-01 2.790453e-01 5.041060e-01 1.791460e-01 4.258410e-01 4.830846e-01 5.256994e-01 1.024976e+00 3.373170e-01 1.000568e-01
<GCONST> 9.945068e+01
<STATE> 4
<MEAN> 39
 -7.747952e+00 5.287174e+00 3.881198e+00 -5.936371e+00 1.678299e+01 -1.033888e+01 -3.055935e+00 -7.541772e+00 -4.556711e+00 -7.613261e+00 6.523447e+00 -5.306704e+00 7.761425e+01 2.970975e-01 -5.194730e-01 5.657019e-01 1.093457e+00 6.466558e-01 7.534401e-01 -5.675218e-01 -1.969801e-02 3.005863e-01 6.555156e-01 -1.367135e+00 -1.283417e-01 -1.525117e+00 6.845601e-02 -1.263865e-01 -2.090205e-01 -7.861356e-02 -3.553785e-01 -5.464767e-02 3.049272e-02 9.539291e-02 -8.580444e-03 -4.764083e-02 9.673754e-02 5.403515e-02 1.057866e-01
<VARIANCE> 39
 1.616064e+01 1.476254e+01 1.653977e+01 2.913176e+01 4.064877e+01 3.879435e+01 2.498769e+01 2.283902e+01 5.949960e+01 2.785503e+01 7.672108e+01 1.382031e+01 3.024525e+01 6.101958e-01 6.086313e-01 1.399560e+00 3.361639e+00 4.312276e+00 2.231377e+00 1.793362e+00 2.303856e+00 2.022827e+00 2.153822e+00 3.734106e+00 9.778677e-01 1.273943e+00 1.174438e-01 1.421057e-01 2.159580e-01 6.728702e-01 6.168314e-01 4.264919e-01 3.217005e-01 3.964451e-01 3.482707e-01 3.879163e-01 7.576137e-01 1.426947e-01 2.006189e-01
<GCONST> 1.068288e+02
<STATE> 5
<MEAN> 39
 -5.674304e+00 8.464169e-01 4.011620e+00 3.264573e+00 8.561812e+00 -3.339002e+00 -6.552037e+00 -6.941226e+00 -5.370182e+00 -1.466801e+00 1.012701e+00 -5.358065e+00 6.693930e+01 -3.848463e-01 -3.195904e-01 -2.040335e-01 3.067517e-01 -7.559421e-01 4.971181e-01 1.083581e-01 2.946304e-01 8.619641e-02 3.918393e-01 -2.322791e-01 6.526937e-02 -6.811770e-01 -7.358543e-02 1.869420e-02 3.654863e-02 -1.170531e-01 1.138472e-01 -3.899968e-02 5.378764e-02 2.356610e-02 1.890956e-02 -5.054127e-02 6.230129e-03 2.856099e-02 4.732962e-02
<VARIANCE> 39
 1.565143e+01 1.952260e+01 1.634657e+01 8.288973e+00 2.795765e+01 1.848282e+01 2.530249e+01 2.114332e+01 1.986799e+01 5.436535e+01 2.469409e+01 2.080933e+01 1.470359e+01 6.576381e-01 7.042987e-01 9.334805e-01 9.750616e-01 1.671279e+00 1.481557e+00 1.792542e+00 1.687204e+00 1.465232e+00 1.979888e+00 1.246909e+00 1.547448e+00 2.089562e-01 7.989556e-02 1.167809e-01 1.431528e-01 1.408557e-01 2.586184e-01 2.948769e-01 2.920965e-01 3.487366e-01 2.704845e-01 3.473293e-01 2.578117e-01 3.178390e-01 3.471776e-02
<GCONST> 9.039597e+01
<TRANSP> 6
 0.000000e+00 1.000000e+00 0.000000e+00 0.000000e+00 0.000000e+00 0.000000e+00
 0.000000e+00 8.927291e-01 1.072709e-01 0.000000e+00 0.000000e+00 0.000000e+00
 0.000000e+00 0.000000e+00 9.222894e-01 7.771062e-02 0.000000e+00 0.000000e+00
 0.000000e+00 0.000000e+00 0.000000e+00 9.111118e-01 8.888816e-02 0.000000e+00
 0.000000e+00 0.000000e+00 0.000000e+00 0.000000e+00 9.245819e-01 7.541803e-02
 0.000000e+00 0.000000e+00 0.000000e+00 0.000000e+00 0.000000e+00 0.000000e+00
<ENDHMM>
