~o
<STREAMINFO> 1 39
<VECSIZE> 39<NULLD><MFCC_D_A_0><DIAGC>
~h "eight"
<BEGINHMM>
<NUMSTATES> 6
<STATE> 2
<MEAN> 39
 -7.488255e+00 -4.498336e+00 1.990917e+00 -7.328224e+00 3.685159e+00 -3.448512e+01 -2.412416e+00 -1.104683e+01 -1.778005e+00 -1.100158e+01 2.076521e+00 -6.995557e+00 9.055779e+01 -9.086940e-02 7.806247e-01 1.194978e+00 9.544665e-02 7.680083e-01 -4.501387e-01 -4.748461e-01 9.761290e-02 -1.143480e-01 -2.045827e+00 -3.312229e-01 -1.890508e-01 3.350248e-01 -1.679802e-01 9.286302e-02 5.016673e-02 7.851548e-02 4.091377e-02 4.842658e-01 2.436901e-02 1.707739e-01 -7.221054e-02 -3.288156e-02 -1.070969e-01 7.635618e-02 -5.669879e-01
<VARIANCE> 39
 8.739030e+00 2.864217e+01 5.290050e+01 1.265635e+01 3.103146e+01 3.901128e+01 3.873494e+01 2.162910e+01 2.240444e+01 1.213170e+02 1.967071e+01 2.648438e+01 3.408368e+01 1.270276e+00 2.141097e+00 1.772057e+00 1.352813e+00 2.285180e+00 5.318786e+00 2.726869e+00 1.870715e+00 2.041929e+00 2.513461e+00 1.764825e+00 1.965271e+00 7.570820e+00 1.338539e-01 5.787259e-01 3.807557e-01 2.136386e-01 4.989091e-01 1.585024e+00 5.954708e-01 3.141708e-01 3.818937e-01 9.006276e-01 4.359763e-01 3.378011e-01 5.956520e-01
<GCONST> 1.156551e+02
<STATE> 3
<MEAN> 39
 -1.338016e+01 -7.465901e-01 5.007590e+00 -5.470796e+00 4.867139e+00 -1.651278e+01 -3.263157e+00 -3.483760e+00 -3.259553e+00 -1.042265e+01 -2.350764e+00 -3.330211e+00 6.771352e+01 -5.148316e-02 -2.599789e-01 -1.090997e+00 -4.272882e-02 -1.018066e+00 2.300879e+00 1.098539e-01 3.763627e-01 6.724133e-02 1.755459e+00 -1.649030e-01 5.130308e-01 -1.518111e+00 1.338323e-02 -1.284680e-01 -2.777959e-02 -1.256125e-01 -1.851771e-02 -1.347423e-01 2.316490e-02 -5.265588e-02 8.208242e-02 -1.354321e-02 9.578028e-02 -4.904483e-02 3.622884e-01
<VARIANCE> 39
 7.635385e+00 9.307039e+00 4.008739e+01 2.114713e+01 7.481924e+01 1.242594e+02 1.787027e+01 1.690685e+01 2.140512e+01 1.223422e+02 3.371355e+01 2.873107e+01 4.492452e+01 9.898157e-01 8.937780e-01 2.599916e+00 2.141903e+00 4.464634e+00 2.325858e+00 2.329317e+00 1.884189e+00 2.009282e+00 5.399185e+00 2.604135e+00 2.200339e+00 1.577946e+00 2.387846e-01 1.709846e-01 7.164724e-01 5.615894e-01 9.004290e-01 5.450886e-01 4.792525e-01 3.446950e-01 4.049556e-01 1.193141e+00 4.541566e-01 4.133319e-01 3.791465e-01
<GCONST> 1.160917e+02
<STATE> 4
<MEAN> 39
 -2.146694e+01 -7.809807e+00 2.118710e+00 -1.401333e+01 3.680659e+00 -7.501169e+00 -3.153661e-01 -5.363815e+00 1.800334e+00 -5.760152e+00 1.297900e+00 -4.783206e+00 7.927013e+01 -2.182875e+00 -1.048084e+00 1.135026e+00 -2.124835e+00 1.231252e+00 -1.142798e+00 4.568330e-01 -1.309126e+00 1.511926e+00 -8.609063e-01 9.480152e-01 -1.045939e+00 5.347686e+00 2.791815e-01 2.240213e-01 1.760448e-01 4.785757e-01 -3.166873e-01 1.421448e-02 -6.345084e-02 -2.200625e-01 2.055390e-02 9.385527e-02 -9.176954e-02 4.882084e-02 -9.742926e-02
<VARIANCE> 39
 5.126779e+01 2.562902e+01 3.197424e+01 5.522589e+01 3.993145e+01 2.203648e+01 2.050457e+01 2.261842e+01 2.578243e+01 1.790528e+01 1.108020e+01 2.037052e+01 2.162596e+02 3.338609e+00 2.804975e+00 3.432370e+00 6.523554e+00 4.937819e+00 1.640108e+00 2.922313e+00 1.689584e+00 1.467700e+00 1.832153e+00 1.086940e+00 1.733620e+00 9.736276e+00 1.213599e+00 6.303644e-01 7.696291e-01 1.598755e+00 1.076126e+00 5.059358e-01 5.373199e-01 3.474565e-01 4.861568e-01 4.903834e-01 2.368722e-01 4.255759e-01 3.906488e+00
<GCONST> 1.244045e+02
<STATE> 5
<MEAN> 39
 -1.564364e+01 -8.252461e+00 8.060924e+00 -9.806979e+00 1.562112e+00 -8.432893e+00 2.008270e+00 -1.052338e+01 3.801944e+00 -4.266331e+00 4.019150e+00 -7.459648e+00 8.402138e+01 1.013741e+00 3.721158e-01 -1.924085e-01 8.676619e-01 -4.040317e-01 5.512851e-01 -1.030229e-01 4.487915e-01 -5.164796e-01 5.112870e-01 -2.503181e-01 2.446396e-01 -1.885560e+00 -6.102838e-02 1.086584e-03 -1.022759e-01 -3.837405e-02 6.661357e-02 9.153809e-02 3.668211e-03 1.486383e-01 -3.298611e-02 -2.527816e-02 -7.141151e-02 4.006989e-02 -1.830833e-01
<VARIANCE> 39
 4.073437e+01 1.572751e+01 1.931703e+01 2.218292e+01 1.289513e+01 1.849333e+01 2.065755e+01 2.692156e+01 2.524976e+01 2.080272e+01 1.420706e+01 1.467185e+01 1.358295e+02 1.211055e+00 1.311706e+00 1.811323e+00 1.210025e+00 1.241717e+00 1.981078e+00 2.227168e+00 1.926161e+00 1.618019e+00 1.382041e+00 1.573744e+00 1.536608e+00 2.053900e+00 1.992328e-01 2.677775e-01 2.716359e-01 2.751773e-01 2.476053e-01 4.191959e-01 3.671086e-01 2.857528e-01 2.873855e-01 2.746409e-01 2.861866e-01 2.558921e-01 2.859055e-01
<GCONST> 1.020717e+02
<TRANSP> 6
 0.000000e+00 1.000000e+00 0.000000e+00 0.000000e+00 0.000000e+00 0.000000e+00
 0.000000e+00 9.380190e-01 6.198101e-02 0.000000e+00 0.000000e+00 0.000000e+00
 0.000000e+00 0.000000e+00 9.304761e-01 6.952389e-02 0.000000e+00 0.000000e+00
 0.000000e+00 0.000000e+00 0.000000e+00 8.446327e-01 1.553673e-01 0.000000e+00
 0.000000e+00 0.000000e+00 0.000000e+00 0.000000e+00 9.380654e-01 6.193457e-02
 0.000000e+00 0.000000e+00 0.000000e+00 0.000000e+00 0.000000e+00 0.000000e+00
<ENDHMM>
