~o
<STREAMINFO> 1 39
<VECSIZE> 39<NULLD><MFCC_D_A_0><DIAGC>
~h "zero"
<BEGINHMM>
<NUMSTATES> 6
<STATE> 2
<MEAN> 39
 -2.529335e+01 -8.345802e+00 1.008138e+01 -1.912560e+01 1.164113e+01 -1.575113e+01 -4.547441e-01 -1.197532e+01 2.033323e+00 -8.311881e+00 1.079999e-01 -8.781686e+00 8.148526e+01 1.378731e+00 2.068859e-01 3.203828e-01 8.042052e-01 1.155317e-01 -1.739829e+00 -9.953712e-01 -9.879547e-01 -9.276591e-01 -6.225788e-01 -6.399246e-01 -7.557340e-01 1.600467e+00 5.395212e-01 1.671934e-01 -2.960497e-01 4.944096e-01 -3.906702e-01 -6.183819e-02 -2.255347e-01 1.311621e-01 -3.310341e-01 6.624018e-02 -1.520530e-01 1.464977e-01 -2.904795e-01
<VARIANCE> 39
 8.405702e+01 3.504005e+01 3.451727e+01 4.574262e+01 2.005617e+01 3.180596e+01 4.576928e+01 2.452036e+01 3.467257e+01 2.087020e+01 3.875471e+01 2.316185e+01 2.588607e+01 1.070896e+01 6.298624e+00 4.950018e+00 8.265445e+00 3.907352e+00 5.162752e+00 4.183852e+00 2.637888e+00 4.657220e+00 2.444033e+00 5.111389e+00 2.774398e+00 2.810795e+00 1.210793e+00 1.012660e+00 1.366993e+00 1.160803e+00 7.384108e-01 8.974726e-01 7.655486e-01 5.609896e-01 6.531572e-01 5.764160e-01 8.109296e-01 5.685566e-01 2.476882e-01
<GCONST> 1.328568e+02
<STATE> 3
<MEAN> 39
 -4.178499e+00 -2.668351e+00 4.235443e+00 -7.067022e+00 7.229924e+00 -3.375502e+01 -6.272984e+00 -1.985660e+01 -8.236238e+00 -1.076247e+01 -5.651561e+00 -1.084576e+01 8.657442e+01 5.870009e-01 1.477971e-01 -1.477198e+00 -1.923143e-01 2.711119e-01 -1.918440e-01 4.323314e-01 -2.874961e-01 -5.546777e-02 2.870259e-01 3.290549e-01 1.215524e-01 -1.499738e-01 -8.274321e-02 2.217366e-02 -3.295635e-02 -2.075163e-01 1.815532e-01 3.278752e-01 -1.322873e-02 5.034218e-02 7.576162e-02 -2.241317e-02 4.851934e-02 -2.212106e-02 -7.855209e-02
<VARIANCE> 39
 9.739161e+00 5.408551e+00 6.207178e+01 1.129024e+01 1.098750e+01 1.365009e+01 2.729798e+01 1.646604e+01 1.779237e+01 1.787704e+01 1.463702e+01 1.456045e+01 2.696471e+00 1.569049e-01 7.957180e-01 1.382058e+00 9.634159e-01 1.287956e+00 1.988716e+00 1.456517e+00 1.012939e+00 1.001727e+00 1.351921e+00 7.484599e-01 8.645765e-01 2.225353e-01 9.128661e-02 1.423232e-01 1.995580e-01 2.169031e-01 1.113064e-01 2.469355e-01 3.052478e-01 2.226118e-01 2.467846e-01 2.302825e-01 1.524668e-01 1.449899e-01 1.162222e-02
<GCONST> 7.842793e+01
<STATE> 4
<MEAN> 39
 3.191599e+00 4.728528e+00 -1.012134e+01 -2.133893e+01 1.686277e+01 -2.248598e+01 -5.143153e+00 -1.304226e+01 -1.019827e+01 -1.204087e+01 -8.075131e-01 -1.967735e+00 8.097225e+01 1.085957e-01 8.838286e-02 3.814249e-01 -7.067029e-01 -6.984534e-01 5.442137e-01 1.910822e-01 1.050367e+00 2.807576e-01 -7.868865e-01 -6.236001e-02 7.716851e-01 -2.149749e-01 -4.222179e-02 -4.301788e-02 1.310778e-01 1.192835e-01 -2.596522e-01 -7.652380e-02 1.052769e-01 3.064265e-02 3.865147e-02 -2.569903e-02 -8.608405e-02 -5.477348e-02 -2.153239e-02
<VARIANCE> 39
 3.044620e+00 9.474271e+00 9.039640e+00 2.986778e+01 4.703992e+01 2.076320e+01 3.235992e+01 7.043907e+01 2.868582e+01 3.232399e+01 2.907850e+01 4.262774e+01 3.635057e+00 1.593411e-01 9.312363e-01 5.609688e-01 1.507127e+00 4.479243e+00 1.603772e+00 3.418566e+00 2.537338e+00 1.361448e+00 1.641689e+00 2.553982e+00 1.148884e+00 2.711050e-01 1.835755e-02 1.023166e-01 7.670378e-02 1.504140e-01 2.651970e-01 2.275788e-01 5.975235e-01 4.694280e-01 1.811053e-01 2.819459e-01 4.425909e-01 2.556376e-01 3.737549e-02
<GCONST> 8.987165e+01
<STATE> 5
<MEAN> 39
 -1.349318e+00 3.516678e+00 -1.622771e+00 -1.606670e+01 -9.219677e+00 -1.065949e+01 2.026005e+00 1.704515e+00 -5.181404e+00 -1.411551e+01 -7.899626e+00 -3.846942e+00 6.969355e+01 -6.503999e-01 -2.620614e-01 1.998155e-02 6.978486e-01 -4.361567e-01 8.841790e-01 2.359809e-02 3.524119e-01 1.720012e-01 1.023646e+00 -2.037614e-02 -4.128779e-01 -8.665398e-01 -2.844982e-02 -4.346459e-02 -4.595307e-02 3.386025e-02 1.929733e-01 -1.695880e-02 -7.632458e-02 -1.004427e-01 -1.412400e-02 8.430539e-02 7.500529e-02 5.001849e-02 2.706667e-02
<VARIANCE> 39
 2.084297e+01 2.091640e+01 1.696075e+01 2.291054e+01 2.035958e+01 6.034134e+01 2.322900e+01 2.287701e+01 1.894986e+01 6.913973e+01 2.443492e+01 2.578742e+01 2.549230e+01 6.154854e-01 1.301607e+00 1.213202e+00 1.077161e+00 2.301820e+00 1.808052e+00 1.473493e+00 1.938248e+00 2.106221e+00 1.833894e+00 2.278753e+00 1.941236e+00 2.281232e-01 8.571429e-02 1.426018e-01 1.301553e-01 1.934690e-01 2.392851e-01 3.203798e-01 2.630425e-01 3.701957e-01 4.220394e-01 2.877530e-01 3.524056e-01 2.609122e-01 3.147971e-02
<GCONST> 9.691332e+01
<TRANSP> 6
 0.000000e+00 1.000000e+00 0.000000e+00 0.000000e+00 0.000000e+00 0.000000e+00
 0.000000e+00 9.114253e-01 8.857471e-02 0.000000e+00 0.000000e+00 0.000000e+00
 0.000000e+00 0.000000e+00 9.375626e-01 6.243739e-02 0.000000e+00 0.000000e+00
 0.000000e+00 0.000000e+00 0.000000e+00 9.450006e-01 5.499937e-02 0.000000e+00
 0.000000e+00 0.000000e+00 0.000000e+00 0.000000e+00 9.482183e-01 5.178163e-02
 0.000000e+00 0.000000e+00 0.000000e+00 0.000000e+00 0.000000e+00 0.000000e+00
<ENDHMM>
