~o
<STREAMINFO> 1 39
<VECSIZE> 39<NULLD><MFCC_D_A_0><DIAGC>
~h "nine"
<BEGINHMM>
<NUMSTATES> 6
<STATE> 2
<MEAN> 39
 -3.250699e+00 6.732178e+00 5.822667e+00 -6.120601e+00 1.271923e+01 -1.571249e+01 3.187243e+00 -1.227988e+01 -1.553847e+01 -5.822723e+00 -5.405372e+00 -3.578221e+00 7.693822e+01 5.094752e-01 -3.680605e-01 -4.729404e-01 -1.834272e+00 -6.629586e-01 -1.524685e+00 1.196057e+00 -3.166872e-01 2.182210e-01 -5.323996e-01 1.509973e+00 7.125761e-02 2.780947e+00 -2.958045e-01 -4.305938e-01 -4.808249e-01 -2.224050e-01 -3.552460e-01 1.655421e-01 9.089720e-02 4.123568e-01 3.516437e-01 -2.784938e-02 2.750351e-01 1.353370e-01 7.129573e-03
<VARIANCE> 39
 9.106149e+00 1.906372e+01 1.106594e+01 4.888370e+01 5.084379e+01 3.067630e+01 4.261407e+01 2.639023e+01 3.809496e+01 1.569784e+01 5.015570e+01 2.000275e+01 6.884823e+01 2.860181e+00 4.321553e+00 3.040359e+00 2.428590e+00 7.999888e+00 3.730742e+00 3.016768e+00 3.905176e+00 5.759019e+00 1.295111e+00 4.896629e+00 2.131552e+00 2.268482e+00 3.066396e-01 5.519474e-01 2.970879e-01 4.818646e-01 1.280993e+00 9.051677e-01 6.242032e-01 5.362598e-01 8.453128e-01 2.412615e-01 8.660513e-01 4.513508e-01 5.809534e-01
<GCONST> 1.228524e+02
<STATE> 3
<MEAN> 39
 -4.088771e+00 -1.592964e+00 -7.229115e+00 -2.017665e+01 7.498813e+00 -1.873976e+01 1.025331e+01 -6.457693e+00 -2.001553e+00 -1.693055e+01 5.929495e+00 2.630280e+00 9.296960e+01 -6.350765e-02 -2.308168e-01 -2.011742e-01 -7.179950e-02 6.016275e-01 -1.313992e-02 -3.517233e-01 1.681058e-01 7.828685e-01 -4.292833e-01 3.441794e-01 -2.705545e-02 -2.833785e-02 -3.980048e-02 4.373264e-02 2.255373e-01 1.609081e-01 7.462692e-02 -9.209251e-02 -1.101134e-01 -7.037213e-02 1.327412e-02 8.116436e-02 -5.253494e-02 -1.580231e-01 -1.323874e-01
<VARIANCE> 39
 2.439151e+00 6.492964e+00 1.605288e+01 8.817336e+00 2.203709e+01 2.270776e+01 1.567780e+01 1.046827e+01 3.701870e+01 3.694971e+01 2.280966e+01 2.025825e+01 2.934667e+00 2.055618e-01 4.702338e-01 1.548377e+00 7.716321e-01 1.269475e+00 2.895519e+00 1.148577e+00 1.045015e+00 1.492667e+00 2.553121e+00 1.892841e+00 2.423483e+00 2.602312e-01 3.218621e-02 8.769333e-02 1.415454e-01 2.095581e-01 2.698572e-01 4.832336e-01 1.492635e-01 1.719612e-01 2.830839e-01 3.548142e-01 4.416429e-01 2.546143e-01 1.165889e-01
<GCONST> 8.426208e+01
<STATE> 4
<MEAN> 39
 -1.021322e+01 -3.592813e+00 7.788961e+00 -1.062272e+01 1.368580e+01 -3.397383e+01 -1.089391e+00 -5.302651e+00 6.874259e+00 -1.602081e+01 8.176716e+00 -7.647178e+00 8.745348e+01 -5.333415e-01 1.548776e-02 1.782983e+00 1.203739e+00 -1.758522e-01 -1.121683e+00 -3.942636e-01 3.430278e-01 -4.672159e-01 -1.155346e-01 -1.001608e+00 -2.629138e-01 -8.141974e-01 8.385364e-03 -2.660630e-02 -5.536874e-02 -3.296746e-02 -4.988331e-02 2.736008e-01 1.360345e-01 4.707242e-02 -2.101929e-01 -5.615025e-02 -8.795339e-02 1.882125e-01 -7.279716e-02
<VARIANCE> 39
 7.991212e+00 5.548740e+00 5.928828e+01 2.786341e+01 1.089101e+01 3.186385e+01 1.009531e+01 1.479031e+01 2.069495e+01 1.050051e+01 3.002604e+01 1.660213e+01 1.373300e+01 2.045051e-01 4.880760e-01 4.851552e-01 5.528157e-01 7.775665e-01 1.797633e+00 1.172029e+00 1.238068e+00 1.691653e+00 1.243205e+00 1.104535e+00 1.621358e+00 2.119791e-01 3.372626e-02 6.592285e-02 6.993631e-02 8.083332e-02 1.440658e-01 1.812892e-01 1.481509e-01 1.996725e-01 1.735667e-01 2.192432e-01 2.323725e-01 1.840549e-01 1.729375e-02
<GCONST> 7.588040e+01
<STATE> 5
<MEAN> 39
 -1.526593e+01 -8.113732e+00 1.586833e+01 -2.190929e+00 4.766346e+00 -2.672820e+01 -1.150145e+00 3.064432e+00 -6.597451e+00 -1.330593e+01 -4.163568e-01 -1.168784e+00 7.276256e+01 1.929517e-02 -1.907850e-01 -1.100356e+00 4.954709e-01 -1.218708e+00 1.986802e+00 -3.325476e-02 5.916649e-01 -5.607272e-01 8.057343e-01 -2.151446e-01 5.054621e-01 -1.387497e+00 6.857897e-02 9.286488e-02 -2.119229e-01 -8.954232e-02 -3.090237e-02 8.466146e-02 -2.592577e-02 -1.367521e-01 1.984587e-01 4.859019e-02 2.304325e-02 -6.274591e-02 1.582527e-02
<VARIANCE> 39
 1.441611e+01 2.576330e+01 4.536969e+01 1.789012e+01 6.076093e+01 9.086919e+01 2.145791e+01 3.542093e+01 4.076112e+01 3.061014e+01 1.697068e+01 3.347121e+01 3.175476e+01 8.538021e-01 1.312293e+00 2.233730e+00 1.281592e+00 2.693172e+00 1.863410e+00 1.829813e+00 2.398145e+00 2.895403e+00 2.004947e+00 1.405446e+00 1.783335e+00 4.067466e-01 1.205082e-01 1.407629e-01 1.998690e-01 3.085077e-01 5.565588e-01 3.033167e-01 3.909865e-01 3.922825e-01 4.049304e-01 3.760733e-01 2.568550e-01 3.164068e-01 4.821746e-02
<GCONST> 1.045676e+02
<TRANSP> 6
 0.000000e+00 1.000000e+00 0.000000e+00 0.000000e+00 0.000000e+00 0.000000e+00
 0.000000e+00 8.967032e-01 1.032968e-01 0.000000e+00 0.000000e+00 0.000000e+00
 0.000000e+00 0.000000e+00 9.470717e-01 5.292831e-02 0.000000e+00 0.000000e+00
 0.000000e+00 0.000000e+00 0.000000e+00 9.210559e-01 7.894419e-02 0.000000e+00
 0.000000e+00 0.000000e+00 0.000000e+00 0.000000e+00 9.222307e-01 7.776934e-02
 0.000000e+00 0.000000e+00 0.000000e+00 0.000000e+00 0.000000e+00 0.000000e+00
<ENDHMM>
