~o
<STREAMINFO> 1 39
<VECSIZE> 39<NULLD><MFCC_D_A_0><DIAGC>
~h "four"
<BEGINHMM>
<NUMSTATES> 6
<STATE> 2
<MEAN> 39
 -1.675879e+01 -3.818190e+00 -2.808047e+00 -1.465586e+01 4.292733e+00 -1.260934e+01 6.923726e-01 -5.248845e+00 -3.301625e+00 -6.144494e+00 7.832120e-01 -7.882955e+00 8.130653e+01 7.013777e-01 3.742800e-01 1.948491e-01 -6.376812e-01 -7.924560e-01 -1.041045e+00 -4.193917e-01 -4.524100e-01 -1.408100e-01 -2.290187e-01 -2.249237e-01 -1.602721e-01 1.052536e+00 5.162381e-02 -1.222983e-02 -3.952701e-02 1.159220e-01 -1.265992e-01 7.818297e-02 -1.036595e-01 -4.662123e-02 -5.152233e-03 5.505254e-02 1.129844e-02 1.415115e-01 -4.224389e-02
<VARIANCE> 39
 8.372843e+01 5.135942e+01 3.453076e+01 4.163139e+01 5.840270e+01 5.957555e+01 3.440816e+01 2.143556e+01 2.224944e+01 1.784153e+01 2.511661e+01 1.917314e+01 5.740250e+01 5.534705e+00 4.853918e+00 2.834415e+00 2.535516e+00 3.982822e+00 3.862201e+00 3.621912e+00 2.258938e+00 2.779526e+00 1.914101e+00 2.677392e+00 1.836563e+00 2.274323e+00 5.960453e-01 8.295317e-01 4.366086e-01 4.982881e-01 7.927540e-01 9.173677e-01 6.765535e-01 4.856792e-01 5.840929e-01 3.773047e-01 5.388060e-01 3.452955e-01 2.263630e-01
<GCONST> 1.241265e+02
<STATE> 3
<MEAN> 39
 -3.896646e-01 1.752801e+00 -7.299187e-01 -1.554261e+01 -7.757030e+00 -1.977721e+01 -9.101886e+00 -7.297735e+00 -2.211494e+00 -5.431540e+00 -6.279643e-01 -5.219517e+00 8.921547e+01 8.225289e-02 -4.246320e-01 -5.556815e-01 -4.081438e-02 -3.040085e-02 2.250577e-01 7.353813e-02 4.403595e-01 8.705757e-01 -3.065149e-01 1.541442e-01 2.130675e-01 1.466856e-01 6.054666e-03 6.255917e-02 -3.862943e-02 -1.453837e-01 8.284333e-02 9.259477e-03 1.389132e-01 -5.502067e-03 5.020729e-02 -1.130589e-01 -7.737646e-02 -9.115997e-02 -9.840914e-02
<VARIANCE> 39
 2.336735e+00 2.039267e+01 4.198322e+01 1.519731e+01 1.477637e+01 3.498240e+01 2.535325e+01 4.495293e+01 4.611412e+01 2.501231e+01 1.659104e+01 1.894635e+01 1.028579e+01 1.488976e-01 6.482140e-01 8.593208e-01 1.373501e+00 1.220639e+00 2.075500e+00 2.260808e+00 1.695375e+00 2.270856e+00 2.750049e+00 1.108357e+00 1.221702e+00 3.757554e-01 3.713253e-02 1.139641e-01 1.157589e-01 1.656807e-01 2.245574e-01 3.275449e-01 2.897676e-01 3.140315e-01 3.645069e-01 3.664806e-01 1.802917e-01 2.155712e-01 4.683784e-02
<GCONST> 8.892717e+01
<STATE> 4
<MEAN> 39
 2.517011e+00 2.663968e+00 -1.440102e+01 -1.991334e+01 3.857154e+00 -9.769042e+00 -1.574710e+00 -1.527070e+01 -3.546845e+00 -9.610335e+00 -3.075982e-01 -1.140589e+00 7.820458e+01 -1.644626e-01 -7.377154e-02 -2.948457e-01 3.151853e-01 5.512944e-01 1.208150e+00 8.862621e-02 -7.106331e-01 -1.109226e+00 4.736549e-01 2.299895e-01 2.226745e-01 -1.139443e+00 -9.501281e-02 -1.251604e-01 6.122773e-02 9.598635e-02 -1.116229e-01 3.064767e-02 -5.080586e-02 1.755998e-01 3.695429e-02 2.052436e-01 9.091879e-02 2.191555e-02 -1.356668e-02
<VARIANCE> 39
 2.257691e+01 2.284626e+01 3.180070e+01 3.111531e+01 7.360639e+01 6.533098e+01 2.741927e+01 5.818736e+01 1.283115e+02 3.859162e+01 3.040463e+01 2.127777e+01 5.053975e+01 2.893255e+00 2.084912e+00 3.114246e+00 2.687351e+00 4.965697e+00 2.392579e+00 3.145655e+00 3.923974e+00 3.602392e+00 3.002507e+00 1.724138e+00 1.657282e+00 1.345569e+00 5.036375e-01 2.746125e-01 4.073645e-01 3.905019e-01 7.540248e-01 3.994341e-01 5.976914e-01 4.986418e-01 7.488706e-01 5.752739e-01 3.277128e-01 2.928549e-01 2.447956e-01
<GCONST> 1.213928e+02
<STATE> 5
<MEAN> 39
 -8.491787e+00 -5.546034e+00 -8.955608e+00 -9.238475e+00 1.775128e+00 3.983137e+00 -2.815318e+00 -9.398750e+00 -8.249139e+00 1.083565e+00 4.880197e+00 1.404011e+00 6.369992e+01 -1.041462e+00 -3.644952e-01 8.102298e-01 8.567961e-01 -1.359521e-01 -1.483203e-01 2.282954e-01 1.061647e+00 7.186496e-01 2.471886e-01 -2.011249e-01 8.162349e-02 -6.477193e-01 7.476746e-02 1.734450e-01 9.754883e-02 1.213123e-02 5.087044e-02 -2.267092e-01 5.727055e-04 -1.384093e-01 -5.600175e-02 -1.946301e-01 -1.747574e-01 -7.484383e-02 7.326201e-02
<VARIANCE> 39
 1.531063e+01 7.024056e+00 4.017192e+01 3.048041e+01 1.392444e+01 1.781109e+01 1.397478e+01 2.191553e+01 1.597859e+01 2.534552e+01 3.234081e+01 1.496827e+01 6.298528e+00 2.823466e-01 5.404112e-01 1.200750e+00 1.255435e+00 1.223403e+00 1.381699e+00 1.168785e+00 1.478481e+00 1.339254e+00 2.341570e+00 2.375468e+00 1.220801e+00 1.088341e-01 6.639284e-02 5.963133e-02 1.653048e-01 2.449942e-01 2.628069e-01 2.524941e-01 2.423266e-01 2.950788e-01 1.884570e-01 3.323184e-01 3.121926e-01 1.765977e-01 2.795920e-02
<GCONST> 8.498725e+01
<TRANSP> 6
 0.000000e+00 1.000000e+00 0.000000e+00 0.000000e+00 0.000000e+00 0.000000e+00
 0.000000e+00 9.494838e-01 5.051623e-02 0.000000e+00 0.000000e+00 0.000000e+00
 0.000000e+00 0.000000e+00 9.430684e-01 5.693161e-02 0.000000e+00 0.000000e+00
 0.000000e+00 0.000000e+00 0.000000e+00 9.460825e-01 5.391757e-02 0.000000e+00
 0.000000e+00 0.000000e+00 0.000000e+00 0.000000e+00 9.055926e-01 9.440739e-02
 0.000000e+00 0.000000e+00 0.000000e+00 0.000000e+00 0.000000e+00 0.000000e+00
<ENDHMM>
