~o
<STREAMINFO> 1 39
<VECSIZE> 39<NULLD><MFCC_D_A_0><DIAGC>
~h "minus"
<BEGINHMM>
<NUMSTATES> 6
<STATE> 2
<MEAN> 39
 -2.269127e+00 7.855179e+00 -9.707845e-01 -1.342410e+01 5.119849e+00 -1.436419e+01 2.820229e+00 -8.242164e+00 -2.127278e+01 -1.778868e+01 -1.274071e+01 -5.603066e+00 7.690425e+01 1.194104e+00 -6.452447e-01 -2.137122e+00 -1.625253e+00 -1.810437e+00 -2.446300e+00 5.324032e-01 -9.419591e-01 4.381404e-01 -1.435676e+00 2.248485e+00 3.575756e-01 3.842888e+00 -7.261522e-01 -9.677123e-01 -4.614235e-01 1.508305e-01 -3.249396e-01 3.519795e-01 -1.539513e-02 9.422611e-02 8.448166e-01 8.067744e-01 8.096650e-01 3.394672e-01 -4.670402e-02
<VARIANCE> 39
 9.192316e+00 1.660313e+01 3.255256e+01 3.049875e+01 5.331009e+01 5.809252e+01 1.496127e+01 2.795050e+01 6.051886e+01 2.306630e+01 7.139266e+01 2.203176e+01 5.539800e+01 3.670766e+00 6.886025e+00 3.724788e+00 2.631532e+00 5.075005e+00 4.614261e+00 1.968692e+00 1.756190e+00 1.279711e+01 6.573537e+00 1.066822e+01 2.802286e+00 2.735223e+00 2.662732e-01 5.962771e-01 7.065275e-01 6.382486e-01 1.067839e+00 1.504431e+00 3.280005e-01 4.077926e-01 1.852091e+00 8.486013e-01 2.087753e+00 5.805206e-01 5.746257e-01
<GCONST> 1.309550e+02
<STATE> 3
<MEAN> 39
 -6.657977e+00 1.363335e+00 -4.035943e+00 -1.169406e+01 2.478975e+00 -2.220733e+01 -2.884228e+00 -1.198922e+01 -1.153796e+01 -1.152405e+01 -9.173661e-01 -1.113529e+01 8.773528e+01 -1.173408e-01 -1.690345e-02 1.668717e-01 1.120928e-01 3.129941e-01 -1.274865e-02 -3.071962e-01 -7.923126e-02 1.332739e-01 4.446802e-01 3.891803e-01 -5.792316e-02 4.002620e-02 4.945261e-02 2.241472e-02 5.043610e-02 -6.311553e-03 6.024636e-02 -2.234351e-03 -1.436254e-02 6.179559e-02 -1.506173e-02 2.078209e-02 -1.724171e-02 3.635728e-02 -7.121881e-02
<VARIANCE> 39
 1.048282e+01 3.486223e+01 7.287521e+01 2.380461e+01 1.853005e+01 7.896204e+01 3.768479e+01 1.726053e+01 2.423345e+01 3.304700e+01 3.586511e+01 3.480671e+01 4.693891e+01 1.325867e+00 2.672381e+00 2.828708e+00 1.419197e+00 1.346945e+00 7.242389e+00 1.542116e+00 1.870284e+00 1.593089e+00 2.779721e+00 4.752689e+00 2.264210e+00 2.828041e+00 2.729990e-01 3.948597e-01 3.485083e-01 2.615752e-01 3.079823e-01 1.192114e+00 2.738958e-01 3.930277e-01 3.068111e-01 4.161648e-01 7.686662e-01 3.093600e-01 3.842387e-01
<GCONST> 1.150581e+02
<STATE> 4
<MEAN> 39
 -9.122478e+00 -2.144371e+00 1.003268e+00 -1.450301e+01 7.146360e+00 -1.635650e+01 -4.712846e+00 -1.089686e+01 -9.812941e+00 -4.969040e+00 9.873722e+00 1.297690e+00 8.572488e+01 -1.122674e+00 -4.052596e-01 6.540539e-01 -1.932722e-01 -1.150989e-01 8.412188e-01 1.194869e-01 2.543548e-01 5.877423e-01 -6.546573e-03 -3.668353e-01 -5.411327e-02 -1.388395e-01 -2.931584e-01 7.125034e-03 4.142981e-04 -1.829343e-02 -8.194159e-02 3.674405e-02 5.650785e-02 1.644718e-02 8.232140e-02 -4.632983e-02 -1.207931e-01 -1.613687e-01 6.987502e-02
<VARIANCE> 39
 3.230750e+01 3.436684e+01 3.838719e+01 1.184212e+01 1.254110e+01 4.298164e+01 3.066241e+01 1.680551e+01 2.572725e+01 2.529786e+01 2.658931e+01 2.357943e+01 2.323770e+01 4.166314e+00 4.177328e+00 1.303283e+00 1.060854e+00 1.385490e+00 1.875544e+00 1.427052e+00 1.749161e+00 3.759641e+00 1.891807e+00 1.674492e+00 3.153475e+00 1.861069e+00 3.922160e-01 7.275739e-01 3.218313e-01 2.157561e-01 2.802237e-01 3.493968e-01 2.616702e-01 2.962316e-01 5.549918e-01 3.597264e-01 3.131761e-01 3.098449e-01 2.672024e-01
<GCONST> 1.086399e+02
<STATE> 5
<MEAN> 39
 -3.261050e+01 -6.163662e+00 3.185230e+00 -1.759094e+01 8.419810e+00 -8.518329e+00 2.689000e+00 -3.924460e+00 2.072208e+00 -3.135438e+00 2.805195e+00 -5.140209e+00 8.399717e+01 2.779982e-01 1.594436e-01 -1.864798e-01 1.606330e-01 -1.625526e-02 -6.439696e-02 1.515805e-01 2.437470e-01 -1.084286e-01 1.293083e-01 -1.759664e-01 1.300076e-01 -9.096665e-01 2.522658e-01 5.499983e-02 -1.142732e-02 9.855281e-02 2.666752e-02 1.360146e-02 -7.076698e-02 -8.454971e-03 -1.332836e-01 1.977187e-02 -3.056116e-02 8.213801e-02 -1.532343e-01
<VARIANCE> 39
 2.681288e+01 1.711845e+01 1.869019e+01 1.882238e+01 2.163802e+01 1.696501e+01 1.814955e+01 1.924104e+01 1.521053e+01 1.063612e+01 1.139456e+01 1.288666e+01 6.168682e+01 3.039890e+00 9.847578e-01 1.324470e+00 1.679820e+00 1.737933e+00 1.459459e+00 1.256697e+00 1.557759e+00 1.061832e+00 8.907404e-01 9.131284e-01 8.487971e-01 2.007918e+00 3.049225e-01 2.039539e-01 2.031757e-01 2.707086e-01 3.085124e-01 3.175814e-01 2.218382e-01 2.550125e-01 2.097041e-01 1.611084e-01 1.654029e-01 1.836974e-01 1.784720e-01
<GCONST> 9.403537e+01
<TRANSP> 6
 0.000000e+00 1.000000e+00 0.000000e+00 0.000000e+00 0.000000e+00 0.000000e+00
 0.000000e+00 8.181049e-01 1.818950e-01 0.000000e+00 0.000000e+00 0.000000e+00
 0.000000e+00 0.000000e+00 9.676876e-01 3.231239e-02 0.000000e+00 0.000000e+00
 0.000000e+00 0.000000e+00 0.000000e+00 9.430656e-01 5.693442e-02 0.000000e+00
 0.000000e+00 0.000000e+00 0.000000e+00 0.000000e+00 9.601439e-01 3.985609e-02
 0.000000e+00 0.000000e+00 0.000000e+00 0.000000e+00 0.000000e+00 0.000000e+00
<ENDHMM>
