~o
<STREAMINFO> 1 39
<VECSIZE> 39<NULLD><MFCC_D_A_0><DIAGC>
~h "one"
<BEGINHMM>
<NUMSTATES> 6
<STATE> 2
<MEAN> 39
 -4.896266e+00 1.075884e+01 1.261571e+00 -1.334543e+01 -4.817157e+00 -1.783426e+01 -2.146586e+00 -4.088866e+00 -6.239586e+00 -9.124351e+00 -5.545485e+00 -9.044131e+00 8.101949e+01 6.830024e-01 -8.414261e-01 -1.010728e+00 -3.327789e-01 -9.391497e-01 -4.014044e-02 -1.424493e-02 1.786169e-01 2.064734e-01 -7.666980e-02 -1.600303e-01 3.335249e-01 2.466524e+00 -2.108824e-01 -3.450882e-01 -1.767538e-01 1.322414e-01 1.772145e-01 3.008573e-01 1.201614e-01 1.317188e-01 2.246734e-01 1.201545e-01 1.048535e-01 1.450349e-01 -1.541228e-01
<VARIANCE> 39
 1.974811e+01 5.236967e+01 2.885274e+01 4.849304e+01 6.286764e+01 6.312284e+01 6.015495e+01 2.467743e+01 2.583324e+01 4.372133e+01 2.312905e+01 2.933979e+01 9.229502e+01 1.734068e+00 8.788466e+00 2.821021e+00 3.509514e+00 5.672830e+00 6.343322e+00 2.973594e+00 2.086899e+00 3.949570e+00 5.218160e+00 2.082122e+00 2.456091e+00 2.827810e+00 2.955275e-01 1.510046e+00 5.515928e-01 6.885038e-01 1.097041e+00 9.710363e-01 5.146880e-01 3.748251e-01 7.318642e-01 1.001118e+00 4.971131e-01 3.663154e-01 5.444403e-01
<GCONST> 1.296684e+02
<STATE> 3
<MEAN> 39
 -5.861844e+00 2.859128e+00 -5.738538e+00 -1.520858e+01 -1.806951e+00 -1.296907e+01 1.585564e+00 -1.632545e+00 -4.411356e+00 -1.279218e+01 4.618756e+00 1.388898e-02 9.299323e+01 -4.347195e-01 4.932964e-01 3.798749e-01 7.520118e-02 1.191757e+00 -1.135765e-01 2.914156e-01 -4.730762e-01 -4.913874e-01 -3.718103e-01 1.858130e+00 1.342271e-01 -3.657588e-01 1.714156e-03 1.901858e-01 2.251332e-01 1.467991e-01 1.400578e-01 -2.418889e-02 -1.120603e-01 -1.374288e-01 -8.572031e-02 9.371712e-02 -1.570275e-01 -1.358929e-01 -2.611288e-01
<VARIANCE> 39
 5.374063e+00 1.241907e+01 1.583471e+01 1.132767e+01 3.597193e+01 2.355793e+01 3.310209e+01 3.121421e+01 4.666344e+01 3.081282e+01 9.800308e+01 2.364543e+01 4.522147e+00 1.770205e-01 8.543277e-01 1.215209e+00 1.417827e+00 1.757228e+00 2.030564e+00 1.475173e+00 2.671480e+00 2.145185e+00 2.896967e+00 3.534384e+00 2.752931e+00 6.360551e-01 4.462238e-02 1.946416e-01 1.885558e-01 3.355816e-01 2.790470e-01 5.041218e-01 1.791441e-01 4.258525e-01 4.830912e-01 5.257112e-01 1.025003e+00 3.373259e-01 1.000565e-01
<GCONST> 9.945094e+01
<STATE> 4
<MEAN> 39
 -7.748051e+00 5.287181e+00 3.880997e+00 -5.936347e+00 1.678293e+01 -1.033908e+01 -3.055709e+00 -7.541755e+00 -4.556852e+00 -7.613257e+00 6.523502e+00 -5.306598e+00 7.761420e+01 2.970887e-01 -5.194612e-01 5.657156e-01 1.093466e+00 6.466668e-01 7.534435e-01 -5.674980e-01 -1.970682e-02 3.006090e-01 6.555312e-01 -1.367139e+00 -1.283229e-01 -1.525121e+00 6.845899e-02 -1.263860e-01 -2.090185e-01 -7.861754e-02 -3.553786e-01 -5.464672e-02 3.049067e-02 9.539440e-02 -8.573272e-03 -4.764785e-02 9.673545e-02 5.403412e-02 1.057886e-01
<VARIANCE> 39
 1.616142e+01 1.476301e+01 1.653973e+01 2.913234e+01 4.064903e+01 3.879511e+01 2.498693e+01 2.284014e+01 5.949840e+01 2.785531e+01 7.672218e+01 1.382017e+01 3.024577e+01 6.102151e-01 6.086356e-01 1.399541e+00 3.361706e+00 4.312321e+00 2.231420e+00 1.793347e+00 2.303860e+00 2.022815e+00 2.153799e+00 3.734193e+00 9.778787e-01 1.273951e+00 1.174457e-01 1.421042e-01 2.159563e-01 6.728768e-01 6.168360e-01 4.265081e-01 3.217001e-01 3.964412e-01 3.482776e-01 3.879150e-01 7.576286e-01 1.426993e-01 2.006191e-01
<GCONST> 1.068291e+02
<STATE> 5
<MEAN> 39
 -5.674230e+00 8.465800e-01 4.011736e+00 3.264585e+00 8.561730e+00 -3.339082e+00 -6.551769e+00 -6.941154e+00 -5.370219e+00 -1.467032e+00 1.012650e+00 -5.357964e+00 6.693938e+01 -3.848360e-01 -3.195900e-01 -2.040157e-01 3.067486e-01 -7.559384e-01 4.971225e-01 1.083414e-01 2.946508e-01 8.617844e-02 3.918255e-01 -2.322939e-01 6.524976e-02 -6.811782e-01 -7.358721e-02 1.869244e-02 3.654361e-02 -1.170524e-01 1.138455e-01 -3.899899e-02 5.378370e-02 2.356140e-02 1.890776e-02 -5.053408e-02 6.232176e-03 2.855997e-02 4.732845e-02
<VARIANCE> 39
 1.565174e+01 1.952281e+01 1.634625e+01 8.288957e+00 2.795732e+01 1.848362e+01 2.530200e+01 2.114400e+01 1.986796e+01 5.436530e+01 2.469415e+01 2.080883e+01 1.470432e+01 6.576561e-01 7.042953e-01 9.334432e-01 9.750681e-01 1.671267e+00 1.481581e+00 1.792547e+00 1.687203e+00 1.465294e+00 1.979876e+00 1.246904e+00 1.547460e+00 2.089586e-01 7.989613e-02 1.167763e-01 1.431490e-01 1.408585e-01 2.586194e-01 2.948771e-01 2.921026e-01 3.487319e-01 2.704974e-01 3.473278e-01 2.578101e-01 3.178391e-01 3.471706e-02
<GCONST> 9.039606e+01
<TRANSP> 6
 0.000000e+00 1.000000e+00 0.000000e+00 0.000000e+00 0.000000e+00 0.000000e+00
 0.000000e+00 8.927299e-01 1.072701e-01 0.000000e+00 0.000000e+00 0.000000e+00
 0.000000e+00 0.000000e+00 9.222890e-01 7.771101e-02 0.000000e+00 0.000000e+00
 0.000000e+00 0.000000e+00 0.000000e+00 9.111113e-01 8.888876e-02 0.000000e+00
 0.000000e+00 0.000000e+00 0.000000e+00 0.000000e+00 9.245824e-01 7.541765e-02
 0.000000e+00 0.000000e+00 0.000000e+00 0.000000e+00 0.000000e+00 0.000000e+00
<ENDHMM>
