~o
<STREAMINFO> 1 39
<VECSIZE> 39<NULLD><MFCC_D_A_0><DIAGC>
~h "zero"
<BEGINHMM>
<NUMSTATES> 6
<STATE> 2
<MEAN> 39
 -2.529334e+01 -8.345500e+00 1.008120e+01 -1.912554e+01 1.164117e+01 -1.575114e+01 -4.549898e-01 -1.197519e+01 2.033272e+00 -8.311901e+00 1.080483e-01 -8.781759e+00 8.148512e+01 1.378705e+00 2.068975e-01 3.203981e-01 8.041959e-01 1.155355e-01 -1.739844e+00 -9.953486e-01 -9.879999e-01 -9.276351e-01 -6.225594e-01 -6.399376e-01 -7.557395e-01 1.600473e+00 5.395225e-01 1.671900e-01 -2.960420e-01 4.944089e-01 -3.906820e-01 -6.183421e-02 -2.255227e-01 1.311613e-01 -3.310338e-01 6.623928e-02 -1.520563e-01 1.464821e-01 -2.904756e-01
<VARIANCE> 39
 8.405608e+01 3.503937e+01 3.451743e+01 4.574188e+01 2.005573e+01 3.180526e+01 4.577018e+01 2.452123e+01 3.467167e+01 2.087002e+01 3.875425e+01 2.316200e+01 2.588697e+01 1.070915e+01 6.298436e+00 4.949931e+00 8.265380e+00 3.907358e+00 5.162724e+00 4.184132e+00 2.637886e+00 4.657224e+00 2.444081e+00 5.111209e+00 2.774304e+00 2.810837e+00 1.210805e+00 1.012645e+00 1.366955e+00 1.160807e+00 7.383928e-01 8.974808e-01 7.655988e-01 5.609912e-01 6.531465e-01 5.764402e-01 8.108935e-01 5.685493e-01 2.477021e-01
<GCONST> 1.328569e+02
<STATE> 3
<MEAN> 39
 -4.178549e+00 -2.668300e+00 4.235410e+00 -7.066883e+00 7.229901e+00 -3.375508e+01 -6.272929e+00 -1.985682e+01 -8.236104e+00 -1.076225e+01 -5.651790e+00 -1.084615e+01 8.657435e+01 5.870013e-01 1.477906e-01 -1.477181e+00 -1.922898e-01 2.711159e-01 -1.918559e-01 4.323573e-01 -2.874932e-01 -5.546256e-02 2.870483e-01 3.290317e-01 1.215782e-01 -1.499688e-01 -8.274299e-02 2.217068e-02 -3.295796e-02 -2.075161e-01 1.815557e-01 3.278742e-01 -1.323372e-02 5.034743e-02 7.576410e-02 -2.241525e-02 4.852414e-02 -2.211028e-02 -7.855259e-02
<VARIANCE> 39
 9.739187e+00 5.408690e+00 6.207207e+01 1.128994e+01 1.098730e+01 1.365055e+01 2.729919e+01 1.646562e+01 1.779152e+01 1.787831e+01 1.463604e+01 1.456077e+01 2.696328e+00 1.569023e-01 7.957168e-01 1.382059e+00 9.634157e-01 1.287938e+00 1.988739e+00 1.456521e+00 1.012924e+00 1.001722e+00 1.351956e+00 7.484349e-01 8.645796e-01 2.225355e-01 9.128699e-02 1.423217e-01 1.995572e-01 2.168998e-01 1.113028e-01 2.469268e-01 3.052530e-01 2.226059e-01 2.467812e-01 2.302908e-01 1.524625e-01 1.449910e-01 1.162251e-02
<GCONST> 7.842773e+01
<STATE> 4
<MEAN> 39
 3.191532e+00 4.728616e+00 -1.012133e+01 -2.133885e+01 1.686273e+01 -2.248590e+01 -5.142858e+00 -1.304244e+01 -1.019835e+01 -1.204061e+01 -8.075769e-01 -1.967869e+00 8.097214e+01 1.085972e-01 8.837567e-02 3.814229e-01 -7.067066e-01 -6.984609e-01 5.442100e-01 1.910761e-01 1.050384e+00 2.807352e-01 -7.868797e-01 -6.235753e-02 7.716644e-01 -2.149744e-01 -4.222110e-02 -4.301649e-02 1.310750e-01 1.192857e-01 -2.596545e-01 -7.652662e-02 1.052809e-01 3.063873e-02 3.865015e-02 -2.569593e-02 -8.608581e-02 -5.477114e-02 -2.153143e-02
<VARIANCE> 39
 3.044597e+00 9.474809e+00 9.039573e+00 2.986867e+01 4.703943e+01 2.076360e+01 3.236082e+01 7.043920e+01 2.868379e+01 3.232460e+01 2.907830e+01 4.262811e+01 3.635275e+00 1.593384e-01 9.312723e-01 5.609544e-01 1.507190e+00 4.479280e+00 1.603830e+00 3.418581e+00 2.537325e+00 1.361496e+00 1.641719e+00 2.554046e+00 1.148890e+00 2.711134e-01 1.835775e-02 1.023178e-01 7.670375e-02 1.504179e-01 2.652059e-01 2.275794e-01 5.975193e-01 4.694209e-01 1.811127e-01 2.819590e-01 4.426022e-01 2.556309e-01 3.737543e-02
<GCONST> 8.987213e+01
<STATE> 5
<MEAN> 39
 -1.349288e+00 3.516581e+00 -1.622985e+00 -1.606672e+01 -9.219811e+00 -1.065962e+01 2.026274e+00 1.704509e+00 -5.181509e+00 -1.411541e+01 -7.899763e+00 -3.846934e+00 6.969357e+01 -6.503909e-01 -2.620465e-01 1.997969e-02 6.978280e-01 -4.361613e-01 8.841841e-01 2.360226e-02 3.524069e-01 1.720115e-01 1.023608e+00 -2.037008e-02 -4.128637e-01 -8.665270e-01 -2.845068e-02 -4.346361e-02 -4.595079e-02 3.385898e-02 1.929747e-01 -1.695969e-02 -7.632876e-02 -1.004420e-01 -1.412388e-02 8.430358e-02 7.500675e-02 5.001448e-02 2.706619e-02
<VARIANCE> 39
 2.084286e+01 2.091690e+01 1.696159e+01 2.291012e+01 2.035938e+01 6.034354e+01 2.323074e+01 2.287633e+01 1.894944e+01 6.913698e+01 2.443550e+01 2.578768e+01 2.549208e+01 6.154828e-01 1.301618e+00 1.213203e+00 1.077196e+00 2.301848e+00 1.808033e+00 1.473560e+00 1.938227e+00 2.106250e+00 1.833889e+00 2.278700e+00 1.941239e+00 2.281275e-01 8.571430e-02 1.426018e-01 1.301536e-01 1.934753e-01 2.392937e-01 3.203731e-01 2.630532e-01 3.702046e-01 4.220564e-01 2.877505e-01 3.523968e-01 2.609228e-01 3.148110e-02
<GCONST> 9.691369e+01
<TRANSP> 6
 0.000000e+00 1.000000e+00 0.000000e+00 0.000000e+00 0.000000e+00 0.000000e+00
 0.000000e+00 9.114249e-01 8.857504e-02 0.000000e+00 0.000000e+00 0.000000e+00
 0.000000e+00 0.000000e+00 9.375632e-01 6.243674e-02 0.000000e+00 0.000000e+00
 0.000000e+00 0.000000e+00 0.000000e+00 9.450007e-01 5.499930e-02 0.000000e+00
 0.000000e+00 0.000000e+00 0.000000e+00 0.000000e+00 9.482188e-01 5.178123e-02
 0.000000e+00 0.000000e+00 0.000000e+00 0.000000e+00 0.000000e+00 0.000000e+00
<ENDHMM>
