~o
<STREAMINFO> 1 39
<VECSIZE> 39<NULLD><MFCC_D_A_0><DIAGC>
~h "six"
<BEGINHMM>
<NUMSTATES> 6
<STATE> 2
<MEAN> 39
 -3.054871e+01 -5.335977e+00 3.619341e+00 -1.631819e+01 7.357221e+00 -1.063792e+01 2.792275e+00 -7.350026e+00 2.465295e+00 -2.808300e+00 1.640558e+00 -4.340977e+00 8.660566e+01 -2.036745e-01 2.127767e-01 9.176080e-02 -3.068920e-01 1.965601e-01 -8.018254e-01 -1.713663e-01 -3.636853e-01 -1.091658e-01 -3.172822e-01 -9.045476e-02 -2.781101e-01 1.116140e+00 3.912644e-01 1.237798e-01 -1.024782e-01 2.503054e-01 -1.259914e-01 -1.181569e-01 -2.156513e-01 -4.607389e-02 -1.556605e-01 -5.333060e-02 -9.725434e-02 -8.162948e-02 -1.588623e-01
<VARIANCE> 39
 6.336914e+01 1.676168e+01 2.727112e+01 1.814705e+01 2.492243e+01 2.059410e+01 2.415067e+01 2.367618e+01 1.983005e+01 1.809994e+01 1.133421e+01 1.067718e+01 4.404428e+01 7.659283e+00 1.526448e+00 2.820442e+00 2.617407e+00 2.105226e+00 2.454760e+00 3.883689e+00 2.924740e+00 2.438761e+00 1.874489e+00 1.593912e+00 1.549084e+00 2.169145e+00 6.004931e-01 3.086631e-01 5.498353e-01 4.046915e-01 3.464540e-01 4.663090e-01 3.991159e-01 4.755480e-01 3.228592e-01 3.727468e-01 2.472247e-01 2.634435e-01 1.942338e-01
<GCONST> 1.104713e+02
<STATE> 3
<MEAN> 39
 -1.106162e+01 -3.930934e+00 2.133306e+00 -2.332899e+00 2.297497e+00 -2.450658e+01 -8.427139e+00 -7.158953e+00 -6.261345e+00 -7.068156e+00 -3.039632e+00 -4.798788e+00 8.007732e+01 4.471154e-01 -7.785022e-02 -2.746444e-01 6.824515e-01 -3.119404e-01 5.463405e-01 -1.305600e-02 5.308857e-01 5.487803e-03 1.831277e-01 -2.443125e-02 3.143352e-01 -1.347198e+00 -3.499577e-01 -8.006020e-02 -5.702765e-02 -2.396508e-01 1.898613e-01 1.534999e-01 1.689115e-01 5.171121e-02 1.760240e-01 9.759361e-02 8.935646e-02 2.321205e-02 1.184494e-01
<VARIANCE> 39
 7.455406e+00 1.715586e+01 1.719403e+01 2.437236e+01 2.731275e+01 1.120791e+02 2.346037e+01 4.281717e+01 1.133180e+01 1.948332e+01 2.022069e+01 2.127567e+01 1.694346e+02 3.078375e+00 1.613102e+00 2.036450e+00 2.054144e+00 2.888617e+00 9.217945e+00 2.855689e+00 2.498600e+00 1.654980e+00 2.459409e+00 2.104335e+00 1.873308e+00 3.775642e+00 4.829763e-01 3.433061e-01 4.506026e-01 3.855377e-01 6.271111e-01 1.296340e+00 4.948685e-01 6.256887e-01 2.844722e-01 5.163254e-01 4.581153e-01 4.522505e-01 7.234638e-01
<GCONST> 1.177411e+02
<STATE> 4
<MEAN> 39
 -2.066951e+01 -8.579277e+00 -2.684522e+00 -1.190146e+01 9.954481e+00 -1.023977e+01 -7.011550e+00 -8.463298e+00 6.526231e-01 -9.968583e-01 6.031424e-01 -5.809402e+00 8.188017e+01 -2.727048e+00 -6.366374e-01 2.556252e-01 -2.325434e+00 1.573724e+00 -1.688817e-01 3.799777e-01 -8.322197e-01 1.240468e+00 3.452940e-01 8.816062e-01 -4.323270e-01 4.393887e+00 -1.322760e-01 1.344227e-01 3.656868e-01 2.581013e-01 -4.350951e-01 1.127697e-01 3.131663e-01 3.525343e-01 -2.246377e-02 -1.339754e-01 -9.358584e-02 1.314850e-01 -2.824385e-01
<VARIANCE> 39
 4.639042e+01 1.568148e+01 2.627617e+01 5.988710e+01 4.802781e+01 3.133132e+01 1.482960e+01 2.833988e+01 2.603765e+01 9.698674e+00 2.250484e+01 1.237913e+01 1.619709e+02 1.549403e+00 1.539118e+00 5.263112e+00 5.824178e+00 7.450920e+00 3.099050e+00 2.468148e+00 3.905841e+00 1.940256e+00 1.069939e+00 2.270856e+00 1.597510e+00 6.692503e+00 4.051779e-01 2.794321e-01 7.884529e-01 1.164078e+00 1.259180e+00 6.291654e-01 4.494032e-01 6.579570e-01 4.786210e-01 1.923264e-01 4.861031e-01 2.949901e-01 2.447448e+00
<GCONST> 1.217030e+02
<STATE> 5
<MEAN> 39
 -3.070270e+01 -5.366036e+00 3.842087e+00 -1.777666e+01 1.008131e+01 -9.394812e+00 2.453085e+00 -4.548290e+00 4.053235e-01 -1.988510e+00 2.224272e+00 -4.278502e+00 8.484216e+01 5.719180e-01 2.285291e-01 4.355321e-02 3.171354e-01 -1.835743e-01 1.098023e-01 3.468876e-02 2.761191e-01 -3.980165e-01 7.855234e-02 -2.648244e-01 1.227723e-01 -1.143242e+00 1.278252e-01 -2.378721e-02 -5.460738e-02 9.702086e-02 5.042972e-03 2.039924e-02 -1.082292e-01 -3.040193e-02 -2.684560e-02 -3.541827e-03 -2.192840e-02 -2.146568e-02 -6.345862e-02
<VARIANCE> 39
 5.703773e+01 7.675541e+00 1.185871e+01 2.286269e+01 1.303236e+01 1.442436e+01 2.204911e+01 1.521122e+01 1.842459e+01 9.921436e+00 1.323561e+01 8.903054e+00 1.177937e+02 2.197417e+00 7.407854e-01 1.134244e+00 1.646939e+00 1.248898e+00 1.092343e+00 1.695057e+00 1.472688e+00 1.140594e+00 1.249677e+00 1.173011e+00 8.183726e-01 1.579567e+00 2.598124e-01 1.483553e-01 2.172232e-01 2.189098e-01 2.456205e-01 2.290557e-01 2.481699e-01 2.729230e-01 2.659249e-01 2.656460e-01 2.095255e-01 1.593885e-01 1.623719e-01
<GCONST> 9.252891e+01
<TRANSP> 6
 0.000000e+00 1.000000e+00 0.000000e+00 0.000000e+00 0.000000e+00 0.000000e+00
 0.000000e+00 9.485647e-01 5.143533e-02 0.000000e+00 0.000000e+00 0.000000e+00
 0.000000e+00 0.000000e+00 9.520364e-01 4.796359e-02 0.000000e+00 0.000000e+00
 0.000000e+00 0.000000e+00 0.000000e+00 8.607454e-01 1.392546e-01 0.000000e+00
 0.000000e+00 0.000000e+00 0.000000e+00 0.000000e+00 9.639350e-01 3.606500e-02
 0.000000e+00 0.000000e+00 0.000000e+00 0.000000e+00 0.000000e+00 0.000000e+00
<ENDHMM>
