~o
<STREAMINFO> 1 39
<VECSIZE> 39<NULLD><MFCC_D_A_0><DIAGC>
~h "divide"
<BEGINHMM>
<NUMSTATES> 6
<STATE> 2
<MEAN> 39
 -9.253505e+00 2.898304e+00 5.338002e+00 -6.162057e+00 6.655282e+00 -1.780189e+01 -8.142373e+00 -9.774605e+00 -8.973194e+00 -1.548007e+01 -4.152496e+00 -9.068904e+00 8.191537e+01 9.089075e-01 1.815516e-01 -6.113599e-01 -5.454196e-01 -2.241868e-01 -2.099318e-01 1.383362e-01 -1.663533e-01 -7.429646e-01 -1.655789e-01 2.925825e-01 1.048779e-01 4.639230e-01 1.808890e-02 -8.784241e-02 -2.186234e-01 -6.605652e-02 -9.468129e-02 1.943891e-01 1.593294e-01 3.721383e-02 1.021504e-01 1.897127e-01 6.551063e-02 7.321222e-02 -1.923915e-01
<VARIANCE> 39
 3.845417e+01 3.087499e+01 4.361719e+01 6.363330e+01 3.182236e+01 6.462671e+01 5.094228e+01 3.259934e+01 3.594318e+01 2.700280e+01 2.919160e+01 2.136209e+01 1.550405e+01 4.263899e+00 2.898484e+00 3.396691e+00 5.354431e+00 3.174961e+00 7.760284e+00 5.280655e+00 1.939950e+00 3.609569e+00 4.011521e+00 3.051061e+00 2.282441e+00 2.432905e+00 8.621865e-01 3.864775e-01 2.654464e-01 8.188730e-01 3.449017e-01 9.728526e-01 7.117705e-01 3.797367e-01 8.268837e-01 6.807585e-01 5.084228e-01 3.877191e-01 5.685568e-01
<GCONST> 1.264435e+02
<STATE> 3
<MEAN> 39
 -1.517645e+00 -2.255286e+00 -1.687931e+01 -1.851317e+01 1.018985e+00 -1.393626e+01 1.669046e+00 -1.041809e+01 -4.168314e+00 -1.408210e+01 5.816305e+00 -4.787973e+00 8.821869e+01 -2.361234e-01 -1.493517e-01 -4.600019e-02 3.248186e-01 7.651027e-01 -3.596517e-01 -3.472016e-01 2.380807e-01 1.140531e+00 7.615440e-03 4.849893e-01 -2.419714e-01 4.364486e-02 -1.141776e-01 4.937235e-02 2.901677e-01 9.938743e-02 4.764438e-02 -1.298774e-01 -1.827686e-01 5.989682e-02 -3.949492e-02 -6.526270e-02 -1.653885e-02 -2.227612e-02 -5.120685e-02
<VARIANCE> 39
 2.993475e+00 7.409640e+00 1.874376e+01 7.245751e+00 3.766270e+01 3.329992e+01 2.667886e+01 2.988560e+01 5.623699e+01 2.405699e+01 3.416576e+01 1.350311e+01 3.830183e+00 2.910328e-01 5.503328e-01 2.795813e+00 6.886073e-01 1.125883e+00 2.488294e+00 1.934198e+00 1.045272e+00 1.232808e+00 1.409397e+00 1.487691e+00 9.637275e-01 7.967681e-02 2.854269e-02 1.128582e-01 1.347960e-01 1.019254e-01 1.793881e-01 2.293736e-01 1.318468e-01 1.650875e-01 2.341812e-01 2.491018e-01 2.885509e-01 1.573946e-01 2.168592e-02
<GCONST> 8.032281e+01
<STATE> 4
<MEAN> 39
 -1.023692e+01 -2.668774e+00 3.781639e+00 -7.358390e+00 1.100747e+01 -2.923449e+01 -1.315515e+01 -5.340782e+00 9.662468e-01 -1.523692e+01 9.371484e+00 -6.807550e+00 8.547665e+01 -5.761707e-01 5.056028e-01 1.991173e+00 1.131063e+00 3.161850e-01 -2.087475e-02 -2.064187e-01 -2.058904e-01 -1.357540e+00 -4.696259e-01 -1.315728e+00 1.953660e-01 -1.276004e+00 1.887213e-01 4.150974e-02 -5.805202e-01 -2.195182e-01 -1.381107e-01 7.200967e-01 4.747198e-01 -1.387983e-01 -1.066957e-01 2.461872e-01 -1.645670e-01 1.261835e-01 -3.833941e-01
<VARIANCE> 39
 5.476420e+00 1.794393e+01 5.506161e+01 1.762438e+01 1.349474e+01 1.909337e+01 1.802962e+01 2.375895e+01 3.301715e+01 1.746554e+01 2.177196e+01 1.186931e+01 1.370946e+01 5.082930e-01 9.000039e-01 3.288837e+00 7.616793e-01 1.168335e+00 5.508554e+00 4.095827e+00 1.414867e+00 1.172919e+00 1.626860e+00 1.652867e+00 9.411725e-01 1.674012e+00 2.844064e-02 2.460331e-01 4.388793e-01 1.690701e-01 4.277520e-01 3.227393e-01 3.129134e-01 2.875066e-01 3.407608e-01 5.052317e-01 2.441351e-01 2.324498e-01 1.147587e-01
<GCONST> 9.589754e+01
<STATE> 5
<MEAN> 39
 -1.628649e+01 -6.396187e+00 1.562564e+00 -9.569671e+00 1.408111e+00 -1.187743e+01 -6.876357e+00 -7.895449e+00 -2.432825e+00 -5.114752e+00 3.967725e-01 -3.557212e+00 7.178482e+01 -3.297695e-01 -4.957976e-01 -3.685526e-01 -2.810424e-01 -6.656080e-01 9.426033e-01 1.608782e-01 2.792425e-01 2.414341e-01 9.593448e-01 -9.892673e-02 2.113759e-01 -7.074044e-01 -2.015097e-02 2.434155e-02 1.182266e-01 7.359999e-02 3.886558e-02 -1.624762e-01 -1.002102e-01 5.514122e-02 2.083435e-02 -8.185318e-02 1.762299e-02 -2.772922e-02 1.063073e-01
<VARIANCE> 39
 3.859386e+01 2.491654e+01 1.739707e+01 2.616397e+01 2.756523e+01 2.988949e+01 2.071681e+01 1.934955e+01 2.129929e+01 3.578463e+01 2.231127e+01 2.316502e+01 7.489656e+01 4.333007e+00 1.849075e+00 3.987652e+00 3.275446e+00 2.960414e+00 5.746604e+00 3.058627e+00 2.556836e+00 1.943914e+00 4.739891e+00 2.197264e+00 2.823670e+00 1.309269e+01 8.593871e-01 3.633330e-01 7.534212e-01 6.728022e-01 5.063573e-01 8.708647e-01 7.420939e-01 4.380075e-01 3.988363e-01 7.983141e-01 4.917968e-01 5.329553e-01 2.278964e+00
<GCONST> 1.252878e+02
<TRANSP> 6
 0.000000e+00 1.000000e+00 0.000000e+00 0.000000e+00 0.000000e+00 0.000000e+00
 0.000000e+00 9.486648e-01 5.133518e-02 0.000000e+00 0.000000e+00 0.000000e+00
 0.000000e+00 0.000000e+00 9.439321e-01 5.606792e-02 0.000000e+00 0.000000e+00
 0.000000e+00 0.000000e+00 0.000000e+00 8.934198e-01 1.065802e-01 0.000000e+00
 0.000000e+00 0.000000e+00 0.000000e+00 0.000000e+00 9.447584e-01 5.524164e-02
 0.000000e+00 0.000000e+00 0.000000e+00 0.000000e+00 0.000000e+00 0.000000e+00
<ENDHMM>
