~o
<STREAMINFO> 1 39
<VECSIZE> 39<NULLD><MFCC_D_A_0><DIAGC>
~h "plus"
<BEGINHMM>
<NUMSTATES> 6
<STATE> 2
<MEAN> 39
 -1.125034e+01 -3.787959e+00 -4.824241e+00 -1.182677e+01 -5.948527e+00 -1.120588e+01 3.247535e+00 -1.500341e+01 -8.158274e+00 -9.800376e+00 2.220409e+00 -1.138203e+00 8.535854e+01 8.728030e-01 7.198996e-01 -9.200330e-01 -4.977071e-01 -6.057501e-01 -1.233142e+00 2.810764e-01 -7.659280e-01 -1.158037e+00 -7.097238e-01 -2.056032e-01 1.499553e-01 1.376498e+00 4.910265e-02 3.005694e-02 -6.095490e-02 7.703402e-02 1.284216e-01 1.283204e-02 -7.612395e-02 2.507605e-01 1.335862e-01 1.403942e-01 -1.380699e-01 -3.940752e-02 -4.047600e-01
<VARIANCE> 39
 3.125358e+01 5.942378e+01 1.973646e+01 1.303811e+01 2.130898e+01 5.752262e+01 2.562463e+01 2.654444e+01 5.446072e+01 3.743389e+01 3.174809e+01 1.549446e+01 1.446477e+01 2.433545e+00 5.846624e+00 1.879047e+00 1.618408e+00 1.592571e+00 3.943044e+00 1.600116e+00 2.350285e+00 4.221819e+00 3.173442e+00 3.539370e+00 1.633354e+00 2.588425e+00 5.295217e-01 1.232991e+00 3.578454e-01 3.023702e-01 2.728870e-01 7.542563e-01 3.063872e-01 4.490761e-01 1.037552e+00 6.207194e-01 7.854186e-01 3.169173e-01 6.014130e-01
<GCONST> 1.185548e+02
<STATE> 3
<MEAN> 39
 -3.833247e+00 -5.607573e+00 -1.700304e+01 -1.639699e+01 2.418920e-01 -1.521224e+01 2.770451e+00 -1.306718e+01 -1.161316e+00 -1.260956e+01 3.792024e+00 -2.317126e+00 8.852139e+01 6.155468e-02 -4.856837e-01 -1.097092e-01 -2.173610e-01 5.935177e-01 4.200668e-01 -8.690569e-02 1.131676e-01 1.292685e+00 -1.309460e-01 2.783290e-01 1.956643e-01 -6.080605e-01 -8.017832e-02 1.543443e-01 1.634829e-01 1.610296e-02 -4.322748e-02 5.081632e-02 -3.315609e-02 -8.671103e-02 -7.939415e-02 -3.270879e-02 -7.683430e-03 6.724916e-02 -1.344869e-01
<VARIANCE> 39
 4.101793e+00 1.816152e+01 2.204872e+01 1.320262e+01 2.527392e+01 2.526368e+01 1.759389e+01 1.705295e+01 9.119503e+01 2.816906e+01 3.308001e+01 2.807662e+01 1.558533e+01 4.081661e-01 1.249292e+00 2.134928e+00 6.240197e-01 1.284825e+00 1.414991e+00 1.224046e+00 1.787794e+00 2.179888e+00 1.873037e+00 1.944030e+00 1.755829e+00 6.809418e-01 7.652082e-02 1.596195e-01 2.367788e-01 1.322847e-01 2.572897e-01 2.579060e-01 2.511689e-01 2.661828e-01 3.958797e-01 3.739864e-01 3.093143e-01 2.645894e-01 7.650559e-02
<GCONST> 9.423055e+01
<STATE> 4
<MEAN> 39
 -1.256157e+01 -3.709718e+00 -4.754753e+00 -1.928142e+01 5.591978e+00 -9.175790e+00 -4.417129e-01 -1.479172e+01 4.013166e+00 -1.056432e+01 6.954450e+00 1.562925e+00 7.669762e+01 -2.873592e+00 -1.909750e-01 2.147665e+00 -2.440376e-01 3.363220e-03 8.308502e-01 -3.289322e-01 1.178527e+00 -9.029582e-01 1.643751e+00 -3.465254e-01 -6.829619e-01 4.436371e-01 -4.913286e-01 -2.576708e-01 -9.042533e-02 1.073375e-01 -1.128758e-01 1.362898e-02 2.163514e-01 4.226300e-01 4.082849e-02 1.334758e-01 -1.234633e-01 -1.893590e-01 5.476589e-01
<VARIANCE> 39
 4.499578e+01 2.121631e+01 4.234594e+01 1.223090e+01 1.747967e+01 2.852249e+01 2.627602e+01 2.830105e+01 5.764472e+01 6.087481e+01 2.176554e+01 3.520493e+01 2.257367e+01 4.707884e+00 4.217275e+00 1.567134e+00 1.164853e+00 2.839352e+00 2.123260e+00 3.013783e+00 4.571798e+00 3.506481e+00 6.519778e+00 1.718639e+00 2.751764e+00 5.596661e+00 5.435775e-01 7.277169e-01 3.617932e-01 2.112287e-01 6.009446e-01 4.494044e-01 5.434029e-01 5.346531e-01 6.875417e-01 1.357047e+00 3.236944e-01 4.672994e-01 5.074607e-01
<GCONST> 1.212679e+02
<STATE> 5
<MEAN> 39
 -3.304090e+01 -5.795071e+00 2.781629e+00 -1.675024e+01 7.942755e+00 -7.646331e+00 2.913993e+00 -4.263544e+00 1.240276e+00 -3.103378e+00 1.845428e+00 -4.163494e+00 8.351783e+01 3.311018e-01 2.151416e-01 5.035892e-02 3.094966e-01 1.165318e-01 -1.182209e-01 3.889650e-02 6.460533e-02 -1.696662e-01 -3.651085e-03 -2.441826e-01 4.795741e-02 -7.914738e-01 2.523624e-01 3.568359e-02 -6.512558e-02 2.673450e-02 1.042212e-03 -1.163480e-02 -5.967262e-02 -6.228837e-02 -6.656300e-02 -2.441846e-02 -5.629016e-03 5.547757e-02 -1.730347e-01
<VARIANCE> 39
 3.581768e+01 6.885185e+00 1.137211e+01 1.384038e+01 1.781629e+01 1.680836e+01 1.575413e+01 1.211907e+01 1.114155e+01 9.140294e+00 9.055520e+00 7.126231e+00 4.665784e+01 3.335965e+00 6.342331e-01 7.413765e-01 8.734012e-01 1.454430e+00 1.399764e+00 1.558198e+00 1.571178e+00 1.241775e+00 1.325601e+00 9.473174e-01 7.372210e-01 2.250728e+00 3.631379e-01 1.429808e-01 1.330215e-01 1.548358e-01 2.432612e-01 2.427399e-01 2.780496e-01 3.533910e-01 2.321420e-01 3.426688e-01 1.866687e-01 1.310634e-01 1.466429e-01
<GCONST> 8.855100e+01
<TRANSP> 6
 0.000000e+00 1.000000e+00 0.000000e+00 0.000000e+00 0.000000e+00 0.000000e+00
 0.000000e+00 9.129134e-01 8.708661e-02 0.000000e+00 0.000000e+00 0.000000e+00
 0.000000e+00 0.000000e+00 9.433372e-01 5.666285e-02 0.000000e+00 0.000000e+00
 0.000000e+00 0.000000e+00 0.000000e+00 8.695620e-01 1.304381e-01 0.000000e+00
 0.000000e+00 0.000000e+00 0.000000e+00 0.000000e+00 9.585103e-01 4.148965e-02
 0.000000e+00 0.000000e+00 0.000000e+00 0.000000e+00 0.000000e+00 0.000000e+00
<ENDHMM>
