~o
<STREAMINFO> 1 39
<VECSIZE> 39<NULLD><MFCC_D_A_0><DIAGC>
~h "five"
<BEGINHMM>
<NUMSTATES> 6
<STATE> 2
<MEAN> 39
 -1.959486e+01 -7.709478e+00 -5.313240e+00 -1.283681e+01 3.335703e+00 -9.712314e+00 2.052531e+00 -7.637494e+00 -5.032384e-01 -7.710505e+00 3.292907e+00 -5.474336e+00 8.271360e+01 6.687467e-01 2.178790e-01 -1.989135e-01 -4.207433e-01 -5.288304e-01 -5.688554e-01 1.200430e-01 3.284456e-02 -1.508793e-01 -6.241378e-01 -3.042403e-01 1.573538e-01 1.212433e+00 7.769971e-02 2.550312e-02 7.511133e-03 2.789221e-02 -5.766392e-02 1.174298e-02 -5.041571e-02 9.783868e-02 3.547106e-02 -9.781682e-03 -7.816105e-03 4.466804e-02 -5.507943e-02
<VARIANCE> 39
 8.355485e+01 3.363440e+01 1.636996e+01 1.646916e+01 3.479396e+01 2.994680e+01 2.293435e+01 1.929396e+01 2.568841e+01 3.177840e+01 2.213054e+01 1.597549e+01 5.655686e+01 6.255760e+00 3.308828e+00 1.928175e+00 1.026207e+00 2.933397e+00 2.492287e+00 2.453983e+00 2.016233e+00 2.691555e+00 2.617418e+00 2.776538e+00 1.459172e+00 1.526544e+00 7.326900e-01 6.705075e-01 3.568343e-01 2.210691e-01 4.952036e-01 5.589549e-01 4.711350e-01 4.061159e-01 5.497339e-01 4.735106e-01 6.008868e-01 2.612426e-01 2.372829e-01
<GCONST> 1.151151e+02
<STATE> 3
<MEAN> 39
 -3.596357e+00 -4.292633e+00 -9.870447e+00 -1.683528e+01 -1.869354e+00 -1.198726e+01 1.991536e+00 -2.940702e+00 -1.914917e-01 -1.542450e+01 5.128412e-01 1.161801e-02 9.331000e+01 -2.505841e-01 -2.588164e-01 1.085451e-01 1.889835e-01 7.838686e-01 -4.036871e-01 -3.740597e-01 5.221919e-02 7.109409e-01 1.990057e-01 4.800315e-01 -1.801577e-01 4.818638e-02 -7.573397e-02 5.566578e-02 1.901771e-01 7.950091e-02 8.679417e-02 -2.191529e-01 -7.722248e-02 -6.208536e-02 1.089272e-02 4.552094e-02 -1.726861e-02 -9.702142e-02 -1.066470e-01
<VARIANCE> 39
 7.470934e+00 1.252446e+01 9.627703e+00 1.592853e+01 3.354600e+01 3.965921e+01 2.236805e+01 1.870452e+01 2.529952e+01 4.337609e+01 2.433124e+01 1.435496e+01 7.260122e+00 3.319731e-01 6.468018e-01 1.020380e+00 1.510364e+00 1.606233e+00 4.679219e+00 1.882587e+00 1.470771e+00 1.990124e+00 1.992211e+00 1.178245e+00 1.274384e+00 2.960266e-01 6.529292e-02 1.281564e-01 1.125045e-01 2.991646e-01 3.423261e-01 4.100208e-01 2.744381e-01 2.480396e-01 3.850525e-01 4.194942e-01 2.208367e-01 1.975817e-01 6.820011e-02
<GCONST> 9.134747e+01
<STATE> 4
<MEAN> 39
 -1.091933e+01 -3.963622e+00 5.441310e+00 -6.760938e+00 1.017179e+01 -2.966261e+01 -8.465009e+00 -6.156559e+00 2.538131e+00 -1.397966e+01 -2.938728e-01 -6.317471e+00 8.300128e+01 -4.794930e-01 -1.042750e-01 3.644125e-01 4.016352e-01 2.171636e-01 7.671903e-01 -4.282432e-02 -2.163372e-01 -5.602623e-01 3.064177e-01 -5.062374e-01 -1.860816e-01 -1.231348e+00 -1.554217e-01 3.202493e-03 -2.236020e-01 -1.499766e-01 -1.400924e-01 3.727827e-01 2.668102e-01 -2.553668e-02 -5.429871e-02 -2.490061e-02 1.129035e-01 1.046694e-01 9.969736e-02
<VARIANCE> 39
 1.394580e+01 2.965829e+01 4.768804e+01 3.183463e+01 3.396743e+01 8.631097e+01 2.171842e+01 1.956025e+01 4.817104e+01 5.257672e+01 5.600904e+01 2.748516e+01 5.677203e+01 1.807470e+00 2.348210e+00 5.238411e+00 2.228818e+00 2.796950e+00 1.016794e+01 3.513566e+00 1.494707e+00 2.776782e+00 5.829698e+00 3.259266e+00 2.095954e+00 1.106051e+00 4.680859e-01 4.228173e-01 5.411677e-01 2.834403e-01 5.244668e-01 1.145471e+00 6.000392e-01 3.079942e-01 6.643325e-01 1.154593e+00 6.163010e-01 4.693658e-01 2.413016e-01
<GCONST> 1.233736e+02
<STATE> 5
<MEAN> 39
 -2.364433e+01 -6.306556e+00 -1.587713e+00 -1.041130e+01 7.699999e+00 -7.212656e+00 9.302154e-01 -7.570539e+00 -1.647142e+00 -7.586850e+00 1.816059e+00 -5.249528e+00 7.438607e+01 3.554385e-02 9.418245e-02 6.473744e-03 1.750746e-01 -4.479050e-01 3.881648e-01 1.168130e-01 2.983119e-01 -9.248033e-02 2.473697e-01 -4.754867e-02 1.987771e-01 -5.712271e-01 1.693938e-01 -6.474800e-03 4.920731e-02 1.162686e-01 1.735967e-03 -6.848041e-02 -1.296213e-01 4.801662e-02 -1.083030e-02 1.525918e-02 -1.104954e-01 9.427470e-03 -7.056638e-02
<VARIANCE> 39
 5.272556e+01 2.544569e+01 1.346068e+01 3.111337e+01 3.004422e+01 3.632746e+01 2.019910e+01 2.667531e+01 2.351979e+01 2.017442e+01 2.626892e+01 1.758294e+01 5.821954e+01 3.769419e+00 1.548336e+00 1.290023e+00 2.329534e+00 2.354594e+00 1.945602e+00 1.732601e+00 1.634863e+00 1.536002e+00 1.913743e+00 2.327762e+00 1.376728e+00 2.355420e+00 2.509980e-01 2.044361e-01 2.135496e-01 3.315307e-01 3.860393e-01 3.961095e-01 2.661242e-01 2.739999e-01 2.929635e-01 4.014278e-01 3.447330e-01 2.369692e-01 2.273217e-01
<GCONST> 1.068492e+02
<TRANSP> 6
 0.000000e+00 1.000000e+00 0.000000e+00 0.000000e+00 0.000000e+00 0.000000e+00
 0.000000e+00 9.514197e-01 4.858036e-02 0.000000e+00 0.000000e+00 0.000000e+00
 0.000000e+00 0.000000e+00 9.428273e-01 5.717270e-02 0.000000e+00 0.000000e+00
 0.000000e+00 0.000000e+00 0.000000e+00 9.361665e-01 6.383346e-02 0.000000e+00
 0.000000e+00 0.000000e+00 0.000000e+00 0.000000e+00 9.538290e-01 4.617106e-02
 0.000000e+00 0.000000e+00 0.000000e+00 0.000000e+00 0.000000e+00 0.000000e+00
<ENDHMM>
