~o
<STREAMINFO> 1 39
<VECSIZE> 39<NULLD><MFCC_D_A_0><DIAGC>
~h "ten"
<BEGINHMM>
<NUMSTATES> 6
<STATE> 2
<MEAN> 39
 -1.062978e+01 -1.074594e+01 1.905650e+00 -1.149374e+01 3.868984e+00 -1.818931e+01 9.670486e+00 -1.142101e+01 3.918865e+00 -2.752409e+00 3.759225e+00 -7.345969e+00 9.348630e+01 7.832351e-01 2.578826e-01 -5.864292e-01 -7.537761e-02 -1.890824e-01 -1.174605e+00 1.326758e-01 -2.256775e-01 -9.713944e-01 2.659821e-02 -3.509106e-01 -3.844749e-01 7.070369e-01 -1.785590e-02 2.182037e-01 -2.225178e-01 9.845958e-02 -1.964840e-01 1.309538e-01 -2.160014e-01 1.441464e-01 -3.053657e-01 -5.069783e-02 -1.308424e-01 1.454604e-01 -4.822137e-01
<VARIANCE> 39
 2.593620e+01 2.349420e+01 2.362273e+01 1.239124e+01 1.008466e+01 4.755558e+01 2.859232e+01 1.416254e+01 4.344169e+01 1.682119e+01 1.906450e+01 1.938090e+01 5.996437e+00 2.089177e+00 4.539897e+00 1.960237e+00 1.861657e+00 1.639988e+00 2.497487e+00 3.874197e+00 2.064349e+00 6.344867e+00 2.354640e+00 3.118525e+00 2.736452e+00 3.327939e+00 4.578358e-01 5.694498e-01 3.613121e-01 5.676431e-01 2.445101e-01 6.188169e-01 4.854544e-01 5.085558e-01 9.038987e-01 4.128462e-01 7.368786e-01 6.902745e-01 1.227909e+00
<GCONST> 1.156542e+02
<STATE> 3
<MEAN> 39
 -5.732327e+00 -2.327659e+00 -4.421875e+00 -1.580381e+01 1.050099e+00 -2.360760e+01 4.225484e+00 -1.325590e+01 -1.000888e+01 -4.542684e+00 8.689223e+00 -5.593150e+00 9.530532e+01 6.779815e-02 6.131776e-02 3.840221e-01 -5.505928e-01 7.681420e-01 7.425892e-02 5.124896e-02 -2.046584e-01 -2.383824e-01 -6.697996e-02 1.892589e+00 3.127819e-01 -2.540777e-01 -7.567105e-02 -1.434713e-01 2.460738e-01 1.190634e-02 3.108284e-01 -1.493656e-02 2.389909e-01 -7.436223e-02 1.910525e-01 1.441547e-02 9.594687e-02 -1.031779e-01 -1.835582e-01
<VARIANCE> 39
 2.404553e+00 8.528833e+00 8.054534e+00 1.431665e+01 2.063304e+01 2.087020e+01 3.447622e+01 1.152638e+01 1.697497e+01 1.813843e+01 6.392368e+01 2.580353e+01 4.633161e+00 9.078869e-02 7.257403e-01 1.076258e+00 4.790603e-01 1.760209e+00 1.103015e+00 2.198668e+00 9.320369e-01 1.587891e+00 1.486725e+00 1.457060e+00 1.842272e+00 2.437158e-01 3.723236e-02 1.844969e-01 1.013304e-01 1.127913e-01 2.048484e-01 2.230835e-01 3.117596e-01 1.660737e-01 4.831642e-01 3.204291e-01 5.824162e-01 2.794133e-01 3.817842e-02
<GCONST> 8.215496e+01
<STATE> 4
<MEAN> 39
 -6.532343e+00 2.677881e-01 5.088104e+00 -1.087202e+01 1.408472e+01 -1.668781e+01 4.411438e+00 -1.506161e+01 -1.180251e+01 -7.101670e+00 8.534710e+00 -5.032196e+00 8.086317e+01 4.667399e-02 5.853218e-01 4.474555e-01 1.303310e+00 2.578355e-01 1.167041e+00 -5.338454e-01 4.236946e-01 -2.755108e-01 -1.883255e-01 -1.739528e+00 2.003579e-01 -1.767904e+00 8.945306e-02 1.108577e-02 -1.670510e-01 1.201394e-01 -2.711195e-01 5.184879e-02 -1.265660e-01 1.493806e-01 -5.723847e-02 4.340500e-02 -1.311206e-01 1.719303e-02 -1.762540e-02
<VARIANCE> 39
 1.691510e+01 2.884884e+01 9.405704e+00 3.775952e+01 1.845923e+01 4.140802e+01 2.127809e+01 1.420552e+01 1.857697e+01 1.699022e+01 7.140705e+01 2.484530e+01 4.379977e+01 2.162477e+00 1.674496e+00 1.308516e+00 2.942301e+00 3.182416e+00 2.010110e+00 2.025680e+00 1.748309e+00 2.302558e+00 1.177895e+00 3.034587e+00 1.704131e+00 1.766770e+00 4.408294e-01 3.551650e-01 1.910514e-01 6.954104e-01 4.032224e-01 4.635938e-01 4.204116e-01 2.899344e-01 4.998580e-01 2.189386e-01 7.567448e-01 3.121902e-01 3.544742e-01
<GCONST> 1.097242e+02
<STATE> 5
<MEAN> 39
 -5.317008e+00 2.605180e+00 5.482093e+00 6.206902e-01 5.432698e+00 -6.036999e+00 -3.472029e+00 -7.056710e+00 -1.361532e+01 -7.061402e+00 -3.931471e+00 -6.401099e+00 6.690152e+01 -3.904880e-01 -4.104011e-01 -3.197033e-01 2.865319e-01 -1.091950e+00 7.516940e-01 -3.768235e-01 6.265647e-01 5.399613e-01 2.434148e-01 -2.281429e-01 3.418265e-02 -8.376241e-01 -1.096010e-01 -7.032053e-02 -5.081845e-02 -1.522159e-01 1.720283e-02 -3.869759e-02 9.063770e-02 -5.134756e-02 1.961660e-01 4.260785e-02 9.412614e-02 5.751019e-02 9.144361e-02
<VARIANCE> 39
 8.934135e+00 1.223658e+01 9.827646e+00 1.777721e+01 2.230946e+01 1.914082e+01 1.407464e+01 1.637775e+01 1.877345e+01 2.082673e+01 1.826080e+01 2.170587e+01 9.881944e+00 5.811033e-01 9.047332e-01 1.575043e+00 2.390850e+00 1.027880e+00 1.347045e+00 1.557586e+00 1.631890e+00 1.660155e+00 1.975741e+00 1.596328e+00 2.152377e+00 2.533939e-01 8.907671e-02 1.302873e-01 3.007442e-01 3.468598e-01 2.032654e-01 2.841238e-01 2.635765e-01 3.117074e-01 2.514809e-01 3.735933e-01 2.672326e-01 3.488438e-01 3.342544e-02
<GCONST> 9.006063e+01
<TRANSP> 6
 0.000000e+00 1.000000e+00 0.000000e+00 0.000000e+00 0.000000e+00 0.000000e+00
 0.000000e+00 9.186028e-01 8.139721e-02 0.000000e+00 0.000000e+00 0.000000e+00
 0.000000e+00 0.000000e+00 9.091485e-01 9.085154e-02 0.000000e+00 0.000000e+00
 0.000000e+00 0.000000e+00 0.000000e+00 9.121818e-01 8.781818e-02 0.000000e+00
 0.000000e+00 0.000000e+00 0.000000e+00 0.000000e+00 9.124385e-01 8.756151e-02
 0.000000e+00 0.000000e+00 0.000000e+00 0.000000e+00 0.000000e+00 0.000000e+00
<ENDHMM>
