~o
<STREAMINFO> 1 39
<VECSIZE> 39<NULLD><MFCC_D_A_0><DIAGC>
~h "minus"
<BEGINHMM>
<NUMSTATES> 6
<STATE> 2
<MEAN> 39
 -2.269024e+00 7.855051e+00 -9.707786e-01 -1.342414e+01 5.120190e+00 -1.436430e+01 2.820274e+00 -8.242666e+00 -2.127304e+01 -1.778900e+01 -1.274059e+01 -5.602630e+00 7.690417e+01 1.194078e+00 -6.452993e-01 -2.137051e+00 -1.625300e+00 -1.810405e+00 -2.446272e+00 5.323216e-01 -9.418925e-01 4.381651e-01 -1.435685e+00 2.248565e+00 3.576536e-01 3.842838e+00 -7.261422e-01 -9.676975e-01 -4.614109e-01 1.508409e-01 -3.249618e-01 3.519939e-01 -1.539742e-02 9.425077e-02 8.448358e-01 8.067652e-01 8.096398e-01 3.394390e-01 -4.671124e-02
<VARIANCE> 39
 9.191610e+00 1.660316e+01 3.255168e+01 3.049633e+01 5.331101e+01 5.809044e+01 1.496050e+01 2.795001e+01 6.052068e+01 2.306644e+01 7.139364e+01 2.203222e+01 5.539694e+01 3.670612e+00 6.885753e+00 3.724873e+00 2.631140e+00 5.075351e+00 4.614162e+00 1.968647e+00 1.756190e+00 1.279751e+01 6.573600e+00 1.066774e+01 2.802065e+00 2.735301e+00 2.662598e-01 5.962710e-01 7.065266e-01 6.381659e-01 1.067877e+00 1.504413e+00 3.279940e-01 4.077905e-01 1.852169e+00 8.486500e-01 2.087784e+00 5.805123e-01 5.746188e-01
<GCONST> 1.309544e+02
<STATE> 3
<MEAN> 39
 -6.657823e+00 1.363172e+00 -4.035711e+00 -1.169432e+01 2.479056e+00 -2.220718e+01 -2.884154e+00 -1.198925e+01 -1.153793e+01 -1.152432e+01 -9.172888e-01 -1.113520e+01 8.773515e+01 -1.173412e-01 -1.689843e-02 1.668760e-01 1.120945e-01 3.129871e-01 -1.274159e-02 -3.071828e-01 -7.923404e-02 1.332762e-01 4.446906e-01 3.891755e-01 -5.793940e-02 4.002783e-02 4.945216e-02 2.241531e-02 5.043537e-02 -6.312648e-03 6.024996e-02 -2.237277e-03 -1.436263e-02 6.178942e-02 -1.506275e-02 2.078424e-02 -1.723813e-02 3.635766e-02 -7.121811e-02
<VARIANCE> 39
 1.048280e+01 3.486163e+01 7.287575e+01 2.380488e+01 1.852989e+01 7.896109e+01 3.768453e+01 1.726019e+01 2.423401e+01 3.304787e+01 3.586589e+01 3.480751e+01 4.694023e+01 1.325816e+00 2.672269e+00 2.828748e+00 1.419221e+00 1.346930e+00 7.242379e+00 1.542131e+00 1.870199e+00 1.593142e+00 2.779679e+00 4.752738e+00 2.264239e+00 2.828085e+00 2.729848e-01 3.948448e-01 3.485172e-01 2.615764e-01 3.079773e-01 1.192109e+00 2.739013e-01 3.930084e-01 3.068161e-01 4.161603e-01 7.686546e-01 3.093621e-01 3.842396e-01
<GCONST> 1.150580e+02
<STATE> 4
<MEAN> 39
 -9.122376e+00 -2.144591e+00 1.003543e+00 -1.450315e+01 7.146523e+00 -1.635685e+01 -4.712314e+00 -1.089709e+01 -9.812980e+00 -4.969177e+00 9.873661e+00 1.297533e+00 8.572468e+01 -1.122666e+00 -4.052635e-01 6.540333e-01 -1.932711e-01 -1.150875e-01 8.411878e-01 1.194892e-01 2.543465e-01 5.877362e-01 -6.540506e-03 -3.668403e-01 -5.412715e-02 -1.388403e-01 -2.931580e-01 7.123446e-03 4.107293e-04 -1.829267e-02 -8.194777e-02 3.675100e-02 5.650273e-02 1.644968e-02 8.232078e-02 -4.632753e-02 -1.207899e-01 -1.613651e-01 6.987535e-02
<VARIANCE> 39
 3.230856e+01 3.436613e+01 3.838720e+01 1.184234e+01 1.254111e+01 4.298124e+01 3.066387e+01 1.680565e+01 2.572790e+01 2.529856e+01 2.659085e+01 2.358004e+01 2.323878e+01 4.166415e+00 4.177364e+00 1.303279e+00 1.060893e+00 1.385527e+00 1.875581e+00 1.427088e+00 1.749104e+00 3.759813e+00 1.891815e+00 1.674517e+00 3.153527e+00 1.861105e+00 3.922402e-01 7.275808e-01 3.218285e-01 2.157629e-01 2.802266e-01 3.493928e-01 2.616788e-01 2.962206e-01 5.550212e-01 3.597279e-01 3.131808e-01 3.098610e-01 2.672046e-01
<GCONST> 1.086406e+02
<STATE> 5
<MEAN> 39
 -3.261038e+01 -6.163840e+00 3.185302e+00 -1.759114e+01 8.420036e+00 -8.518502e+00 2.689329e+00 -3.924683e+00 2.072199e+00 -3.135365e+00 2.805247e+00 -5.140392e+00 8.399699e+01 2.779948e-01 1.594438e-01 -1.864791e-01 1.606395e-01 -1.625556e-02 -6.438421e-02 1.515602e-01 2.437682e-01 -1.084354e-01 1.293247e-01 -1.759745e-01 1.300250e-01 -9.096676e-01 2.522641e-01 5.499976e-02 -1.142842e-02 9.855866e-02 2.666317e-02 1.359755e-02 -7.076393e-02 -8.452411e-03 -1.332846e-01 1.977056e-02 -3.056842e-02 8.213606e-02 -1.532315e-01
<VARIANCE> 39
 2.681260e+01 1.711919e+01 1.868970e+01 1.882250e+01 2.163769e+01 1.696459e+01 1.814966e+01 1.924195e+01 1.521126e+01 1.063657e+01 1.139516e+01 1.288739e+01 6.168818e+01 3.039860e+00 9.847165e-01 1.324487e+00 1.679853e+00 1.737920e+00 1.459430e+00 1.256700e+00 1.557814e+00 1.061860e+00 8.907615e-01 9.131573e-01 8.488310e-01 2.007856e+00 3.049158e-01 2.039422e-01 2.031779e-01 2.707140e-01 3.085060e-01 3.175761e-01 2.218356e-01 2.550158e-01 2.097076e-01 1.611122e-01 1.654046e-01 1.837024e-01 1.784623e-01
<GCONST> 9.403561e+01
<TRANSP> 6
 0.000000e+00 1.000000e+00 0.000000e+00 0.000000e+00 0.000000e+00 0.000000e+00
 0.000000e+00 8.181065e-01 1.818935e-01 0.000000e+00 0.000000e+00 0.000000e+00
 0.000000e+00 0.000000e+00 9.676875e-01 3.231248e-02 0.000000e+00 0.000000e+00
 0.000000e+00 0.000000e+00 0.000000e+00 9.430658e-01 5.693430e-02 0.000000e+00
 0.000000e+00 0.000000e+00 0.000000e+00 0.000000e+00 9.601441e-01 3.985591e-02
 0.000000e+00 0.000000e+00 0.000000e+00 0.000000e+00 0.000000e+00 0.000000e+00
<ENDHMM>
