~o
<STREAMINFO> 1 39
<VECSIZE> 39<NULLD><MFCC_D_A_0><DIAGC>
~h "three"
<BEGINHMM>
<NUMSTATES> 6
<STATE> 2
<MEAN> 39
 -1.753621e+01 -8.204513e+00 -1.452043e-02 -1.274898e+01 6.573849e-01 -1.015135e+01 -3.384344e+00 -8.450973e+00 1.406302e+00 -7.180250e+00 1.849046e+00 -6.671686e+00 8.593513e+01 1.199298e+00 1.744511e+00 6.701400e-01 4.805704e-01 1.438660e+00 -2.590103e+00 -1.222179e+00 -2.001668e+00 -1.534156e+00 -7.853558e-01 -8.503692e-01 -9.930119e-01 3.509462e+00 7.601923e-01 1.167105e+00 1.364964e-02 1.304184e+00 5.973270e-01 -1.386452e-01 -1.077474e-02 -1.914252e-02 -9.234319e-01 2.043753e-01 -6.776369e-01 4.415294e-01 -1.767731e+00
<VARIANCE> 39
 6.187525e+00 2.634800e+01 9.897618e+00 3.686169e+01 3.049909e+01 1.350354e+01 1.729348e+01 1.635864e+01 2.350653e+01 3.091046e+01 1.573312e+01 2.273645e+01 1.076553e+02 3.488169e+00 8.747907e+00 1.319439e+00 1.193295e+01 3.391843e+00 2.316749e+00 1.140103e+00 2.252080e+00 7.634180e+00 3.357804e+00 3.531038e+00 2.444288e+00 2.199729e+01 2.783137e-01 6.362333e-01 2.445319e-01 1.016647e+00 5.047743e-01 3.581493e-01 4.035998e-01 2.786237e-01 6.662554e-01 7.890685e-01 3.649408e-01 5.360000e-01 2.319946e+00
<GCONST> 1.207009e+02
<STATE> 3
<MEAN> 39
 -3.868307e+00 8.003505e+00 -6.816594e+00 -9.387694e+00 1.372454e+01 -2.152588e+01 -1.098523e+00 -1.686256e+01 -1.112109e+01 -1.084226e+01 -7.876932e+00 -2.707639e+00 8.624215e+01 3.900161e-01 2.358180e-01 -5.612400e-01 3.266470e-01 1.957449e-01 -5.445030e-01 -3.496736e-02 -2.604608e-01 1.674113e-01 -2.671907e-02 -2.758849e-02 -3.894041e-02 9.974218e-02 -1.933767e-01 -2.106837e-01 7.249615e-02 -1.524540e-02 -1.781702e-01 7.971470e-02 -2.552082e-03 1.713096e-01 2.299872e-01 -2.789208e-02 1.098677e-01 -1.119672e-01 4.374124e-02
<VARIANCE> 39
 7.570830e+00 1.203607e+01 3.547697e+01 4.438503e+01 2.999905e+01 3.532802e+01 4.031128e+01 2.304964e+01 3.231749e+01 2.189983e+01 2.570558e+01 2.132475e+01 1.497353e+01 1.233445e+00 2.030126e+00 1.214045e+00 4.052766e+00 4.280170e+00 3.749269e+00 3.867951e+00 2.437840e+00 3.368005e+00 2.473228e+00 2.592313e+00 2.290188e+00 7.397203e-01 1.223976e-01 2.281915e-01 2.457898e-01 5.428542e-01 7.392690e-01 8.057507e-01 5.983344e-01 5.115914e-01 4.884594e-01 5.330063e-01 3.471641e-01 3.192242e-01 1.303350e-01
<GCONST> 1.111791e+02
<STATE> 4
<MEAN> 39
 -1.033437e+01 2.654366e+00 5.842228e+00 2.536415e+00 5.653615e+00 -2.955362e+01 -7.207084e+00 -7.995471e+00 -2.761833e+00 -1.845765e+01 -6.530266e-01 -8.284740e+00 8.821175e+01 -6.679116e-01 7.250418e-02 1.988372e+00 2.552778e-01 -1.512737e-01 -1.618996e-01 4.001406e-01 1.012620e+00 -1.719772e-01 -9.774255e-01 1.852466e-01 4.941918e-02 -5.789337e-01 3.990775e-02 3.699256e-02 -4.739735e-02 -1.263255e-01 1.132515e-01 1.819983e-01 1.868818e-01 -9.682815e-02 -1.083832e-01 1.071859e-01 -4.340399e-02 1.185459e-01 -1.190605e-01
<VARIANCE> 39
 7.967565e+00 1.990909e+01 8.854399e+01 8.653313e+00 1.268530e+01 2.608615e+01 1.615503e+01 4.394334e+01 2.389631e+01 4.283875e+01 1.385274e+01 1.881091e+01 1.356773e+01 2.367314e-01 1.053013e+00 1.171065e+00 7.413166e-01 1.358423e+00 2.768461e+00 1.335757e+00 2.039555e+00 1.318639e+00 2.032897e+00 9.332965e-01 2.001597e+00 6.162879e-01 3.809381e-02 1.726208e-01 2.459775e-01 1.601707e-01 1.753793e-01 6.662821e-01 1.592962e-01 3.076448e-01 2.997055e-01 4.090224e-01 2.200828e-01 4.413298e-01 5.248651e-02
<GCONST> 9.197830e+01
<STATE> 5
<MEAN> 39
 -1.504749e+01 -5.346991e-01 1.411830e+01 9.341131e-01 4.663516e+00 -1.610795e+01 9.456452e-01 -2.132680e+00 -5.179655e+00 -1.290146e+01 -1.749592e+00 -5.276698e+00 7.135637e+01 1.498623e-01 -6.882279e-01 -1.391517e+00 -4.650296e-01 -5.855390e-01 2.051301e+00 2.691065e-02 2.500274e-01 3.499799e-02 1.467097e+00 -1.654261e-01 5.137590e-01 -1.413566e+00 5.398637e-02 1.424711e-03 -1.619774e-01 -7.280961e-02 -7.500096e-02 -3.224727e-02 -1.137206e-01 6.222575e-03 4.401091e-02 2.090634e-03 2.828098e-02 4.438566e-02 7.058115e-02
<VARIANCE> 39
 5.675478e+00 2.892984e+01 8.478005e+01 2.612774e+01 2.786801e+01 1.176905e+02 2.617763e+01 2.976493e+01 2.330466e+01 7.015697e+01 1.316483e+01 2.113262e+01 5.718269e+01 9.543188e-01 1.542624e+00 6.859522e+00 2.458750e+00 1.979936e+00 5.370981e+00 2.556227e+00 1.808826e+00 2.184857e+00 2.898747e+00 1.572012e+00 2.001709e+00 8.681657e-01 1.264210e-01 3.193889e-01 1.236000e+00 4.764446e-01 4.343013e-01 1.042564e+00 4.399477e-01 2.622921e-01 4.434483e-01 5.402219e-01 3.097473e-01 4.357976e-01 1.490238e-01
<GCONST> 1.142413e+02
<TRANSP> 6
 0.000000e+00 1.000000e+00 0.000000e+00 0.000000e+00 0.000000e+00 0.000000e+00
 0.000000e+00 7.368653e-01 2.631347e-01 0.000000e+00 0.000000e+00 0.000000e+00
 0.000000e+00 0.000000e+00 9.515758e-01 4.842420e-02 0.000000e+00 0.000000e+00
 0.000000e+00 0.000000e+00 0.000000e+00 9.313196e-01 6.868042e-02 0.000000e+00
 0.000000e+00 0.000000e+00 0.000000e+00 0.000000e+00 9.258634e-01 7.413653e-02
 0.000000e+00 0.000000e+00 0.000000e+00 0.000000e+00 0.000000e+00 0.000000e+00
<ENDHMM>
