~o
<STREAMINFO> 1 39
<VECSIZE> 39<NULLD><MFCC_D_A_0><DIAGC>
~h "one"
<BEGINHMM>
<NUMSTATES> 6
<STATE> 2
<MEAN> 39
 -4.896159e+00 1.075881e+01 1.261749e+00 -1.334546e+01 -4.817211e+00 -1.783415e+01 -2.146644e+00 -4.088871e+00 -6.239517e+00 -9.124448e+00 -5.545455e+00 -9.044220e+00 8.101934e+01 6.829879e-01 -8.414145e-01 -1.010713e+00 -3.328071e-01 -9.391272e-01 -4.015739e-02 -1.423664e-02 1.786240e-01 2.064733e-01 -7.672486e-02 -1.600333e-01 3.335057e-01 2.466509e+00 -2.108733e-01 -3.450957e-01 -1.767597e-01 1.322430e-01 1.772058e-01 3.008569e-01 1.201514e-01 1.317197e-01 2.246705e-01 1.201600e-01 1.048473e-01 1.450423e-01 -1.541136e-01
<VARIANCE> 39
 1.974723e+01 5.236903e+01 2.885316e+01 4.849469e+01 6.286757e+01 6.312194e+01 6.015372e+01 2.467752e+01 2.583273e+01 4.372082e+01 2.312801e+01 2.933915e+01 9.229585e+01 1.734050e+00 8.788397e+00 2.821112e+00 3.509645e+00 5.672711e+00 6.343384e+00 2.973542e+00 2.086906e+00 3.949514e+00 5.218136e+00 2.082076e+00 2.456132e+00 2.827784e+00 2.955247e-01 1.510005e+00 5.515959e-01 6.885288e-01 1.097017e+00 9.710364e-01 5.146833e-01 3.748275e-01 7.318493e-01 1.001104e+00 4.971044e-01 3.663175e-01 5.444270e-01
<GCONST> 1.296681e+02
<STATE> 3
<MEAN> 39
 -5.861808e+00 2.859000e+00 -5.738523e+00 -1.520864e+01 -1.806929e+00 -1.296901e+01 1.585595e+00 -1.632642e+00 -4.411418e+00 -1.279234e+01 4.618875e+00 1.384445e-02 9.299321e+01 -4.347219e-01 4.933082e-01 3.798792e-01 7.521648e-02 1.191762e+00 -1.135597e-01 2.914121e-01 -4.730918e-01 -4.913903e-01 -3.717943e-01 1.858134e+00 1.342227e-01 -3.657562e-01 1.713025e-03 1.901864e-01 2.251305e-01 1.468010e-01 1.400541e-01 -2.418671e-02 -1.120614e-01 -1.374256e-01 -8.571312e-02 9.372460e-02 -1.570292e-01 -1.358920e-01 -2.611257e-01
<VARIANCE> 39
 5.373941e+00 1.241913e+01 1.583436e+01 1.132765e+01 3.597222e+01 2.355788e+01 3.310262e+01 3.121373e+01 4.666343e+01 3.081296e+01 9.800291e+01 2.364527e+01 4.522078e+00 1.770195e-01 8.543250e-01 1.215178e+00 1.417838e+00 1.757206e+00 2.030535e+00 1.475155e+00 2.671387e+00 2.145135e+00 2.897000e+00 3.534266e+00 2.752916e+00 6.360428e-01 4.462319e-02 1.946445e-01 1.885504e-01 3.355826e-01 2.790447e-01 5.041139e-01 1.791437e-01 4.258393e-01 4.830822e-01 5.257007e-01 1.024987e+00 3.373258e-01 1.000546e-01
<GCONST> 9.945056e+01
<STATE> 4
<MEAN> 39
 -7.747883e+00 5.287149e+00 3.881139e+00 -5.936342e+00 1.678282e+01 -1.033878e+01 -3.055880e+00 -7.541733e+00 -4.556559e+00 -7.613163e+00 6.523426e+00 -5.306592e+00 7.761432e+01 2.971026e-01 -5.194648e-01 5.657156e-01 1.093453e+00 6.466752e-01 7.534225e-01 -5.675260e-01 -1.967840e-02 3.006113e-01 6.555419e-01 -1.367145e+00 -1.283318e-01 -1.525122e+00 6.845563e-02 -1.263846e-01 -2.090194e-01 -7.861940e-02 -3.553746e-01 -5.465377e-02 3.049250e-02 9.539062e-02 -8.579714e-03 -4.764670e-02 9.674311e-02 5.403243e-02 1.057870e-01
<VARIANCE> 39
 1.616088e+01 1.476237e+01 1.653971e+01 2.913228e+01 4.064946e+01 3.879448e+01 2.498683e+01 2.283905e+01 5.950017e+01 2.785510e+01 7.672137e+01 1.381973e+01 3.024527e+01 6.102115e-01 6.086177e-01 1.399578e+00 3.361809e+00 4.312322e+00 2.231405e+00 1.793361e+00 2.303793e+00 2.022867e+00 2.153790e+00 3.734223e+00 9.778361e-01 1.273947e+00 1.174471e-01 1.421043e-01 2.159621e-01 6.729106e-01 6.168401e-01 4.264964e-01 3.217015e-01 3.964325e-01 3.482837e-01 3.879128e-01 7.576263e-01 1.426930e-01 2.006199e-01
<GCONST> 1.068290e+02
<STATE> 5
<MEAN> 39
 -5.674168e+00 8.466023e-01 4.011720e+00 3.264553e+00 8.561843e+00 -3.339139e+00 -6.551870e+00 -6.941105e+00 -5.370181e+00 -1.466805e+00 1.012702e+00 -5.357965e+00 6.693939e+01 -3.848444e-01 -3.195896e-01 -2.040223e-01 3.067493e-01 -7.559315e-01 4.971215e-01 1.083613e-01 2.946264e-01 8.617915e-02 3.918150e-01 -2.322803e-01 6.526950e-02 -6.811764e-01 -7.358399e-02 1.869086e-02 3.654601e-02 -1.170510e-01 1.138415e-01 -3.899479e-02 5.378547e-02 2.356275e-02 1.890795e-02 -5.053907e-02 6.229881e-03 2.856134e-02 4.732776e-02
<VARIANCE> 39
 1.565169e+01 1.952304e+01 1.634642e+01 8.289144e+00 2.795760e+01 1.848388e+01 2.530191e+01 2.114315e+01 1.986796e+01 5.436439e+01 2.469395e+01 2.080847e+01 1.470391e+01 6.576222e-01 7.042890e-01 9.334517e-01 9.750640e-01 1.671232e+00 1.481545e+00 1.792550e+00 1.687199e+00 1.465258e+00 1.979856e+00 1.246904e+00 1.547412e+00 2.089488e-01 7.989299e-02 1.167770e-01 1.431485e-01 1.408586e-01 2.586153e-01 2.948736e-01 2.920981e-01 3.487327e-01 2.704914e-01 3.473198e-01 2.578082e-01 3.178302e-01 3.471551e-02
<GCONST> 9.039561e+01
<TRANSP> 6
 0.000000e+00 1.000000e+00 0.000000e+00 0.000000e+00 0.000000e+00 0.000000e+00
 0.000000e+00 8.927314e-01 1.072686e-01 0.000000e+00 0.000000e+00 0.000000e+00
 0.000000e+00 0.000000e+00 9.222890e-01 7.771103e-02 0.000000e+00 0.000000e+00
 0.000000e+00 0.000000e+00 0.000000e+00 9.111108e-01 8.888922e-02 0.000000e+00
 0.000000e+00 0.000000e+00 0.000000e+00 0.000000e+00 9.245833e-01 7.541679e-02
 0.000000e+00 0.000000e+00 0.000000e+00 0.000000e+00 0.000000e+00 0.000000e+00
<ENDHMM>
