~o
<STREAMINFO> 1 39
<VECSIZE> 39<NULLD><MFCC_D_A_0><DIAGC>
~h "plus"
<BEGINHMM>
<NUMSTATES> 6
<STATE> 2
<MEAN> 39
 -1.125031e+01 -3.787746e+00 -4.824173e+00 -1.182670e+01 -5.948787e+00 -1.120624e+01 3.247347e+00 -1.500347e+01 -8.158299e+00 -9.800720e+00 2.220402e+00 -1.138285e+00 8.535876e+01 8.728027e-01 7.198864e-01 -9.200745e-01 -4.976932e-01 -6.057495e-01 -1.233151e+00 2.810206e-01 -7.659410e-01 -1.157990e+00 -7.096938e-01 -2.056124e-01 1.499605e-01 1.376499e+00 4.910842e-02 3.005584e-02 -6.095857e-02 7.704153e-02 1.284295e-01 1.284984e-02 -7.610679e-02 2.507720e-01 1.336059e-01 1.404078e-01 -1.380788e-01 -3.941178e-02 -4.047678e-01
<VARIANCE> 39
 3.125423e+01 5.942248e+01 1.973673e+01 1.303743e+01 2.130896e+01 5.752287e+01 2.562609e+01 2.654723e+01 5.445975e+01 3.743579e+01 3.174687e+01 1.549451e+01 1.446435e+01 2.433671e+00 5.846533e+00 1.879116e+00 1.618268e+00 1.592544e+00 3.942913e+00 1.600127e+00 2.350549e+00 4.221896e+00 3.173635e+00 3.539304e+00 1.633338e+00 2.588407e+00 5.295579e-01 1.232986e+00 3.578600e-01 3.023488e-01 2.728668e-01 7.542387e-01 3.063944e-01 4.491138e-01 1.037554e+00 6.207443e-01 7.854176e-01 3.169029e-01 6.014132e-01
<GCONST> 1.185550e+02
<STATE> 3
<MEAN> 39
 -3.833146e+00 -5.607439e+00 -1.700344e+01 -1.639695e+01 2.419441e-01 -1.521225e+01 2.770308e+00 -1.306728e+01 -1.160647e+00 -1.260941e+01 3.791720e+00 -2.317376e+00 8.852134e+01 6.156013e-02 -4.856770e-01 -1.097230e-01 -2.173619e-01 5.935329e-01 4.200618e-01 -8.688979e-02 1.131426e-01 1.292685e+00 -1.309550e-01 2.783187e-01 1.956493e-01 -6.080756e-01 -8.017658e-02 1.543488e-01 1.634875e-01 1.609995e-02 -4.322937e-02 5.081213e-02 -3.316458e-02 -8.671994e-02 -7.940815e-02 -3.272156e-02 -7.674390e-03 6.724650e-02 -1.344849e-01
<VARIANCE> 39
 4.102088e+00 1.816184e+01 2.204961e+01 1.320300e+01 2.527338e+01 2.526362e+01 1.759598e+01 1.705436e+01 9.119164e+01 2.816985e+01 3.308084e+01 2.807971e+01 1.558590e+01 4.081930e-01 1.249323e+00 2.134940e+00 6.240215e-01 1.284773e+00 1.415002e+00 1.224134e+00 1.787976e+00 2.179835e+00 1.872978e+00 1.944088e+00 1.755864e+00 6.809455e-01 7.651836e-02 1.596213e-01 2.367696e-01 1.322784e-01 2.572690e-01 2.579025e-01 2.511905e-01 2.662116e-01 3.958659e-01 3.739645e-01 3.093179e-01 2.645889e-01 7.650890e-02
<GCONST> 9.423119e+01
<STATE> 4
<MEAN> 39
 -1.256129e+01 -3.709489e+00 -4.755068e+00 -1.928111e+01 5.591841e+00 -9.175916e+00 -4.418778e-01 -1.479184e+01 4.013377e+00 -1.056435e+01 6.954496e+00 1.562345e+00 7.669762e+01 -2.873570e+00 -1.910013e-01 2.147707e+00 -2.440414e-01 3.333294e-03 8.308266e-01 -3.289153e-01 1.178619e+00 -9.030314e-01 1.643779e+00 -3.464433e-01 -6.829687e-01 4.436347e-01 -4.913480e-01 -2.576890e-01 -9.042328e-02 1.073235e-01 -1.128713e-01 1.363448e-02 2.163644e-01 4.226370e-01 4.082662e-02 1.334901e-01 -1.234742e-01 -1.893357e-01 5.476609e-01
<VARIANCE> 39
 4.499422e+01 2.121770e+01 4.234677e+01 1.223071e+01 1.747876e+01 2.852146e+01 2.627446e+01 2.830408e+01 5.764457e+01 6.087700e+01 2.176681e+01 3.520570e+01 2.257297e+01 4.707957e+00 4.217549e+00 1.567105e+00 1.164799e+00 2.839034e+00 2.123300e+00 3.013634e+00 4.572081e+00 3.506595e+00 6.520017e+00 1.718804e+00 2.751659e+00 5.596540e+00 5.435609e-01 7.277670e-01 3.618075e-01 2.112248e-01 6.008731e-01 4.494185e-01 5.433626e-01 5.346832e-01 6.875953e-01 1.357118e+00 3.237299e-01 4.672906e-01 5.074395e-01
<GCONST> 1.212682e+02
<STATE> 5
<MEAN> 39
 -3.304080e+01 -5.795002e+00 2.781537e+00 -1.675035e+01 7.942787e+00 -7.646575e+00 2.914056e+00 -4.263451e+00 1.240273e+00 -3.103471e+00 1.845588e+00 -4.163464e+00 8.351784e+01 3.310952e-01 2.151373e-01 5.036374e-02 3.094907e-01 1.165462e-01 -1.181969e-01 3.889241e-02 6.460708e-02 -1.696688e-01 -3.648143e-03 -2.441914e-01 4.798552e-02 -7.914635e-01 2.523595e-01 3.568413e-02 -6.512382e-02 2.674364e-02 1.043627e-03 -1.162753e-02 -5.967050e-02 -6.229016e-02 -6.656015e-02 -2.441727e-02 -5.626034e-03 5.547120e-02 -1.730325e-01
<VARIANCE> 39
 3.581976e+01 6.885410e+00 1.137255e+01 1.384009e+01 1.781687e+01 1.680851e+01 1.575391e+01 1.211917e+01 1.114166e+01 9.140916e+00 9.055346e+00 7.126183e+00 4.665857e+01 3.336047e+00 6.342613e-01 7.413259e-01 8.735099e-01 1.454527e+00 1.399882e+00 1.558172e+00 1.571176e+00 1.241796e+00 1.325721e+00 9.473075e-01 7.372046e-01 2.250728e+00 3.631419e-01 1.429853e-01 1.330116e-01 1.548551e-01 2.432875e-01 2.427553e-01 2.780394e-01 3.534021e-01 2.321390e-01 3.426889e-01 1.866626e-01 1.310594e-01 1.466406e-01
<GCONST> 8.855173e+01
<TRANSP> 6
 0.000000e+00 1.000000e+00 0.000000e+00 0.000000e+00 0.000000e+00 0.000000e+00
 0.000000e+00 9.129130e-01 8.708696e-02 0.000000e+00 0.000000e+00 0.000000e+00
 0.000000e+00 0.000000e+00 9.433369e-01 5.666311e-02 0.000000e+00 0.000000e+00
 0.000000e+00 0.000000e+00 0.000000e+00 8.695610e-01 1.304390e-01 0.000000e+00
 0.000000e+00 0.000000e+00 0.000000e+00 0.000000e+00 9.585108e-01 4.148918e-02
 0.000000e+00 0.000000e+00 0.000000e+00 0.000000e+00 0.000000e+00 0.000000e+00
<ENDHMM>
