~o
<STREAMINFO> 1 39
<VECSIZE> 39<NULLD><MFCC_D_A_0><DIAGC>
~h "sil"
<BEGINHMM>
<NUMSTATES> 6
<STATE> 2
<MEAN> 39
 -1.558958e+01 -3.384688e+00 -4.509428e-01 -4.583907e+00 1.939471e+00 -3.063200e+00 -2.112121e+00 -3.654640e+00 -3.734597e+00 -2.724192e+00 -6.041089e-02 -1.837439e+00 6.193970e+01 2.888288e-02 -4.306752e-03 -7.670767e-02 9.907356e-02 -1.109386e-01 1.220425e-01 -1.894435e-02 -5.395627e-03 3.844829e-02 -4.480364e-02 -7.180162e-02 -3.128055e-02 -9.186153e-02 1.657040e-02 -6.558023e-03 4.628129e-03 2.256977e-02 -3.601778e-02 -2.707160e-02 -2.744647e-03 -1.743342e-02 3.704197e-02 -4.429071e-03 5.728891e-03 -1.198930e-02 2.856644e-02
<VARIANCE> 39
 2.263395e+01 2.433076e+01 3.644905e+01 4.175516e+01 2.544638e+01 3.075218e+01 2.353610e+01 3.408646e+01 2.444527e+01 2.036845e+01 2.330851e+01 2.011572e+01 1.684882e+01 1.253809e+00 1.328817e+00 1.642326e+00 2.032816e+00 2.148335e+00 2.224841e+00 2.160812e+00 2.202928e+00 2.124576e+00 2.001490e+00 1.599072e+00 1.531721e+00 1.695531e+00 2.225691e-01 2.330535e-01 2.953351e-01 3.431462e-01 4.018570e-01 3.937936e-01 4.143806e-01 4.082896e-01 4.179947e-01 3.912000e-01 3.039659e-01 2.944206e-01 3.212645e-01
<GCONST> 1.073346e+02
<STATE> 3
<MEAN> 39
 -1.551852e+01 -2.474381e+00 -1.245182e+00 -3.222735e+00 -4.564170e-01 -3.540804e+00 -2.004241e+00 -3.049862e+00 -2.188863e+00 -2.760969e+00 -1.325256e+00 -2.205252e+00 5.995487e+01 2.770043e-02 -3.523865e-02 3.560938e-03 2.487033e-02 -2.581396e-02 -1.851717e-03 2.787014e-02 -1.030174e-02 3.314135e-02 -2.703641e-02 -8.838682e-03 -1.955138e-02 5.101701e-02 1.491887e-03 -2.331048e-03 9.599266e-03 -1.439400e-02 9.013433e-03 -3.572844e-03 -8.456750e-03 6.043079e-05 -1.327559e-02 6.613752e-03 4.410804e-03 2.071219e-03 1.092248e-02
<VARIANCE> 39
 5.861414e+00 4.565496e+00 7.222692e+00 1.011191e+01 8.873585e+00 1.080659e+01 1.025318e+01 1.277640e+01 1.090333e+01 1.074973e+01 1.073014e+01 9.508309e+00 3.735352e+00 1.699434e-01 2.227090e-01 3.908602e-01 6.102668e-01 8.155071e-01 9.133106e-01 1.044315e+00 1.086124e+00 1.146058e+00 1.083766e+00 1.051086e+00 9.085517e-01 8.218668e-02 3.327944e-02 4.536218e-02 8.114118e-02 1.201508e-01 1.622039e-01 1.872610e-01 2.195236e-01 2.213761e-01 2.343156e-01 2.268783e-01 2.209572e-01 1.882348e-01 1.326639e-02
<GCONST> 6.411472e+01
<STATE> 4
<MEAN> 39
 -1.427738e+01 -4.354639e+00 -1.122156e+00 -2.802500e+00 -2.313201e+00 -2.472762e+00 -3.123572e+00 -1.721817e+00 -3.032228e+00 -1.951389e+00 -2.399524e+00 -1.561999e+00 5.905269e+01 -3.832971e-03 3.002953e-03 -8.534365e-03 1.096183e-02 -2.142995e-02 2.230880e-02 -2.490997e-02 9.169050e-03 -4.458081e-03 2.130342e-02 4.787765e-04 9.874183e-03 -3.822394e-02 6.270243e-04 3.626696e-03 4.542956e-03 -2.593467e-03 9.415873e-03 -3.728613e-03 6.212282e-03 5.681360e-03 -1.086286e-03 2.104451e-04 2.801277e-04 1.015621e-03 5.095117e-03
<VARIANCE> 39
 1.933779e+00 2.325357e+00 2.866575e+00 4.735168e+00 5.257720e+00 6.304984e+00 7.062166e+00 7.681398e+00 7.845238e+00 7.720859e+00 7.167821e+00 6.599375e+00 1.546591e+00 6.301963e-02 1.302791e-01 2.304555e-01 3.468037e-01 4.641956e-01 5.796477e-01 6.737778e-01 7.533755e-01 7.772012e-01 7.973317e-01 7.348797e-01 6.354229e-01 1.981411e-02 1.290659e-02 2.695955e-02 4.831414e-02 7.134739e-02 9.569217e-02 1.197973e-01 1.388991e-01 1.554131e-01 1.603595e-01 1.649986e-01 1.531101e-01 1.275772e-01 3.917543e-03
<GCONST> 4.215044e+01
<STATE> 5
<MEAN> 39
 -1.531945e+01 -2.431618e+00 5.526931e-01 -4.626164e+00 1.996890e+00 -4.203057e+00 -9.611655e-01 -3.430253e+00 -2.725830e+00 -2.944686e+00 -1.225605e+00 -2.754998e+00 6.397203e+01 5.368559e-02 4.225041e-02 3.556131e-01 -5.525250e-01 5.143179e-01 -6.036993e-01 1.662459e-01 -3.873885e-01 -1.634258e-01 -1.840518e-01 6.350079e-03 -2.492727e-01 1.232135e+00 1.682752e-02 6.554800e-03 3.717437e-02 -9.639486e-02 3.711497e-02 -1.614119e-01 2.390439e-03 -1.161207e-01 -2.902832e-02 -1.187484e-01 2.030568e-02 -6.763680e-02 3.079541e-01
<VARIANCE> 39
 2.235338e+01 2.793517e+01 2.603962e+01 4.178502e+01 2.800147e+01 4.041471e+01 2.279029e+01 2.829618e+01 2.528389e+01 2.029517e+01 2.167392e+01 1.535643e+01 4.221732e+01 2.709882e+00 3.188234e+00 2.734244e+00 3.610172e+00 3.108314e+00 4.412276e+00 2.434060e+00 2.645694e+00 2.887654e+00 2.630418e+00 2.386455e+00 1.548842e+00 6.534443e+00 4.422880e-01 5.364152e-01 4.974985e-01 6.580061e-01 5.700517e-01 7.593862e-01 5.008416e-01 4.788390e-01 4.794952e-01 4.890548e-01 4.267575e-01 2.887582e-01 9.866913e-01
<GCONST> 1.201588e+02
<TRANSP> 6
 0.000000e+00 6.148795e-01 3.851205e-01 0.000000e+00 0.000000e+00 0.000000e+00
 0.000000e+00 9.221162e-01 7.548249e-02 2.401369e-03 0.000000e+00 0.000000e+00
 0.000000e+00 0.000000e+00 9.508438e-01 3.272969e-02 1.642657e-02 0.000000e+00
 0.000000e+00 0.000000e+00 0.000000e+00 9.706856e-01 1.085284e-02 1.846159e-02
 0.000000e+00 0.000000e+00 0.000000e+00 0.000000e+00 8.972311e-01 1.027689e-01
 0.000000e+00 0.000000e+00 0.000000e+00 0.000000e+00 0.000000e+00 0.000000e+00
<ENDHMM>
