~o
<STREAMINFO> 1 39
<VECSIZE> 39<NULLD><MFCC_D_A_0><DIAGC>
~h "two"
<BEGINHMM>
<NUMSTATES> 6
<STATE> 2
<MEAN> 39
 -2.023981e+01 -8.883671e+00 7.731235e-01 -8.156828e+00 2.104022e+00 -1.010744e+01 2.197983e-01 -1.205000e+01 -4.211654e+00 2.949577e-01 4.798700e+00 -7.703312e+00 8.995040e+01 7.405357e-01 6.409287e-01 -3.284454e-01 -2.686439e-01 5.967982e-01 -6.610761e-01 9.076761e-02 -1.084404e+00 -1.186256e+00 -3.518269e-01 -4.721564e-02 1.343892e-01 1.204666e+00 4.084159e-01 4.524837e-01 -5.194972e-02 1.914234e-01 -1.138677e-01 -7.119362e-02 2.854461e-02 7.490388e-02 -3.232281e-01 -3.263772e-01 -4.572363e-01 1.696237e-01 -6.227285e-01
<VARIANCE> 39
 2.312438e+01 1.460950e+01 1.712315e+01 1.010675e+01 2.135913e+01 2.435881e+01 1.570760e+01 2.321994e+01 1.902037e+01 1.706280e+01 2.051099e+01 1.455354e+01 4.724810e+01 3.879396e+00 3.949883e+00 1.781286e+00 1.598031e+00 1.933818e+00 5.232782e+00 1.748992e+00 2.035075e+00 3.797723e+00 3.168039e+00 5.778758e+00 2.240654e+00 1.226243e+01 3.555294e-01 3.610380e-01 3.873739e-01 2.712851e-01 5.473984e-01 1.078265e+00 3.661287e-01 3.808872e-01 5.135052e-01 5.112618e-01 5.970342e-01 3.757393e-01 1.679271e+00
<GCONST> 1.159413e+02
<STATE> 3
<MEAN> 39
 -7.195039e+00 5.078865e+00 3.042063e-01 -1.039779e+01 -3.248316e+00 -2.004865e+01 3.893650e+00 -1.580697e+01 -1.819073e+01 -1.090066e+01 -7.318566e+00 -5.068612e+00 9.086624e+01 4.275375e-01 6.165981e-01 4.501538e-01 -5.756970e-01 -5.070893e-01 -1.987118e-01 6.086503e-01 5.149077e-01 -1.373411e-01 -9.396512e-01 -5.890422e-01 -1.950896e-01 -3.268078e-03 -1.546160e-01 -1.756652e-01 1.444420e-01 -1.857427e-01 1.138747e-01 7.989560e-02 1.312782e-01 1.237262e-01 2.951588e-01 -4.625744e-03 2.364346e-01 -8.238159e-02 -1.461745e-01
<VARIANCE> 39
 4.120842e+00 1.318826e+01 1.350121e+01 1.587370e+01 2.039996e+01 4.317048e+01 4.948861e+01 2.976778e+01 2.835921e+01 3.086922e+01 1.586110e+01 2.069858e+01 1.047967e+01 8.400236e-01 1.351509e+00 1.379710e+00 1.939390e+00 2.114952e+00 5.514310e+00 4.577619e+00 3.183092e+00 3.859967e+00 2.841312e+00 2.076606e+00 1.573170e+00 1.286988e+00 1.517773e-01 2.647657e-01 2.558640e-01 4.386220e-01 3.018964e-01 1.126464e+00 8.460135e-01 6.550499e-01 5.893354e-01 5.566314e-01 4.508134e-01 3.039073e-01 2.079657e-01
<GCONST> 1.083685e+02
<STATE> 4
<MEAN> 39
 -7.161036e+00 8.888583e+00 6.963338e+00 -1.838503e+01 6.290992e-02 -1.844016e+01 8.681198e+00 -5.470730e+00 -1.140680e+01 -1.435975e+01 -9.646822e+00 -8.911102e+00 7.827393e+01 -1.964963e-02 -4.342450e-01 -3.502111e-01 -4.136094e-02 9.673277e-02 9.868091e-01 -6.666517e-01 7.846859e-01 6.351497e-01 9.330427e-01 3.330989e-01 2.269135e-01 -1.468803e+00 -2.576507e-02 -1.413338e-01 -2.178780e-01 3.445312e-01 -1.122432e-01 2.799288e-01 -2.660654e-01 1.733629e-02 7.989672e-02 2.664365e-01 1.073579e-01 1.871875e-01 -5.895334e-03
<VARIANCE> 39
 8.229280e+00 3.392682e+01 2.426448e+01 2.871965e+01 3.035363e+01 5.424218e+01 5.204372e+01 2.074220e+01 1.822874e+01 7.517834e+01 2.395112e+01 3.460366e+01 4.658475e+01 1.155327e+00 4.446321e+00 4.402670e+00 5.146954e+00 4.165317e+00 7.243559e+00 5.918024e+00 2.177063e+00 1.973796e+00 5.822646e+00 2.513231e+00 4.270583e+00 1.720156e+00 2.354361e-01 7.854553e-01 8.219672e-01 1.146271e+00 6.532129e-01 1.089330e+00 1.120596e+00 4.813196e-01 3.416636e-01 1.042942e+00 3.688015e-01 7.130481e-01 3.725487e-01
<GCONST> 1.260479e+02
<STATE> 5
<MEAN> 39
 -6.321541e+00 2.668508e+00 2.946407e+00 -3.741408e+00 -1.819620e+00 -1.827131e+00 4.648964e-01 4.899186e-01 -2.894826e+00 -2.680490e+00 -3.181475e+00 -2.939421e+00 6.477322e+01 -4.287621e-01 -2.150833e-01 3.407941e-01 1.723275e+00 4.594199e-01 7.183397e-01 -1.203414e-01 -8.075428e-02 4.867758e-01 3.058797e-01 2.432266e-01 1.420968e-01 -7.172529e-01 -8.263078e-02 5.304004e-02 8.725177e-02 -1.956157e-01 2.101752e-01 -2.241541e-01 8.607017e-02 -1.103793e-01 -1.269098e-01 -1.109476e-01 -9.841084e-02 -1.042967e-01 9.763338e-02
<VARIANCE> 39
 1.130620e+01 1.645041e+01 2.730323e+01 5.018070e+01 2.228230e+01 1.518028e+01 1.297445e+01 1.455619e+01 1.033500e+01 8.839284e+00 9.947957e+00 8.120827e+00 5.260330e+00 1.091120e+00 1.248137e+00 1.901026e+00 3.899264e+00 2.185531e+00 1.382935e+00 1.304758e+00 1.720727e+00 1.253426e+00 1.288468e+00 1.297747e+00 1.002745e+00 8.711349e-01 1.748513e-01 2.934570e-01 4.527295e-01 5.242230e-01 5.151157e-01 3.577229e-01 2.938608e-01 3.744993e-01 2.709267e-01 3.005990e-01 3.271414e-01 2.647558e-01 1.610178e-01
<GCONST> 9.550194e+01
<TRANSP> 6
 0.000000e+00 1.000000e+00 0.000000e+00 0.000000e+00 0.000000e+00 0.000000e+00
 0.000000e+00 8.946593e-01 1.053407e-01 0.000000e+00 0.000000e+00 0.000000e+00
 0.000000e+00 0.000000e+00 9.277983e-01 7.220172e-02 0.000000e+00 0.000000e+00
 0.000000e+00 0.000000e+00 0.000000e+00 9.240629e-01 7.593712e-02 0.000000e+00
 0.000000e+00 0.000000e+00 0.000000e+00 0.000000e+00 8.967810e-01 1.032190e-01
 0.000000e+00 0.000000e+00 0.000000e+00 0.000000e+00 0.000000e+00 0.000000e+00
<ENDHMM>
