~o
<STREAMINFO> 1 39
<VECSIZE> 39<NULLD><MFCC_D_A_0><DIAGC>
~h "nine"
<BEGINHMM>
<NUMSTATES> 6
<STATE> 2
<MEAN> 39
 -3.250718e+00 6.732174e+00 5.822723e+00 -6.120573e+00 1.271925e+01 -1.571250e+01 3.187133e+00 -1.227980e+01 -1.553856e+01 -5.822639e+00 -5.405288e+00 -3.578352e+00 7.693826e+01 5.094687e-01 -3.680624e-01 -4.729490e-01 -1.834269e+00 -6.629726e-01 -1.524701e+00 1.196074e+00 -3.166794e-01 2.182440e-01 -5.324034e-01 1.509968e+00 7.124620e-02 2.780942e+00 -2.958035e-01 -4.305925e-01 -4.808204e-01 -2.224025e-01 -3.552398e-01 1.655408e-01 9.089874e-02 4.123515e-01 3.516495e-01 -2.785478e-02 2.750340e-01 1.353324e-01 7.127108e-03
<VARIANCE> 39
 9.106062e+00 1.906357e+01 1.106587e+01 4.888393e+01 5.084456e+01 3.067682e+01 4.261550e+01 2.639002e+01 3.809573e+01 1.569785e+01 5.015453e+01 2.000227e+01 6.884824e+01 2.860179e+00 4.321493e+00 3.040322e+00 2.428569e+00 7.999876e+00 3.730749e+00 3.016885e+00 3.905151e+00 5.759054e+00 1.295145e+00 4.896505e+00 2.131488e+00 2.268465e+00 3.066433e-01 5.519469e-01 2.970825e-01 4.818614e-01 1.281002e+00 9.051712e-01 6.242273e-01 5.362608e-01 8.453165e-01 2.412650e-01 8.660321e-01 4.513359e-01 5.809516e-01
<GCONST> 1.228524e+02
<STATE> 3
<MEAN> 39
 -4.088767e+00 -1.592935e+00 -7.229032e+00 -2.017658e+01 7.498751e+00 -1.873978e+01 1.025329e+01 -6.457613e+00 -2.001587e+00 -1.693053e+01 5.929555e+00 2.630163e+00 9.296958e+01 -6.350601e-02 -2.308198e-01 -2.011707e-01 -7.179999e-02 6.016226e-01 -1.313509e-02 -3.517176e-01 1.681008e-01 7.828633e-01 -4.292889e-01 3.441880e-01 -2.704716e-02 -2.833938e-02 -3.980183e-02 4.373345e-02 2.255360e-01 1.609084e-01 7.462552e-02 -9.209206e-02 -1.101142e-01 -7.037213e-02 1.327188e-02 8.116732e-02 -5.253409e-02 -1.580236e-01 -1.323868e-01
<VARIANCE> 39
 2.439047e+00 6.492842e+00 1.605308e+01 8.817093e+00 2.203664e+01 2.270812e+01 1.567692e+01 1.046844e+01 3.701818e+01 3.694873e+01 2.280956e+01 2.025830e+01 2.934552e+00 2.055648e-01 4.702226e-01 1.548352e+00 7.716156e-01 1.269457e+00 2.895511e+00 1.148558e+00 1.045010e+00 1.492619e+00 2.553034e+00 1.892839e+00 2.423485e+00 2.602243e-01 3.218649e-02 8.769200e-02 1.415409e-01 2.095547e-01 2.698547e-01 4.832280e-01 1.492671e-01 1.719597e-01 2.830742e-01 3.548064e-01 4.416412e-01 2.546130e-01 1.165861e-01
<GCONST> 8.426154e+01
<STATE> 4
<MEAN> 39
 -1.021319e+01 -3.592805e+00 7.789072e+00 -1.062267e+01 1.368566e+01 -3.397383e+01 -1.089315e+00 -5.302692e+00 6.874199e+00 -1.602079e+01 8.176764e+00 -7.647323e+00 8.745341e+01 -5.333360e-01 1.548553e-02 1.782975e+00 1.203735e+00 -1.758522e-01 -1.121686e+00 -3.942738e-01 3.430353e-01 -4.672148e-01 -1.155297e-01 -1.001626e+00 -2.629171e-01 -8.141943e-01 8.388712e-03 -2.660752e-02 -5.537233e-02 -3.297036e-02 -4.988511e-02 2.736011e-01 1.360336e-01 4.707492e-02 -2.101900e-01 -5.614878e-02 -8.795245e-02 1.882207e-01 -7.279561e-02
<VARIANCE> 39
 7.990997e+00 5.548505e+00 5.928785e+01 2.786328e+01 1.089094e+01 3.186392e+01 1.009535e+01 1.479008e+01 2.069519e+01 1.050070e+01 3.002658e+01 1.660239e+01 1.373291e+01 2.045043e-01 4.880602e-01 4.851662e-01 5.528090e-01 7.775686e-01 1.797636e+00 1.172035e+00 1.238056e+00 1.691625e+00 1.243227e+00 1.104557e+00 1.621393e+00 2.119697e-01 3.372631e-02 6.592028e-02 6.993745e-02 8.083302e-02 1.440654e-01 1.812906e-01 1.481516e-01 1.996676e-01 1.735662e-01 2.192455e-01 2.323782e-01 1.840490e-01 1.729329e-02
<GCONST> 7.588024e+01
<STATE> 5
<MEAN> 39
 -1.526574e+01 -8.113511e+00 1.586815e+01 -2.190911e+00 4.766348e+00 -2.672831e+01 -1.150330e+00 3.064385e+00 -6.597522e+00 -1.330588e+01 -4.163114e-01 -1.168945e+00 7.276257e+01 1.929411e-02 -1.907780e-01 -1.100371e+00 4.954746e-01 -1.218717e+00 1.986829e+00 -3.327918e-02 5.916629e-01 -5.607342e-01 8.057545e-01 -2.151438e-01 5.054756e-01 -1.387522e+00 6.857625e-02 9.286416e-02 -2.119231e-01 -8.954209e-02 -3.090143e-02 8.466617e-02 -2.592348e-02 -1.367572e-01 1.984611e-01 4.858458e-02 2.303980e-02 -6.274703e-02 1.582471e-02
<VARIANCE> 39
 1.441540e+01 2.576148e+01 4.536906e+01 1.789053e+01 6.075792e+01 9.086830e+01 2.145772e+01 3.542173e+01 4.076308e+01 3.061070e+01 1.697095e+01 3.347094e+01 3.175553e+01 8.537796e-01 1.312225e+00 2.233723e+00 1.281606e+00 2.693079e+00 1.863453e+00 1.829783e+00 2.398203e+00 2.895538e+00 2.004907e+00 1.405482e+00 1.783305e+00 4.067320e-01 1.205082e-01 1.407596e-01 1.998689e-01 3.085111e-01 5.565430e-01 3.033233e-01 3.909760e-01 3.922935e-01 4.049477e-01 3.760687e-01 2.568628e-01 3.164069e-01 4.821721e-02
<GCONST> 1.045674e+02
<TRANSP> 6
 0.000000e+00 1.000000e+00 0.000000e+00 0.000000e+00 0.000000e+00 0.000000e+00
 0.000000e+00 8.967032e-01 1.032967e-01 0.000000e+00 0.000000e+00 0.000000e+00
 0.000000e+00 0.000000e+00 9.470716e-01 5.292837e-02 0.000000e+00 0.000000e+00
 0.000000e+00 0.000000e+00 0.000000e+00 9.210556e-01 7.894444e-02 0.000000e+00
 0.000000e+00 0.000000e+00 0.000000e+00 0.000000e+00 9.222293e-01 7.777064e-02
 0.000000e+00 0.000000e+00 0.000000e+00 0.000000e+00 0.000000e+00 0.000000e+00
<ENDHMM>
