~o
<STREAMINFO> 1 39
<VECSIZE> 39<NULLD><MFCC_D_A_0><DIAGC>
~h "four"
<BEGINHMM>
<NUMSTATES> 6
<STATE> 2
<MEAN> 39
 -1.675870e+01 -3.818088e+00 -2.807929e+00 -1.465579e+01 4.292615e+00 -1.260943e+01 6.921712e-01 -5.248902e+00 -3.301619e+00 -6.144537e+00 7.832054e-01 -7.883053e+00 8.130630e+01 7.014067e-01 3.743106e-01 1.948794e-01 -6.376769e-01 -7.924650e-01 -1.041063e+00 -4.193591e-01 -4.523948e-01 -1.408077e-01 -2.290357e-01 -2.249469e-01 -1.602746e-01 1.052536e+00 5.162349e-02 -1.223461e-02 -3.953384e-02 1.159188e-01 -1.265921e-01 7.818595e-02 -1.036580e-01 -4.663098e-02 -5.156985e-03 5.505430e-02 1.129946e-02 1.415090e-01 -4.224145e-02
<VARIANCE> 39
 8.372971e+01 5.136024e+01 3.453225e+01 4.163340e+01 5.840302e+01 5.957372e+01 3.440749e+01 2.143502e+01 2.224968e+01 1.784125e+01 2.511690e+01 1.917174e+01 5.740408e+01 5.534708e+00 4.853947e+00 2.834440e+00 2.535468e+00 3.982896e+00 3.862125e+00 3.621882e+00 2.258963e+00 2.779547e+00 1.914040e+00 2.677394e+00 1.836446e+00 2.274306e+00 5.960440e-01 8.295469e-01 4.366206e-01 4.982930e-01 7.927641e-01 9.173568e-01 6.765507e-01 4.856916e-01 5.841036e-01 3.772809e-01 5.388107e-01 3.452786e-01 2.263654e-01
<GCONST> 1.241265e+02
<STATE> 3
<MEAN> 39
 -3.895469e-01 1.752716e+00 -7.298923e-01 -1.554247e+01 -7.757187e+00 -1.977731e+01 -9.101892e+00 -7.297688e+00 -2.211460e+00 -5.431612e+00 -6.280272e-01 -5.219718e+00 8.921535e+01 8.225334e-02 -4.246343e-01 -5.556896e-01 -4.081040e-02 -3.038134e-02 2.250745e-01 7.350978e-02 4.403666e-01 8.705696e-01 -3.065401e-01 1.541609e-01 2.130663e-01 1.466813e-01 6.052753e-03 6.255691e-02 -3.863255e-02 -1.453861e-01 8.285087e-02 9.264534e-03 1.389130e-01 -5.496526e-03 5.020794e-02 -1.130620e-01 -7.736961e-02 -9.115036e-02 -9.840602e-02
<VARIANCE> 39
 2.336884e+00 2.039179e+01 4.198314e+01 1.519673e+01 1.477739e+01 3.498507e+01 2.535385e+01 4.495329e+01 4.611499e+01 2.501205e+01 1.659161e+01 1.894489e+01 1.028597e+01 1.488965e-01 6.482016e-01 8.592985e-01 1.373501e+00 1.220679e+00 2.075445e+00 2.260857e+00 1.695391e+00 2.270870e+00 2.750028e+00 1.108406e+00 1.221658e+00 3.757438e-01 3.713150e-02 1.139624e-01 1.157571e-01 1.656763e-01 2.245639e-01 3.275447e-01 2.897715e-01 3.140261e-01 3.645271e-01 3.664751e-01 1.803066e-01 2.155673e-01 4.683430e-02
<GCONST> 8.892723e+01
<STATE> 4
<MEAN> 39
 2.516930e+00 2.663812e+00 -1.440097e+01 -1.991320e+01 3.857497e+00 -9.768803e+00 -1.574928e+00 -1.527041e+01 -3.547004e+00 -9.610311e+00 -3.073133e-01 -1.140825e+00 7.820449e+01 -1.644556e-01 -7.377088e-02 -2.948602e-01 3.151942e-01 5.512984e-01 1.208178e+00 8.862560e-02 -7.106827e-01 -1.109238e+00 4.736899e-01 2.300047e-01 2.226705e-01 -1.139432e+00 -9.500863e-02 -1.251579e-01 6.122789e-02 9.598337e-02 -1.116314e-01 3.064785e-02 -5.080020e-02 1.755972e-01 3.695545e-02 2.052486e-01 9.092238e-02 2.191898e-02 -1.356568e-02
<VARIANCE> 39
 2.257670e+01 2.284751e+01 3.179966e+01 3.111522e+01 7.360609e+01 6.532950e+01 2.742117e+01 5.818890e+01 1.283122e+02 3.859462e+01 3.040580e+01 2.127710e+01 5.053992e+01 2.893185e+00 2.084885e+00 3.114105e+00 2.687332e+00 4.965693e+00 2.392620e+00 3.145891e+00 3.923843e+00 3.602572e+00 3.002608e+00 1.724201e+00 1.657307e+00 1.345479e+00 5.036460e-01 2.746055e-01 4.073449e-01 3.905011e-01 7.540154e-01 3.994391e-01 5.977383e-01 4.986514e-01 7.489009e-01 5.753056e-01 3.277309e-01 2.928632e-01 2.447754e-01
<GCONST> 1.213932e+02
<STATE> 5
<MEAN> 39
 -8.491803e+00 -5.546079e+00 -8.955621e+00 -9.238376e+00 1.775275e+00 3.983222e+00 -2.815513e+00 -9.398895e+00 -8.249066e+00 1.083809e+00 4.880473e+00 1.404118e+00 6.369992e+01 -1.041477e+00 -3.644712e-01 8.102709e-01 8.568114e-01 -1.359528e-01 -1.483497e-01 2.283082e-01 1.061691e+00 7.186568e-01 2.471678e-01 -2.011805e-01 8.164758e-02 -6.477302e-01 7.476074e-02 1.734392e-01 9.755643e-02 1.213846e-02 5.085585e-02 -2.267139e-01 5.743888e-04 -1.383871e-01 -5.599908e-02 -1.946368e-01 -1.747734e-01 -7.486142e-02 7.325294e-02
<VARIANCE> 39
 1.531134e+01 7.023412e+00 4.017008e+01 3.048026e+01 1.392401e+01 1.780951e+01 1.397456e+01 2.191591e+01 1.597840e+01 2.534447e+01 3.233887e+01 1.496815e+01 6.298721e+00 2.823534e-01 5.404087e-01 1.200768e+00 1.255440e+00 1.223413e+00 1.381694e+00 1.168823e+00 1.478457e+00 1.339163e+00 2.341623e+00 2.375520e+00 1.220857e+00 1.088275e-01 6.638867e-02 5.962807e-02 1.653024e-01 2.449886e-01 2.628074e-01 2.524912e-01 2.423361e-01 2.950779e-01 1.884402e-01 3.323184e-01 3.121835e-01 1.766071e-01 2.795479e-02
<GCONST> 8.498661e+01
<TRANSP> 6
 0.000000e+00 1.000000e+00 0.000000e+00 0.000000e+00 0.000000e+00 0.000000e+00
 0.000000e+00 9.494833e-01 5.051669e-02 0.000000e+00 0.000000e+00 0.000000e+00
 0.000000e+00 0.000000e+00 9.430689e-01 5.693113e-02 0.000000e+00 0.000000e+00
 0.000000e+00 0.000000e+00 0.000000e+00 9.460819e-01 5.391814e-02 0.000000e+00
 0.000000e+00 0.000000e+00 0.000000e+00 0.000000e+00 9.055961e-01 9.440396e-02
 0.000000e+00 0.000000e+00 0.000000e+00 0.000000e+00 0.000000e+00 0.000000e+00
<ENDHMM>
