~o
<STREAMINFO> 1 39
<VECSIZE> 39<NULLD><MFCC_D_A_0><DIAGC>
~h "eight"
<BEGINHMM>
<NUMSTATES> 6
<STATE> 2
<MEAN> 39
 -7.488076e+00 -4.498291e+00 1.990864e+00 -7.328270e+00 3.685137e+00 -3.448539e+01 -2.412146e+00 -1.104712e+01 -1.777894e+00 -1.100134e+01 2.076451e+00 -6.995700e+00 9.055766e+01 -9.088137e-02 7.805902e-01 1.194999e+00 9.543944e-02 7.680191e-01 -4.501647e-01 -4.748240e-01 9.760858e-02 -1.143690e-01 -2.045808e+00 -3.312307e-01 -1.890613e-01 3.350256e-01 -1.679849e-01 9.285700e-02 5.016836e-02 7.851663e-02 4.091483e-02 4.842645e-01 2.436927e-02 1.707830e-01 -7.221537e-02 -3.287577e-02 -1.071022e-01 7.635888e-02 -5.669914e-01
<VARIANCE> 39
 8.738215e+00 2.863936e+01 5.290160e+01 1.265622e+01 3.103217e+01 3.900902e+01 3.873368e+01 2.162792e+01 2.240371e+01 1.213131e+02 1.967041e+01 2.648471e+01 3.408384e+01 1.270256e+00 2.141032e+00 1.772111e+00 1.352820e+00 2.285206e+00 5.318594e+00 2.726909e+00 1.870709e+00 2.041809e+00 2.513382e+00 1.764809e+00 1.965252e+00 7.570840e+00 1.338489e-01 5.787079e-01 3.807670e-01 2.136372e-01 4.989193e-01 1.584992e+00 5.954760e-01 3.141608e-01 3.818668e-01 9.005784e-01 4.359821e-01 3.377936e-01 5.956641e-01
<GCONST> 1.156544e+02
<STATE> 3
<MEAN> 39
 -1.338004e+01 -7.466540e-01 5.007686e+00 -5.470731e+00 4.867139e+00 -1.651288e+01 -3.263082e+00 -3.483756e+00 -3.259875e+00 -1.042234e+01 -2.351242e+00 -3.330053e+00 6.771348e+01 -5.149173e-02 -2.599513e-01 -1.090988e+00 -4.272036e-02 -1.018058e+00 2.300886e+00 1.098291e-01 3.763868e-01 6.725693e-02 1.755402e+00 -1.648786e-01 5.130277e-01 -1.518097e+00 1.338559e-02 -1.284643e-01 -2.777766e-02 -1.256089e-01 -1.851710e-02 -1.347422e-01 2.316978e-02 -5.266195e-02 8.208913e-02 -1.354501e-02 9.579004e-02 -4.904985e-02 3.622829e-01
<VARIANCE> 39
 7.635031e+00 9.306637e+00 4.008799e+01 2.114704e+01 7.482098e+01 1.242640e+02 1.787042e+01 1.690620e+01 2.140572e+01 1.223380e+02 3.371198e+01 2.873051e+01 4.492461e+01 9.897707e-01 8.937894e-01 2.599895e+00 2.141837e+00 4.464766e+00 2.325907e+00 2.329263e+00 1.884101e+00 2.009300e+00 5.399168e+00 2.604087e+00 2.200351e+00 1.577960e+00 2.387765e-01 1.709797e-01 7.164669e-01 5.615674e-01 9.004480e-01 5.450942e-01 4.792464e-01 3.446792e-01 4.049563e-01 1.193113e+00 4.541395e-01 4.133338e-01 3.791408e-01
<GCONST> 1.160913e+02
<STATE> 4
<MEAN> 39
 -2.146695e+01 -7.809824e+00 2.118776e+00 -1.401327e+01 3.680811e+00 -7.501170e+00 -3.151972e-01 -5.363811e+00 1.800361e+00 -5.760091e+00 1.297954e+00 -4.783253e+00 7.927013e+01 -2.182845e+00 -1.048101e+00 1.134994e+00 -2.124814e+00 1.231245e+00 -1.142828e+00 4.568061e-01 -1.309130e+00 1.511911e+00 -8.608829e-01 9.480192e-01 -1.045951e+00 5.347628e+00 2.791760e-01 2.240130e-01 1.760269e-01 4.785579e-01 -3.166981e-01 1.420738e-02 -6.346849e-02 -2.200605e-01 2.054182e-02 9.385321e-02 -9.176781e-02 4.882516e-02 -9.742755e-02
<VARIANCE> 39
 5.126822e+01 2.562939e+01 3.197459e+01 5.522583e+01 3.993391e+01 2.203666e+01 2.050499e+01 2.261871e+01 2.578235e+01 1.790524e+01 1.107980e+01 2.037119e+01 2.162578e+02 3.338693e+00 2.804920e+00 3.432395e+00 6.523451e+00 4.938229e+00 1.640058e+00 2.922434e+00 1.689538e+00 1.467707e+00 1.832238e+00 1.086891e+00 1.733668e+00 9.736134e+00 1.213597e+00 6.303593e-01 7.696466e-01 1.598738e+00 1.076198e+00 5.059302e-01 5.373367e-01 3.474502e-01 4.861447e-01 4.903978e-01 2.368549e-01 4.255851e-01 3.906374e+00
<GCONST> 1.244047e+02
<STATE> 5
<MEAN> 39
 -1.564375e+01 -8.252579e+00 8.060803e+00 -9.807090e+00 1.562089e+00 -8.433008e+00 2.008193e+00 -1.052324e+01 3.801901e+00 -4.266280e+00 4.019320e+00 -7.459530e+00 8.402133e+01 1.013730e+00 3.721191e-01 -1.923987e-01 8.676638e-01 -4.040231e-01 5.513064e-01 -1.030248e-01 4.488069e-01 -5.164762e-01 5.112727e-01 -2.503237e-01 2.446511e-01 -1.885558e+00 -6.102625e-02 1.089130e-03 -1.022708e-01 -3.836985e-02 6.661579e-02 9.154658e-02 3.670277e-03 1.486312e-01 -3.298487e-02 -2.527520e-02 -7.141659e-02 4.006657e-02 -1.830832e-01
<VARIANCE> 39
 4.073316e+01 1.572756e+01 1.931732e+01 2.218313e+01 1.289458e+01 1.849373e+01 2.065742e+01 2.692265e+01 2.524976e+01 2.080238e+01 1.420728e+01 1.467117e+01 1.358299e+02 1.211037e+00 1.311735e+00 1.811345e+00 1.210044e+00 1.241699e+00 1.981099e+00 2.227176e+00 1.926160e+00 1.618067e+00 1.382034e+00 1.573741e+00 1.536484e+00 2.053911e+00 1.992313e-01 2.677831e-01 2.716364e-01 2.751862e-01 2.476018e-01 4.191987e-01 3.671190e-01 2.857456e-01 2.873968e-01 2.746370e-01 2.861828e-01 2.558683e-01 2.859055e-01
<GCONST> 1.020716e+02
<TRANSP> 6
 0.000000e+00 1.000000e+00 0.000000e+00 0.000000e+00 0.000000e+00 0.000000e+00
 0.000000e+00 9.380184e-01 6.198160e-02 0.000000e+00 0.000000e+00 0.000000e+00
 0.000000e+00 0.000000e+00 9.304768e-01 6.952323e-02 0.000000e+00 0.000000e+00
 0.000000e+00 0.000000e+00 0.000000e+00 8.446341e-01 1.553659e-01 0.000000e+00
 0.000000e+00 0.000000e+00 0.000000e+00 0.000000e+00 9.380655e-01 6.193456e-02
 0.000000e+00 0.000000e+00 0.000000e+00 0.000000e+00 0.000000e+00 0.000000e+00
<ENDHMM>
