~o
<STREAMINFO> 1 39
<VECSIZE> 39<NULLD><MFCC_D_A_0><DIAGC>
~h "five"
<BEGINHMM>
<NUMSTATES> 6
<STATE> 2
<MEAN> 39
 -1.959486e+01 -7.709661e+00 -5.313363e+00 -1.283678e+01 3.335812e+00 -9.712162e+00 2.052594e+00 -7.637341e+00 -5.032537e-01 -7.710269e+00 3.292904e+00 -5.474317e+00 8.271326e+01 6.687131e-01 2.178717e-01 -1.988914e-01 -4.207553e-01 -5.287958e-01 -5.688876e-01 1.200586e-01 3.282525e-02 -1.508768e-01 -6.241444e-01 -3.042313e-01 1.573323e-01 1.212435e+00 7.769072e-02 2.550562e-02 7.512708e-03 2.789481e-02 -5.766704e-02 1.172826e-02 -5.041557e-02 9.783346e-02 3.547586e-02 -9.790284e-03 -7.809809e-03 4.466465e-02 -5.507012e-02
<VARIANCE> 39
 8.355519e+01 3.363392e+01 1.636969e+01 1.646998e+01 3.479331e+01 2.994835e+01 2.293526e+01 1.929383e+01 2.568842e+01 3.177926e+01 2.213032e+01 1.597612e+01 5.655830e+01 6.255908e+00 3.308823e+00 1.928166e+00 1.026125e+00 2.933462e+00 2.492349e+00 2.454005e+00 2.016180e+00 2.691565e+00 2.617555e+00 2.776494e+00 1.459263e+00 1.526489e+00 7.326971e-01 6.704963e-01 3.568377e-01 2.210546e-01 4.951818e-01 5.589605e-01 4.711435e-01 4.061040e-01 5.497327e-01 4.735348e-01 6.008760e-01 2.612622e-01 2.372769e-01
<GCONST> 1.151152e+02
<STATE> 3
<MEAN> 39
 -3.596403e+00 -4.292617e+00 -9.870454e+00 -1.683512e+01 -1.869325e+00 -1.198743e+01 1.991767e+00 -2.940718e+00 -1.915082e-01 -1.542472e+01 5.129176e-01 1.163396e-02 9.330997e+01 -2.505825e-01 -2.588092e-01 1.085373e-01 1.889984e-01 7.838593e-01 -4.036697e-01 -3.740788e-01 5.222935e-02 7.109377e-01 1.990086e-01 4.800361e-01 -1.801569e-01 4.819032e-02 -7.573279e-02 5.566455e-02 1.901749e-01 7.949507e-02 8.679687e-02 -2.191432e-01 -7.722314e-02 -6.209008e-02 1.089138e-02 4.552307e-02 -1.727164e-02 -9.702282e-02 -1.066506e-01
<VARIANCE> 39
 7.471256e+00 1.252469e+01 9.628255e+00 1.592764e+01 3.354567e+01 3.966096e+01 2.236893e+01 1.870430e+01 2.529915e+01 4.338070e+01 2.433161e+01 1.435452e+01 7.260051e+00 3.319656e-01 6.467894e-01 1.020363e+00 1.510270e+00 1.606156e+00 4.679098e+00 1.882722e+00 1.470752e+00 1.990020e+00 1.992168e+00 1.178206e+00 1.274411e+00 2.960172e-01 6.529320e-02 1.281574e-01 1.125014e-01 2.991353e-01 3.423251e-01 4.100114e-01 2.744466e-01 2.480308e-01 3.850278e-01 4.194601e-01 2.208301e-01 1.975814e-01 6.819956e-02
<GCONST> 9.134711e+01
<STATE> 4
<MEAN> 39
 -1.091907e+01 -3.963380e+00 5.441425e+00 -6.760638e+00 1.017168e+01 -2.966230e+01 -8.465270e+00 -6.156597e+00 2.537972e+00 -1.398006e+01 -2.937895e-01 -6.317441e+00 8.300114e+01 -4.794661e-01 -1.042290e-01 3.644381e-01 4.016494e-01 2.171316e-01 7.672275e-01 -4.280709e-02 -2.163179e-01 -5.602571e-01 3.064173e-01 -5.062566e-01 -1.860729e-01 -1.231380e+00 -1.554238e-01 3.198994e-03 -2.236058e-01 -1.499787e-01 -1.400941e-01 3.727809e-01 2.668115e-01 -2.552521e-02 -5.429288e-02 -2.489015e-02 1.129105e-01 1.046746e-01 9.969462e-02
<VARIANCE> 39
 1.394567e+01 2.965749e+01 4.768647e+01 3.183433e+01 3.396893e+01 8.631182e+01 2.171910e+01 1.956046e+01 4.817189e+01 5.258044e+01 5.601359e+01 2.748601e+01 5.677375e+01 1.807482e+00 2.348123e+00 5.238246e+00 2.228739e+00 2.796926e+00 1.016793e+01 3.513716e+00 1.494663e+00 2.776765e+00 5.829735e+00 3.259479e+00 2.095884e+00 1.106003e+00 4.680812e-01 4.227993e-01 5.411202e-01 2.834374e-01 5.244335e-01 1.145466e+00 6.000509e-01 3.079809e-01 6.643131e-01 1.154571e+00 6.163434e-01 4.693407e-01 2.412930e-01
<GCONST> 1.233734e+02
<STATE> 5
<MEAN> 39
 -2.364398e+01 -6.306379e+00 -1.587612e+00 -1.041097e+01 7.699709e+00 -7.212151e+00 9.300513e-01 -7.570184e+00 -1.647352e+00 -7.586701e+00 1.815915e+00 -5.249389e+00 7.438577e+01 3.553128e-02 9.415184e-02 6.464491e-03 1.750585e-01 -4.478874e-01 3.881551e-01 1.168130e-01 2.983035e-01 -9.247749e-02 2.473675e-01 -4.753282e-02 1.987743e-01 -5.712084e-01 1.693892e-01 -6.472833e-03 4.921025e-02 1.162665e-01 1.742573e-03 -6.848735e-02 -1.296178e-01 4.800612e-02 -1.082878e-02 1.525102e-02 -1.104958e-01 9.423281e-03 -7.055902e-02
<VARIANCE> 39
 5.272791e+01 2.544640e+01 1.346089e+01 3.111320e+01 3.004489e+01 3.632793e+01 2.019916e+01 2.667541e+01 2.351999e+01 2.017409e+01 2.627012e+01 1.758298e+01 5.822142e+01 3.769379e+00 1.548424e+00 1.290025e+00 2.329709e+00 2.354655e+00 1.945573e+00 1.732524e+00 1.634789e+00 1.535979e+00 1.913711e+00 2.327825e+00 1.376711e+00 2.355380e+00 2.509926e-01 2.044383e-01 2.135496e-01 3.315544e-01 3.860482e-01 3.961074e-01 2.661266e-01 2.739894e-01 2.929597e-01 4.014286e-01 3.447467e-01 2.369686e-01 2.273173e-01
<GCONST> 1.068494e+02
<TRANSP> 6
 0.000000e+00 1.000000e+00 0.000000e+00 0.000000e+00 0.000000e+00 0.000000e+00
 0.000000e+00 9.514203e-01 4.857969e-02 0.000000e+00 0.000000e+00 0.000000e+00
 0.000000e+00 0.000000e+00 9.428279e-01 5.717207e-02 0.000000e+00 0.000000e+00
 0.000000e+00 0.000000e+00 0.000000e+00 9.361665e-01 6.383357e-02 0.000000e+00
 0.000000e+00 0.000000e+00 0.000000e+00 0.000000e+00 9.538291e-01 4.617098e-02
 0.000000e+00 0.000000e+00 0.000000e+00 0.000000e+00 0.000000e+00 0.000000e+00
<ENDHMM>
