~o
<STREAMINFO> 1 39
<VECSIZE> 39<NULLD><MFCC_D_A_0><DIAGC>
~h "six"
<BEGINHMM>
<NUMSTATES> 6
<STATE> 2
<MEAN> 39
 -3.054898e+01 -5.336014e+00 3.619200e+00 -1.631823e+01 7.357496e+00 -1.063798e+01 2.792211e+00 -7.349735e+00 2.465212e+00 -2.808290e+00 1.640660e+00 -4.340929e+00 8.660569e+01 -2.036854e-01 2.127605e-01 9.177404e-02 -3.068970e-01 1.965527e-01 -8.018010e-01 -1.713604e-01 -3.636832e-01 -1.091597e-01 -3.172728e-01 -9.045500e-02 -2.781022e-01 1.116128e+00 3.912689e-01 1.237798e-01 -1.024708e-01 2.503047e-01 -1.259965e-01 -1.181564e-01 -2.156527e-01 -4.608250e-02 -1.556602e-01 -5.333154e-02 -9.726220e-02 -8.163268e-02 -1.588673e-01
<VARIANCE> 39
 6.336560e+01 1.676050e+01 2.727013e+01 1.814667e+01 2.492216e+01 2.059374e+01 2.415073e+01 2.367616e+01 1.983007e+01 1.810011e+01 1.133430e+01 1.067699e+01 4.404277e+01 7.659069e+00 1.526403e+00 2.820401e+00 2.617343e+00 2.105286e+00 2.454715e+00 3.883735e+00 2.924758e+00 2.438737e+00 1.874428e+00 1.593952e+00 1.549071e+00 2.169149e+00 6.004686e-01 3.086567e-01 5.498242e-01 4.046761e-01 3.464654e-01 4.663118e-01 3.991183e-01 4.755434e-01 3.228550e-01 3.727274e-01 2.472268e-01 2.634379e-01 1.942341e-01
<GCONST> 1.104709e+02
<STATE> 3
<MEAN> 39
 -1.106178e+01 -3.930744e+00 2.133513e+00 -2.332814e+00 2.297619e+00 -2.450650e+01 -8.427207e+00 -7.158828e+00 -6.261439e+00 -7.068278e+00 -3.039750e+00 -4.798795e+00 8.007714e+01 4.471301e-01 -7.783812e-02 -2.746423e-01 6.824532e-01 -3.119343e-01 5.463337e-01 -1.305353e-02 5.308625e-01 5.482382e-03 1.831297e-01 -2.442976e-02 3.143298e-01 -1.347191e+00 -3.499549e-01 -8.006337e-02 -5.703488e-02 -2.396490e-01 1.898589e-01 1.534981e-01 1.689103e-01 5.171186e-02 1.760222e-01 9.759317e-02 8.936287e-02 2.321595e-02 1.184496e-01
<VARIANCE> 39
 7.455675e+00 1.715607e+01 1.719351e+01 2.437285e+01 2.731410e+01 1.120784e+02 2.346038e+01 4.281788e+01 1.133163e+01 1.948326e+01 2.022138e+01 2.127584e+01 1.694340e+02 3.078404e+00 1.613040e+00 2.036333e+00 2.054187e+00 2.888664e+00 9.217858e+00 2.855685e+00 2.498739e+00 1.654953e+00 2.459384e+00 2.104394e+00 1.873386e+00 3.775557e+00 4.829738e-01 3.432888e-01 4.505822e-01 3.855413e-01 6.271110e-01 1.296321e+00 4.948662e-01 6.257114e-01 2.844650e-01 5.163192e-01 4.581240e-01 4.522695e-01 7.234500e-01
<GCONST> 1.177412e+02
<STATE> 4
<MEAN> 39
 -2.066961e+01 -8.579315e+00 -2.684541e+00 -1.190151e+01 9.954288e+00 -1.023967e+01 -7.011651e+00 -8.463383e+00 6.526058e-01 -9.969755e-01 6.032237e-01 -5.809351e+00 8.188007e+01 -2.727071e+00 -6.366284e-01 2.556260e-01 -2.325443e+00 1.573743e+00 -1.689138e-01 3.799982e-01 -8.321557e-01 1.240495e+00 3.452892e-01 8.816097e-01 -4.323171e-01 4.393916e+00 -1.322738e-01 1.344389e-01 3.656920e-01 2.581081e-01 -4.350808e-01 1.127715e-01 3.131671e-01 3.525467e-01 -2.246497e-02 -1.339722e-01 -9.358449e-02 1.314784e-01 -2.824420e-01
<VARIANCE> 39
 4.639095e+01 1.568124e+01 2.627621e+01 5.988822e+01 4.802687e+01 3.133088e+01 1.482922e+01 2.833934e+01 2.603831e+01 9.698620e+00 2.250489e+01 1.237919e+01 1.619719e+02 1.549277e+00 1.539214e+00 5.263232e+00 5.824474e+00 7.450562e+00 3.098909e+00 2.468217e+00 3.906018e+00 1.940306e+00 1.069947e+00 2.270879e+00 1.597506e+00 6.692494e+00 4.051616e-01 2.794402e-01 7.884776e-01 1.164145e+00 1.259132e+00 6.291308e-01 4.494061e-01 6.579552e-01 4.786384e-01 1.923304e-01 4.861044e-01 2.949902e-01 2.447465e+00
<GCONST> 1.217032e+02
<STATE> 5
<MEAN> 39
 -3.070270e+01 -5.366050e+00 3.842023e+00 -1.777656e+01 1.008133e+01 -9.394794e+00 2.452919e+00 -4.548173e+00 4.052665e-01 -1.988484e+00 2.224371e+00 -4.278574e+00 8.484200e+01 5.719189e-01 2.285211e-01 4.354484e-02 3.171302e-01 -1.835807e-01 1.098014e-01 3.468592e-02 2.761030e-01 -3.980122e-01 7.855049e-02 -2.648203e-01 1.227694e-01 -1.143239e+00 1.278239e-01 -2.378908e-02 -5.460715e-02 9.701789e-02 5.040221e-03 2.039620e-02 -1.082283e-01 -3.040378e-02 -2.684598e-02 -3.543326e-03 -2.193253e-02 -2.146681e-02 -6.346106e-02
<VARIANCE> 39
 5.703841e+01 7.675377e+00 1.185837e+01 2.286346e+01 1.303250e+01 1.442503e+01 2.205010e+01 1.521125e+01 1.842435e+01 9.921603e+00 1.323559e+01 8.903033e+00 1.177931e+02 2.197449e+00 7.407884e-01 1.134222e+00 1.646966e+00 1.248883e+00 1.092344e+00 1.695039e+00 1.472648e+00 1.140560e+00 1.249696e+00 1.173011e+00 8.183750e-01 1.579566e+00 2.598238e-01 1.483553e-01 2.172199e-01 2.189185e-01 2.456184e-01 2.290558e-01 2.481692e-01 2.729122e-01 2.659173e-01 2.656514e-01 2.095239e-01 1.593891e-01 1.623707e-01
<GCONST> 9.252893e+01
<TRANSP> 6
 0.000000e+00 1.000000e+00 0.000000e+00 0.000000e+00 0.000000e+00 0.000000e+00
 0.000000e+00 9.485646e-01 5.143536e-02 0.000000e+00 0.000000e+00 0.000000e+00
 0.000000e+00 0.000000e+00 9.520367e-01 4.796325e-02 0.000000e+00 0.000000e+00
 0.000000e+00 0.000000e+00 0.000000e+00 8.607446e-01 1.392554e-01 0.000000e+00
 0.000000e+00 0.000000e+00 0.000000e+00 0.000000e+00 9.639350e-01 3.606504e-02
 0.000000e+00 0.000000e+00 0.000000e+00 0.000000e+00 0.000000e+00 0.000000e+00
<ENDHMM>
