~o
<STREAMINFO> 1 39
<VECSIZE> 39<NULLD><MFCC_D_A_0><DIAGC>
~h "seven"
<BEGINHMM>
<NUMSTATES> 6
<STATE> 2
<MEAN> 39
 -2.639257e+01 -7.994843e+00 3.044800e+00 -2.050544e+01 1.056333e+01 -1.536587e+01 4.630008e+00 -8.414780e+00 3.885538e+00 -3.612655e+00 1.882606e+00 -4.558658e+00 8.751938e+01 -5.207708e-02 2.462018e-01 4.305581e-02 2.803293e-02 2.651713e-01 -7.992547e-01 -6.453209e-02 -5.365134e-01 -1.731562e-01 -3.843369e-01 6.563482e-02 -1.777546e-01 1.158720e+00 2.492311e-01 1.859140e-01 -1.537358e-01 2.082103e-01 -1.901409e-01 -1.285139e-02 -2.021094e-01 1.874353e-02 -1.722235e-01 -5.016565e-02 -2.305696e-02 6.773437e-02 -1.594146e-01
<VARIANCE> 39
 6.254816e+01 1.777020e+01 1.702217e+01 2.461273e+01 2.788792e+01 3.021946e+01 3.233943e+01 2.028361e+01 1.133316e+01 1.654529e+01 1.265728e+01 1.027864e+01 4.025467e+01 8.329149e+00 2.847590e+00 2.198291e+00 3.315344e+00 2.961883e+00 2.659633e+00 4.484715e+00 3.406008e+00 2.418690e+00 1.946190e+00 1.433806e+00 1.342139e+00 2.887855e+00 6.990770e-01 4.732537e-01 3.855560e-01 4.716801e-01 2.637297e-01 4.751575e-01 4.400989e-01 6.021187e-01 3.553063e-01 3.824997e-01 3.025256e-01 2.930137e-01 2.568607e-01
<GCONST> 1.129617e+02
<STATE> 3
<MEAN> 39
 -6.329951e+00 3.135698e-02 -5.673256e+00 -1.470482e+01 5.887302e-01 -2.330144e+01 -6.410438e+00 -1.555237e+01 -4.157690e+00 -8.616782e+00 1.537880e+00 -2.788562e+00 9.463479e+01 1.179216e+00 1.874612e-01 -8.426292e-01 -2.113600e-01 -4.949535e-01 -5.353741e-01 2.289949e-01 8.506261e-02 -3.389747e-01 -7.885334e-01 2.163512e-01 5.197331e-01 -1.287272e-01 -4.584556e-01 -2.182588e-01 2.759391e-01 -5.964346e-02 4.070064e-01 1.981540e-01 5.580283e-01 1.863704e-01 8.172271e-02 -2.008933e-01 -3.743683e-02 -7.303686e-02 -4.165323e-01
<VARIANCE> 39
 2.634417e+00 5.788696e+00 1.390590e+01 9.006257e+00 8.239723e+00 2.429510e+01 1.149714e+01 2.054228e+01 1.873871e+01 3.741812e+01 1.281876e+01 2.379843e+01 4.996449e+00 1.911751e+00 8.467182e-01 1.293649e+00 8.818069e-01 1.649466e+00 1.738831e+00 2.519835e+00 2.549663e+00 2.883509e+00 4.148173e+00 1.369521e+00 1.963239e+00 1.761716e+00 5.891036e-01 2.626505e-01 1.930821e-01 2.407950e-01 1.251708e-01 4.212174e-01 3.292047e-01 6.916525e-01 8.321937e-01 7.688802e-01 3.000440e-01 3.950745e-01 1.028042e-01
<GCONST> 9.723106e+01
<STATE> 4
<MEAN> 39
 -4.841485e+00 -5.759274e-01 1.057789e-01 -1.408541e+01 7.070060e+00 -2.173797e+01 2.134831e+00 -1.572390e+01 -8.275784e+00 -1.613941e+01 3.900677e+00 -2.839101e+00 8.565948e+01 -8.363693e-02 1.204261e-01 6.183630e-01 3.261214e-01 7.184089e-01 4.195856e-01 1.486239e-01 4.227457e-02 -8.621937e-02 1.845949e-01 1.387783e-01 -4.385137e-02 -6.357226e-01 1.642836e-02 -2.653885e-02 -5.266877e-02 1.275084e-01 -1.413732e-02 7.949058e-02 -1.689169e-01 1.081544e-01 4.835913e-03 1.975287e-01 -1.112773e-01 4.741772e-02 1.680049e-02
<VARIANCE> 39
 1.143065e+01 2.346198e+01 2.500183e+01 2.434018e+01 1.885676e+01 4.303317e+01 2.041805e+01 2.423349e+01 2.397273e+01 4.712669e+01 6.797462e+01 3.137918e+01 3.064330e+01 1.488029e+00 2.180411e+00 1.905183e+00 3.904932e+00 2.145016e+00 5.051056e+00 2.015711e+00 2.251287e+00 2.537493e+00 4.509818e+00 6.017419e+00 4.293317e+00 5.018174e+00 3.617797e-01 4.008420e-01 3.779197e-01 6.249864e-01 3.510637e-01 8.990074e-01 3.819585e-01 4.600923e-01 4.858439e-01 7.429789e-01 9.053115e-01 9.482908e-01 5.941977e-01
<GCONST> 1.211235e+02
<STATE> 5
<MEAN> 39
 -4.728991e+00 8.315336e-01 3.771026e+00 -3.308275e-01 1.058232e+01 -6.600842e+00 -3.804761e+00 -8.684592e+00 -1.012219e+01 -5.309757e+00 -1.036944e+00 -2.945618e+00 6.942735e+01 -4.368885e-01 -3.555238e-01 -3.386542e-01 5.775418e-01 -8.798305e-01 1.091477e+00 -3.186277e-01 5.671624e-01 2.121861e-01 6.984804e-01 -3.683779e-01 -7.669550e-02 -1.082030e+00 -1.197552e-01 -1.450054e-02 -4.015743e-02 -2.162224e-01 -1.593350e-01 -1.233298e-01 1.014198e-01 -7.954334e-02 1.249263e-01 -5.235519e-02 1.941396e-01 -2.464412e-02 9.084037e-02
<VARIANCE> 39
 1.840368e+01 7.053826e+00 8.716124e+00 2.255716e+01 3.193530e+01 4.901798e+01 1.330799e+01 1.825429e+01 3.062508e+01 1.828485e+01 1.945011e+01 1.627698e+01 2.674266e+01 1.715456e+00 7.638124e-01 1.055412e+00 3.218966e+00 1.526840e+00 2.041116e+00 1.687980e+00 1.763864e+00 2.831028e+00 1.187903e+00 2.730266e+00 2.043416e+00 4.892839e-01 2.251329e-01 1.569117e-01 2.219997e-01 4.392055e-01 3.341768e-01 3.720990e-01 3.065457e-01 3.271575e-01 3.799853e-01 2.461444e-01 4.925058e-01 4.045739e-01 1.123246e-01
<GCONST> 9.975860e+01
<TRANSP> 6
 0.000000e+00 1.000000e+00 0.000000e+00 0.000000e+00 0.000000e+00 0.000000e+00
 0.000000e+00 9.492384e-01 5.076167e-02 0.000000e+00 0.000000e+00 0.000000e+00
 0.000000e+00 0.000000e+00 8.820059e-01 1.179941e-01 0.000000e+00 0.000000e+00
 0.000000e+00 0.000000e+00 0.000000e+00 9.486482e-01 5.135177e-02 0.000000e+00
 0.000000e+00 0.000000e+00 0.000000e+00 0.000000e+00 9.326666e-01 6.733342e-02
 0.000000e+00 0.000000e+00 0.000000e+00 0.000000e+00 0.000000e+00 0.000000e+00
<ENDHMM>
