~o
<STREAMINFO> 1 39
<VECSIZE> 39<NULLD><MFCC_D_A_0><DIAGC>
~h "ten"
<BEGINHMM>
<NUMSTATES> 6
<STATE> 2
<MEAN> 39
 -1.062994e+01 -1.074598e+01 1.905634e+00 -1.149379e+01 3.868978e+00 -1.818932e+01 9.670486e+00 -1.142097e+01 3.919023e+00 -2.752289e+00 3.759258e+00 -7.345914e+00 9.348624e+01 7.832448e-01 2.578844e-01 -5.864377e-01 -7.537071e-02 -1.890918e-01 -1.174599e+00 1.326535e-01 -2.256709e-01 -9.713989e-01 2.661887e-02 -3.509290e-01 -3.844638e-01 7.070375e-01 -1.785432e-02 2.182089e-01 -2.225250e-01 9.845947e-02 -1.964844e-01 1.309589e-01 -2.160061e-01 1.441484e-01 -3.053666e-01 -5.069694e-02 -1.308472e-01 1.454629e-01 -4.822134e-01
<VARIANCE> 39
 2.593528e+01 2.349499e+01 2.362318e+01 1.239150e+01 1.008472e+01 4.755479e+01 2.859266e+01 1.416260e+01 4.344230e+01 1.682158e+01 1.906446e+01 1.938070e+01 5.996531e+00 2.089147e+00 4.540067e+00 1.960291e+00 1.861696e+00 1.640016e+00 2.497444e+00 3.874329e+00 2.064357e+00 6.344978e+00 2.354659e+00 3.118562e+00 2.736416e+00 3.327888e+00 4.578339e-01 5.694654e-01 3.613208e-01 5.676557e-01 2.445148e-01 6.188112e-01 4.854708e-01 5.085574e-01 9.039201e-01 4.128530e-01 7.368885e-01 6.902711e-01 1.227912e+00
<GCONST> 1.156546e+02
<STATE> 3
<MEAN> 39
 -5.732322e+00 -2.327485e+00 -4.422015e+00 -1.580378e+01 1.050099e+00 -2.360744e+01 4.225261e+00 -1.325576e+01 -1.000880e+01 -4.542483e+00 8.689123e+00 -5.592915e+00 9.530533e+01 6.779895e-02 6.130735e-02 3.840261e-01 -5.505880e-01 7.681527e-01 7.424924e-02 5.125574e-02 -2.046686e-01 -2.383860e-01 -6.699470e-02 1.892598e+00 3.127709e-01 -2.540755e-01 -7.567377e-02 -1.434804e-01 2.460810e-01 1.190481e-02 3.108262e-01 -1.493918e-02 2.389948e-01 -7.436508e-02 1.910477e-01 1.441076e-02 9.594890e-02 -1.031845e-01 -1.835576e-01
<VARIANCE> 39
 2.404587e+00 8.528241e+00 8.054121e+00 1.431654e+01 2.063336e+01 2.086926e+01 3.447551e+01 1.152653e+01 1.697458e+01 1.813686e+01 6.392379e+01 2.580094e+01 4.633140e+00 9.078718e-02 7.257726e-01 1.076292e+00 4.790632e-01 1.760223e+00 1.103024e+00 2.198670e+00 9.320539e-01 1.587865e+00 1.486694e+00 1.457045e+00 1.842299e+00 2.437133e-01 3.723229e-02 1.845003e-01 1.013306e-01 1.127941e-01 2.048528e-01 2.230861e-01 3.117608e-01 1.660749e-01 4.831546e-01 3.204252e-01 5.824180e-01 2.794149e-01 3.817951e-02
<GCONST> 8.215474e+01
<STATE> 4
<MEAN> 39
 -6.532420e+00 2.678445e-01 5.088120e+00 -1.087200e+01 1.408471e+01 -1.668770e+01 4.411354e+00 -1.506162e+01 -1.180253e+01 -7.101684e+00 8.534694e+00 -5.032263e+00 8.086317e+01 4.667475e-02 5.853321e-01 4.474536e-01 1.303290e+00 2.578338e-01 1.167037e+00 -5.338313e-01 4.236859e-01 -2.755063e-01 -1.883380e-01 -1.739509e+00 2.003243e-01 -1.767887e+00 8.945514e-02 1.108818e-02 -1.670523e-01 1.201385e-01 -2.711123e-01 5.184574e-02 -1.265656e-01 1.493804e-01 -5.723583e-02 4.340274e-02 -1.311202e-01 1.719248e-02 -1.762684e-02
<VARIANCE> 39
 1.691570e+01 2.884931e+01 9.405667e+00 3.775884e+01 1.845978e+01 4.140791e+01 2.127721e+01 1.420557e+01 1.857707e+01 1.699068e+01 7.140616e+01 2.484550e+01 4.379987e+01 2.162583e+00 1.674512e+00 1.308531e+00 2.942274e+00 3.182448e+00 2.010052e+00 2.025601e+00 1.748331e+00 2.302607e+00 1.177900e+00 3.034559e+00 1.704170e+00 1.766806e+00 4.408509e-01 3.551709e-01 1.910532e-01 6.954004e-01 4.032362e-01 4.635831e-01 4.203937e-01 2.899379e-01 4.998708e-01 2.189413e-01 7.567367e-01 3.122000e-01 3.544813e-01
<GCONST> 1.097244e+02
<STATE> 5
<MEAN> 39
 -5.317019e+00 2.605189e+00 5.482127e+00 6.206162e-01 5.432856e+00 -6.037054e+00 -3.472024e+00 -7.056648e+00 -1.361530e+01 -7.061337e+00 -3.931351e+00 -6.401221e+00 6.690159e+01 -3.904907e-01 -4.104248e-01 -3.197106e-01 2.865391e-01 -1.091969e+00 7.516986e-01 -3.768285e-01 6.265801e-01 5.399594e-01 2.434361e-01 -2.281398e-01 3.421089e-02 -8.376414e-01 -1.096038e-01 -7.031991e-02 -5.082148e-02 -1.522169e-01 1.719712e-02 -3.869583e-02 9.064014e-02 -5.135079e-02 1.961672e-01 4.260670e-02 9.412372e-02 5.751203e-02 9.144536e-02
<VARIANCE> 39
 8.934113e+00 1.223687e+01 9.827688e+00 1.777777e+01 2.231011e+01 1.914043e+01 1.407415e+01 1.637815e+01 1.877340e+01 2.082722e+01 1.826068e+01 2.170578e+01 9.882216e+00 5.811000e-01 9.047153e-01 1.575042e+00 2.390884e+00 1.027911e+00 1.347019e+00 1.557544e+00 1.631916e+00 1.660147e+00 1.975769e+00 1.596282e+00 2.152379e+00 2.534040e-01 8.907763e-02 1.302859e-01 3.007438e-01 3.468656e-01 2.032721e-01 2.841192e-01 2.635680e-01 3.117094e-01 2.514745e-01 3.736022e-01 2.672237e-01 3.488457e-01 3.342694e-02
<GCONST> 9.006074e+01
<TRANSP> 6
 0.000000e+00 1.000000e+00 0.000000e+00 0.000000e+00 0.000000e+00 0.000000e+00
 0.000000e+00 9.186024e-01 8.139760e-02 0.000000e+00 0.000000e+00 0.000000e+00
 0.000000e+00 0.000000e+00 9.091485e-01 9.085154e-02 0.000000e+00 0.000000e+00
 0.000000e+00 0.000000e+00 0.000000e+00 9.121825e-01 8.781753e-02 0.000000e+00
 0.000000e+00 0.000000e+00 0.000000e+00 0.000000e+00 9.124370e-01 8.756303e-02
 0.000000e+00 0.000000e+00 0.000000e+00 0.000000e+00 0.000000e+00 0.000000e+00
<ENDHMM>
