~o
<STREAMINFO> 1 39
<VECSIZE> 39<NULLD><MFCC_D_A_0><DIAGC>
~h "two"
<BEGINHMM>
<NUMSTATES> 6
<STATE> 2
<MEAN> 39
 -2.024016e+01 -8.883917e+00 7.732012e-01 -8.156720e+00 2.103967e+00 -1.010723e+01 2.199386e-01 -1.204960e+01 -4.211246e+00 2.952253e-01 4.798964e+00 -7.703363e+00 8.995041e+01 7.404407e-01 6.407751e-01 -3.284641e-01 -2.687212e-01 5.969779e-01 -6.609817e-01 9.077534e-02 -1.084422e+00 -1.186073e+00 -3.517551e-01 -4.702138e-02 1.343307e-01 1.204669e+00 4.084525e-01 4.525079e-01 -5.197193e-02 1.914003e-01 -1.138261e-01 -7.123847e-02 2.856112e-02 7.487893e-02 -3.232982e-01 -3.264297e-01 -4.572535e-01 1.696486e-01 -6.227952e-01
<VARIANCE> 39
 2.312217e+01 1.460883e+01 1.712374e+01 1.010714e+01 2.136023e+01 2.435927e+01 1.570778e+01 2.321757e+01 1.901605e+01 1.706129e+01 2.051015e+01 1.455432e+01 4.725058e+01 3.879372e+00 3.949524e+00 1.781366e+00 1.597933e+00 1.933285e+00 5.232907e+00 1.749112e+00 2.035177e+00 3.797100e+00 3.168025e+00 5.778069e+00 2.240707e+00 1.226307e+01 3.555005e-01 3.610362e-01 3.873746e-01 2.712908e-01 5.473946e-01 1.078287e+00 3.661392e-01 3.808873e-01 5.133948e-01 5.111955e-01 5.970358e-01 3.757493e-01 1.679224e+00
<GCONST> 1.159401e+02
<STATE> 3
<MEAN> 39
 -7.198230e+00 5.070344e+00 2.913805e-01 -1.038123e+01 -3.245811e+00 -2.005215e+01 3.877912e+00 -1.581570e+01 -1.819195e+01 -1.088520e+01 -7.310377e+00 -5.063404e+00 9.087174e+01 4.270067e-01 6.166735e-01 4.447878e-01 -5.688588e-01 -5.086693e-01 -1.946752e-01 6.001114e-01 5.153489e-01 -1.375783e-01 -9.336337e-01 -5.890866e-01 -1.928943e-01 1.138498e-03 -1.548062e-01 -1.757847e-01 1.449970e-01 -1.860033e-01 1.142504e-01 8.061196e-02 1.326340e-01 1.231438e-01 2.955393e-01 -4.735690e-03 2.368330e-01 -8.317033e-02 -1.462301e-01
<VARIANCE> 39
 4.117020e+00 1.315204e+01 1.344566e+01 1.577975e+01 2.041481e+01 4.319910e+01 4.941019e+01 2.976987e+01 2.839956e+01 3.077090e+01 1.582415e+01 2.066122e+01 1.048385e+01 8.409181e-01 1.353621e+00 1.366748e+00 1.917489e+00 2.116391e+00 5.516036e+00 4.543635e+00 3.184346e+00 3.866213e+00 2.822842e+00 2.079148e+00 1.571883e+00 1.279775e+00 1.520143e-01 2.647257e-01 2.560904e-01 4.390037e-01 3.018955e-01 1.128261e+00 8.463773e-01 6.557431e-01 5.902401e-01 5.570331e-01 4.514997e-01 3.038472e-01 2.082185e-01
<GCONST> 1.083258e+02
<STATE> 4
<MEAN> 39
 -7.158125e+00 8.888750e+00 6.961718e+00 -1.838369e+01 5.293390e-02 -1.844067e+01 8.686758e+00 -5.486283e+00 -1.142132e+01 -1.436814e+01 -9.650127e+00 -8.907737e+00 7.829843e+01 -1.787110e-02 -4.316811e-01 -3.427380e-01 -4.987690e-02 9.698559e-02 9.796478e-01 -6.546791e-01 7.835921e-01 6.333156e-01 9.223504e-01 3.307244e-01 2.236448e-01 -1.469926e+00 -2.586569e-02 -1.413240e-01 -2.176706e-01 3.435769e-01 -1.121850e-01 2.787810e-01 -2.666560e-01 1.821435e-02 7.997338e-02 2.659348e-01 1.072904e-01 1.873823e-01 -6.095741e-03
<VARIANCE> 39
 8.223937e+00 3.388300e+01 2.421579e+01 2.866204e+01 3.035925e+01 5.417167e+01 5.200972e+01 2.082875e+01 1.830058e+01 7.509363e+01 2.394536e+01 3.460260e+01 4.672240e+01 1.154675e+00 4.439976e+00 4.419651e+00 5.170418e+00 4.158155e+00 7.251387e+00 5.976949e+00 2.178589e+00 1.973687e+00 5.866935e+00 2.511997e+00 4.268041e+00 1.718455e+00 2.349911e-01 7.842628e-01 8.202096e-01 1.144628e+00 6.523556e-01 1.087924e+00 1.118665e+00 4.811875e-01 3.412189e-01 1.041551e+00 3.681685e-01 7.118874e-01 3.719495e-01
<GCONST> 1.260524e+02
<STATE> 5
<MEAN> 39
 -6.321439e+00 2.668267e+00 2.945705e+00 -3.742383e+00 -1.819785e+00 -1.827469e+00 4.643806e-01 4.896685e-01 -2.895750e+00 -2.680680e+00 -3.181526e+00 -2.939378e+00 6.477364e+01 -4.288636e-01 -2.151748e-01 3.407857e-01 1.723380e+00 4.592267e-01 7.184234e-01 -1.204471e-01 -8.077249e-02 4.869134e-01 3.058346e-01 2.433842e-01 1.421240e-01 -7.172890e-01 -8.264931e-02 5.307866e-02 8.734225e-02 -1.955778e-01 2.102218e-01 -2.241790e-01 8.617850e-02 -1.103719e-01 -1.268064e-01 -1.109144e-01 -9.846921e-02 -1.043017e-01 9.757833e-02
<VARIANCE> 39
 1.130559e+01 1.644968e+01 2.730622e+01 5.018705e+01 2.228091e+01 1.518045e+01 1.297715e+01 1.455624e+01 1.034495e+01 8.839170e+00 9.947506e+00 8.120309e+00 5.262348e+00 1.091198e+00 1.248135e+00 1.900873e+00 3.899075e+00 2.185886e+00 1.382939e+00 1.304826e+00 1.720659e+00 1.253594e+00 1.288571e+00 1.298065e+00 1.002761e+00 8.710757e-01 1.748399e-01 2.934558e-01 4.527902e-01 5.242107e-01 5.150882e-01 3.577030e-01 2.940060e-01 3.744857e-01 2.710685e-01 3.006128e-01 3.271640e-01 2.647431e-01 1.610545e-01
<GCONST> 9.550519e+01
<TRANSP> 6
 0.000000e+00 1.000000e+00 0.000000e+00 0.000000e+00 0.000000e+00 0.000000e+00
 0.000000e+00 8.946552e-01 1.053448e-01 0.000000e+00 0.000000e+00 0.000000e+00
 0.000000e+00 0.000000e+00 9.276373e-01 7.236267e-02 0.000000e+00 0.000000e+00
 0.000000e+00 0.000000e+00 0.000000e+00 9.242385e-01 7.576149e-02 0.000000e+00
 0.000000e+00 0.000000e+00 0.000000e+00 0.000000e+00 8.967875e-01 1.032125e-01
 0.000000e+00 0.000000e+00 0.000000e+00 0.000000e+00 0.000000e+00 0.000000e+00
<ENDHMM>
