~o
<STREAMINFO> 1 39
<VECSIZE> 39<NULLD><MFCC_D_A_0><DIAGC>
~h "multiply"
<BEGINHMM>
<NUMSTATES> 6
<STATE> 2
<MEAN> 39
 -4.812494e+00 6.821380e+00 -3.145721e+00 -1.469148e+01 -2.160249e+00 -1.554889e+01 1.093470e+01 -8.211209e+00 -2.352955e+01 -1.672391e+01 -4.494398e+00 -8.312811e+00 8.175014e+01 -3.963688e-01 7.350359e-03 -2.632662e-02 -1.850959e-01 -1.812935e-01 -1.948453e-01 6.094062e-02 -3.526674e-01 4.517502e-01 -1.224855e-01 3.977833e-01 -2.928325e-01 7.761993e-01 -3.090260e-01 -2.794043e-01 -7.624527e-02 8.497702e-02 -1.130969e-01 1.510421e-01 -1.436454e-01 3.152354e-02 4.118663e-01 2.937914e-01 2.366748e-01 1.228943e-01 1.595140e-02
<VARIANCE> 39
 1.820429e+01 1.296338e+01 4.712696e+01 2.449944e+01 7.970665e+01 3.188631e+01 4.249714e+01 2.130572e+01 4.991104e+01 2.268345e+01 6.242227e+01 3.373169e+01 5.277383e+01 5.419853e+00 2.684074e+00 3.759392e+00 3.149337e+00 6.903956e+00 5.514549e+00 4.563028e+00 2.727338e+00 1.255671e+01 3.788479e+00 7.233734e+00 3.225390e+00 6.324234e+00 5.845445e-01 6.395810e-01 6.211256e-01 5.247759e-01 9.935071e-01 8.941236e-01 6.267497e-01 5.836591e-01 1.721207e+00 7.031056e-01 1.248106e+00 6.035260e-01 6.572630e-01
<GCONST> 1.339166e+02
<STATE> 3
<MEAN> 39
 -1.209390e+01 -1.724802e+00 -1.263399e+00 -7.744858e+00 -2.791273e-01 -1.601240e+01 -2.102693e+00 -9.361379e+00 -3.917849e+00 -8.017621e+00 7.342582e-01 -3.876547e+00 8.091352e+01 3.201944e-01 -1.786014e-02 -3.163438e-01 -2.283241e-01 -1.264217e-01 -1.436901e-01 9.563056e-03 1.071569e-01 1.378042e-01 -8.289225e-02 1.324345e-01 3.828697e-01 2.177277e-01 1.193092e-01 4.592304e-02 -9.267005e-03 -2.029028e-02 1.073970e-01 -4.019307e-02 6.924970e-02 2.067742e-02 -1.004148e-01 -8.942450e-02 -6.394798e-02 -1.123206e-02 -7.398098e-02
<VARIANCE> 39
 3.155963e+01 5.557469e+01 1.794283e+01 4.494172e+01 3.839709e+01 9.818033e+01 3.382335e+01 2.124729e+01 1.870805e+01 3.931509e+01 3.178964e+01 2.545242e+01 9.712169e+01 2.911916e+00 7.479107e+00 2.219019e+00 2.180103e+00 3.455940e+00 6.817657e+00 2.905031e+00 2.224906e+00 2.930762e+00 5.202099e+00 3.729700e+00 2.042128e+00 6.194802e+00 6.582378e-01 1.308700e+00 4.192439e-01 3.361136e-01 5.550183e-01 1.006100e+00 5.172002e-01 4.445906e-01 8.030694e-01 8.438975e-01 7.472802e-01 4.282243e-01 8.607236e-01
<GCONST> 1.289457e+02
<STATE> 4
<MEAN> 39
 -6.916869e+00 -1.066798e+00 -1.147700e+01 -2.047936e+01 8.555560e+00 -1.337661e+01 9.383889e-01 -1.027518e+01 1.060880e+01 -1.827637e+01 4.255055e+00 1.168180e+00 8.953318e+01 -1.791284e-01 -3.291453e-01 2.433248e-01 3.136859e-01 6.803517e-01 -2.844653e-01 -6.127220e-01 -1.527019e-01 8.999697e-01 7.340710e-02 1.721635e-01 -4.906196e-01 -3.232690e-01 -7.904617e-02 1.017555e-01 2.036846e-01 1.344278e-01 -1.472287e-01 -9.783861e-02 -6.464406e-02 1.661591e-02 -1.473218e-01 2.744351e-02 -5.998729e-02 -6.930366e-02 -7.993886e-02
<VARIANCE> 39
 4.026001e+00 1.230775e+01 1.482916e+01 1.103116e+01 4.121719e+01 2.477061e+01 1.938497e+01 1.804405e+01 4.537070e+01 2.469053e+01 1.499067e+01 3.221436e+01 1.117484e+01 3.116079e-01 7.267160e-01 1.488901e+00 1.276244e+00 1.913470e+00 1.975251e+00 1.013789e+00 1.039781e+00 2.058935e+00 1.735177e+00 1.045434e+00 1.163037e+00 2.691690e-01 5.475058e-02 1.170179e-01 1.409175e-01 1.724537e-01 2.667096e-01 2.171022e-01 1.526172e-01 2.215458e-01 2.309033e-01 2.731159e-01 1.962534e-01 1.957992e-01 4.082819e-02
<GCONST> 8.554900e+01
<STATE> 5
<MEAN> 39
 -1.308398e+01 -8.642723e+00 5.046607e+00 -3.261759e+00 3.055733e+00 -2.415449e+01 -7.680960e+00 7.913544e-01 4.717782e+00 -1.089541e+01 -5.959943e-02 -3.864908e+00 7.431326e+01 -1.443491e-01 -3.383547e-01 2.453662e-01 7.678475e-01 -6.720080e-01 2.655204e-01 1.109164e-01 8.807794e-01 -7.350639e-01 3.610264e-01 -4.443614e-01 2.608009e-01 -1.077965e+00 4.365928e-02 6.413102e-02 -1.163198e-01 -1.206680e-01 5.382772e-02 1.818568e-01 4.579416e-02 -1.004918e-01 -2.455228e-03 -2.675875e-03 -3.957594e-03 1.415191e-02 9.093318e-03
<VARIANCE> 39
 7.197811e+00 3.375602e+01 4.463092e+01 4.527701e+01 7.613391e+01 4.479896e+01 2.063976e+01 9.005684e+01 5.536330e+01 4.066726e+01 3.157113e+01 3.435331e+01 5.690433e+01 8.971971e-01 1.782119e+00 2.443518e+00 1.742872e+00 3.440379e+00 3.753045e+00 1.682279e+00 3.227304e+00 1.997948e+00 3.251762e+00 1.860722e+00 1.503864e+00 4.235308e-01 1.414893e-01 2.138457e-01 1.974986e-01 2.804212e-01 5.375580e-01 4.638519e-01 2.799096e-01 4.578985e-01 3.570057e-01 6.505599e-01 3.653725e-01 2.449435e-01 7.767929e-02
<GCONST> 1.111393e+02
<TRANSP> 6
 0.000000e+00 1.000000e+00 0.000000e+00 0.000000e+00 0.000000e+00 0.000000e+00
 0.000000e+00 9.553595e-01 4.464054e-02 0.000000e+00 0.000000e+00 0.000000e+00
 0.000000e+00 0.000000e+00 9.730894e-01 2.691062e-02 0.000000e+00 0.000000e+00
 0.000000e+00 0.000000e+00 0.000000e+00 9.430349e-01 5.696512e-02 0.000000e+00
 0.000000e+00 0.000000e+00 0.000000e+00 0.000000e+00 9.523461e-01 4.765388e-02
 0.000000e+00 0.000000e+00 0.000000e+00 0.000000e+00 0.000000e+00 0.000000e+00
<ENDHMM>
