~o
<STREAMINFO> 1 39
<VECSIZE> 39<NULLD><MFCC_D_A_0><DIAGC>
~h "sil"
<BEGINHMM>
<NUMSTATES> 6
<STATE> 2
<MEAN> 39
 -1.558955e+01 -3.384664e+00 -4.508884e-01 -4.583939e+00 1.939500e+00 -3.063187e+00 -2.112136e+00 -3.654597e+00 -3.734666e+00 -2.724212e+00 -6.043025e-02 -1.837442e+00 6.193970e+01 2.888235e-02 -4.305222e-03 -7.670759e-02 9.907584e-02 -1.109405e-01 1.220394e-01 -1.894472e-02 -5.401871e-03 3.844729e-02 -4.480498e-02 -7.179748e-02 -3.128546e-02 -9.186283e-02 1.657045e-02 -6.557730e-03 4.627973e-03 2.256913e-02 -3.601816e-02 -2.707327e-02 -2.744584e-03 -1.743254e-02 3.704137e-02 -4.426501e-03 5.728403e-03 -1.198861e-02 2.856663e-02
<VARIANCE> 39
 2.263382e+01 2.433061e+01 3.644931e+01 4.175548e+01 2.544655e+01 3.075194e+01 2.353648e+01 3.408612e+01 2.444514e+01 2.036830e+01 2.330859e+01 2.011531e+01 1.684841e+01 1.253810e+00 1.328812e+00 1.642311e+00 2.032809e+00 2.148356e+00 2.224827e+00 2.160841e+00 2.202912e+00 2.124588e+00 2.001484e+00 1.599071e+00 1.531691e+00 1.695496e+00 2.225695e-01 2.330540e-01 2.953323e-01 3.431419e-01 4.018597e-01 3.937900e-01 4.143852e-01 4.082852e-01 4.179983e-01 3.911999e-01 3.039666e-01 2.944160e-01 3.212580e-01
<GCONST> 1.073345e+02
<STATE> 3
<MEAN> 39
 -1.551851e+01 -2.474378e+00 -1.245200e+00 -3.222769e+00 -4.564433e-01 -3.540837e+00 -2.004246e+00 -3.049887e+00 -2.188876e+00 -2.761019e+00 -1.325281e+00 -2.205310e+00 5.995490e+01 2.769970e-02 -3.524043e-02 3.560004e-03 2.486737e-02 -2.581278e-02 -1.850897e-03 2.786738e-02 -1.030189e-02 3.313762e-02 -2.703645e-02 -8.840467e-03 -1.955141e-02 5.101643e-02 1.491503e-03 -2.330787e-03 9.599800e-03 -1.439427e-02 9.013111e-03 -3.572312e-03 -8.456259e-03 6.136113e-05 -1.327505e-02 6.613609e-03 4.409491e-03 2.072238e-03 1.092206e-02
<VARIANCE> 39
 5.861268e+00 4.565374e+00 7.222462e+00 1.011160e+01 8.873403e+00 1.080628e+01 1.025303e+01 1.277608e+01 1.090316e+01 1.074965e+01 1.073010e+01 9.508356e+00 3.735286e+00 1.699395e-01 2.227039e-01 3.908553e-01 6.102581e-01 8.154912e-01 9.132889e-01 1.044295e+00 1.086095e+00 1.146039e+00 1.083749e+00 1.051077e+00 9.085472e-01 8.218400e-02 3.327891e-02 4.536124e-02 8.114015e-02 1.201496e-01 1.622013e-01 1.872573e-01 2.195190e-01 2.213700e-01 2.343119e-01 2.268747e-01 2.209556e-01 1.882335e-01 1.326595e-02
<GCONST> 6.411403e+01
<STATE> 4
<MEAN> 39
 -1.427738e+01 -4.354694e+00 -1.122157e+00 -2.802494e+00 -2.313255e+00 -2.472720e+00 -3.123623e+00 -1.721768e+00 -3.032254e+00 -1.951329e+00 -2.399545e+00 -1.561935e+00 5.905262e+01 -3.833558e-03 3.005134e-03 -8.534500e-03 1.096339e-02 -2.143041e-02 2.230822e-02 -2.490936e-02 9.169522e-03 -4.456076e-03 2.130261e-02 4.795635e-04 9.875024e-03 -3.822499e-02 6.271746e-04 3.626579e-03 4.542385e-03 -2.592743e-03 9.415855e-03 -3.728478e-03 6.212502e-03 5.680872e-03 -1.086177e-03 2.100268e-04 2.809989e-04 1.014848e-03 5.095004e-03
<VARIANCE> 39
 1.933735e+00 2.325310e+00 2.866552e+00 4.735168e+00 5.257724e+00 6.304940e+00 7.062129e+00 7.681396e+00 7.845290e+00 7.720692e+00 7.167743e+00 6.599185e+00 1.546591e+00 6.301900e-02 1.302798e-01 2.304559e-01 3.468013e-01 4.641957e-01 5.796494e-01 6.737749e-01 7.533849e-01 7.772093e-01 7.973322e-01 7.348797e-01 6.354212e-01 1.981411e-02 1.290646e-02 2.695969e-02 4.831424e-02 7.134701e-02 9.569191e-02 1.197974e-01 1.388983e-01 1.554156e-01 1.603612e-01 1.649985e-01 1.531096e-01 1.275774e-01 3.917511e-03
<GCONST> 4.215031e+01
<STATE> 5
<MEAN> 39
 -1.531951e+01 -2.431624e+00 5.526733e-01 -4.626283e+00 1.996891e+00 -4.203150e+00 -9.612377e-01 -3.430335e+00 -2.725871e+00 -2.944738e+00 -1.225614e+00 -2.755033e+00 6.397209e+01 5.368960e-02 4.224837e-02 3.556133e-01 -5.525207e-01 5.143190e-01 -6.036959e-01 1.662498e-01 -3.873841e-01 -1.634274e-01 -1.840446e-01 6.342177e-03 -2.492684e-01 1.232127e+00 1.682899e-02 6.554713e-03 3.717379e-02 -9.639291e-02 3.711531e-02 -1.614096e-01 2.392136e-03 -1.161196e-01 -2.902910e-02 -1.187471e-01 2.030820e-02 -6.763725e-02 3.079537e-01
<VARIANCE> 39
 2.235382e+01 2.793552e+01 2.603987e+01 4.178506e+01 2.800156e+01 4.041412e+01 2.279037e+01 2.829692e+01 2.528376e+01 2.029495e+01 2.167423e+01 1.535656e+01 4.221688e+01 2.709914e+00 3.188244e+00 2.734254e+00 3.610170e+00 3.108332e+00 4.412202e+00 2.434072e+00 2.645705e+00 2.887694e+00 2.630380e+00 2.386469e+00 1.548835e+00 6.534375e+00 4.422922e-01 5.364166e-01 4.975022e-01 6.580054e-01 5.700527e-01 7.593761e-01 5.008425e-01 4.788431e-01 4.795009e-01 4.890471e-01 4.267614e-01 2.887572e-01 9.866800e-01
<GCONST> 1.201589e+02
<TRANSP> 6
 0.000000e+00 6.148815e-01 3.851186e-01 0.000000e+00 0.000000e+00 0.000000e+00
 0.000000e+00 9.221153e-01 7.548299e-02 2.401750e-03 0.000000e+00 0.000000e+00
 0.000000e+00 0.000000e+00 9.508455e-01 3.272664e-02 1.642779e-02 0.000000e+00
 0.000000e+00 0.000000e+00 0.000000e+00 9.706861e-01 1.085166e-02 1.846216e-02
 0.000000e+00 0.000000e+00 0.000000e+00 0.000000e+00 8.972321e-01 1.027679e-01
 0.000000e+00 0.000000e+00 0.000000e+00 0.000000e+00 0.000000e+00 0.000000e+00
<ENDHMM>
