~o
<STREAMINFO> 1 39
<VECSIZE> 39<NULLD><MFCC_D_A_0><DIAGC>
~h "three"
<BEGINHMM>
<NUMSTATES> 6
<STATE> 2
<MEAN> 39
 -1.753616e+01 -8.204374e+00 -1.456247e-02 -1.274887e+01 6.571384e-01 -1.015131e+01 -3.384461e+00 -8.450875e+00 1.406165e+00 -7.180255e+00 1.848831e+00 -6.671548e+00 8.593498e+01 1.199307e+00 1.744545e+00 6.701724e-01 4.806470e-01 1.438690e+00 -2.590067e+00 -1.222205e+00 -2.001664e+00 -1.534142e+00 -7.853868e-01 -8.503668e-01 -9.930441e-01 3.509430e+00 7.601805e-01 1.167086e+00 1.365634e-02 1.304174e+00 5.973429e-01 -1.386425e-01 -1.077250e-02 -1.914531e-02 -9.234271e-01 2.043654e-01 -6.776274e-01 4.415139e-01 -1.767717e+00
<VARIANCE> 39
 6.187727e+00 2.634735e+01 9.897710e+00 3.686212e+01 3.050069e+01 1.350379e+01 1.729332e+01 1.635825e+01 2.350585e+01 3.091039e+01 1.573324e+01 2.273755e+01 1.076565e+02 3.488137e+00 8.747658e+00 1.319467e+00 1.193278e+01 3.391951e+00 2.316882e+00 1.140064e+00 2.252200e+00 7.634209e+00 3.357780e+00 3.530958e+00 2.444222e+00 2.199722e+01 2.783275e-01 6.362211e-01 2.445340e-01 1.016650e+00 5.047950e-01 3.581661e-01 4.035953e-01 2.786400e-01 6.662605e-01 7.890897e-01 3.649384e-01 5.360224e-01 2.319992e+00
<GCONST> 1.207013e+02
<STATE> 3
<MEAN> 39
 -3.865917e+00 8.023765e+00 -6.794580e+00 -9.442903e+00 1.373824e+01 -2.149013e+01 -1.067604e+00 -1.685573e+01 -1.116255e+01 -1.086650e+01 -7.891917e+00 -2.662608e+00 8.622805e+01 3.968820e-01 2.388373e-01 -5.697230e-01 3.184536e-01 2.004908e-01 -5.387743e-01 -2.864733e-02 -2.683874e-01 1.612697e-01 -1.969448e-02 -3.152614e-02 -2.892084e-02 9.935335e-02 -1.932388e-01 -2.124364e-01 6.809980e-02 -1.269260e-02 -1.779296e-01 7.730544e-02 -3.295778e-03 1.676754e-01 2.331433e-01 -2.493787e-02 1.100513e-01 -1.163325e-01 4.373055e-02
<VARIANCE> 39
 7.592453e+00 1.197726e+01 3.546889e+01 4.392491e+01 3.002542e+01 3.498210e+01 4.028812e+01 2.308206e+01 3.207178e+01 2.163859e+01 2.573831e+01 2.095718e+01 1.498682e+01 1.228977e+00 2.029164e+00 1.201238e+00 4.055620e+00 4.284805e+00 3.756735e+00 3.873272e+00 2.416685e+00 3.372728e+00 2.470835e+00 2.595523e+00 2.278656e+00 7.411251e-01 1.229066e-01 2.283769e-01 2.404953e-01 5.436416e-01 7.413301e-01 8.066305e-01 6.004584e-01 5.094373e-01 4.864152e-01 5.320647e-01 3.479928e-01 3.160381e-01 1.309042e-01
<GCONST> 1.110823e+02
<STATE> 4
<MEAN> 39
 -1.051156e+01 2.806358e+00 6.283459e+00 2.500679e+00 5.838061e+00 -2.939968e+01 -6.816199e+00 -7.735458e+00 -2.885165e+00 -1.832196e+01 -7.288266e-01 -8.242808e+00 8.797677e+01 -6.575178e-01 5.083797e-02 1.962226e+00 2.747369e-01 -1.331148e-01 -1.330268e-01 4.620524e-01 9.814900e-01 -1.177291e-01 -9.234774e-01 1.545248e-01 1.190367e-03 -6.032156e-01 3.816069e-02 2.607870e-02 -2.703782e-02 -1.186949e-01 9.464070e-02 1.625310e-01 1.697518e-01 -9.071101e-02 -9.729043e-02 9.673340e-02 -3.692443e-02 1.016943e-01 -1.192910e-01
<VARIANCE> 39
 8.747573e+00 1.955236e+01 9.360114e+01 8.498668e+00 1.325113e+01 2.784233e+01 1.895378e+01 4.551768e+01 2.402444e+01 4.386167e+01 1.374483e+01 1.863545e+01 1.453805e+01 2.312277e-01 1.036560e+00 1.405779e+00 7.440878e-01 1.315216e+00 3.252099e+00 1.426461e+00 2.018281e+00 1.464452e+00 2.129498e+00 9.682259e-01 2.023847e+00 6.369715e-01 3.728880e-02 1.757987e-01 2.983510e-01 1.603032e-01 1.761464e-01 7.465679e-01 1.624006e-01 3.112552e-01 3.317698e-01 4.130231e-01 2.185743e-01 4.397937e-01 5.395674e-02
<GCONST> 9.350732e+01
<STATE> 5
<MEAN> 39
 -1.506752e+01 -8.999062e-01 1.394362e+01 8.781276e-01 4.421845e+00 -1.548702e+01 9.565291e-01 -2.177595e+00 -5.173599e+00 -1.263538e+01 -1.755810e+00 -5.177649e+00 7.064230e+01 1.832791e-01 -7.109809e-01 -1.567796e+00 -5.178181e-01 -6.383993e-01 2.136171e+00 -8.395245e-02 2.450674e-01 -5.791740e-03 1.543740e+00 -1.444384e-01 5.830300e-01 -1.428020e+00 5.490125e-02 1.342372e-02 -1.854494e-01 -8.211448e-02 -6.635719e-02 -1.836020e-02 -1.111882e-01 1.292888e-02 3.721990e-02 2.654298e-03 2.560882e-02 6.562296e-02 8.346797e-02
<VARIANCE> 39
 5.932011e+00 2.792240e+01 8.688454e+01 2.732131e+01 2.781480e+01 1.149115e+02 2.689628e+01 3.009858e+01 2.335997e+01 7.065106e+01 1.340523e+01 2.145387e+01 5.084364e+01 9.881397e-01 1.598428e+00 6.374985e+00 2.532753e+00 2.042649e+00 4.852999e+00 2.449265e+00 1.864132e+00 2.089946e+00 2.798823e+00 1.593670e+00 1.939494e+00 8.778526e-01 1.330186e-01 3.241574e-01 1.236366e+00 4.970887e-01 4.557052e-01 9.748233e-01 4.593147e-01 2.631598e-01 4.186170e-01 5.477845e-01 3.173099e-01 4.413753e-01 1.500113e-01
<GCONST> 1.142498e+02
<TRANSP> 6
 0.000000e+00 1.000000e+00 0.000000e+00 0.000000e+00 0.000000e+00 0.000000e+00
 0.000000e+00 7.368629e-01 2.631372e-01 0.000000e+00 0.000000e+00 0.000000e+00
 0.000000e+00 0.000000e+00 9.513415e-01 4.865857e-02 0.000000e+00 0.000000e+00
 0.000000e+00 0.000000e+00 0.000000e+00 9.351465e-01 6.485349e-02 0.000000e+00
 0.000000e+00 0.000000e+00 0.000000e+00 0.000000e+00 9.214388e-01 7.856124e-02
 0.000000e+00 0.000000e+00 0.000000e+00 0.000000e+00 0.000000e+00 0.000000e+00
<ENDHMM>
