~o
<STREAMINFO> 1 39
<VECSIZE> 39<NULLD><MFCC_D_A_0><DIAGC>
~h "divide"
<BEGINHMM>
<NUMSTATES> 6
<STATE> 2
<MEAN> 39
 -9.253745e+00 2.898317e+00 5.338223e+00 -6.161590e+00 6.655557e+00 -1.780214e+01 -8.142366e+00 -9.774817e+00 -8.973128e+00 -1.548040e+01 -4.152726e+00 -9.069038e+00 8.191520e+01 9.089358e-01 1.816053e-01 -6.113169e-01 -5.454810e-01 -2.241487e-01 -2.099562e-01 1.383601e-01 -1.664522e-01 -7.429715e-01 -1.656844e-01 2.925843e-01 1.049024e-01 4.639148e-01 1.810822e-02 -8.785314e-02 -2.186317e-01 -6.607122e-02 -9.470530e-02 1.943925e-01 1.593066e-01 3.721937e-02 1.021586e-01 1.897393e-01 6.554407e-02 7.323860e-02 -1.923893e-01
<VARIANCE> 39
 3.845327e+01 3.087605e+01 4.361540e+01 6.363166e+01 3.181932e+01 6.462638e+01 5.094404e+01 3.259852e+01 3.594370e+01 2.700318e+01 2.918518e+01 2.135860e+01 1.550231e+01 4.263958e+00 2.898568e+00 3.396826e+00 5.354527e+00 3.174982e+00 7.760464e+00 5.280784e+00 1.939656e+00 3.609754e+00 4.011344e+00 3.051165e+00 2.282452e+00 2.432979e+00 8.621946e-01 3.864955e-01 2.654591e-01 8.188914e-01 3.448906e-01 9.728696e-01 7.117842e-01 3.797142e-01 8.269290e-01 6.807970e-01 5.084109e-01 3.877038e-01 5.685665e-01
<GCONST> 1.264432e+02
<STATE> 3
<MEAN> 39
 -1.517693e+00 -2.255175e+00 -1.687881e+01 -1.851315e+01 1.018934e+00 -1.393598e+01 1.668676e+00 -1.041802e+01 -4.168012e+00 -1.408222e+01 5.816761e+00 -4.787745e+00 8.821869e+01 -2.361252e-01 -1.493754e-01 -4.602001e-02 3.248686e-01 7.650049e-01 -3.596568e-01 -3.472236e-01 2.381608e-01 1.140474e+00 7.727779e-03 4.849799e-01 -2.419925e-01 4.366690e-02 -1.141933e-01 4.937867e-02 2.901578e-01 9.939901e-02 4.766166e-02 -1.298635e-01 -1.827333e-01 5.988823e-02 -3.949666e-02 -6.527871e-02 -1.657644e-02 -2.229948e-02 -5.121617e-02
<VARIANCE> 39
 2.993701e+00 7.410361e+00 1.874828e+01 7.245789e+00 3.766330e+01 3.330176e+01 2.668068e+01 2.988644e+01 5.623362e+01 2.405684e+01 3.416726e+01 1.350486e+01 3.830428e+00 2.910312e-01 5.503879e-01 2.795908e+00 6.886820e-01 1.126039e+00 2.488406e+00 1.934181e+00 1.045441e+00 1.232902e+00 1.409799e+00 1.487679e+00 9.637277e-01 7.970607e-02 2.854972e-02 1.128610e-01 1.347969e-01 1.019295e-01 1.794111e-01 2.293780e-01 1.318839e-01 1.650807e-01 2.341772e-01 2.490977e-01 2.885782e-01 1.574200e-01 2.168737e-02
<GCONST> 8.032586e+01
<STATE> 4
<MEAN> 39
 -1.023694e+01 -2.668648e+00 3.782043e+00 -7.358270e+00 1.100718e+01 -2.923458e+01 -1.315530e+01 -5.340833e+00 9.664018e-01 -1.523729e+01 9.371478e+00 -6.807390e+00 8.547653e+01 -5.761674e-01 5.055662e-01 1.991191e+00 1.131047e+00 3.162049e-01 -2.083410e-02 -2.063868e-01 -2.058992e-01 -1.357591e+00 -4.696305e-01 -1.315797e+00 1.954283e-01 -1.276022e+00 1.887251e-01 4.151002e-02 -5.805445e-01 -2.195299e-01 -1.380990e-01 7.201125e-01 4.747443e-01 -1.387938e-01 -1.066968e-01 2.462073e-01 -1.645598e-01 1.261820e-01 -3.834043e-01
<VARIANCE> 39
 5.476264e+00 1.794249e+01 5.505917e+01 1.762261e+01 1.349511e+01 1.909184e+01 1.802868e+01 2.375852e+01 3.301812e+01 1.746398e+01 2.177305e+01 1.187000e+01 1.370960e+01 5.082934e-01 9.000197e-01 3.288956e+00 7.616944e-01 1.168374e+00 5.508359e+00 4.095942e+00 1.414910e+00 1.172906e+00 1.626905e+00 1.652887e+00 9.412165e-01 1.674059e+00 2.844070e-02 2.460265e-01 4.389063e-01 1.690737e-01 4.277699e-01 3.227389e-01 3.129084e-01 2.875242e-01 3.407835e-01 5.052542e-01 2.441491e-01 2.324614e-01 1.147580e-01
<GCONST> 9.589785e+01
<STATE> 5
<MEAN> 39
 -1.628643e+01 -6.396235e+00 1.562530e+00 -9.569740e+00 1.408079e+00 -1.187731e+01 -6.876311e+00 -7.895439e+00 -2.432738e+00 -5.114771e+00 3.966796e-01 -3.557085e+00 7.178471e+01 -3.297688e-01 -4.957926e-01 -3.685692e-01 -2.810229e-01 -6.656055e-01 9.426155e-01 1.608734e-01 2.792395e-01 2.414300e-01 9.593561e-01 -9.893405e-02 2.113591e-01 -7.074056e-01 -2.015063e-02 2.434266e-02 1.182295e-01 7.360201e-02 3.886683e-02 -1.624777e-01 -1.002087e-01 5.513386e-02 2.083361e-02 -8.185282e-02 1.762340e-02 -2.772711e-02 1.063076e-01
<VARIANCE> 39
 3.859326e+01 2.491639e+01 1.739733e+01 2.616275e+01 2.756514e+01 2.989024e+01 2.071801e+01 1.934995e+01 2.129876e+01 3.578513e+01 2.231183e+01 2.316517e+01 7.489550e+01 4.332824e+00 1.849049e+00 3.987716e+00 3.275319e+00 2.960433e+00 5.746589e+00 3.058787e+00 2.556852e+00 1.943874e+00 4.740053e+00 2.197325e+00 2.823629e+00 1.309255e+01 8.593422e-01 3.633276e-01 7.534295e-01 6.727641e-01 5.063680e-01 8.708612e-01 7.421317e-01 4.380136e-01 3.988246e-01 7.983406e-01 4.918068e-01 5.329339e-01 2.278943e+00
<GCONST> 1.252878e+02
<TRANSP> 6
 0.000000e+00 1.000000e+00 0.000000e+00 0.000000e+00 0.000000e+00 0.000000e+00
 0.000000e+00 9.486631e-01 5.133692e-02 0.000000e+00 0.000000e+00 0.000000e+00
 0.000000e+00 0.000000e+00 9.439344e-01 5.606558e-02 0.000000e+00 0.000000e+00
 0.000000e+00 0.000000e+00 0.000000e+00 8.934163e-01 1.065837e-01 0.000000e+00
 0.000000e+00 0.000000e+00 0.000000e+00 0.000000e+00 9.447582e-01 5.524182e-02
 0.000000e+00 0.000000e+00 0.000000e+00 0.000000e+00 0.000000e+00 0.000000e+00
<ENDHMM>
