~o
<STREAMINFO> 1 39
<VECSIZE> 39<NULLD><MFCC_D_A_0><DIAGC>
~h "plus"
<BEGINHMM>
<NUMSTATES> 6
<STATE> 2
<MEAN> 39
 -1.124633e+01 -3.780712e+00 -4.830786e+00 -1.182828e+01 -5.950591e+00 -1.121133e+01 3.246963e+00 -1.500564e+01 -8.164268e+00 -9.804533e+00 2.222774e+00 -1.138101e+00 8.536493e+01 8.719687e-01 7.180536e-01 -9.201100e-01 -4.981370e-01 -6.040212e-01 -1.232366e+00 2.808394e-01 -7.641689e-01 -1.155387e+00 -7.074175e-01 -2.049457e-01 1.491975e-01 1.375805e+00 4.936491e-02 2.943188e-02 -6.031366e-02 7.696491e-02 1.284482e-01 1.302939e-02 -7.627731e-02 2.508974e-01 1.340193e-01 1.406261e-01 -1.389461e-01 -3.929179e-02 -4.047353e-01
<VARIANCE> 39
 3.124872e+01 5.943690e+01 1.977347e+01 1.304051e+01 2.129947e+01 5.753212e+01 2.563872e+01 2.653148e+01 5.445794e+01 3.743454e+01 3.173177e+01 1.550016e+01 1.450130e+01 2.432542e+00 5.846057e+00 1.877849e+00 1.617226e+00 1.594586e+00 3.940338e+00 1.599310e+00 2.352499e+00 4.227711e+00 3.177759e+00 3.539570e+00 1.633895e+00 2.586802e+00 5.292268e-01 1.232426e+00 3.582088e-01 3.021366e-01 2.726771e-01 7.540879e-01 3.062671e-01 4.487727e-01 1.037210e+00 6.206404e-01 7.858388e-01 3.168030e-01 6.009450e-01
<GCONST> 1.185568e+02
<STATE> 3
<MEAN> 39
 -3.831916e+00 -5.614232e+00 -1.700438e+01 -1.639928e+01 2.470285e-01 -1.520984e+01 2.769502e+00 -1.306549e+01 -1.149991e+00 -1.260989e+01 3.792727e+00 -2.316583e+00 8.851746e+01 6.127288e-02 -4.846611e-01 -1.086723e-01 -2.169325e-01 5.930125e-01 4.207267e-01 -8.713740e-02 1.124558e-01 1.291836e+00 -1.319670e-01 2.780460e-01 1.962621e-01 -6.091735e-01 -8.048892e-02 1.548869e-01 1.632099e-01 1.614731e-02 -4.319965e-02 5.074991e-02 -3.301009e-02 -8.686025e-02 -7.989667e-02 -3.282589e-02 -7.035523e-03 6.714423e-02 -1.343915e-01
<VARIANCE> 39
 4.097931e+00 1.811182e+01 2.205118e+01 1.319767e+01 2.524019e+01 2.526016e+01 1.758059e+01 1.705123e+01 9.114933e+01 2.817835e+01 3.309447e+01 2.808908e+01 1.559011e+01 4.087630e-01 1.249815e+00 2.136332e+00 6.239352e-01 1.284988e+00 1.415305e+00 1.224479e+00 1.787571e+00 2.181029e+00 1.871209e+00 1.942735e+00 1.755464e+00 6.811874e-01 7.644333e-02 1.592936e-01 2.366313e-01 1.323073e-01 2.574111e-01 2.577186e-01 2.512154e-01 2.662259e-01 3.955712e-01 3.738587e-01 3.085505e-01 2.646249e-01 7.649964e-02
<GCONST> 9.422029e+01
<STATE> 4
<MEAN> 39
 -1.256624e+01 -3.705873e+00 -4.750609e+00 -1.928155e+01 5.594335e+00 -9.174625e+00 -4.424154e-01 -1.479102e+01 4.010037e+00 -1.056033e+01 6.953293e+00 1.561270e+00 7.669396e+01 -2.874608e+00 -1.919440e-01 2.147878e+00 -2.440166e-01 3.140730e-03 8.305829e-01 -3.286966e-01 1.179382e+00 -9.031968e-01 1.644576e+00 -3.466099e-01 -6.837428e-01 4.452984e-01 -4.914496e-01 -2.580973e-01 -9.062672e-02 1.073142e-01 -1.132329e-01 1.352579e-02 2.164859e-01 4.226634e-01 4.113310e-02 1.332892e-01 -1.235466e-01 -1.893044e-01 5.481898e-01
<VARIANCE> 39
 4.498410e+01 2.120280e+01 4.234096e+01 1.223401e+01 1.747836e+01 2.852588e+01 2.628860e+01 2.831223e+01 5.763562e+01 6.087342e+01 2.177040e+01 3.520793e+01 2.256276e+01 4.709190e+00 4.218342e+00 1.567398e+00 1.165314e+00 2.840565e+00 2.124087e+00 3.015019e+00 4.573478e+00 3.507124e+00 6.521874e+00 1.719729e+00 2.751432e+00 5.595296e+00 5.438449e-01 7.278458e-01 3.618579e-01 2.113577e-01 6.009970e-01 4.495494e-01 5.435874e-01 5.349206e-01 6.877741e-01 1.357755e+00 3.238280e-01 4.674924e-01 5.072697e-01
<GCONST> 1.212752e+02
<STATE> 5
<MEAN> 39
 -3.304087e+01 -5.794996e+00 2.781541e+00 -1.675027e+01 7.942808e+00 -7.646477e+00 2.914077e+00 -4.263525e+00 1.240283e+00 -3.103448e+00 1.845464e+00 -4.163484e+00 8.351783e+01 3.310911e-01 2.151377e-01 5.035921e-02 3.094901e-01 1.165414e-01 -1.182095e-01 3.889890e-02 6.460683e-02 -1.696612e-01 -3.648146e-03 -2.441861e-01 4.797856e-02 -7.914674e-01 2.523614e-01 3.568512e-02 -6.512477e-02 2.674097e-02 1.043185e-03 -1.163099e-02 -5.967302e-02 -6.228954e-02 -6.655992e-02 -2.442030e-02 -5.627849e-03 5.547271e-02 -1.730331e-01
<VARIANCE> 39
 3.581913e+01 6.885380e+00 1.137238e+01 1.384007e+01 1.781659e+01 1.680875e+01 1.575378e+01 1.211922e+01 1.114140e+01 9.140641e+00 9.055516e+00 7.126160e+00 4.665834e+01 3.336067e+00 6.342434e-01 7.413486e-01 8.734765e-01 1.454489e+00 1.399860e+00 1.558184e+00 1.571188e+00 1.241772e+00 1.325677e+00 9.473057e-01 7.372127e-01 2.250734e+00 3.631455e-01 1.429822e-01 1.330165e-01 1.548492e-01 2.432800e-01 2.427557e-01 2.780471e-01 3.533986e-01 2.321380e-01 3.426858e-01 1.866648e-01 1.310612e-01 1.466435e-01
<GCONST> 8.855154e+01
<TRANSP> 6
 0.000000e+00 1.000000e+00 0.000000e+00 0.000000e+00 0.000000e+00 0.000000e+00
 0.000000e+00 9.129887e-01 8.701130e-02 0.000000e+00 0.000000e+00 0.000000e+00
 0.000000e+00 0.000000e+00 9.433206e-01 5.667948e-02 0.000000e+00 0.000000e+00
 0.000000e+00 0.000000e+00 0.000000e+00 8.694767e-01 1.305233e-01 0.000000e+00
 0.000000e+00 0.000000e+00 0.000000e+00 0.000000e+00 9.585107e-01 4.148931e-02
 0.000000e+00 0.000000e+00 0.000000e+00 0.000000e+00 0.000000e+00 0.000000e+00
<ENDHMM>
