~o
<STREAMINFO> 1 39
<VECSIZE> 39<NULLD><MFCC_D_A_0><DIAGC>
~h "four"
<BEGINHMM>
<NUMSTATES> 6
<STATE> 2
<MEAN> 39
 -1.691975e+01 -3.897705e+00 -2.834550e+00 -1.466621e+01 4.369871e+00 -1.249291e+01 7.619985e-01 -5.130345e+00 -3.274391e+00 -6.172883e+00 8.456227e-01 -7.922167e+00 8.123540e+01 7.071115e-01 3.921573e-01 2.116996e-01 -6.550984e-01 -8.003309e-01 -1.082428e+00 -4.161071e-01 -4.481153e-01 -1.283730e-01 -2.346224e-01 -2.448104e-01 -1.874501e-01 1.047843e+00 6.096458e-02 -5.152197e-03 -3.614421e-02 1.198845e-01 -1.304251e-01 6.599269e-02 -1.135888e-01 -5.661487e-02 -6.609466e-03 6.227226e-02 3.738895e-03 1.425697e-01 -4.008435e-02
<VARIANCE> 39
 8.187668e+01 5.111880e+01 3.470732e+01 4.198320e+01 5.829241e+01 5.836158e+01 3.374473e+01 2.001503e+01 2.234113e+01 1.781599e+01 2.491865e+01 1.902675e+01 5.741909e+01 5.584586e+00 4.857515e+00 2.820704e+00 2.525180e+00 4.014071e+00 3.696244e+00 3.644082e+00 2.263101e+00 2.786466e+00 1.923912e+00 2.662204e+00 1.775102e+00 2.289253e+00 5.922533e-01 8.320622e-01 4.391679e-01 5.006025e-01 7.979280e-01 9.090025e-01 6.653989e-01 4.769200e-01 5.881701e-01 3.743551e-01 5.378700e-01 3.478762e-01 2.280607e-01
<GCONST> 1.239189e+02
<STATE> 3
<MEAN> 39
 -3.886048e-01 1.750426e+00 -7.771973e-01 -1.551488e+01 -7.701848e+00 -1.981019e+01 -9.056052e+00 -7.342875e+00 -2.183499e+00 -5.435897e+00 -7.087328e-01 -5.201465e+00 8.922516e+01 8.627962e-02 -4.243026e-01 -5.608032e-01 -3.863627e-02 -3.414876e-02 2.498855e-01 9.298641e-02 4.283894e-01 8.143561e-01 -3.091453e-01 1.773588e-01 2.364841e-01 1.508268e-01 5.632834e-04 5.932553e-02 -4.914569e-02 -1.554210e-01 9.656972e-02 2.732541e-02 1.503362e-01 -7.191574e-03 4.401413e-02 -1.120667e-01 -6.627434e-02 -8.722226e-02 -1.030799e-01
<VARIANCE> 39
 2.323699e+00 2.030308e+01 4.170644e+01 1.502325e+01 1.494179e+01 3.516374e+01 2.562188e+01 4.586143e+01 4.616669e+01 2.483840e+01 1.668636e+01 1.885714e+01 1.021168e+01 1.503132e-01 6.764025e-01 8.702274e-01 1.381607e+00 1.206612e+00 2.166597e+00 2.323751e+00 1.707554e+00 2.436671e+00 2.725579e+00 1.127346e+00 1.268363e+00 4.082999e-01 4.858074e-02 1.240484e-01 1.205145e-01 1.730741e-01 2.377831e-01 3.437538e-01 3.049295e-01 3.397132e-01 3.653440e-01 3.699612e-01 1.873112e-01 2.137455e-01 4.846843e-02
<GCONST> 9.001767e+01
<STATE> 4
<MEAN> 39
 2.543850e+00 2.701177e+00 -1.447501e+01 -1.996142e+01 3.954622e+00 -9.693537e+00 -1.521710e+00 -1.540433e+01 -3.625997e+00 -9.621637e+00 -2.769264e-01 -1.106799e+00 7.808750e+01 -1.701696e-01 -8.142634e-02 -2.975583e-01 3.285604e-01 5.609094e-01 1.223734e+00 6.110835e-02 -7.237677e-01 -1.096774e+00 4.902865e-01 2.250065e-01 2.252290e-01 -1.140787e+00 -1.001292e-01 -1.321565e-01 6.881184e-02 1.065337e-01 -1.250018e-01 2.696149e-02 -5.574219e-02 1.891495e-01 4.384462e-02 2.012896e-01 9.069107e-02 2.043878e-02 -9.992335e-03
<VARIANCE> 39
 2.268601e+01 2.285312e+01 3.134888e+01 3.111490e+01 7.307194e+01 6.514581e+01 2.724507e+01 5.663374e+01 1.285298e+02 3.886896e+01 3.054320e+01 2.127129e+01 4.940039e+01 2.914636e+00 2.093325e+00 3.140444e+00 2.687368e+00 4.994663e+00 2.382633e+00 3.089026e+00 3.932127e+00 3.570964e+00 2.990548e+00 1.728505e+00 1.665568e+00 1.356036e+00 5.047338e-01 2.698092e-01 4.044543e-01 3.801343e-01 7.399316e-01 4.009046e-01 5.953344e-01 4.807336e-01 7.495765e-01 5.782006e-01 3.286701e-01 2.944617e-01 2.442542e-01
<GCONST> 1.212451e+02
<STATE> 5
<MEAN> 39
 -8.491765e+00 -5.545249e+00 -8.954045e+00 -9.237771e+00 1.774820e+00 3.982050e+00 -2.815940e+00 -9.399810e+00 -8.250891e+00 1.082261e+00 4.877949e+00 1.403349e+00 6.369981e+01 -1.041558e+00 -3.646762e-01 8.101056e-01 8.569095e-01 -1.361489e-01 -1.479255e-01 2.283384e-01 1.061927e+00 7.189569e-01 2.470695e-01 -2.005818e-01 8.123454e-02 -6.478319e-01 7.482974e-02 1.735494e-01 9.749238e-02 1.209446e-02 5.099555e-02 -2.267080e-01 7.366489e-04 -1.383812e-01 -5.598503e-02 -1.946240e-01 -1.748293e-01 -7.486209e-02 7.333775e-02
<VARIANCE> 39
 1.530753e+01 7.027856e+00 4.016779e+01 3.047106e+01 1.392297e+01 1.781989e+01 1.397527e+01 2.192030e+01 1.599183e+01 2.535664e+01 3.236245e+01 1.496959e+01 6.296556e+00 2.821925e-01 5.405234e-01 1.200659e+00 1.255285e+00 1.223544e+00 1.382714e+00 1.168576e+00 1.478785e+00 1.339315e+00 2.340560e+00 2.377146e+00 1.221791e+00 1.088887e-01 6.637792e-02 5.967796e-02 1.652966e-01 2.449484e-01 2.628706e-01 2.524549e-01 2.424957e-01 2.950485e-01 1.884293e-01 3.322755e-01 3.121678e-01 1.765432e-01 2.798343e-02
<GCONST> 8.499268e+01
<TRANSP> 6
 0.000000e+00 1.000000e+00 0.000000e+00 0.000000e+00 0.000000e+00 0.000000e+00
 0.000000e+00 9.489875e-01 5.101251e-02 0.000000e+00 0.000000e+00 0.000000e+00
 0.000000e+00 0.000000e+00 9.442177e-01 5.578231e-02 0.000000e+00 0.000000e+00
 0.000000e+00 0.000000e+00 0.000000e+00 9.455821e-01 5.441789e-02 0.000000e+00
 0.000000e+00 0.000000e+00 0.000000e+00 0.000000e+00 9.056042e-01 9.439579e-02
 0.000000e+00 0.000000e+00 0.000000e+00 0.000000e+00 0.000000e+00 0.000000e+00
<ENDHMM>
