~o
<STREAMINFO> 1 39
<VECSIZE> 39<NULLD><MFCC_D_A_0><DIAGC>
~h "five"
<BEGINHMM>
<NUMSTATES> 6
<STATE> 2
<MEAN> 39
 -1.959623e+01 -7.710998e+00 -5.313493e+00 -1.283613e+01 3.337370e+00 -9.711350e+00 2.052600e+00 -7.638099e+00 -5.029624e-01 -7.708551e+00 3.293405e+00 -5.475207e+00 8.271213e+01 6.686561e-01 2.179168e-01 -1.990466e-01 -4.204615e-01 -5.290025e-01 -5.687652e-01 1.197441e-01 3.274494e-02 -1.511868e-01 -6.237695e-01 -3.045225e-01 1.571924e-01 1.212646e+00 7.774726e-02 2.562875e-02 7.522440e-03 2.791787e-02 -5.785926e-02 1.163551e-02 -5.045266e-02 9.787635e-02 3.542798e-02 -9.849962e-03 -7.852365e-03 4.471197e-02 -5.499813e-02
<VARIANCE> 39
 8.354132e+01 3.361953e+01 1.636847e+01 1.646824e+01 3.478386e+01 2.994166e+01 2.293782e+01 1.928823e+01 2.569034e+01 3.175930e+01 2.213024e+01 1.597024e+01 5.655559e+01 6.256583e+00 3.309159e+00 1.928201e+00 1.025465e+00 2.933382e+00 2.492488e+00 2.453388e+00 2.016219e+00 2.691061e+00 2.616161e+00 2.776073e+00 1.459153e+00 1.526256e+00 7.327545e-01 6.704347e-01 3.568490e-01 2.210649e-01 4.949199e-01 5.589231e-01 4.711744e-01 4.061301e-01 5.497611e-01 4.735132e-01 6.009200e-01 2.612674e-01 2.372514e-01
<GCONST> 1.151107e+02
<STATE> 3
<MEAN> 39
 -3.596681e+00 -4.291885e+00 -9.869575e+00 -1.683522e+01 -1.870215e+00 -1.198886e+01 1.991862e+00 -2.940622e+00 -1.917354e-01 -1.542556e+01 5.125275e-01 1.178820e-02 9.330995e+01 -2.503949e-01 -2.588166e-01 1.086939e-01 1.885495e-01 7.839304e-01 -4.038848e-01 -3.736443e-01 5.230547e-02 7.111892e-01 1.984164e-01 4.803178e-01 -1.799874e-01 4.811383e-02 -7.578103e-02 5.551478e-02 1.901376e-01 7.945764e-02 8.699533e-02 -2.189874e-01 -7.717961e-02 -6.212129e-02 1.094334e-02 4.558492e-02 -1.722972e-02 -9.705117e-02 -1.067326e-01
<VARIANCE> 39
 7.470793e+00 1.253307e+01 9.635871e+00 1.592511e+01 3.354548e+01 3.966671e+01 2.236721e+01 1.870469e+01 2.529760e+01 4.338253e+01 2.433091e+01 1.435337e+01 7.259347e+00 3.321818e-01 6.467301e-01 1.020451e+00 1.511451e+00 1.606057e+00 4.678827e+00 1.883896e+00 1.470753e+00 1.990209e+00 1.994785e+00 1.178576e+00 1.274794e+00 2.960750e-01 6.531469e-02 1.283235e-01 1.125370e-01 2.991095e-01 3.425733e-01 4.101444e-01 2.744209e-01 2.480064e-01 3.849989e-01 4.194834e-01 2.208480e-01 1.975781e-01 6.823906e-02
<GCONST> 9.135569e+01
<STATE> 4
<MEAN> 39
 -1.091908e+01 -3.963380e+00 5.441589e+00 -6.760813e+00 1.017179e+01 -2.966214e+01 -8.465399e+00 -6.156566e+00 2.538098e+00 -1.398020e+01 -2.935087e-01 -6.317279e+00 8.300070e+01 -4.794790e-01 -1.042237e-01 3.643807e-01 4.016601e-01 2.170981e-01 7.673317e-01 -4.275541e-02 -2.162747e-01 -5.602787e-01 3.064831e-01 -5.062892e-01 -1.859789e-01 -1.231418e+00 -1.554155e-01 3.198660e-03 -2.236078e-01 -1.499838e-01 -1.401023e-01 3.727782e-01 2.667986e-01 -2.552166e-02 -5.429635e-02 -2.489227e-02 1.129158e-01 1.046700e-01 9.970737e-02
<VARIANCE> 39
 1.394543e+01 2.965703e+01 4.768558e+01 3.183314e+01 3.396939e+01 8.631831e+01 2.171752e+01 1.955977e+01 4.816714e+01 5.258156e+01 5.601115e+01 2.748499e+01 5.677761e+01 1.807454e+00 2.348136e+00 5.238498e+00 2.228563e+00 2.796865e+00 1.016738e+01 3.513572e+00 1.494616e+00 2.776642e+00 5.829785e+00 3.259291e+00 2.095893e+00 1.105995e+00 4.680865e-01 4.227966e-01 5.411649e-01 2.834301e-01 5.244340e-01 1.145429e+00 5.999910e-01 3.079627e-01 6.643160e-01 1.154562e+00 6.163343e-01 4.693354e-01 2.413001e-01
<GCONST> 1.233728e+02
<STATE> 5
<MEAN> 39
 -2.364390e+01 -6.306654e+00 -1.587569e+00 -1.041128e+01 7.699643e+00 -7.212205e+00 9.302287e-01 -7.570110e+00 -1.647240e+00 -7.586626e+00 1.815980e+00 -5.249383e+00 7.438594e+01 3.553622e-02 9.416927e-02 6.489499e-03 1.750629e-01 -4.478783e-01 3.881408e-01 1.167825e-01 2.982857e-01 -9.248024e-02 2.473400e-01 -4.754156e-02 1.987329e-01 -5.711802e-01 1.693816e-01 -6.471245e-03 4.920577e-02 1.162755e-01 1.742010e-03 -6.847835e-02 -1.296084e-01 4.800754e-02 -1.082227e-02 1.525761e-02 -1.104963e-01 9.420145e-03 -7.056484e-02
<VARIANCE> 39
 5.272687e+01 2.544704e+01 1.346086e+01 3.111475e+01 3.004349e+01 3.633051e+01 2.019885e+01 2.667488e+01 2.351860e+01 2.017383e+01 2.626978e+01 1.758300e+01 5.822026e+01 3.769313e+00 1.548454e+00 1.290011e+00 2.329754e+00 2.354748e+00 1.945685e+00 1.732425e+00 1.634755e+00 1.535905e+00 1.913635e+00 2.327747e+00 1.376657e+00 2.355367e+00 2.509882e-01 2.044435e-01 2.135510e-01 3.315473e-01 3.860640e-01 3.961296e-01 2.661153e-01 2.739848e-01 2.929511e-01 4.014152e-01 3.447281e-01 2.369763e-01 2.273059e-01
<GCONST> 1.068491e+02
<TRANSP> 6
 0.000000e+00 1.000000e+00 0.000000e+00 0.000000e+00 0.000000e+00 0.000000e+00
 0.000000e+00 9.514146e-01 4.858541e-02 0.000000e+00 0.000000e+00 0.000000e+00
 0.000000e+00 0.000000e+00 9.428363e-01 5.716373e-02 0.000000e+00 0.000000e+00
 0.000000e+00 0.000000e+00 0.000000e+00 9.361656e-01 6.383445e-02 0.000000e+00
 0.000000e+00 0.000000e+00 0.000000e+00 0.000000e+00 9.538292e-01 4.617075e-02
 0.000000e+00 0.000000e+00 0.000000e+00 0.000000e+00 0.000000e+00 0.000000e+00
<ENDHMM>
