~o
<STREAMINFO> 1 39
<VECSIZE> 39<NULLD><MFCC_D_A_0><DIAGC>
~h "seven"
<BEGINHMM>
<NUMSTATES> 6
<STATE> 2
<MEAN> 39
 -2.639273e+01 -7.994788e+00 3.044706e+00 -2.050556e+01 1.056333e+01 -1.536590e+01 4.629995e+00 -8.414864e+00 3.885537e+00 -3.612635e+00 1.882627e+00 -4.558589e+00 8.751940e+01 -5.208270e-02 2.461945e-01 4.306570e-02 2.805476e-02 2.651866e-01 -7.992260e-01 -6.453007e-02 -5.365114e-01 -1.731552e-01 -3.843506e-01 6.562072e-02 -1.777417e-01 1.158714e+00 2.492378e-01 1.859186e-01 -1.537358e-01 2.082175e-01 -1.901516e-01 -1.284721e-02 -2.021061e-01 1.874146e-02 -1.722204e-01 -5.016229e-02 -2.305886e-02 6.773742e-02 -1.594151e-01
<VARIANCE> 39
 6.254601e+01 1.776994e+01 1.702312e+01 2.461226e+01 2.788842e+01 3.021831e+01 3.233892e+01 2.028391e+01 1.133315e+01 1.654494e+01 1.265709e+01 1.027833e+01 4.025369e+01 8.328953e+00 2.847540e+00 2.198304e+00 3.315305e+00 2.961946e+00 2.659588e+00 4.484660e+00 3.405999e+00 2.418715e+00 1.946151e+00 1.433785e+00 1.342135e+00 2.887794e+00 6.990312e-01 4.732370e-01 3.855609e-01 4.716902e-01 2.637285e-01 4.751463e-01 4.401082e-01 6.021132e-01 3.553152e-01 3.824884e-01 3.025188e-01 2.930151e-01 2.568518e-01
<GCONST> 1.129614e+02
<STATE> 3
<MEAN> 39
 -6.320926e+00 3.029403e-02 -5.687057e+00 -1.470574e+01 5.869052e-01 -2.330956e+01 -6.390712e+00 -1.556291e+01 -4.158410e+00 -8.604597e+00 1.546761e+00 -2.790166e+00 9.462722e+01 1.179388e+00 1.864296e-01 -8.390913e-01 -2.114823e-01 -4.908318e-01 -5.349088e-01 2.340654e-01 8.114159e-02 -3.397942e-01 -7.925197e-01 2.156614e-01 5.190899e-01 -1.325746e-01 -4.580032e-01 -2.171835e-01 2.766272e-01 -5.748654e-02 4.066822e-01 1.998176e-01 5.566248e-01 1.871759e-01 8.091853e-02 -2.017432e-01 -3.971364e-02 -7.199243e-02 -4.170990e-01
<VARIANCE> 39
 2.667441e+00 5.788223e+00 1.397619e+01 8.992217e+00 8.228240e+00 2.429156e+01 1.168809e+01 2.067254e+01 1.870588e+01 3.763535e+01 1.284205e+01 2.376037e+01 5.015789e+00 1.907686e+00 8.458796e-01 1.296902e+00 8.827947e-01 1.654023e+00 1.735630e+00 2.527778e+00 2.557786e+00 2.880181e+00 4.147516e+00 1.369413e+00 1.959864e+00 1.766081e+00 5.879470e-01 2.626390e-01 1.929946e-01 2.427272e-01 1.250533e-01 4.215831e-01 3.299412e-01 6.910087e-01 8.307631e-01 7.701825e-01 3.018484e-01 3.955061e-01 1.027408e-01
<GCONST> 9.729662e+01
<STATE> 4
<MEAN> 39
 -4.844150e+00 -5.759854e-01 1.172272e-01 -1.408425e+01 7.077089e+00 -2.173274e+01 2.134143e+00 -1.571967e+01 -8.279030e+00 -1.615180e+01 3.898916e+00 -2.838184e+00 8.565421e+01 -8.483490e-02 1.207810e-01 6.181223e-01 3.267666e-01 7.177636e-01 4.203542e-01 1.462678e-01 4.400300e-02 -8.571284e-02 1.872988e-01 1.389207e-01 -4.405113e-02 -6.345558e-01 1.667835e-02 -2.683033e-02 -5.328257e-02 1.267219e-01 -1.439827e-02 7.863825e-02 -1.689777e-01 1.077212e-01 5.102797e-03 1.982892e-01 -1.103526e-01 4.707375e-02 1.746825e-02
<VARIANCE> 39
 1.143425e+01 2.347842e+01 2.488131e+01 2.436022e+01 1.882248e+01 4.303789e+01 2.042117e+01 2.418081e+01 2.397789e+01 4.690339e+01 6.803094e+01 3.140418e+01 3.064394e+01 1.487851e+00 2.181927e+00 1.906976e+00 3.906877e+00 2.146382e+00 5.054896e+00 2.011380e+00 2.247570e+00 2.538637e+00 4.505838e+00 6.022146e+00 4.297208e+00 5.020625e+00 3.620438e-01 4.010794e-01 3.778368e-01 6.247565e-01 3.512619e-01 8.990098e-01 3.820437e-01 4.600599e-01 4.862070e-01 7.418913e-01 9.052187e-01 9.487439e-01 5.942787e-01
<GCONST> 1.211165e+02
<STATE> 5
<MEAN> 39
 -4.728994e+00 8.315579e-01 3.770873e+00 -3.305514e-01 1.058221e+01 -6.600273e+00 -3.804704e+00 -8.684595e+00 -1.012212e+01 -5.309293e+00 -1.037530e+00 -2.945654e+00 6.942687e+01 -4.369758e-01 -3.554946e-01 -3.386133e-01 5.774417e-01 -8.799272e-01 1.091404e+00 -3.185600e-01 5.671389e-01 2.123239e-01 6.984600e-01 -3.682807e-01 -7.677690e-02 -1.082020e+00 -1.197731e-01 -1.450003e-02 -4.015146e-02 -2.162206e-01 -1.593260e-01 -1.233251e-01 1.014190e-01 -7.954422e-02 1.249526e-01 -5.238593e-02 1.941549e-01 -2.465049e-02 9.083029e-02
<VARIANCE> 39
 1.840218e+01 7.053797e+00 8.715522e+00 2.255613e+01 3.193676e+01 4.901618e+01 1.330753e+01 1.825456e+01 3.062461e+01 1.828275e+01 1.944337e+01 1.627843e+01 2.674103e+01 1.715075e+00 7.637872e-01 1.055354e+00 3.218621e+00 1.526705e+00 2.040968e+00 1.687809e+00 1.763719e+00 2.830549e+00 1.187895e+00 2.729970e+00 2.043378e+00 4.892052e-01 2.250852e-01 1.569078e-01 2.219942e-01 4.391667e-01 3.341738e-01 3.720935e-01 3.065278e-01 3.271508e-01 3.799607e-01 2.461290e-01 4.925045e-01 4.045755e-01 1.123012e-01
<GCONST> 9.975597e+01
<TRANSP> 6
 0.000000e+00 1.000000e+00 0.000000e+00 0.000000e+00 0.000000e+00 0.000000e+00
 0.000000e+00 9.492386e-01 5.076141e-02 0.000000e+00 0.000000e+00 0.000000e+00
 0.000000e+00 0.000000e+00 8.822593e-01 1.177407e-01 0.000000e+00 0.000000e+00
 0.000000e+00 0.000000e+00 0.000000e+00 9.486015e-01 5.139845e-02 0.000000e+00
 0.000000e+00 0.000000e+00 0.000000e+00 0.000000e+00 9.326634e-01 6.733661e-02
 0.000000e+00 0.000000e+00 0.000000e+00 0.000000e+00 0.000000e+00 0.000000e+00
<ENDHMM>
