~o
<STREAMINFO> 1 39
<VECSIZE> 39<NULLD><MFCC_D_A_0><DIAGC>
~h "nine"
<BEGINHMM>
<NUMSTATES> 6
<STATE> 2
<MEAN> 39
 -3.250738e+00 6.732151e+00 5.822588e+00 -6.120729e+00 1.271906e+01 -1.571255e+01 3.187229e+00 -1.227988e+01 -1.553843e+01 -5.822695e+00 -5.405203e+00 -3.578290e+00 7.693838e+01 5.094730e-01 -3.680736e-01 -4.729567e-01 -1.834270e+00 -6.629676e-01 -1.524700e+00 1.196048e+00 -3.166732e-01 2.182419e-01 -5.323922e-01 1.509963e+00 7.125596e-02 2.780950e+00 -2.957988e-01 -4.305928e-01 -4.808167e-01 -2.223926e-01 -3.552280e-01 1.655450e-01 9.089967e-02 4.123584e-01 3.516411e-01 -2.785480e-02 2.750183e-01 1.353424e-01 7.115876e-03
<VARIANCE> 39
 9.106153e+00 1.906398e+01 1.106662e+01 4.888435e+01 5.084455e+01 3.067741e+01 4.261479e+01 2.639041e+01 3.809485e+01 1.569807e+01 5.015720e+01 2.000280e+01 6.885089e+01 2.860172e+00 4.321575e+00 3.040349e+00 2.428604e+00 7.999804e+00 3.730804e+00 3.016935e+00 3.905230e+00 5.759069e+00 1.295147e+00 4.896579e+00 2.131490e+00 2.268462e+00 3.066485e-01 5.519558e-01 2.970947e-01 4.818828e-01 1.281020e+00 9.051912e-01 6.242166e-01 5.362560e-01 8.453267e-01 2.412639e-01 8.660809e-01 4.513443e-01 5.809690e-01
<GCONST> 1.228530e+02
<STATE> 3
<MEAN> 39
 -4.088557e+00 -1.592808e+00 -7.229372e+00 -2.017663e+01 7.498187e+00 -1.873937e+01 1.025383e+01 -6.457689e+00 -2.001859e+00 -1.693068e+01 5.929058e+00 2.630791e+00 9.296961e+01 -6.347747e-02 -2.307828e-01 -2.012614e-01 -7.186858e-02 6.016065e-01 -1.295804e-02 -3.516336e-01 1.680815e-01 7.828471e-01 -4.294198e-01 3.442468e-01 -2.697709e-02 -2.834477e-02 -3.980299e-02 4.372525e-02 2.255464e-01 1.608864e-01 7.464122e-02 -9.208512e-02 -1.101331e-01 -7.037798e-02 1.326690e-02 8.119080e-02 -5.251273e-02 -1.580539e-01 -1.323852e-01
<VARIANCE> 39
 2.438757e+00 6.492441e+00 1.605242e+01 8.817459e+00 2.203228e+01 2.270672e+01 1.567504e+01 1.046863e+01 3.701622e+01 3.695099e+01 2.280865e+01 2.025517e+01 2.934650e+00 2.055597e-01 4.702301e-01 1.548315e+00 7.715787e-01 1.269437e+00 2.895311e+00 1.148522e+00 1.045062e+00 1.492714e+00 2.552952e+00 1.892908e+00 2.423495e+00 2.602330e-01 3.218627e-02 8.769739e-02 1.415519e-01 2.095625e-01 2.698544e-01 4.832717e-01 1.492635e-01 1.719691e-01 2.830907e-01 3.548180e-01 4.416413e-01 2.546105e-01 1.165882e-01
<GCONST> 8.426119e+01
<STATE> 4
<MEAN> 39
 -1.021263e+01 -3.593002e+00 7.786932e+00 -1.062407e+01 1.368606e+01 -3.397264e+01 -1.088916e+00 -5.302925e+00 6.874391e+00 -1.602053e+01 8.177569e+00 -7.647150e+00 8.745443e+01 -5.333292e-01 1.544659e-02 1.782958e+00 1.203759e+00 -1.757672e-01 -1.121971e+00 -3.944159e-01 3.430176e-01 -4.669654e-01 -1.153743e-01 -1.001556e+00 -2.630699e-01 -8.140966e-01 8.386113e-03 -2.658156e-02 -5.533102e-02 -3.292525e-02 -4.988382e-02 2.735567e-01 1.360445e-01 4.705621e-02 -2.101542e-01 -5.619733e-02 -8.798859e-02 1.882483e-01 -7.279452e-02
<VARIANCE> 39
 7.991226e+00 5.548635e+00 5.928984e+01 2.786733e+01 1.089164e+01 3.187166e+01 1.009693e+01 1.478887e+01 2.069503e+01 1.049767e+01 3.002200e+01 1.660180e+01 1.373149e+01 2.044663e-01 4.881099e-01 4.851921e-01 5.527806e-01 7.777977e-01 1.797459e+00 1.172024e+00 1.237944e+00 1.691532e+00 1.243497e+00 1.104473e+00 1.621363e+00 2.120308e-01 3.372644e-02 6.592356e-02 6.992335e-02 8.084746e-02 1.440616e-01 1.813071e-01 1.481472e-01 1.996446e-01 1.735637e-01 2.192301e-01 2.323791e-01 1.840375e-01 1.729266e-02
<GCONST> 7.588041e+01
<STATE> 5
<MEAN> 39
 -1.526573e+01 -8.113334e+00 1.586873e+01 -2.190916e+00 4.766799e+00 -2.672886e+01 -1.150144e+00 3.064039e+00 -6.597120e+00 -1.330638e+01 -4.163311e-01 -1.169005e+00 7.276302e+01 1.924782e-02 -1.907987e-01 -1.100205e+00 4.954760e-01 -1.218613e+00 1.986762e+00 -3.325131e-02 5.916646e-01 -5.608264e-01 8.056856e-01 -2.152037e-01 5.054758e-01 -1.387487e+00 6.856901e-02 9.285127e-02 -2.119404e-01 -8.953655e-02 -3.092125e-02 8.466757e-02 -2.592194e-02 -1.367301e-01 1.984306e-01 4.860744e-02 2.305430e-02 -6.275804e-02 1.581699e-02
<VARIANCE> 39
 1.441562e+01 2.576413e+01 4.536911e+01 1.788909e+01 6.076168e+01 9.087289e+01 2.145724e+01 3.542169e+01 4.076180e+01 3.061297e+01 1.697018e+01 3.346970e+01 3.175621e+01 8.538122e-01 1.312228e+00 2.234038e+00 1.281514e+00 2.693177e+00 1.863413e+00 1.829808e+00 2.398082e+00 2.895612e+00 2.004892e+00 1.405454e+00 1.783294e+00 4.067268e-01 1.205026e-01 1.407592e-01 1.998651e-01 3.084926e-01 5.565363e-01 3.033055e-01 3.909674e-01 3.922882e-01 4.049471e-01 3.760674e-01 2.568448e-01 3.163959e-01 4.821674e-02
<GCONST> 1.045673e+02
<TRANSP> 6
 0.000000e+00 1.000000e+00 0.000000e+00 0.000000e+00 0.000000e+00 0.000000e+00
 0.000000e+00 8.967035e-01 1.032965e-01 0.000000e+00 0.000000e+00 0.000000e+00
 0.000000e+00 0.000000e+00 9.470679e-01 5.293214e-02 0.000000e+00 0.000000e+00
 0.000000e+00 0.000000e+00 0.000000e+00 9.210585e-01 7.894150e-02 0.000000e+00
 0.000000e+00 0.000000e+00 0.000000e+00 0.000000e+00 9.222354e-01 7.776467e-02
 0.000000e+00 0.000000e+00 0.000000e+00 0.000000e+00 0.000000e+00 0.000000e+00
<ENDHMM>
