~o
<STREAMINFO> 1 39
<VECSIZE> 39<NULLD><MFCC_D_A_0><DIAGC>
~h "minus"
<BEGINHMM>
<NUMSTATES> 6
<STATE> 2
<MEAN> 39
 -2.269096e+00 7.854895e+00 -9.707503e-01 -1.342416e+01 5.119921e+00 -1.436419e+01 2.820268e+00 -8.242540e+00 -2.127301e+01 -1.778895e+01 -1.274052e+01 -5.602689e+00 7.690432e+01 1.194055e+00 -6.453076e-01 -2.137007e+00 -1.625243e+00 -1.810397e+00 -2.446245e+00 5.323758e-01 -9.418952e-01 4.381769e-01 -1.435682e+00 2.248500e+00 3.576337e-01 3.842805e+00 -7.261295e-01 -9.676763e-01 -4.614071e-01 1.508289e-01 -3.249151e-01 3.519830e-01 -1.538429e-02 9.426568e-02 8.447919e-01 8.067462e-01 8.096161e-01 3.394350e-01 -4.672504e-02
<VARIANCE> 39
 9.191778e+00 1.660407e+01 3.255171e+01 3.049772e+01 5.331133e+01 5.809083e+01 1.496114e+01 2.794970e+01 6.052169e+01 2.306776e+01 7.139240e+01 2.203261e+01 5.539817e+01 3.670586e+00 6.885947e+00 3.724844e+00 2.631415e+00 5.075113e+00 4.614167e+00 1.968687e+00 1.756140e+00 1.279724e+01 6.573517e+00 1.066759e+01 2.802192e+00 2.735292e+00 2.662571e-01 5.963020e-01 7.065148e-01 6.382145e-01 1.067860e+00 1.504405e+00 3.279989e-01 4.077627e-01 1.852139e+00 8.486309e-01 2.087724e+00 5.805250e-01 5.746269e-01
<GCONST> 1.309547e+02
<STATE> 3
<MEAN> 39
 -6.657827e+00 1.363150e+00 -4.035637e+00 -1.169405e+01 2.478960e+00 -2.220748e+01 -2.884007e+00 -1.198921e+01 -1.153790e+01 -1.152445e+01 -9.176201e-01 -1.113536e+01 8.773504e+01 -1.173737e-01 -1.681612e-02 1.669099e-01 1.121205e-01 3.129862e-01 -1.274431e-02 -3.071915e-01 -7.926358e-02 1.332409e-01 4.446753e-01 3.891117e-01 -5.798515e-02 4.000111e-02 4.945039e-02 2.241493e-02 5.041856e-02 -6.326953e-03 6.025109e-02 -2.241492e-03 -1.436529e-02 6.179683e-02 -1.505378e-02 2.079374e-02 -1.720956e-02 3.635640e-02 -7.120059e-02
<VARIANCE> 39
 1.048281e+01 3.486211e+01 7.287512e+01 2.380533e+01 1.852939e+01 7.896317e+01 3.768597e+01 1.726066e+01 2.423447e+01 3.304659e+01 3.586182e+01 3.480687e+01 4.694174e+01 1.325767e+00 2.671990e+00 2.828643e+00 1.419155e+00 1.346905e+00 7.242593e+00 1.542153e+00 1.870190e+00 1.593168e+00 2.779620e+00 4.752542e+00 2.264246e+00 2.828138e+00 2.729769e-01 3.948390e-01 3.484952e-01 2.615653e-01 3.079577e-01 1.192149e+00 2.739021e-01 3.930211e-01 3.068318e-01 4.161546e-01 7.686110e-01 3.093748e-01 3.842387e-01
<GCONST> 1.150576e+02
<STATE> 4
<MEAN> 39
 -9.122231e+00 -2.144334e+00 1.003414e+00 -1.450321e+01 7.146482e+00 -1.635667e+01 -4.712519e+00 -1.089697e+01 -9.812853e+00 -4.969249e+00 9.873423e+00 1.297280e+00 8.572484e+01 -1.122545e+00 -4.053785e-01 6.539546e-01 -1.932958e-01 -1.150641e-01 8.411537e-01 1.194717e-01 2.543997e-01 5.877760e-01 -6.499746e-03 -3.666807e-01 -5.404745e-02 -1.387930e-01 -2.931358e-01 7.123136e-03 4.413519e-04 -1.826767e-02 -8.194808e-02 3.674975e-02 5.650356e-02 1.643721e-02 8.230119e-02 -4.634072e-02 -1.208281e-01 -1.613535e-01 6.984275e-02
<VARIANCE> 39
 3.230728e+01 3.436510e+01 3.838742e+01 1.184200e+01 1.254129e+01 4.298253e+01 3.066378e+01 1.680456e+01 2.572831e+01 2.529703e+01 2.658876e+01 2.358121e+01 2.323847e+01 4.166462e+00 4.177367e+00 1.303324e+00 1.061014e+00 1.385486e+00 1.875659e+00 1.427054e+00 1.749105e+00 3.759634e+00 1.891814e+00 1.674861e+00 3.153500e+00 1.861062e+00 3.922403e-01 7.275405e-01 3.218296e-01 2.157767e-01 2.802395e-01 3.493934e-01 2.616757e-01 2.962139e-01 5.549940e-01 3.597248e-01 3.132161e-01 3.098478e-01 2.672195e-01
<GCONST> 1.086407e+02
<STATE> 5
<MEAN> 39
 -3.261034e+01 -6.163832e+00 3.185409e+00 -1.759113e+01 8.420018e+00 -8.518472e+00 2.689322e+00 -3.924463e+00 2.072042e+00 -3.135421e+00 2.805417e+00 -5.140554e+00 8.399694e+01 2.779897e-01 1.594518e-01 -1.864913e-01 1.606354e-01 -1.624894e-02 -6.438879e-02 1.515658e-01 2.437530e-01 -1.084373e-01 1.293258e-01 -1.759817e-01 1.300111e-01 -9.096735e-01 2.522662e-01 5.499868e-02 -1.142900e-02 9.855793e-02 2.666126e-02 1.360367e-02 -7.076550e-02 -8.455088e-03 -1.332800e-01 1.977286e-02 -3.057019e-02 8.213846e-02 -1.532331e-01
<VARIANCE> 39
 2.681231e+01 1.711941e+01 1.868973e+01 1.882271e+01 2.163833e+01 1.696542e+01 1.814977e+01 1.924276e+01 1.521123e+01 1.063677e+01 1.139508e+01 1.288741e+01 6.168763e+01 3.039881e+00 9.847172e-01 1.324479e+00 1.679921e+00 1.737929e+00 1.459463e+00 1.256713e+00 1.557787e+00 1.061811e+00 8.907722e-01 9.131446e-01 8.488356e-01 2.007847e+00 3.049164e-01 2.039430e-01 2.031780e-01 2.707278e-01 3.085063e-01 3.175791e-01 2.218426e-01 2.550132e-01 2.096971e-01 1.611125e-01 1.654006e-01 1.837036e-01 1.784657e-01
<GCONST> 9.403583e+01
<TRANSP> 6
 0.000000e+00 1.000000e+00 0.000000e+00 0.000000e+00 0.000000e+00 0.000000e+00
 0.000000e+00 8.181094e-01 1.818906e-01 0.000000e+00 0.000000e+00 0.000000e+00
 0.000000e+00 0.000000e+00 9.676867e-01 3.231334e-02 0.000000e+00 0.000000e+00
 0.000000e+00 0.000000e+00 0.000000e+00 9.430686e-01 5.693145e-02 0.000000e+00
 0.000000e+00 0.000000e+00 0.000000e+00 0.000000e+00 9.601439e-01 3.985616e-02
 0.000000e+00 0.000000e+00 0.000000e+00 0.000000e+00 0.000000e+00 0.000000e+00
<ENDHMM>
