~o
<STREAMINFO> 1 39
<VECSIZE> 39<NULLD><MFCC_D_A_0><DIAGC>
~h "eight"
<BEGINHMM>
<NUMSTATES> 6
<STATE> 2
<MEAN> 39
 -7.487335e+00 -4.499188e+00 1.988375e+00 -7.328891e+00 3.683756e+00 -3.448484e+01 -2.412087e+00 -1.104754e+01 -1.777357e+00 -1.099820e+01 2.076698e+00 -6.994969e+00 9.055921e+01 -9.066209e-02 7.805265e-01 1.195180e+00 9.543728e-02 7.678744e-01 -4.504707e-01 -4.750796e-01 9.735548e-02 -1.140945e-01 -2.046037e+00 -3.311630e-01 -1.890294e-01 3.355325e-01 -1.680590e-01 9.289629e-02 5.034256e-02 7.858187e-02 4.092896e-02 4.842229e-01 2.437175e-02 1.708394e-01 -7.226042e-02 -3.307571e-02 -1.070466e-01 7.633639e-02 -5.670847e-01
<VARIANCE> 39
 8.735324e+00 2.863858e+01 5.287037e+01 1.265535e+01 3.102326e+01 3.901210e+01 3.873625e+01 2.162888e+01 2.239767e+01 1.212692e+02 1.966958e+01 2.648872e+01 3.407584e+01 1.270183e+00 2.141237e+00 1.771940e+00 1.352895e+00 2.285314e+00 5.318823e+00 2.726800e+00 1.870559e+00 2.041735e+00 2.513256e+00 1.764972e+00 1.965414e+00 7.570493e+00 1.338327e-01 5.787781e-01 3.806193e-01 2.136165e-01 4.989906e-01 1.585258e+00 5.955381e-01 3.141821e-01 3.818729e-01 9.004809e-01 4.359726e-01 3.378477e-01 5.956753e-01
<GCONST> 1.156526e+02
<STATE> 3
<MEAN> 39
 -1.338000e+01 -7.464192e-01 5.009948e+00 -5.470493e+00 4.868664e+00 -1.651651e+01 -3.263312e+00 -3.484607e+00 -3.260210e+00 -1.042625e+01 -2.350456e+00 -3.331283e+00 6.771616e+01 -5.172959e-02 -2.596811e-01 -1.090777e+00 -4.268208e-02 -1.017589e+00 2.300759e+00 1.100025e-01 3.766103e-01 6.691634e-02 1.754989e+00 -1.649998e-01 5.128691e-01 -1.518334e+00 1.344430e-02 -1.284722e-01 -2.796212e-02 -1.256481e-01 -1.852825e-02 -1.345799e-01 2.316730e-02 -5.267959e-02 8.211321e-02 -1.332726e-02 9.568649e-02 -4.899841e-02 3.622258e-01
<VARIANCE> 39
 7.634619e+00 9.308087e+00 4.010882e+01 2.114482e+01 7.481992e+01 1.243181e+02 1.787072e+01 1.690712e+01 2.140996e+01 1.223947e+02 3.371295e+01 2.873165e+01 4.495465e+01 9.899974e-01 8.942142e-01 2.599814e+00 2.141551e+00 4.465426e+00 2.325809e+00 2.329082e+00 1.884243e+00 2.009421e+00 5.399700e+00 2.603830e+00 2.200224e+00 1.578023e+00 2.387579e-01 1.709759e-01 7.165196e-01 5.615247e-01 9.003046e-01 5.452273e-01 4.791758e-01 3.446521e-01 4.049235e-01 1.193261e+00 4.541933e-01 4.132791e-01 3.791264e-01
<GCONST> 1.160941e+02
<STATE> 4
<MEAN> 39
 -2.146701e+01 -7.810037e+00 2.118692e+00 -1.401341e+01 3.680705e+00 -7.501321e+00 -3.151689e-01 -5.363908e+00 1.800449e+00 -5.760074e+00 1.297987e+00 -4.783242e+00 7.927059e+01 -2.182703e+00 -1.048030e+00 1.134951e+00 -2.124681e+00 1.231137e+00 -1.142773e+00 4.568944e-01 -1.309106e+00 1.511914e+00 -8.608495e-01 9.480152e-01 -1.045923e+00 5.347451e+00 2.791874e-01 2.240617e-01 1.760476e-01 4.785632e-01 -3.166724e-01 1.422201e-02 -6.345496e-02 -2.200667e-01 2.053555e-02 9.384405e-02 -9.176566e-02 4.880805e-02 -9.746631e-02
<VARIANCE> 39
 5.126805e+01 2.562777e+01 3.197361e+01 5.522553e+01 3.993212e+01 2.203695e+01 2.050374e+01 2.261968e+01 2.578297e+01 1.790511e+01 1.108022e+01 2.037247e+01 2.162639e+02 3.339038e+00 2.804840e+00 3.432331e+00 6.524097e+00 4.938142e+00 1.640252e+00 2.922398e+00 1.689460e+00 1.467723e+00 1.832176e+00 1.086913e+00 1.733605e+00 9.736824e+00 1.213605e+00 6.303501e-01 7.696089e-01 1.598690e+00 1.076140e+00 5.059556e-01 5.373062e-01 3.474491e-01 4.861479e-01 4.903830e-01 2.368737e-01 4.255700e-01 3.906310e+00
<GCONST> 1.244048e+02
<STATE> 5
<MEAN> 39
 -1.564338e+01 -8.252320e+00 8.060970e+00 -9.806941e+00 1.562026e+00 -8.432857e+00 2.008169e+00 -1.052328e+01 3.801856e+00 -4.266188e+00 4.019195e+00 -7.459486e+00 8.402114e+01 1.013739e+00 3.721364e-01 -1.924076e-01 8.676623e-01 -4.040084e-01 5.513112e-01 -1.030418e-01 4.488139e-01 -5.165008e-01 5.112658e-01 -2.503471e-01 2.446532e-01 -1.885591e+00 -6.104405e-02 1.067380e-03 -1.022875e-01 -3.838131e-02 6.661760e-02 9.153647e-02 3.672342e-03 1.486399e-01 -3.297788e-02 -2.528303e-02 -7.141412e-02 4.006689e-02 -1.830659e-01
<VARIANCE> 39
 4.073320e+01 1.572903e+01 1.931656e+01 2.218301e+01 1.289430e+01 1.849362e+01 2.065826e+01 2.692203e+01 2.525012e+01 2.080200e+01 1.420743e+01 1.467110e+01 1.358294e+02 1.211063e+00 1.311780e+00 1.811364e+00 1.210019e+00 1.241681e+00 1.981035e+00 2.227223e+00 1.926150e+00 1.618026e+00 1.382080e+00 1.573782e+00 1.536526e+00 2.053818e+00 1.992179e-01 2.677788e-01 2.716377e-01 2.751897e-01 2.476045e-01 4.191879e-01 3.671244e-01 2.857538e-01 2.873973e-01 2.746412e-01 2.861882e-01 2.558798e-01 2.858917e-01
<GCONST> 1.020717e+02
<TRANSP> 6
 0.000000e+00 1.000000e+00 0.000000e+00 0.000000e+00 0.000000e+00 0.000000e+00
 0.000000e+00 9.380087e-01 6.199129e-02 0.000000e+00 0.000000e+00 0.000000e+00
 0.000000e+00 0.000000e+00 9.304891e-01 6.951091e-02 0.000000e+00 0.000000e+00
 0.000000e+00 0.000000e+00 0.000000e+00 8.446407e-01 1.553593e-01 0.000000e+00
 0.000000e+00 0.000000e+00 0.000000e+00 0.000000e+00 9.380647e-01 6.193532e-02
 0.000000e+00 0.000000e+00 0.000000e+00 0.000000e+00 0.000000e+00 0.000000e+00
<ENDHMM>
