~o
<STREAMINFO> 1 39
<VECSIZE> 39<NULLD><MFCC_D_A_0><DIAGC>
~h "one"
<BEGINHMM>
<NUMSTATES> 6
<STATE> 2
<MEAN> 39
 -4.894681e+00 1.075025e+01 1.256741e+00 -1.334624e+01 -4.818585e+00 -1.782947e+01 -2.150527e+00 -4.085896e+00 -6.233168e+00 -9.121483e+00 -5.545054e+00 -9.041709e+00 8.103036e+01 6.819117e-01 -8.412700e-01 -1.010558e+00 -3.324967e-01 -9.385840e-01 -3.925378e-02 -1.335037e-02 1.797487e-01 2.078729e-01 -7.681820e-02 -1.596824e-01 3.342237e-01 2.465200e+00 -2.108118e-01 -3.439270e-01 -1.760275e-01 1.319313e-01 1.770170e-01 3.003021e-01 1.204695e-01 1.318154e-01 2.237694e-01 1.191325e-01 1.050666e-01 1.455270e-01 -1.544936e-01
<VARIANCE> 39
 1.973944e+01 5.241142e+01 2.886377e+01 4.846424e+01 6.282479e+01 6.310760e+01 6.012402e+01 2.467653e+01 2.586779e+01 4.369699e+01 2.311758e+01 2.932550e+01 9.235128e+01 1.734233e+00 8.781136e+00 2.819026e+00 3.507604e+00 5.668649e+00 6.338869e+00 2.972291e+00 2.088130e+00 3.949063e+00 5.214696e+00 2.081272e+00 2.454838e+00 2.827748e+00 2.953283e-01 1.510449e+00 5.518996e-01 6.882136e-01 1.096603e+00 9.706805e-01 5.146120e-01 3.747284e-01 7.324126e-01 1.001634e+00 4.970239e-01 3.663836e-01 5.442486e-01
<GCONST> 1.296619e+02
<STATE> 3
<MEAN> 39
 -5.864168e+00 2.861861e+00 -5.737912e+00 -1.520929e+01 -1.800286e+00 -1.297190e+01 1.591889e+00 -1.634499e+00 -4.418272e+00 -1.279624e+01 4.629848e+00 1.685872e-02 9.299182e+01 -4.344812e-01 4.942884e-01 3.812331e-01 7.617667e-02 1.193289e+00 -1.136584e-01 2.906379e-01 -4.745381e-01 -4.924917e-01 -3.712679e-01 1.857441e+00 1.336931e-01 -3.674271e-01 1.899453e-03 1.894674e-01 2.247202e-01 1.471508e-01 1.403571e-01 -2.360984e-02 -1.126265e-01 -1.376424e-01 -8.491135e-02 9.447424e-02 -1.579347e-01 -1.363655e-01 -2.610654e-01
<VARIANCE> 39
 5.368154e+00 1.242365e+01 1.583583e+01 1.132215e+01 3.599553e+01 2.357661e+01 3.306815e+01 3.122349e+01 4.670766e+01 3.078772e+01 9.803026e+01 2.362296e+01 4.524832e+00 1.769665e-01 8.540435e-01 1.215460e+00 1.419544e+00 1.757452e+00 2.031107e+00 1.475272e+00 2.669005e+00 2.142785e+00 2.898127e+00 3.541287e+00 2.752765e+00 6.374452e-01 4.462459e-02 1.942999e-01 1.884505e-01 3.355181e-01 2.788602e-01 5.045611e-01 1.788917e-01 4.257639e-01 4.831177e-01 5.248968e-01 1.025892e+00 3.369986e-01 9.997381e-02
<GCONST> 9.944787e+01
<STATE> 4
<MEAN> 39
 -7.746286e+00 5.285806e+00 3.884518e+00 -5.930492e+00 1.678726e+01 -1.033467e+01 -3.059705e+00 -7.542237e+00 -4.552814e+00 -7.610705e+00 6.516482e+00 -5.308030e+00 7.760709e+01 2.972694e-01 -5.201322e-01 5.647095e-01 1.092768e+00 6.449782e-01 7.529044e-01 -5.673107e-01 -1.916704e-02 3.002308e-01 6.551389e-01 -1.366310e+00 -1.285032e-01 -1.524375e+00 6.829680e-02 -1.262199e-01 -2.090550e-01 -7.884652e-02 -3.558182e-01 -5.499633e-02 3.078323e-02 9.535851e-02 -9.046456e-03 -4.765401e-02 9.761896e-02 5.398821e-02 1.060955e-01
<VARIANCE> 39
 1.617268e+01 1.476343e+01 1.652505e+01 2.910597e+01 4.061294e+01 3.876999e+01 2.497033e+01 2.283983e+01 5.945712e+01 2.786860e+01 7.669608e+01 1.382233e+01 3.018314e+01 6.101472e-01 6.072574e-01 1.399320e+00 3.361255e+00 4.311605e+00 2.231655e+00 1.793674e+00 2.303228e+00 2.023099e+00 2.154535e+00 3.732954e+00 9.778121e-01 1.273164e+00 1.174389e-01 1.421245e-01 2.159486e-01 6.727682e-01 6.164976e-01 4.260782e-01 3.216529e-01 3.964776e-01 3.480023e-01 3.879622e-01 7.561392e-01 1.426001e-01 2.004027e-01
<GCONST> 1.068139e+02
<STATE> 5
<MEAN> 39
 -5.675025e+00 8.453988e-01 4.011177e+00 3.266214e+00 8.558826e+00 -3.336760e+00 -6.552703e+00 -6.941536e+00 -5.370188e+00 -1.465242e+00 1.012447e+00 -5.357805e+00 6.693688e+01 -3.850940e-01 -3.196001e-01 -2.039638e-01 3.065961e-01 -7.557929e-01 4.972431e-01 1.083908e-01 2.946726e-01 8.638842e-02 3.918514e-01 -2.321630e-01 6.526952e-02 -6.811177e-01 -7.357821e-02 1.867473e-02 3.662102e-02 -1.170693e-01 1.140194e-01 -3.906960e-02 5.379065e-02 2.363646e-02 1.901535e-02 -5.060961e-02 6.116888e-03 2.860713e-02 4.731929e-02
<VARIANCE> 39
 1.565077e+01 1.952491e+01 1.635089e+01 8.282452e+00 2.794018e+01 1.846071e+01 2.530422e+01 2.114593e+01 1.985506e+01 5.435896e+01 2.468602e+01 2.081181e+01 1.469021e+01 6.576571e-01 7.043779e-01 9.335505e-01 9.751275e-01 1.671564e+00 1.481845e+00 1.793020e+00 1.687655e+00 1.465190e+00 1.979777e+00 1.247149e+00 1.547893e+00 2.090057e-01 7.991672e-02 1.168005e-01 1.431729e-01 1.408783e-01 2.585623e-01 2.948681e-01 2.920900e-01 3.487659e-01 2.704809e-01 3.473955e-01 2.578241e-01 3.179270e-01 3.472431e-02
<GCONST> 9.039505e+01
<TRANSP> 6
 0.000000e+00 1.000000e+00 0.000000e+00 0.000000e+00 0.000000e+00 0.000000e+00
 0.000000e+00 8.928215e-01 1.071785e-01 0.000000e+00 0.000000e+00 0.000000e+00
 0.000000e+00 0.000000e+00 9.222707e-01 7.772932e-02 0.000000e+00 0.000000e+00
 0.000000e+00 0.000000e+00 0.000000e+00 9.111078e-01 8.889219e-02 0.000000e+00
 0.000000e+00 0.000000e+00 0.000000e+00 0.000000e+00 9.245554e-01 7.544466e-02
 0.000000e+00 0.000000e+00 0.000000e+00 0.000000e+00 0.000000e+00 0.000000e+00
<ENDHMM>
