~o
<STREAMINFO> 1 39
<VECSIZE> 39<NULLD><MFCC_D_A_0><DIAGC>
~h "six"
<BEGINHMM>
<NUMSTATES> 6
<STATE> 2
<MEAN> 39
 -3.054908e+01 -5.335971e+00 3.619122e+00 -1.631813e+01 7.357377e+00 -1.063780e+01 2.792091e+00 -7.349695e+00 2.465032e+00 -2.808038e+00 1.640571e+00 -4.341032e+00 8.660548e+01 -2.036810e-01 2.127734e-01 9.176200e-02 -3.068838e-01 1.965594e-01 -8.018129e-01 -1.713539e-01 -3.636680e-01 -1.091638e-01 -3.172727e-01 -9.046172e-02 -2.780898e-01 1.116118e+00 3.912685e-01 1.237859e-01 -1.024733e-01 2.503082e-01 -1.259945e-01 -1.181609e-01 -2.156475e-01 -4.608109e-02 -1.556568e-01 -5.333730e-02 -9.725469e-02 -8.163099e-02 -1.588649e-01
<VARIANCE> 39
 6.336414e+01 1.676132e+01 2.726984e+01 1.814593e+01 2.492152e+01 2.059376e+01 2.415162e+01 2.367600e+01 1.982959e+01 1.809929e+01 1.133413e+01 1.067684e+01 4.404202e+01 7.659092e+00 1.526443e+00 2.820302e+00 2.617393e+00 2.105217e+00 2.454741e+00 3.883791e+00 2.924782e+00 2.438735e+00 1.874467e+00 1.593924e+00 1.549099e+00 2.169050e+00 6.004596e-01 3.086564e-01 5.498106e-01 4.046955e-01 3.464424e-01 4.663067e-01 3.991292e-01 4.755376e-01 3.228562e-01 3.727425e-01 2.472246e-01 2.634467e-01 1.942231e-01
<GCONST> 1.104707e+02
<STATE> 3
<MEAN> 39
 -1.106174e+01 -3.930602e+00 2.133345e+00 -2.333015e+00 2.297566e+00 -2.450658e+01 -8.427288e+00 -7.158962e+00 -6.261400e+00 -7.068227e+00 -3.039743e+00 -4.798832e+00 8.007708e+01 4.471171e-01 -7.784673e-02 -2.746302e-01 6.824359e-01 -3.119287e-01 5.463347e-01 -1.305746e-02 5.308564e-01 5.492851e-03 1.831185e-01 -2.443018e-02 3.143251e-01 -1.347182e+00 -3.499581e-01 -8.006285e-02 -5.703457e-02 -2.396497e-01 1.898613e-01 1.534996e-01 1.689129e-01 5.171936e-02 1.760215e-01 9.759702e-02 8.935731e-02 2.321532e-02 1.184505e-01
<VARIANCE> 39
 7.455474e+00 1.715586e+01 1.719383e+01 2.437185e+01 2.731445e+01 1.120805e+02 2.345956e+01 4.281679e+01 1.133178e+01 1.948321e+01 2.022125e+01 2.127548e+01 1.694321e+02 3.078403e+00 1.613099e+00 2.036401e+00 2.054112e+00 2.888639e+00 9.218019e+00 2.855611e+00 2.498692e+00 1.654903e+00 2.459360e+00 2.104359e+00 1.873320e+00 3.775488e+00 4.829738e-01 3.433027e-01 4.505960e-01 3.855403e-01 6.271039e-01 1.296344e+00 4.948653e-01 6.257119e-01 2.844671e-01 5.163119e-01 4.581155e-01 4.522507e-01 7.234339e-01
<GCONST> 1.177410e+02
<STATE> 4
<MEAN> 39
 -2.066967e+01 -8.579202e+00 -2.684576e+00 -1.190141e+01 9.954269e+00 -1.023962e+01 -7.011754e+00 -8.463294e+00 6.526172e-01 -9.968806e-01 6.030810e-01 -5.809379e+00 8.188004e+01 -2.727054e+00 -6.366482e-01 2.556109e-01 -2.325376e+00 1.573707e+00 -1.688934e-01 3.799782e-01 -8.321180e-01 1.240488e+00 3.453132e-01 8.816282e-01 -4.322914e-01 4.393892e+00 -1.322715e-01 1.344253e-01 3.656903e-01 2.581016e-01 -4.350934e-01 1.127764e-01 3.131571e-01 3.525313e-01 -2.247117e-02 -1.339758e-01 -9.357599e-02 1.314819e-01 -2.824476e-01
<VARIANCE> 39
 4.639005e+01 1.568155e+01 2.627690e+01 5.988523e+01 4.802629e+01 3.133170e+01 1.482944e+01 2.833855e+01 2.603798e+01 9.698340e+00 2.250526e+01 1.237880e+01 1.619697e+02 1.549276e+00 1.539222e+00 5.263358e+00 5.824297e+00 7.450671e+00 3.099055e+00 2.468175e+00 3.905909e+00 1.940236e+00 1.069899e+00 2.270805e+00 1.597508e+00 6.692460e+00 4.051448e-01 2.794497e-01 7.885090e-01 1.164090e+00 1.259126e+00 6.291543e-01 4.494182e-01 6.579486e-01 4.786170e-01 1.923185e-01 4.860967e-01 2.949928e-01 2.447424e+00
<GCONST> 1.217029e+02
<STATE> 5
<MEAN> 39
 -3.070276e+01 -5.366060e+00 3.842029e+00 -1.777641e+01 1.008123e+01 -9.394580e+00 2.452671e+00 -4.548045e+00 4.051525e-01 -1.988415e+00 2.224238e+00 -4.278626e+00 8.484182e+01 5.719211e-01 2.285229e-01 4.355082e-02 3.171276e-01 -1.835703e-01 1.098029e-01 3.468475e-02 2.761022e-01 -3.980185e-01 7.854611e-02 -2.648300e-01 1.227520e-01 -1.143241e+00 1.278257e-01 -2.378629e-02 -5.460613e-02 9.701982e-02 5.042309e-03 2.039644e-02 -1.082281e-01 -3.040267e-02 -2.684454e-02 -3.543718e-03 -2.193035e-02 -2.146603e-02 -6.345695e-02
<VARIANCE> 39
 5.703830e+01 7.675405e+00 1.185828e+01 2.286328e+01 1.303234e+01 1.442445e+01 2.204974e+01 1.521096e+01 1.842457e+01 9.921358e+00 1.323543e+01 8.902732e+00 1.177944e+02 2.197395e+00 7.407776e-01 1.134191e+00 1.646962e+00 1.248894e+00 1.092322e+00 1.695064e+00 1.472679e+00 1.140547e+00 1.249680e+00 1.173000e+00 8.183547e-01 1.579565e+00 2.598096e-01 1.483548e-01 2.172132e-01 2.189180e-01 2.456201e-01 2.290528e-01 2.481712e-01 2.729183e-01 2.659133e-01 2.656483e-01 2.095244e-01 1.593859e-01 1.623714e-01
<GCONST> 9.252857e+01
<TRANSP> 6
 0.000000e+00 1.000000e+00 0.000000e+00 0.000000e+00 0.000000e+00 0.000000e+00
 0.000000e+00 9.485649e-01 5.143503e-02 0.000000e+00 0.000000e+00 0.000000e+00
 0.000000e+00 0.000000e+00 9.520368e-01 4.796321e-02 0.000000e+00 0.000000e+00
 0.000000e+00 0.000000e+00 0.000000e+00 8.607447e-01 1.392554e-01 0.000000e+00
 0.000000e+00 0.000000e+00 0.000000e+00 0.000000e+00 9.639349e-01 3.606507e-02
 0.000000e+00 0.000000e+00 0.000000e+00 0.000000e+00 0.000000e+00 0.000000e+00
<ENDHMM>
