~o
<STREAMINFO> 1 39
<VECSIZE> 39<NULLD><MFCC_D_A_0><DIAGC>
~h "two"
<BEGINHMM>
<NUMSTATES> 6
<STATE> 2
<MEAN> 39
 -2.023988e+01 -8.883724e+00 7.730899e-01 -8.156822e+00 2.104099e+00 -1.010746e+01 2.197017e-01 -1.205001e+01 -4.211661e+00 2.949738e-01 4.798747e+00 -7.703297e+00 8.995042e+01 7.405237e-01 6.409215e-01 -3.284418e-01 -2.686478e-01 5.968254e-01 -6.610579e-01 9.075924e-02 -1.084389e+00 -1.186253e+00 -3.518312e-01 -4.720907e-02 1.343901e-01 1.204625e+00 4.084168e-01 4.524832e-01 -5.194223e-02 1.914138e-01 -1.138650e-01 -7.119850e-02 2.854823e-02 7.491044e-02 -3.232292e-01 -3.263744e-01 -4.572332e-01 1.696209e-01 -6.227205e-01
<VARIANCE> 39
 2.312385e+01 1.460950e+01 1.712318e+01 1.010676e+01 2.135959e+01 2.435938e+01 1.570778e+01 2.321986e+01 1.902062e+01 1.706202e+01 2.051055e+01 1.455407e+01 4.724860e+01 3.879326e+00 3.949869e+00 1.781258e+00 1.597971e+00 1.933782e+00 5.232892e+00 1.749046e+00 2.035079e+00 3.797706e+00 3.167913e+00 5.778628e+00 2.240724e+00 1.226231e+01 3.555201e-01 3.610336e-01 3.873686e-01 2.712853e-01 5.474014e-01 1.078284e+00 3.661247e-01 3.808822e-01 5.134945e-01 5.112354e-01 5.970173e-01 3.757510e-01 1.679253e+00
<GCONST> 1.159411e+02
<STATE> 3
<MEAN> 39
 -7.195364e+00 5.078238e+00 3.032905e-01 -1.039638e+01 -3.248088e+00 -2.004883e+01 3.892057e+00 -1.580761e+01 -1.819084e+01 -1.089930e+01 -7.317926e+00 -5.068163e+00 9.086674e+01 4.274954e-01 6.166118e-01 4.497075e-01 -5.751254e-01 -5.072349e-01 -1.983617e-01 6.079341e-01 5.149187e-01 -1.373629e-01 -9.391496e-01 -5.890442e-01 -1.949023e-01 -2.892627e-03 -1.546307e-01 -1.756784e-01 1.444813e-01 -1.857684e-01 1.139100e-01 7.995623e-02 1.314037e-01 1.236715e-01 2.951904e-01 -4.650986e-03 2.364645e-01 -8.243870e-02 -1.461803e-01
<VARIANCE> 39
 4.120506e+00 1.318532e+01 1.349683e+01 1.586592e+01 2.040169e+01 4.317249e+01 4.947961e+01 2.976679e+01 2.836224e+01 3.086028e+01 1.585805e+01 2.069536e+01 1.047995e+01 8.401158e-01 1.351659e+00 1.378657e+00 1.937617e+00 2.115086e+00 5.514415e+00 4.574752e+00 3.183105e+00 3.860420e+00 2.839789e+00 2.076780e+00 1.573034e+00 1.286418e+00 1.517988e-01 2.647597e-01 2.558870e-01 4.386576e-01 3.018949e-01 1.126616e+00 8.460062e-01 6.550905e-01 5.894135e-01 5.566817e-01 4.508628e-01 3.039111e-01 2.079877e-01
<GCONST> 1.083649e+02
<STATE> 4
<MEAN> 39
 -7.160836e+00 8.888673e+00 6.963155e+00 -1.838498e+01 6.210340e-02 -1.844006e+01 8.681514e+00 -5.472012e+00 -1.140807e+01 -1.436065e+01 -9.647006e+00 -8.910807e+00 7.827606e+01 -1.949823e-02 -4.340466e-01 -3.495872e-01 -4.208340e-02 9.675514e-02 9.861898e-01 -6.656403e-01 7.846037e-01 6.350084e-01 9.321326e-01 3.329093e-01 2.266305e-01 -1.468872e+00 -2.577695e-02 -1.413261e-01 -2.178501e-01 3.444543e-01 -1.122416e-01 2.798223e-01 -2.661143e-01 1.741232e-02 7.990529e-02 2.664085e-01 1.073550e-01 1.871963e-01 -5.915040e-03
<VARIANCE> 39
 8.228799e+00 3.392425e+01 2.426066e+01 2.871486e+01 3.035405e+01 5.423709e+01 5.204190e+01 2.074935e+01 1.823556e+01 7.517335e+01 2.395162e+01 3.460409e+01 4.659583e+01 1.155271e+00 4.445878e+00 4.404059e+00 5.149020e+00 4.164834e+00 7.244147e+00 5.922793e+00 2.177175e+00 1.973794e+00 5.826520e+00 2.513217e+00 4.270381e+00 1.720021e+00 2.353999e-01 7.853819e-01 8.218240e-01 1.146165e+00 6.531613e-01 1.089211e+00 1.120438e+00 4.813046e-01 3.416313e-01 1.042829e+00 3.687656e-01 7.129371e-01 3.725068e-01
<GCONST> 1.260487e+02
<STATE> 5
<MEAN> 39
 -6.321649e+00 2.668444e+00 2.946365e+00 -3.741505e+00 -1.819606e+00 -1.827185e+00 4.648848e-01 4.900098e-01 -2.894847e+00 -2.680444e+00 -3.181464e+00 -2.939422e+00 6.477319e+01 -4.287851e-01 -2.150897e-01 3.408048e-01 1.723321e+00 4.594033e-01 7.183377e-01 -1.203485e-01 -8.075863e-02 4.867832e-01 3.058731e-01 2.432132e-01 1.420882e-01 -7.172803e-01 -8.263139e-02 5.303732e-02 8.725321e-02 -1.956196e-01 2.101863e-01 -2.241503e-01 8.607145e-02 -1.103822e-01 -1.269071e-01 -1.109513e-01 -9.842006e-02 -1.043005e-01 9.763446e-02
<VARIANCE> 39
 1.130601e+01 1.645002e+01 2.730279e+01 5.018155e+01 2.228274e+01 1.518040e+01 1.297457e+01 1.455621e+01 1.033570e+01 8.838950e+00 9.947763e+00 8.120814e+00 5.260461e+00 1.091071e+00 1.248160e+00 1.900977e+00 3.899261e+00 2.185566e+00 1.382882e+00 1.304748e+00 1.720795e+00 1.253467e+00 1.288478e+00 1.297771e+00 1.002718e+00 8.711281e-01 1.748377e-01 2.934635e-01 4.527361e-01 5.242194e-01 5.151117e-01 3.577096e-01 2.938742e-01 3.745150e-01 2.709462e-01 3.005987e-01 3.271535e-01 2.647521e-01 1.610171e-01
<GCONST> 9.550202e+01
<TRANSP> 6
 0.000000e+00 1.000000e+00 0.000000e+00 0.000000e+00 0.000000e+00 0.000000e+00
 0.000000e+00 8.946598e-01 1.053402e-01 0.000000e+00 0.000000e+00 0.000000e+00
 0.000000e+00 0.000000e+00 9.277846e-01 7.221539e-02 0.000000e+00 0.000000e+00
 0.000000e+00 0.000000e+00 0.000000e+00 9.240789e-01 7.592117e-02 0.000000e+00
 0.000000e+00 0.000000e+00 0.000000e+00 0.000000e+00 8.967801e-01 1.032199e-01
 0.000000e+00 0.000000e+00 0.000000e+00 0.000000e+00 0.000000e+00 0.000000e+00
<ENDHMM>
