~o
<STREAMINFO> 1 39
<VECSIZE> 39<NULLD><MFCC_D_A_0><DIAGC>
~h "zero"
<BEGINHMM>
<NUMSTATES> 6
<STATE> 2
<MEAN> 39
 -2.529518e+01 -8.346327e+00 1.008041e+01 -1.912663e+01 1.164060e+01 -1.575016e+01 -4.541764e-01 -1.197487e+01 2.034130e+00 -8.311738e+00 1.089036e-01 -8.781907e+00 8.148454e+01 1.378727e+00 2.067576e-01 3.207049e-01 8.040393e-01 1.155424e-01 -1.739851e+00 -9.952711e-01 -9.881265e-01 -9.276580e-01 -6.226891e-01 -6.400652e-01 -7.560336e-01 1.600608e+00 5.397020e-01 1.673301e-01 -2.960017e-01 4.945255e-01 -3.906092e-01 -6.187232e-02 -2.256007e-01 1.311554e-01 -3.310524e-01 6.629904e-02 -1.521180e-01 1.465172e-01 -2.905189e-01
<VARIANCE> 39
 8.403288e+01 3.503585e+01 3.451444e+01 4.573524e+01 2.005347e+01 3.179912e+01 4.576749e+01 2.452353e+01 3.466636e+01 2.087231e+01 3.875128e+01 2.316401e+01 2.588704e+01 1.071029e+01 6.298966e+00 4.949443e+00 8.265979e+00 3.907851e+00 5.163256e+00 4.184587e+00 2.638007e+00 4.657638e+00 2.444234e+00 5.111525e+00 2.773608e+00 2.810956e+00 1.210636e+00 1.012566e+00 1.367055e+00 1.160786e+00 7.384292e-01 8.975658e-01 7.656217e-01 5.610415e-01 6.531969e-01 5.764887e-01 8.109318e-01 5.685807e-01 2.477104e-01
<GCONST> 1.328569e+02
<STATE> 3
<MEAN> 39
 -4.156021e+00 -2.651870e+00 4.156332e+00 -7.060650e+00 7.258492e+00 -3.373099e+01 -6.246804e+00 -1.987049e+01 -8.245139e+00 -1.073242e+01 -5.632002e+00 -1.085960e+01 8.655996e+01 5.855606e-01 1.520926e-01 -1.472895e+00 -2.021011e-01 2.816608e-01 -1.813937e-01 4.201667e-01 -2.831345e-01 -5.657335e-02 2.794810e-01 3.347035e-01 1.197601e-01 -1.514607e-01 -8.321911e-02 2.189405e-02 -2.925521e-02 -2.107007e-01 1.821208e-01 3.257464e-01 -1.211217e-02 5.092187e-02 7.484677e-02 -2.474242e-02 4.821885e-02 -2.173053e-02 -7.780028e-02
<VARIANCE> 39
 9.812513e+00 5.446578e+00 6.321619e+01 1.127528e+01 1.113094e+01 1.372790e+01 2.735241e+01 1.649205e+01 1.779237e+01 1.802245e+01 1.466591e+01 1.455333e+01 2.730500e+00 1.568800e-01 7.963762e-01 1.381273e+00 9.848997e-01 1.308136e+00 2.004561e+00 1.485297e+00 1.012585e+00 9.983599e-01 1.362527e+00 7.543423e-01 8.631266e-01 2.221871e-01 9.100024e-02 1.418292e-01 2.017811e-01 2.184241e-01 1.113813e-01 2.470418e-01 3.044023e-01 2.218507e-01 2.459813e-01 2.307419e-01 1.519163e-01 1.446698e-01 1.169786e-02
<GCONST> 7.858334e+01
<STATE> 4
<MEAN> 39
 3.161702e+00 4.677269e+00 -9.617819e+00 -2.149751e+01 1.558226e+01 -2.234609e+01 -4.656666e+00 -1.220481e+01 -9.789383e+00 -1.280748e+01 -9.686272e-01 -1.522161e+00 8.078081e+01 7.399120e-02 1.200391e-01 4.665904e-01 -6.031475e-01 -8.351055e-01 5.507314e-01 2.188126e-01 1.079832e+00 2.376857e-01 -7.797839e-01 -9.821630e-02 6.552877e-01 -2.863314e-01 -3.535386e-02 -3.102893e-02 1.196805e-01 1.242521e-01 -2.316580e-01 -5.098732e-02 6.907704e-02 3.484700e-02 1.767153e-02 6.553436e-03 -6.866149e-02 -7.614983e-02 -2.620223e-02
<VARIANCE> 39
 3.319828e+00 9.215056e+00 1.197020e+01 2.736267e+01 6.640539e+01 2.022065e+01 3.510400e+01 7.485422e+01 2.953854e+01 3.881944e+01 2.968748e+01 4.304206e+01 3.881441e+00 1.814312e-01 8.982378e-01 6.294178e-01 1.542336e+00 4.384867e+00 1.524821e+00 3.277830e+00 2.469943e+00 1.358330e+00 1.584859e+00 2.460769e+00 1.335913e+00 3.357380e-01 2.104696e-02 1.017459e-01 7.915536e-02 1.417125e-01 2.638586e-01 2.296728e-01 5.808761e-01 4.433945e-01 1.836156e-01 2.877635e-01 4.354635e-01 2.535671e-01 3.648715e-02
<GCONST> 9.128127e+01
<STATE> 5
<MEAN> 39
 -1.658816e+00 3.494102e+00 -1.499420e+00 -1.554964e+01 -9.831924e+00 -9.871391e+00 2.033389e+00 1.975177e+00 -5.237573e+00 -1.347386e+01 -8.271829e+00 -4.429019e+00 6.901875e+01 -6.721130e-01 -3.276302e-01 -9.699712e-02 7.007875e-01 -2.806658e-01 8.969191e-01 -9.701991e-03 2.678970e-01 2.127484e-01 1.158493e+00 1.520747e-02 -3.735650e-01 -8.382376e-01 -3.433261e-02 -5.663384e-02 -4.995987e-02 2.600431e-02 1.951697e-01 -3.986524e-02 -5.149546e-02 -1.157525e-01 5.268242e-03 5.978549e-02 6.827780e-02 8.089316e-02 3.547904e-02
<VARIANCE> 39
 2.059699e+01 2.211707e+01 1.757095e+01 2.060031e+01 1.593161e+01 5.545924e+01 2.317774e+01 2.224300e+01 1.965017e+01 6.671823e+01 2.197286e+01 2.114813e+01 2.103524e+01 6.369782e-01 1.323889e+00 1.091087e+00 1.129751e+00 2.087672e+00 1.905711e+00 1.452302e+00 1.886304e+00 2.176753e+00 1.659194e+00 2.350633e+00 1.983232e+00 2.185694e-01 8.808651e-02 1.463653e-01 1.309758e-01 2.014772e-01 2.511232e-01 3.277117e-01 2.669110e-01 3.895296e-01 4.398866e-01 2.862976e-01 3.586437e-01 2.572057e-01 3.136259e-02
<GCONST> 9.615145e+01
<TRANSP> 6
 0.000000e+00 1.000000e+00 0.000000e+00 0.000000e+00 0.000000e+00 0.000000e+00
 0.000000e+00 9.114154e-01 8.858459e-02 0.000000e+00 0.000000e+00 0.000000e+00
 0.000000e+00 0.000000e+00 9.378509e-01 6.214914e-02 0.000000e+00 0.000000e+00
 0.000000e+00 0.000000e+00 0.000000e+00 9.487092e-01 5.129078e-02 0.000000e+00
 0.000000e+00 0.000000e+00 0.000000e+00 0.000000e+00 9.442103e-01 5.578975e-02
 0.000000e+00 0.000000e+00 0.000000e+00 0.000000e+00 0.000000e+00 0.000000e+00
<ENDHMM>
