~o
<STREAMINFO> 1 39
<VECSIZE> 39<NULLD><MFCC_D_A_0><DIAGC>
~h "five"
<BEGINHMM>
<NUMSTATES> 6
<STATE> 2
<MEAN> 39
 -1.959488e+01 -7.709448e+00 -5.313253e+00 -1.283677e+01 3.335893e+00 -9.712393e+00 2.052503e+00 -7.637464e+00 -5.031038e-01 -7.710394e+00 3.292978e+00 -5.474376e+00 8.271352e+01 6.687444e-01 2.178706e-01 -1.989248e-01 -4.207304e-01 -5.288282e-01 -5.688423e-01 1.200281e-01 3.283245e-02 -1.508894e-01 -6.241207e-01 -3.042528e-01 1.573486e-01 1.212445e+00 7.769741e-02 2.550548e-02 7.511914e-03 2.789262e-02 -5.767079e-02 1.173978e-02 -5.041740e-02 9.783951e-02 3.546795e-02 -9.786172e-03 -7.815232e-03 4.466803e-02 -5.507600e-02
<VARIANCE> 39
 8.355399e+01 3.363292e+01 1.636978e+01 1.646955e+01 3.479329e+01 2.994716e+01 2.293508e+01 1.929339e+01 2.568860e+01 3.177771e+01 2.213118e+01 1.597558e+01 5.655694e+01 6.255725e+00 3.308797e+00 1.928159e+00 1.026160e+00 2.933446e+00 2.492338e+00 2.453940e+00 2.016158e+00 2.691604e+00 2.617367e+00 2.776606e+00 1.459169e+00 1.526516e+00 7.326937e-01 6.705022e-01 3.568258e-01 2.210616e-01 4.951962e-01 5.589609e-01 4.711305e-01 4.061002e-01 5.497379e-01 4.735025e-01 6.009017e-01 2.612434e-01 2.372844e-01
<GCONST> 1.151148e+02
<STATE> 3
<MEAN> 39
 -3.596496e+00 -4.292595e+00 -9.870365e+00 -1.683511e+01 -1.869288e+00 -1.198749e+01 1.991577e+00 -2.940795e+00 -1.914996e-01 -1.542438e+01 5.127795e-01 1.148134e-02 9.331017e+01 -2.505765e-01 -2.588076e-01 1.085595e-01 1.889627e-01 7.838693e-01 -4.036933e-01 -3.740341e-01 5.223620e-02 7.109178e-01 1.989955e-01 4.800517e-01 -1.801563e-01 4.818267e-02 -7.573134e-02 5.566270e-02 1.901753e-01 7.949426e-02 8.680099e-02 -2.191515e-01 -7.722083e-02 -6.209001e-02 1.089573e-02 4.552626e-02 -1.726703e-02 -9.701958e-02 -1.066499e-01
<VARIANCE> 39
 7.470975e+00 1.252483e+01 9.628071e+00 1.592815e+01 3.354537e+01 3.965878e+01 2.236788e+01 1.870404e+01 2.529839e+01 4.337786e+01 2.433190e+01 1.435469e+01 7.259759e+00 3.319889e-01 6.467876e-01 1.020361e+00 1.510389e+00 1.606246e+00 4.679166e+00 1.882674e+00 1.470724e+00 1.990077e+00 1.992330e+00 1.178281e+00 1.274405e+00 2.960359e-01 6.529513e-02 1.281607e-01 1.125062e-01 2.991621e-01 3.423400e-01 4.100218e-01 2.744415e-01 2.480276e-01 3.850420e-01 4.195043e-01 2.208417e-01 1.975841e-01 6.820352e-02
<GCONST> 9.134774e+01
<STATE> 4
<MEAN> 39
 -1.091920e+01 -3.963457e+00 5.441470e+00 -6.760798e+00 1.017174e+01 -2.966262e+01 -8.464981e+00 -6.156525e+00 2.537857e+00 -1.397956e+01 -2.940344e-01 -6.317519e+00 8.300145e+01 -4.794681e-01 -1.042559e-01 3.644170e-01 4.016489e-01 2.171476e-01 7.672188e-01 -4.282831e-02 -2.163338e-01 -5.602582e-01 3.063952e-01 -5.062599e-01 -1.860802e-01 -1.231368e+00 -1.554205e-01 3.200988e-03 -2.236024e-01 -1.499755e-01 -1.400985e-01 3.727820e-01 2.668082e-01 -2.552750e-02 -5.429737e-02 -2.489603e-02 1.129008e-01 1.046660e-01 9.969248e-02
<VARIANCE> 39
 1.394539e+01 2.965738e+01 4.768676e+01 3.183568e+01 3.396774e+01 8.631322e+01 2.171886e+01 1.956083e+01 4.817160e+01 5.257716e+01 5.601086e+01 2.748604e+01 5.677264e+01 1.807459e+00 2.348281e+00 5.238469e+00 2.228842e+00 2.796954e+00 1.016813e+01 3.513539e+00 1.494674e+00 2.776825e+00 5.829536e+00 3.259303e+00 2.095953e+00 1.106033e+00 4.680767e-01 4.228311e-01 5.411819e-01 2.834406e-01 5.244644e-01 1.145511e+00 6.000234e-01 3.079797e-01 6.643379e-01 1.154537e+00 6.163026e-01 4.693695e-01 2.413006e-01
<GCONST> 1.233737e+02
<STATE> 5
<MEAN> 39
 -2.364384e+01 -6.306575e+00 -1.587591e+00 -1.041103e+01 7.699644e+00 -7.212479e+00 9.299646e-01 -7.570272e+00 -1.647348e+00 -7.586825e+00 1.815830e+00 -5.249687e+00 7.438585e+01 3.553179e-02 9.416573e-02 6.469163e-03 1.750683e-01 -4.479008e-01 3.881631e-01 1.168045e-01 2.983075e-01 -9.246491e-02 2.473698e-01 -4.752890e-02 1.987824e-01 -5.712172e-01 1.693857e-01 -6.473377e-03 4.920603e-02 1.162664e-01 1.743555e-03 -6.847887e-02 -1.296116e-01 4.801153e-02 -1.082947e-02 1.525505e-02 -1.104884e-01 9.429899e-03 -7.056117e-02
<VARIANCE> 39
 5.272680e+01 2.544640e+01 1.346128e+01 3.111493e+01 3.004344e+01 3.632764e+01 2.019955e+01 2.667464e+01 2.352097e+01 2.017451e+01 2.627040e+01 1.758358e+01 5.822094e+01 3.769372e+00 1.548365e+00 1.290095e+00 2.329594e+00 2.354659e+00 1.945661e+00 1.732563e+00 1.634807e+00 1.536014e+00 1.913685e+00 2.327793e+00 1.376785e+00 2.355433e+00 2.509992e-01 2.044402e-01 2.135623e-01 3.315500e-01 3.860563e-01 3.961319e-01 2.661231e-01 2.739931e-01 2.929671e-01 4.014127e-01 3.447423e-01 2.369794e-01 2.273260e-01
<GCONST> 1.068499e+02
<TRANSP> 6
 0.000000e+00 1.000000e+00 0.000000e+00 0.000000e+00 0.000000e+00 0.000000e+00
 0.000000e+00 9.514196e-01 4.858040e-02 0.000000e+00 0.000000e+00 0.000000e+00
 0.000000e+00 0.000000e+00 9.428275e-01 5.717249e-02 0.000000e+00 0.000000e+00
 0.000000e+00 0.000000e+00 0.000000e+00 9.361665e-01 6.383348e-02 0.000000e+00
 0.000000e+00 0.000000e+00 0.000000e+00 0.000000e+00 9.538294e-01 4.617061e-02
 0.000000e+00 0.000000e+00 0.000000e+00 0.000000e+00 0.000000e+00 0.000000e+00
<ENDHMM>
