~o
<STREAMINFO> 1 39
<VECSIZE> 39<NULLD><MFCC_D_A_0><DIAGC>
~h "nine"
<BEGINHMM>
<NUMSTATES> 6
<STATE> 2
<MEAN> 39
 -3.250642e+00 6.732265e+00 5.822555e+00 -6.120690e+00 1.271907e+01 -1.571241e+01 3.187242e+00 -1.227980e+01 -1.553847e+01 -5.822900e+00 -5.405490e+00 -3.578057e+00 7.693810e+01 5.094873e-01 -3.680503e-01 -4.729529e-01 -1.834274e+00 -6.629383e-01 -1.524709e+00 1.196081e+00 -3.166802e-01 2.182009e-01 -5.323974e-01 1.509955e+00 7.129283e-02 2.780958e+00 -2.958057e-01 -4.305973e-01 -4.808318e-01 -2.224031e-01 -3.552402e-01 1.655457e-01 9.089618e-02 4.123591e-01 3.516392e-01 -2.783622e-02 2.750387e-01 1.353356e-01 7.134311e-03
<VARIANCE> 39
 9.106297e+00 1.906419e+01 1.106624e+01 4.888406e+01 5.084259e+01 3.067726e+01 4.261543e+01 2.639108e+01 3.809486e+01 1.569796e+01 5.015648e+01 2.000297e+01 6.884886e+01 2.860235e+00 4.321743e+00 3.040439e+00 2.428603e+00 7.999684e+00 3.730902e+00 3.016871e+00 3.905247e+00 5.759194e+00 1.295100e+00 4.896735e+00 2.131485e+00 2.268515e+00 3.066424e-01 5.519583e-01 2.970987e-01 4.818763e-01 1.280956e+00 9.052119e-01 6.242295e-01 5.362519e-01 8.453400e-01 2.412557e-01 8.660547e-01 4.513335e-01 5.809608e-01
<GCONST> 1.228529e+02
<STATE> 3
<MEAN> 39
 -4.088790e+00 -1.592956e+00 -7.229304e+00 -2.017663e+01 7.498892e+00 -1.873978e+01 1.025344e+01 -6.457677e+00 -2.001451e+00 -1.693066e+01 5.929501e+00 2.630308e+00 9.296962e+01 -6.351574e-02 -2.308218e-01 -2.011644e-01 -7.179405e-02 6.016316e-01 -1.314179e-02 -3.517298e-01 1.681020e-01 7.828833e-01 -4.292825e-01 3.441809e-01 -2.707323e-02 -2.833420e-02 -3.979965e-02 4.373213e-02 2.255400e-01 1.609057e-01 7.462769e-02 -9.209246e-02 -1.101124e-01 -7.037202e-02 1.327752e-02 8.116139e-02 -5.253690e-02 -1.580201e-01 -1.323879e-01
<VARIANCE> 39
 2.439239e+00 6.493066e+00 1.605269e+01 8.816964e+00 2.203690e+01 2.270799e+01 1.567894e+01 1.046789e+01 3.701970e+01 3.695087e+01 2.280968e+01 2.025801e+01 2.934687e+00 2.055587e-01 4.702466e-01 1.548420e+00 7.715972e-01 1.269422e+00 2.895608e+00 1.148613e+00 1.045012e+00 1.492643e+00 2.553182e+00 1.892851e+00 2.423413e+00 2.602263e-01 3.218562e-02 8.769543e-02 1.415523e-01 2.095525e-01 2.698429e-01 4.832473e-01 1.492640e-01 1.719627e-01 2.830752e-01 3.548249e-01 4.416476e-01 2.546094e-01 1.165910e-01
<GCONST> 8.426216e+01
<STATE> 4
<MEAN> 39
 -1.021333e+01 -3.592882e+00 7.789024e+00 -1.062259e+01 1.368591e+01 -3.397394e+01 -1.089362e+00 -5.302441e+00 6.874356e+00 -1.602084e+01 8.176593e+00 -7.647017e+00 8.745348e+01 -5.333423e-01 1.549655e-02 1.782977e+00 1.203731e+00 -1.758481e-01 -1.121674e+00 -3.942552e-01 3.430251e-01 -4.672261e-01 -1.155326e-01 -1.001599e+00 -2.628942e-01 -8.142034e-01 8.383619e-03 -2.660172e-02 -5.536708e-02 -3.296499e-02 -4.988546e-02 2.735927e-01 1.360291e-01 4.706920e-02 -2.101960e-01 -5.615416e-02 -8.794773e-02 1.881999e-01 -7.279767e-02
<VARIANCE> 39
 7.991332e+00 5.548976e+00 5.928971e+01 2.786362e+01 1.089132e+01 3.186364e+01 1.009526e+01 1.479027e+01 2.069479e+01 1.050021e+01 3.002579e+01 1.660201e+01 1.373341e+01 2.045119e-01 4.880698e-01 4.851340e-01 5.528229e-01 7.775664e-01 1.797572e+00 1.172020e+00 1.238055e+00 1.691651e+00 1.243179e+00 1.104475e+00 1.621338e+00 2.119785e-01 3.372652e-02 6.592205e-02 6.993473e-02 8.083409e-02 1.440653e-01 1.812856e-01 1.481501e-01 1.996714e-01 1.735637e-01 2.192370e-01 2.323604e-01 1.840575e-01 1.729396e-02
<GCONST> 7.588020e+01
<STATE> 5
<MEAN> 39
 -1.526622e+01 -8.114049e+00 1.586868e+01 -2.190896e+00 4.766231e+00 -2.672815e+01 -1.150027e+00 3.064604e+00 -6.597394e+00 -1.330600e+01 -4.165236e-01 -1.168498e+00 7.276254e+01 1.930251e-02 -1.907862e-01 -1.100343e+00 4.954439e-01 -1.218695e+00 1.986782e+00 -3.324660e-02 5.916383e-01 -5.607001e-01 8.057224e-01 -2.151352e-01 5.054469e-01 -1.387457e+00 6.858169e-02 9.286509e-02 -2.119193e-01 -8.954124e-02 -3.089902e-02 8.466283e-02 -2.591895e-02 -1.367487e-01 1.984552e-01 4.859662e-02 2.304593e-02 -6.274462e-02 1.582517e-02
<VARIANCE> 39
 1.441699e+01 2.576641e+01 4.537074e+01 1.788923e+01 6.076468e+01 9.087094e+01 2.145790e+01 3.542037e+01 4.075885e+01 3.060945e+01 1.697034e+01 3.347185e+01 3.175366e+01 8.538478e-01 1.312417e+00 2.233787e+00 1.281570e+00 2.693263e+00 1.863402e+00 1.829818e+00 2.398107e+00 2.895415e+00 2.004910e+00 1.405389e+00 1.783372e+00 4.067688e-01 1.205120e-01 1.407713e-01 1.998687e-01 3.084986e-01 5.565789e-01 3.033159e-01 3.909853e-01 3.922721e-01 4.049387e-01 3.760597e-01 2.568408e-01 3.164106e-01 4.821790e-02
<GCONST> 1.045678e+02
<TRANSP> 6
 0.000000e+00 1.000000e+00 0.000000e+00 0.000000e+00 0.000000e+00 0.000000e+00
 0.000000e+00 8.967032e-01 1.032967e-01 0.000000e+00 0.000000e+00 0.000000e+00
 0.000000e+00 0.000000e+00 9.470717e-01 5.292831e-02 0.000000e+00 0.000000e+00
 0.000000e+00 0.000000e+00 0.000000e+00 9.210570e-01 7.894304e-02 0.000000e+00
 0.000000e+00 0.000000e+00 0.000000e+00 0.000000e+00 9.222324e-01 7.776756e-02
 0.000000e+00 0.000000e+00 0.000000e+00 0.000000e+00 0.000000e+00 0.000000e+00
<ENDHMM>
