~o
<STREAMINFO> 1 39
<VECSIZE> 39<NULLD><MFCC_D_A_0><DIAGC>
~h "ten"
<BEGINHMM>
<NUMSTATES> 6
<STATE> 2
<MEAN> 39
 -1.062992e+01 -1.074598e+01 1.905619e+00 -1.149376e+01 3.868971e+00 -1.818931e+01 9.670555e+00 -1.142095e+01 3.918955e+00 -2.752307e+00 3.759200e+00 -7.345911e+00 9.348627e+01 7.832422e-01 2.578873e-01 -5.864300e-01 -7.537778e-02 -1.890798e-01 -1.174616e+00 1.326654e-01 -2.256828e-01 -9.713973e-01 2.659752e-02 -3.509284e-01 -3.844734e-01 7.070435e-01 -1.784662e-02 2.182095e-01 -2.225215e-01 9.846641e-02 -1.964861e-01 1.309590e-01 -2.160089e-01 1.441473e-01 -3.053710e-01 -5.070414e-02 -1.308485e-01 1.454594e-01 -4.822164e-01
<VARIANCE> 39
 2.593539e+01 2.349433e+01 2.362265e+01 1.239137e+01 1.008449e+01 4.755527e+01 2.859229e+01 1.416281e+01 4.344198e+01 1.682146e+01 1.906450e+01 1.938059e+01 5.996388e+00 2.089136e+00 4.539938e+00 1.960280e+00 1.861688e+00 1.639996e+00 2.497398e+00 3.874304e+00 2.064394e+00 6.345062e+00 2.354684e+00 3.118596e+00 2.736398e+00 3.327935e+00 4.578361e-01 5.694538e-01 3.613146e-01 5.676598e-01 2.445086e-01 6.187912e-01 4.854630e-01 5.085676e-01 9.039265e-01 4.128545e-01 7.368956e-01 6.902673e-01 1.227917e+00
<GCONST> 1.156544e+02
<STATE> 3
<MEAN> 39
 -5.732347e+00 -2.327573e+00 -4.422038e+00 -1.580369e+01 1.050061e+00 -2.360750e+01 4.225260e+00 -1.325581e+01 -1.000886e+01 -4.542546e+00 8.689069e+00 -5.593011e+00 9.530537e+01 6.780112e-02 6.132030e-02 3.840159e-01 -5.505874e-01 7.681335e-01 7.424761e-02 5.125502e-02 -2.046521e-01 -2.383859e-01 -6.697634e-02 1.892608e+00 3.127775e-01 -2.540722e-01 -7.567436e-02 -1.434776e-01 2.460792e-01 1.189921e-02 3.108272e-01 -1.493781e-02 2.389991e-01 -7.436486e-02 1.910514e-01 1.441550e-02 9.595089e-02 -1.031821e-01 -1.835564e-01
<VARIANCE> 39
 2.404545e+00 8.528638e+00 8.054304e+00 1.431629e+01 2.063310e+01 2.087046e+01 3.447578e+01 1.152643e+01 1.697526e+01 1.813744e+01 6.392418e+01 2.580208e+01 4.633139e+00 9.078685e-02 7.257884e-01 1.076288e+00 4.790602e-01 1.760200e+00 1.103015e+00 2.198754e+00 9.320441e-01 1.587923e+00 1.486688e+00 1.457074e+00 1.842297e+00 2.437136e-01 3.723352e-02 1.845006e-01 1.013303e-01 1.127898e-01 2.048503e-01 2.230841e-01 3.117593e-01 1.660740e-01 4.831723e-01 3.204235e-01 5.824302e-01 2.794160e-01 3.817774e-02
<GCONST> 8.215501e+01
<STATE> 4
<MEAN> 39
 -6.532435e+00 2.677972e-01 5.088055e+00 -1.087203e+01 1.408464e+01 -1.668783e+01 4.411481e+00 -1.506168e+01 -1.180257e+01 -7.101681e+00 8.534790e+00 -5.032361e+00 8.086327e+01 4.667463e-02 5.853228e-01 4.474738e-01 1.303302e+00 2.578570e-01 1.167049e+00 -5.338444e-01 4.236836e-01 -2.755155e-01 -1.883272e-01 -1.739523e+00 2.003385e-01 -1.767911e+00 8.945387e-02 1.108935e-02 -1.670550e-01 1.201396e-01 -2.711141e-01 5.184694e-02 -1.265694e-01 1.493851e-01 -5.723995e-02 4.340847e-02 -1.311235e-01 1.719845e-02 -1.762782e-02
<VARIANCE> 39
 1.691568e+01 2.884871e+01 9.405700e+00 3.775955e+01 1.845973e+01 4.140894e+01 2.127781e+01 1.420565e+01 1.857619e+01 1.699034e+01 7.140614e+01 2.484517e+01 4.380055e+01 2.162570e+00 1.674498e+00 1.308532e+00 2.942251e+00 3.182463e+00 2.010136e+00 2.025658e+00 1.748350e+00 2.302507e+00 1.177891e+00 3.034627e+00 1.704208e+00 1.766781e+00 4.408465e-01 3.551695e-01 1.910526e-01 6.954030e-01 4.032401e-01 4.636047e-01 4.204097e-01 2.899393e-01 4.998462e-01 2.189381e-01 7.567597e-01 3.122066e-01 3.544808e-01
<GCONST> 1.097245e+02
<STATE> 5
<MEAN> 39
 -5.316966e+00 2.605184e+00 5.482128e+00 6.205922e-01 5.432826e+00 -6.037135e+00 -3.472078e+00 -7.056722e+00 -1.361541e+01 -7.061254e+00 -3.931412e+00 -6.401136e+00 6.690160e+01 -3.904858e-01 -4.104017e-01 -3.197079e-01 2.865360e-01 -1.091959e+00 7.516893e-01 -3.768345e-01 6.265674e-01 5.399584e-01 2.434177e-01 -2.281433e-01 3.420222e-02 -8.376289e-01 -1.096008e-01 -7.032178e-02 -5.082040e-02 -1.522093e-01 1.719868e-02 -3.869219e-02 9.063885e-02 -5.134948e-02 1.961671e-01 4.260556e-02 9.412577e-02 5.750708e-02 9.144268e-02
<VARIANCE> 39
 8.934135e+00 1.223640e+01 9.827590e+00 1.777756e+01 2.231008e+01 1.914092e+01 1.407458e+01 1.637790e+01 1.877345e+01 2.082676e+01 1.826083e+01 2.170560e+01 9.882261e+00 5.811085e-01 9.047228e-01 1.575030e+00 2.390813e+00 1.027884e+00 1.347016e+00 1.557562e+00 1.631915e+00 1.660151e+00 1.975741e+00 1.596324e+00 2.152333e+00 2.533996e-01 8.907747e-02 1.302888e-01 3.007415e-01 3.468564e-01 2.032672e-01 2.841215e-01 2.635701e-01 3.117141e-01 2.514759e-01 3.735963e-01 2.672322e-01 3.488389e-01 3.342696e-02
<GCONST> 9.006067e+01
<TRANSP> 6
 0.000000e+00 1.000000e+00 0.000000e+00 0.000000e+00 0.000000e+00 0.000000e+00
 0.000000e+00 9.186022e-01 8.139779e-02 0.000000e+00 0.000000e+00 0.000000e+00
 0.000000e+00 0.000000e+00 9.091482e-01 9.085178e-02 0.000000e+00 0.000000e+00
 0.000000e+00 0.000000e+00 0.000000e+00 9.121815e-01 8.781852e-02 0.000000e+00
 0.000000e+00 0.000000e+00 0.000000e+00 0.000000e+00 9.124385e-01 8.756155e-02
 0.000000e+00 0.000000e+00 0.000000e+00 0.000000e+00 0.000000e+00 0.000000e+00
<ENDHMM>
