~o
<STREAMINFO> 1 39
<VECSIZE> 39<NULLD><MFCC_D_A_0><DIAGC>
~h "four"
<BEGINHMM>
<NUMSTATES> 6
<STATE> 2
<MEAN> 39
 -1.688770e+01 -3.881941e+00 -2.828636e+00 -1.466472e+01 4.355432e+00 -1.251502e+01 7.466902e-01 -5.152731e+00 -3.279985e+00 -6.166731e+00 8.330218e-01 -7.915260e+00 8.124954e+01 7.060688e-01 3.889320e-01 2.085196e-01 -6.517026e-01 -7.988036e-01 -1.074631e+00 -4.164702e-01 -4.492787e-01 -1.310498e-01 -2.332761e-01 -2.408224e-01 -1.822014e-01 1.048667e+00 5.908309e-02 -6.611800e-03 -3.690599e-02 1.191523e-01 -1.297231e-01 6.845190e-02 -1.114207e-01 -5.464323e-02 -6.386971e-03 6.083197e-02 5.311439e-03 1.424060e-01 -4.050484e-02
<VARIANCE> 39
 8.223905e+01 5.116529e+01 3.467722e+01 4.191236e+01 5.829754e+01 5.856765e+01 3.388859e+01 2.027940e+01 2.232345e+01 1.782325e+01 2.495982e+01 1.904879e+01 5.741903e+01 5.574306e+00 4.855728e+00 2.822755e+00 2.527045e+00 4.007786e+00 3.726296e+00 3.638465e+00 2.262379e+00 2.785303e+00 1.922537e+00 2.665362e+00 1.786747e+00 2.286097e+00 5.930339e-01 8.316606e-01 4.387275e-01 5.000975e-01 7.968349e-01 9.108123e-01 6.678703e-01 4.786816e-01 5.874055e-01 3.748670e-01 5.381786e-01 3.473639e-01 2.277276e-01
<GCONST> 1.239587e+02
<STATE> 3
<MEAN> 39
 -3.880995e-01 1.746801e+00 -7.770513e-01 -1.551804e+01 -7.712288e+00 -1.980248e+01 -9.061027e+00 -7.327690e+00 -2.180055e+00 -5.438823e+00 -6.974283e-01 -5.202935e+00 8.922546e+01 8.587267e-02 -4.232761e-01 -5.593144e-01 -4.034248e-02 -3.401414e-02 2.445391e-01 9.286306e-02 4.314646e-01 8.208493e-01 -3.100159e-01 1.733789e-01 2.319389e-01 1.486962e-01 2.248708e-03 6.076517e-02 -4.788457e-02 -1.547196e-01 9.557221e-02 2.428303e-02 1.483372e-01 -8.452137e-03 4.434938e-02 -1.112877e-01 -6.837367e-02 -8.771584e-02 -1.025977e-01
<VARIANCE> 39
 2.325188e+00 2.031498e+01 4.177258e+01 1.504546e+01 1.491003e+01 3.513245e+01 2.557370e+01 4.570592e+01 4.618747e+01 2.485648e+01 1.666743e+01 1.886243e+01 1.022394e+01 1.502658e-01 6.728652e-01 8.681449e-01 1.380643e+00 1.209115e+00 2.150167e+00 2.322616e+00 1.703725e+00 2.424057e+00 2.728504e+00 1.123500e+00 1.259149e+00 4.037316e-01 4.663455e-02 1.225269e-01 1.200572e-01 1.727805e-01 2.371630e-01 3.404022e-01 3.023283e-01 3.365367e-01 3.654597e-01 3.696795e-01 1.858970e-01 2.139756e-01 4.840980e-02
<GCONST> 8.987492e+01
<STATE> 4
<MEAN> 39
 2.541967e+00 2.699056e+00 -1.447014e+01 -1.995879e+01 3.949359e+00 -9.698270e+00 -1.525100e+00 -1.539551e+01 -3.620614e+00 -9.621088e+00 -2.780720e-01 -1.109525e+00 7.809476e+01 -1.698012e-01 -8.085645e-02 -2.973578e-01 3.276645e-01 5.604254e-01 1.222846e+00 6.269071e-02 -7.230621e-01 -1.097226e+00 4.890845e-01 2.254999e-01 2.249283e-01 -1.140738e+00 -9.981991e-02 -1.317482e-01 6.831115e-02 1.059197e-01 -1.241889e-01 2.721725e-02 -5.544475e-02 1.882548e-01 4.337871e-02 2.015339e-01 9.081984e-02 2.056193e-02 -1.018720e-02
<VARIANCE> 39
 2.268027e+01 2.285261e+01 3.138336e+01 3.111010e+01 7.310450e+01 6.516023e+01 2.725999e+01 5.674837e+01 1.285287e+02 3.885376e+01 3.053200e+01 2.127581e+01 4.947327e+01 2.913257e+00 2.092950e+00 3.138752e+00 2.687520e+00 4.992855e+00 2.382990e+00 3.092132e+00 3.931080e+00 3.571819e+00 2.991945e+00 1.728462e+00 1.665090e+00 1.355335e+00 5.046574e-01 2.700836e-01 4.046893e-01 3.807337e-01 7.408584e-01 4.008407e-01 5.954887e-01 4.820508e-01 7.496079e-01 5.780525e-01 3.285957e-01 2.943859e-01 2.442657e-01
<GCONST> 1.212557e+02
<STATE> 5
<MEAN> 39
 -8.491823e+00 -5.545252e+00 -8.953895e+00 -9.237505e+00 1.775066e+00 3.982153e+00 -2.816050e+00 -9.399797e+00 -8.250732e+00 1.082463e+00 4.878209e+00 1.403504e+00 6.369980e+01 -1.041543e+00 -3.646261e-01 8.101623e-01 8.569293e-01 -1.361588e-01 -1.479725e-01 2.283372e-01 1.061939e+00 7.189345e-01 2.470307e-01 -2.006680e-01 8.123512e-02 -6.478314e-01 7.482145e-02 1.735393e-01 9.749379e-02 1.209279e-02 5.098341e-02 -2.267054e-01 7.354295e-04 -1.383612e-01 -5.597785e-02 -1.946247e-01 -1.748277e-01 -7.486988e-02 7.332890e-02
<VARIANCE> 39
 1.530813e+01 7.027281e+00 4.016792e+01 3.047286e+01 1.392381e+01 1.781866e+01 1.397527e+01 2.192139e+01 1.599156e+01 2.535389e+01 3.235948e+01 1.496952e+01 6.296861e+00 2.822143e-01 5.405135e-01 1.200677e+00 1.255338e+00 1.223619e+00 1.382708e+00 1.168588e+00 1.478741e+00 1.339242e+00 2.340546e+00 2.377018e+00 1.221739e+00 1.088906e-01 6.637813e-02 5.967313e-02 1.653027e-01 2.449641e-01 2.628837e-01 2.524642e-01 2.424880e-01 2.950501e-01 1.884193e-01 3.322696e-01 3.121627e-01 1.765445e-01 2.798088e-02
<GCONST> 8.499250e+01
<TRANSP> 6
 0.000000e+00 1.000000e+00 0.000000e+00 0.000000e+00 0.000000e+00 0.000000e+00
 0.000000e+00 9.490864e-01 5.091360e-02 0.000000e+00 0.000000e+00 0.000000e+00
 0.000000e+00 0.000000e+00 9.440675e-01 5.593252e-02 0.000000e+00 0.000000e+00
 0.000000e+00 0.000000e+00 0.000000e+00 9.456121e-01 5.438785e-02 0.000000e+00
 0.000000e+00 0.000000e+00 0.000000e+00 0.000000e+00 9.056073e-01 9.439272e-02
 0.000000e+00 0.000000e+00 0.000000e+00 0.000000e+00 0.000000e+00 0.000000e+00
<ENDHMM>
