~o
<STREAMINFO> 1 39
<VECSIZE> 39<NULLD><MFCC_D_A_0><DIAGC>
~h "sil"
<BEGINHMM>
<NUMSTATES> 6
<STATE> 2
<MEAN> 39
 -1.558953e+01 -3.384685e+00 -4.508846e-01 -4.583859e+00 1.939498e+00 -3.063179e+00 -2.112122e+00 -3.654651e+00 -3.734633e+00 -2.724172e+00 -6.046942e-02 -1.837450e+00 6.193974e+01 2.888310e-02 -4.309253e-03 -7.671040e-02 9.907714e-02 -1.109420e-01 1.220420e-01 -1.894338e-02 -5.397363e-03 3.844510e-02 -4.480462e-02 -7.180218e-02 -3.127940e-02 -9.186449e-02 1.656940e-02 -6.558235e-03 4.628833e-03 2.256797e-02 -3.601723e-02 -2.707159e-02 -2.745198e-03 -1.743304e-02 3.704306e-02 -4.428849e-03 5.729683e-03 -1.198859e-02 2.856707e-02
<VARIANCE> 39
 2.263402e+01 2.433092e+01 3.644978e+01 4.175557e+01 2.544639e+01 3.075179e+01 2.353616e+01 3.408636e+01 2.444515e+01 2.036833e+01 2.330847e+01 2.011533e+01 1.684872e+01 1.253813e+00 1.328819e+00 1.642338e+00 2.032800e+00 2.148325e+00 2.224822e+00 2.160810e+00 2.202903e+00 2.124588e+00 2.001488e+00 1.599053e+00 1.531694e+00 1.695534e+00 2.225706e-01 2.330544e-01 2.953377e-01 3.431417e-01 4.018524e-01 3.937886e-01 4.143802e-01 4.082824e-01 4.179978e-01 3.911997e-01 3.039626e-01 2.944162e-01 3.212666e-01
<GCONST> 1.073345e+02
<STATE> 3
<MEAN> 39
 -1.551854e+01 -2.474365e+00 -1.245173e+00 -3.222740e+00 -4.564218e-01 -3.540816e+00 -2.004237e+00 -3.049860e+00 -2.188872e+00 -2.761001e+00 -1.325275e+00 -2.205260e+00 5.995486e+01 2.770081e-02 -3.523914e-02 3.561419e-03 2.486959e-02 -2.581274e-02 -1.849621e-03 2.786808e-02 -1.030130e-02 3.313964e-02 -2.703792e-02 -8.838443e-03 -1.955228e-02 5.101766e-02 1.492040e-03 -2.330703e-03 9.599056e-03 -1.439377e-02 9.013147e-03 -3.573532e-03 -8.455925e-03 6.016780e-05 -1.327541e-02 6.614303e-03 4.410301e-03 2.071519e-03 1.092241e-02
<VARIANCE> 39
 5.861466e+00 4.565484e+00 7.222694e+00 1.011189e+01 8.873576e+00 1.080651e+01 1.025322e+01 1.277641e+01 1.090333e+01 1.074974e+01 1.073016e+01 9.508303e+00 3.735352e+00 1.699430e-01 2.227085e-01 3.908631e-01 6.102667e-01 8.155059e-01 9.133100e-01 1.044313e+00 1.086122e+00 1.146063e+00 1.083767e+00 1.051092e+00 9.085541e-01 8.218652e-02 3.327930e-02 4.536226e-02 8.114187e-02 1.201504e-01 1.622037e-01 1.872606e-01 2.195226e-01 2.213749e-01 2.343164e-01 2.268781e-01 2.209583e-01 1.882349e-01 1.326641e-02
<GCONST> 6.411472e+01
<STATE> 4
<MEAN> 39
 -1.427738e+01 -4.354655e+00 -1.122159e+00 -2.802507e+00 -2.313219e+00 -2.472768e+00 -3.123597e+00 -1.721818e+00 -3.032244e+00 -1.951382e+00 -2.399534e+00 -1.561985e+00 5.905267e+01 -3.832967e-03 3.003403e-03 -8.534555e-03 1.096214e-02 -2.142968e-02 2.230794e-02 -2.491021e-02 9.168006e-03 -4.458234e-03 2.130388e-02 4.791251e-04 9.875276e-03 -3.822413e-02 6.271138e-04 3.626714e-03 4.542802e-03 -2.593020e-03 9.415724e-03 -3.728385e-03 6.212308e-03 5.681256e-03 -1.086188e-03 2.103210e-04 2.802756e-04 1.015157e-03 5.095027e-03
<VARIANCE> 39
 1.933773e+00 2.325350e+00 2.866558e+00 4.735144e+00 5.257691e+00 6.304940e+00 7.062146e+00 7.681368e+00 7.845227e+00 7.720813e+00 7.167791e+00 6.599359e+00 1.546591e+00 6.301945e-02 1.302788e-01 2.304557e-01 3.468017e-01 4.641913e-01 5.796475e-01 6.737766e-01 7.533764e-01 7.772033e-01 7.973291e-01 7.348779e-01 6.354206e-01 1.981411e-02 1.290656e-02 2.695952e-02 4.831435e-02 7.134695e-02 9.569135e-02 1.197974e-01 1.388988e-01 1.554134e-01 1.603601e-01 1.649978e-01 1.531091e-01 1.275775e-01 3.917528e-03
<GCONST> 4.215032e+01
<STATE> 5
<MEAN> 39
 -1.531950e+01 -2.431587e+00 5.527157e-01 -4.626156e+00 1.996906e+00 -4.203046e+00 -9.612414e-01 -3.430333e+00 -2.725886e+00 -2.944762e+00 -1.225645e+00 -2.755036e+00 6.397206e+01 5.368179e-02 4.225669e-02 3.556125e-01 -5.525196e-01 5.143079e-01 -6.036661e-01 1.662449e-01 -3.873791e-01 -1.634259e-01 -1.840620e-01 6.334429e-03 -2.492668e-01 1.232121e+00 1.682614e-02 6.553076e-03 3.717591e-02 -9.639274e-02 3.711601e-02 -1.614083e-01 2.390488e-03 -1.161185e-01 -2.903085e-02 -1.187462e-01 2.030701e-02 -6.763647e-02 3.079509e-01
<VARIANCE> 39
 2.235387e+01 2.793528e+01 2.603984e+01 4.178518e+01 2.800135e+01 4.041203e+01 2.279008e+01 2.829668e+01 2.528378e+01 2.029484e+01 2.167408e+01 1.535655e+01 4.221732e+01 2.709897e+00 3.188238e+00 2.734236e+00 3.610114e+00 3.108306e+00 4.411955e+00 2.434040e+00 2.645658e+00 2.887675e+00 2.630366e+00 2.386453e+00 1.548829e+00 6.534353e+00 4.422938e-01 5.364143e-01 4.974983e-01 6.579977e-01 5.700489e-01 7.593328e-01 5.008339e-01 4.788349e-01 4.795000e-01 4.890433e-01 4.267580e-01 2.887554e-01 9.866838e-01
<GCONST> 1.201585e+02
<TRANSP> 6
 0.000000e+00 6.148781e-01 3.851219e-01 0.000000e+00 0.000000e+00 0.000000e+00
 0.000000e+00 9.221153e-01 7.548340e-02 2.401334e-03 0.000000e+00 0.000000e+00
 0.000000e+00 0.000000e+00 9.508440e-01 3.272915e-02 1.642690e-02 0.000000e+00
 0.000000e+00 0.000000e+00 0.000000e+00 9.706857e-01 1.085254e-02 1.846178e-02
 0.000000e+00 0.000000e+00 0.000000e+00 0.000000e+00 8.972321e-01 1.027679e-01
 0.000000e+00 0.000000e+00 0.000000e+00 0.000000e+00 0.000000e+00 0.000000e+00
<ENDHMM>
