~o
<STREAMINFO> 1 39
<VECSIZE> 39<NULLD><MFCC_D_A_0><DIAGC>
~h "eight"
<BEGINHMM>
<NUMSTATES> 6
<STATE> 2
<MEAN> 39
 -7.488178e+00 -4.498374e+00 1.990851e+00 -7.328259e+00 3.685042e+00 -3.448508e+01 -2.412415e+00 -1.104699e+01 -1.777822e+00 -1.100154e+01 2.076492e+00 -6.995520e+00 9.055775e+01 -9.087083e-02 7.805991e-01 1.194981e+00 9.543428e-02 7.680138e-01 -4.501474e-01 -4.748476e-01 9.760749e-02 -1.143500e-01 -2.045805e+00 -3.312293e-01 -1.890394e-01 3.350325e-01 -1.679823e-01 9.286305e-02 5.016522e-02 7.851361e-02 4.091667e-02 4.842571e-01 2.437189e-02 1.707743e-01 -7.221676e-02 -3.288284e-02 -1.070965e-01 7.635248e-02 -5.669888e-01
<VARIANCE> 39
 8.738739e+00 2.864087e+01 5.290010e+01 1.265629e+01 3.103248e+01 3.901213e+01 3.873592e+01 2.162878e+01 2.240460e+01 1.213158e+02 1.967095e+01 2.648413e+01 3.408538e+01 1.270291e+00 2.141080e+00 1.772037e+00 1.352823e+00 2.285290e+00 5.318720e+00 2.726929e+00 1.870684e+00 2.041955e+00 2.513501e+00 1.764875e+00 1.965279e+00 7.570903e+00 1.338573e-01 5.787059e-01 3.807590e-01 2.136432e-01 4.989409e-01 1.584991e+00 5.954809e-01 3.141629e-01 3.818970e-01 9.006196e-01 4.359919e-01 3.378001e-01 5.956665e-01
<GCONST> 1.156553e+02
<STATE> 3
<MEAN> 39
 -1.338009e+01 -7.465752e-01 5.007549e+00 -5.470798e+00 4.867143e+00 -1.651276e+01 -3.263243e+00 -3.483776e+00 -3.259613e+00 -1.042253e+01 -2.350881e+00 -3.330131e+00 6.771349e+01 -5.148783e-02 -2.599567e-01 -1.090971e+00 -4.270527e-02 -1.018038e+00 2.300862e+00 1.098585e-01 3.763725e-01 6.723018e-02 1.755412e+00 -1.648969e-01 5.130041e-01 -1.518100e+00 1.338334e-02 -1.284719e-01 -2.777267e-02 -1.256082e-01 -1.851467e-02 -1.347415e-01 2.316170e-02 -5.265875e-02 8.208267e-02 -1.354402e-02 9.577971e-02 -4.904489e-02 3.622917e-01
<VARIANCE> 39
 7.635243e+00 9.306895e+00 4.008660e+01 2.114649e+01 7.481908e+01 1.242596e+02 1.787068e+01 1.690674e+01 2.140527e+01 1.223422e+02 3.371317e+01 2.873104e+01 4.492395e+01 9.898135e-01 8.937768e-01 2.599853e+00 2.141848e+00 4.464715e+00 2.325833e+00 2.329328e+00 1.884172e+00 2.009224e+00 5.399149e+00 2.604071e+00 2.200375e+00 1.577948e+00 2.387877e-01 1.709764e-01 7.164494e-01 5.615796e-01 9.004326e-01 5.450847e-01 4.792575e-01 3.446907e-01 4.049368e-01 1.193110e+00 4.541426e-01 4.133371e-01 3.791433e-01
<GCONST> 1.160913e+02
<STATE> 4
<MEAN> 39
 -2.146703e+01 -7.809882e+00 2.118883e+00 -1.401324e+01 3.680769e+00 -7.501092e+00 -3.154764e-01 -5.363815e+00 1.800325e+00 -5.760235e+00 1.297918e+00 -4.783221e+00 7.927021e+01 -2.182899e+00 -1.048105e+00 1.135015e+00 -2.124874e+00 1.231250e+00 -1.142825e+00 4.568433e-01 -1.309126e+00 1.511907e+00 -8.608985e-01 9.480068e-01 -1.045927e+00 5.347709e+00 2.791887e-01 2.240231e-01 1.760299e-01 4.785697e-01 -3.166989e-01 1.420948e-02 -6.344470e-02 -2.200592e-01 2.055931e-02 9.386515e-02 -9.177141e-02 4.881889e-02 -9.743624e-02
<VARIANCE> 39
 5.126796e+01 2.562863e+01 3.197321e+01 5.522605e+01 3.993227e+01 2.203640e+01 2.050395e+01 2.261846e+01 2.578242e+01 1.790524e+01 1.108010e+01 2.037023e+01 2.162597e+02 3.338668e+00 2.804877e+00 3.432227e+00 6.523393e+00 4.938035e+00 1.640105e+00 2.922197e+00 1.689618e+00 1.467718e+00 1.832215e+00 1.086912e+00 1.733625e+00 9.736245e+00 1.213622e+00 6.303409e-01 7.696011e-01 1.598763e+00 1.076156e+00 5.059423e-01 5.372978e-01 3.474597e-01 4.861516e-01 4.903945e-01 2.368645e-01 4.255716e-01 3.906513e+00
<GCONST> 1.244043e+02
<STATE> 5
<MEAN> 39
 -1.564372e+01 -8.252432e+00 8.060946e+00 -9.807051e+00 1.562077e+00 -8.432962e+00 2.008299e+00 -1.052335e+01 3.801950e+00 -4.266356e+00 4.019186e+00 -7.459600e+00 8.402145e+01 1.013752e+00 3.721341e-01 -1.923907e-01 8.676656e-01 -4.040199e-01 5.512768e-01 -1.030225e-01 4.487930e-01 -5.164794e-01 5.112795e-01 -2.503162e-01 2.446372e-01 -1.885555e+00 -6.102655e-02 1.088098e-03 -1.022719e-01 -3.837139e-02 6.661623e-02 9.154457e-02 3.665639e-03 1.486357e-01 -3.299110e-02 -2.527812e-02 -7.141224e-02 4.006922e-02 -1.830831e-01
<VARIANCE> 39
 4.073454e+01 1.572771e+01 1.931734e+01 2.218273e+01 1.289490e+01 1.849358e+01 2.065758e+01 2.692173e+01 2.524968e+01 2.080264e+01 1.420702e+01 1.467163e+01 1.358298e+02 1.211046e+00 1.311738e+00 1.811337e+00 1.210039e+00 1.241722e+00 1.981113e+00 2.227206e+00 1.926151e+00 1.618031e+00 1.382036e+00 1.573728e+00 1.536572e+00 2.053948e+00 1.992319e-01 2.677837e-01 2.716407e-01 2.751786e-01 2.476061e-01 4.192099e-01 3.671156e-01 2.857496e-01 2.873831e-01 2.746400e-01 2.861789e-01 2.558879e-01 2.859059e-01
<GCONST> 1.020718e+02
<TRANSP> 6
 0.000000e+00 1.000000e+00 0.000000e+00 0.000000e+00 0.000000e+00 0.000000e+00
 0.000000e+00 9.380189e-01 6.198116e-02 0.000000e+00 0.000000e+00 0.000000e+00
 0.000000e+00 0.000000e+00 9.304768e-01 6.952316e-02 0.000000e+00 0.000000e+00
 0.000000e+00 0.000000e+00 0.000000e+00 8.446321e-01 1.553678e-01 0.000000e+00
 0.000000e+00 0.000000e+00 0.000000e+00 0.000000e+00 9.380652e-01 6.193475e-02
 0.000000e+00 0.000000e+00 0.000000e+00 0.000000e+00 0.000000e+00 0.000000e+00
<ENDHMM>
