~o
<STREAMINFO> 1 39
<VECSIZE> 39<NULLD><MFCC_D_A_0><DIAGC>
~h "three"
<BEGINHMM>
<NUMSTATES> 6
<STATE> 2
<MEAN> 39
 -1.753614e+01 -8.204397e+00 -1.459545e-02 -1.274889e+01 6.570011e-01 -1.015124e+01 -3.384390e+00 -8.450900e+00 1.406198e+00 -7.180250e+00 1.848870e+00 -6.671540e+00 8.593480e+01 1.199245e+00 1.744475e+00 6.701670e-01 4.805595e-01 1.438650e+00 -2.590062e+00 -1.222191e+00 -2.001654e+00 -1.534069e+00 -7.854317e-01 -8.503126e-01 -9.930930e-01 3.509558e+00 7.601736e-01 1.167094e+00 1.367017e-02 1.304180e+00 5.973586e-01 -1.386455e-01 -1.079759e-02 -1.914637e-02 -9.234263e-01 2.043609e-01 -6.776237e-01 4.415042e-01 -1.767695e+00
<VARIANCE> 39
 6.187456e+00 2.634748e+01 9.897836e+00 3.686213e+01 3.050022e+01 1.350400e+01 1.729302e+01 1.635776e+01 2.350508e+01 3.091039e+01 1.573262e+01 2.273796e+01 1.076604e+02 3.488086e+00 8.747811e+00 1.319515e+00 1.193293e+01 3.392012e+00 2.316903e+00 1.140047e+00 2.252200e+00 7.634152e+00 3.357762e+00 3.530985e+00 2.444207e+00 2.199730e+01 2.783251e-01 6.362174e-01 2.445359e-01 1.016625e+00 5.047916e-01 3.581707e-01 4.035859e-01 2.786406e-01 6.662380e-01 7.890822e-01 3.649321e-01 5.360328e-01 2.320025e+00
<GCONST> 1.207012e+02
<STATE> 3
<MEAN> 39
 -3.868325e+00 8.003448e+00 -6.816385e+00 -9.387470e+00 1.372450e+01 -2.152585e+01 -1.098603e+00 -1.686253e+01 -1.112130e+01 -1.084225e+01 -7.876999e+00 -2.707788e+00 8.624206e+01 3.900191e-01 2.358232e-01 -5.612428e-01 3.266504e-01 1.957468e-01 -5.445063e-01 -3.496145e-02 -2.604662e-01 1.673865e-01 -2.670823e-02 -2.759698e-02 -3.894914e-02 9.974351e-02 -1.933750e-01 -2.106807e-01 7.249276e-02 -1.524826e-02 -1.781698e-01 7.971275e-02 -2.550013e-03 1.713072e-01 2.299841e-01 -2.789084e-02 1.098676e-01 -1.119652e-01 4.373892e-02
<VARIANCE> 39
 7.570979e+00 1.203560e+01 3.547709e+01 4.438403e+01 2.999924e+01 3.532904e+01 4.031157e+01 2.305015e+01 3.231517e+01 2.190071e+01 2.570485e+01 2.132494e+01 1.497358e+01 1.233453e+00 2.030086e+00 1.214019e+00 4.052781e+00 4.280175e+00 3.749226e+00 3.867980e+00 2.437885e+00 3.367919e+00 2.473192e+00 2.592276e+00 2.290222e+00 7.397289e-01 1.223936e-01 2.281898e-01 2.457954e-01 5.428677e-01 7.392538e-01 8.057389e-01 5.983435e-01 5.116032e-01 4.884324e-01 5.329991e-01 3.471599e-01 3.192309e-01 1.303359e-01
<GCONST> 1.111790e+02
<STATE> 4
<MEAN> 39
 -1.033437e+01 2.654530e+00 5.842130e+00 2.536453e+00 5.653631e+00 -2.955349e+01 -7.207154e+00 -7.995390e+00 -2.762181e+00 -1.845755e+01 -6.531606e-01 -8.284970e+00 8.821181e+01 -6.679172e-01 7.250654e-02 1.988385e+00 2.552732e-01 -1.512554e-01 -1.619037e-01 4.001340e-01 1.012635e+00 -1.719630e-01 -9.774426e-01 1.852665e-01 4.942653e-02 -5.789343e-01 3.990890e-02 3.698886e-02 -4.739870e-02 -1.263250e-01 1.132490e-01 1.819999e-01 1.868832e-01 -9.682921e-02 -1.083791e-01 1.071840e-01 -4.340419e-02 1.185461e-01 -1.190587e-01
<VARIANCE> 39
 7.967690e+00 1.990885e+01 8.854361e+01 8.653115e+00 1.268541e+01 2.608665e+01 1.615492e+01 4.394543e+01 2.389447e+01 4.283879e+01 1.385282e+01 1.881084e+01 1.356777e+01 2.367241e-01 1.053023e+00 1.171046e+00 7.413050e-01 1.358413e+00 2.768456e+00 1.335773e+00 2.039622e+00 1.318668e+00 2.032884e+00 9.332759e-01 2.001653e+00 6.162918e-01 3.809326e-02 1.726251e-01 2.459758e-01 1.601686e-01 1.753784e-01 6.662790e-01 1.592966e-01 3.076567e-01 2.997110e-01 4.090205e-01 2.200824e-01 4.413424e-01 5.248801e-02
<GCONST> 9.197836e+01
<STATE> 5
<MEAN> 39
 -1.504750e+01 -5.346818e-01 1.411844e+01 9.340312e-01 4.663570e+00 -1.610828e+01 9.455484e-01 -2.132842e+00 -5.179798e+00 -1.290177e+01 -1.749469e+00 -5.276860e+00 7.135665e+01 1.498829e-01 -6.882322e-01 -1.391516e+00 -4.650372e-01 -5.855463e-01 2.051296e+00 2.691821e-02 2.500151e-01 3.500502e-02 1.467101e+00 -1.654374e-01 5.137747e-01 -1.413558e+00 5.398957e-02 1.429309e-03 -1.619777e-01 -7.280571e-02 -7.499820e-02 -3.223961e-02 -1.137163e-01 6.230138e-03 4.401214e-02 2.095806e-03 2.827677e-02 4.438974e-02 7.057684e-02
<VARIANCE> 39
 5.675673e+00 2.893053e+01 8.478012e+01 2.612756e+01 2.786941e+01 1.176893e+02 2.617794e+01 2.976476e+01 2.330457e+01 7.015747e+01 1.316498e+01 2.113293e+01 5.718231e+01 9.543517e-01 1.542709e+00 6.859814e+00 2.458763e+00 1.980070e+00 5.371142e+00 2.556154e+00 1.808843e+00 2.184853e+00 2.898943e+00 1.572030e+00 2.001761e+00 8.681790e-01 1.264224e-01 3.194056e-01 1.236058e+00 4.764509e-01 4.343334e-01 1.042600e+00 4.399400e-01 2.622919e-01 4.434484e-01 5.402624e-01 3.097482e-01 4.358078e-01 1.490296e-01
<GCONST> 1.142421e+02
<TRANSP> 6
 0.000000e+00 1.000000e+00 0.000000e+00 0.000000e+00 0.000000e+00 0.000000e+00
 0.000000e+00 7.368654e-01 2.631346e-01 0.000000e+00 0.000000e+00 0.000000e+00
 0.000000e+00 0.000000e+00 9.515758e-01 4.842423e-02 0.000000e+00 0.000000e+00
 0.000000e+00 0.000000e+00 0.000000e+00 9.313191e-01 6.868093e-02 0.000000e+00
 0.000000e+00 0.000000e+00 0.000000e+00 0.000000e+00 9.258633e-01 7.413675e-02
 0.000000e+00 0.000000e+00 0.000000e+00 0.000000e+00 0.000000e+00 0.000000e+00
<ENDHMM>
