~o
<STREAMINFO> 1 39
<VECSIZE> 39<NULLD><MFCC_D_A_0><DIAGC>
~h "multiply"
<BEGINHMM>
<NUMSTATES> 6
<STATE> 2
<MEAN> 39
 -4.812417e+00 6.821346e+00 -3.145637e+00 -1.469169e+01 -2.160094e+00 -1.554892e+01 1.093472e+01 -8.211182e+00 -2.352964e+01 -1.672377e+01 -4.494204e+00 -8.312792e+00 8.175011e+01 -3.963646e-01 7.342188e-03 -2.631957e-02 -1.851005e-01 -1.812937e-01 -1.948404e-01 6.093391e-02 -3.526771e-01 4.517302e-01 -1.224808e-01 3.977689e-01 -2.928183e-01 7.761945e-01 -3.090303e-01 -2.794065e-01 -7.624596e-02 8.497810e-02 -1.130959e-01 1.510485e-01 -1.436482e-01 3.152248e-02 4.118697e-01 2.937921e-01 2.366661e-01 1.228960e-01 1.594692e-02
<VARIANCE> 39
 1.820368e+01 1.296296e+01 4.712816e+01 2.449946e+01 7.970722e+01 3.188555e+01 4.249641e+01 2.130532e+01 4.991013e+01 2.268227e+01 6.242187e+01 3.373170e+01 5.277224e+01 5.419755e+00 2.684043e+00 3.759484e+00 3.149381e+00 6.904130e+00 5.514565e+00 4.562928e+00 2.727327e+00 1.255657e+01 3.788329e+00 7.233653e+00 3.225383e+00 6.324263e+00 5.845338e-01 6.395758e-01 6.211422e-01 5.247760e-01 9.935458e-01 8.941177e-01 6.267105e-01 5.836594e-01 1.721168e+00 7.030659e-01 1.248114e+00 6.035236e-01 6.572618e-01
<GCONST> 1.339162e+02
<STATE> 3
<MEAN> 39
 -1.209373e+01 -1.724660e+00 -1.263286e+00 -7.745017e+00 -2.791707e-01 -1.601238e+01 -2.102535e+00 -9.361318e+00 -3.917862e+00 -8.017778e+00 7.340348e-01 -3.876539e+00 8.091348e+01 3.201874e-01 -1.785314e-02 -3.163388e-01 -2.283336e-01 -1.264218e-01 -1.436888e-01 9.572458e-03 1.071398e-01 1.378132e-01 -8.290459e-02 1.324411e-01 3.828786e-01 2.177293e-01 1.193087e-01 4.592362e-02 -9.268959e-03 -2.028972e-02 1.074015e-01 -4.019357e-02 6.924827e-02 2.067530e-02 -1.004149e-01 -8.941794e-02 -6.394226e-02 -1.123225e-02 -7.398038e-02
<VARIANCE> 39
 3.155921e+01 5.557500e+01 1.794268e+01 4.494308e+01 3.839612e+01 9.818031e+01 3.382307e+01 2.124609e+01 1.870788e+01 3.931613e+01 3.179003e+01 2.545281e+01 9.712032e+01 2.911931e+00 7.479146e+00 2.219041e+00 2.180118e+00 3.455867e+00 6.817596e+00 2.904974e+00 2.224844e+00 2.930840e+00 5.201986e+00 3.729775e+00 2.042203e+00 6.194815e+00 6.582354e-01 1.308706e+00 4.192442e-01 3.361118e-01 5.549973e-01 1.006083e+00 5.171898e-01 4.445897e-01 8.030753e-01 8.438649e-01 7.472828e-01 4.282457e-01 8.607253e-01
<GCONST> 1.289456e+02
<STATE> 4
<MEAN> 39
 -6.916946e+00 -1.066721e+00 -1.147693e+01 -2.047960e+01 8.555701e+00 -1.337631e+01 9.386306e-01 -1.027570e+01 1.060922e+01 -1.827643e+01 4.254679e+00 1.168658e+00 8.953315e+01 -1.791147e-01 -3.291745e-01 2.432787e-01 3.136884e-01 6.803648e-01 -2.844473e-01 -6.127355e-01 -1.526961e-01 9.000116e-01 7.342444e-02 1.721451e-01 -4.906294e-01 -3.232484e-01 -7.903953e-02 1.017595e-01 2.036871e-01 1.344314e-01 -1.472446e-01 -9.785195e-02 -6.465110e-02 1.662589e-02 -1.473353e-01 2.744680e-02 -5.998736e-02 -6.930079e-02 -7.993804e-02
<VARIANCE> 39
 4.026100e+00 1.230807e+01 1.482946e+01 1.102987e+01 4.121383e+01 2.477016e+01 1.938448e+01 1.804402e+01 4.537384e+01 2.468929e+01 1.499020e+01 3.221594e+01 1.117433e+01 3.115669e-01 7.266986e-01 1.488864e+00 1.276161e+00 1.913327e+00 1.975262e+00 1.013829e+00 1.039764e+00 2.058997e+00 1.735083e+00 1.045430e+00 1.163039e+00 2.691689e-01 5.474798e-02 1.170238e-01 1.409157e-01 1.724513e-01 2.666746e-01 2.170949e-01 1.526211e-01 2.215407e-01 2.308983e-01 2.730983e-01 1.962559e-01 1.958022e-01 4.082584e-02
<GCONST> 8.554820e+01
<STATE> 5
<MEAN> 39
 -1.308399e+01 -8.642832e+00 5.046435e+00 -3.262105e+00 3.055353e+00 -2.415404e+01 -7.681048e+00 7.911026e-01 4.717749e+00 -1.089559e+01 -5.947848e-02 -3.864475e+00 7.431330e+01 -1.443662e-01 -3.383359e-01 2.453848e-01 7.678498e-01 -6.720082e-01 2.654889e-01 1.109108e-01 8.807725e-01 -7.350923e-01 3.610033e-01 -4.443356e-01 2.607833e-01 -1.077966e+00 4.365485e-02 6.412781e-02 -1.163107e-01 -1.206697e-01 5.383286e-02 1.818590e-01 4.579854e-02 -1.004922e-01 -2.448937e-03 -2.687210e-03 -3.966207e-03 1.414483e-02 9.089850e-03
<VARIANCE> 39
 7.198645e+00 3.375637e+01 4.463076e+01 4.527806e+01 7.613143e+01 4.479635e+01 2.064100e+01 9.005909e+01 5.536679e+01 4.066649e+01 3.157159e+01 3.435465e+01 5.690493e+01 8.972763e-01 1.782182e+00 2.443496e+00 1.742934e+00 3.440216e+00 3.753043e+00 1.682372e+00 3.227461e+00 1.997915e+00 3.251656e+00 1.860706e+00 1.503883e+00 4.235570e-01 1.415033e-01 2.138464e-01 1.975021e-01 2.804358e-01 5.375312e-01 4.638764e-01 2.799210e-01 4.579194e-01 3.569950e-01 6.505400e-01 3.653628e-01 2.449401e-01 7.769006e-02
<GCONST> 1.111401e+02
<TRANSP> 6
 0.000000e+00 1.000000e+00 0.000000e+00 0.000000e+00 0.000000e+00 0.000000e+00
 0.000000e+00 9.553590e-01 4.464094e-02 0.000000e+00 0.000000e+00 0.000000e+00
 0.000000e+00 0.000000e+00 9.730893e-01 2.691071e-02 0.000000e+00 0.000000e+00
 0.000000e+00 0.000000e+00 0.000000e+00 9.430339e-01 5.696607e-02 0.000000e+00
 0.000000e+00 0.000000e+00 0.000000e+00 0.000000e+00 9.523469e-01 4.765316e-02
 0.000000e+00 0.000000e+00 0.000000e+00 0.000000e+00 0.000000e+00 0.000000e+00
<ENDHMM>
