~o
<STREAMINFO> 1 39
<VECSIZE> 39<NULLD><MFCC_D_A_0><DIAGC>
~h "multiply"
<BEGINHMM>
<NUMSTATES> 6
<STATE> 2
<MEAN> 39
 -4.812384e+00 6.821422e+00 -3.145624e+00 -1.469183e+01 -2.160018e+00 -1.554890e+01 1.093482e+01 -8.211166e+00 -2.352972e+01 -1.672382e+01 -4.494126e+00 -8.312725e+00 8.175011e+01 -3.963569e-01 7.336334e-03 -2.631971e-02 -1.850933e-01 -1.813036e-01 -1.948301e-01 6.094016e-02 -3.526653e-01 4.517494e-01 -1.224793e-01 3.977778e-01 -2.928052e-01 7.761896e-01 -3.090315e-01 -2.794075e-01 -7.624751e-02 8.497453e-02 -1.131033e-01 1.510415e-01 -1.436467e-01 3.151969e-02 4.118770e-01 2.937974e-01 2.366688e-01 1.228961e-01 1.594811e-02
<VARIANCE> 39
 1.820355e+01 1.296281e+01 4.712870e+01 2.449994e+01 7.970908e+01 3.188639e+01 4.249802e+01 2.130611e+01 4.990913e+01 2.268214e+01 6.242347e+01 3.373182e+01 5.277222e+01 5.419708e+00 2.684020e+00 3.759504e+00 3.149354e+00 6.904290e+00 5.514626e+00 4.563039e+00 2.727408e+00 1.255655e+01 3.788414e+00 7.233843e+00 3.225421e+00 6.324184e+00 5.845309e-01 6.395651e-01 6.211371e-01 5.247700e-01 9.935716e-01 8.941400e-01 6.267196e-01 5.836768e-01 1.721193e+00 7.030715e-01 1.248136e+00 6.035283e-01 6.572465e-01
<GCONST> 1.339166e+02
<STATE> 3
<MEAN> 39
 -1.209367e+01 -1.724735e+00 -1.263317e+00 -7.745027e+00 -2.791229e-01 -1.601239e+01 -2.102431e+00 -9.361317e+00 -3.917915e+00 -8.017728e+00 7.340094e-01 -3.876521e+00 8.091351e+01 3.201854e-01 -1.785509e-02 -3.163472e-01 -2.283337e-01 -1.264192e-01 -1.436882e-01 9.573813e-03 1.071369e-01 1.378207e-01 -8.289845e-02 1.324427e-01 3.828772e-01 2.177303e-01 1.193074e-01 4.592305e-02 -9.268849e-03 -2.028840e-02 1.074025e-01 -4.019062e-02 6.924777e-02 2.067826e-02 -1.004133e-01 -8.941979e-02 -6.394130e-02 -1.123246e-02 -7.397984e-02
<VARIANCE> 39
 3.155910e+01 5.557436e+01 1.794310e+01 4.494307e+01 3.839654e+01 9.817861e+01 3.382163e+01 2.124638e+01 1.870826e+01 3.931547e+01 3.179046e+01 2.545267e+01 9.711945e+01 2.911929e+00 7.479100e+00 2.219081e+00 2.180138e+00 3.455883e+00 6.817512e+00 2.904919e+00 2.224860e+00 2.930949e+00 5.202003e+00 3.729856e+00 2.042218e+00 6.194809e+00 6.582282e-01 1.308699e+00 4.192471e-01 3.361199e-01 5.550000e-01 1.006076e+00 5.171851e-01 4.445898e-01 8.030959e-01 8.438769e-01 7.472954e-01 4.282464e-01 8.607253e-01
<GCONST> 1.289457e+02
<STATE> 4
<MEAN> 39
 -6.916906e+00 -1.066810e+00 -1.147708e+01 -2.047960e+01 8.555785e+00 -1.337627e+01 9.386287e-01 -1.027548e+01 1.060932e+01 -1.827656e+01 4.254839e+00 1.168713e+00 8.953312e+01 -1.791135e-01 -3.291807e-01 2.432864e-01 3.136890e-01 6.803891e-01 -2.844482e-01 -6.127291e-01 -1.527085e-01 9.000224e-01 7.340173e-02 1.721543e-01 -4.906415e-01 -3.232522e-01 -7.904129e-02 1.017596e-01 2.036917e-01 1.344347e-01 -1.472492e-01 -9.785557e-02 -6.464577e-02 1.662512e-02 -1.473430e-01 2.745128e-02 -5.999191e-02 -6.930031e-02 -7.993853e-02
<VARIANCE> 39
 4.026103e+00 1.230885e+01 1.482961e+01 1.102977e+01 4.121554e+01 2.477046e+01 1.938390e+01 1.804454e+01 4.537228e+01 2.468890e+01 1.498997e+01 3.221361e+01 1.117442e+01 3.115628e-01 7.266894e-01 1.488876e+00 1.276148e+00 1.913364e+00 1.975239e+00 1.013820e+00 1.039807e+00 2.059042e+00 1.735145e+00 1.045431e+00 1.163024e+00 2.691811e-01 5.475025e-02 1.170235e-01 1.409142e-01 1.724516e-01 2.666713e-01 2.170903e-01 1.526242e-01 2.215575e-01 2.309035e-01 2.731031e-01 1.962587e-01 1.958023e-01 4.082823e-02
<GCONST> 8.554850e+01
<STATE> 5
<MEAN> 39
 -1.308402e+01 -8.642886e+00 5.046114e+00 -3.262321e+00 3.055430e+00 -2.415407e+01 -7.681049e+00 7.911597e-01 4.717875e+00 -1.089564e+01 -5.927686e-02 -3.864496e+00 7.431332e+01 -1.443830e-01 -3.383455e-01 2.453963e-01 7.678660e-01 -6.720387e-01 2.654690e-01 1.108995e-01 8.807984e-01 -7.351109e-01 3.610145e-01 -4.443395e-01 2.607917e-01 -1.077982e+00 4.365657e-02 6.412911e-02 -1.163103e-01 -1.206683e-01 5.383904e-02 1.818594e-01 4.579774e-02 -1.004908e-01 -2.448833e-03 -2.690487e-03 -3.965153e-03 1.414907e-02 9.088477e-03
<VARIANCE> 39
 7.199030e+00 3.375666e+01 4.463081e+01 4.527698e+01 7.613129e+01 4.479561e+01 2.064041e+01 9.005742e+01 5.536924e+01 4.066608e+01 3.157082e+01 3.435348e+01 5.690472e+01 8.973461e-01 1.782191e+00 2.443419e+00 1.742928e+00 3.440165e+00 3.752972e+00 1.682376e+00 3.227398e+00 1.997938e+00 3.251704e+00 1.860683e+00 1.503845e+00 4.235858e-01 1.415145e-01 2.138480e-01 1.974906e-01 2.804385e-01 5.375273e-01 4.638670e-01 2.799180e-01 4.579159e-01 3.569923e-01 6.505604e-01 3.653602e-01 2.449364e-01 7.769690e-02
<GCONST> 1.111402e+02
<TRANSP> 6
 0.000000e+00 1.000000e+00 0.000000e+00 0.000000e+00 0.000000e+00 0.000000e+00
 0.000000e+00 9.553592e-01 4.464085e-02 0.000000e+00 0.000000e+00 0.000000e+00
 0.000000e+00 0.000000e+00 9.730893e-01 2.691069e-02 0.000000e+00 0.000000e+00
 0.000000e+00 0.000000e+00 0.000000e+00 9.430330e-01 5.696697e-02 0.000000e+00
 0.000000e+00 0.000000e+00 0.000000e+00 0.000000e+00 9.523460e-01 4.765397e-02
 0.000000e+00 0.000000e+00 0.000000e+00 0.000000e+00 0.000000e+00 0.000000e+00
<ENDHMM>
