~o
<STREAMINFO> 1 39
<VECSIZE> 39<NULLD><MFCC_D_A_0><DIAGC>
~h "one"
<BEGINHMM>
<NUMSTATES> 6
<STATE> 2
<MEAN> 39
 -4.896048e+00 1.075869e+01 1.261780e+00 -1.334555e+01 -4.817336e+00 -1.783413e+01 -2.146749e+00 -4.088693e+00 -6.239483e+00 -9.124401e+00 -5.545561e+00 -9.044177e+00 8.101948e+01 6.829606e-01 -8.414382e-01 -1.010738e+00 -3.327937e-01 -9.391149e-01 -4.013881e-02 -1.420705e-02 1.786326e-01 2.064961e-01 -7.672291e-02 -1.600241e-01 3.335212e-01 2.466510e+00 -2.108773e-01 -3.450872e-01 -1.767580e-01 1.322446e-01 1.772087e-01 3.008589e-01 1.201627e-01 1.317188e-01 2.246637e-01 1.201506e-01 1.048495e-01 1.450503e-01 -1.541243e-01
<VARIANCE> 39
 1.974693e+01 5.236976e+01 2.885373e+01 4.849564e+01 6.286742e+01 6.312116e+01 6.015396e+01 2.467777e+01 2.583304e+01 4.372069e+01 2.312733e+01 2.933887e+01 9.229645e+01 1.734043e+00 8.788288e+00 2.821106e+00 3.509614e+00 5.672666e+00 6.343292e+00 2.973584e+00 2.086937e+00 3.949553e+00 5.218064e+00 2.082032e+00 2.456090e+00 2.827773e+00 2.955226e-01 1.510014e+00 5.516095e-01 6.885163e-01 1.097002e+00 9.710209e-01 5.146932e-01 3.748321e-01 7.318694e-01 1.001113e+00 4.970947e-01 3.663117e-01 5.444171e-01
<GCONST> 1.296681e+02
<STATE> 3
<MEAN> 39
 -5.861803e+00 2.858999e+00 -5.738409e+00 -1.520870e+01 -1.806692e+00 -1.296914e+01 1.585689e+00 -1.632713e+00 -4.411611e+00 -1.279238e+01 4.619012e+00 1.387749e-02 9.299316e+01 -4.347155e-01 4.933369e-01 3.799249e-01 7.525322e-02 1.191810e+00 -1.135491e-01 2.913884e-01 -4.731342e-01 -4.913917e-01 -3.717762e-01 1.858085e+00 1.342119e-01 -3.658049e-01 1.719824e-03 1.901741e-01 2.251240e-01 1.468058e-01 1.400647e-01 -2.416923e-02 -1.120744e-01 -1.374260e-01 -8.569427e-02 9.373297e-02 -1.570551e-01 -1.358979e-01 -2.611316e-01
<VARIANCE> 39
 5.373788e+00 1.241916e+01 1.583435e+01 1.132728e+01 3.597328e+01 2.355806e+01 3.310220e+01 3.121492e+01 4.666555e+01 3.081220e+01 9.800336e+01 2.364470e+01 4.522122e+00 1.770179e-01 8.543213e-01 1.215209e+00 1.417891e+00 1.757231e+00 2.030498e+00 1.475139e+00 2.671403e+00 2.145119e+00 2.897003e+00 3.534459e+00 2.752895e+00 6.361261e-01 4.462329e-02 1.946389e-01 1.885532e-01 3.355822e-01 2.790410e-01 5.041240e-01 1.791364e-01 4.258468e-01 4.830912e-01 5.256887e-01 1.025000e+00 3.373211e-01 1.000550e-01
<GCONST> 9.945076e+01
<STATE> 4
<MEAN> 39
 -7.747709e+00 5.287134e+00 3.881373e+00 -5.936113e+00 1.678304e+01 -1.033855e+01 -3.056141e+00 -7.541849e+00 -4.556450e+00 -7.613141e+00 6.523055e+00 -5.306709e+00 7.761407e+01 2.971218e-01 -5.194908e-01 5.656728e-01 1.093443e+00 6.465974e-01 7.534043e-01 -5.675357e-01 -1.965531e-02 3.005748e-01 6.555124e-01 -1.367131e+00 -1.283497e-01 -1.525095e+00 6.844848e-02 -1.263808e-01 -2.090231e-01 -7.862887e-02 -3.553988e-01 -5.467141e-02 3.050203e-02 9.538838e-02 -8.599001e-03 -4.764635e-02 9.677652e-02 5.402942e-02 1.058023e-01
<VARIANCE> 39
 1.616088e+01 1.476199e+01 1.653905e+01 2.913075e+01 4.064729e+01 3.879309e+01 2.498668e+01 2.283871e+01 5.949947e+01 2.785527e+01 7.671918e+01 1.382016e+01 3.024241e+01 6.101934e-01 6.085611e-01 1.399570e+00 3.361675e+00 4.312243e+00 2.231408e+00 1.793339e+00 2.303746e+00 2.022851e+00 2.153837e+00 3.734087e+00 9.778291e-01 1.273914e+00 1.174443e-01 1.421051e-01 2.159589e-01 6.728820e-01 6.168147e-01 4.264715e-01 3.216932e-01 3.964331e-01 3.482640e-01 3.879126e-01 7.575656e-01 1.426875e-01 2.006103e-01
<GCONST> 1.068279e+02
<STATE> 5
<MEAN> 39
 -5.674151e+00 8.466237e-01 4.011752e+00 3.264628e+00 8.561663e+00 -3.339043e+00 -6.552018e+00 -6.941199e+00 -5.370204e+00 -1.466814e+00 1.012565e+00 -5.358014e+00 6.693928e+01 -3.848695e-01 -3.195887e-01 -2.040175e-01 3.067375e-01 -7.559192e-01 4.971256e-01 1.083805e-01 2.946392e-01 8.620550e-02 3.918236e-01 -2.322695e-01 6.527927e-02 -6.811805e-01 -7.358338e-02 1.868854e-02 3.654750e-02 -1.170505e-01 1.138475e-01 -3.899621e-02 5.378785e-02 2.356859e-02 1.891371e-02 -5.054162e-02 6.224595e-03 2.856510e-02 4.732673e-02
<VARIANCE> 39
 1.565192e+01 1.952258e+01 1.634632e+01 8.288804e+00 2.795713e+01 1.848291e+01 2.530215e+01 2.114374e+01 1.986736e+01 5.436455e+01 2.469329e+01 2.080900e+01 1.470357e+01 6.576183e-01 7.042720e-01 9.334461e-01 9.750441e-01 1.671229e+00 1.481529e+00 1.792558e+00 1.687233e+00 1.465249e+00 1.979889e+00 1.246933e+00 1.547464e+00 2.089532e-01 7.989308e-02 1.167778e-01 1.431489e-01 1.408573e-01 2.586064e-01 2.948696e-01 2.920942e-01 3.487356e-01 2.704924e-01 3.473325e-01 2.578128e-01 3.178409e-01 3.471640e-02
<GCONST> 9.039557e+01
<TRANSP> 6
 0.000000e+00 1.000000e+00 0.000000e+00 0.000000e+00 0.000000e+00 0.000000e+00
 0.000000e+00 8.927316e-01 1.072684e-01 0.000000e+00 0.000000e+00 0.000000e+00
 0.000000e+00 0.000000e+00 9.222893e-01 7.771072e-02 0.000000e+00 0.000000e+00
 0.000000e+00 0.000000e+00 0.000000e+00 9.111100e-01 8.888996e-02 0.000000e+00
 0.000000e+00 0.000000e+00 0.000000e+00 0.000000e+00 9.245828e-01 7.541718e-02
 0.000000e+00 0.000000e+00 0.000000e+00 0.000000e+00 0.000000e+00 0.000000e+00
<ENDHMM>
