~o
<STREAMINFO> 1 39
<VECSIZE> 39<NULLD><MFCC_D_A_0><DIAGC>
~h "three"
<BEGINHMM>
<NUMSTATES> 6
<STATE> 2
<MEAN> 39
 -1.753615e+01 -8.204431e+00 -1.462604e-02 -1.274902e+01 6.569327e-01 -1.015126e+01 -3.384557e+00 -8.451015e+00 1.406150e+00 -7.180365e+00 1.848763e+00 -6.671408e+00 8.593489e+01 1.199285e+00 1.744513e+00 6.702082e-01 4.806312e-01 1.438664e+00 -2.590043e+00 -1.222195e+00 -2.001637e+00 -1.534114e+00 -7.854224e-01 -8.503760e-01 -9.930539e-01 3.509491e+00 7.601696e-01 1.167077e+00 1.366186e-02 1.304186e+00 5.973542e-01 -1.386442e-01 -1.075721e-02 -1.911331e-02 -9.234211e-01 2.043902e-01 -6.776185e-01 4.415018e-01 -1.767716e+00
<VARIANCE> 39
 6.187617e+00 2.634694e+01 9.898023e+00 3.686014e+01 3.050235e+01 1.350354e+01 1.729373e+01 1.635847e+01 2.350609e+01 3.091047e+01 1.573259e+01 2.273796e+01 1.076566e+02 3.488077e+00 8.747522e+00 1.319415e+00 1.193258e+01 3.392036e+00 2.316923e+00 1.140100e+00 2.252256e+00 7.634272e+00 3.357822e+00 3.530894e+00 2.444196e+00 2.199710e+01 2.783399e-01 6.362055e-01 2.445347e-01 1.016611e+00 5.048094e-01 3.581537e-01 4.035985e-01 2.786425e-01 6.662587e-01 7.891011e-01 3.649295e-01 5.360444e-01 2.319994e+00
<GCONST> 1.207014e+02
<STATE> 3
<MEAN> 39
 -3.868292e+00 8.003442e+00 -6.816359e+00 -9.387472e+00 1.372463e+01 -2.152585e+01 -1.098559e+00 -1.686241e+01 -1.112127e+01 -1.084207e+01 -7.877141e+00 -2.707717e+00 8.624185e+01 3.900185e-01 2.358133e-01 -5.612483e-01 3.266557e-01 1.957578e-01 -5.445247e-01 -3.495890e-02 -2.604537e-01 1.674010e-01 -2.669164e-02 -2.758541e-02 -3.895666e-02 9.974055e-02 -1.933751e-01 -2.106813e-01 7.249209e-02 -1.524809e-02 -1.781715e-01 7.971322e-02 -2.554339e-03 1.713060e-01 2.299845e-01 -2.789547e-02 1.098690e-01 -1.119641e-01 4.374197e-02
<VARIANCE> 39
 7.570881e+00 1.203584e+01 3.547711e+01 4.438478e+01 3.000041e+01 3.532983e+01 4.031065e+01 2.305032e+01 3.231543e+01 2.190138e+01 2.570482e+01 2.132442e+01 1.497376e+01 1.233449e+00 2.030104e+00 1.214025e+00 4.052837e+00 4.280371e+00 3.749339e+00 3.867844e+00 2.437914e+00 3.367914e+00 2.473288e+00 2.592239e+00 2.290200e+00 7.397714e-01 1.223973e-01 2.281911e-01 2.458002e-01 5.428730e-01 7.392977e-01 8.057678e-01 5.983117e-01 5.116046e-01 4.884362e-01 5.330207e-01 3.471502e-01 3.192289e-01 1.303425e-01
<GCONST> 1.111795e+02
<STATE> 4
<MEAN> 39
 -1.033436e+01 2.654394e+00 5.842096e+00 2.536596e+00 5.653566e+00 -2.955374e+01 -7.207143e+00 -7.995345e+00 -2.761881e+00 -1.845751e+01 -6.531897e-01 -8.284827e+00 8.821165e+01 -6.679205e-01 7.251551e-02 1.988394e+00 2.552778e-01 -1.512844e-01 -1.618882e-01 4.001326e-01 1.012603e+00 -1.719552e-01 -9.774593e-01 1.852511e-01 4.942456e-02 -5.789379e-01 3.990857e-02 3.699236e-02 -4.739524e-02 -1.263247e-01 1.132561e-01 1.819943e-01 1.868808e-01 -9.682804e-02 -1.083797e-01 1.071844e-01 -4.340219e-02 1.185434e-01 -1.190617e-01
<VARIANCE> 39
 7.967618e+00 1.990835e+01 8.854350e+01 8.653452e+00 1.268537e+01 2.608807e+01 1.615479e+01 4.394348e+01 2.389425e+01 4.283997e+01 1.385279e+01 1.881140e+01 1.356798e+01 2.367307e-01 1.053012e+00 1.171085e+00 7.413138e-01 1.358485e+00 2.768788e+00 1.335752e+00 2.039663e+00 1.318636e+00 2.032925e+00 9.333031e-01 2.001770e+00 6.163093e-01 3.809407e-02 1.726221e-01 2.459885e-01 1.601744e-01 1.753853e-01 6.663579e-01 1.592957e-01 3.076603e-01 2.997035e-01 4.090267e-01 2.200859e-01 4.413730e-01 5.248861e-02
<GCONST> 9.197910e+01
<STATE> 5
<MEAN> 39
 -1.504746e+01 -5.346991e-01 1.411820e+01 9.341847e-01 4.663458e+00 -1.610810e+01 9.454955e-01 -2.132523e+00 -5.179651e+00 -1.290152e+01 -1.749391e+00 -5.276728e+00 7.135640e+01 1.498700e-01 -6.882253e-01 -1.391493e+00 -4.650387e-01 -5.855266e-01 2.051301e+00 2.692732e-02 2.500384e-01 3.498646e-02 1.467092e+00 -1.654190e-01 5.137741e-01 -1.413539e+00 5.398992e-02 1.433091e-03 -1.619768e-01 -7.280336e-02 -7.499642e-02 -3.223594e-02 -1.137147e-01 6.218571e-03 4.401004e-02 2.092289e-03 2.827229e-02 4.438764e-02 7.057837e-02
<VARIANCE> 39
 5.675443e+00 2.892961e+01 8.477882e+01 2.612771e+01 2.786729e+01 1.176924e+02 2.617645e+01 2.976361e+01 2.330469e+01 7.015753e+01 1.316507e+01 2.113284e+01 5.718178e+01 9.542991e-01 1.542607e+00 6.859438e+00 2.458700e+00 1.979941e+00 5.371031e+00 2.556108e+00 1.808750e+00 2.184855e+00 2.898782e+00 1.572018e+00 2.001725e+00 8.681566e-01 1.264172e-01 3.193816e-01 1.236007e+00 4.764417e-01 4.343076e-01 1.042577e+00 4.399341e-01 2.622817e-01 4.434481e-01 5.402374e-01 3.097472e-01 4.358084e-01 1.490237e-01
<GCONST> 1.142410e+02
<TRANSP> 6
 0.000000e+00 1.000000e+00 0.000000e+00 0.000000e+00 0.000000e+00 0.000000e+00
 0.000000e+00 7.368649e-01 2.631350e-01 0.000000e+00 0.000000e+00 0.000000e+00
 0.000000e+00 0.000000e+00 9.515762e-01 4.842382e-02 0.000000e+00 0.000000e+00
 0.000000e+00 0.000000e+00 0.000000e+00 9.313192e-01 6.868087e-02 0.000000e+00
 0.000000e+00 0.000000e+00 0.000000e+00 0.000000e+00 9.258642e-01 7.413584e-02
 0.000000e+00 0.000000e+00 0.000000e+00 0.000000e+00 0.000000e+00 0.000000e+00
<ENDHMM>
