~o
<STREAMINFO> 1 39
<VECSIZE> 39<NULLD><MFCC_D_A_0><DIAGC>
~h "two"
<BEGINHMM>
<NUMSTATES> 6
<STATE> 2
<MEAN> 39
 -2.023982e+01 -8.883623e+00 7.732599e-01 -8.156851e+00 2.104056e+00 -1.010751e+01 2.197923e-01 -1.204995e+01 -4.211658e+00 2.949812e-01 4.798657e+00 -7.703303e+00 8.995048e+01 7.405317e-01 6.409473e-01 -3.284359e-01 -2.686385e-01 5.968319e-01 -6.610862e-01 9.075618e-02 -1.084408e+00 -1.186273e+00 -3.518352e-01 -4.722842e-02 1.343813e-01 1.204647e+00 4.084158e-01 4.524854e-01 -5.195636e-02 1.914187e-01 -1.138601e-01 -7.119749e-02 2.855096e-02 7.490683e-02 -3.232300e-01 -3.263742e-01 -4.572335e-01 1.696256e-01 -6.227362e-01
<VARIANCE> 39
 2.312446e+01 1.460994e+01 1.712343e+01 1.010677e+01 2.136009e+01 2.435911e+01 1.570784e+01 2.322026e+01 1.902063e+01 1.706244e+01 2.051075e+01 1.455372e+01 4.724845e+01 3.879368e+00 3.949883e+00 1.781319e+00 1.597994e+00 1.933814e+00 5.232869e+00 1.749042e+00 2.035125e+00 3.797749e+00 3.167962e+00 5.778608e+00 2.240712e+00 1.226249e+01 3.555323e-01 3.610376e-01 3.873747e-01 2.712836e-01 5.474095e-01 1.078280e+00 3.661267e-01 3.808957e-01 5.135117e-01 5.112420e-01 5.970203e-01 3.757490e-01 1.679263e+00
<GCONST> 1.159415e+02
<STATE> 3
<MEAN> 39
 -7.195302e+00 5.078543e+00 3.034634e-01 -1.039681e+01 -3.248070e+00 -2.004886e+01 3.892580e+00 -1.580744e+01 -1.819081e+01 -1.089978e+01 -7.318191e+00 -5.068386e+00 9.086658e+01 4.275011e-01 6.166008e-01 4.498180e-01 -5.752911e-01 -5.072029e-01 -1.984612e-01 6.081399e-01 5.149002e-01 -1.373593e-01 -9.392745e-01 -5.890412e-01 -1.949718e-01 -3.008726e-03 -1.546244e-01 -1.756712e-01 1.444727e-01 -1.857553e-01 1.138939e-01 7.994069e-02 1.313652e-01 1.236918e-01 2.951802e-01 -4.637701e-03 2.364524e-01 -8.242451e-02 -1.461750e-01
<VARIANCE> 39
 4.120716e+00 1.318683e+01 1.349819e+01 1.586805e+01 2.040175e+01 4.317059e+01 4.948260e+01 2.976658e+01 2.836110e+01 3.086215e+01 1.585919e+01 2.069643e+01 1.047963e+01 8.400739e-01 1.351617e+00 1.378965e+00 1.938055e+00 2.114986e+00 5.514206e+00 4.575583e+00 3.183063e+00 3.860270e+00 2.840204e+00 2.076738e+00 1.573057e+00 1.286532e+00 1.517897e-01 2.647632e-01 2.558766e-01 4.386336e-01 3.018901e-01 1.126543e+00 8.460050e-01 6.550711e-01 5.893925e-01 5.566611e-01 4.508504e-01 3.039000e-01 2.079720e-01
<GCONST> 1.083656e+02
<STATE> 4
<MEAN> 39
 -7.160883e+00 8.888663e+00 6.963216e+00 -1.838495e+01 6.224240e-02 -1.844007e+01 8.681522e+00 -5.471673e+00 -1.140780e+01 -1.436044e+01 -9.646997e+00 -8.911023e+00 7.827544e+01 -1.954522e-02 -4.341199e-01 -3.497425e-01 -4.186447e-02 9.677156e-02 9.863967e-01 -6.659559e-01 7.846523e-01 6.350599e-01 9.323869e-01 3.329872e-01 2.267351e-01 -1.468874e+00 -2.577323e-02 -1.413321e-01 -2.178618e-01 3.444760e-01 -1.122381e-01 2.798574e-01 -2.661082e-01 1.738953e-02 7.990558e-02 2.664192e-01 1.073588e-01 1.872017e-01 -5.912369e-03
<VARIANCE> 39
 8.228791e+00 3.392514e+01 2.426132e+01 2.871602e+01 3.035436e+01 5.423817e+01 5.204315e+01 2.074761e+01 1.823411e+01 7.517346e+01 2.395241e+01 3.460555e+01 4.659245e+01 1.155244e+00 4.446012e+00 4.403563e+00 5.148362e+00 4.165022e+00 7.243830e+00 5.921450e+00 2.177163e+00 1.973856e+00 5.825331e+00 2.513387e+00 4.270525e+00 1.720021e+00 2.354001e-01 7.853972e-01 8.218359e-01 1.146178e+00 6.531926e-01 1.089202e+00 1.120474e+00 4.813146e-01 3.416518e-01 1.042834e+00 3.688063e-01 7.129745e-01 3.725100e-01
<GCONST> 1.260486e+02
<STATE> 5
<MEAN> 39
 -6.321576e+00 2.668509e+00 2.946431e+00 -3.741538e+00 -1.819624e+00 -1.827242e+00 4.648130e-01 4.898985e-01 -2.894891e+00 -2.680492e+00 -3.181468e+00 -2.939385e+00 6.477320e+01 -4.287681e-01 -2.150890e-01 3.407622e-01 1.723281e+00 4.593837e-01 7.183306e-01 -1.203475e-01 -8.076537e-02 4.867712e-01 3.058844e-01 2.431961e-01 1.420899e-01 -7.172698e-01 -8.263046e-02 5.304008e-02 8.725507e-02 -1.956111e-01 2.101767e-01 -2.241488e-01 8.607845e-02 -1.103795e-01 -1.269082e-01 -1.109571e-01 -9.842070e-02 -1.043042e-01 9.763759e-02
<VARIANCE> 39
 1.130640e+01 1.645060e+01 2.730274e+01 5.018069e+01 2.228247e+01 1.518025e+01 1.297462e+01 1.455600e+01 1.033510e+01 8.839197e+00 9.947743e+00 8.120768e+00 5.260349e+00 1.091108e+00 1.248135e+00 1.900968e+00 3.899179e+00 2.185557e+00 1.382885e+00 1.304745e+00 1.720729e+00 1.253420e+00 1.288507e+00 1.297778e+00 1.002735e+00 8.711507e-01 1.748457e-01 2.934552e-01 4.527138e-01 5.242085e-01 5.151036e-01 3.577137e-01 2.938674e-01 3.745012e-01 2.709346e-01 3.006039e-01 3.271602e-01 2.647571e-01 1.610190e-01
<GCONST> 9.550187e+01
<TRANSP> 6
 0.000000e+00 1.000000e+00 0.000000e+00 0.000000e+00 0.000000e+00 0.000000e+00
 0.000000e+00 8.946590e-01 1.053410e-01 0.000000e+00 0.000000e+00 0.000000e+00
 0.000000e+00 0.000000e+00 9.277892e-01 7.221086e-02 0.000000e+00 0.000000e+00
 0.000000e+00 0.000000e+00 0.000000e+00 9.240728e-01 7.592714e-02 0.000000e+00
 0.000000e+00 0.000000e+00 0.000000e+00 0.000000e+00 8.967808e-01 1.032192e-01
 0.000000e+00 0.000000e+00 0.000000e+00 0.000000e+00 0.000000e+00 0.000000e+00
<ENDHMM>
