~o
<STREAMINFO> 1 39
<VECSIZE> 39<NULLD><MFCC_D_A_0><DIAGC>
~h "minus"
<BEGINHMM>
<NUMSTATES> 6
<STATE> 2
<MEAN> 39
 -2.269010e+00 7.855237e+00 -9.705980e-01 -1.342435e+01 5.120581e+00 -1.436401e+01 2.820434e+00 -8.242776e+00 -2.127341e+01 -1.778888e+01 -1.274085e+01 -5.602657e+00 7.690388e+01 1.194059e+00 -6.452466e-01 -2.136940e+00 -1.625224e+00 -1.810348e+00 -2.446209e+00 5.323240e-01 -9.418953e-01 4.382232e-01 -1.435564e+00 2.248456e+00 3.575326e-01 3.842723e+00 -7.261199e-01 -9.676788e-01 -4.614151e-01 1.508541e-01 -3.249896e-01 3.519482e-01 -1.540118e-02 9.425821e-02 8.448603e-01 8.067338e-01 8.096578e-01 3.394245e-01 -4.667571e-02
<VARIANCE> 39
 9.191669e+00 1.660322e+01 3.255023e+01 3.049677e+01 5.331157e+01 5.808919e+01 1.496005e+01 2.795249e+01 6.052250e+01 2.306519e+01 7.138968e+01 2.203129e+01 5.539520e+01 3.670648e+00 6.885893e+00 3.724801e+00 2.631269e+00 5.075527e+00 4.613854e+00 1.968588e+00 1.756229e+00 1.279846e+01 6.573319e+00 1.066785e+01 2.802023e+00 2.735195e+00 2.662603e-01 5.962566e-01 7.064581e-01 6.381432e-01 1.067849e+00 1.504349e+00 3.279853e-01 4.078127e-01 1.852280e+00 8.486209e-01 2.087642e+00 5.804746e-01 5.745780e-01
<GCONST> 1.309539e+02
<STATE> 3
<MEAN> 39
 -6.657858e+00 1.363283e+00 -4.035697e+00 -1.169432e+01 2.479013e+00 -2.220725e+01 -2.883918e+00 -1.198936e+01 -1.153789e+01 -1.152433e+01 -9.173303e-01 -1.113533e+01 8.773509e+01 -1.173393e-01 -1.690256e-02 1.668729e-01 1.120917e-01 3.129793e-01 -1.275236e-02 -3.071744e-01 -7.923122e-02 1.332699e-01 4.446711e-01 3.891749e-01 -5.793214e-02 4.002795e-02 4.945221e-02 2.241889e-02 5.043573e-02 -6.316443e-03 6.025260e-02 -2.232349e-03 -1.436376e-02 6.178732e-02 -1.506615e-02 2.078357e-02 -1.724265e-02 3.636008e-02 -7.121991e-02
<VARIANCE> 39
 1.048299e+01 3.486201e+01 7.287768e+01 2.380548e+01 1.852992e+01 7.896011e+01 3.768433e+01 1.726011e+01 2.423301e+01 3.304721e+01 3.586646e+01 3.480753e+01 4.694062e+01 1.325840e+00 2.672296e+00 2.828802e+00 1.419226e+00 1.346915e+00 7.242261e+00 1.542099e+00 1.870190e+00 1.593052e+00 2.779667e+00 4.752795e+00 2.264222e+00 2.828095e+00 2.729898e-01 3.948509e-01 3.485170e-01 2.615742e-01 3.079758e-01 1.192096e+00 2.738966e-01 3.930040e-01 3.068032e-01 4.161512e-01 7.686743e-01 3.093564e-01 3.842404e-01
<GCONST> 1.150579e+02
<STATE> 4
<MEAN> 39
 -9.122461e+00 -2.144243e+00 1.003605e+00 -1.450337e+01 7.146567e+00 -1.635678e+01 -4.712156e+00 -1.089715e+01 -9.812889e+00 -4.969380e+00 9.873732e+00 1.297548e+00 8.572462e+01 -1.122652e+00 -4.052711e-01 6.540124e-01 -1.932797e-01 -1.150679e-01 8.412009e-01 1.194731e-01 2.543434e-01 5.877239e-01 -6.525395e-03 -3.668287e-01 -5.412766e-02 -1.388368e-01 -2.931549e-01 7.117323e-03 4.086603e-04 -1.828810e-02 -8.195087e-02 3.674021e-02 5.649814e-02 1.644849e-02 8.232082e-02 -4.632933e-02 -1.207848e-01 -1.613649e-01 6.987922e-02
<VARIANCE> 39
 3.230791e+01 3.436758e+01 3.838666e+01 1.184204e+01 1.254117e+01 4.297989e+01 3.066487e+01 1.680593e+01 2.572715e+01 2.529928e+01 2.659121e+01 2.358064e+01 2.323871e+01 4.166300e+00 4.177361e+00 1.303261e+00 1.060860e+00 1.385542e+00 1.875600e+00 1.427137e+00 1.749093e+00 3.759732e+00 1.891935e+00 1.674509e+00 3.153595e+00 1.861125e+00 3.922397e-01 7.275841e-01 3.218135e-01 2.157539e-01 2.802248e-01 3.494026e-01 2.616828e-01 2.962195e-01 5.550168e-01 3.597438e-01 3.131790e-01 3.098668e-01 2.672057e-01
<GCONST> 1.086406e+02
<STATE> 5
<MEAN> 39
 -3.261036e+01 -6.164062e+00 3.185255e+00 -1.759125e+01 8.420045e+00 -8.518494e+00 2.689206e+00 -3.924588e+00 2.072192e+00 -3.135418e+00 2.805244e+00 -5.140378e+00 8.399707e+01 2.779869e-01 1.594466e-01 -1.864662e-01 1.606426e-01 -1.626706e-02 -6.438568e-02 1.515466e-01 2.437777e-01 -1.084368e-01 1.293186e-01 -1.759788e-01 1.300346e-01 -9.096626e-01 2.522642e-01 5.500139e-02 -1.142964e-02 9.855600e-02 2.666434e-02 1.360325e-02 -7.075783e-02 -8.448971e-03 -1.332849e-01 1.977115e-02 -3.056676e-02 8.213324e-02 -1.532340e-01
<VARIANCE> 39
 2.681226e+01 1.711872e+01 1.869044e+01 1.882172e+01 2.163738e+01 1.696465e+01 1.814926e+01 1.924179e+01 1.521091e+01 1.063642e+01 1.139575e+01 1.288725e+01 6.168737e+01 3.039872e+00 9.847295e-01 1.324505e+00 1.679832e+00 1.737939e+00 1.459408e+00 1.256725e+00 1.557787e+00 1.061911e+00 8.907483e-01 9.131762e-01 8.488535e-01 2.007864e+00 3.049059e-01 2.039457e-01 2.031835e-01 2.707111e-01 3.085120e-01 3.175665e-01 2.218414e-01 2.550083e-01 2.097106e-01 1.611095e-01 1.654074e-01 1.837077e-01 1.784620e-01
<GCONST> 9.403564e+01
<TRANSP> 6
 0.000000e+00 1.000000e+00 0.000000e+00 0.000000e+00 0.000000e+00 0.000000e+00
 0.000000e+00 8.181124e-01 1.818876e-01 0.000000e+00 0.000000e+00 0.000000e+00
 0.000000e+00 0.000000e+00 9.676877e-01 3.231229e-02 0.000000e+00 0.000000e+00
 0.000000e+00 0.000000e+00 0.000000e+00 9.430659e-01 5.693407e-02 0.000000e+00
 0.000000e+00 0.000000e+00 0.000000e+00 0.000000e+00 9.601442e-01 3.985582e-02
 0.000000e+00 0.000000e+00 0.000000e+00 0.000000e+00 0.000000e+00 0.000000e+00
<ENDHMM>
