~o
<STREAMINFO> 1 39
<VECSIZE> 39<NULLD><MFCC_D_A_0><DIAGC>
~h "four"
<BEGINHMM>
<NUMSTATES> 6
<STATE> 2
<MEAN> 39
 -1.675914e+01 -3.818353e+00 -2.808183e+00 -1.465583e+01 4.292908e+00 -1.260901e+01 6.922966e-01 -5.248531e+00 -3.301694e+00 -6.144445e+00 7.833025e-01 -7.883018e+00 8.130644e+01 7.014017e-01 3.743154e-01 1.948780e-01 -6.377042e-01 -7.924755e-01 -1.041101e+00 -4.193578e-01 -4.523885e-01 -1.408079e-01 -2.290184e-01 -2.249712e-01 -1.603169e-01 1.052539e+00 5.163725e-02 -1.221144e-02 -3.952450e-02 1.159312e-01 -1.266115e-01 7.815717e-02 -1.036669e-01 -4.663945e-02 -5.157863e-03 5.505986e-02 1.128515e-02 1.415085e-01 -4.224147e-02
<VARIANCE> 39
 8.372532e+01 5.135782e+01 3.453040e+01 4.163224e+01 5.840069e+01 5.957098e+01 3.440564e+01 2.143281e+01 2.224880e+01 1.784104e+01 2.511623e+01 1.917191e+01 5.740273e+01 5.534831e+00 4.853850e+00 2.834364e+00 2.535418e+00 3.982880e+00 3.861968e+00 3.621689e+00 2.258876e+00 2.779462e+00 1.914120e+00 2.677391e+00 1.836387e+00 2.274341e+00 5.960495e-01 8.295351e-01 4.366150e-01 4.982950e-01 7.927637e-01 9.173591e-01 6.765444e-01 4.856639e-01 5.840894e-01 3.773016e-01 5.388124e-01 3.452894e-01 2.263687e-01
<GCONST> 1.241258e+02
<STATE> 3
<MEAN> 39
 -3.894346e-01 1.751553e+00 -7.326557e-01 -1.554193e+01 -7.756951e+00 -1.977642e+01 -9.100711e+00 -7.295989e+00 -2.209563e+00 -5.432477e+00 -6.295541e-01 -5.219074e+00 8.921603e+01 8.241030e-02 -4.242337e-01 -5.555385e-01 -4.123256e-02 -3.065829e-02 2.248073e-01 7.470081e-02 4.403787e-01 8.690879e-01 -3.067733e-01 1.542090e-01 2.131141e-01 1.462778e-01 6.197731e-03 6.273234e-02 -3.886458e-02 -1.457217e-01 8.332271e-02 9.430471e-03 1.389574e-01 -5.912965e-03 4.999276e-02 -1.127937e-01 -7.736663e-02 -9.106766e-02 -9.852061e-02
<VARIANCE> 39
 2.336347e+00 2.038893e+01 4.198485e+01 1.519195e+01 1.477827e+01 3.498043e+01 2.535203e+01 4.494788e+01 4.612301e+01 2.500797e+01 1.659135e+01 1.894074e+01 1.028378e+01 1.489893e-01 6.486834e-01 8.591267e-01 1.373835e+00 1.220630e+00 2.075313e+00 2.264024e+00 1.695549e+00 2.277999e+00 2.749636e+00 1.108142e+00 1.221513e+00 3.762094e-01 3.721975e-02 1.141275e-01 1.158685e-01 1.659750e-01 2.250947e-01 3.275384e-01 2.899589e-01 3.144348e-01 3.645340e-01 3.665439e-01 1.803014e-01 2.155278e-01 4.691175e-02
<GCONST> 8.894508e+01
<STATE> 4
<MEAN> 39
 2.517854e+00 2.665342e+00 -1.440407e+01 -1.991549e+01 3.861919e+00 -9.765692e+00 -1.572968e+00 -1.527543e+01 -3.549046e+00 -9.610828e+00 -3.057735e-01 -1.139692e+00 7.820004e+01 -1.647003e-01 -7.403499e-02 -2.949086e-01 3.157167e-01 5.517790e-01 1.208795e+00 8.747877e-02 -7.111497e-01 -1.108591e+00 4.742098e-01 2.299956e-01 2.226923e-01 -1.139519e+00 -9.520090e-02 -1.254189e-01 6.148829e-02 9.639430e-02 -1.121498e-01 3.051878e-02 -5.092147e-02 1.760681e-01 3.715298e-02 2.051113e-01 9.098657e-02 2.188201e-02 -1.343395e-02
<VARIANCE> 39
 2.258296e+01 2.284740e+01 3.178286e+01 3.111317e+01 7.357666e+01 6.531807e+01 2.741785e+01 5.814128e+01 1.283228e+02 3.860259e+01 3.040803e+01 2.128061e+01 5.050004e+01 2.894188e+00 2.085312e+00 3.115289e+00 2.687163e+00 4.966688e+00 2.391933e+00 3.143224e+00 3.923973e+00 3.599925e+00 3.002366e+00 1.724521e+00 1.657637e+00 1.345980e+00 5.037277e-01 2.744523e-01 4.073209e-01 3.901212e-01 7.535180e-01 3.994836e-01 5.975940e-01 4.981765e-01 7.489705e-01 5.754153e-01 3.277572e-01 2.929349e-01 2.447814e-01
<GCONST> 1.213885e+02
<STATE> 5
<MEAN> 39
 -8.491821e+00 -5.546178e+00 -8.955697e+00 -9.238439e+00 1.775230e+00 3.983208e+00 -2.815552e+00 -9.399027e+00 -8.249202e+00 1.083650e+00 4.880218e+00 1.403917e+00 6.369991e+01 -1.041476e+00 -3.644852e-01 8.102611e-01 8.568115e-01 -1.359787e-01 -1.483129e-01 2.283064e-01 1.061669e+00 7.186235e-01 2.471297e-01 -2.011373e-01 8.160932e-02 -6.477319e-01 7.476762e-02 1.734529e-01 9.754361e-02 1.212572e-02 5.088280e-02 -2.267149e-01 5.900775e-04 -1.384037e-01 -5.599867e-02 -1.946333e-01 -1.747596e-01 -7.484819e-02 7.326658e-02
<VARIANCE> 39
 1.531091e+01 7.024006e+00 4.017162e+01 3.048004e+01 1.392448e+01 1.781097e+01 1.397446e+01 2.191581e+01 1.597896e+01 2.534537e+01 3.234163e+01 1.496793e+01 6.298493e+00 2.823449e-01 5.404190e-01 1.200730e+00 1.255383e+00 1.223443e+00 1.381779e+00 1.168768e+00 1.478488e+00 1.339232e+00 2.341476e+00 2.375623e+00 1.220875e+00 1.088375e-01 6.639425e-02 5.963457e-02 1.653073e-01 2.449831e-01 2.628145e-01 2.524800e-01 2.423409e-01 2.950794e-01 1.884472e-01 3.323161e-01 3.121997e-01 1.765951e-01 2.795962e-02
<GCONST> 8.498741e+01
<TRANSP> 6
 0.000000e+00 1.000000e+00 0.000000e+00 0.000000e+00 0.000000e+00 0.000000e+00
 0.000000e+00 9.494824e-01 5.051764e-02 0.000000e+00 0.000000e+00 0.000000e+00
 0.000000e+00 0.000000e+00 9.430925e-01 5.690755e-02 0.000000e+00 0.000000e+00
 0.000000e+00 0.000000e+00 0.000000e+00 9.460619e-01 5.393812e-02 0.000000e+00
 0.000000e+00 0.000000e+00 0.000000e+00 0.000000e+00 9.055935e-01 9.440652e-02
 0.000000e+00 0.000000e+00 0.000000e+00 0.000000e+00 0.000000e+00 0.000000e+00
<ENDHMM>
