~o
<STREAMINFO> 1 39
<VECSIZE> 39<NULLD><MFCC_D_A_0><DIAGC>
~h "six"
<BEGINHMM>
<NUMSTATES> 6
<STATE> 2
<MEAN> 39
 -3.054907e+01 -5.335937e+00 3.619281e+00 -1.631822e+01 7.357587e+00 -1.063796e+01 2.792147e+00 -7.349715e+00 2.465190e+00 -2.808257e+00 1.640718e+00 -4.340956e+00 8.660565e+01 -2.036855e-01 2.127492e-01 9.175996e-02 -3.069132e-01 1.965744e-01 -8.018114e-01 -1.713589e-01 -3.636915e-01 -1.091706e-01 -3.172887e-01 -9.045874e-02 -2.780926e-01 1.116128e+00 3.912700e-01 1.237812e-01 -1.024764e-01 2.503073e-01 -1.259957e-01 -1.181612e-01 -2.156538e-01 -4.607671e-02 -1.556574e-01 -5.333136e-02 -9.725810e-02 -8.163083e-02 -1.588678e-01
<VARIANCE> 39
 6.336454e+01 1.676076e+01 2.727126e+01 1.814720e+01 2.492167e+01 2.059455e+01 2.415087e+01 2.367627e+01 1.983056e+01 1.810049e+01 1.133444e+01 1.067733e+01 4.404193e+01 7.659113e+00 1.526424e+00 2.820450e+00 2.617468e+00 2.105295e+00 2.454754e+00 3.883754e+00 2.924769e+00 2.438760e+00 1.874435e+00 1.593977e+00 1.549097e+00 2.169151e+00 6.004644e-01 3.086575e-01 5.498275e-01 4.046980e-01 3.464628e-01 4.663152e-01 3.991248e-01 4.755458e-01 3.228540e-01 3.727358e-01 2.472353e-01 2.634470e-01 1.942312e-01
<GCONST> 1.104713e+02
<STATE> 3
<MEAN> 39
 -1.106180e+01 -3.930843e+00 2.133536e+00 -2.332896e+00 2.297787e+00 -2.450656e+01 -8.427302e+00 -7.158664e+00 -6.261444e+00 -7.068284e+00 -3.039583e+00 -4.798751e+00 8.007711e+01 4.471188e-01 -7.784192e-02 -2.746402e-01 6.824539e-01 -3.119392e-01 5.463391e-01 -1.305236e-02 5.308657e-01 5.494765e-03 1.831355e-01 -2.443362e-02 3.143243e-01 -1.347188e+00 -3.499563e-01 -8.006024e-02 -5.703208e-02 -2.396506e-01 1.898618e-01 1.535009e-01 1.689155e-01 5.171198e-02 1.760215e-01 9.759027e-02 8.935972e-02 2.321377e-02 1.184495e-01
<VARIANCE> 39
 7.455603e+00 1.715611e+01 1.719406e+01 2.437265e+01 2.731434e+01 1.120785e+02 2.346041e+01 4.281770e+01 1.133169e+01 1.948369e+01 2.022076e+01 2.127536e+01 1.694340e+02 3.078404e+00 1.613026e+00 2.036378e+00 2.054137e+00 2.888657e+00 9.217836e+00 2.855730e+00 2.498719e+00 1.654927e+00 2.459449e+00 2.104378e+00 1.873359e+00 3.775516e+00 4.829826e-01 3.432857e-01 4.505858e-01 3.855375e-01 6.271193e-01 1.296315e+00 4.948731e-01 6.257058e-01 2.844642e-01 5.163351e-01 4.581244e-01 4.522562e-01 7.234453e-01
<GCONST> 1.177412e+02
<STATE> 4
<MEAN> 39
 -2.066956e+01 -8.579172e+00 -2.684464e+00 -1.190151e+01 9.954416e+00 -1.023954e+01 -7.011637e+00 -8.463291e+00 6.525232e-01 -9.970511e-01 6.032072e-01 -5.809290e+00 8.188009e+01 -2.727068e+00 -6.366189e-01 2.556331e-01 -2.325441e+00 1.573766e+00 -1.689134e-01 3.799878e-01 -8.321631e-01 1.240484e+00 3.452955e-01 8.816411e-01 -4.323045e-01 4.393946e+00 -1.322831e-01 1.344269e-01 3.656864e-01 2.581148e-01 -4.350950e-01 1.127646e-01 3.131630e-01 3.525442e-01 -2.245839e-02 -1.339683e-01 -9.358660e-02 1.314715e-01 -2.824503e-01
<VARIANCE> 39
 4.638998e+01 1.568150e+01 2.627671e+01 5.988900e+01 4.802742e+01 3.133082e+01 1.482904e+01 2.833998e+01 2.603781e+01 9.698725e+00 2.250496e+01 1.237911e+01 1.619735e+02 1.549275e+00 1.539195e+00 5.263241e+00 5.824768e+00 7.450865e+00 3.098902e+00 2.468215e+00 3.906137e+00 1.940254e+00 1.069891e+00 2.270831e+00 1.597505e+00 6.692684e+00 4.051460e-01 2.794376e-01 7.884892e-01 1.164192e+00 1.259174e+00 6.291330e-01 4.494173e-01 6.579960e-01 4.786143e-01 1.923162e-01 4.860893e-01 2.949940e-01 2.447525e+00
<GCONST> 1.217033e+02
<STATE> 5
<MEAN> 39
 -3.070270e+01 -5.366031e+00 3.842052e+00 -1.777645e+01 1.008134e+01 -9.394693e+00 2.452862e+00 -4.548110e+00 4.052494e-01 -1.988523e+00 2.224379e+00 -4.278667e+00 8.484184e+01 5.719241e-01 2.285198e-01 4.354438e-02 3.171426e-01 -1.835830e-01 1.098051e-01 3.468971e-02 2.761065e-01 -3.980115e-01 7.854812e-02 -2.648273e-01 1.227609e-01 -1.143242e+00 1.278232e-01 -2.378754e-02 -5.460696e-02 9.701941e-02 5.039456e-03 2.039931e-02 -1.082285e-01 -3.040522e-02 -2.684568e-02 -3.543809e-03 -2.193361e-02 -2.146700e-02 -6.345685e-02
<VARIANCE> 39
 5.703949e+01 7.675472e+00 1.185841e+01 2.286373e+01 1.303259e+01 1.442487e+01 2.205024e+01 1.521137e+01 1.842440e+01 9.921568e+00 1.323574e+01 8.902946e+00 1.177947e+02 2.197457e+00 7.407768e-01 1.134188e+00 1.646977e+00 1.248877e+00 1.092338e+00 1.695025e+00 1.472652e+00 1.140558e+00 1.249696e+00 1.173007e+00 8.183631e-01 1.579526e+00 2.598192e-01 1.483547e-01 2.172116e-01 2.189123e-01 2.456200e-01 2.290545e-01 2.481687e-01 2.729122e-01 2.659195e-01 2.656520e-01 2.095227e-01 1.593870e-01 1.623676e-01
<GCONST> 9.252879e+01
<TRANSP> 6
 0.000000e+00 1.000000e+00 0.000000e+00 0.000000e+00 0.000000e+00 0.000000e+00
 0.000000e+00 9.485648e-01 5.143521e-02 0.000000e+00 0.000000e+00 0.000000e+00
 0.000000e+00 0.000000e+00 9.520369e-01 4.796312e-02 0.000000e+00 0.000000e+00
 0.000000e+00 0.000000e+00 0.000000e+00 8.607438e-01 1.392563e-01 0.000000e+00
 0.000000e+00 0.000000e+00 0.000000e+00 0.000000e+00 9.639350e-01 3.606500e-02
 0.000000e+00 0.000000e+00 0.000000e+00 0.000000e+00 0.000000e+00 0.000000e+00
<ENDHMM>
