~o
<STREAMINFO> 1 39
<VECSIZE> 39<NULLD><MFCC_D_A_0><DIAGC>
~h "zero"
<BEGINHMM>
<NUMSTATES> 6
<STATE> 2
<MEAN> 39
 -2.529348e+01 -8.345871e+00 1.008128e+01 -1.912575e+01 1.164128e+01 -1.575093e+01 -4.547707e-01 -1.197521e+01 2.033383e+00 -8.311813e+00 1.081023e-01 -8.781770e+00 8.148521e+01 1.378724e+00 2.068750e-01 3.204196e-01 8.041824e-01 1.155414e-01 -1.739834e+00 -9.953701e-01 -9.879749e-01 -9.276702e-01 -6.225760e-01 -6.399606e-01 -7.557794e-01 1.600477e+00 5.395380e-01 1.672126e-01 -2.960446e-01 4.944277e-01 -3.906671e-01 -6.184701e-02 -2.255380e-01 1.311575e-01 -3.310342e-01 6.624883e-02 -1.520640e-01 1.464996e-01 -2.904835e-01
<VARIANCE> 39
 8.405318e+01 3.503890e+01 3.451793e+01 4.574121e+01 2.005601e+01 3.180512e+01 4.576954e+01 2.452047e+01 3.467174e+01 2.087035e+01 3.875508e+01 2.316205e+01 2.588603e+01 1.070891e+01 6.298481e+00 4.950023e+00 8.265484e+00 3.907326e+00 5.162569e+00 4.183970e+00 2.637793e+00 4.657159e+00 2.444097e+00 5.111464e+00 2.774301e+00 2.810813e+00 1.210761e+00 1.012598e+00 1.367016e+00 1.160793e+00 7.383908e-01 8.974376e-01 7.655633e-01 5.609684e-01 6.531506e-01 5.764387e-01 8.109362e-01 5.685562e-01 2.476909e-01
<GCONST> 1.328566e+02
<STATE> 3
<MEAN> 39
 -4.177576e+00 -2.667502e+00 4.232128e+00 -7.066780e+00 7.231309e+00 -3.375410e+01 -6.272115e+00 -1.985716e+01 -8.236379e+00 -1.076116e+01 -5.650807e+00 -1.084644e+01 8.657386e+01 5.869533e-01 1.479995e-01 -1.477056e+00 -1.926608e-01 2.715221e-01 -1.914324e-01 4.318537e-01 -2.873057e-01 -5.552793e-02 2.867465e-01 3.292697e-01 1.215092e-01 -1.500342e-01 -8.276475e-02 2.214677e-02 -3.279733e-02 -2.076508e-01 1.815654e-01 3.277927e-01 -1.319693e-02 5.038069e-02 7.570931e-02 -2.251515e-02 4.851445e-02 -2.209518e-02 -7.852168e-02
<VARIANCE> 39
 9.742769e+00 5.410521e+00 6.211982e+01 1.128961e+01 1.099424e+01 1.365359e+01 2.729986e+01 1.646851e+01 1.779260e+01 1.788193e+01 1.463862e+01 1.455924e+01 2.697934e+00 1.569069e-01 7.957553e-01 1.381968e+00 9.642014e-01 1.288706e+00 1.989408e+00 1.457588e+00 1.012908e+00 1.001616e+00 1.352271e+00 7.486372e-01 8.645406e-01 2.225300e-01 9.127961e-02 1.423067e-01 1.996559e-01 2.169605e-01 1.113193e-01 2.469314e-01 3.052160e-01 2.225832e-01 2.467618e-01 2.303001e-01 1.524365e-01 1.449798e-01 1.162535e-02
<GCONST> 7.843451e+01
<STATE> 4
<MEAN> 39
 3.191906e+00 4.729165e+00 -1.012061e+01 -2.134161e+01 1.686319e+01 -2.248500e+01 -5.143870e+00 -1.304024e+01 -1.019844e+01 -1.204224e+01 -8.074756e-01 -1.965979e+00 8.097182e+01 1.085669e-01 8.820362e-02 3.816190e-01 -7.064342e-01 -6.990346e-01 5.439580e-01 1.914804e-01 1.050445e+00 2.808418e-01 -7.868075e-01 -6.261507e-02 7.718260e-01 -2.149408e-01 -4.220198e-02 -4.301187e-02 1.309580e-01 1.194541e-01 -2.597368e-01 -7.651780e-02 1.052641e-01 3.061241e-02 3.868096e-02 -2.560969e-02 -8.609200e-02 -5.480381e-02 -2.155149e-02
<VARIANCE> 39
 3.044137e+00 9.473615e+00 9.039324e+00 2.983202e+01 4.704920e+01 2.076064e+01 3.236266e+01 7.043298e+01 2.868765e+01 3.231954e+01 2.908366e+01 4.261259e+01 3.634718e+00 1.593442e-01 9.311923e-01 5.607817e-01 1.506948e+00 4.478321e+00 1.603605e+00 3.418216e+00 2.537761e+00 1.361598e+00 1.641766e+00 2.553971e+00 1.148847e+00 2.711377e-01 1.835781e-02 1.023303e-01 7.663985e-02 1.502627e-01 2.651783e-01 2.276071e-01 5.976114e-01 4.694881e-01 1.811270e-01 2.819480e-01 4.426664e-01 2.556629e-01 3.738008e-02
<GCONST> 8.986861e+01
<STATE> 5
<MEAN> 39
 -1.349357e+00 3.516619e+00 -1.622827e+00 -1.606662e+01 -9.219862e+00 -1.065937e+01 2.026018e+00 1.704650e+00 -5.181475e+00 -1.411535e+01 -7.899685e+00 -3.847109e+00 6.969343e+01 -6.504053e-01 -2.620668e-01 1.995429e-02 6.978296e-01 -4.361280e-01 8.841888e-01 2.358231e-02 3.523981e-01 1.720261e-01 1.023656e+00 -2.038020e-02 -4.128620e-01 -8.665368e-01 -2.845003e-02 -4.346712e-02 -4.595175e-02 3.385697e-02 1.929708e-01 -1.696388e-02 -7.632013e-02 -1.004482e-01 -1.411797e-02 8.430104e-02 7.500213e-02 5.002402e-02 2.707059e-02
<VARIANCE> 39
 2.084287e+01 2.091665e+01 1.696095e+01 2.290903e+01 2.035843e+01 6.034043e+01 2.322935e+01 2.287676e+01 1.895023e+01 6.913854e+01 2.443494e+01 2.578566e+01 2.549121e+01 6.154895e-01 1.301653e+00 1.213223e+00 1.077191e+00 2.301759e+00 1.808106e+00 1.473450e+00 1.938259e+00 2.106287e+00 1.833849e+00 2.278734e+00 1.941237e+00 2.281300e-01 8.571781e-02 1.426094e-01 1.301620e-01 1.934776e-01 2.393029e-01 3.203905e-01 2.630405e-01 3.701994e-01 4.220554e-01 2.877481e-01 3.523987e-01 2.609107e-01 3.148007e-02
<GCONST> 9.691350e+01
<TRANSP> 6
 0.000000e+00 1.000000e+00 0.000000e+00 0.000000e+00 0.000000e+00 0.000000e+00
 0.000000e+00 9.114242e-01 8.857580e-02 0.000000e+00 0.000000e+00 0.000000e+00
 0.000000e+00 0.000000e+00 9.375752e-01 6.242484e-02 0.000000e+00 0.000000e+00
 0.000000e+00 0.000000e+00 0.000000e+00 9.449921e-01 5.500795e-02 0.000000e+00
 0.000000e+00 0.000000e+00 0.000000e+00 0.000000e+00 9.482175e-01 5.178257e-02
 0.000000e+00 0.000000e+00 0.000000e+00 0.000000e+00 0.000000e+00 0.000000e+00
<ENDHMM>
