~o
<STREAMINFO> 1 39
<VECSIZE> 39<NULLD><MFCC_D_A_0><DIAGC>
~h "divide"
<BEGINHMM>
<NUMSTATES> 6
<STATE> 2
<MEAN> 39
 -9.253407e+00 2.898143e+00 5.338046e+00 -6.161815e+00 6.655081e+00 -1.780214e+01 -8.142349e+00 -9.774542e+00 -8.973406e+00 -1.548010e+01 -4.152583e+00 -9.068896e+00 8.191532e+01 9.089145e-01 1.815547e-01 -6.113886e-01 -5.454367e-01 -2.241927e-01 -2.099347e-01 1.383447e-01 -1.663735e-01 -7.429852e-01 -1.655712e-01 2.925905e-01 1.048688e-01 4.639093e-01 1.808978e-02 -8.784173e-02 -2.186269e-01 -6.606402e-02 -9.467942e-02 1.943913e-01 1.593373e-01 3.720827e-02 1.021598e-01 1.897207e-01 6.551572e-02 7.321293e-02 -1.923926e-01
<VARIANCE> 39
 3.845369e+01 3.087610e+01 4.361841e+01 6.363546e+01 3.182147e+01 6.462756e+01 5.094164e+01 3.259988e+01 3.594404e+01 2.700309e+01 2.919147e+01 2.136179e+01 1.550397e+01 4.263730e+00 2.898586e+00 3.396692e+00 5.354550e+00 3.174890e+00 7.760566e+00 5.280641e+00 1.939972e+00 3.609848e+00 4.011740e+00 3.051082e+00 2.282405e+00 2.432926e+00 8.621666e-01 3.864915e-01 2.654377e-01 8.188719e-01 3.449001e-01 9.728845e-01 7.117706e-01 3.797424e-01 8.269560e-01 6.808106e-01 5.084159e-01 3.877166e-01 5.685681e-01
<GCONST> 1.264440e+02
<STATE> 3
<MEAN> 39
 -1.517553e+00 -2.255347e+00 -1.687953e+01 -1.851320e+01 1.018906e+00 -1.393647e+01 1.669332e+00 -1.041853e+01 -4.168443e+00 -1.408205e+01 5.816356e+00 -4.788125e+00 8.821856e+01 -2.361254e-01 -1.493520e-01 -4.599139e-02 3.248231e-01 7.650941e-01 -3.596562e-01 -3.471947e-01 2.380706e-01 1.140525e+00 7.625412e-03 4.849978e-01 -2.419809e-01 4.364758e-02 -1.141791e-01 4.936995e-02 2.901712e-01 9.939243e-02 4.764376e-02 -1.298728e-01 -1.827737e-01 5.990598e-02 -3.949567e-02 -6.526563e-02 -1.654222e-02 -2.227941e-02 -5.120703e-02
<VARIANCE> 39
 2.993566e+00 7.408993e+00 1.874342e+01 7.245874e+00 3.766206e+01 3.330007e+01 2.667869e+01 2.987964e+01 5.623526e+01 2.405779e+01 3.416673e+01 1.350233e+01 3.829974e+00 2.910386e-01 5.503209e-01 2.795882e+00 6.886272e-01 1.125882e+00 2.488298e+00 1.934233e+00 1.045283e+00 1.232805e+00 1.409431e+00 1.487745e+00 9.637752e-01 7.967719e-02 2.854244e-02 1.128559e-01 1.347978e-01 1.019282e-01 1.793872e-01 2.293738e-01 1.318460e-01 1.650883e-01 2.341763e-01 2.491058e-01 2.885695e-01 1.574018e-01 2.168640e-02
<GCONST> 8.032275e+01
<STATE> 4
<MEAN> 39
 -1.023684e+01 -2.669067e+00 3.781762e+00 -7.358241e+00 1.100736e+01 -2.923473e+01 -1.315489e+01 -5.341192e+00 9.661094e-01 -1.523698e+01 9.371343e+00 -6.807753e+00 8.547658e+01 -5.761700e-01 5.055837e-01 1.991188e+00 1.131055e+00 3.162013e-01 -2.089832e-02 -2.064448e-01 -2.058514e-01 -1.357541e+00 -4.696531e-01 -1.315788e+00 1.953881e-01 -1.275986e+00 1.887198e-01 4.151795e-02 -5.805310e-01 -2.195317e-01 -1.381092e-01 7.200937e-01 4.747231e-01 -1.387954e-01 -1.067014e-01 2.461940e-01 -1.645622e-01 1.261855e-01 -3.833926e-01
<VARIANCE> 39
 5.476308e+00 1.794078e+01 5.506272e+01 1.762439e+01 1.349513e+01 1.909130e+01 1.802829e+01 2.375466e+01 3.301738e+01 1.746563e+01 2.177376e+01 1.186998e+01 1.370905e+01 5.082793e-01 8.999959e-01 3.288892e+00 7.616994e-01 1.168370e+00 5.508359e+00 4.095740e+00 1.414823e+00 1.172910e+00 1.626820e+00 1.652902e+00 9.412493e-01 1.673950e+00 2.843895e-02 2.460245e-01 4.388774e-01 1.690671e-01 4.277622e-01 3.227436e-01 3.128927e-01 2.875082e-01 3.407594e-01 5.052252e-01 2.441517e-01 2.324713e-01 1.147557e-01
<GCONST> 9.589715e+01
<STATE> 5
<MEAN> 39
 -1.628656e+01 -6.396277e+00 1.562602e+00 -9.569708e+00 1.408210e+00 -1.187736e+01 -6.876081e+00 -7.895405e+00 -2.432859e+00 -5.114844e+00 3.964490e-01 -3.557272e+00 7.178481e+01 -3.297863e-01 -4.957917e-01 -3.685501e-01 -2.810460e-01 -6.656012e-01 9.426315e-01 1.608858e-01 2.792362e-01 2.414581e-01 9.593602e-01 -9.891398e-02 2.113778e-01 -7.074022e-01 -2.014893e-02 2.433972e-02 1.182376e-01 7.360183e-02 3.886739e-02 -1.624766e-01 -1.002152e-01 5.513699e-02 2.082945e-02 -8.184431e-02 1.762239e-02 -2.772544e-02 1.063053e-01
<VARIANCE> 39
 3.859432e+01 2.491543e+01 1.739642e+01 2.616389e+01 2.756540e+01 2.988907e+01 2.071702e+01 1.934895e+01 2.130014e+01 3.578384e+01 2.231118e+01 2.316533e+01 7.489680e+01 4.332953e+00 1.849006e+00 3.987469e+00 3.275476e+00 2.960478e+00 5.746545e+00 3.058669e+00 2.556824e+00 1.943950e+00 4.739999e+00 2.197286e+00 2.823723e+00 1.309286e+01 8.593781e-01 3.633214e-01 7.533637e-01 6.728085e-01 5.063729e-01 8.708582e-01 7.421103e-01 4.380113e-01 3.988383e-01 7.983334e-01 4.918065e-01 5.329673e-01 2.278988e+00
<GCONST> 1.252878e+02
<TRANSP> 6
 0.000000e+00 1.000000e+00 0.000000e+00 0.000000e+00 0.000000e+00 0.000000e+00
 0.000000e+00 9.486643e-01 5.133563e-02 0.000000e+00 0.000000e+00 0.000000e+00
 0.000000e+00 0.000000e+00 9.439321e-01 5.606792e-02 0.000000e+00 0.000000e+00
 0.000000e+00 0.000000e+00 0.000000e+00 8.934197e-01 1.065802e-01 0.000000e+00
 0.000000e+00 0.000000e+00 0.000000e+00 0.000000e+00 9.447580e-01 5.524205e-02
 0.000000e+00 0.000000e+00 0.000000e+00 0.000000e+00 0.000000e+00 0.000000e+00
<ENDHMM>
