~o
<STREAMINFO> 1 39
<VECSIZE> 39<NULLD><MFCC_D_A_0><DIAGC>
~h "ten"
<BEGINHMM>
<NUMSTATES> 6
<STATE> 2
<MEAN> 39
 -1.062988e+01 -1.074599e+01 1.905670e+00 -1.149380e+01 3.868936e+00 -1.818931e+01 9.670604e+00 -1.142101e+01 3.919009e+00 -2.752348e+00 3.759295e+00 -7.345991e+00 9.348618e+01 7.832440e-01 2.578823e-01 -5.864429e-01 -7.537118e-02 -1.890972e-01 -1.174603e+00 1.326684e-01 -2.256762e-01 -9.714143e-01 2.660772e-02 -3.509381e-01 -3.844668e-01 7.070392e-01 -1.785058e-02 2.182084e-01 -2.225242e-01 9.846168e-02 -1.964822e-01 1.309566e-01 -2.160041e-01 1.441516e-01 -3.053707e-01 -5.069932e-02 -1.308470e-01 1.454670e-01 -4.822121e-01
<VARIANCE> 39
 2.593539e+01 2.349443e+01 2.362298e+01 1.239126e+01 1.008481e+01 4.755489e+01 2.859238e+01 1.416289e+01 4.344224e+01 1.682119e+01 1.906450e+01 1.938105e+01 5.996259e+00 2.089111e+00 4.539940e+00 1.960262e+00 1.861691e+00 1.640011e+00 2.497414e+00 3.874228e+00 2.064432e+00 6.344967e+00 2.354631e+00 3.118567e+00 2.736485e+00 3.327892e+00 4.578302e-01 5.694469e-01 3.613198e-01 5.676591e-01 2.445116e-01 6.188045e-01 4.854550e-01 5.085744e-01 9.039041e-01 4.128450e-01 7.368916e-01 6.902905e-01 1.227906e+00
<GCONST> 1.156544e+02
<STATE> 3
<MEAN> 39
 -5.732269e+00 -2.327588e+00 -4.422018e+00 -1.580382e+01 1.050024e+00 -2.360759e+01 4.225519e+00 -1.325586e+01 -1.000890e+01 -4.542530e+00 8.689182e+00 -5.593052e+00 9.530528e+01 6.779914e-02 6.131804e-02 3.840247e-01 -5.505902e-01 7.681569e-01 7.425265e-02 5.126222e-02 -2.046618e-01 -2.383723e-01 -6.697630e-02 1.892613e+00 3.127748e-01 -2.540761e-01 -7.567440e-02 -1.434765e-01 2.460808e-01 1.190696e-02 3.108262e-01 -1.493733e-02 2.389906e-01 -7.436302e-02 1.910522e-01 1.441303e-02 9.594591e-02 -1.031830e-01 -1.835566e-01
<VARIANCE> 39
 2.404485e+00 8.528479e+00 8.054400e+00 1.431629e+01 2.063399e+01 2.087002e+01 3.447638e+01 1.152645e+01 1.697503e+01 1.813737e+01 6.392485e+01 2.580139e+01 4.633024e+00 9.078925e-02 7.257680e-01 1.076294e+00 4.790652e-01 1.760229e+00 1.103064e+00 2.198760e+00 9.320517e-01 1.587926e+00 1.486716e+00 1.457083e+00 1.842304e+00 2.437127e-01 3.723323e-02 1.844954e-01 1.013321e-01 1.127923e-01 2.048505e-01 2.230956e-01 3.117647e-01 1.660771e-01 4.831733e-01 3.204312e-01 5.824342e-01 2.794168e-01 3.817720e-02
<GCONST> 8.215517e+01
<STATE> 4
<MEAN> 39
 -6.532393e+00 2.678891e-01 5.088086e+00 -1.087193e+01 1.408461e+01 -1.668773e+01 4.411493e+00 -1.506163e+01 -1.180255e+01 -7.101691e+00 8.534677e+00 -5.032387e+00 8.086314e+01 4.667147e-02 5.853444e-01 4.474567e-01 1.303317e+00 2.578289e-01 1.167051e+00 -5.338604e-01 4.236897e-01 -2.755052e-01 -1.883464e-01 -1.739512e+00 2.003330e-01 -1.767888e+00 8.945585e-02 1.108668e-02 -1.670516e-01 1.201386e-01 -2.711093e-01 5.184364e-02 -1.265628e-01 1.493818e-01 -5.723805e-02 4.340443e-02 -1.311172e-01 1.719497e-02 -1.762830e-02
<VARIANCE> 39
 1.691603e+01 2.885005e+01 9.405710e+00 3.775978e+01 1.845960e+01 4.140928e+01 2.127788e+01 1.420549e+01 1.857709e+01 1.698991e+01 7.140653e+01 2.484554e+01 4.379995e+01 2.162659e+00 1.674542e+00 1.308533e+00 2.942316e+00 3.182418e+00 2.010137e+00 2.025607e+00 1.748339e+00 2.302679e+00 1.177899e+00 3.034631e+00 1.704194e+00 1.766812e+00 4.408677e-01 3.551741e-01 1.910552e-01 6.954103e-01 4.032380e-01 4.636008e-01 4.204013e-01 2.899399e-01 4.998861e-01 2.189405e-01 7.567524e-01 3.122017e-01 3.544829e-01
<GCONST> 1.097249e+02
<STATE> 5
<MEAN> 39
 -5.316973e+00 2.605309e+00 5.482120e+00 6.207257e-01 5.432720e+00 -6.037068e+00 -3.472061e+00 -7.056771e+00 -1.361529e+01 -7.061406e+00 -3.931461e+00 -6.401206e+00 6.690155e+01 -3.904886e-01 -4.104279e-01 -3.197060e-01 2.865169e-01 -1.091961e+00 7.516911e-01 -3.768323e-01 6.265751e-01 5.399557e-01 2.434323e-01 -2.281507e-01 3.421428e-02 -8.376325e-01 -1.096037e-01 -7.032046e-02 -5.082221e-02 -1.522190e-01 1.719866e-02 -3.869403e-02 9.064039e-02 -5.134821e-02 1.961661e-01 4.260737e-02 9.412491e-02 5.750876e-02 9.144568e-02
<VARIANCE> 39
 8.934069e+00 1.223655e+01 9.827454e+00 1.777723e+01 2.230966e+01 1.914069e+01 1.407474e+01 1.637760e+01 1.877329e+01 2.082684e+01 1.826036e+01 2.170591e+01 9.882046e+00 5.810925e-01 9.047236e-01 1.575014e+00 2.390865e+00 1.027856e+00 1.347010e+00 1.557570e+00 1.631868e+00 1.660109e+00 1.975772e+00 1.596325e+00 2.152380e+00 2.534003e-01 8.907571e-02 1.302859e-01 3.007368e-01 3.468640e-01 2.032621e-01 2.841210e-01 2.635718e-01 3.117044e-01 2.514711e-01 3.736041e-01 2.672309e-01 3.488466e-01 3.342635e-02
<GCONST> 9.006039e+01
<TRANSP> 6
 0.000000e+00 1.000000e+00 0.000000e+00 0.000000e+00 0.000000e+00 0.000000e+00
 0.000000e+00 9.186026e-01 8.139743e-02 0.000000e+00 0.000000e+00 0.000000e+00
 0.000000e+00 0.000000e+00 9.091483e-01 9.085169e-02 0.000000e+00 0.000000e+00
 0.000000e+00 0.000000e+00 0.000000e+00 9.121825e-01 8.781755e-02 0.000000e+00
 0.000000e+00 0.000000e+00 0.000000e+00 0.000000e+00 9.124376e-01 8.756242e-02
 0.000000e+00 0.000000e+00 0.000000e+00 0.000000e+00 0.000000e+00 0.000000e+00
<ENDHMM>
