~o
<STREAMINFO> 1 39
<VECSIZE> 39<NULLD><MFCC_D_A_0><DIAGC>
~h "two"
<BEGINHMM>
<NUMSTATES> 6
<STATE> 2
<MEAN> 39
 -2.023983e+01 -8.883652e+00 7.731233e-01 -8.156816e+00 2.104123e+00 -1.010742e+01 2.197852e-01 -1.204999e+01 -4.211697e+00 2.949772e-01 4.798684e+00 -7.703299e+00 8.995030e+01 7.405103e-01 6.409265e-01 -3.284365e-01 -2.686578e-01 5.967939e-01 -6.610953e-01 9.078331e-02 -1.084397e+00 -1.186263e+00 -3.518114e-01 -4.720981e-02 1.343883e-01 1.204693e+00 4.084111e-01 4.524834e-01 -5.193963e-02 1.914223e-01 -1.138684e-01 -7.118969e-02 2.854201e-02 7.490853e-02 -3.232210e-01 -3.263679e-01 -4.572274e-01 1.696229e-01 -6.227097e-01
<VARIANCE> 39
 2.312397e+01 1.460939e+01 1.712323e+01 1.010700e+01 2.135963e+01 2.435937e+01 1.570794e+01 2.322063e+01 1.902106e+01 1.706220e+01 2.051050e+01 1.455380e+01 4.724992e+01 3.879370e+00 3.949943e+00 1.781305e+00 1.598036e+00 1.933869e+00 5.232862e+00 1.749012e+00 2.035093e+00 3.797798e+00 3.167968e+00 5.778676e+00 2.240713e+00 1.226261e+01 3.555200e-01 3.610418e-01 3.873793e-01 2.712865e-01 5.474087e-01 1.078275e+00 3.661238e-01 3.808901e-01 5.135196e-01 5.112482e-01 5.970217e-01 3.757408e-01 1.679284e+00
<GCONST> 1.159415e+02
<STATE> 3
<MEAN> 39
 -7.195138e+00 5.079034e+00 3.042774e-01 -1.039779e+01 -3.248252e+00 -2.004866e+01 3.893585e+00 -1.580696e+01 -1.819079e+01 -1.090051e+01 -7.318644e+00 -5.068591e+00 9.086630e+01 4.275303e-01 6.166003e-01 4.501475e-01 -5.756938e-01 -5.071017e-01 -1.987061e-01 6.086483e-01 5.148839e-01 -1.373439e-01 -9.396299e-01 -5.890502e-01 -1.951011e-01 -3.266085e-03 -1.546152e-01 -1.756671e-01 1.444362e-01 -1.857442e-01 1.138780e-01 7.989489e-02 1.312866e-01 1.237156e-01 2.951554e-01 -4.630238e-03 2.364274e-01 -8.238341e-02 -1.461784e-01
<VARIANCE> 39
 4.120851e+00 1.318921e+01 1.350090e+01 1.587399e+01 2.040070e+01 4.317044e+01 4.948750e+01 2.976734e+01 2.835944e+01 3.086905e+01 1.586085e+01 2.069935e+01 1.047966e+01 8.400144e-01 1.351495e+00 1.379681e+00 1.939421e+00 2.114942e+00 5.514278e+00 4.577580e+00 3.183083e+00 3.859891e+00 2.841290e+00 2.076512e+00 1.573195e+00 1.287004e+00 1.517742e-01 2.647682e-01 2.558582e-01 4.386302e-01 3.018899e-01 1.126462e+00 8.460022e-01 6.550487e-01 5.893349e-01 5.566313e-01 4.507938e-01 3.039134e-01 2.079664e-01
<GCONST> 1.083685e+02
<STATE> 4
<MEAN> 39
 -7.161068e+00 8.888679e+00 6.963267e+00 -1.838513e+01 6.293742e-02 -1.844020e+01 8.681315e+00 -5.470852e+00 -1.140687e+01 -1.435956e+01 -9.647026e+00 -8.911171e+00 7.827400e+01 -1.964049e-02 -4.342703e-01 -3.502176e-01 -4.135672e-02 9.674103e-02 9.868082e-01 -6.666517e-01 7.846888e-01 6.351549e-01 9.330169e-01 3.331175e-01 2.269204e-01 -1.468788e+00 -2.576764e-02 -1.413293e-01 -2.178678e-01 3.445330e-01 -1.122438e-01 2.799220e-01 -2.660722e-01 1.734076e-02 7.989833e-02 2.664331e-01 1.073647e-01 1.871870e-01 -5.894932e-03
<VARIANCE> 39
 8.229057e+00 3.392762e+01 2.426513e+01 2.871987e+01 3.035398e+01 5.424253e+01 5.204410e+01 2.074234e+01 1.822939e+01 7.517902e+01 2.395274e+01 3.460591e+01 4.658428e+01 1.155300e+00 4.446372e+00 4.402665e+00 5.147052e+00 4.165370e+00 7.243596e+00 5.918191e+00 2.177047e+00 1.973871e+00 5.822668e+00 2.513425e+00 4.270669e+00 1.720107e+00 2.354337e-01 7.854658e-01 8.219734e-01 1.146289e+00 6.532187e-01 1.089343e+00 1.120620e+00 4.813103e-01 3.416770e-01 1.042940e+00 3.688300e-01 7.130483e-01 3.725394e-01
<GCONST> 1.260484e+02
<STATE> 5
<MEAN> 39
 -6.321701e+00 2.668330e+00 2.946265e+00 -3.741483e+00 -1.819624e+00 -1.827087e+00 4.649200e-01 4.899810e-01 -2.894847e+00 -2.680480e+00 -3.181473e+00 -2.939470e+00 6.477319e+01 -4.287714e-01 -2.150737e-01 3.408113e-01 1.723317e+00 4.594210e-01 7.183458e-01 -1.203401e-01 -8.074933e-02 4.867866e-01 3.058673e-01 2.432061e-01 1.420939e-01 -7.172807e-01 -8.262792e-02 5.303999e-02 8.725064e-02 -1.956190e-01 2.101849e-01 -2.241580e-01 8.607446e-02 -1.103902e-01 -1.269198e-01 -1.109491e-01 -9.842155e-02 -1.043021e-01 9.763642e-02
<VARIANCE> 39
 1.130607e+01 1.645007e+01 2.730276e+01 5.018031e+01 2.228232e+01 1.518026e+01 1.297424e+01 1.455583e+01 1.033537e+01 8.839213e+00 9.947865e+00 8.120848e+00 5.260435e+00 1.091063e+00 1.248120e+00 1.901001e+00 3.899302e+00 2.185529e+00 1.382931e+00 1.304743e+00 1.720709e+00 1.253454e+00 1.288459e+00 1.297773e+00 1.002735e+00 8.711680e-01 1.748416e-01 2.934512e-01 4.527238e-01 5.242260e-01 5.151135e-01 3.577203e-01 2.938728e-01 3.744927e-01 2.709381e-01 3.005953e-01 3.271629e-01 2.647591e-01 1.610190e-01
<GCONST> 9.550189e+01
<TRANSP> 6
 0.000000e+00 1.000000e+00 0.000000e+00 0.000000e+00 0.000000e+00 0.000000e+00
 0.000000e+00 8.946604e-01 1.053397e-01 0.000000e+00 0.000000e+00 0.000000e+00
 0.000000e+00 0.000000e+00 9.277985e-01 7.220152e-02 0.000000e+00 0.000000e+00
 0.000000e+00 0.000000e+00 0.000000e+00 9.240637e-01 7.593636e-02 0.000000e+00
 0.000000e+00 0.000000e+00 0.000000e+00 0.000000e+00 8.967782e-01 1.032219e-01
 0.000000e+00 0.000000e+00 0.000000e+00 0.000000e+00 0.000000e+00 0.000000e+00
<ENDHMM>
