~o
<STREAMINFO> 1 39
<VECSIZE> 39<NULLD><MFCC_D_A_0><DIAGC>
~h "eight"
<BEGINHMM>
<NUMSTATES> 6
<STATE> 2
<MEAN> 39
 -7.488242e+00 -4.498286e+00 1.990954e+00 -7.328268e+00 3.685175e+00 -3.448510e+01 -2.412529e+00 -1.104686e+01 -1.777959e+00 -1.100175e+01 2.076417e+00 -6.995622e+00 9.055786e+01 -9.086687e-02 7.806301e-01 1.194989e+00 9.545257e-02 7.679958e-01 -4.501175e-01 -4.748678e-01 9.761906e-02 -1.143551e-01 -2.045836e+00 -3.312269e-01 -1.890414e-01 3.350119e-01 -1.679822e-01 9.285988e-02 5.016718e-02 7.851959e-02 4.091027e-02 4.842656e-01 2.437044e-02 1.707777e-01 -7.221225e-02 -3.287661e-02 -1.070933e-01 7.635739e-02 -5.669949e-01
<VARIANCE> 39
 8.738871e+00 2.864185e+01 5.290081e+01 1.265613e+01 3.103000e+01 3.900980e+01 3.873505e+01 2.162814e+01 2.240441e+01 1.213148e+02 1.967021e+01 2.648419e+01 3.408174e+01 1.270276e+00 2.141089e+00 1.772065e+00 1.352797e+00 2.285063e+00 5.318697e+00 2.726880e+00 1.870658e+00 2.041924e+00 2.513374e+00 1.764787e+00 1.965252e+00 7.570777e+00 1.338533e-01 5.787239e-01 3.807582e-01 2.136346e-01 4.988726e-01 1.585027e+00 5.954787e-01 3.141659e-01 3.818897e-01 9.005985e-01 4.359629e-01 3.377959e-01 5.956382e-01
<GCONST> 1.156544e+02
<STATE> 3
<MEAN> 39
 -1.338015e+01 -7.465634e-01 5.007644e+00 -5.470774e+00 4.867189e+00 -1.651281e+01 -3.263211e+00 -3.483800e+00 -3.259609e+00 -1.042274e+01 -2.350865e+00 -3.330210e+00 6.771353e+01 -5.149080e-02 -2.599776e-01 -1.090996e+00 -4.272635e-02 -1.018057e+00 2.300874e+00 1.098627e-01 3.763686e-01 6.724270e-02 1.755459e+00 -1.649014e-01 5.130299e-01 -1.518111e+00 1.338361e-02 -1.284664e-01 -2.777896e-02 -1.256129e-01 -1.851912e-02 -1.347396e-01 2.316199e-02 -5.265551e-02 8.208500e-02 -1.354134e-02 9.578146e-02 -4.904703e-02 3.622866e-01
<VARIANCE> 39
 7.635380e+00 9.307027e+00 4.008746e+01 2.114733e+01 7.481831e+01 1.242599e+02 1.787010e+01 1.690678e+01 2.140541e+01 1.223431e+02 3.371355e+01 2.873125e+01 4.492464e+01 9.898229e-01 8.937833e-01 2.599944e+00 2.141933e+00 4.464580e+00 2.325809e+00 2.329262e+00 1.884189e+00 2.009310e+00 5.399253e+00 2.604137e+00 2.200365e+00 1.577939e+00 2.387858e-01 1.709846e-01 7.164805e-01 5.615954e-01 9.004153e-01 5.450822e-01 4.792419e-01 3.446966e-01 4.049601e-01 1.193148e+00 4.541570e-01 4.133373e-01 3.791452e-01
<GCONST> 1.160917e+02
<STATE> 4
<MEAN> 39
 -2.146694e+01 -7.809797e+00 2.118734e+00 -1.401329e+01 3.680622e+00 -7.501132e+00 -3.154381e-01 -5.363756e+00 1.800366e+00 -5.760173e+00 1.297927e+00 -4.783243e+00 7.927005e+01 -2.182872e+00 -1.048094e+00 1.135031e+00 -2.124846e+00 1.231235e+00 -1.142806e+00 4.568229e-01 -1.309121e+00 1.511923e+00 -8.609013e-01 9.480244e-01 -1.045942e+00 5.347688e+00 2.791792e-01 2.240156e-01 1.760435e-01 4.785752e-01 -3.166820e-01 1.420944e-02 -6.344470e-02 -2.200698e-01 2.054738e-02 9.385473e-02 -9.177292e-02 4.882638e-02 -9.742452e-02
<VARIANCE> 39
 5.126738e+01 2.562963e+01 3.197424e+01 5.522632e+01 3.993075e+01 2.203659e+01 2.050471e+01 2.261802e+01 2.578246e+01 1.790533e+01 1.108026e+01 2.037022e+01 2.162588e+02 3.338559e+00 2.805046e+00 3.432319e+00 6.523583e+00 4.937719e+00 1.640087e+00 2.922338e+00 1.689572e+00 1.467711e+00 1.832163e+00 1.086936e+00 1.733617e+00 9.736194e+00 1.213584e+00 6.303821e-01 7.696187e-01 1.598780e+00 1.076108e+00 5.059328e-01 5.373257e-01 3.474520e-01 4.861562e-01 4.903843e-01 2.368690e-01 4.255722e-01 3.906474e+00
<GCONST> 1.244044e+02
<STATE> 5
<MEAN> 39
 -1.564364e+01 -8.252460e+00 8.060962e+00 -9.806955e+00 1.562097e+00 -8.432934e+00 2.008247e+00 -1.052339e+01 3.801938e+00 -4.266364e+00 4.019195e+00 -7.459667e+00 8.402143e+01 1.013744e+00 3.721226e-01 -1.924065e-01 8.676682e-01 -4.040234e-01 5.512806e-01 -1.030206e-01 4.487868e-01 -5.164785e-01 5.112870e-01 -2.503133e-01 2.446397e-01 -1.885553e+00 -6.102645e-02 1.088672e-03 -1.022755e-01 -3.837500e-02 6.661446e-02 9.154151e-02 3.667582e-03 1.486391e-01 -3.298583e-02 -2.527740e-02 -7.141259e-02 4.007064e-02 -1.830849e-01
<VARIANCE> 39
 4.073465e+01 1.572748e+01 1.931700e+01 2.218293e+01 1.289511e+01 1.849331e+01 2.065750e+01 2.692140e+01 2.524980e+01 2.080292e+01 1.420704e+01 1.467182e+01 1.358291e+02 1.211057e+00 1.311678e+00 1.811292e+00 1.210031e+00 1.241707e+00 1.981081e+00 2.227158e+00 1.926162e+00 1.618030e+00 1.382045e+00 1.573732e+00 1.536602e+00 2.053913e+00 1.992348e-01 2.677720e-01 2.716258e-01 2.751780e-01 2.476006e-01 4.191986e-01 3.671068e-01 2.857508e-01 2.873873e-01 2.746407e-01 2.861836e-01 2.558897e-01 2.859058e-01
<GCONST> 1.020716e+02
<TRANSP> 6
 0.000000e+00 1.000000e+00 0.000000e+00 0.000000e+00 0.000000e+00 0.000000e+00
 0.000000e+00 9.380186e-01 6.198139e-02 0.000000e+00 0.000000e+00 0.000000e+00
 0.000000e+00 0.000000e+00 9.304762e-01 6.952383e-02 0.000000e+00 0.000000e+00
 0.000000e+00 0.000000e+00 0.000000e+00 8.446325e-01 1.553675e-01 0.000000e+00
 0.000000e+00 0.000000e+00 0.000000e+00 0.000000e+00 9.380654e-01 6.193459e-02
 0.000000e+00 0.000000e+00 0.000000e+00 0.000000e+00 0.000000e+00 0.000000e+00
<ENDHMM>
