~o
<STREAMINFO> 1 39
<VECSIZE> 39<NULLD><MFCC_D_A_0><DIAGC>
~h "four"
<BEGINHMM>
<NUMSTATES> 6
<STATE> 2
<MEAN> 39
 -1.675862e+01 -3.818281e+00 -2.808038e+00 -1.465607e+01 4.292755e+00 -1.260946e+01 6.922113e-01 -5.248773e+00 -3.301703e+00 -6.144403e+00 7.830663e-01 -7.882966e+00 8.130638e+01 7.014134e-01 3.743074e-01 1.948877e-01 -6.376765e-01 -7.924568e-01 -1.041057e+00 -4.193772e-01 -4.523937e-01 -1.408054e-01 -2.290447e-01 -2.249448e-01 -1.602745e-01 1.052543e+00 5.162557e-02 -1.222794e-02 -3.952587e-02 1.159291e-01 -1.265995e-01 7.819121e-02 -1.036558e-01 -4.663131e-02 -5.162434e-03 5.505216e-02 1.129733e-02 1.415119e-01 -4.224313e-02
<VARIANCE> 39
 8.372901e+01 5.135960e+01 3.453115e+01 4.163056e+01 5.840282e+01 5.957463e+01 3.440730e+01 2.143540e+01 2.224895e+01 1.784151e+01 2.511673e+01 1.917191e+01 5.740168e+01 5.534568e+00 4.853922e+00 2.834412e+00 2.535506e+00 3.982852e+00 3.862144e+00 3.621775e+00 2.259002e+00 2.779398e+00 1.914068e+00 2.677349e+00 1.836483e+00 2.274303e+00 5.960289e-01 8.295366e-01 4.366136e-01 4.982896e-01 7.927420e-01 9.173574e-01 6.765242e-01 4.856967e-01 5.840669e-01 3.772888e-01 5.387993e-01 3.452853e-01 2.263644e-01
<GCONST> 1.241261e+02
<STATE> 3
<MEAN> 39
 -3.895541e-01 1.752733e+00 -7.299656e-01 -1.554247e+01 -7.756922e+00 -1.977698e+01 -9.101879e+00 -7.297855e+00 -2.211557e+00 -5.431607e+00 -6.281934e-01 -5.219604e+00 8.921543e+01 8.224431e-02 -4.246256e-01 -5.556921e-01 -4.079326e-02 -3.039814e-02 2.250770e-01 7.351872e-02 4.403423e-01 8.705735e-01 -3.065138e-01 1.541480e-01 2.130660e-01 1.466908e-01 6.053236e-03 6.256106e-02 -3.862733e-02 -1.453858e-01 8.284286e-02 9.253246e-03 1.389148e-01 -5.492484e-03 5.020398e-02 -1.130556e-01 -7.737035e-02 -9.115583e-02 -9.840906e-02
<VARIANCE> 39
 2.336872e+00 2.039110e+01 4.198313e+01 1.519645e+01 1.477711e+01 3.498512e+01 2.535297e+01 4.495054e+01 4.611558e+01 2.501130e+01 1.659219e+01 1.894531e+01 1.028612e+01 1.488906e-01 6.481815e-01 8.592880e-01 1.373469e+00 1.220599e+00 2.075472e+00 2.260711e+00 1.695323e+00 2.270852e+00 2.750003e+00 1.108376e+00 1.221689e+00 3.757381e-01 3.713107e-02 1.139598e-01 1.157558e-01 1.656759e-01 2.245530e-01 3.275404e-01 2.897606e-01 3.140227e-01 3.645151e-01 3.664797e-01 1.802958e-01 2.155703e-01 4.683534e-02
<GCONST> 8.892661e+01
<STATE> 4
<MEAN> 39
 2.517124e+00 2.664109e+00 -1.440091e+01 -1.991323e+01 3.857514e+00 -9.768823e+00 -1.574859e+00 -1.527046e+01 -3.547194e+00 -9.610134e+00 -3.076336e-01 -1.140854e+00 7.820461e+01 -1.644510e-01 -7.376426e-02 -2.948394e-01 3.151930e-01 5.513071e-01 1.208165e+00 8.863436e-02 -7.106464e-01 -1.109236e+00 4.736457e-01 2.300094e-01 2.226621e-01 -1.139436e+00 -9.501112e-02 -1.251612e-01 6.122553e-02 9.598441e-02 -1.116234e-01 3.065134e-02 -5.080815e-02 1.755877e-01 3.696176e-02 2.052419e-01 9.092196e-02 2.192107e-02 -1.356621e-02
<VARIANCE> 39
 2.257597e+01 2.284653e+01 3.180032e+01 3.111583e+01 7.360894e+01 6.532990e+01 2.741920e+01 5.818647e+01 1.283142e+02 3.859460e+01 3.040487e+01 2.127697e+01 5.053872e+01 2.893094e+00 2.084918e+00 3.114187e+00 2.687399e+00 4.965662e+00 2.392523e+00 3.145613e+00 3.923759e+00 3.602494e+00 3.002511e+00 1.724182e+00 1.657270e+00 1.345462e+00 5.036097e-01 2.746062e-01 4.073572e-01 3.905019e-01 7.540175e-01 3.994190e-01 5.976717e-01 4.986373e-01 7.488682e-01 5.752783e-01 3.277258e-01 2.928572e-01 2.447759e-01
<GCONST> 1.213924e+02
<STATE> 5
<MEAN> 39
 -8.491882e+00 -5.545949e+00 -8.955262e+00 -9.238113e+00 1.775331e+00 3.983261e+00 -2.815377e+00 -9.398752e+00 -8.249093e+00 1.083608e+00 4.880263e+00 1.404024e+00 6.369986e+01 -1.041477e+00 -3.644812e-01 8.102538e-01 8.568004e-01 -1.359724e-01 -1.483585e-01 2.283120e-01 1.061687e+00 7.186832e-01 2.472005e-01 -2.011556e-01 8.164671e-02 -6.477299e-01 7.477034e-02 1.734442e-01 9.754927e-02 1.213042e-02 5.086666e-02 -2.267061e-01 5.789654e-04 -1.383886e-01 -5.600088e-02 -1.946298e-01 -1.747656e-01 -7.485304e-02 7.326034e-02
<VARIANCE> 39
 1.531124e+01 7.023496e+00 4.017013e+01 3.048030e+01 1.392446e+01 1.781014e+01 1.397454e+01 2.191629e+01 1.597885e+01 2.534404e+01 3.233855e+01 1.496750e+01 6.298679e+00 2.823635e-01 5.404150e-01 1.200744e+00 1.255422e+00 1.223413e+00 1.381672e+00 1.168735e+00 1.478428e+00 1.339188e+00 2.341597e+00 2.375459e+00 1.220785e+00 1.088365e-01 6.638842e-02 5.963072e-02 1.653101e-01 2.449954e-01 2.628057e-01 2.524962e-01 2.423186e-01 2.950732e-01 1.884454e-01 3.323251e-01 3.121832e-01 1.765960e-01 2.795625e-02
<GCONST> 8.498660e+01
<TRANSP> 6
 0.000000e+00 1.000000e+00 0.000000e+00 0.000000e+00 0.000000e+00 0.000000e+00
 0.000000e+00 9.494830e-01 5.051697e-02 0.000000e+00 0.000000e+00 0.000000e+00
 0.000000e+00 0.000000e+00 9.430688e-01 5.693120e-02 0.000000e+00 0.000000e+00
 0.000000e+00 0.000000e+00 0.000000e+00 9.460823e-01 5.391771e-02 0.000000e+00
 0.000000e+00 0.000000e+00 0.000000e+00 0.000000e+00 9.055948e-01 9.440515e-02
 0.000000e+00 0.000000e+00 0.000000e+00 0.000000e+00 0.000000e+00 0.000000e+00
<ENDHMM>
