~o
<STREAMINFO> 1 39
<VECSIZE> 39<NULLD><MFCC_D_A_0><DIAGC>
~h "five"
<BEGINHMM>
<NUMSTATES> 6
<STATE> 2
<MEAN> 39
 -1.959466e+01 -7.709629e+00 -5.313344e+00 -1.283688e+01 3.335758e+00 -9.712344e+00 2.052579e+00 -7.637624e+00 -5.031036e-01 -7.710462e+00 3.292983e+00 -5.474252e+00 8.271351e+01 6.687351e-01 2.178814e-01 -1.988990e-01 -4.207342e-01 -5.288267e-01 -5.688666e-01 1.200351e-01 3.283631e-02 -1.508788e-01 -6.241304e-01 -3.042406e-01 1.573426e-01 1.212430e+00 7.769406e-02 2.550646e-02 7.512997e-03 2.789407e-02 -5.766861e-02 1.173920e-02 -5.041287e-02 9.783961e-02 3.546681e-02 -9.783749e-03 -7.818428e-03 4.466632e-02 -5.507452e-02
<VARIANCE> 39
 8.355387e+01 3.363379e+01 1.637034e+01 1.646926e+01 3.479313e+01 2.994760e+01 2.293517e+01 1.929421e+01 2.568854e+01 3.177812e+01 2.213048e+01 1.597549e+01 5.655753e+01 6.255689e+00 3.308827e+00 1.928208e+00 1.026165e+00 2.933423e+00 2.492337e+00 2.454057e+00 2.016231e+00 2.691570e+00 2.617446e+00 2.776544e+00 1.459168e+00 1.526550e+00 7.326855e-01 6.705062e-01 3.568415e-01 2.210625e-01 4.951932e-01 5.589627e-01 4.711615e-01 4.061148e-01 5.497282e-01 4.735242e-01 6.008849e-01 2.612441e-01 2.372845e-01
<GCONST> 1.151152e+02
<STATE> 3
<MEAN> 39
 -3.596364e+00 -4.292624e+00 -9.870391e+00 -1.683522e+01 -1.869426e+00 -1.198745e+01 1.991678e+00 -2.940781e+00 -1.915971e-01 -1.542445e+01 5.128110e-01 1.159968e-02 9.331001e+01 -2.505826e-01 -2.588215e-01 1.085540e-01 1.889845e-01 7.838653e-01 -4.036846e-01 -3.740666e-01 5.223093e-02 7.109268e-01 1.990143e-01 4.800360e-01 -1.801597e-01 4.819471e-02 -7.573079e-02 5.566230e-02 1.901773e-01 7.949547e-02 8.680401e-02 -2.191514e-01 -7.722357e-02 -6.209082e-02 1.089878e-02 4.552198e-02 -1.726492e-02 -9.702114e-02 -1.066495e-01
<VARIANCE> 39
 7.471078e+00 1.252467e+01 9.627787e+00 1.592833e+01 3.354593e+01 3.965913e+01 2.236788e+01 1.870381e+01 2.529936e+01 4.337763e+01 2.433131e+01 1.435488e+01 7.260109e+00 3.319850e-01 6.467797e-01 1.020388e+00 1.510357e+00 1.606218e+00 4.679188e+00 1.882615e+00 1.470706e+00 1.990076e+00 1.992298e+00 1.178249e+00 1.274407e+00 2.960314e-01 6.529465e-02 1.281570e-01 1.125060e-01 2.991582e-01 3.423348e-01 4.100206e-01 2.744371e-01 2.480245e-01 3.850414e-01 4.195053e-01 2.208386e-01 1.975856e-01 6.820313e-02
<GCONST> 9.134756e+01
<STATE> 4
<MEAN> 39
 -1.091922e+01 -3.963615e+00 5.441591e+00 -6.760910e+00 1.017188e+01 -2.966277e+01 -8.464991e+00 -6.156700e+00 2.537937e+00 -1.397970e+01 -2.939056e-01 -6.317520e+00 8.300143e+01 -4.794798e-01 -1.042619e-01 3.644183e-01 4.016339e-01 2.171726e-01 7.672037e-01 -4.281849e-02 -2.163561e-01 -5.602561e-01 3.063885e-01 -5.062419e-01 -1.860860e-01 -1.231348e+00 -1.554244e-01 3.200615e-03 -2.236047e-01 -1.499754e-01 -1.400976e-01 3.727807e-01 2.668106e-01 -2.553028e-02 -5.429605e-02 -2.490037e-02 1.129049e-01 1.046719e-01 9.969466e-02
<VARIANCE> 39
 1.394554e+01 2.965822e+01 4.768834e+01 3.183467e+01 3.396793e+01 8.631138e+01 2.171829e+01 1.956098e+01 4.817125e+01 5.257795e+01 5.601010e+01 2.748531e+01 5.677135e+01 1.807495e+00 2.348245e+00 5.238542e+00 2.228816e+00 2.796957e+00 1.016805e+01 3.513551e+00 1.494720e+00 2.776851e+00 5.829731e+00 3.259330e+00 2.095944e+00 1.106050e+00 4.680871e-01 4.228248e-01 5.411751e-01 2.834416e-01 5.244564e-01 1.145479e+00 6.000320e-01 3.079974e-01 6.643493e-01 1.154587e+00 6.163092e-01 4.693654e-01 2.413019e-01
<GCONST> 1.233738e+02
<STATE> 5
<MEAN> 39
 -2.364416e+01 -6.306694e+00 -1.587596e+00 -1.041139e+01 7.699961e+00 -7.212793e+00 9.302167e-01 -7.570554e+00 -1.647129e+00 -7.586879e+00 1.816020e+00 -5.249471e+00 7.438602e+01 3.553170e-02 9.417415e-02 6.462921e-03 1.750683e-01 -4.479091e-01 3.881617e-01 1.168140e-01 2.983288e-01 -9.247290e-02 2.473751e-01 -4.754399e-02 1.987900e-01 -5.712335e-01 1.693937e-01 -6.474633e-03 4.920802e-02 1.162717e-01 1.738522e-03 -6.847847e-02 -1.296207e-01 4.801495e-02 -1.083212e-02 1.525933e-02 -1.104965e-01 9.424672e-03 -7.056487e-02
<VARIANCE> 39
 5.272524e+01 2.544560e+01 1.346077e+01 3.111439e+01 3.004461e+01 3.632800e+01 2.019912e+01 2.667593e+01 2.352006e+01 2.017438e+01 2.626955e+01 1.758293e+01 5.822046e+01 3.769385e+00 1.548335e+00 1.290057e+00 2.329621e+00 2.354644e+00 1.945584e+00 1.732581e+00 1.634849e+00 1.536009e+00 1.913720e+00 2.327810e+00 1.376741e+00 2.355422e+00 2.509942e-01 2.044347e-01 2.135568e-01 3.315415e-01 3.860488e-01 3.961155e-01 2.661240e-01 2.739974e-01 2.929662e-01 4.014195e-01 3.447399e-01 2.369707e-01 2.273237e-01
<GCONST> 1.068494e+02
<TRANSP> 6
 0.000000e+00 1.000000e+00 0.000000e+00 0.000000e+00 0.000000e+00 0.000000e+00
 0.000000e+00 9.514199e-01 4.858008e-02 0.000000e+00 0.000000e+00 0.000000e+00
 0.000000e+00 0.000000e+00 9.428275e-01 5.717249e-02 0.000000e+00 0.000000e+00
 0.000000e+00 0.000000e+00 0.000000e+00 9.361667e-01 6.383330e-02 0.000000e+00
 0.000000e+00 0.000000e+00 0.000000e+00 0.000000e+00 9.538288e-01 4.617122e-02
 0.000000e+00 0.000000e+00 0.000000e+00 0.000000e+00 0.000000e+00 0.000000e+00
<ENDHMM>
