~o
<STREAMINFO> 1 39
<VECSIZE> 39<NULLD><MFCC_D_A_0><DIAGC>
~h "nine"
<BEGINHMM>
<NUMSTATES> 6
<STATE> 2
<MEAN> 39
 -3.250695e+00 6.732210e+00 5.822661e+00 -6.120787e+00 1.271910e+01 -1.571247e+01 3.187126e+00 -1.228000e+01 -1.553830e+01 -5.822734e+00 -5.405259e+00 -3.578206e+00 7.693819e+01 5.094947e-01 -3.680735e-01 -4.729534e-01 -1.834300e+00 -6.629583e-01 -1.524707e+00 1.196089e+00 -3.166997e-01 2.182244e-01 -5.324269e-01 1.509988e+00 7.126780e-02 2.780973e+00 -2.958080e-01 -4.306016e-01 -4.808320e-01 -2.224038e-01 -3.552459e-01 1.655443e-01 9.090376e-02 4.123676e-01 3.516466e-01 -2.785195e-02 2.750348e-01 1.353373e-01 7.129694e-03
<VARIANCE> 39
 9.106230e+00 1.906397e+01 1.106620e+01 4.888414e+01 5.084307e+01 3.067731e+01 4.261553e+01 2.639102e+01 3.809548e+01 1.569835e+01 5.015500e+01 2.000314e+01 6.884841e+01 2.860213e+00 4.321633e+00 3.040367e+00 2.428602e+00 7.999767e+00 3.730859e+00 3.016876e+00 3.905325e+00 5.759286e+00 1.295144e+00 4.896544e+00 2.131552e+00 2.268435e+00 3.066459e-01 5.519546e-01 2.970757e-01 4.818754e-01 1.280987e+00 9.052081e-01 6.242266e-01 5.362718e-01 8.453513e-01 2.412643e-01 8.660544e-01 4.513498e-01 5.809505e-01
<GCONST> 1.228530e+02
<STATE> 3
<MEAN> 39
 -4.088702e+00 -1.593019e+00 -7.229117e+00 -2.017672e+01 7.498776e+00 -1.873971e+01 1.025346e+01 -6.457734e+00 -2.001370e+00 -1.693076e+01 5.929559e+00 2.630379e+00 9.296954e+01 -6.351225e-02 -2.308261e-01 -2.011648e-01 -7.179174e-02 6.016191e-01 -1.313490e-02 -3.517272e-01 1.681079e-01 7.828729e-01 -4.292801e-01 3.441865e-01 -2.705671e-02 -2.833268e-02 -3.980044e-02 4.373396e-02 2.255372e-01 1.609070e-01 7.462709e-02 -9.209406e-02 -1.101159e-01 -7.037429e-02 1.327417e-02 8.116550e-02 -5.253524e-02 -1.580219e-01 -1.323870e-01
<VARIANCE> 39
 2.439096e+00 6.492999e+00 1.605276e+01 8.817054e+00 2.203630e+01 2.270810e+01 1.567866e+01 1.046810e+01 3.701947e+01 3.695010e+01 2.280979e+01 2.025823e+01 2.934519e+00 2.055627e-01 4.702279e-01 1.548389e+00 7.716123e-01 1.269478e+00 2.895598e+00 1.148612e+00 1.045028e+00 1.492681e+00 2.553188e+00 1.892845e+00 2.423478e+00 2.602262e-01 3.218655e-02 8.769270e-02 1.415484e-01 2.095530e-01 2.698543e-01 4.832436e-01 1.492636e-01 1.719621e-01 2.830851e-01 3.548248e-01 4.416419e-01 2.546149e-01 1.165896e-01
<GCONST> 8.426215e+01
<STATE> 4
<MEAN> 39
 -1.021313e+01 -3.592913e+00 7.788973e+00 -1.062281e+01 1.368573e+01 -3.397390e+01 -1.089399e+00 -5.302721e+00 6.874371e+00 -1.602085e+01 8.176803e+00 -7.647082e+00 8.745350e+01 -5.333426e-01 1.551365e-02 1.782970e+00 1.203742e+00 -1.758486e-01 -1.121695e+00 -3.942780e-01 3.430274e-01 -4.672398e-01 -1.155424e-01 -1.001607e+00 -2.629201e-01 -8.142002e-01 8.384924e-03 -2.660540e-02 -5.536971e-02 -3.296377e-02 -4.988465e-02 2.736026e-01 1.360369e-01 4.707282e-02 -2.101940e-01 -5.615161e-02 -8.794914e-02 1.882079e-01 -7.279893e-02
<VARIANCE> 39
 7.990915e+00 5.548874e+00 5.928731e+01 2.786302e+01 1.089098e+01 3.186441e+01 1.009525e+01 1.478978e+01 2.069572e+01 1.050033e+01 3.002583e+01 1.660256e+01 1.373293e+01 2.045064e-01 4.880680e-01 4.851679e-01 5.527989e-01 7.775834e-01 1.797652e+00 1.171999e+00 1.238030e+00 1.691680e+00 1.243185e+00 1.104500e+00 1.621375e+00 2.119852e-01 3.372621e-02 6.592151e-02 6.993787e-02 8.083276e-02 1.440675e-01 1.812875e-01 1.481454e-01 1.996645e-01 1.735718e-01 2.192354e-01 2.323700e-01 1.840589e-01 1.729420e-02
<GCONST> 7.588029e+01
<STATE> 5
<MEAN> 39
 -1.526592e+01 -8.113792e+00 1.586837e+01 -2.190906e+00 4.766069e+00 -2.672805e+01 -1.150245e+00 3.064352e+00 -6.597544e+00 -1.330597e+01 -4.163023e-01 -1.168851e+00 7.276257e+01 1.929271e-02 -1.907951e-01 -1.100337e+00 4.954608e-01 -1.218708e+00 1.986799e+00 -3.325379e-02 5.916569e-01 -5.607192e-01 8.057413e-01 -2.151524e-01 5.054581e-01 -1.387486e+00 6.857869e-02 9.286539e-02 -2.119201e-01 -8.954446e-02 -3.089817e-02 8.465890e-02 -2.592418e-02 -1.367510e-01 1.984590e-01 4.859148e-02 2.303959e-02 -6.273980e-02 1.582611e-02
<VARIANCE> 39
 1.441575e+01 2.576543e+01 4.536944e+01 1.788991e+01 6.076384e+01 9.087103e+01 2.145803e+01 3.542083e+01 4.076130e+01 3.061024e+01 1.697049e+01 3.347043e+01 3.175457e+01 8.538240e-01 1.312350e+00 2.233791e+00 1.281567e+00 2.693304e+00 1.863414e+00 1.829862e+00 2.398159e+00 2.895512e+00 2.004967e+00 1.405412e+00 1.783274e+00 4.067662e-01 1.205126e-01 1.407657e-01 1.998717e-01 3.085019e-01 5.565889e-01 3.033220e-01 3.909937e-01 3.922846e-01 4.049493e-01 3.760753e-01 2.568424e-01 3.164020e-01 4.821913e-02
<GCONST> 1.045680e+02
<TRANSP> 6
 0.000000e+00 1.000000e+00 0.000000e+00 0.000000e+00 0.000000e+00 0.000000e+00
 0.000000e+00 8.967020e-01 1.032980e-01 0.000000e+00 0.000000e+00 0.000000e+00
 0.000000e+00 0.000000e+00 9.470717e-01 5.292835e-02 0.000000e+00 0.000000e+00
 0.000000e+00 0.000000e+00 0.000000e+00 9.210556e-01 7.894438e-02 0.000000e+00
 0.000000e+00 0.000000e+00 0.000000e+00 0.000000e+00 9.222313e-01 7.776869e-02
 0.000000e+00 0.000000e+00 0.000000e+00 0.000000e+00 0.000000e+00 0.000000e+00
<ENDHMM>
