~o
<STREAMINFO> 1 39
<VECSIZE> 39<NULLD><MFCC_D_A_0><DIAGC>
~h "six"
<BEGINHMM>
<NUMSTATES> 6
<STATE> 2
<MEAN> 39
 -3.054905e+01 -5.335978e+00 3.619235e+00 -1.631819e+01 7.357447e+00 -1.063784e+01 2.792116e+00 -7.349728e+00 2.465155e+00 -2.808106e+00 1.640637e+00 -4.341028e+00 8.660559e+01 -2.036703e-01 2.127566e-01 9.176621e-02 -3.068939e-01 1.965826e-01 -8.017976e-01 -1.713574e-01 -3.636765e-01 -1.091679e-01 -3.172774e-01 -9.046588e-02 -2.780921e-01 1.116115e+00 3.912719e-01 1.237870e-01 -1.024740e-01 2.503060e-01 -1.259954e-01 -1.181614e-01 -2.156521e-01 -4.607538e-02 -1.556602e-01 -5.333405e-02 -9.725355e-02 -8.162995e-02 -1.588667e-01
<VARIANCE> 39
 6.336436e+01 1.676103e+01 2.726965e+01 1.814623e+01 2.492229e+01 2.059377e+01 2.415096e+01 2.367629e+01 1.982974e+01 1.809941e+01 1.133408e+01 1.067677e+01 4.404185e+01 7.659096e+00 1.526468e+00 2.820276e+00 2.617366e+00 2.105285e+00 2.454698e+00 3.883725e+00 2.924699e+00 2.438718e+00 1.874436e+00 1.593930e+00 1.549053e+00 2.169116e+00 6.004587e-01 3.086607e-01 5.498049e-01 4.046868e-01 3.464473e-01 4.663023e-01 3.991219e-01 4.755302e-01 3.228569e-01 3.727343e-01 2.472285e-01 2.634408e-01 1.942323e-01
<GCONST> 1.104706e+02
<STATE> 3
<MEAN> 39
 -1.106172e+01 -3.930704e+00 2.133458e+00 -2.333131e+00 2.297740e+00 -2.450650e+01 -8.427444e+00 -7.158724e+00 -6.261330e+00 -7.068313e+00 -3.039468e+00 -4.798794e+00 8.007700e+01 4.471143e-01 -7.784301e-02 -2.746382e-01 6.824484e-01 -3.119317e-01 5.463356e-01 -1.305150e-02 5.308619e-01 5.493758e-03 1.831280e-01 -2.443278e-02 3.143184e-01 -1.347185e+00 -3.499601e-01 -8.006597e-02 -5.703165e-02 -2.396481e-01 1.898656e-01 1.534996e-01 1.689200e-01 5.171634e-02 1.760237e-01 9.759591e-02 8.935235e-02 2.321477e-02 1.184515e-01
<VARIANCE> 39
 7.455630e+00 1.715602e+01 1.719384e+01 2.437229e+01 2.731411e+01 1.120807e+02 2.346029e+01 4.281655e+01 1.133177e+01 1.948366e+01 2.022042e+01 2.127538e+01 1.694316e+02 3.078440e+00 1.613095e+00 2.036402e+00 2.054087e+00 2.888578e+00 9.217978e+00 2.855740e+00 2.498659e+00 1.654941e+00 2.459420e+00 2.104361e+00 1.873286e+00 3.775447e+00 4.829846e-01 3.433030e-01 4.505922e-01 3.855396e-01 6.270987e-01 1.296310e+00 4.948799e-01 6.256958e-01 2.844668e-01 5.163223e-01 4.581222e-01 4.522335e-01 7.234346e-01
<GCONST> 1.177410e+02
<STATE> 4
<MEAN> 39
 -2.066959e+01 -8.579312e+00 -2.684488e+00 -1.190140e+01 9.954472e+00 -1.023936e+01 -7.011497e+00 -8.463223e+00 6.526610e-01 -9.968975e-01 6.030444e-01 -5.809288e+00 8.188007e+01 -2.727017e+00 -6.366410e-01 2.556161e-01 -2.325370e+00 1.573716e+00 -1.688887e-01 3.799544e-01 -8.321369e-01 1.240463e+00 3.452975e-01 8.816465e-01 -4.322805e-01 4.393878e+00 -1.322786e-01 1.344325e-01 3.656854e-01 2.581009e-01 -4.350996e-01 1.127638e-01 3.131382e-01 3.525220e-01 -2.247320e-02 -1.339775e-01 -9.357084e-02 1.314725e-01 -2.824497e-01
<VARIANCE> 39
 4.638909e+01 1.568190e+01 2.627735e+01 5.988608e+01 4.802604e+01 3.133194e+01 1.482954e+01 2.833956e+01 2.603809e+01 9.698294e+00 2.250541e+01 1.237883e+01 1.619701e+02 1.549351e+00 1.539265e+00 5.263360e+00 5.824421e+00 7.450679e+00 3.099079e+00 2.468221e+00 3.905922e+00 1.940283e+00 1.069848e+00 2.270755e+00 1.597537e+00 6.692561e+00 4.051524e-01 2.794427e-01 7.885108e-01 1.164108e+00 1.259123e+00 6.291656e-01 4.494474e-01 6.579598e-01 4.786293e-01 1.923095e-01 4.860839e-01 2.950040e-01 2.447431e+00
<GCONST> 1.217032e+02
<STATE> 5
<MEAN> 39
 -3.070263e+01 -5.366086e+00 3.842130e+00 -1.777635e+01 1.008126e+01 -9.394429e+00 2.452709e+00 -4.548064e+00 4.052313e-01 -1.988506e+00 2.224278e+00 -4.278645e+00 8.484169e+01 5.719227e-01 2.285209e-01 4.354496e-02 3.171430e-01 -1.835892e-01 1.098005e-01 3.468662e-02 2.761065e-01 -3.980103e-01 7.854172e-02 -2.648357e-01 1.227508e-01 -1.143244e+00 1.278218e-01 -2.378783e-02 -5.460809e-02 9.701842e-02 5.039697e-03 2.039905e-02 -1.082264e-01 -3.040439e-02 -2.684276e-02 -3.544052e-03 -2.193110e-02 -2.146480e-02 -6.345231e-02
<VARIANCE> 39
 5.703969e+01 7.675371e+00 1.185842e+01 2.286436e+01 1.303264e+01 1.442458e+01 2.205019e+01 1.521131e+01 1.842438e+01 9.921424e+00 1.323575e+01 8.902871e+00 1.177974e+02 2.197399e+00 7.407607e-01 1.134202e+00 1.646977e+00 1.248887e+00 1.092337e+00 1.695021e+00 1.472684e+00 1.140568e+00 1.249686e+00 1.172982e+00 8.183619e-01 1.579524e+00 2.598053e-01 1.483512e-01 2.172135e-01 2.189157e-01 2.456181e-01 2.290575e-01 2.481669e-01 2.729219e-01 2.659205e-01 2.656496e-01 2.095187e-01 1.593863e-01 1.623698e-01
<GCONST> 9.252872e+01
<TRANSP> 6
 0.000000e+00 1.000000e+00 0.000000e+00 0.000000e+00 0.000000e+00 0.000000e+00
 0.000000e+00 9.485649e-01 5.143512e-02 0.000000e+00 0.000000e+00 0.000000e+00
 0.000000e+00 0.000000e+00 9.520367e-01 4.796331e-02 0.000000e+00 0.000000e+00
 0.000000e+00 0.000000e+00 0.000000e+00 8.607455e-01 1.392545e-01 0.000000e+00
 0.000000e+00 0.000000e+00 0.000000e+00 0.000000e+00 9.639351e-01 3.606489e-02
 0.000000e+00 0.000000e+00 0.000000e+00 0.000000e+00 0.000000e+00 0.000000e+00
<ENDHMM>
