~o
<STREAMINFO> 1 39
<VECSIZE> 39<NULLD><MFCC_D_A_0><DIAGC>
~h "plus"
<BEGINHMM>
<NUMSTATES> 6
<STATE> 2
<MEAN> 39
 -1.125036e+01 -3.788008e+00 -4.824224e+00 -1.182680e+01 -5.948683e+00 -1.120606e+01 3.247326e+00 -1.500352e+01 -8.158246e+00 -9.800345e+00 2.220575e+00 -1.138326e+00 8.535870e+01 8.728042e-01 7.198974e-01 -9.200459e-01 -4.977157e-01 -6.057349e-01 -1.233132e+00 2.810647e-01 -7.659245e-01 -1.158005e+00 -7.097071e-01 -2.056010e-01 1.499471e-01 1.376495e+00 4.910237e-02 3.005821e-02 -6.095821e-02 7.704014e-02 1.284279e-01 1.283836e-02 -7.611481e-02 2.507693e-01 1.336027e-01 1.403987e-01 -1.380774e-01 -3.940790e-02 -4.047653e-01
<VARIANCE> 39
 3.125435e+01 5.942284e+01 1.973645e+01 1.303791e+01 2.130786e+01 5.752054e+01 2.562559e+01 2.654481e+01 5.446062e+01 3.743530e+01 3.174699e+01 1.549447e+01 1.446453e+01 2.433649e+00 5.846591e+00 1.879028e+00 1.618298e+00 1.592525e+00 3.942843e+00 1.600087e+00 2.350352e+00 4.221948e+00 3.173682e+00 3.539271e+00 1.633353e+00 2.588409e+00 5.295411e-01 1.233000e+00 3.578420e-01 3.023499e-01 2.728685e-01 7.542297e-01 3.063797e-01 4.490831e-01 1.037589e+00 6.207573e-01 7.854043e-01 3.169170e-01 6.014152e-01
<GCONST> 1.185546e+02
<STATE> 3
<MEAN> 39
 -3.833278e+00 -5.607641e+00 -1.700321e+01 -1.639695e+01 2.419337e-01 -1.521222e+01 2.770356e+00 -1.306723e+01 -1.160859e+00 -1.260961e+01 3.792050e+00 -2.317321e+00 8.852145e+01 6.155282e-02 -4.856867e-01 -1.097225e-01 -2.173527e-01 5.935304e-01 4.200857e-01 -8.690607e-02 1.131708e-01 1.292682e+00 -1.309603e-01 2.783228e-01 1.956695e-01 -6.080792e-01 -8.017520e-02 1.543459e-01 1.634865e-01 1.610227e-02 -4.322920e-02 5.082183e-02 -3.315936e-02 -8.671296e-02 -7.940712e-02 -3.271353e-02 -7.682167e-03 6.724765e-02 -1.344920e-01
<VARIANCE> 39
 4.101956e+00 1.816183e+01 2.204841e+01 1.320301e+01 2.527406e+01 2.526397e+01 1.759441e+01 1.705320e+01 9.119193e+01 2.817061e+01 3.308043e+01 2.807825e+01 1.558581e+01 4.081760e-01 1.249305e+00 2.134959e+00 6.240094e-01 1.284802e+00 1.414990e+00 1.224074e+00 1.787820e+00 2.179934e+00 1.873078e+00 1.944073e+00 1.755876e+00 6.809804e-01 7.651923e-02 1.596195e-01 2.367815e-01 1.322785e-01 2.572795e-01 2.579038e-01 2.511754e-01 2.661889e-01 3.958772e-01 3.739984e-01 3.093152e-01 2.645903e-01 7.650929e-02
<GCONST> 9.423098e+01
<STATE> 4
<MEAN> 39
 -1.256138e+01 -3.709599e+00 -4.754916e+00 -1.928110e+01 5.592061e+00 -9.175524e+00 -4.418238e-01 -1.479159e+01 4.013296e+00 -1.056445e+01 6.954373e+00 1.562710e+00 7.669746e+01 -2.873541e+00 -1.909419e-01 2.147681e+00 -2.440297e-01 3.371110e-03 8.308070e-01 -3.288798e-01 1.178524e+00 -9.029946e-01 1.643735e+00 -3.465076e-01 -6.829748e-01 4.436437e-01 -4.913446e-01 -2.576812e-01 -9.042409e-02 1.073213e-01 -1.128759e-01 1.361308e-02 2.163591e-01 4.226160e-01 4.082834e-02 1.334881e-01 -1.234542e-01 -1.893472e-01 5.476651e-01
<VARIANCE> 39
 4.499363e+01 2.121671e+01 4.234633e+01 1.223090e+01 1.747873e+01 2.852037e+01 2.627498e+01 2.830131e+01 5.764337e+01 6.087603e+01 2.176579e+01 3.520562e+01 2.257451e+01 4.708100e+00 4.217408e+00 1.567162e+00 1.164817e+00 2.839111e+00 2.123317e+00 3.013740e+00 4.571830e+00 3.506458e+00 6.520133e+00 1.718658e+00 2.751762e+00 5.596727e+00 5.435944e-01 7.277274e-01 3.618031e-01 2.112269e-01 6.008869e-01 4.494238e-01 5.433887e-01 5.346620e-01 6.875549e-01 1.357121e+00 3.237058e-01 4.673069e-01 5.074534e-01
<GCONST> 1.212680e+02
<STATE> 5
<MEAN> 39
 -3.304087e+01 -5.794995e+00 2.781482e+00 -1.675026e+01 7.942710e+00 -7.646445e+00 2.914015e+00 -4.263586e+00 1.240326e+00 -3.103404e+00 1.845443e+00 -4.163520e+00 8.351788e+01 3.310952e-01 2.151348e-01 5.035374e-02 3.094889e-01 1.165248e-01 -1.182215e-01 3.888864e-02 6.459489e-02 -1.696590e-01 -3.647059e-03 -2.441806e-01 4.797135e-02 -7.914661e-01 2.523619e-01 3.568496e-02 -6.512362e-02 2.673961e-02 1.046938e-03 -1.163143e-02 -5.966943e-02 -6.228586e-02 -6.656086e-02 -2.442331e-02 -5.629311e-03 5.547597e-02 -1.730348e-01
<VARIANCE> 39
 3.581896e+01 6.885275e+00 1.137212e+01 1.384040e+01 1.781644e+01 1.680874e+01 1.575496e+01 1.211931e+01 1.114151e+01 9.140511e+00 9.055457e+00 7.126112e+00 4.665725e+01 3.336073e+00 6.342351e-01 7.413601e-01 8.734252e-01 1.454431e+00 1.399814e+00 1.558271e+00 1.571157e+00 1.241788e+00 1.325648e+00 9.473175e-01 7.372317e-01 2.250741e+00 3.631521e-01 1.429810e-01 1.330173e-01 1.548389e-01 2.432654e-01 2.427508e-01 2.780644e-01 3.533920e-01 2.321429e-01 3.426822e-01 1.866668e-01 1.310637e-01 1.466444e-01
<GCONST> 8.855147e+01
<TRANSP> 6
 0.000000e+00 1.000000e+00 0.000000e+00 0.000000e+00 0.000000e+00 0.000000e+00
 0.000000e+00 9.129130e-01 8.708701e-02 0.000000e+00 0.000000e+00 0.000000e+00
 0.000000e+00 0.000000e+00 9.433367e-01 5.666333e-02 0.000000e+00 0.000000e+00
 0.000000e+00 0.000000e+00 0.000000e+00 8.695625e-01 1.304375e-01 0.000000e+00
 0.000000e+00 0.000000e+00 0.000000e+00 0.000000e+00 9.585105e-01 4.148945e-02
 0.000000e+00 0.000000e+00 0.000000e+00 0.000000e+00 0.000000e+00 0.000000e+00
<ENDHMM>
