~o
<STREAMINFO> 1 39
<VECSIZE> 39<NULLD><MFCC_D_A_0><DIAGC>
~h "eight"
<BEGINHMM>
<NUMSTATES> 6
<STATE> 2
<MEAN> 39
 -7.408322e+00 -4.577683e+00 1.765646e+00 -7.388189e+00 3.547627e+00 -3.445517e+01 -2.379317e+00 -1.109954e+01 -1.737793e+00 -1.070694e+01 2.082456e+00 -6.963633e+00 9.068853e+01 -7.385987e-02 7.741804e-01 1.211303e+00 9.233996e-02 7.579267e-01 -4.796356e-01 -4.973981e-01 7.493553e-02 -9.006256e-02 -2.061141e+00 -3.267257e-01 -1.822723e-01 3.774633e-01 -1.753557e-01 9.656399e-02 6.549285e-02 8.502745e-02 4.261770e-02 4.813839e-01 2.351207e-02 1.758949e-01 -7.585035e-02 -5.031145e-02 -1.007966e-01 7.558230e-02 -5.763548e-01
<VARIANCE> 39
 8.392680e+00 2.840349e+01 5.010463e+01 1.254873e+01 3.005876e+01 3.907417e+01 3.887614e+01 2.171071e+01 2.198365e+01 1.167876e+02 1.959975e+01 2.675724e+01 3.330561e+01 1.264996e+00 2.160084e+00 1.766165e+00 1.359537e+00 2.297553e+00 5.321583e+00 2.724535e+00 1.857347e+00 2.030374e+00 2.503566e+00 1.782565e+00 1.974052e+00 7.546731e+00 1.317130e-01 5.836920e-01 3.686944e-01 2.108343e-01 5.055186e-01 1.602162e+00 6.022046e-01 3.158087e-01 3.832498e-01 8.882096e-01 4.349049e-01 3.419413e-01 5.969992e-01
<GCONST> 1.154420e+02
<STATE> 3
<MEAN> 39
 -1.337328e+01 -7.144791e-01 5.213468e+00 -5.434341e+00 5.008304e+00 -1.684707e+01 -3.291956e+00 -3.556118e+00 -3.279172e+00 -1.076560e+01 -2.287519e+00 -3.433323e+00 6.794523e+01 -7.065514e-02 -2.373075e-01 -1.071606e+00 -3.764314e-02 -9.805364e-01 2.290938e+00 1.236666e-01 3.982870e-01 3.613802e-02 1.715026e+00 -1.744120e-01 4.977362e-01 -1.537362e+00 1.962922e-02 -1.303115e-01 -4.335653e-02 -1.291351e-01 -2.055475e-02 -1.208806e-01 2.456563e-02 -5.330969e-02 8.344125e-02 5.449619e-03 8.551076e-02 -4.538497e-02 3.570540e-01
<VARIANCE> 39
 7.562206e+00 9.427115e+00 4.188773e+01 2.096125e+01 7.480815e+01 1.290487e+02 1.798734e+01 1.689378e+01 2.180637e+01 1.274277e+02 3.385687e+01 2.881163e+01 4.738288e+01 1.001595e+00 9.242344e-01 2.595695e+00 2.115616e+00 4.506258e+00 2.313208e+00 2.309841e+00 1.884819e+00 2.030607e+00 5.458728e+00 2.573142e+00 2.197690e+00 1.576584e+00 2.362093e-01 1.691725e-01 7.220113e-01 5.573804e-01 8.866457e-01 5.529575e-01 4.742311e-01 3.396245e-01 4.025976e-01 1.201864e+00 4.587871e-01 4.080258e-01 3.760723e-01
<GCONST> 1.162704e+02
<STATE> 4
<MEAN> 39
 -2.185276e+01 -8.035444e+00 2.492047e+00 -1.428874e+01 3.660198e+00 -7.809245e+00 -4.657600e-01 -6.059610e+00 2.049748e+00 -5.901096e+00 1.621565e+00 -4.903480e+00 8.070616e+01 -1.862004e+00 -9.213027e-01 1.083436e+00 -1.739495e+00 9.748340e-01 -1.004687e+00 4.755640e-01 -1.333241e+00 1.442873e+00 -7.078121e-01 8.753827e-01 -9.295890e-01 4.929883e+00 3.384176e-01 2.322379e-01 1.709024e-01 4.727532e-01 -2.870171e-01 3.584500e-02 -2.358038e-02 -1.644472e-01 -7.867513e-04 9.607783e-02 -1.153742e-01 2.982007e-02 -2.023633e-01
<VARIANCE> 39
 4.870168e+01 2.433834e+01 3.189187e+01 5.289841e+01 3.807152e+01 2.191836e+01 2.009584e+01 2.648168e+01 2.472551e+01 1.768799e+01 1.272012e+01 1.943368e+01 2.192396e+02 4.065640e+00 2.750638e+00 3.170157e+00 7.424783e+00 5.202836e+00 1.788180e+00 2.800165e+00 1.609901e+00 1.452377e+00 1.948521e+00 1.055893e+00 1.936843e+00 1.053005e+01 1.149667e+00 5.927499e-01 7.419336e-01 1.467056e+00 1.025113e+00 4.964207e-01 5.595813e-01 3.916659e-01 4.725621e-01 4.683099e-01 2.647704e-01 4.022043e-01 3.682182e+00
<GCONST> 1.246532e+02
<STATE> 5
<MEAN> 39
 -1.521447e+01 -8.164990e+00 8.132536e+00 -9.496822e+00 1.474869e+00 -8.327922e+00 2.176560e+00 -1.040962e+01 3.764895e+00 -4.132607e+00 3.981163e+00 -7.505182e+00 8.354096e+01 1.002437e+00 3.751021e-01 -2.271144e-01 8.187408e-01 -3.553274e-01 5.606403e-01 -1.340331e-01 5.334333e-01 -5.693953e-01 4.977211e-01 -2.664250e-01 2.437549e-01 -2.000877e+00 -1.036992e-01 -1.109289e-02 -1.116268e-01 -5.821917e-02 7.040569e-02 8.392591e-02 -1.211699e-02 1.374560e-01 -2.524699e-02 -3.168617e-02 -5.939009e-02 4.753280e-02 -1.375537e-01
<VARIANCE> 39
 3.765966e+01 1.593817e+01 1.936626e+01 1.987295e+01 1.244540e+01 1.856377e+01 2.023780e+01 2.744479e+01 2.600336e+01 2.071138e+01 1.404927e+01 1.498901e+01 1.355751e+02 1.242149e+00 1.342857e+00 1.848762e+00 1.180527e+00 1.199850e+00 2.008661e+00 2.234105e+00 1.794480e+00 1.581613e+00 1.415071e+00 1.626037e+00 1.501071e+00 1.802896e+00 1.588394e-01 2.668712e-01 2.606707e-01 2.695734e-01 2.397688e-01 4.213765e-01 3.505947e-01 2.759110e-01 2.855898e-01 2.744110e-01 2.744910e-01 2.596067e-01 2.352762e-01
<GCONST> 1.011066e+02
<TRANSP> 6
 0.000000e+00 1.000000e+00 0.000000e+00 0.000000e+00 0.000000e+00 0.000000e+00
 0.000000e+00 9.371069e-01 6.289309e-02 0.000000e+00 0.000000e+00 0.000000e+00
 0.000000e+00 0.000000e+00 9.315069e-01 6.849316e-02 0.000000e+00 0.000000e+00
 0.000000e+00 0.000000e+00 0.000000e+00 8.591549e-01 1.408451e-01 0.000000e+00
 0.000000e+00 0.000000e+00 0.000000e+00 0.000000e+00 9.354839e-01 6.451613e-02
 0.000000e+00 0.000000e+00 0.000000e+00 0.000000e+00 0.000000e+00 0.000000e+00
<ENDHMM>
