~o
<STREAMINFO> 1 39
<VECSIZE> 39<NULLD><MFCC_D_A_0><DIAGC>
~h "zero"
<BEGINHMM>
<NUMSTATES> 6
<STATE> 2
<MEAN> 39
 -2.527784e+01 -8.338436e+00 1.008724e+01 -1.911625e+01 1.164545e+01 -1.576006e+01 -4.629011e-01 -1.197739e+01 2.024298e+00 -8.313154e+00 1.004931e-01 -8.781023e+00 8.148976e+01 1.378558e+00 2.078426e-01 3.179780e-01 8.054693e-01 1.153219e-01 -1.740061e+00 -9.957860e-01 -9.867491e-01 -9.275102e-01 -6.215631e-01 -6.387964e-01 -7.530716e-01 1.599377e+00 5.380145e-01 1.660132e-01 -2.963482e-01 4.933168e-01 -3.911777e-01 -6.145016e-02 -2.247350e-01 1.311526e-01 -3.305996e-01 6.579132e-02 -1.514312e-01 1.462437e-01 -2.901018e-01
<VARIANCE> 39
 8.424786e+01 3.506702e+01 3.453005e+01 4.579914e+01 2.007547e+01 3.186935e+01 4.580151e+01 2.450485e+01 3.473875e+01 2.085460e+01 3.878482e+01 2.314638e+01 2.588704e+01 1.069942e+01 6.294024e+00 4.952270e+00 8.259932e+00 3.904032e+00 5.159250e+00 4.180586e+00 2.638322e+00 4.653334e+00 2.443224e+00 5.108546e+00 2.779880e+00 2.809641e+00 1.212229e+00 1.013297e+00 1.365846e+00 1.161255e+00 7.383438e-01 8.968575e-01 7.656817e-01 5.604886e-01 6.532540e-01 5.761838e-01 8.107227e-01 5.682025e-01 2.476307e-01
<GCONST> 1.328602e+02
<STATE> 3
<MEAN> 39
 -4.147101e+00 -2.648870e+00 4.123753e+00 -7.055665e+00 7.258669e+00 -3.372809e+01 -6.235724e+00 -1.987983e+01 -8.246418e+00 -1.072217e+01 -5.623850e+00 -1.086485e+01 8.655579e+01 5.846294e-01 1.524638e-01 -1.471101e+00 -2.067987e-01 2.849213e-01 -1.770256e-01 4.179543e-01 -2.825031e-01 -5.600285e-02 2.769796e-01 3.361395e-01 1.176473e-01 -1.521451e-01 -8.259505e-02 2.258458e-02 -2.768897e-02 -2.114738e-01 1.833122e-01 3.249708e-01 -1.228036e-02 5.117015e-02 7.441339e-02 -2.544371e-02 4.801726e-02 -2.177450e-02 -7.772129e-02
<VARIANCE> 39
 9.826090e+00 5.456875e+00 6.349103e+01 1.126835e+01 1.108330e+01 1.371923e+01 2.739030e+01 1.648475e+01 1.779844e+01 1.808889e+01 1.468481e+01 1.455157e+01 2.742280e+00 1.567582e-01 7.960470e-01 1.381240e+00 9.880578e-01 1.314506e+00 2.007738e+00 1.492621e+00 1.011765e+00 9.970142e-01 1.367569e+00 7.570394e-01 8.603704e-01 2.219089e-01 9.017218e-02 1.407710e-01 2.023603e-01 2.189027e-01 1.102544e-01 2.473076e-01 3.040054e-01 2.217688e-01 2.455978e-01 2.310316e-01 1.515395e-01 1.444494e-01 1.170032e-02
<GCONST> 7.858339e+01
<STATE> 4
<MEAN> 39
 3.120074e+00 4.610731e+00 -9.386604e+00 -2.152627e+01 1.510894e+01 -2.230990e+01 -4.447132e+00 -1.197274e+01 -9.638106e+00 -1.308059e+01 -1.075406e+00 -1.365401e+00 8.073101e+01 6.891726e-02 1.355451e-01 4.812024e-01 -5.616527e-01 -8.831332e-01 5.420603e-01 2.357805e-01 1.072158e+00 2.356472e-01 -7.842442e-01 -1.121219e-01 6.061133e-01 -3.051639e-01 -3.635361e-02 -2.766200e-02 1.116704e-01 1.246788e-01 -2.171679e-01 -4.260724e-02 6.106158e-02 3.520996e-02 1.380795e-02 1.504192e-02 -6.003801e-02 -8.007301e-02 -2.896531e-02
<VARIANCE> 39
 3.598075e+00 9.504110e+00 1.369418e+01 2.649158e+01 7.342902e+01 1.993499e+01 3.650135e+01 7.493041e+01 2.982292e+01 4.085417e+01 2.966454e+01 4.299311e+01 3.975419e+00 1.884572e-01 8.894072e-01 6.314955e-01 1.564497e+00 4.344748e+00 1.505881e+00 3.225502e+00 2.447919e+00 1.372113e+00 1.555552e+00 2.421238e+00 1.424342e+00 3.459561e-01 2.124483e-02 1.005476e-01 7.958645e-02 1.376639e-01 2.663899e-01 2.282743e-01 5.736026e-01 4.339116e-01 1.813912e-01 2.925444e-01 4.339440e-01 2.498002e-01 3.604751e-02
<GCONST> 9.168902e+01
<STATE> 5
<MEAN> 39
 -1.753178e+00 3.539423e+00 -1.515056e+00 -1.535858e+01 -1.004957e+01 -9.531295e+00 1.987257e+00 2.150664e+00 -5.275286e+00 -1.319287e+01 -8.369196e+00 -4.682277e+00 6.871851e+01 -6.889307e-01 -3.600697e-01 -1.294928e-01 6.946639e-01 -2.128628e-01 9.153185e-01 -3.305503e-02 2.528916e-01 2.146350e-01 1.222915e+00 3.257817e-02 -3.468120e-01 -8.331061e-01 -3.298385e-02 -6.121499e-02 -4.673451e-02 2.400206e-02 1.905213e-01 -4.892391e-02 -4.608650e-02 -1.210104e-01 9.636579e-03 5.258943e-02 6.221923e-02 9.018067e-02 4.036939e-02
<VARIANCE> 39
 2.057363e+01 2.230882e+01 1.792835e+01 1.982765e+01 1.449824e+01 5.294135e+01 2.313005e+01 2.147854e+01 1.998256e+01 6.537074e+01 2.196132e+01 1.910634e+01 1.845464e+01 6.341485e-01 1.322491e+00 1.073142e+00 1.153540e+00 1.982197e+00 1.927982e+00 1.442596e+00 1.891933e+00 2.187381e+00 1.553937e+00 2.386997e+00 1.984359e+00 2.181276e-01 8.987417e-02 1.489718e-01 1.334088e-01 2.063354e-01 2.567465e-01 3.325669e-01 2.680371e-01 3.983526e-01 4.503838e-01 2.812136e-01 3.607132e-01 2.597362e-01 3.121880e-02
<GCONST> 9.579459e+01
<TRANSP> 6
 0.000000e+00 1.000000e+00 0.000000e+00 0.000000e+00 0.000000e+00 0.000000e+00
 0.000000e+00 9.115044e-01 8.849557e-02 0.000000e+00 0.000000e+00 0.000000e+00
 0.000000e+00 0.000000e+00 9.378882e-01 6.211180e-02 0.000000e+00 0.000000e+00
 0.000000e+00 0.000000e+00 0.000000e+00 9.500000e-01 5.000000e-02 0.000000e+00
 0.000000e+00 0.000000e+00 0.000000e+00 0.000000e+00 9.425287e-01 5.747127e-02
 0.000000e+00 0.000000e+00 0.000000e+00 0.000000e+00 0.000000e+00 0.000000e+00
<ENDHMM>
