~o
<STREAMINFO> 1 39
<VECSIZE> 39<NULLD><MFCC_D_A_0><DIAGC>
~h "plus"
<BEGINHMM>
<NUMSTATES> 6
<STATE> 2
<MEAN> 39
 -1.121294e+01 -3.707650e+00 -4.914746e+00 -1.183161e+01 -5.977232e+00 -1.126227e+01 3.220403e+00 -1.502083e+01 -8.219452e+00 -9.845283e+00 2.255002e+00 -1.154027e+00 8.544652e+01 8.629647e-01 6.961480e-01 -9.182749e-01 -5.029464e-01 -5.865312e-01 -1.224244e+00 2.819107e-01 -7.430406e-01 -1.123616e+00 -6.849793e-01 -2.041963e-01 1.426278e-01 1.368268e+00 5.349979e-02 2.151794e-02 -5.030005e-02 7.500420e-02 1.301586e-01 1.551956e-02 -7.858075e-02 2.525313e-01 1.383892e-01 1.423074e-01 -1.473571e-01 -3.718553e-02 -4.060961e-01
<VARIANCE> 39
 3.110459e+01 5.954837e+01 2.035190e+01 1.298693e+01 2.121583e+01 5.767086e+01 2.576059e+01 2.631143e+01 5.428419e+01 3.728364e+01 3.158472e+01 1.558458e+01 1.512687e+01 2.420276e+00 5.852776e+00 1.861766e+00 1.604334e+00 1.613093e+00 3.912712e+00 1.586361e+00 2.382520e+00 4.301370e+00 3.209610e+00 3.532667e+00 1.630574e+00 2.570244e+00 5.264804e-01 1.227141e+00 3.662128e-01 2.991613e-01 2.701561e-01 7.539902e-01 3.045737e-01 4.447435e-01 1.032839e+00 6.165057e-01 7.882795e-01 3.155314e-01 5.959567e-01
<GCONST> 1.185734e+02
<STATE> 3
<MEAN> 39
 -3.854724e+00 -5.700020e+00 -1.691603e+01 -1.646580e+01 4.104701e-01 -1.509100e+01 2.748686e+00 -1.316227e+01 -6.736783e-01 -1.265082e+01 3.937814e+00 -2.142136e+00 8.820852e+01 8.794796e-03 -3.973461e-01 -2.479368e-02 -2.349037e-01 5.855703e-01 4.382449e-01 -1.248714e-01 1.019141e-01 1.242678e+00 -1.203391e-01 2.690547e-01 2.175469e-01 -6.761524e-01 -9.067889e-02 1.610038e-01 1.685588e-01 1.977187e-02 -3.507831e-02 5.883958e-02 -3.519983e-02 -7.577874e-02 -1.068992e-01 -2.473448e-02 -5.576424e-04 5.367671e-02 -1.318457e-01
<VARIANCE> 39
 4.015891e+00 1.767284e+01 2.191415e+01 1.302708e+01 2.446979e+01 2.526056e+01 1.774129e+01 1.782598e+01 9.408318e+01 2.924270e+01 3.373652e+01 2.840919e+01 1.711932e+01 4.934770e-01 1.414483e+00 2.281762e+00 6.318559e-01 1.270381e+00 1.434722e+00 1.292421e+00 1.760365e+00 2.230531e+00 1.878754e+00 1.876184e+00 1.750934e+00 8.230600e-01 7.643137e-02 1.578123e-01 2.358771e-01 1.304788e-01 2.573134e-01 2.580288e-01 2.526381e-01 2.691650e-01 3.999442e-01 3.746090e-01 2.965881e-01 2.639065e-01 7.516689e-02
<GCONST> 9.492542e+01
<STATE> 4
<MEAN> 39
 -1.328419e+01 -3.453846e+00 -3.860781e+00 -1.944843e+01 5.812991e+00 -8.887633e+00 -6.579262e-01 -1.464789e+01 3.458376e+00 -1.023048e+01 6.844290e+00 1.484306e+00 7.629155e+01 -3.014581e+00 -3.733590e-01 2.152591e+00 -1.862551e-01 -4.378498e-02 8.359667e-01 -2.611283e-01 1.288158e+00 -9.974416e-01 1.753440e+00 -3.765269e-01 -8.109158e-01 7.025021e-01 -5.123356e-01 -2.977073e-01 -1.421215e-01 1.090423e-01 -1.458142e-01 -1.470361e-02 2.509204e-01 4.345569e-01 1.121103e-01 1.221678e-01 -1.355087e-01 -1.803981e-01 6.121600e-01
<VARIANCE> 39
 4.328598e+01 2.061916e+01 3.656355e+01 1.220978e+01 1.804449e+01 2.840525e+01 2.596809e+01 2.813878e+01 5.293033e+01 6.053714e+01 2.098496e+01 3.706225e+01 2.219859e+01 4.869303e+00 4.114696e+00 1.601565e+00 1.198810e+00 3.011898e+00 2.160243e+00 3.049073e+00 4.771426e+00 3.540660e+00 6.803218e+00 1.854813e+00 2.694920e+00 5.167592e+00 5.818431e-01 7.559754e-01 3.445872e-01 2.266960e-01 6.318238e-01 4.567398e-01 5.575883e-01 5.649586e-01 6.746514e-01 1.456571e+00 3.391089e-01 5.005060e-01 5.021625e-01
<GCONST> 1.216194e+02
<STATE> 5
<MEAN> 39
 -3.304103e+01 -5.794446e+00 2.781174e+00 -1.674938e+01 7.943941e+00 -7.646451e+00 2.915086e+00 -4.262520e+00 1.240247e+00 -3.103754e+00 1.845494e+00 -4.164050e+00 8.351768e+01 3.315489e-01 2.151936e-01 5.033004e-02 3.091631e-01 1.164463e-01 -1.183737e-01 3.900043e-02 6.397813e-02 -1.699794e-01 -3.516355e-03 -2.441190e-01 4.803951e-02 -7.918661e-01 2.523122e-01 3.559124e-02 -6.502432e-02 2.667620e-02 8.642121e-04 -1.160167e-02 -5.987754e-02 -6.241497e-02 -6.651704e-02 -2.432164e-02 -5.607661e-03 5.547596e-02 -1.729469e-01
<VARIANCE> 39
 3.582232e+01 6.883577e+00 1.137209e+01 1.383643e+01 1.780773e+01 1.681023e+01 1.574718e+01 1.211384e+01 1.114345e+01 9.141529e+00 9.056458e+00 7.126854e+00 4.666289e+01 3.334632e+00 6.342967e-01 7.414558e-01 8.728278e-01 1.454545e+00 1.399919e+00 1.558353e+00 1.568060e+00 1.241047e+00 1.326054e+00 9.474065e-01 7.373747e-01 2.249461e+00 3.631554e-01 1.429125e-01 1.329461e-01 1.548381e-01 2.430194e-01 2.427641e-01 2.777398e-01 3.533868e-01 2.321773e-01 3.426242e-01 1.866998e-01 1.310950e-01 1.465886e-01
<GCONST> 8.854395e+01
<TRANSP> 6
 0.000000e+00 1.000000e+00 0.000000e+00 0.000000e+00 0.000000e+00 0.000000e+00
 0.000000e+00 9.137931e-01 8.620691e-02 0.000000e+00 0.000000e+00 0.000000e+00
 0.000000e+00 0.000000e+00 9.450549e-01 5.494506e-02 0.000000e+00 0.000000e+00
 0.000000e+00 0.000000e+00 0.000000e+00 8.571429e-01 1.428571e-01 0.000000e+00
 0.000000e+00 0.000000e+00 0.000000e+00 0.000000e+00 9.585062e-01 4.149377e-02
 0.000000e+00 0.000000e+00 0.000000e+00 0.000000e+00 0.000000e+00 0.000000e+00
<ENDHMM>
