~o
<STREAMINFO> 1 39
<VECSIZE> 39<NULLD><MFCC_D_A_0><DIAGC>
~h "four"
<BEGINHMM>
<NUMSTATES> 6
<STATE> 2
<MEAN> 39
 -1.707351e+01 -4.019642e+00 -2.919483e+00 -1.464774e+01 4.440197e+00 -1.242144e+01 8.637358e-01 -5.090238e+00 -3.221500e+00 -6.160899e+00 8.895276e-01 -7.893161e+00 8.118247e+01 7.129183e-01 3.928056e-01 2.181304e-01 -6.625932e-01 -8.059763e-01 -1.099397e+00 -4.171970e-01 -4.397752e-01 -1.195937e-01 -2.382068e-01 -2.677656e-01 -2.096643e-01 1.049124e+00 6.774575e-02 6.249618e-03 -3.020290e-02 1.228601e-01 -1.355409e-01 5.670875e-02 -1.236844e-01 -5.941625e-02 -6.756990e-03 6.557216e-02 -3.620359e-03 1.392855e-01 -3.868713e-02
<VARIANCE> 39
 8.042675e+01 5.001964e+01 3.414005e+01 4.231161e+01 5.840742e+01 5.802599e+01 3.288971e+01 1.977686e+01 2.216328e+01 1.751520e+01 2.479352e+01 1.888397e+01 5.761883e+01 5.639223e+00 4.887945e+00 2.824627e+00 2.532660e+00 4.048680e+00 3.667583e+00 3.672730e+00 2.265879e+00 2.796332e+00 1.910398e+00 2.638970e+00 1.733826e+00 2.306512e+00 5.932683e-01 8.277400e-01 4.400571e-01 5.047209e-01 8.035210e-01 8.999736e-01 6.607774e-01 4.784388e-01 5.903181e-01 3.748157e-01 5.364523e-01 3.498197e-01 2.302140e-01
<GCONST> 1.238140e+02
<STATE> 3
<MEAN> 39
 -4.193502e-01 1.802444e+00 -7.299689e-01 -1.552132e+01 -7.606420e+00 -1.977492e+01 -9.087540e+00 -7.352627e+00 -2.291414e+00 -5.440423e+00 -7.340345e-01 -5.279707e+00 8.921107e+01 8.289760e-02 -4.223078e-01 -5.576974e-01 -3.661468e-02 -3.063417e-02 2.573488e-01 8.586570e-02 4.094932e-01 7.835723e-01 -2.978643e-01 2.014739e-01 2.589920e-01 1.647389e-01 -4.436701e-03 4.942660e-02 -5.429115e-02 -1.576136e-01 1.005852e-01 3.521112e-02 1.633626e-01 -6.360696e-03 4.345184e-02 -1.127904e-01 -5.843565e-02 -7.940596e-02 -1.064785e-01
<VARIANCE> 39
 2.340568e+00 2.074513e+01 4.203090e+01 1.496461e+01 1.492931e+01 3.516296e+01 2.533335e+01 4.593137e+01 4.563059e+01 2.503020e+01 1.681497e+01 1.925730e+01 1.033289e+01 1.438953e-01 6.793705e-01 8.867691e-01 1.383961e+00 1.189740e+00 2.181426e+00 2.311241e+00 1.735092e+00 2.490335e+00 2.717059e+00 1.154108e+00 1.296786e+00 4.056494e-01 5.339675e-02 1.388940e-01 1.225577e-01 1.741018e-01 2.399630e-01 3.580858e-01 3.065815e-01 3.448673e-01 3.671862e-01 3.704287e-01 1.940896e-01 2.160148e-01 4.764129e-02
<GCONST> 9.045441e+01
<STATE> 4
<MEAN> 39
 2.800039e+00 2.974116e+00 -1.468510e+01 -2.052180e+01 3.688753e+00 -1.091433e+01 -1.141209e+00 -1.531080e+01 -2.644407e+00 -1.018884e+01 -6.717222e-01 -1.000776e+00 7.886816e+01 -6.942967e-02 6.254786e-02 -3.298237e-01 2.881829e-01 6.768892e-01 1.172685e+00 9.713648e-02 -9.439906e-01 -1.248806e+00 3.911203e-01 1.616375e-01 1.756038e-01 -1.138817e+00 -1.003327e-01 -1.460023e-01 9.833197e-02 1.312397e-01 -1.302399e-01 7.726955e-02 -1.179515e-01 2.038856e-01 -1.111707e-03 2.029240e-01 1.003280e-01 -2.843338e-03 -1.734522e-02
<VARIANCE> 39
 2.290755e+01 2.254010e+01 3.053420e+01 2.785702e+01 7.677920e+01 5.380852e+01 2.719577e+01 6.018097e+01 1.281735e+02 3.761351e+01 3.026148e+01 2.026812e+01 4.542754e+01 2.848573e+00 1.986895e+00 3.240209e+00 2.784395e+00 5.115523e+00 2.498133e+00 3.195693e+00 3.197169e+00 3.515241e+00 2.865274e+00 1.632183e+00 1.692641e+00 1.423040e+00 5.362682e-01 2.837226e-01 4.110500e-01 3.738521e-01 7.894066e-01 3.961261e-01 5.916636e-01 5.006950e-01 7.745652e-01 5.991865e-01 3.452950e-01 2.808528e-01 2.602671e-01
<GCONST> 1.210143e+02
<STATE> 5
<MEAN> 39
 -7.468029e+00 -4.878959e+00 -9.283330e+00 -9.784472e+00 2.336478e+00 3.914498e+00 -3.156234e+00 -1.027099e+01 -8.984666e+00 5.276179e-01 4.780194e+00 9.572901e-01 6.439996e+01 -1.066983e+00 -5.216405e-01 7.147000e-01 8.453256e-01 -2.219217e-01 8.539382e-02 1.611330e-01 1.150280e+00 7.261479e-01 4.039560e-01 -6.560817e-02 1.633355e-01 -7.165877e-01 5.121734e-02 1.507635e-01 5.080035e-02 -8.167669e-03 3.533535e-02 -2.616474e-01 7.338198e-02 -1.162552e-01 1.945589e-02 -1.496789e-01 -1.543752e-01 -3.331201e-02 7.690422e-02
<VARIANCE> 39
 2.211362e+01 1.127728e+01 4.101373e+01 3.170835e+01 1.924070e+01 1.723949e+01 1.402289e+01 2.605569e+01 2.000370e+01 2.556127e+01 2.993887e+01 1.822773e+01 9.834921e+00 5.525369e-01 7.464197e-01 1.342343e+00 1.266470e+00 1.333278e+00 1.713943e+00 1.267089e+00 2.020094e+00 1.243399e+00 2.665385e+00 2.491631e+00 1.252406e+00 2.022824e-01 7.808150e-02 6.455508e-02 1.852905e-01 2.583728e-01 2.469745e-01 2.504542e-01 2.716569e-01 2.811183e-01 2.252606e-01 3.454263e-01 2.914123e-01 2.138535e-01 3.037225e-02
<GCONST> 9.053852e+01
<TRANSP> 6
 0.000000e+00 1.000000e+00 0.000000e+00 0.000000e+00 0.000000e+00 0.000000e+00
 0.000000e+00 9.484536e-01 5.154639e-02 0.000000e+00 0.000000e+00 0.000000e+00
 0.000000e+00 0.000000e+00 9.447514e-01 5.524862e-02 0.000000e+00 0.000000e+00
 0.000000e+00 0.000000e+00 0.000000e+00 9.408284e-01 5.917159e-02 0.000000e+00
 0.000000e+00 0.000000e+00 0.000000e+00 0.000000e+00 9.173554e-01 8.264462e-02
 0.000000e+00 0.000000e+00 0.000000e+00 0.000000e+00 0.000000e+00 0.000000e+00
<ENDHMM>
