~o
<STREAMINFO> 1 39
<VECSIZE> 39<NULLD><MFCC_D_A_0><DIAGC>
~h "one"
<BEGINHMM>
<NUMSTATES> 6
<STATE> 2
<MEAN> 39
 -4.786432e+00 9.265228e+00 1.304098e-01 -1.329694e+01 -5.012765e+00 -1.682486e+01 -2.535798e+00 -3.678524e+00 -5.089004e+00 -8.513407e+00 -5.380380e+00 -8.510516e+00 8.302328e+01 5.257977e-01 -7.704726e-01 -8.949845e-01 -3.142954e-01 -8.116004e-01 6.089716e-02 1.730312e-01 3.843764e-01 2.660497e-01 -2.669918e-01 -6.196310e-02 5.113007e-01 2.167693e+00 -1.757443e-01 -1.830468e-01 -5.549750e-02 6.946283e-02 1.398630e-01 1.848194e-01 1.535847e-01 1.408629e-01 4.859282e-02 -4.971920e-02 1.054954e-01 1.844151e-01 -2.142192e-01
<VARIANCE> 39
 1.758529e+01 5.992507e+01 3.306879e+01 4.337426e+01 5.582221e+01 6.226809e+01 5.329242e+01 2.437161e+01 3.130011e+01 4.141037e+01 2.258609e+01 2.778592e+01 1.031066e+02 1.648050e+00 7.683639e+00 2.682414e+00 3.096571e+00 5.139574e+00 5.616757e+00 2.863993e+00 2.278464e+00 3.726635e+00 4.862539e+00 2.071493e+00 2.371927e+00 3.008619e+00 2.692370e-01 1.477471e+00 5.774678e-01 6.533449e-01 9.972534e-01 9.278152e-01 4.728948e-01 3.885504e-01 8.462348e-01 1.057104e+00 4.940617e-01 3.546940e-01 4.982912e-01
<GCONST> 1.287401e+02
<STATE> 3
<MEAN> 39
 -6.433975e+00 3.746888e+00 -5.165399e+00 -1.522173e+01 -2.914321e-01 -1.335216e+01 2.389208e+00 -2.178514e+00 -5.621435e+00 -1.359896e+01 6.965104e+00 3.530612e-01 9.226757e+01 -4.052053e-01 6.084792e-01 5.909863e-01 3.462591e-01 1.479012e+00 -1.691896e-02 2.135481e-02 -7.809674e-01 -5.706997e-01 -8.909521e-02 1.599343e+00 -9.678394e-02 -6.933712e-01 4.154613e-02 4.448034e-02 1.477162e-01 2.237675e-01 1.767956e-01 7.684515e-02 -1.972355e-01 -1.482450e-01 1.030992e-01 2.339258e-01 -2.720875e-01 -1.776403e-01 -2.368477e-01
<VARIANCE> 39
 6.301001e+00 1.355471e+01 1.810686e+01 1.198508e+01 4.226699e+01 2.538918e+01 2.881495e+01 3.417881e+01 4.704831e+01 2.314903e+01 1.020999e+02 2.151196e+01 5.942794e+00 1.922307e-01 6.964784e-01 1.234221e+00 2.020621e+00 1.726011e+00 2.443261e+00 1.517932e+00 2.182131e+00 2.049776e+00 3.041938e+00 5.551591e+00 2.597656e+00 1.047607e+00 6.215629e-02 1.752652e-01 1.706749e-01 3.074718e-01 2.639260e-01 5.124719e-01 1.410243e-01 3.990208e-01 3.996589e-01 3.568011e-01 1.111037e+00 2.987646e-01 9.560362e-02
<GCONST> 1.001874e+02
<STATE> 4
<MEAN> 39
 -6.763940e+00 4.845785e+00 4.552134e+00 -4.418726e+00 1.722475e+01 -9.664145e+00 -3.834818e+00 -7.984436e+00 -4.578212e+00 -7.761625e+00 4.685700e+00 -5.589548e+00 7.599616e+01 3.288092e-01 -5.970318e-01 3.511342e-01 8.731947e-01 2.128181e-01 6.082248e-01 -5.253324e-01 5.177793e-02 2.283463e-01 5.489520e-01 -1.092927e+00 -1.711668e-01 -1.285877e+00 7.958119e-04 -6.886085e-02 -2.037613e-01 -1.078148e-01 -3.599747e-01 -7.773340e-02 6.901582e-02 8.852133e-02 -7.822473e-02 -4.255367e-03 2.104742e-01 4.231303e-02 1.500653e-01
<VARIANCE> 39
 1.924315e+01 1.305224e+01 1.311218e+01 2.519780e+01 3.429174e+01 3.597887e+01 2.282663e+01 2.470491e+01 5.879148e+01 3.469585e+01 6.277406e+01 1.555699e+01 1.799523e+01 5.820338e-01 4.762935e-01 1.227395e+00 2.907807e+00 3.959414e+00 1.944423e+00 1.765943e+00 1.990489e+00 1.930061e+00 1.980930e+00 3.110223e+00 1.015691e+00 1.037966e+00 9.524995e-02 1.129167e-01 1.967749e-01 6.153952e-01 5.852527e-01 3.912064e-01 3.237487e-01 3.815338e-01 2.955082e-01 3.951663e-01 5.475869e-01 1.528686e-01 1.555305e-01
<GCONST> 1.029693e+02
<STATE> 5
<MEAN> 39
 -6.189545e+00 3.209280e-01 3.856014e+00 3.662431e+00 7.918771e+00 -2.678145e+00 -6.718110e+00 -6.500868e+00 -5.004950e+00 -1.670096e-01 1.007022e+00 -5.272433e+00 6.605391e+01 -4.673390e-01 -3.299083e-01 -2.205149e-01 2.737510e-01 -7.074648e-01 4.892662e-01 2.231022e-01 3.619072e-01 1.462499e-01 4.039962e-01 -2.290428e-01 1.606943e-01 -6.792545e-01 -6.515785e-02 2.515025e-02 4.311398e-02 -1.383104e-01 1.202633e-01 -6.083969e-02 6.197609e-02 1.161551e-02 2.005985e-02 -1.036524e-01 -5.351620e-03 2.645534e-02 4.918700e-02
<VARIANCE> 39
 1.459091e+01 1.900760e+01 1.795530e+01 7.540942e+00 2.489057e+01 1.351672e+01 2.623614e+01 1.860248e+01 1.527184e+01 3.904129e+01 2.407746e+01 2.036241e+01 9.624221e+00 6.642573e-01 7.469844e-01 9.907390e-01 1.066329e+00 1.753746e+00 1.572713e+00 1.771648e+00 1.748253e+00 1.444406e+00 2.121675e+00 1.308128e+00 1.507334e+00 2.281570e-01 8.756170e-02 1.223301e-01 1.563052e-01 1.474684e-01 2.640647e-01 3.021990e-01 2.926611e-01 3.709747e-01 2.762934e-01 3.393759e-01 2.653836e-01 3.320180e-01 3.531147e-02
<GCONST> 8.969498e+01
<TRANSP> 6
 0.000000e+00 1.000000e+00 0.000000e+00 0.000000e+00 0.000000e+00 0.000000e+00
 0.000000e+00 9.082569e-01 9.174313e-02 0.000000e+00 0.000000e+00 0.000000e+00
 0.000000e+00 0.000000e+00 9.200000e-01 8.000000e-02 0.000000e+00 0.000000e+00
 0.000000e+00 0.000000e+00 0.000000e+00 9.137931e-01 8.620691e-02 0.000000e+00
 0.000000e+00 0.000000e+00 0.000000e+00 0.000000e+00 9.145299e-01 8.547010e-02
 0.000000e+00 0.000000e+00 0.000000e+00 0.000000e+00 0.000000e+00 0.000000e+00
<ENDHMM>
