~o
<STREAMINFO> 1 39
<VECSIZE> 39<NULLD><MFCC_D_A_0><DIAGC>
~h "six"
<BEGINHMM>
<NUMSTATES> 6
<STATE> 2
<MEAN> 39
 -3.063758e+01 -5.363162e+00 3.551048e+00 -1.634374e+01 7.351554e+00 -1.060466e+01 2.867523e+00 -7.292493e+00 2.512571e+00 -2.760868e+00 1.706040e+00 -4.293252e+00 8.658230e+01 -2.545149e-01 2.066893e-01 9.332651e-02 -3.292626e-01 2.076849e-01 -7.689644e-01 -1.432250e-01 -3.556445e-01 -8.469819e-02 -3.005148e-01 -7.634689e-02 -2.660514e-01 1.126792e+00 3.978190e-01 1.251183e-01 -9.112658e-02 2.497424e-01 -1.253275e-01 -1.121228e-01 -2.189533e-01 -5.422456e-02 -1.574332e-01 -5.565216e-02 -1.062614e-01 -8.751420e-02 -1.612166e-01
<VARIANCE> 39
 6.230386e+01 1.676930e+01 2.669179e+01 1.818358e+01 2.508703e+01 2.048844e+01 2.350143e+01 2.338598e+01 1.965097e+01 1.784077e+01 1.068994e+01 1.037959e+01 4.427340e+01 7.348076e+00 1.530673e+00 2.817394e+00 2.567039e+00 2.100034e+00 2.323524e+00 3.797842e+00 2.934719e+00 2.373821e+00 1.837802e+00 1.564399e+00 1.536945e+00 2.169091e+00 5.928410e-01 3.087741e-01 5.343212e-01 4.068001e-01 3.474398e-01 4.633519e-01 3.982142e-01 4.695590e-01 3.246315e-01 3.737807e-01 2.347650e-01 2.594036e-01 1.948621e-01
<GCONST> 1.099732e+02
<STATE> 3
<MEAN> 39
 -1.111582e+01 -3.917571e+00 2.215623e+00 -2.473764e+00 2.431676e+00 -2.473032e+01 -8.432971e+00 -7.319997e+00 -6.320402e+00 -7.141572e+00 -3.057389e+00 -4.893497e+00 8.048877e+01 5.286124e-01 -7.647380e-02 -2.662033e-01 7.381882e-01 -3.818955e-01 4.966733e-01 -6.457465e-02 5.342297e-01 -4.415738e-02 1.493007e-01 -5.551158e-02 3.069898e-01 -1.384138e+00 -3.457593e-01 -7.460526e-02 -5.478251e-02 -2.089789e-01 1.584578e-01 1.633410e-01 1.739911e-01 7.151704e-02 1.766511e-01 9.239404e-02 9.211571e-02 3.959210e-02 8.034900e-02
<VARIANCE> 39
 8.323836e+00 1.738342e+01 1.830182e+01 2.499329e+01 2.709520e+01 1.094705e+02 2.365201e+01 4.302302e+01 1.109531e+01 1.945304e+01 2.053209e+01 2.164395e+01 1.657059e+02 3.307529e+00 1.619205e+00 2.055984e+00 2.007800e+00 2.660877e+00 9.499904e+00 2.949985e+00 2.535395e+00 1.697894e+00 2.528781e+00 2.142966e+00 1.918923e+00 3.702877e+00 4.907559e-01 3.433398e-01 4.638538e-01 3.504260e-01 5.807863e-01 1.299057e+00 5.010989e-01 6.248918e-01 2.853385e-01 5.187628e-01 4.593289e-01 4.538864e-01 6.500156e-01
<GCONST> 1.178478e+02
<STATE> 4
<MEAN> 39
 -2.020278e+01 -8.343055e+00 -2.442741e+00 -1.123913e+01 9.311791e+00 -1.018735e+01 -7.048531e+00 -8.113473e+00 5.185993e-01 -1.155659e+00 4.109059e-01 -5.608311e+00 8.089689e+01 -2.668332e+00 -5.830234e-01 2.130491e-01 -2.274110e+00 1.642316e+00 -1.063892e-01 4.322211e-01 -7.979403e-01 1.247529e+00 3.764839e-01 8.784367e-01 -4.180717e-01 4.204373e+00 -1.566928e-01 1.088262e-01 3.055256e-01 1.577420e-01 -3.236669e-01 6.852944e-02 2.923236e-01 3.018153e-01 -1.818536e-02 -1.049426e-01 -7.396258e-02 9.341003e-02 -1.611491e-01
<VARIANCE> 39
 4.892383e+01 1.604231e+01 2.589506e+01 6.564532e+01 5.399098e+01 3.037626e+01 1.445463e+01 2.950720e+01 2.550720e+01 1.014439e+01 2.293772e+01 1.256215e+01 1.731813e+02 1.550186e+00 1.569315e+00 5.085916e+00 5.575893e+00 7.310910e+00 3.155944e+00 2.443299e+00 3.752507e+00 1.896511e+00 1.063474e+00 2.180159e+00 1.548929e+00 7.001432e+00 4.018918e-01 2.879651e-01 8.139030e-01 1.289739e+00 1.445825e+00 6.503806e-01 4.344419e-01 6.864492e-01 4.627802e-01 2.052773e-01 5.081274e-01 3.070552e-01 2.611635e+00
<GCONST> 1.224347e+02
<STATE> 5
<MEAN> 39
 -3.070298e+01 -5.360184e+00 3.844370e+00 -1.777810e+01 1.008000e+01 -9.395299e+00 2.461740e+00 -4.542851e+00 3.997527e-01 -1.988334e+00 2.218843e+00 -4.278444e+00 8.483265e+01 5.754284e-01 2.272780e-01 4.204134e-02 3.172593e-01 -1.839056e-01 1.101756e-01 3.235706e-02 2.743981e-01 -3.997453e-01 7.834356e-02 -2.649566e-01 1.239819e-01 -1.145204e+00 1.278219e-01 -2.389477e-02 -5.430403e-02 9.745780e-02 5.005695e-03 2.010288e-02 -1.084164e-01 -3.067156e-02 -2.615082e-02 -3.397016e-03 -2.139117e-02 -2.132076e-02 -6.230348e-02
<VARIANCE> 39
 5.709591e+01 7.648500e+00 1.186222e+01 2.287653e+01 1.304455e+01 1.442065e+01 2.198265e+01 1.519783e+01 1.840765e+01 9.928460e+00 1.318847e+01 8.901134e+00 1.178210e+02 2.186600e+00 7.394889e-01 1.133191e+00 1.648953e+00 1.249344e+00 1.092948e+00 1.691251e+00 1.470811e+00 1.137693e+00 1.250659e+00 1.173320e+00 8.171212e-01 1.577149e+00 2.600697e-01 1.484666e-01 2.172329e-01 2.188728e-01 2.457618e-01 2.289962e-01 2.483803e-01 2.731217e-01 2.655562e-01 2.657584e-01 2.087756e-01 1.594631e-01 1.612083e-01
<GCONST> 9.249897e+01
<TRANSP> 6
 0.000000e+00 1.000000e+00 0.000000e+00 0.000000e+00 0.000000e+00 0.000000e+00
 0.000000e+00 9.481865e-01 5.181347e-02 0.000000e+00 0.000000e+00 0.000000e+00
 0.000000e+00 0.000000e+00 9.514563e-01 4.854368e-02 0.000000e+00 0.000000e+00
 0.000000e+00 0.000000e+00 0.000000e+00 8.684211e-01 1.315790e-01 0.000000e+00
 0.000000e+00 0.000000e+00 0.000000e+00 0.000000e+00 9.638989e-01 3.610108e-02
 0.000000e+00 0.000000e+00 0.000000e+00 0.000000e+00 0.000000e+00 0.000000e+00
<ENDHMM>
