~o
<STREAMINFO> 1 39
<VECSIZE> 39<NULLD><MFCC_D_A_0><DIAGC>
~h "two"
<BEGINHMM>
<NUMSTATES> 6
<STATE> 2
<MEAN> 39
 -2.001122e+01 -8.660274e+00 7.759661e-01 -8.136641e+00 2.245551e+00 -1.018637e+01 2.132241e-01 -1.223095e+01 -4.537774e+00 1.213755e-01 4.643826e+00 -7.627302e+00 8.985409e+01 8.126155e-01 7.011639e-01 -3.079042e-01 -2.725176e-01 5.522416e-01 -7.373390e-01 1.289951e-01 -1.083001e+00 -1.288407e+00 -4.039834e-01 -1.411269e-01 1.006994e-01 1.186951e+00 3.861326e-01 4.263243e-01 -4.189531e-02 1.825525e-01 -1.337288e-01 -7.624563e-02 3.466444e-02 8.571704e-02 -2.947257e-01 -3.082093e-01 -4.249396e-01 1.524827e-01 -5.927740e-01
<VARIANCE> 39
 2.507997e+01 1.664452e+01 1.676381e+01 1.009015e+01 2.186078e+01 2.415835e+01 1.543641e+01 2.424613e+01 2.357633e+01 1.808739e+01 2.120579e+01 1.451803e+01 4.670744e+01 4.047569e+00 4.032358e+00 1.766998e+00 1.567974e+00 2.033617e+00 5.410365e+00 1.802717e+00 2.012822e+00 4.200743e+00 3.252509e+00 6.063329e+00 2.252597e+00 1.201650e+01 3.719570e-01 3.852675e-01 3.841689e-01 2.739093e-01 5.544013e-01 1.070147e+00 3.622552e-01 3.791315e-01 5.400648e-01 5.157116e-01 6.329088e-01 3.815610e-01 1.684664e+00
<GCONST> 1.169999e+02
<STATE> 3
<MEAN> 39
 -7.142031e+00 5.146923e+00 3.180146e-01 -1.047734e+01 -3.422858e+00 -2.009622e+01 3.932704e+00 -1.571838e+01 -1.817856e+01 -1.097488e+01 -7.405630e+00 -5.073715e+00 9.094012e+01 3.785871e-01 5.720194e-01 4.567447e-01 -5.974897e-01 -4.824381e-01 -1.484988e-01 6.058931e-01 5.382889e-01 -5.067668e-02 -9.300975e-01 -5.301724e-01 -1.724883e-01 -1.782025e-02 -1.477485e-01 -1.693199e-01 1.392136e-01 -1.835289e-01 1.275998e-01 8.322990e-02 1.285247e-01 1.210266e-01 2.856133e-01 -1.135165e-02 2.232695e-01 -7.158732e-02 -1.575370e-01
<VARIANCE> 39
 4.106687e+00 1.310934e+01 1.377561e+01 1.602270e+01 1.848497e+01 4.340478e+01 4.958096e+01 2.990645e+01 2.855212e+01 3.131030e+01 1.583173e+01 2.079364e+01 1.012677e+01 6.336265e-01 1.244499e+00 1.418436e+00 2.029193e+00 2.101002e+00 5.334601e+00 4.660314e+00 3.182516e+00 3.383438e+00 2.854293e+00 1.871821e+00 1.548292e+00 1.317627e+00 1.493650e-01 2.632654e-01 2.578923e-01 4.415805e-01 2.861511e-01 1.129825e+00 8.533618e-01 6.622363e-01 5.878828e-01 5.604938e-01 4.454811e-01 3.029756e-01 1.978850e-01
<GCONST> 1.076561e+02
<STATE> 4
<MEAN> 39
 -7.424747e+00 9.737757e+00 7.874505e+00 -1.838311e+01 2.186514e-01 -1.982030e+01 9.666643e+00 -5.756168e+00 -1.159254e+01 -1.538430e+01 -9.941217e+00 -9.503977e+00 7.919094e+01 -1.932818e-02 -2.442398e-01 -2.339904e-01 -1.402411e-01 3.595607e-01 7.515010e-01 -5.864787e-01 7.599978e-01 5.930889e-01 9.361851e-01 1.122556e-01 4.723347e-02 -1.539161e+00 1.336651e-02 -2.552435e-01 -3.545908e-01 2.667139e-01 -1.412001e-01 4.047585e-01 -3.733717e-01 9.472763e-03 3.155541e-02 3.156563e-01 1.270809e-01 2.802964e-01 4.259939e-03
<VARIANCE> 39
 7.940389e+00 2.981878e+01 1.638069e+01 2.835520e+01 3.282027e+01 4.071352e+01 4.579135e+01 1.895369e+01 1.788264e+01 6.943922e+01 2.379826e+01 3.439900e+01 4.153667e+01 1.170536e+00 4.396091e+00 4.284601e+00 5.083445e+00 3.592134e+00 7.119018e+00 6.049143e+00 2.247014e+00 1.865184e+00 6.015230e+00 2.125054e+00 4.277955e+00 1.722314e+00 2.234731e-01 7.002336e-01 6.663404e-01 1.103984e+00 6.846666e-01 1.036196e+00 1.113351e+00 4.613178e-01 3.300894e-01 1.102983e+00 3.803383e-01 6.528771e-01 3.895334e-01
<GCONST> 1.240286e+02
<STATE> 5
<MEAN> 39
 -6.160933e+00 2.500258e+00 2.454054e+00 -5.492293e+00 -1.753111e+00 -2.377811e+00 4.384926e-01 1.171917e-01 -3.666478e+00 -2.957486e+00 -3.631852e+00 -3.046674e+00 6.534486e+01 -3.911162e-01 -4.485397e-01 1.178934e-01 1.646441e+00 1.251592e-01 1.022323e+00 -2.986436e-01 5.006441e-02 5.554553e-01 4.100159e-01 4.949028e-01 3.424966e-01 -7.279931e-01 -1.166587e-01 1.555758e-01 1.969843e-01 -4.700868e-02 2.063239e-01 -2.937630e-01 1.570985e-01 -9.251452e-02 -5.310930e-02 -1.189250e-01 -9.472729e-02 -1.710907e-01 7.182509e-02
<VARIANCE> 39
 1.076122e+01 1.567046e+01 2.849000e+01 7.076440e+01 2.044042e+01 1.736863e+01 1.491970e+01 1.697659e+01 1.528029e+01 1.215823e+01 1.227137e+01 8.296062e+00 7.733389e+00 1.087192e+00 1.704685e+00 2.479687e+00 3.909132e+00 3.095121e+00 2.186028e+00 1.712351e+00 1.811120e+00 1.462394e+00 1.554811e+00 1.793534e+00 1.383757e+00 9.186727e-01 1.884074e-01 3.768164e-01 5.572073e-01 7.456204e-01 4.899990e-01 3.803113e-01 3.227491e-01 4.073857e-01 3.099380e-01 3.021907e-01 3.171018e-01 3.240338e-01 1.730425e-01
<GCONST> 1.016612e+02
<TRANSP> 6
 0.000000e+00 1.000000e+00 0.000000e+00 0.000000e+00 0.000000e+00 0.000000e+00
 0.000000e+00 8.969072e-01 1.030928e-01 0.000000e+00 0.000000e+00 0.000000e+00
 0.000000e+00 0.000000e+00 9.270073e-01 7.299270e-02 0.000000e+00 0.000000e+00
 0.000000e+00 0.000000e+00 0.000000e+00 9.152542e-01 8.474576e-02 0.000000e+00
 0.000000e+00 0.000000e+00 0.000000e+00 0.000000e+00 9.090909e-01 9.090909e-02
 0.000000e+00 0.000000e+00 0.000000e+00 0.000000e+00 0.000000e+00 0.000000e+00
<ENDHMM>
