~o
<STREAMINFO> 1 39
<VECSIZE> 39<NULLD><MFCC_D_A_0><DIAGC>
~h "sil"
<BEGINHMM>
<NUMSTATES> 6
<STATE> 2
<MEAN> 39
 -1.560798e+01 -3.344437e+00 -4.656000e-01 -4.525543e+00 1.843956e+00 -3.062335e+00 -2.021614e+00 -3.569398e+00 -3.640474e+00 -2.650252e+00 -1.640006e-01 -1.833799e+00 6.180124e+01 2.753444e-02 -1.896970e-03 -7.558496e-02 9.492910e-02 -1.101389e-01 1.208324e-01 -1.742918e-02 -8.248109e-03 4.219561e-02 -3.941447e-02 -6.271629e-02 -3.461318e-02 -9.106997e-02 1.622193e-02 -6.717156e-03 5.127316e-03 1.740434e-02 -3.366991e-02 -3.129655e-02 -3.744701e-03 -1.546739e-02 3.078194e-02 -7.553142e-03 6.706498e-03 -9.270411e-03 2.927444e-02
<VARIANCE> 39
 2.171042e+01 2.331449e+01 3.469901e+01 4.015481e+01 2.474057e+01 2.977696e+01 2.279143e+01 3.321746e+01 2.358540e+01 2.021286e+01 2.279434e+01 1.950644e+01 1.633290e+01 1.196639e+00 1.276874e+00 1.575143e+00 2.001285e+00 2.091006e+00 2.162615e+00 2.092938e+00 2.180107e+00 2.066229e+00 2.002417e+00 1.577481e+00 1.494885e+00 1.599518e+00 2.137384e-01 2.242210e-01 2.831275e-01 3.402676e-01 3.909734e-01 3.817529e-01 4.017196e-01 4.039388e-01 4.053894e-01 3.944573e-01 3.010236e-01 2.873885e-01 3.023220e-01
<GCONST> 1.062037e+02
<STATE> 3
<MEAN> 39
 -1.551994e+01 -2.495097e+00 -1.371607e+00 -3.318406e+00 -6.412582e-01 -3.678665e+00 -2.016392e+00 -3.153801e+00 -2.145477e+00 -2.848924e+00 -1.307049e+00 -2.258524e+00 6.005039e+01 3.130808e-02 -3.730413e-02 9.443773e-03 2.658707e-02 -1.732760e-02 5.205078e-03 2.644982e-02 -3.520577e-03 2.781531e-02 -2.126363e-02 -1.260516e-02 -1.520210e-02 5.277748e-02 9.238810e-04 -1.884208e-04 8.163424e-03 -1.307713e-02 1.115485e-02 -5.920175e-04 -5.714010e-03 2.140902e-03 -1.107503e-02 6.271358e-03 7.040573e-04 3.563510e-04 8.688098e-03
<VARIANCE> 39
 5.429228e+00 4.107876e+00 6.671756e+00 9.312805e+00 8.534397e+00 9.987241e+00 9.829057e+00 1.201402e+01 1.059887e+01 1.034267e+01 1.044886e+01 9.267500e+00 3.565770e+00 1.562278e-01 2.104949e-01 3.729877e-01 5.684950e-01 7.709730e-01 8.710893e-01 1.016420e+00 1.040214e+00 1.108582e+00 1.053505e+00 1.036833e+00 8.872435e-01 7.050887e-02 3.064774e-02 4.335655e-02 7.844844e-02 1.125963e-01 1.539596e-01 1.796126e-01 2.148099e-01 2.133075e-01 2.283804e-01 2.205920e-01 2.197215e-01 1.847108e-01 1.131708e-02
<GCONST> 6.208326e+01
<STATE> 4
<MEAN> 39
 -1.418036e+01 -4.474234e+00 -1.011356e+00 -2.669730e+00 -2.303863e+00 -2.272407e+00 -3.215605e+00 -1.548726e+00 -3.134830e+00 -1.830238e+00 -2.491539e+00 -1.479406e+00 5.889959e+01 -9.009049e-03 7.093543e-03 -1.218121e-02 8.371340e-03 -2.614859e-02 1.604733e-02 -2.682358e-02 5.786750e-03 -4.760335e-03 1.778651e-02 3.238186e-03 9.797521e-03 -4.352714e-02 8.310327e-04 2.825263e-03 5.686326e-03 -3.005700e-03 8.604384e-03 -5.429470e-03 4.682955e-03 4.179333e-03 -2.236337e-03 3.082538e-04 2.828372e-03 1.551883e-03 6.735892e-03
<VARIANCE> 39
 1.823619e+00 2.293834e+00 2.870738e+00 4.731790e+00 5.404792e+00 6.172431e+00 7.047107e+00 7.504723e+00 7.767241e+00 7.570609e+00 6.953953e+00 6.520676e+00 1.135755e+00 6.496255e-02 1.326642e-01 2.298279e-01 3.438914e-01 4.682083e-01 5.851476e-01 6.708580e-01 7.568398e-01 7.825822e-01 7.921774e-01 7.212465e-01 6.360877e-01 2.027235e-02 1.348374e-02 2.740310e-02 4.816185e-02 7.131128e-02 9.741070e-02 1.214303e-01 1.372293e-01 1.563588e-01 1.610210e-01 1.641957e-01 1.494586e-01 1.268014e-01 1.000000e-02
<GCONST> 4.272818e+01
<STATE> 5
<MEAN> 39
 -1.529238e+01 -2.393117e+00 6.265423e-01 -4.634172e+00 2.089608e+00 -4.213496e+00 -9.816264e-01 -3.397796e+00 -2.731090e+00 -2.967313e+00 -1.219908e+00 -2.744707e+00 6.404385e+01 5.346423e-02 4.023419e-02 3.593889e-01 -5.691415e-01 5.227722e-01 -6.260366e-01 1.700715e-01 -4.003201e-01 -1.639311e-01 -1.890208e-01 5.828318e-03 -2.566004e-01 1.264072e+00 1.728494e-02 4.068005e-03 3.724064e-02 -9.446672e-02 3.402974e-02 -1.612340e-01 3.241381e-03 -1.207600e-01 -2.557812e-02 -1.168029e-01 2.220508e-02 -6.789288e-02 3.129923e-01
<VARIANCE> 39
 2.282020e+01 2.845388e+01 2.651598e+01 4.280043e+01 2.826410e+01 4.131356e+01 2.322199e+01 2.860491e+01 2.578997e+01 2.033948e+01 2.203593e+01 1.537546e+01 4.300540e+01 2.759949e+00 3.235555e+00 2.788166e+00 3.667787e+00 3.164268e+00 4.482938e+00 2.466017e+00 2.662223e+00 2.935096e+00 2.624797e+00 2.412660e+00 1.553895e+00 6.650834e+00 4.480423e-01 5.431657e-01 5.055608e-01 6.682937e-01 5.776875e-01 7.742141e-01 5.082747e-01 4.797692e-01 4.853618e-01 4.832706e-01 4.269598e-01 2.900602e-01 1.008474e+00
<GCONST> 1.206601e+02
<TRANSP> 6
 0.000000e+00 6.466666e-01 3.533333e-01 0.000000e+00 0.000000e+00 0.000000e+00
 0.000000e+00 9.237422e-01 5.974843e-02 1.650944e-02 0.000000e+00 0.000000e+00
 0.000000e+00 0.000000e+00 9.592289e-01 2.038559e-02 2.038559e-02 0.000000e+00
 0.000000e+00 0.000000e+00 0.000000e+00 9.732980e-01 6.870707e-03 1.983136e-02
 0.000000e+00 0.000000e+00 0.000000e+00 0.000000e+00 8.946407e-01 1.053593e-01
 0.000000e+00 0.000000e+00 0.000000e+00 0.000000e+00 0.000000e+00 0.000000e+00
<ENDHMM>
