~o
<STREAMINFO> 1 39
<VECSIZE> 39<NULLD><MFCC_D_A_0><DIAGC>
~h "multiply"
<BEGINHMM>
<NUMSTATES> 6
<STATE> 2
<MEAN> 39
 -4.811244e+00 6.821679e+00 -3.144915e+00 -1.469178e+01 -2.160170e+00 -1.554852e+01 1.093457e+01 -8.210510e+00 -2.353157e+01 -1.672369e+01 -4.494788e+00 -8.312512e+00 8.175016e+01 -3.962123e-01 7.617131e-03 -2.625557e-02 -1.851467e-01 -1.812427e-01 -1.949524e-01 6.097781e-02 -3.528184e-01 4.515850e-01 -1.226075e-01 3.975379e-01 -2.927744e-01 7.759814e-01 -3.092058e-01 -2.793657e-01 -7.639734e-02 8.499327e-02 -1.131639e-01 1.509644e-01 -1.436053e-01 3.140847e-02 4.121484e-01 2.936578e-01 2.368185e-01 1.228250e-01 1.601371e-02
<VARIANCE> 39
 1.817804e+01 1.296218e+01 4.713859e+01 2.450260e+01 7.971533e+01 3.188837e+01 4.250027e+01 2.129915e+01 4.985093e+01 2.268344e+01 6.242034e+01 3.373133e+01 5.277513e+01 5.419902e+00 2.682897e+00 3.759621e+00 3.149571e+00 6.904291e+00 5.514607e+00 4.563452e+00 2.727494e+00 1.255702e+01 3.788317e+00 7.233127e+00 3.225696e+00 6.323577e+00 5.840693e-01 6.395797e-01 6.211469e-01 5.248098e-01 9.935685e-01 8.940944e-01 6.267195e-01 5.834922e-01 1.720084e+00 7.028666e-01 1.247854e+00 6.034837e-01 6.572677e-01
<GCONST> 1.339117e+02
<STATE> 3
<MEAN> 39
 -1.210027e+01 -1.730701e+00 -1.261244e+00 -7.720377e+00 -2.769340e-01 -1.602023e+01 -2.104592e+00 -9.358380e+00 -3.920315e+00 -8.003504e+00 7.378848e-01 -3.899621e+00 8.089188e+01 3.223444e-01 -1.160037e-02 -3.170916e-01 -2.290169e-01 -1.295017e-01 -1.443318e-01 1.071959e-02 1.090706e-01 1.341057e-01 -8.730951e-02 1.317248e-01 3.798600e-01 2.163877e-01 1.188912e-01 4.568265e-02 -8.948677e-03 -2.088980e-02 1.077376e-01 -3.984517e-02 6.921101e-02 2.024546e-02 -1.010399e-01 -8.905818e-02 -6.326982e-02 -1.055208e-02 -7.305488e-02
<VARIANCE> 39
 3.159352e+01 5.564195e+01 1.795972e+01 4.464294e+01 3.845382e+01 9.830976e+01 3.388618e+01 2.127735e+01 1.873704e+01 3.925694e+01 3.182820e+01 2.519220e+01 9.699223e+01 2.913784e+00 7.469056e+00 2.221821e+00 2.183982e+00 3.455302e+00 6.829784e+00 2.908854e+00 2.226367e+00 2.928331e+00 5.203290e+00 3.735991e+00 2.040069e+00 6.204697e+00 6.594049e-01 1.310848e+00 4.198650e-01 3.362931e-01 5.558240e-01 1.007770e+00 5.180299e-01 4.452268e-01 8.048179e-01 8.453949e-01 7.486320e-01 4.287853e-01 8.615732e-01
<GCONST> 1.289651e+02
<STATE> 4
<MEAN> 39
 -6.930880e+00 -1.083608e+00 -1.138721e+01 -2.043020e+01 8.536632e+00 -1.344332e+01 8.497332e-01 -1.029108e+01 1.061929e+01 -1.822803e+01 4.249653e+00 1.172819e+00 8.951150e+01 -1.952211e-01 -3.320658e-01 2.569138e-01 3.301242e-01 6.712363e-01 -2.982013e-01 -6.086451e-01 -1.440043e-01 8.914775e-01 7.711464e-02 1.728530e-01 -4.802640e-01 -3.268134e-01 -8.072194e-02 1.000034e-01 2.014924e-01 1.335274e-01 -1.395717e-01 -9.471572e-02 -6.227272e-02 2.085765e-02 -1.434955e-01 1.789817e-02 -6.303685e-02 -7.229289e-02 -8.499295e-02
<VARIANCE> 39
 4.018319e+00 1.234713e+01 1.523603e+01 1.130537e+01 4.108684e+01 2.511733e+01 1.983241e+01 1.782844e+01 4.592608e+01 2.462275e+01 1.515888e+01 3.224544e+01 1.130694e+01 3.379684e-01 7.773015e-01 1.496584e+00 1.288360e+00 1.911414e+00 1.978848e+00 1.011086e+00 1.057443e+00 2.073334e+00 1.731213e+00 1.049721e+00 1.175488e+00 2.797650e-01 5.794616e-02 1.159857e-01 1.407876e-01 1.729289e-01 2.684499e-01 2.154955e-01 1.512654e-01 2.216156e-01 2.295994e-01 2.768498e-01 1.956133e-01 1.940596e-01 4.341582e-02
<GCONST> 8.599014e+01
<STATE> 5
<MEAN> 39
 -1.313129e+01 -8.686987e+00 5.141378e+00 -3.158000e+00 2.992969e+00 -2.418674e+01 -7.686016e+00 8.997042e-01 4.619543e+00 -1.086721e+01 -1.099085e-01 -3.887371e+00 7.420996e+01 -1.328486e-01 -3.464844e-01 2.333854e-01 7.575164e-01 -6.731375e-01 2.838203e-01 1.135793e-01 8.799836e-01 -7.377568e-01 3.679456e-01 -4.489950e-01 2.664475e-01 -1.077389e+00 4.767791e-02 6.550255e-02 -1.183136e-01 -1.215548e-01 4.925777e-02 1.813063e-01 4.515232e-02 -1.042521e-01 -3.464905e-03 4.394853e-03 -2.211389e-03 1.648934e-02 1.250851e-02
<VARIANCE> 39
 6.984917e+00 3.374308e+01 4.399635e+01 4.436547e+01 7.631408e+01 4.493055e+01 2.077627e+01 8.951030e+01 5.445820e+01 4.085728e+01 3.136314e+01 3.445549e+01 5.612736e+01 8.800901e-01 1.779971e+00 2.441599e+00 1.742555e+00 3.467326e+00 3.740566e+00 1.688164e+00 3.241797e+00 1.998566e+00 3.270740e+00 1.859465e+00 1.510135e+00 4.262057e-01 1.391829e-01 2.153609e-01 1.977181e-01 2.809719e-01 5.398211e-01 4.677449e-01 2.821240e-01 4.588669e-01 3.593040e-01 6.504864e-01 3.666739e-01 2.461565e-01 7.605724e-02
<GCONST> 1.110677e+02
<TRANSP> 6
 0.000000e+00 1.000000e+00 0.000000e+00 0.000000e+00 0.000000e+00 0.000000e+00
 0.000000e+00 9.553571e-01 4.464285e-02 0.000000e+00 0.000000e+00 0.000000e+00
 0.000000e+00 0.000000e+00 9.730458e-01 2.695418e-02 0.000000e+00 0.000000e+00
 0.000000e+00 0.000000e+00 0.000000e+00 9.438202e-01 5.617978e-02 0.000000e+00
 0.000000e+00 0.000000e+00 0.000000e+00 0.000000e+00 9.519231e-01 4.807693e-02
 0.000000e+00 0.000000e+00 0.000000e+00 0.000000e+00 0.000000e+00 0.000000e+00
<ENDHMM>
