~o
<STREAMINFO> 1 39
<VECSIZE> 39<NULLD><MFCC_D_A_0><DIAGC>
~h "one"
<BEGINHMM>
<NUMSTATES> 6
<STATE> 2
<MEAN> 39
 -4.896236e+00 1.075881e+01 1.261730e+00 -1.334551e+01 -4.817063e+00 -1.783406e+01 -2.146756e+00 -4.088671e+00 -6.239536e+00 -9.124290e+00 -5.545402e+00 -9.044222e+00 8.101936e+01 6.829935e-01 -8.414376e-01 -1.010730e+00 -3.327696e-01 -9.391257e-01 -4.015092e-02 -1.424003e-02 1.786010e-01 2.064718e-01 -7.668190e-02 -1.600401e-01 3.335340e-01 2.466535e+00 -2.108781e-01 -3.450951e-01 -1.767592e-01 1.322473e-01 1.772157e-01 3.008534e-01 1.201595e-01 1.317126e-01 2.246734e-01 1.201606e-01 1.048446e-01 1.450397e-01 -1.541204e-01
<VARIANCE> 39
 1.974731e+01 5.236900e+01 2.885336e+01 4.849556e+01 6.286806e+01 6.312109e+01 6.015237e+01 2.467721e+01 2.583290e+01 4.372033e+01 2.312826e+01 2.933941e+01 9.229539e+01 1.734018e+00 8.788450e+00 2.821118e+00 3.509488e+00 5.672866e+00 6.343261e+00 2.973516e+00 2.086899e+00 3.949551e+00 5.218023e+00 2.082060e+00 2.456051e+00 2.827808e+00 2.955187e-01 1.510041e+00 5.516064e-01 6.884860e-01 1.097041e+00 9.710355e-01 5.146868e-01 3.748314e-01 7.318624e-01 1.001093e+00 4.971032e-01 3.663038e-01 5.444344e-01
<GCONST> 1.296680e+02
<STATE> 3
<MEAN> 39
 -5.861858e+00 2.859039e+00 -5.738462e+00 -1.520857e+01 -1.806828e+00 -1.296904e+01 1.585648e+00 -1.632511e+00 -4.411372e+00 -1.279211e+01 4.618784e+00 1.389686e-02 9.299325e+01 -4.347226e-01 4.933100e-01 3.798814e-01 7.521787e-02 1.191759e+00 -1.135663e-01 2.914308e-01 -4.730865e-01 -4.913751e-01 -3.718117e-01 1.858127e+00 1.342182e-01 -3.657684e-01 1.714590e-03 1.901890e-01 2.251314e-01 1.467959e-01 1.400582e-01 -2.419042e-02 -1.120618e-01 -1.374293e-01 -8.571517e-02 9.371789e-02 -1.570252e-01 -1.358953e-01 -2.611306e-01
<VARIANCE> 39
 5.374040e+00 1.241916e+01 1.583441e+01 1.132764e+01 3.597200e+01 2.355723e+01 3.310223e+01 3.121358e+01 4.666285e+01 3.081235e+01 9.800225e+01 2.364490e+01 4.522210e+00 1.770203e-01 8.543177e-01 1.215177e+00 1.417823e+00 1.757216e+00 2.030543e+00 1.475188e+00 2.671442e+00 2.145180e+00 2.896898e+00 3.534312e+00 2.752904e+00 6.360568e-01 4.462240e-02 1.946442e-01 1.885530e-01 3.355782e-01 2.790431e-01 5.041158e-01 1.791484e-01 4.258435e-01 4.830841e-01 5.257052e-01 1.024979e+00 3.373192e-01 1.000554e-01
<GCONST> 9.945058e+01
<STATE> 4
<MEAN> 39
 -7.748007e+00 5.287174e+00 3.881096e+00 -5.936315e+00 1.678304e+01 -1.033893e+01 -3.055748e+00 -7.541777e+00 -4.556644e+00 -7.613168e+00 6.523699e+00 -5.306714e+00 7.761427e+01 2.971080e-01 -5.194688e-01 5.657140e-01 1.093460e+00 6.466736e-01 7.534429e-01 -5.675241e-01 -1.968312e-02 3.006083e-01 6.555431e-01 -1.367144e+00 -1.283352e-01 -1.525120e+00 6.845795e-02 -1.263887e-01 -2.090206e-01 -7.861883e-02 -3.553812e-01 -5.465052e-02 3.049058e-02 9.540050e-02 -8.580880e-03 -4.764093e-02 9.673543e-02 5.403625e-02 1.057910e-01
<VARIANCE> 39
 1.616138e+01 1.476265e+01 1.653964e+01 2.913126e+01 4.064814e+01 3.879419e+01 2.498637e+01 2.283971e+01 5.949841e+01 2.785465e+01 7.672163e+01 1.381978e+01 3.024490e+01 6.101995e-01 6.086276e-01 1.399512e+00 3.361554e+00 4.312140e+00 2.231362e+00 1.793360e+00 2.303867e+00 2.022770e+00 2.153779e+00 3.734062e+00 9.778454e-01 1.273929e+00 1.174447e-01 1.421055e-01 2.159494e-01 6.728436e-01 6.168024e-01 4.264892e-01 3.217014e-01 3.964454e-01 3.482689e-01 3.879082e-01 7.576081e-01 1.426942e-01 2.006151e-01
<GCONST> 1.068283e+02
<STATE> 5
<MEAN> 39
 -5.674120e+00 8.465661e-01 4.011660e+00 3.264616e+00 8.561853e+00 -3.339084e+00 -6.551917e+00 -6.941162e+00 -5.370130e+00 -1.466641e+00 1.012740e+00 -5.358074e+00 6.693938e+01 -3.848369e-01 -3.195831e-01 -2.040101e-01 3.067508e-01 -7.559310e-01 4.971133e-01 1.083423e-01 2.946213e-01 8.616451e-02 3.918108e-01 -2.322856e-01 6.526012e-02 -6.811736e-01 -7.358439e-02 1.869499e-02 3.654671e-02 -1.170490e-01 1.138414e-01 -3.899691e-02 5.378495e-02 2.355677e-02 1.890948e-02 -5.054245e-02 6.229126e-03 2.856140e-02 4.732806e-02
<VARIANCE> 39
 1.565188e+01 1.952300e+01 1.634630e+01 8.288962e+00 2.795750e+01 1.848388e+01 2.530185e+01 2.114338e+01 1.986752e+01 5.436364e+01 2.469437e+01 2.080826e+01 1.470392e+01 6.576403e-01 7.042925e-01 9.334795e-01 9.750617e-01 1.671260e+00 1.481533e+00 1.792529e+00 1.687189e+00 1.465281e+00 1.979885e+00 1.246923e+00 1.547448e+00 2.089501e-01 7.989362e-02 1.167766e-01 1.431537e-01 1.408593e-01 2.586168e-01 2.948700e-01 2.920948e-01 3.487277e-01 2.704978e-01 3.473242e-01 2.578108e-01 3.178364e-01 3.471518e-02
<GCONST> 9.039576e+01
<TRANSP> 6
 0.000000e+00 1.000000e+00 0.000000e+00 0.000000e+00 0.000000e+00 0.000000e+00
 0.000000e+00 8.927300e-01 1.072700e-01 0.000000e+00 0.000000e+00 0.000000e+00
 0.000000e+00 0.000000e+00 9.222890e-01 7.771101e-02 0.000000e+00 0.000000e+00
 0.000000e+00 0.000000e+00 0.000000e+00 9.111104e-01 8.888962e-02 0.000000e+00
 0.000000e+00 0.000000e+00 0.000000e+00 0.000000e+00 9.245836e-01 7.541637e-02
 0.000000e+00 0.000000e+00 0.000000e+00 0.000000e+00 0.000000e+00 0.000000e+00
<ENDHMM>
