~o
<STREAMINFO> 1 39
<VECSIZE> 39<NULLD><MFCC_D_A_0><DIAGC>
~h "sil"
<BEGINHMM>
<NUMSTATES> 6
<STATE> 2
<MEAN> 39
 -1.558955e+01 -3.384698e+00 -4.508788e-01 -4.583884e+00 1.939550e+00 -3.063176e+00 -2.112144e+00 -3.654700e+00 -3.734730e+00 -2.724196e+00 -6.042806e-02 -1.837490e+00 6.193977e+01 2.888393e-02 -4.304851e-03 -7.671151e-02 9.907523e-02 -1.109373e-01 1.220413e-01 -1.894434e-02 -5.400698e-03 3.844676e-02 -4.480649e-02 -7.179940e-02 -3.128104e-02 -9.186330e-02 1.657013e-02 -6.557827e-03 4.629039e-03 2.256894e-02 -3.601788e-02 -2.707170e-02 -2.745422e-03 -1.743273e-02 3.704291e-02 -4.427922e-03 5.728707e-03 -1.198862e-02 2.856661e-02
<VARIANCE> 39
 2.263428e+01 2.433196e+01 3.645012e+01 4.175651e+01 2.544681e+01 3.075230e+01 2.353667e+01 3.408705e+01 2.444568e+01 2.036878e+01 2.330911e+01 2.011582e+01 1.684926e+01 1.253825e+00 1.328858e+00 1.642352e+00 2.032835e+00 2.148376e+00 2.224853e+00 2.160840e+00 2.202949e+00 2.124610e+00 2.001511e+00 1.599090e+00 1.531724e+00 1.695585e+00 2.225717e-01 2.330602e-01 2.953399e-01 3.431459e-01 4.018633e-01 3.937944e-01 4.143848e-01 4.082904e-01 4.180020e-01 3.912036e-01 3.039691e-01 2.944209e-01 3.212768e-01
<GCONST> 1.073352e+02
<STATE> 3
<MEAN> 39
 -1.551854e+01 -2.474370e+00 -1.245198e+00 -3.222741e+00 -4.564202e-01 -3.540834e+00 -2.004252e+00 -3.049882e+00 -2.188878e+00 -2.761000e+00 -1.325269e+00 -2.205271e+00 5.995486e+01 2.770069e-02 -3.523850e-02 3.561936e-03 2.486952e-02 -2.581389e-02 -1.850500e-03 2.786964e-02 -1.030226e-02 3.314287e-02 -2.703670e-02 -8.838517e-03 -1.955235e-02 5.101829e-02 1.492211e-03 -2.331017e-03 9.598995e-03 -1.439347e-02 9.013477e-03 -3.572346e-03 -8.456062e-03 6.093714e-05 -1.327518e-02 6.614093e-03 4.411173e-03 2.071890e-03 1.092240e-02
<VARIANCE> 39
 5.861395e+00 4.565506e+00 7.222666e+00 1.011176e+01 8.873513e+00 1.080646e+01 1.025320e+01 1.277635e+01 1.090329e+01 1.074971e+01 1.073009e+01 9.508271e+00 3.735363e+00 1.699423e-01 2.227079e-01 3.908597e-01 6.102622e-01 8.155015e-01 9.133056e-01 1.044307e+00 1.086118e+00 1.146054e+00 1.083760e+00 1.051084e+00 9.085486e-01 8.218620e-02 3.327912e-02 4.536199e-02 8.114109e-02 1.201501e-01 1.622029e-01 1.872603e-01 2.195219e-01 2.213747e-01 2.343150e-01 2.268763e-01 2.209561e-01 1.882337e-01 1.326629e-02
<GCONST> 6.411453e+01
<STATE> 4
<MEAN> 39
 -1.427739e+01 -4.354654e+00 -1.122162e+00 -2.802513e+00 -2.313209e+00 -2.472773e+00 -3.123581e+00 -1.721822e+00 -3.032228e+00 -1.951383e+00 -2.399524e+00 -1.561990e+00 5.905269e+01 -3.832973e-03 3.003155e-03 -8.534228e-03 1.096212e-02 -2.143016e-02 2.230819e-02 -2.490998e-02 9.169029e-03 -4.458484e-03 2.130328e-02 4.791740e-04 9.874325e-03 -3.822409e-02 6.270295e-04 3.626644e-03 4.542928e-03 -2.593214e-03 9.415858e-03 -3.728755e-03 6.212287e-03 5.681485e-03 -1.086637e-03 2.103358e-04 2.802166e-04 1.015541e-03 5.095132e-03
<VARIANCE> 39
 1.933769e+00 2.325333e+00 2.866546e+00 4.735113e+00 5.257677e+00 6.304921e+00 7.062099e+00 7.681314e+00 7.845182e+00 7.720773e+00 7.167745e+00 6.599321e+00 1.546591e+00 6.301932e-02 1.302782e-01 2.304542e-01 3.468007e-01 4.641899e-01 5.796419e-01 6.737708e-01 7.533709e-01 7.771968e-01 7.973247e-01 7.348729e-01 6.354166e-01 1.981411e-02 1.290656e-02 2.695939e-02 4.831380e-02 7.134673e-02 9.569091e-02 1.197962e-01 1.388975e-01 1.554123e-01 1.603590e-01 1.649970e-01 1.531082e-01 1.275760e-01 3.917516e-03
<GCONST> 4.215010e+01
<STATE> 5
<MEAN> 39
 -1.531947e+01 -2.431601e+00 5.526863e-01 -4.626173e+00 1.996949e+00 -4.203059e+00 -9.612262e-01 -3.430323e+00 -2.725891e+00 -2.944739e+00 -1.225633e+00 -2.755034e+00 6.397206e+01 5.368701e-02 4.225796e-02 3.556079e-01 -5.525110e-01 5.143207e-01 -6.036806e-01 1.662458e-01 -3.873756e-01 -1.634342e-01 -1.840546e-01 6.340140e-03 -2.492658e-01 1.232106e+00 1.682706e-02 6.556441e-03 3.717415e-02 -9.639151e-02 3.711475e-02 -1.614092e-01 2.391350e-03 -1.161190e-01 -2.902776e-02 -1.187475e-01 2.030650e-02 -6.763775e-02 3.079477e-01
<VARIANCE> 39
 2.235373e+01 2.793514e+01 2.603999e+01 4.178556e+01 2.800181e+01 4.041428e+01 2.279037e+01 2.829665e+01 2.528383e+01 2.029499e+01 2.167410e+01 1.535656e+01 4.221695e+01 2.709873e+00 3.188196e+00 2.734242e+00 3.610119e+00 3.108324e+00 4.412184e+00 2.434044e+00 2.645689e+00 2.887666e+00 2.630387e+00 2.386455e+00 1.548835e+00 6.534315e+00 4.422868e-01 5.364127e-01 4.975021e-01 6.579990e-01 5.700535e-01 7.593754e-01 5.008349e-01 4.788406e-01 4.794970e-01 4.890507e-01 4.267594e-01 2.887558e-01 9.866801e-01
<GCONST> 1.201587e+02
<TRANSP> 6
 0.000000e+00 6.148737e-01 3.851263e-01 0.000000e+00 0.000000e+00 0.000000e+00
 0.000000e+00 9.221156e-01 7.548313e-02 2.401302e-03 0.000000e+00 0.000000e+00
 0.000000e+00 0.000000e+00 9.508439e-01 3.272933e-02 1.642684e-02 0.000000e+00
 0.000000e+00 0.000000e+00 0.000000e+00 9.706856e-01 1.085273e-02 1.846168e-02
 0.000000e+00 0.000000e+00 0.000000e+00 0.000000e+00 8.972325e-01 1.027675e-01
 0.000000e+00 0.000000e+00 0.000000e+00 0.000000e+00 0.000000e+00 0.000000e+00
<ENDHMM>
