~o
<STREAMINFO> 1 39
<VECSIZE> 39<NULLD><MFCC_D_A_0><DIAGC>
~h "multiply"
<BEGINHMM>
<NUMSTATES> 6
<STATE> 2
<MEAN> 39
 -4.812523e+00 6.821474e+00 -3.145607e+00 -1.469168e+01 -2.160455e+00 -1.554886e+01 1.093475e+01 -8.211334e+00 -2.352967e+01 -1.672382e+01 -4.494191e+00 -8.312928e+00 8.175010e+01 -3.963902e-01 7.351211e-03 -2.630765e-02 -1.850972e-01 -1.812705e-01 -1.948278e-01 6.094541e-02 -3.526774e-01 4.517467e-01 -1.224919e-01 3.977810e-01 -2.928318e-01 7.762053e-01 -3.090278e-01 -2.794101e-01 -7.624676e-02 8.498555e-02 -1.130910e-01 1.510460e-01 -1.436493e-01 3.152914e-02 4.118743e-01 2.938016e-01 2.366681e-01 1.228985e-01 1.594224e-02
<VARIANCE> 39
 1.820470e+01 1.296328e+01 4.712828e+01 2.449850e+01 7.970444e+01 3.188550e+01 4.249695e+01 2.130645e+01 4.991024e+01 2.268228e+01 6.242111e+01 3.373145e+01 5.277190e+01 5.419961e+00 2.684092e+00 3.759465e+00 3.149312e+00 6.903883e+00 5.514548e+00 4.562936e+00 2.727407e+00 1.255674e+01 3.788414e+00 7.233532e+00 3.225315e+00 6.324231e+00 5.845505e-01 6.395948e-01 6.211455e-01 5.247702e-01 9.934961e-01 8.941262e-01 6.267211e-01 5.836735e-01 1.721155e+00 7.030898e-01 1.248066e+00 6.035058e-01 6.572497e-01
<GCONST> 1.339163e+02
<STATE> 3
<MEAN> 39
 -1.209384e+01 -1.724730e+00 -1.263426e+00 -7.744961e+00 -2.791149e-01 -1.601237e+01 -2.102713e+00 -9.361457e+00 -3.917872e+00 -8.017743e+00 7.341628e-01 -3.876554e+00 8.091354e+01 3.202068e-01 -1.787039e-02 -3.163649e-01 -2.283264e-01 -1.264180e-01 -1.436919e-01 9.561859e-03 1.071553e-01 1.378088e-01 -8.288032e-02 1.324296e-01 3.828835e-01 2.177329e-01 1.193093e-01 4.592260e-02 -9.263610e-03 -2.029080e-02 1.073953e-01 -4.019004e-02 6.925020e-02 2.067813e-02 -1.004149e-01 -8.942229e-02 -6.394550e-02 -1.123462e-02 -7.398000e-02
<VARIANCE> 39
 3.156030e+01 5.557521e+01 1.794273e+01 4.494208e+01 3.839702e+01 9.817973e+01 3.382253e+01 2.124661e+01 1.870730e+01 3.931433e+01 3.178988e+01 2.545162e+01 9.711968e+01 2.911977e+00 7.479303e+00 2.218994e+00 2.180116e+00 3.455962e+00 6.817696e+00 2.904956e+00 2.224785e+00 2.930673e+00 5.202054e+00 3.729747e+00 2.042042e+00 6.194709e+00 6.582614e-01 1.308741e+00 4.192292e-01 3.361116e-01 5.550125e-01 1.006101e+00 5.171856e-01 4.445632e-01 8.030746e-01 8.438941e-01 7.472966e-01 4.282075e-01 8.607083e-01
<GCONST> 1.289453e+02
<STATE> 4
<MEAN> 39
 -6.916813e+00 -1.066986e+00 -1.147724e+01 -2.047954e+01 8.555620e+00 -1.337628e+01 9.384972e-01 -1.027524e+01 1.060884e+01 -1.827614e+01 4.254880e+00 1.168221e+00 8.953320e+01 -1.791079e-01 -3.291622e-01 2.432916e-01 3.136640e-01 6.803871e-01 -2.844283e-01 -6.127267e-01 -1.527065e-01 9.000090e-01 7.337825e-02 1.721672e-01 -4.906320e-01 -3.232920e-01 -7.904866e-02 1.017684e-01 2.036828e-01 1.344316e-01 -1.472387e-01 -9.785230e-02 -6.464466e-02 1.661016e-02 -1.473229e-01 2.744843e-02 -5.997908e-02 -6.929976e-02 -7.993819e-02
<VARIANCE> 39
 4.025764e+00 1.230794e+01 1.482825e+01 1.102969e+01 4.121563e+01 2.476836e+01 1.938392e+01 1.804469e+01 4.536898e+01 2.468939e+01 1.499000e+01 3.221559e+01 1.117520e+01 3.115875e-01 7.267219e-01 1.488806e+00 1.276155e+00 1.913307e+00 1.975125e+00 1.013854e+00 1.039777e+00 2.058799e+00 1.735064e+00 1.045356e+00 1.163024e+00 2.691617e-01 5.475229e-02 1.170278e-01 1.409207e-01 1.724418e-01 2.666768e-01 2.170836e-01 1.526315e-01 2.215437e-01 2.308988e-01 2.730879e-01 1.962393e-01 1.958012e-01 4.082678e-02
<GCONST> 8.554776e+01
<STATE> 5
<MEAN> 39
 -1.308397e+01 -8.642829e+00 5.046216e+00 -3.262048e+00 3.055785e+00 -2.415417e+01 -7.680908e+00 7.911929e-01 4.717982e+00 -1.089541e+01 -5.930613e-02 -3.864773e+00 7.431332e+01 -1.443702e-01 -3.383371e-01 2.454207e-01 7.678803e-01 -6.720291e-01 2.654757e-01 1.109096e-01 8.807757e-01 -7.350953e-01 3.610315e-01 -4.443470e-01 2.607820e-01 -1.077964e+00 4.365855e-02 6.413218e-02 -1.163138e-01 -1.206715e-01 5.383632e-02 1.818608e-01 4.579727e-02 -1.004919e-01 -2.459726e-03 -2.684326e-03 -3.966319e-03 1.414696e-02 9.089158e-03
<VARIANCE> 39
 7.197821e+00 3.375730e+01 4.463337e+01 4.527969e+01 7.613485e+01 4.479801e+01 2.063998e+01 9.006046e+01 5.536517e+01 4.066631e+01 3.157362e+01 3.435321e+01 5.690475e+01 8.971723e-01 1.782204e+00 2.443512e+00 1.742862e+00 3.440410e+00 3.753099e+00 1.682283e+00 3.227361e+00 1.997974e+00 3.251650e+00 1.860734e+00 1.503893e+00 4.234787e-01 1.414793e-01 2.138434e-01 1.975041e-01 2.804118e-01 5.375619e-01 4.638448e-01 2.799079e-01 4.578889e-01 3.570100e-01 6.505336e-01 3.653652e-01 2.449485e-01 7.767073e-02
<GCONST> 1.111393e+02
<TRANSP> 6
 0.000000e+00 1.000000e+00 0.000000e+00 0.000000e+00 0.000000e+00 0.000000e+00
 0.000000e+00 9.553592e-01 4.464078e-02 0.000000e+00 0.000000e+00 0.000000e+00
 0.000000e+00 0.000000e+00 9.730892e-01 2.691086e-02 0.000000e+00 0.000000e+00
 0.000000e+00 0.000000e+00 0.000000e+00 9.430330e-01 5.696701e-02 0.000000e+00
 0.000000e+00 0.000000e+00 0.000000e+00 0.000000e+00 9.523461e-01 4.765383e-02
 0.000000e+00 0.000000e+00 0.000000e+00 0.000000e+00 0.000000e+00 0.000000e+00
<ENDHMM>
