~o
<STREAMINFO> 1 39
<VECSIZE> 39<NULLD><MFCC_D_A_0><DIAGC>
~h "divide"
<BEGINHMM>
<NUMSTATES> 6
<STATE> 2
<MEAN> 39
 -9.253587e+00 2.898275e+00 5.338087e+00 -6.161885e+00 6.655208e+00 -1.780218e+01 -8.142371e+00 -9.774813e+00 -8.973265e+00 -1.548014e+01 -4.152400e+00 -9.068699e+00 8.191531e+01 9.089162e-01 1.815502e-01 -6.113905e-01 -5.454175e-01 -2.241900e-01 -2.099503e-01 1.383448e-01 -1.663779e-01 -7.429658e-01 -1.655718e-01 2.925809e-01 1.048667e-01 4.639198e-01 1.808938e-02 -8.784340e-02 -2.186300e-01 -6.606142e-02 -9.468126e-02 1.943941e-01 1.593347e-01 3.720826e-02 1.021604e-01 1.897163e-01 6.551418e-02 7.320482e-02 -1.923897e-01
<VARIANCE> 39
 3.845383e+01 3.087487e+01 4.361822e+01 6.363375e+01 3.182177e+01 6.462728e+01 5.094250e+01 3.259947e+01 3.594258e+01 2.700239e+01 2.919081e+01 2.136268e+01 1.550335e+01 4.263831e+00 2.898554e+00 3.396717e+00 5.354572e+00 3.174953e+00 7.760632e+00 5.280748e+00 1.939894e+00 3.609646e+00 4.011602e+00 3.051010e+00 2.282447e+00 2.432837e+00 8.621796e-01 3.864842e-01 2.654378e-01 8.188798e-01 3.449013e-01 9.729075e-01 7.117891e-01 3.797236e-01 8.269018e-01 6.807764e-01 5.084140e-01 3.877244e-01 5.685486e-01
<GCONST> 1.264436e+02
<STATE> 3
<MEAN> 39
 -1.517604e+00 -2.255410e+00 -1.687946e+01 -1.851318e+01 1.018979e+00 -1.393663e+01 1.669348e+00 -1.041864e+01 -4.168317e+00 -1.408202e+01 5.816400e+00 -4.788168e+00 8.821857e+01 -2.361214e-01 -1.493454e-01 -4.598995e-02 3.248223e-01 7.650916e-01 -3.596423e-01 -3.472019e-01 2.380909e-01 1.140519e+00 7.614671e-03 4.850118e-01 -2.419863e-01 4.364591e-02 -1.141797e-01 4.936996e-02 2.901727e-01 9.939019e-02 4.764648e-02 -1.298733e-01 -1.827742e-01 5.990233e-02 -3.949377e-02 -6.526279e-02 -1.654077e-02 -2.227098e-02 -5.120642e-02
<VARIANCE> 39
 2.993396e+00 7.408955e+00 1.874310e+01 7.246130e+00 3.766250e+01 3.330141e+01 2.667914e+01 2.988016e+01 5.623324e+01 2.405646e+01 3.416693e+01 1.350246e+01 3.830053e+00 2.910380e-01 5.503293e-01 2.795866e+00 6.886505e-01 1.125888e+00 2.488344e+00 1.934203e+00 1.045306e+00 1.232790e+00 1.409365e+00 1.487689e+00 9.637792e-01 7.967611e-02 2.854201e-02 1.128582e-01 1.347967e-01 1.019297e-01 1.793877e-01 2.293781e-01 1.318421e-01 1.650897e-01 2.341709e-01 2.490986e-01 2.885516e-01 1.574012e-01 2.168564e-02
<GCONST> 8.032258e+01
<STATE> 4
<MEAN> 39
 -1.023685e+01 -2.669115e+00 3.781734e+00 -7.358265e+00 1.100737e+01 -2.923475e+01 -1.315485e+01 -5.341194e+00 9.663495e-01 -1.523690e+01 9.371508e+00 -6.807590e+00 8.547658e+01 -5.761828e-01 5.055848e-01 1.991223e+00 1.131069e+00 3.162104e-01 -2.088966e-02 -2.064655e-01 -2.058752e-01 -1.357532e+00 -4.696323e-01 -1.315775e+00 1.954234e-01 -1.276007e+00 1.887205e-01 4.152123e-02 -5.805408e-01 -2.195323e-01 -1.381126e-01 7.201014e-01 4.747241e-01 -1.387977e-01 -1.067118e-01 2.461998e-01 -1.645623e-01 1.261874e-01 -3.834013e-01
<VARIANCE> 39
 5.476336e+00 1.794120e+01 5.506317e+01 1.762461e+01 1.349520e+01 1.909175e+01 1.802819e+01 2.375500e+01 3.301711e+01 1.746502e+01 2.177245e+01 1.187011e+01 1.370928e+01 5.082776e-01 9.000539e-01 3.288918e+00 7.616884e-01 1.168407e+00 5.508467e+00 4.095635e+00 1.414783e+00 1.172943e+00 1.626829e+00 1.652871e+00 9.412623e-01 1.673984e+00 2.843993e-02 2.460410e-01 4.389050e-01 1.690726e-01 4.277799e-01 3.227470e-01 3.128827e-01 2.875048e-01 3.407713e-01 5.052263e-01 2.441471e-01 2.324717e-01 1.147551e-01
<GCONST> 9.589748e+01
<STATE> 5
<MEAN> 39
 -1.628654e+01 -6.396333e+00 1.562574e+00 -9.569705e+00 1.408158e+00 -1.187735e+01 -6.876256e+00 -7.895447e+00 -2.432877e+00 -5.114872e+00 3.964986e-01 -3.557217e+00 7.178472e+01 -3.297826e-01 -4.957944e-01 -3.685552e-01 -2.810470e-01 -6.656045e-01 9.426264e-01 1.608874e-01 2.792431e-01 2.414380e-01 9.593460e-01 -9.893527e-02 2.113592e-01 -7.074002e-01 -2.014683e-02 2.433985e-02 1.182368e-01 7.360286e-02 3.886751e-02 -1.624755e-01 -1.002079e-01 5.514320e-02 2.083522e-02 -8.184171e-02 1.762684e-02 -2.772601e-02 1.063060e-01
<VARIANCE> 39
 3.859398e+01 2.491480e+01 1.739699e+01 2.616341e+01 2.756565e+01 2.988923e+01 2.071704e+01 1.934883e+01 2.129902e+01 3.578288e+01 2.231109e+01 2.316553e+01 7.489625e+01 4.332973e+00 1.848965e+00 3.987614e+00 3.275443e+00 2.960581e+00 5.746556e+00 3.058737e+00 2.556831e+00 1.943898e+00 4.740016e+00 2.197292e+00 2.823707e+00 1.309280e+01 8.593836e-01 3.633186e-01 7.533874e-01 6.728032e-01 5.063957e-01 8.708519e-01 7.421277e-01 4.380111e-01 3.988346e-01 7.983351e-01 4.918057e-01 5.329590e-01 2.278980e+00
<GCONST> 1.252878e+02
<TRANSP> 6
 0.000000e+00 1.000000e+00 0.000000e+00 0.000000e+00 0.000000e+00 0.000000e+00
 0.000000e+00 9.486642e-01 5.133575e-02 0.000000e+00 0.000000e+00 0.000000e+00
 0.000000e+00 0.000000e+00 9.439319e-01 5.606812e-02 0.000000e+00 0.000000e+00
 0.000000e+00 0.000000e+00 0.000000e+00 8.934180e-01 1.065820e-01 0.000000e+00
 0.000000e+00 0.000000e+00 0.000000e+00 0.000000e+00 9.447578e-01 5.524218e-02
 0.000000e+00 0.000000e+00 0.000000e+00 0.000000e+00 0.000000e+00 0.000000e+00
<ENDHMM>
