~o
<STREAMINFO> 1 39
<VECSIZE> 39<NULLD><MFCC_D_A_0><DIAGC>
~h "eight"
<BEGINHMM>
<NUMSTATES> 6
<STATE> 2
<MEAN> 39
 -7.488089e+00 -4.498317e+00 1.990869e+00 -7.328267e+00 3.685058e+00 -3.448524e+01 -2.412266e+00 -1.104703e+01 -1.777839e+00 -1.100145e+01 2.076470e+00 -6.995644e+00 9.055761e+01 -9.087658e-02 7.805931e-01 1.194987e+00 9.543868e-02 7.680143e-01 -4.501462e-01 -4.748328e-01 9.760536e-02 -1.143608e-01 -2.045803e+00 -3.312408e-01 -1.890436e-01 3.350318e-01 -1.679834e-01 9.285628e-02 5.016681e-02 7.851480e-02 4.091586e-02 4.842620e-01 2.437025e-02 1.707760e-01 -7.221475e-02 -3.287754e-02 -1.071005e-01 7.635839e-02 -5.669842e-01
<VARIANCE> 39
 8.738417e+00 2.863970e+01 5.290061e+01 1.265638e+01 3.103284e+01 3.901094e+01 3.873539e+01 2.162872e+01 2.240404e+01 1.213152e+02 1.967099e+01 2.648489e+01 3.408566e+01 1.270269e+00 2.141019e+00 1.772045e+00 1.352818e+00 2.285301e+00 5.318676e+00 2.726951e+00 1.870714e+00 2.041871e+00 2.513470e+00 1.764878e+00 1.965290e+00 7.570843e+00 1.338549e-01 5.786959e-01 3.807563e-01 2.136423e-01 4.989462e-01 1.585006e+00 5.954846e-01 3.141641e-01 3.818817e-01 9.006117e-01 4.359969e-01 3.378024e-01 5.956635e-01
<GCONST> 1.156551e+02
<STATE> 3
<MEAN> 39
 -1.338005e+01 -7.466850e-01 5.007591e+00 -5.470817e+00 4.867037e+00 -1.651265e+01 -3.263187e+00 -3.483793e+00 -3.259705e+00 -1.042231e+01 -2.351044e+00 -3.329975e+00 6.771343e+01 -5.149103e-02 -2.599539e-01 -1.090977e+00 -4.271068e-02 -1.018038e+00 2.300868e+00 1.098491e-01 3.763777e-01 6.724272e-02 1.755403e+00 -1.648778e-01 5.130093e-01 -1.518089e+00 1.338483e-02 -1.284637e-01 -2.777644e-02 -1.256077e-01 -1.851395e-02 -1.347472e-01 2.316632e-02 -5.266028e-02 8.208319e-02 -1.354808e-02 9.578561e-02 -4.904953e-02 3.622868e-01
<VARIANCE> 39
 7.635164e+00 9.306720e+00 4.008728e+01 2.114691e+01 7.481934e+01 1.242600e+02 1.787047e+01 1.690672e+01 2.140483e+01 1.223386e+02 3.371223e+01 2.873006e+01 4.492402e+01 9.897953e-01 8.937766e-01 2.599871e+00 2.141851e+00 4.464727e+00 2.325891e+00 2.329323e+00 1.884149e+00 2.009214e+00 5.399129e+00 2.604055e+00 2.200323e+00 1.577972e+00 2.387822e-01 1.709790e-01 7.164544e-01 5.615733e-01 9.004387e-01 5.450885e-01 4.792563e-01 3.446878e-01 4.049384e-01 1.193105e+00 4.541385e-01 4.133261e-01 3.791403e-01
<GCONST> 1.160911e+02
<STATE> 4
<MEAN> 39
 -2.146694e+01 -7.809861e+00 2.118826e+00 -1.401328e+01 3.680735e+00 -7.501143e+00 -3.153214e-01 -5.363857e+00 1.800307e+00 -5.760161e+00 1.297951e+00 -4.783178e+00 7.927011e+01 -2.182894e+00 -1.048117e+00 1.135010e+00 -2.124870e+00 1.231233e+00 -1.142850e+00 4.568137e-01 -1.309137e+00 1.511913e+00 -8.608907e-01 9.480110e-01 -1.045926e+00 5.347675e+00 2.791801e-01 2.240148e-01 1.760290e-01 4.785645e-01 -3.167004e-01 1.421261e-02 -6.345885e-02 -2.200542e-01 2.055386e-02 9.386491e-02 -9.177434e-02 4.881830e-02 -9.743170e-02
<VARIANCE> 39
 5.126863e+01 2.562912e+01 3.197458e+01 5.522620e+01 3.993256e+01 2.203673e+01 2.050481e+01 2.261875e+01 2.578274e+01 1.790513e+01 1.108011e+01 2.037018e+01 2.162576e+02 3.338673e+00 2.804877e+00 3.432374e+00 6.523368e+00 4.938094e+00 1.640077e+00 2.922389e+00 1.689598e+00 1.467740e+00 1.832212e+00 1.086898e+00 1.733617e+00 9.736124e+00 1.213632e+00 6.303494e-01 7.696375e-01 1.598765e+00 1.076164e+00 5.059437e-01 5.373313e-01 3.474588e-01 4.861539e-01 4.903890e-01 2.368613e-01 4.255705e-01 3.906435e+00
<GCONST> 1.244046e+02
<STATE> 5
<MEAN> 39
 -1.564375e+01 -8.252496e+00 8.060908e+00 -9.807131e+00 1.562063e+00 -8.432986e+00 2.008208e+00 -1.052331e+01 3.801969e+00 -4.266299e+00 4.019208e+00 -7.459562e+00 8.402142e+01 1.013749e+00 3.721338e-01 -1.923884e-01 8.676702e-01 -4.040148e-01 5.512955e-01 -1.030217e-01 4.487996e-01 -5.164741e-01 5.112749e-01 -2.503194e-01 2.446386e-01 -1.885553e+00 -6.102570e-02 1.088425e-03 -1.022712e-01 -3.836943e-02 6.661574e-02 9.154738e-02 3.669247e-03 1.486330e-01 -3.298955e-02 -2.527994e-02 -7.141314e-02 4.006899e-02 -1.830845e-01
<VARIANCE> 39
 4.073417e+01 1.572804e+01 1.931716e+01 2.218292e+01 1.289455e+01 1.849339e+01 2.065736e+01 2.692200e+01 2.524936e+01 2.080225e+01 1.420691e+01 1.467113e+01 1.358291e+02 1.211035e+00 1.311743e+00 1.811343e+00 1.210021e+00 1.241702e+00 1.981105e+00 2.227173e+00 1.926133e+00 1.618018e+00 1.382020e+00 1.573709e+00 1.536518e+00 2.053951e+00 1.992332e-01 2.677868e-01 2.716424e-01 2.751788e-01 2.476026e-01 4.192052e-01 3.671126e-01 2.857441e-01 2.873822e-01 2.746366e-01 2.861744e-01 2.558756e-01 2.859052e-01
<GCONST> 1.020715e+02
<TRANSP> 6
 0.000000e+00 1.000000e+00 0.000000e+00 0.000000e+00 0.000000e+00 0.000000e+00
 0.000000e+00 9.380187e-01 6.198126e-02 0.000000e+00 0.000000e+00 0.000000e+00
 0.000000e+00 0.000000e+00 9.304770e-01 6.952307e-02 0.000000e+00 0.000000e+00
 0.000000e+00 0.000000e+00 0.000000e+00 8.446325e-01 1.553675e-01 0.000000e+00
 0.000000e+00 0.000000e+00 0.000000e+00 0.000000e+00 9.380652e-01 6.193478e-02
 0.000000e+00 0.000000e+00 0.000000e+00 0.000000e+00 0.000000e+00 0.000000e+00
<ENDHMM>
