~o
<STREAMINFO> 1 39
<VECSIZE> 39<NULLD><MFCC_D_A_0><DIAGC>
~h "two"
<BEGINHMM>
<NUMSTATES> 6
<STATE> 2
<MEAN> 39
 -2.023979e+01 -8.883674e+00 7.731550e-01 -8.156809e+00 2.104079e+00 -1.010752e+01 2.197410e-01 -1.205002e+01 -4.211701e+00 2.949416e-01 4.798684e+00 -7.703250e+00 8.995041e+01 7.405349e-01 6.409399e-01 -3.284443e-01 -2.686340e-01 5.968215e-01 -6.610887e-01 9.076305e-02 -1.084400e+00 -1.186271e+00 -3.518287e-01 -4.722571e-02 1.343982e-01 1.204629e+00 4.084127e-01 4.524826e-01 -5.194912e-02 1.914135e-01 -1.138678e-01 -7.119465e-02 2.854892e-02 7.491092e-02 -3.232242e-01 -3.263744e-01 -4.572306e-01 1.696214e-01 -6.227244e-01
<VARIANCE> 39
 2.312413e+01 1.460984e+01 1.712330e+01 1.010672e+01 2.135982e+01 2.435921e+01 1.570795e+01 2.322018e+01 1.902090e+01 1.706220e+01 2.051068e+01 1.455399e+01 4.724818e+01 3.879318e+00 3.949890e+00 1.781286e+00 1.597957e+00 1.933818e+00 5.232884e+00 1.749053e+00 2.035101e+00 3.797703e+00 3.167938e+00 5.778598e+00 2.240720e+00 1.226236e+01 3.555267e-01 3.610314e-01 3.873704e-01 2.712801e-01 5.474049e-01 1.078282e+00 3.661219e-01 3.808903e-01 5.135023e-01 5.112395e-01 5.970144e-01 3.757525e-01 1.679267e+00
<GCONST> 1.159413e+02
<STATE> 3
<MEAN> 39
 -7.195135e+00 5.078876e+00 3.041296e-01 -1.039757e+01 -3.248295e+00 -2.004854e+01 3.893268e+00 -1.580699e+01 -1.819070e+01 -1.090058e+01 -7.318487e+00 -5.068507e+00 9.086631e+01 4.275261e-01 6.166055e-01 4.500861e-01 -5.756148e-01 -5.071328e-01 -1.986378e-01 6.085300e-01 5.148962e-01 -1.373335e-01 -9.395782e-01 -5.890341e-01 -1.950795e-01 -3.211976e-03 -1.546156e-01 -1.756647e-01 1.444438e-01 -1.857445e-01 1.138808e-01 7.990465e-02 1.313005e-01 1.237187e-01 2.951590e-01 -4.631222e-03 2.364349e-01 -8.238827e-02 -1.461748e-01
<VARIANCE> 39
 4.120855e+00 1.318836e+01 1.350112e+01 1.587254e+01 2.040047e+01 4.316946e+01 4.948659e+01 2.976691e+01 2.835905e+01 3.086776e+01 1.586055e+01 2.069809e+01 1.047960e+01 8.400500e-01 1.351494e+00 1.379570e+00 1.939130e+00 2.114945e+00 5.514148e+00 4.577134e+00 3.183027e+00 3.859964e+00 2.841218e+00 2.076599e+00 1.573153e+00 1.286910e+00 1.517818e-01 2.647631e-01 2.558672e-01 4.386204e-01 3.018900e-01 1.126472e+00 8.459927e-01 6.550494e-01 5.893474e-01 5.566634e-01 4.508099e-01 3.039072e-01 2.079661e-01
<GCONST> 1.083678e+02
<STATE> 4
<MEAN> 39
 -7.160996e+00 8.888657e+00 6.963286e+00 -1.838501e+01 6.271821e-02 -1.843992e+01 8.681134e+00 -5.470896e+00 -1.140697e+01 -1.436011e+01 -9.646795e+00 -8.911052e+00 7.827425e+01 -1.962821e-02 -4.342425e-01 -3.501177e-01 -4.145603e-02 9.676258e-02 9.867182e-01 -6.665156e-01 7.846791e-01 6.351304e-01 9.329102e-01 3.330835e-01 2.268920e-01 -1.468817e+00 -2.577037e-02 -1.413339e-01 -2.178722e-01 3.445223e-01 -1.122449e-01 2.799112e-01 -2.660753e-01 1.734775e-02 7.990177e-02 2.664432e-01 1.073583e-01 1.871921e-01 -5.901253e-03
<VARIANCE> 39
 8.229158e+00 3.392679e+01 2.426374e+01 2.871926e+01 3.035434e+01 5.424164e+01 5.204453e+01 2.074348e+01 1.823019e+01 7.517817e+01 2.395250e+01 3.460447e+01 4.658598e+01 1.155306e+00 4.446344e+00 4.402792e+00 5.147335e+00 4.165366e+00 7.243530e+00 5.918664e+00 2.177090e+00 1.973832e+00 5.823217e+00 2.513367e+00 4.270568e+00 1.720142e+00 2.354298e-01 7.854614e-01 8.219309e-01 1.146279e+00 6.532326e-01 1.089291e+00 1.120566e+00 4.813193e-01 3.416661e-01 1.042919e+00 3.688221e-01 7.130306e-01 3.725468e-01
<GCONST> 1.260484e+02
<STATE> 5
<MEAN> 39
 -6.321620e+00 2.668444e+00 2.946348e+00 -3.741579e+00 -1.819660e+00 -1.827211e+00 4.648757e-01 4.899548e-01 -2.894825e+00 -2.680487e+00 -3.181509e+00 -2.939393e+00 6.477317e+01 -4.287744e-01 -2.150985e-01 3.407727e-01 1.723276e+00 4.594008e-01 7.183384e-01 -1.203340e-01 -8.074970e-02 4.867736e-01 3.058953e-01 2.432006e-01 1.420808e-01 -7.172729e-01 -8.263208e-02 5.303739e-02 8.725093e-02 -1.956150e-01 2.101794e-01 -2.241468e-01 8.606930e-02 -1.103800e-01 -1.269100e-01 -1.109580e-01 -9.841470e-02 -1.043017e-01 9.763818e-02
<VARIANCE> 39
 1.130628e+01 1.645057e+01 2.730296e+01 5.018043e+01 2.228280e+01 1.518046e+01 1.297457e+01 1.455632e+01 1.033469e+01 8.839123e+00 9.947786e+00 8.121034e+00 5.260320e+00 1.091119e+00 1.248134e+00 1.900971e+00 3.899205e+00 2.185568e+00 1.382861e+00 1.304772e+00 1.720807e+00 1.253432e+00 1.288482e+00 1.297755e+00 1.002748e+00 8.711461e-01 1.748478e-01 2.934569e-01 4.527185e-01 5.242115e-01 5.151132e-01 3.577109e-01 2.938693e-01 3.745174e-01 2.709333e-01 3.005979e-01 3.271536e-01 2.647606e-01 1.610190e-01
<GCONST> 9.550201e+01
<TRANSP> 6
 0.000000e+00 1.000000e+00 0.000000e+00 0.000000e+00 0.000000e+00 0.000000e+00
 0.000000e+00 8.946596e-01 1.053405e-01 0.000000e+00 0.000000e+00 0.000000e+00
 0.000000e+00 0.000000e+00 9.277967e-01 7.220327e-02 0.000000e+00 0.000000e+00
 0.000000e+00 0.000000e+00 0.000000e+00 9.240647e-01 7.593533e-02 0.000000e+00
 0.000000e+00 0.000000e+00 0.000000e+00 0.000000e+00 8.967797e-01 1.032203e-01
 0.000000e+00 0.000000e+00 0.000000e+00 0.000000e+00 0.000000e+00 0.000000e+00
<ENDHMM>
