~o
<STREAMINFO> 1 39
<VECSIZE> 39<NULLD><MFCC_D_A_0><DIAGC>
~h "plus"
<BEGINHMM>
<NUMSTATES> 6
<STATE> 2
<MEAN> 39
 -1.125015e+01 -3.787889e+00 -4.824293e+00 -1.182675e+01 -5.948614e+00 -1.120607e+01 3.247513e+00 -1.500345e+01 -8.158319e+00 -9.800468e+00 2.220370e+00 -1.138228e+00 8.535875e+01 8.727894e-01 7.198663e-01 -9.200345e-01 -4.977037e-01 -6.057491e-01 -1.233126e+00 2.810595e-01 -7.659118e-01 -1.157994e+00 -7.096784e-01 -2.055973e-01 1.499627e-01 1.376485e+00 4.909957e-02 3.005455e-02 -6.095012e-02 7.703716e-02 1.284217e-01 1.284117e-02 -7.612038e-02 2.507632e-01 1.335929e-01 1.404040e-01 -1.380783e-01 -3.940871e-02 -4.047605e-01
<VARIANCE> 39
 3.125359e+01 5.942333e+01 1.973683e+01 1.303770e+01 2.130913e+01 5.752214e+01 2.562617e+01 2.654513e+01 5.446150e+01 3.743461e+01 3.174917e+01 1.549512e+01 1.446482e+01 2.433559e+00 5.846534e+00 1.879117e+00 1.618214e+00 1.592565e+00 3.942840e+00 1.600104e+00 2.350304e+00 4.221924e+00 3.173605e+00 3.539499e+00 1.633401e+00 2.588402e+00 5.295293e-01 1.232961e+00 3.578610e-01 3.023328e-01 2.728761e-01 7.542241e-01 3.063835e-01 4.490703e-01 1.037543e+00 6.207430e-01 7.854336e-01 3.169199e-01 6.014060e-01
<GCONST> 1.185548e+02
<STATE> 3
<MEAN> 39
 -3.833188e+00 -5.607609e+00 -1.700323e+01 -1.639701e+01 2.419204e-01 -1.521214e+01 2.770278e+00 -1.306727e+01 -1.160813e+00 -1.260944e+01 3.791877e+00 -2.317029e+00 8.852143e+01 6.154845e-02 -4.856687e-01 -1.097066e-01 -2.173641e-01 5.935239e-01 4.200748e-01 -8.691483e-02 1.131435e-01 1.292693e+00 -1.309812e-01 2.783189e-01 1.956735e-01 -6.080781e-01 -8.017815e-02 1.543484e-01 1.634831e-01 1.610136e-02 -4.322490e-02 5.081627e-02 -3.315648e-02 -8.671321e-02 -7.940361e-02 -3.271647e-02 -7.674105e-03 6.724469e-02 -1.344870e-01
<VARIANCE> 39
 4.101858e+00 1.816160e+01 2.204856e+01 1.320331e+01 2.527312e+01 2.526397e+01 1.759516e+01 1.705402e+01 9.119343e+01 2.817038e+01 3.308054e+01 2.807846e+01 1.558587e+01 4.081867e-01 1.249323e+00 2.134934e+00 6.240067e-01 1.284800e+00 1.415038e+00 1.224095e+00 1.787908e+00 2.179844e+00 1.873004e+00 1.944067e+00 1.755868e+00 6.809547e-01 7.651759e-02 1.596158e-01 2.367676e-01 1.322758e-01 2.572805e-01 2.579060e-01 2.511768e-01 2.662008e-01 3.958657e-01 3.739773e-01 3.093154e-01 2.645963e-01 7.650889e-02
<GCONST> 9.423093e+01
<STATE> 4
<MEAN> 39
 -1.256150e+01 -3.709584e+00 -4.754870e+00 -1.928126e+01 5.592026e+00 -9.175625e+00 -4.417813e-01 -1.479180e+01 4.013477e+00 -1.056443e+01 6.954490e+00 1.562834e+00 7.669759e+01 -2.873580e+00 -1.910006e-01 2.147678e+00 -2.440337e-01 3.366387e-03 8.308198e-01 -3.288814e-01 1.178599e+00 -9.030332e-01 1.643799e+00 -3.464810e-01 -6.830037e-01 4.436480e-01 -4.913401e-01 -2.576834e-01 -9.042481e-02 1.073224e-01 -1.128909e-01 1.362080e-02 2.163508e-01 4.226257e-01 4.082157e-02 1.334824e-01 -1.234754e-01 -1.893491e-01 5.476688e-01
<VARIANCE> 39
 4.499399e+01 2.121706e+01 4.234592e+01 1.223045e+01 1.747867e+01 2.852077e+01 2.627439e+01 2.830292e+01 5.764442e+01 6.087748e+01 2.176643e+01 3.520683e+01 2.257290e+01 4.707982e+00 4.217439e+00 1.567114e+00 1.164782e+00 2.839116e+00 2.123331e+00 3.013553e+00 4.571931e+00 3.506505e+00 6.520089e+00 1.718742e+00 2.751850e+00 5.596570e+00 5.435818e-01 7.277445e-01 3.617968e-01 2.112171e-01 6.008773e-01 4.494221e-01 5.433507e-01 5.346702e-01 6.875752e-01 1.357119e+00 3.237159e-01 4.673231e-01 5.074381e-01
<GCONST> 1.212679e+02
<STATE> 5
<MEAN> 39
 -3.304086e+01 -5.795049e+00 2.781535e+00 -1.675035e+01 7.942718e+00 -7.646461e+00 2.914001e+00 -4.263485e+00 1.240302e+00 -3.103356e+00 1.845527e+00 -4.163490e+00 8.351791e+01 3.310950e-01 2.151373e-01 5.035833e-02 3.094933e-01 1.165320e-01 -1.182166e-01 3.888774e-02 6.459549e-02 -1.696692e-01 -3.650593e-03 -2.441874e-01 4.796825e-02 -7.914686e-01 2.523620e-01 3.568399e-02 -6.512465e-02 2.673936e-02 1.043803e-03 -1.163160e-02 -5.966822e-02 -6.228971e-02 -6.656136e-02 -2.442041e-02 -5.626805e-03 5.547644e-02 -1.730348e-01
<VARIANCE> 39
 3.581823e+01 6.885342e+00 1.137246e+01 1.384060e+01 1.781662e+01 1.680839e+01 1.575474e+01 1.211907e+01 1.114187e+01 9.140478e+00 9.055421e+00 7.126240e+00 4.665812e+01 3.336010e+00 6.342487e-01 7.413557e-01 8.734311e-01 1.454440e+00 1.399777e+00 1.558211e+00 1.571155e+00 1.241822e+00 1.325630e+00 9.473324e-01 7.372299e-01 2.250755e+00 3.631402e-01 1.429836e-01 1.330149e-01 1.548398e-01 2.432635e-01 2.427405e-01 2.780465e-01 3.533952e-01 2.321461e-01 3.426724e-01 1.866691e-01 1.310640e-01 1.466428e-01
<GCONST> 8.855135e+01
<TRANSP> 6
 0.000000e+00 1.000000e+00 0.000000e+00 0.000000e+00 0.000000e+00 0.000000e+00
 0.000000e+00 9.129145e-01 8.708553e-02 0.000000e+00 0.000000e+00 0.000000e+00
 0.000000e+00 0.000000e+00 9.433370e-01 5.666299e-02 0.000000e+00 0.000000e+00
 0.000000e+00 0.000000e+00 0.000000e+00 8.695605e-01 1.304395e-01 0.000000e+00
 0.000000e+00 0.000000e+00 0.000000e+00 0.000000e+00 9.585105e-01 4.148951e-02
 0.000000e+00 0.000000e+00 0.000000e+00 0.000000e+00 0.000000e+00 0.000000e+00
<ENDHMM>
