~o
<STREAMINFO> 1 39
<VECSIZE> 39<NULLD><MFCC_D_A_0><DIAGC>
~h "four"
<BEGINHMM>
<NUMSTATES> 6
<STATE> 2
<MEAN> 39
 -1.675880e+01 -3.818334e+00 -2.807960e+00 -1.465599e+01 4.292679e+00 -1.260936e+01 6.924115e-01 -5.248835e+00 -3.301567e+00 -6.144495e+00 7.831304e-01 -7.882930e+00 8.130647e+01 7.014119e-01 3.743037e-01 1.948791e-01 -6.376989e-01 -7.924864e-01 -1.041068e+00 -4.193915e-01 -4.523989e-01 -1.408115e-01 -2.290403e-01 -2.249274e-01 -1.602745e-01 1.052540e+00 5.162754e-02 -1.222999e-02 -3.952446e-02 1.159274e-01 -1.266013e-01 7.818491e-02 -1.036662e-01 -4.661772e-02 -5.157759e-03 5.505478e-02 1.129492e-02 1.415129e-01 -4.224562e-02
<VARIANCE> 39
 8.373000e+01 5.135954e+01 3.453114e+01 4.163118e+01 5.840387e+01 5.957658e+01 3.440781e+01 2.143533e+01 2.224894e+01 1.784153e+01 2.511662e+01 1.917314e+01 5.740151e+01 5.534734e+00 4.853951e+00 2.834442e+00 2.535563e+00 3.982825e+00 3.862154e+00 3.621787e+00 2.258986e+00 2.779449e+00 1.914065e+00 2.677397e+00 1.836576e+00 2.274319e+00 5.960501e-01 8.295363e-01 4.366134e-01 4.983053e-01 7.927424e-01 9.173536e-01 6.765230e-01 4.856996e-01 5.840727e-01 3.772993e-01 5.388030e-01 3.453090e-01 2.263618e-01
<GCONST> 1.241266e+02
<STATE> 3
<MEAN> 39
 -3.895839e-01 1.752705e+00 -7.299011e-01 -1.554266e+01 -7.757165e+00 -1.977739e+01 -9.101909e+00 -7.297436e+00 -2.211142e+00 -5.431781e+00 -6.281680e-01 -5.219486e+00 8.921536e+01 8.226481e-02 -4.245933e-01 -5.556883e-01 -4.083318e-02 -3.041460e-02 2.250472e-01 7.363360e-02 4.403340e-01 8.704874e-01 -3.065443e-01 1.541480e-01 2.130882e-01 1.466514e-01 6.064751e-03 6.257407e-02 -3.865214e-02 -1.454140e-01 8.288634e-02 9.274921e-03 1.389178e-01 -5.543204e-03 5.019416e-02 -1.130396e-01 -7.737515e-02 -9.115139e-02 -9.841929e-02
<VARIANCE> 39
 2.337024e+00 2.039130e+01 4.198417e+01 1.519656e+01 1.477709e+01 3.498218e+01 2.535345e+01 4.495173e+01 4.611676e+01 2.501156e+01 1.659177e+01 1.894564e+01 1.028611e+01 1.489017e-01 6.482447e-01 8.592916e-01 1.373583e+00 1.220614e+00 2.075458e+00 2.261016e+00 1.695373e+00 2.271435e+00 2.750021e+00 1.108352e+00 1.221666e+00 3.757911e-01 3.713853e-02 1.139751e-01 1.157685e-01 1.657078e-01 2.246003e-01 3.275425e-01 2.897754e-01 3.140621e-01 3.645051e-01 3.664747e-01 1.802911e-01 2.155650e-01 4.684257e-02
<GCONST> 8.892859e+01
<STATE> 4
<MEAN> 39
 2.517207e+00 2.664057e+00 -1.440119e+01 -1.991346e+01 3.857311e+00 -9.768541e+00 -1.574720e+00 -1.527099e+01 -3.546811e+00 -9.610542e+00 -3.074858e-01 -1.140470e+00 7.820417e+01 -1.644763e-01 -7.379235e-02 -2.948575e-01 3.152438e-01 5.513479e-01 1.208219e+00 8.853713e-02 -7.106724e-01 -1.109203e+00 4.737116e-01 2.299991e-01 2.226547e-01 -1.139435e+00 -9.502631e-02 -1.251814e-01 6.125062e-02 9.601749e-02 -1.116650e-01 3.063637e-02 -5.081338e-02 1.756386e-01 3.696678e-02 2.052396e-01 9.093165e-02 2.191611e-02 -1.355521e-02
<VARIANCE> 39
 2.257714e+01 2.284568e+01 3.179906e+01 3.111437e+01 7.360222e+01 6.532867e+01 2.741873e+01 5.818102e+01 1.283197e+02 3.859482e+01 3.040594e+01 2.127732e+01 5.053507e+01 2.893216e+00 2.084884e+00 3.114313e+00 2.687204e+00 4.965645e+00 2.392480e+00 3.145346e+00 3.923802e+00 3.602467e+00 3.002575e+00 1.724205e+00 1.657300e+00 1.345512e+00 5.036213e-01 2.745939e-01 4.073512e-01 3.904533e-01 7.539774e-01 3.994313e-01 5.976590e-01 4.985848e-01 7.489199e-01 5.753009e-01 3.277268e-01 2.928621e-01 2.447782e-01
<GCONST> 1.213920e+02
<STATE> 5
<MEAN> 39
 -8.491761e+00 -5.545953e+00 -8.955478e+00 -9.238359e+00 1.775258e+00 3.983227e+00 -2.815356e+00 -9.398767e+00 -8.249019e+00 1.083734e+00 4.880341e+00 1.403919e+00 6.369994e+01 -1.041466e+00 -3.645036e-01 8.102253e-01 8.568097e-01 -1.359398e-01 -1.483090e-01 2.282901e-01 1.061641e+00 7.186588e-01 2.472350e-01 -2.011136e-01 8.163134e-02 -6.477247e-01 7.476981e-02 1.734449e-01 9.754916e-02 1.213107e-02 5.086310e-02 -2.267061e-01 5.763794e-04 -1.383995e-01 -5.600222e-02 -1.946424e-01 -1.747639e-01 -7.484929e-02 7.326118e-02
<VARIANCE> 39
 1.531072e+01 7.023856e+00 4.017094e+01 3.048067e+01 1.392394e+01 1.781032e+01 1.397542e+01 2.191582e+01 1.597896e+01 2.534542e+01 3.233923e+01 1.496788e+01 6.298538e+00 2.823578e-01 5.404193e-01 1.200756e+00 1.255440e+00 1.223368e+00 1.381669e+00 1.168737e+00 1.478471e+00 1.339297e+00 2.341697e+00 2.375419e+00 1.220775e+00 1.088334e-01 6.639100e-02 5.963099e-02 1.653051e-01 2.449953e-01 2.628044e-01 2.524920e-01 2.423145e-01 2.950764e-01 1.884601e-01 3.323348e-01 3.121762e-01 1.765931e-01 2.795763e-02
<GCONST> 8.498695e+01
<TRANSP> 6
 0.000000e+00 1.000000e+00 0.000000e+00 0.000000e+00 0.000000e+00 0.000000e+00
 0.000000e+00 9.494831e-01 5.051693e-02 0.000000e+00 0.000000e+00 0.000000e+00
 0.000000e+00 0.000000e+00 9.430699e-01 5.693009e-02 0.000000e+00 0.000000e+00
 0.000000e+00 0.000000e+00 0.000000e+00 9.460806e-01 5.391949e-02 0.000000e+00
 0.000000e+00 0.000000e+00 0.000000e+00 0.000000e+00 9.055939e-01 9.440608e-02
 0.000000e+00 0.000000e+00 0.000000e+00 0.000000e+00 0.000000e+00 0.000000e+00
<ENDHMM>
