~o
<STREAMINFO> 1 39
<VECSIZE> 39<NULLD><MFCC_D_A_0><DIAGC>
~h "seven"
<BEGINHMM>
<NUMSTATES> 6
<STATE> 2
<MEAN> 39
 -2.639261e+01 -7.994775e+00 3.044698e+00 -2.050547e+01 1.056328e+01 -1.536590e+01 4.629940e+00 -8.414795e+00 3.885501e+00 -3.612665e+00 1.882608e+00 -4.558648e+00 8.751946e+01 -5.208605e-02 2.461805e-01 4.305585e-02 2.801900e-02 2.651730e-01 -7.992289e-01 -6.454133e-02 -5.365188e-01 -1.731578e-01 -3.843452e-01 6.562981e-02 -1.777410e-01 1.158727e+00 2.492277e-01 1.859078e-01 -1.537335e-01 2.082056e-01 -1.901376e-01 -1.285333e-02 -2.021045e-01 1.873802e-02 -1.722225e-01 -5.016648e-02 -2.305511e-02 6.774056e-02 -1.594107e-01
<VARIANCE> 39
 6.254903e+01 1.777024e+01 1.702262e+01 2.461312e+01 2.788834e+01 3.022010e+01 3.233985e+01 2.028388e+01 1.133316e+01 1.654558e+01 1.265722e+01 1.027840e+01 4.025608e+01 8.329053e+00 2.847560e+00 2.198273e+00 3.315380e+00 2.961876e+00 2.659631e+00 4.484659e+00 3.406043e+00 2.418687e+00 1.946216e+00 1.433775e+00 1.342131e+00 2.887817e+00 6.990684e-01 4.732523e-01 3.855534e-01 4.716847e-01 2.637316e-01 4.751683e-01 4.400987e-01 6.021232e-01 3.553099e-01 3.825110e-01 3.025176e-01 2.930108e-01 2.568528e-01
<GCONST> 1.129618e+02
<STATE> 3
<MEAN> 39
 -6.329820e+00 3.123681e-02 -5.673492e+00 -1.470486e+01 5.886016e-01 -2.330136e+01 -6.410173e+00 -1.555275e+01 -4.157744e+00 -8.616627e+00 1.538170e+00 -2.788455e+00 9.463479e+01 1.179230e+00 1.874602e-01 -8.425657e-01 -2.113522e-01 -4.948800e-01 -5.353515e-01 2.290602e-01 8.498562e-02 -3.389943e-01 -7.885892e-01 2.163602e-01 5.197202e-01 -1.288064e-01 -4.584514e-01 -2.182322e-01 2.759478e-01 -5.960302e-02 4.070015e-01 1.981809e-01 5.580075e-01 1.863957e-01 8.171836e-02 -2.008999e-01 -3.747644e-02 -7.303078e-02 -4.165366e-01
<VARIANCE> 39
 2.635011e+00 5.788708e+00 1.390689e+01 9.005994e+00 8.239375e+00 2.429509e+01 1.149944e+01 2.054247e+01 1.873795e+01 3.742275e+01 1.281934e+01 2.379703e+01 4.996976e+00 1.911742e+00 8.466844e-01 1.293704e+00 8.817948e-01 1.649529e+00 1.738762e+00 2.519885e+00 2.549674e+00 2.883535e+00 4.148290e+00 1.369591e+00 1.963068e+00 1.761786e+00 5.890898e-01 2.626437e-01 1.930846e-01 2.408135e-01 1.251661e-01 4.211966e-01 3.292027e-01 6.916073e-01 8.321927e-01 7.689186e-01 3.000824e-01 3.950503e-01 1.028034e-01
<GCONST> 9.723174e+01
<STATE> 4
<MEAN> 39
 -4.841526e+00 -5.759453e-01 1.058876e-01 -1.408547e+01 7.070039e+00 -2.173779e+01 2.134840e+00 -1.572393e+01 -8.275810e+00 -1.613967e+01 3.900787e+00 -2.838863e+00 8.565948e+01 -8.366070e-02 1.204303e-01 6.183560e-01 3.261388e-01 7.183902e-01 4.195803e-01 1.485866e-01 4.230334e-02 -8.621573e-02 1.846296e-01 1.387733e-01 -4.384485e-02 -6.357107e-01 1.643369e-02 -2.654370e-02 -5.268014e-02 1.274970e-01 -1.414391e-02 7.947560e-02 -1.689194e-01 1.081424e-01 4.838047e-03 1.975400e-01 -1.112581e-01 4.741066e-02 1.681076e-02
<VARIANCE> 39
 1.143087e+01 2.346244e+01 2.499989e+01 2.433967e+01 1.885581e+01 4.303197e+01 2.041762e+01 2.423231e+01 2.397263e+01 4.712199e+01 6.797630e+01 3.137961e+01 3.064358e+01 1.487972e+00 2.180367e+00 1.905180e+00 3.904836e+00 2.144968e+00 5.050869e+00 2.015599e+00 2.251097e+00 2.537444e+00 4.509567e+00 6.017541e+00 4.293345e+00 5.018226e+00 3.617705e-01 4.008256e-01 3.779110e-01 6.249467e-01 3.510478e-01 8.989465e-01 3.819361e-01 4.600599e-01 4.858320e-01 7.429208e-01 9.053192e-01 9.482859e-01 5.941992e-01
<GCONST> 1.211225e+02
<STATE> 5
<MEAN> 39
 -4.728938e+00 8.314508e-01 3.770833e+00 -3.307589e-01 1.058204e+01 -6.600688e+00 -3.804823e+00 -8.684729e+00 -1.012240e+01 -5.309825e+00 -1.036792e+00 -2.945610e+00 6.942712e+01 -4.368852e-01 -3.555242e-01 -3.386538e-01 5.775191e-01 -8.798345e-01 1.091467e+00 -3.186215e-01 5.671808e-01 2.121996e-01 6.984875e-01 -3.683732e-01 -7.671873e-02 -1.082027e+00 -1.197619e-01 -1.450273e-02 -4.015224e-02 -2.162327e-01 -1.593305e-01 -1.233326e-01 1.014230e-01 -7.954406e-02 1.249299e-01 -5.235882e-02 1.941363e-01 -2.463884e-02 9.084647e-02
<VARIANCE> 39
 1.840225e+01 7.053849e+00 8.716145e+00 2.255536e+01 3.193587e+01 4.901780e+01 1.330770e+01 1.825394e+01 3.062517e+01 1.828532e+01 1.945104e+01 1.627748e+01 2.674225e+01 1.715257e+00 7.637831e-01 1.055390e+00 3.218732e+00 1.526754e+00 2.041076e+00 1.687898e+00 1.763783e+00 2.831003e+00 1.187878e+00 2.730245e+00 2.043451e+00 4.892118e-01 2.250851e-01 1.569073e-01 2.219977e-01 4.391552e-01 3.341554e-01 3.720770e-01 3.065254e-01 3.271374e-01 3.799745e-01 2.461359e-01 4.925171e-01 4.045834e-01 1.123079e-01
<GCONST> 9.975717e+01
<TRANSP> 6
 0.000000e+00 1.000000e+00 0.000000e+00 0.000000e+00 0.000000e+00 0.000000e+00
 0.000000e+00 9.492389e-01 5.076109e-02 0.000000e+00 0.000000e+00 0.000000e+00
 0.000000e+00 0.000000e+00 8.820109e-01 1.179891e-01 0.000000e+00 0.000000e+00
 0.000000e+00 0.000000e+00 0.000000e+00 9.486475e-01 5.135248e-02 0.000000e+00
 0.000000e+00 0.000000e+00 0.000000e+00 0.000000e+00 9.326667e-01 6.733339e-02
 0.000000e+00 0.000000e+00 0.000000e+00 0.000000e+00 0.000000e+00 0.000000e+00
<ENDHMM>
