~o
<STREAMINFO> 1 39
<VECSIZE> 39<NULLD><MFCC_D_A_0><DIAGC>
~h "six"
<BEGINHMM>
<NUMSTATES> 6
<STATE> 2
<MEAN> 39
 -3.054905e+01 -5.336153e+00 3.619155e+00 -1.631823e+01 7.357368e+00 -1.063780e+01 2.792178e+00 -7.349744e+00 2.465222e+00 -2.808117e+00 1.640602e+00 -4.341022e+00 8.660561e+01 -2.036608e-01 2.127737e-01 9.177630e-02 -3.068820e-01 1.965577e-01 -8.017879e-01 -1.713583e-01 -3.636616e-01 -1.091671e-01 -3.172771e-01 -9.046559e-02 -2.780894e-01 1.116107e+00 3.912772e-01 1.237890e-01 -1.024694e-01 2.503061e-01 -1.259954e-01 -1.181592e-01 -2.156520e-01 -4.607847e-02 -1.556652e-01 -5.333014e-02 -9.726006e-02 -8.163035e-02 -1.588681e-01
<VARIANCE> 39
 6.336335e+01 1.676101e+01 2.726895e+01 1.814565e+01 2.492215e+01 2.059311e+01 2.415045e+01 2.367670e+01 1.982948e+01 1.809931e+01 1.133402e+01 1.067628e+01 4.404189e+01 7.659029e+00 1.526456e+00 2.820266e+00 2.617246e+00 2.105264e+00 2.454706e+00 3.883663e+00 2.924709e+00 2.438723e+00 1.874495e+00 1.593932e+00 1.548990e+00 2.169093e+00 6.004590e-01 3.086635e-01 5.498105e-01 4.046676e-01 3.464478e-01 4.663143e-01 3.991110e-01 4.755358e-01 3.228594e-01 3.727426e-01 2.472290e-01 2.634266e-01 1.942327e-01
<GCONST> 1.104703e+02
<STATE> 3
<MEAN> 39
 -1.106160e+01 -3.930688e+00 2.133471e+00 -2.332968e+00 2.297635e+00 -2.450646e+01 -8.427302e+00 -7.158875e+00 -6.261445e+00 -7.068298e+00 -3.039629e+00 -4.798862e+00 8.007704e+01 4.471259e-01 -7.783500e-02 -2.746471e-01 6.824586e-01 -3.119131e-01 5.463220e-01 -1.305023e-02 5.308660e-01 5.484379e-03 1.831197e-01 -2.442809e-02 3.143144e-01 -1.347183e+00 -3.499637e-01 -8.006938e-02 -5.703469e-02 -2.396506e-01 1.898649e-01 1.534958e-01 1.689160e-01 5.171703e-02 1.760307e-01 9.759772e-02 8.935786e-02 2.321624e-02 1.184534e-01
<VARIANCE> 39
 7.455851e+00 1.715633e+01 1.719386e+01 2.437222e+01 2.731401e+01 1.120820e+02 2.346012e+01 4.281757e+01 1.133152e+01 1.948324e+01 2.022060e+01 2.127565e+01 1.694305e+02 3.078498e+00 1.613155e+00 2.036405e+00 2.054146e+00 2.888598e+00 9.218263e+00 2.855704e+00 2.498680e+00 1.654999e+00 2.459372e+00 2.104411e+00 1.873314e+00 3.775478e+00 4.829884e-01 3.433150e-01 4.505952e-01 3.855473e-01 6.270950e-01 1.296354e+00 4.948764e-01 6.257016e-01 2.844718e-01 5.163159e-01 4.581299e-01 4.522418e-01 7.234398e-01
<GCONST> 1.177414e+02
<STATE> 4
<MEAN> 39
 -2.066962e+01 -8.579380e+00 -2.684454e+00 -1.190139e+01 9.954527e+00 -1.023951e+01 -7.011458e+00 -8.463308e+00 6.527532e-01 -9.969134e-01 6.031435e-01 -5.809280e+00 8.188005e+01 -2.727020e+00 -6.366461e-01 2.556245e-01 -2.325385e+00 1.573677e+00 -1.688742e-01 3.799552e-01 -8.321608e-01 1.240472e+00 3.453001e-01 8.816441e-01 -4.322846e-01 4.393820e+00 -1.322718e-01 1.344337e-01 3.656843e-01 2.580967e-01 -4.350950e-01 1.127795e-01 3.131494e-01 3.525245e-01 -2.248517e-02 -1.339791e-01 -9.357608e-02 1.314737e-01 -2.824452e-01
<VARIANCE> 39
 4.638959e+01 1.568202e+01 2.627743e+01 5.988596e+01 4.802425e+01 3.133272e+01 1.483002e+01 2.833978e+01 2.603845e+01 9.698278e+00 2.250538e+01 1.237863e+01 1.619662e+02 1.549380e+00 1.539283e+00 5.263315e+00 5.824265e+00 7.450277e+00 3.099269e+00 2.468258e+00 3.905855e+00 1.940344e+00 1.069916e+00 2.270763e+00 1.597449e+00 6.692316e+00 4.051619e-01 2.794402e-01 7.885007e-01 1.164083e+00 1.259043e+00 6.291977e-01 4.494428e-01 6.579368e-01 4.786464e-01 1.923219e-01 4.860895e-01 2.949836e-01 2.447333e+00
<GCONST> 1.217031e+02
<STATE> 5
<MEAN> 39
 -3.070256e+01 -5.366144e+00 3.842113e+00 -1.777641e+01 1.008126e+01 -9.394553e+00 2.452830e+00 -4.548174e+00 4.052390e-01 -1.988487e+00 2.224233e+00 -4.278584e+00 8.484169e+01 5.719233e-01 2.285194e-01 4.353879e-02 3.171422e-01 -1.835945e-01 1.097973e-01 3.468195e-02 2.761063e-01 -3.980128e-01 7.854701e-02 -2.648389e-01 1.227553e-01 -1.143241e+00 1.278217e-01 -2.378710e-02 -5.460790e-02 9.701745e-02 5.039134e-03 2.039677e-02 -1.082286e-01 -3.040507e-02 -2.684066e-02 -3.545367e-03 -2.192722e-02 -2.146489e-02 -6.345367e-02
<VARIANCE> 39
 5.703935e+01 7.675269e+00 1.185841e+01 2.286460e+01 1.303260e+01 1.442468e+01 2.205042e+01 1.521139e+01 1.842484e+01 9.921569e+00 1.323596e+01 8.902941e+00 1.177969e+02 2.197375e+00 7.407593e-01 1.134219e+00 1.646981e+00 1.248878e+00 1.092337e+00 1.695065e+00 1.472687e+00 1.140570e+00 1.249698e+00 1.172986e+00 8.183737e-01 1.579532e+00 2.598057e-01 1.483514e-01 2.172155e-01 2.189195e-01 2.456137e-01 2.290561e-01 2.481729e-01 2.729242e-01 2.659201e-01 2.656545e-01 2.095215e-01 1.593887e-01 1.623707e-01
<GCONST> 9.252894e+01
<TRANSP> 6
 0.000000e+00 1.000000e+00 0.000000e+00 0.000000e+00 0.000000e+00 0.000000e+00
 0.000000e+00 9.485647e-01 5.143529e-02 0.000000e+00 0.000000e+00 0.000000e+00
 0.000000e+00 0.000000e+00 9.520364e-01 4.796354e-02 0.000000e+00 0.000000e+00
 0.000000e+00 0.000000e+00 0.000000e+00 8.607464e-01 1.392536e-01 0.000000e+00
 0.000000e+00 0.000000e+00 0.000000e+00 0.000000e+00 9.639351e-01 3.606489e-02
 0.000000e+00 0.000000e+00 0.000000e+00 0.000000e+00 0.000000e+00 0.000000e+00
<ENDHMM>
