~o
<STREAMINFO> 1 39
<VECSIZE> 39<NULLD><MFCC_D_A_0><DIAGC>
~h "ten"
<BEGINHMM>
<NUMSTATES> 6
<STATE> 2
<MEAN> 39
 -1.063006e+01 -1.074602e+01 1.905547e+00 -1.149381e+01 3.868983e+00 -1.818930e+01 9.670531e+00 -1.142103e+01 3.919095e+00 -2.752302e+00 3.759292e+00 -7.345994e+00 9.348618e+01 7.832478e-01 2.578800e-01 -5.864331e-01 -7.537541e-02 -1.890905e-01 -1.174606e+00 1.326535e-01 -2.256839e-01 -9.714040e-01 2.659897e-02 -3.509376e-01 -3.844658e-01 7.070486e-01 -1.784232e-02 2.182073e-01 -2.225181e-01 9.846579e-02 -1.964823e-01 1.309596e-01 -2.160030e-01 1.441532e-01 -3.053712e-01 -5.070178e-02 -1.308468e-01 1.454683e-01 -4.822131e-01
<VARIANCE> 39
 2.593546e+01 2.349477e+01 2.362325e+01 1.239135e+01 1.008471e+01 4.755542e+01 2.859221e+01 1.416280e+01 4.344221e+01 1.682122e+01 1.906437e+01 1.938053e+01 5.996327e+00 2.089142e+00 4.540010e+00 1.960291e+00 1.861711e+00 1.640032e+00 2.497447e+00 3.874228e+00 2.064420e+00 6.345098e+00 2.354628e+00 3.118555e+00 2.736416e+00 3.327930e+00 4.578381e-01 5.694655e-01 3.613221e-01 5.676669e-01 2.445150e-01 6.188082e-01 4.854597e-01 5.085731e-01 9.039240e-01 4.128436e-01 7.368814e-01 6.902694e-01 1.227907e+00
<GCONST> 1.156545e+02
<STATE> 3
<MEAN> 39
 -5.732312e+00 -2.327624e+00 -4.422003e+00 -1.580376e+01 1.050051e+00 -2.360756e+01 4.225376e+00 -1.325583e+01 -1.000877e+01 -4.542553e+00 8.689046e+00 -5.592935e+00 9.530533e+01 6.779996e-02 6.132537e-02 3.840283e-01 -5.505900e-01 7.681399e-01 7.425766e-02 5.126436e-02 -2.046538e-01 -2.383822e-01 -6.697481e-02 1.892616e+00 3.127744e-01 -2.540762e-01 -7.567677e-02 -1.434754e-01 2.460768e-01 1.190164e-02 3.108288e-01 -1.493698e-02 2.389921e-01 -7.436748e-02 1.910546e-01 1.441737e-02 9.595045e-02 -1.031893e-01 -1.835580e-01
<VARIANCE> 39
 2.404479e+00 8.528406e+00 8.054232e+00 1.431648e+01 2.063336e+01 2.087064e+01 3.447631e+01 1.152643e+01 1.697522e+01 1.813733e+01 6.392424e+01 2.580176e+01 4.633172e+00 9.078521e-02 7.257643e-01 1.076281e+00 4.790733e-01 1.760184e+00 1.103037e+00 2.198762e+00 9.320448e-01 1.587949e+00 1.486714e+00 1.457083e+00 1.842325e+00 2.437171e-01 3.723339e-02 1.844988e-01 1.013330e-01 1.127925e-01 2.048479e-01 2.230890e-01 3.117650e-01 1.660731e-01 4.831885e-01 3.204293e-01 5.824374e-01 2.794170e-01 3.817740e-02
<GCONST> 8.215514e+01
<STATE> 4
<MEAN> 39
 -6.532347e+00 2.678101e-01 5.088085e+00 -1.087204e+01 1.408465e+01 -1.668786e+01 4.411441e+00 -1.506168e+01 -1.180248e+01 -7.101632e+00 8.534671e+00 -5.032237e+00 8.086325e+01 4.667730e-02 5.853251e-01 4.474584e-01 1.303307e+00 2.578681e-01 1.167035e+00 -5.338538e-01 4.236932e-01 -2.755160e-01 -1.883340e-01 -1.739529e+00 2.003525e-01 -1.767900e+00 8.945479e-02 1.108846e-02 -1.670541e-01 1.201383e-01 -2.711140e-01 5.184443e-02 -1.265600e-01 1.493881e-01 -5.724272e-02 4.340488e-02 -1.311211e-01 1.719748e-02 -1.762773e-02
<VARIANCE> 39
 1.691496e+01 2.884889e+01 9.405728e+00 3.775961e+01 1.845947e+01 4.140836e+01 2.127831e+01 1.420571e+01 1.857703e+01 1.699006e+01 7.140714e+01 2.484554e+01 4.379989e+01 2.162492e+00 1.674531e+00 1.308548e+00 2.942285e+00 3.182367e+00 2.010156e+00 2.025656e+00 1.748380e+00 2.302597e+00 1.177883e+00 3.034608e+00 1.704144e+00 1.766772e+00 4.408311e-01 3.551729e-01 1.910550e-01 6.954094e-01 4.032229e-01 4.636036e-01 4.204105e-01 2.899443e-01 4.998660e-01 2.189388e-01 7.567565e-01 3.121971e-01 3.544772e-01
<GCONST> 1.097245e+02
<STATE> 5
<MEAN> 39
 -5.316942e+00 2.605229e+00 5.482085e+00 6.206086e-01 5.432863e+00 -6.037257e+00 -3.472034e+00 -7.056702e+00 -1.361544e+01 -7.061280e+00 -3.931462e+00 -6.401102e+00 6.690165e+01 -3.904886e-01 -4.104080e-01 -3.197005e-01 2.865372e-01 -1.091975e+00 7.517060e-01 -3.768392e-01 6.265729e-01 5.399621e-01 2.434193e-01 -2.281373e-01 3.418814e-02 -8.376372e-01 -1.096022e-01 -7.032345e-02 -5.081965e-02 -1.522121e-01 1.719808e-02 -3.869118e-02 9.063555e-02 -5.135122e-02 1.961715e-01 4.260727e-02 9.412421e-02 5.750886e-02 9.144365e-02
<VARIANCE> 39
 8.934120e+00 1.223647e+01 9.827477e+00 1.777757e+01 2.231037e+01 1.914091e+01 1.407497e+01 1.637789e+01 1.877341e+01 2.082685e+01 1.826068e+01 2.170587e+01 9.882338e+00 5.811059e-01 9.047337e-01 1.575032e+00 2.390860e+00 1.027875e+00 1.347006e+00 1.557549e+00 1.631912e+00 1.660141e+00 1.975775e+00 1.596307e+00 2.152395e+00 2.533996e-01 8.907712e-02 1.302900e-01 3.007430e-01 3.468652e-01 2.032655e-01 2.841216e-01 2.635717e-01 3.117133e-01 2.514728e-01 3.736050e-01 2.672293e-01 3.488517e-01 3.342722e-02
<GCONST> 9.006080e+01
<TRANSP> 6
 0.000000e+00 1.000000e+00 0.000000e+00 0.000000e+00 0.000000e+00 0.000000e+00
 0.000000e+00 9.186025e-01 8.139750e-02 0.000000e+00 0.000000e+00 0.000000e+00
 0.000000e+00 0.000000e+00 9.091478e-01 9.085222e-02 0.000000e+00 0.000000e+00
 0.000000e+00 0.000000e+00 0.000000e+00 9.121816e-01 8.781838e-02 0.000000e+00
 0.000000e+00 0.000000e+00 0.000000e+00 0.000000e+00 9.124378e-01 8.756221e-02
 0.000000e+00 0.000000e+00 0.000000e+00 0.000000e+00 0.000000e+00 0.000000e+00
<ENDHMM>
