~o
<STREAMINFO> 1 39
<VECSIZE> 39<NULLD><MFCC_D_A_0><DIAGC>
~h "minus"
<BEGINHMM>
<NUMSTATES> 6
<STATE> 2
<MEAN> 39
 -2.269059e+00 7.855008e+00 -9.706735e-01 -1.342402e+01 5.120165e+00 -1.436402e+01 2.820103e+00 -8.242710e+00 -2.127315e+01 -1.778898e+01 -1.274080e+01 -5.602520e+00 7.690400e+01 1.194108e+00 -6.452484e-01 -2.137008e+00 -1.625317e+00 -1.810303e+00 -2.446364e+00 5.324165e-01 -9.418148e-01 4.380570e-01 -1.435677e+00 2.248461e+00 3.576417e-01 3.842766e+00 -7.261320e-01 -9.676991e-01 -4.614355e-01 1.508220e-01 -3.249585e-01 3.519261e-01 -1.537025e-02 9.424658e-02 8.448429e-01 8.067349e-01 8.096830e-01 3.394363e-01 -4.670200e-02
<VARIANCE> 39
 9.192007e+00 1.660210e+01 3.254942e+01 3.049789e+01 5.331020e+01 5.809179e+01 1.496164e+01 2.794872e+01 6.052038e+01 2.306647e+01 7.138911e+01 2.203224e+01 5.539508e+01 3.670512e+00 6.885672e+00 3.724828e+00 2.631206e+00 5.075328e+00 4.614037e+00 1.968675e+00 1.756134e+00 1.279780e+01 6.573216e+00 1.066784e+01 2.801966e+00 2.735224e+00 2.662558e-01 5.962433e-01 7.064742e-01 6.381985e-01 1.067846e+00 1.504415e+00 3.280101e-01 4.077804e-01 1.852153e+00 8.486409e-01 2.087598e+00 5.804844e-01 5.745805e-01
<GCONST> 1.309538e+02
<STATE> 3
<MEAN> 39
 -6.657777e+00 1.363138e+00 -4.035610e+00 -1.169426e+01 2.479138e+00 -2.220718e+01 -2.884107e+00 -1.198927e+01 -1.153812e+01 -1.152426e+01 -9.173086e-01 -1.113509e+01 8.773496e+01 -1.173487e-01 -1.688843e-02 1.668820e-01 1.120917e-01 3.129731e-01 -1.272626e-02 -3.071866e-01 -7.924630e-02 1.332730e-01 4.446827e-01 3.891777e-01 -5.793919e-02 4.003178e-02 4.945059e-02 2.241543e-02 5.043637e-02 -6.313164e-03 6.024665e-02 -2.225491e-03 -1.436676e-02 6.178859e-02 -1.505782e-02 2.078870e-02 -1.724207e-02 3.635716e-02 -7.121664e-02
<VARIANCE> 39
 1.048291e+01 3.486153e+01 7.287640e+01 2.380545e+01 1.852956e+01 7.896134e+01 3.768594e+01 1.726017e+01 2.423493e+01 3.304763e+01 3.586474e+01 3.480797e+01 4.694074e+01 1.325793e+00 2.672204e+00 2.828776e+00 1.419247e+00 1.346924e+00 7.242541e+00 1.542193e+00 1.870207e+00 1.593155e+00 2.779675e+00 4.752672e+00 2.264299e+00 2.828099e+00 2.729806e-01 3.948382e-01 3.485269e-01 2.615713e-01 3.079731e-01 1.192170e+00 2.739166e-01 3.930085e-01 3.068227e-01 4.161571e-01 7.686563e-01 3.093703e-01 3.842349e-01
<GCONST> 1.150583e+02
<STATE> 4
<MEAN> 39
 -9.122376e+00 -2.144526e+00 1.003670e+00 -1.450323e+01 7.146439e+00 -1.635647e+01 -4.712263e+00 -1.089713e+01 -9.812929e+00 -4.969334e+00 9.873528e+00 1.297624e+00 8.572450e+01 -1.122643e+00 -4.052970e-01 6.540104e-01 -1.932701e-01 -1.150890e-01 8.411872e-01 1.194825e-01 2.543612e-01 5.877485e-01 -6.520133e-03 -3.668181e-01 -5.413157e-02 -1.388319e-01 -2.931537e-01 7.122823e-03 4.155909e-04 -1.828850e-02 -8.194544e-02 3.673934e-02 5.650131e-02 1.645153e-02 8.231203e-02 -4.633502e-02 -1.207901e-01 -1.613663e-01 6.987284e-02
<VARIANCE> 39
 3.230829e+01 3.436448e+01 3.838740e+01 1.184204e+01 1.254122e+01 4.298194e+01 3.066508e+01 1.680577e+01 2.572860e+01 2.529883e+01 2.658994e+01 2.358045e+01 2.323952e+01 4.166356e+00 4.177261e+00 1.303268e+00 1.060881e+00 1.385511e+00 1.875583e+00 1.427130e+00 1.749083e+00 3.759762e+00 1.891823e+00 1.674528e+00 3.153597e+00 1.861136e+00 3.922354e-01 7.275675e-01 3.218160e-01 2.157609e-01 2.802205e-01 3.493972e-01 2.616893e-01 2.962169e-01 5.550262e-01 3.597304e-01 3.131827e-01 3.098683e-01 2.672125e-01
<GCONST> 1.086406e+02
<STATE> 5
<MEAN> 39
 -3.261023e+01 -6.163967e+00 3.185578e+00 -1.759121e+01 8.419975e+00 -8.518317e+00 2.689171e+00 -3.924609e+00 2.071966e+00 -3.135414e+00 2.805325e+00 -5.140576e+00 8.399683e+01 2.779930e-01 1.594529e-01 -1.864779e-01 1.606406e-01 -1.624189e-02 -6.438949e-02 1.515528e-01 2.437724e-01 -1.084389e-01 1.293234e-01 -1.759839e-01 1.300226e-01 -9.096720e-01 2.522665e-01 5.499987e-02 -1.143005e-02 9.856252e-02 2.666524e-02 1.360575e-02 -7.076392e-02 -8.451423e-03 -1.332833e-01 1.977600e-02 -3.056850e-02 8.214082e-02 -1.532353e-01
<VARIANCE> 39
 2.681270e+01 1.712000e+01 1.868990e+01 1.882226e+01 2.163929e+01 1.696521e+01 1.814919e+01 1.924161e+01 1.521194e+01 1.063735e+01 1.139526e+01 1.288740e+01 6.168758e+01 3.039870e+00 9.847513e-01 1.324495e+00 1.679944e+00 1.737995e+00 1.459479e+00 1.256705e+00 1.557757e+00 1.061844e+00 8.907906e-01 9.131615e-01 8.488336e-01 2.007902e+00 3.049113e-01 2.039475e-01 2.031815e-01 2.707306e-01 3.085169e-01 3.175843e-01 2.218387e-01 2.550076e-01 2.097019e-01 1.611168e-01 1.654026e-01 1.837055e-01 1.784739e-01
<GCONST> 9.403627e+01
<TRANSP> 6
 0.000000e+00 1.000000e+00 0.000000e+00 0.000000e+00 0.000000e+00 0.000000e+00
 0.000000e+00 8.181065e-01 1.818935e-01 0.000000e+00 0.000000e+00 0.000000e+00
 0.000000e+00 0.000000e+00 9.676875e-01 3.231257e-02 0.000000e+00 0.000000e+00
 0.000000e+00 0.000000e+00 0.000000e+00 9.430661e-01 5.693389e-02 0.000000e+00
 0.000000e+00 0.000000e+00 0.000000e+00 0.000000e+00 9.601436e-01 3.985639e-02
 0.000000e+00 0.000000e+00 0.000000e+00 0.000000e+00 0.000000e+00 0.000000e+00
<ENDHMM>
