~o
<STREAMINFO> 1 39
<VECSIZE> 39<NULLD><MFCC_D_A_0><DIAGC>
~h "four"
<BEGINHMM>
<NUMSTATES> 6
<STATE> 2
<MEAN> 39
 -1.675870e+01 -3.818239e+00 -2.808123e+00 -1.465605e+01 4.292844e+00 -1.260943e+01 6.922081e-01 -5.248722e+00 -3.301713e+00 -6.144362e+00 7.830906e-01 -7.882979e+00 8.130643e+01 7.014032e-01 3.742883e-01 1.948643e-01 -6.376741e-01 -7.924575e-01 -1.041048e+00 -4.193886e-01 -4.524103e-01 -1.408035e-01 -2.290334e-01 -2.249386e-01 -1.602636e-01 1.052546e+00 5.162865e-02 -1.222619e-02 -3.952413e-02 1.159323e-01 -1.266025e-01 7.819110e-02 -1.036536e-01 -4.663189e-02 -5.162181e-03 5.505219e-02 1.129705e-02 1.415136e-01 -4.224346e-02
<VARIANCE> 39
 8.372858e+01 5.135895e+01 3.453069e+01 4.162959e+01 5.840298e+01 5.957411e+01 3.440720e+01 2.143574e+01 2.224868e+01 1.784141e+01 2.511650e+01 1.917178e+01 5.740128e+01 5.534610e+00 4.853891e+00 2.834424e+00 2.535480e+00 3.982815e+00 3.862150e+00 3.621777e+00 2.259008e+00 2.779381e+00 1.914074e+00 2.677347e+00 1.836492e+00 2.274287e+00 5.960287e-01 8.295297e-01 4.366123e-01 4.982814e-01 7.927408e-01 9.173627e-01 6.765289e-01 4.856926e-01 5.840628e-01 3.772908e-01 5.387979e-01 3.452831e-01 2.263639e-01
<GCONST> 1.241260e+02
<STATE> 3
<MEAN> 39
 -3.895817e-01 1.752706e+00 -7.300735e-01 -1.554242e+01 -7.756884e+00 -1.977688e+01 -9.101852e+00 -7.297979e+00 -2.211595e+00 -5.431530e+00 -6.281680e-01 -5.219488e+00 8.921551e+01 8.224577e-02 -4.246190e-01 -5.556789e-01 -4.079745e-02 -3.041429e-02 2.250644e-01 7.352614e-02 4.403550e-01 8.705857e-01 -3.065193e-01 1.541444e-01 2.130561e-01 1.466850e-01 6.053549e-03 6.256215e-02 -3.862543e-02 -1.453841e-01 8.283808e-02 9.249263e-03 1.389136e-01 -5.487903e-03 5.020735e-02 -1.130576e-01 -7.737155e-02 -9.115954e-02 -9.840997e-02
<VARIANCE> 39
 2.336767e+00 2.039076e+01 4.198165e+01 1.519620e+01 1.477687e+01 3.498503e+01 2.535267e+01 4.495022e+01 4.611551e+01 2.501123e+01 1.659170e+01 1.894538e+01 1.028578e+01 1.488959e-01 6.481948e-01 8.592896e-01 1.373434e+00 1.220604e+00 2.075499e+00 2.260720e+00 1.695293e+00 2.270818e+00 2.750014e+00 1.108360e+00 1.221700e+00 3.757503e-01 3.713234e-02 1.139603e-01 1.157556e-01 1.656712e-01 2.245478e-01 3.275406e-01 2.897656e-01 3.140204e-01 3.645068e-01 3.664829e-01 1.802928e-01 2.155709e-01 4.683684e-02
<GCONST> 8.892645e+01
<STATE> 4
<MEAN> 39
 2.517079e+00 2.664096e+00 -1.440096e+01 -1.991320e+01 3.857361e+00 -9.768905e+00 -1.574791e+00 -1.527048e+01 -3.547031e+00 -9.610127e+00 -3.076126e-01 -1.140852e+00 7.820457e+01 -1.644602e-01 -7.377369e-02 -2.948401e-01 3.151841e-01 5.513015e-01 1.208156e+00 8.863650e-02 -7.106262e-01 -1.109228e+00 4.736374e-01 2.300059e-01 2.226673e-01 -1.139436e+00 -9.501226e-02 -1.251603e-01 6.122662e-02 9.598373e-02 -1.116181e-01 3.065135e-02 -5.080843e-02 1.755853e-01 3.695839e-02 2.052392e-01 9.091427e-02 2.191970e-02 -1.356650e-02
<VARIANCE> 39
 2.257648e+01 2.284616e+01 3.180105e+01 3.111554e+01 7.360954e+01 6.533001e+01 2.741857e+01 5.818632e+01 1.283117e+02 3.859349e+01 3.040388e+01 2.127719e+01 5.053918e+01 2.893228e+00 2.084936e+00 3.114270e+00 2.687393e+00 4.965641e+00 2.392475e+00 3.145543e+00 3.923854e+00 3.602389e+00 3.002465e+00 1.724144e+00 1.657267e+00 1.345559e+00 5.036325e-01 2.746157e-01 4.073717e-01 3.905031e-01 7.540189e-01 3.994127e-01 5.976577e-01 4.986476e-01 7.488473e-01 5.752655e-01 3.277164e-01 2.928553e-01 2.447960e-01
<GCONST> 1.213926e+02
<STATE> 5
<MEAN> 39
 -8.491902e+00 -5.545978e+00 -8.955296e+00 -9.238153e+00 1.775267e+00 3.983232e+00 -2.815335e+00 -9.398705e+00 -8.249113e+00 1.083507e+00 4.880159e+00 1.404002e+00 6.369985e+01 -1.041472e+00 -3.644755e-01 8.102584e-01 8.567966e-01 -1.359737e-01 -1.483607e-01 2.283136e-01 1.061676e+00 7.186688e-01 2.471911e-01 -2.011541e-01 8.163764e-02 -6.477246e-01 7.477164e-02 1.734457e-01 9.754363e-02 1.212581e-02 5.087182e-02 -2.267073e-01 5.772774e-04 -1.383990e-01 -5.599947e-02 -1.946225e-01 -1.747528e-01 -7.484689e-02 7.326347e-02
<VARIANCE> 39
 1.531107e+01 7.023583e+00 4.017064e+01 3.048029e+01 1.392485e+01 1.781044e+01 1.397440e+01 2.191616e+01 1.597860e+01 2.534423e+01 3.233927e+01 1.496757e+01 6.298632e+00 2.823621e-01 5.404103e-01 1.200728e+00 1.255417e+00 1.223430e+00 1.381684e+00 1.168733e+00 1.478441e+00 1.339188e+00 2.341554e+00 2.375465e+00 1.220777e+00 1.088386e-01 6.639262e-02 5.963175e-02 1.653121e-01 2.449968e-01 2.628092e-01 2.524959e-01 2.423170e-01 2.950813e-01 1.884464e-01 3.323244e-01 3.121974e-01 1.765952e-01 2.795829e-02
<GCONST> 8.498695e+01
<TRANSP> 6
 0.000000e+00 1.000000e+00 0.000000e+00 0.000000e+00 0.000000e+00 0.000000e+00
 0.000000e+00 9.494830e-01 5.051697e-02 0.000000e+00 0.000000e+00 0.000000e+00
 0.000000e+00 0.000000e+00 9.430685e-01 5.693150e-02 0.000000e+00 0.000000e+00
 0.000000e+00 0.000000e+00 0.000000e+00 9.460827e-01 5.391733e-02 0.000000e+00
 0.000000e+00 0.000000e+00 0.000000e+00 0.000000e+00 9.055930e-01 9.440695e-02
 0.000000e+00 0.000000e+00 0.000000e+00 0.000000e+00 0.000000e+00 0.000000e+00
<ENDHMM>
