~o
<STREAMINFO> 1 39
<VECSIZE> 39<NULLD><MFCC_D_A_0><DIAGC>
~h "plus"
<BEGINHMM>
<NUMSTATES> 6
<STATE> 2
<MEAN> 39
 -1.125023e+01 -3.787964e+00 -4.824183e+00 -1.182672e+01 -5.948560e+00 -1.120580e+01 3.247423e+00 -1.500341e+01 -8.158250e+00 -9.800392e+00 2.220385e+00 -1.138225e+00 8.535861e+01 8.728073e-01 7.199000e-01 -9.200290e-01 -4.977081e-01 -6.057758e-01 -1.233138e+00 2.810795e-01 -7.659278e-01 -1.158053e+00 -7.097317e-01 -2.056098e-01 1.499766e-01 1.376509e+00 4.909495e-02 3.005922e-02 -6.095953e-02 7.703514e-02 1.284218e-01 1.282849e-02 -7.612085e-02 2.507594e-01 1.335841e-01 1.403977e-01 -1.380666e-01 -3.940378e-02 -4.047604e-01
<VARIANCE> 39
 3.125312e+01 5.942289e+01 1.973624e+01 1.303789e+01 2.130937e+01 5.752175e+01 2.562510e+01 2.654437e+01 5.446083e+01 3.743343e+01 3.174865e+01 1.549447e+01 1.446470e+01 2.433527e+00 5.846548e+00 1.879101e+00 1.618336e+00 1.592576e+00 3.942953e+00 1.600095e+00 2.350208e+00 4.221733e+00 3.173410e+00 3.539407e+00 1.633319e+00 2.588423e+00 5.295210e-01 1.232977e+00 3.578538e-01 3.023553e-01 2.728902e-01 7.542372e-01 3.063791e-01 4.490650e-01 1.037529e+00 6.207212e-01 7.854183e-01 3.169127e-01 6.014132e-01
<GCONST> 1.185545e+02
<STATE> 3
<MEAN> 39
 -3.833205e+00 -5.607559e+00 -1.700302e+01 -1.639706e+01 2.417483e-01 -1.521209e+01 2.770319e+00 -1.306729e+01 -1.161117e+00 -1.260950e+01 3.791870e+00 -2.316906e+00 8.852150e+01 6.155093e-02 -4.856771e-01 -1.097088e-01 -2.173693e-01 5.935150e-01 4.200673e-01 -8.690840e-02 1.131519e-01 1.292699e+00 -1.309509e-01 2.783221e-01 1.956585e-01 -6.080581e-01 -8.017541e-02 1.543431e-01 1.634857e-01 1.610236e-02 -4.322450e-02 5.081782e-02 -3.315956e-02 -8.670888e-02 -7.939528e-02 -3.271121e-02 -7.684545e-03 6.724166e-02 -1.344868e-01
<VARIANCE> 39
 4.101739e+00 1.816210e+01 2.204858e+01 1.320303e+01 2.527377e+01 2.526452e+01 1.759476e+01 1.705328e+01 9.119687e+01 2.816967e+01 3.307954e+01 2.807700e+01 1.558576e+01 4.081678e-01 1.249302e+00 2.134908e+00 6.240298e-01 1.284823e+00 1.415017e+00 1.224057e+00 1.787833e+00 2.179877e+00 1.873054e+00 1.944044e+00 1.755809e+00 6.809385e-01 7.651912e-02 1.596199e-01 2.367729e-01 1.322834e-01 2.572893e-01 2.579110e-01 2.511696e-01 2.661887e-01 3.958828e-01 3.739881e-01 3.093184e-01 2.645887e-01 7.650718e-02
<GCONST> 9.423080e+01
<STATE> 4
<MEAN> 39
 -1.256150e+01 -3.709596e+00 -4.754660e+00 -1.928138e+01 5.591974e+00 -9.175733e+00 -4.418334e-01 -1.479188e+01 4.013311e+00 -1.056444e+01 6.954444e+00 1.562835e+00 7.669773e+01 -2.873599e+00 -1.909822e-01 2.147684e+00 -2.440196e-01 3.390133e-03 8.308238e-01 -3.289090e-01 1.178588e+00 -9.030314e-01 1.643777e+00 -3.464946e-01 -6.829940e-01 4.436405e-01 -4.913362e-01 -2.576848e-01 -9.043223e-02 1.073318e-01 -1.128838e-01 1.362959e-02 2.163573e-01 4.226354e-01 4.082708e-02 1.334860e-01 -1.234707e-01 -1.893481e-01 5.476640e-01
<VARIANCE> 39
 4.499517e+01 2.121671e+01 4.234653e+01 1.223067e+01 1.747921e+01 2.852209e+01 2.627588e+01 2.830195e+01 5.764602e+01 6.087672e+01 2.176584e+01 3.520543e+01 2.257303e+01 4.707922e+00 4.217422e+00 1.567160e+00 1.164827e+00 2.839244e+00 2.123272e+00 3.013696e+00 4.571922e+00 3.506565e+00 6.519959e+00 1.718662e+00 2.751784e+00 5.596584e+00 5.435783e-01 7.277388e-01 3.618039e-01 2.112249e-01 6.009133e-01 4.494080e-01 5.433752e-01 5.346623e-01 6.875632e-01 1.357077e+00 3.237012e-01 4.673088e-01 5.074472e-01
<GCONST> 1.212681e+02
<STATE> 5
<MEAN> 39
 -3.304090e+01 -5.795045e+00 2.781579e+00 -1.675031e+01 7.942759e+00 -7.646413e+00 2.914010e+00 -4.263517e+00 1.240277e+00 -3.103356e+00 1.845436e+00 -4.163520e+00 8.351790e+01 3.310942e-01 2.151401e-01 5.035447e-02 3.094950e-01 1.165319e-01 -1.182185e-01 3.889731e-02 6.459770e-02 -1.696672e-01 -3.650648e-03 -2.441886e-01 4.795712e-02 -7.914748e-01 2.523630e-01 3.568432e-02 -6.512490e-02 2.673618e-02 1.041228e-03 -1.163492e-02 -5.967119e-02 -6.229170e-02 -6.656199e-02 -2.442072e-02 -5.627170e-03 5.547741e-02 -1.730352e-01
<VARIANCE> 39
 3.581746e+01 6.885315e+00 1.137237e+01 1.384035e+01 1.781631e+01 1.680832e+01 1.575436e+01 1.211891e+01 1.114169e+01 9.140158e+00 9.055614e+00 7.126106e+00 4.665800e+01 3.335997e+00 6.342386e-01 7.413781e-01 8.734074e-01 1.454407e+00 1.399754e+00 1.558185e+00 1.571158e+00 1.241795e+00 1.325579e+00 9.473246e-01 7.372234e-01 2.250741e+00 3.631372e-01 1.429824e-01 1.330197e-01 1.548359e-01 2.432560e-01 2.427376e-01 2.780430e-01 3.533934e-01 2.321436e-01 3.426643e-01 1.866697e-01 1.310633e-01 1.466431e-01
<GCONST> 8.855094e+01
<TRANSP> 6
 0.000000e+00 1.000000e+00 0.000000e+00 0.000000e+00 0.000000e+00 0.000000e+00
 0.000000e+00 9.129130e-01 8.708702e-02 0.000000e+00 0.000000e+00 0.000000e+00
 0.000000e+00 0.000000e+00 9.433377e-01 5.666227e-02 0.000000e+00 0.000000e+00
 0.000000e+00 0.000000e+00 0.000000e+00 8.695604e-01 1.304396e-01 0.000000e+00
 0.000000e+00 0.000000e+00 0.000000e+00 0.000000e+00 9.585103e-01 4.148968e-02
 0.000000e+00 0.000000e+00 0.000000e+00 0.000000e+00 0.000000e+00 0.000000e+00
<ENDHMM>
