~o
<STREAMINFO> 1 39
<VECSIZE> 39<NULLD><MFCC_D_A_0><DIAGC>
~h "three"
<BEGINHMM>
<NUMSTATES> 6
<STATE> 2
<MEAN> 39
 -1.753616e+01 -8.204412e+00 -1.458536e-02 -1.274888e+01 6.568731e-01 -1.015121e+01 -3.384464e+00 -8.450892e+00 1.406186e+00 -7.180222e+00 1.848769e+00 -6.671396e+00 8.593485e+01 1.199280e+00 1.744511e+00 6.701984e-01 4.806001e-01 1.438672e+00 -2.590059e+00 -1.222191e+00 -2.001643e+00 -1.534069e+00 -7.854543e-01 -8.503451e-01 -9.930743e-01 3.509482e+00 7.601756e-01 1.167088e+00 1.366604e-02 1.304173e+00 5.973733e-01 -1.386513e-01 -1.078443e-02 -1.913058e-02 -9.234311e-01 2.043582e-01 -6.776143e-01 4.414982e-01 -1.767706e+00
<VARIANCE> 39
 6.187541e+00 2.634725e+01 9.898045e+00 3.686152e+01 3.050081e+01 1.350373e+01 1.729348e+01 1.635787e+01 2.350524e+01 3.091074e+01 1.573265e+01 2.273787e+01 1.076582e+02 3.488125e+00 8.747725e+00 1.319495e+00 1.193269e+01 3.392076e+00 2.316935e+00 1.140049e+00 2.252197e+00 7.634219e+00 3.357763e+00 3.530941e+00 2.444203e+00 2.199732e+01 2.783328e-01 6.362159e-01 2.445382e-01 1.016624e+00 5.047953e-01 3.581604e-01 4.035833e-01 2.786371e-01 6.662356e-01 7.891012e-01 3.649347e-01 5.360380e-01 2.320011e+00
<GCONST> 1.207013e+02
<STATE> 3
<MEAN> 39
 -3.868258e+00 8.003445e+00 -6.816360e+00 -9.387608e+00 1.372461e+01 -2.152596e+01 -1.098541e+00 -1.686245e+01 -1.112131e+01 -1.084222e+01 -7.877088e+00 -2.707739e+00 8.624191e+01 3.900186e-01 2.358213e-01 -5.612463e-01 3.266443e-01 1.957527e-01 -5.445135e-01 -3.495764e-02 -2.604677e-01 1.673861e-01 -2.669798e-02 -2.759372e-02 -3.895146e-02 9.974162e-02 -1.933755e-01 -2.106813e-01 7.249217e-02 -1.524570e-02 -1.781715e-01 7.971335e-02 -2.552132e-03 1.713056e-01 2.299833e-01 -2.789078e-02 1.098670e-01 -1.119653e-01 4.374097e-02
<VARIANCE> 39
 7.570930e+00 1.203555e+01 3.547755e+01 4.438453e+01 2.999892e+01 3.532875e+01 4.031135e+01 2.305040e+01 3.231507e+01 2.190070e+01 2.570497e+01 2.132475e+01 1.497378e+01 1.233453e+00 2.030069e+00 1.214017e+00 4.052807e+00 4.280134e+00 3.749177e+00 3.867919e+00 2.437890e+00 3.367878e+00 2.473187e+00 2.592244e+00 2.290194e+00 7.397320e-01 1.223926e-01 2.281863e-01 2.457947e-01 5.428652e-01 7.392390e-01 8.057264e-01 5.983269e-01 5.116053e-01 4.884257e-01 5.329992e-01 3.471548e-01 3.192261e-01 1.303342e-01
<GCONST> 1.111788e+02
<STATE> 4
<MEAN> 39
 -1.033437e+01 2.654495e+00 5.842213e+00 2.536407e+00 5.653588e+00 -2.955361e+01 -7.207160e+00 -7.995322e+00 -2.762111e+00 -1.845759e+01 -6.532286e-01 -8.284933e+00 8.821173e+01 -6.679185e-01 7.250857e-02 1.988391e+00 2.552779e-01 -1.512709e-01 -1.618946e-01 4.001328e-01 1.012624e+00 -1.719581e-01 -9.774574e-01 1.852663e-01 4.942084e-02 -5.789363e-01 3.990880e-02 3.698922e-02 -4.739797e-02 -1.263255e-01 1.132503e-01 1.819975e-01 1.868840e-01 -9.682860e-02 -1.083771e-01 1.071848e-01 -4.340223e-02 1.185464e-01 -1.190591e-01
<VARIANCE> 39
 7.967721e+00 1.990896e+01 8.854375e+01 8.653009e+00 1.268550e+01 2.608608e+01 1.615505e+01 4.394487e+01 2.389414e+01 4.283946e+01 1.385294e+01 1.881085e+01 1.356800e+01 2.367269e-01 1.053037e+00 1.171052e+00 7.413126e-01 1.358405e+00 2.768457e+00 1.335785e+00 2.039625e+00 1.318647e+00 2.032901e+00 9.332804e-01 2.001684e+00 6.162944e-01 3.809368e-02 1.726265e-01 2.459776e-01 1.601739e-01 1.753768e-01 6.662787e-01 1.592970e-01 3.076575e-01 2.997051e-01 4.090243e-01 2.200812e-01 4.413475e-01 5.248724e-02
<GCONST> 9.197846e+01
<STATE> 5
<MEAN> 39
 -1.504756e+01 -5.347767e-01 1.411852e+01 9.340661e-01 4.663420e+00 -1.610831e+01 9.456244e-01 -2.132770e+00 -5.179874e+00 -1.290180e+01 -1.749459e+00 -5.276864e+00 7.135657e+01 1.498831e-01 -6.882338e-01 -1.391521e+00 -4.650439e-01 -5.855388e-01 2.051301e+00 2.692222e-02 2.500238e-01 3.499741e-02 1.467101e+00 -1.654337e-01 5.137743e-01 -1.413549e+00 5.399368e-02 1.435194e-03 -1.619813e-01 -7.280855e-02 -7.499797e-02 -3.223602e-02 -1.137183e-01 6.227077e-03 4.401308e-02 2.095066e-03 2.827576e-02 4.439181e-02 7.057713e-02
<VARIANCE> 39
 5.675591e+00 2.893020e+01 8.477998e+01 2.612731e+01 2.786882e+01 1.176891e+02 2.617729e+01 2.976393e+01 2.330463e+01 7.015652e+01 1.316496e+01 2.113263e+01 5.718171e+01 9.543496e-01 1.542668e+00 6.859741e+00 2.458731e+00 1.980009e+00 5.371061e+00 2.556121e+00 1.808797e+00 2.184834e+00 2.898827e+00 1.572015e+00 2.001704e+00 8.681691e-01 1.264197e-01 3.193913e-01 1.236031e+00 4.764408e-01 4.343226e-01 1.042584e+00 4.399308e-01 2.622836e-01 4.434405e-01 5.402431e-01 3.097450e-01 4.357956e-01 1.490272e-01
<GCONST> 1.142414e+02
<TRANSP> 6
 0.000000e+00 1.000000e+00 0.000000e+00 0.000000e+00 0.000000e+00 0.000000e+00
 0.000000e+00 7.368630e-01 2.631370e-01 0.000000e+00 0.000000e+00 0.000000e+00
 0.000000e+00 0.000000e+00 9.515761e-01 4.842393e-02 0.000000e+00 0.000000e+00
 0.000000e+00 0.000000e+00 0.000000e+00 9.313192e-01 6.868077e-02 0.000000e+00
 0.000000e+00 0.000000e+00 0.000000e+00 0.000000e+00 9.258634e-01 7.413661e-02
 0.000000e+00 0.000000e+00 0.000000e+00 0.000000e+00 0.000000e+00 0.000000e+00
<ENDHMM>
