~o
<STREAMINFO> 1 39
<VECSIZE> 39<NULLD><MFCC_D_A_0><DIAGC>
~h "eight"
<BEGINHMM>
<NUMSTATES> 6
<STATE> 2
<MEAN> 39
 -7.488213e+00 -4.498312e+00 1.990846e+00 -7.328238e+00 3.685169e+00 -3.448519e+01 -2.412316e+00 -1.104688e+01 -1.778102e+00 -1.100141e+01 2.076379e+00 -6.995453e+00 9.055783e+01 -9.087197e-02 7.805983e-01 1.194991e+00 9.544138e-02 7.680208e-01 -4.501584e-01 -4.748319e-01 9.761421e-02 -1.143482e-01 -2.045818e+00 -3.312227e-01 -1.890627e-01 3.350337e-01 -1.679823e-01 9.286061e-02 5.016878e-02 7.851668e-02 4.091555e-02 4.842689e-01 2.437117e-02 1.707752e-01 -7.220918e-02 -3.287836e-02 -1.070991e-01 7.635532e-02 -5.669941e-01
<VARIANCE> 39
 8.738576e+00 2.864069e+01 5.290086e+01 1.265617e+01 3.103189e+01 3.901032e+01 3.873376e+01 2.162833e+01 2.240397e+01 1.213142e+02 1.967061e+01 2.648535e+01 3.408353e+01 1.270272e+00 2.141048e+00 1.772095e+00 1.352815e+00 2.285167e+00 5.318709e+00 2.726815e+00 1.870691e+00 2.041846e+00 2.513412e+00 1.764787e+00 1.965260e+00 7.570920e+00 1.338513e-01 5.787129e-01 3.807673e-01 2.136394e-01 4.989049e-01 1.585031e+00 5.954545e-01 3.141671e-01 3.818782e-01 9.006144e-01 4.359731e-01 3.377995e-01 5.956665e-01
<GCONST> 1.156546e+02
<STATE> 3
<MEAN> 39
 -1.338016e+01 -7.466350e-01 5.007632e+00 -5.470790e+00 4.867273e+00 -1.651286e+01 -3.263075e+00 -3.483814e+00 -3.259751e+00 -1.042252e+01 -2.350978e+00 -3.330174e+00 6.771356e+01 -5.148648e-02 -2.599592e-01 -1.090990e+00 -4.272361e-02 -1.018068e+00 2.300879e+00 1.098333e-01 3.763667e-01 6.724829e-02 1.755423e+00 -1.648856e-01 5.130224e-01 -1.518108e+00 1.338480e-02 -1.284657e-01 -2.777927e-02 -1.256118e-01 -1.851708e-02 -1.347440e-01 2.316561e-02 -5.265624e-02 8.208578e-02 -1.354667e-02 9.578433e-02 -4.904649e-02 3.622862e-01
<VARIANCE> 39
 7.635353e+00 9.306903e+00 4.008742e+01 2.114735e+01 7.482122e+01 1.242623e+02 1.787036e+01 1.690708e+01 2.140559e+01 1.223387e+02 3.371348e+01 2.873084e+01 4.492527e+01 9.898151e-01 8.938097e-01 2.599876e+00 2.141877e+00 4.464731e+00 2.325899e+00 2.329281e+00 1.884175e+00 2.009284e+00 5.399121e+00 2.604158e+00 2.200373e+00 1.577961e+00 2.387837e-01 1.709855e-01 7.164637e-01 5.615802e-01 9.004464e-01 5.450875e-01 4.792436e-01 3.446904e-01 4.049500e-01 1.193121e+00 4.541543e-01 4.133388e-01 3.791533e-01
<GCONST> 1.160917e+02
<STATE> 4
<MEAN> 39
 -2.146703e+01 -7.809881e+00 2.118639e+00 -1.401339e+01 3.680802e+00 -7.501220e+00 -3.152292e-01 -5.363851e+00 1.800422e+00 -5.760116e+00 1.297993e+00 -4.783240e+00 7.927029e+01 -2.182839e+00 -1.048080e+00 1.134992e+00 -2.124811e+00 1.231250e+00 -1.142814e+00 4.568351e-01 -1.309113e+00 1.511915e+00 -8.608837e-01 9.480084e-01 -1.045935e+00 5.347641e+00 2.791848e-01 2.240263e-01 1.760456e-01 4.785705e-01 -3.166928e-01 1.421485e-02 -6.346206e-02 -2.200552e-01 2.054068e-02 9.385320e-02 -9.177352e-02 4.881760e-02 -9.743889e-02
<VARIANCE> 39
 5.126779e+01 2.562933e+01 3.197339e+01 5.522620e+01 3.993353e+01 2.203685e+01 2.050427e+01 2.261804e+01 2.578251e+01 1.790510e+01 1.108010e+01 2.037104e+01 2.162599e+02 3.338715e+00 2.804983e+00 3.432321e+00 6.523581e+00 4.938150e+00 1.640118e+00 2.922285e+00 1.689535e+00 1.467709e+00 1.832207e+00 1.086920e+00 1.733634e+00 9.736295e+00 1.213599e+00 6.303658e-01 7.696258e-01 1.598742e+00 1.076179e+00 5.059409e-01 5.373110e-01 3.474457e-01 4.861466e-01 4.903942e-01 2.368677e-01 4.255787e-01 3.906422e+00
<GCONST> 1.244046e+02
<STATE> 5
<MEAN> 39
 -1.564361e+01 -8.252393e+00 8.060872e+00 -9.807028e+00 1.562123e+00 -8.432965e+00 2.008214e+00 -1.052328e+01 3.801854e+00 -4.266298e+00 4.019220e+00 -7.459574e+00 8.402132e+01 1.013736e+00 3.721236e-01 -1.923961e-01 8.676684e-01 -4.040293e-01 5.512970e-01 -1.030231e-01 4.487990e-01 -5.164801e-01 5.112680e-01 -2.503306e-01 2.446448e-01 -1.885559e+00 -6.103095e-02 1.081494e-03 -1.022797e-01 -3.837523e-02 6.661489e-02 9.154049e-02 3.673197e-03 1.486360e-01 -3.298044e-02 -2.527794e-02 -7.141209e-02 4.006899e-02 -1.830782e-01
<VARIANCE> 39
 4.073409e+01 1.572807e+01 1.931714e+01 2.218331e+01 1.289491e+01 1.849375e+01 2.065820e+01 2.692213e+01 2.525010e+01 2.080231e+01 1.420759e+01 1.467161e+01 1.358304e+02 1.211050e+00 1.311743e+00 1.811357e+00 1.210060e+00 1.241695e+00 1.981066e+00 2.227253e+00 1.926155e+00 1.618045e+00 1.382068e+00 1.573787e+00 1.536540e+00 2.053876e+00 1.992289e-01 2.677820e-01 2.716378e-01 2.751901e-01 2.476016e-01 4.191912e-01 3.671263e-01 2.857513e-01 2.873927e-01 2.746440e-01 2.861895e-01 2.558784e-01 2.859002e-01
<GCONST> 1.020719e+02
<TRANSP> 6
 0.000000e+00 1.000000e+00 0.000000e+00 0.000000e+00 0.000000e+00 0.000000e+00
 0.000000e+00 9.380186e-01 6.198141e-02 0.000000e+00 0.000000e+00 0.000000e+00
 0.000000e+00 0.000000e+00 9.304767e-01 6.952328e-02 0.000000e+00 0.000000e+00
 0.000000e+00 0.000000e+00 0.000000e+00 8.446343e-01 1.553657e-01 0.000000e+00
 0.000000e+00 0.000000e+00 0.000000e+00 0.000000e+00 9.380656e-01 6.193435e-02
 0.000000e+00 0.000000e+00 0.000000e+00 0.000000e+00 0.000000e+00 0.000000e+00
<ENDHMM>
