~o
<STREAMINFO> 1 39
<VECSIZE> 39<NULLD><MFCC_D_A_0><DIAGC>
~h "divide"
<BEGINHMM>
<NUMSTATES> 6
<STATE> 2
<MEAN> 39
 -9.253414e+00 2.898233e+00 5.337929e+00 -6.161881e+00 6.655114e+00 -1.780216e+01 -8.142274e+00 -9.774559e+00 -8.973295e+00 -1.548037e+01 -4.152404e+00 -9.068795e+00 8.191542e+01 9.089082e-01 1.815517e-01 -6.113731e-01 -5.454305e-01 -2.241977e-01 -2.099317e-01 1.383376e-01 -1.663703e-01 -7.429759e-01 -1.655677e-01 2.925763e-01 1.048751e-01 4.639276e-01 1.808597e-02 -8.784737e-02 -2.186294e-01 -6.606388e-02 -9.467837e-02 1.943998e-01 1.593326e-01 3.720766e-02 1.021612e-01 1.897210e-01 6.551699e-02 7.320993e-02 -1.923929e-01
<VARIANCE> 39
 3.845232e+01 3.087519e+01 4.361728e+01 6.363511e+01 3.182175e+01 6.462627e+01 5.094169e+01 3.259867e+01 3.594306e+01 2.700170e+01 2.919057e+01 2.136223e+01 1.550377e+01 4.263639e+00 2.898548e+00 3.396723e+00 5.354519e+00 3.174922e+00 7.760403e+00 5.280628e+00 1.939882e+00 3.609676e+00 4.011606e+00 3.051063e+00 2.282400e+00 2.432947e+00 8.621461e-01 3.864779e-01 2.654460e-01 8.188627e-01 3.449017e-01 9.728643e-01 7.117726e-01 3.797159e-01 8.269073e-01 6.807778e-01 5.084208e-01 3.877180e-01 5.685540e-01
<GCONST> 1.264433e+02
<STATE> 3
<MEAN> 39
 -1.517628e+00 -2.255383e+00 -1.687934e+01 -1.851317e+01 1.018825e+00 -1.393625e+01 1.669186e+00 -1.041851e+01 -4.168211e+00 -1.408200e+01 5.816275e+00 -4.788004e+00 8.821871e+01 -2.361239e-01 -1.493404e-01 -4.598548e-02 3.248281e-01 7.650884e-01 -3.596678e-01 -3.472074e-01 2.380762e-01 1.140532e+00 7.612853e-03 4.850087e-01 -2.419763e-01 4.364603e-02 -1.141781e-01 4.936887e-02 2.901718e-01 9.939159e-02 4.763969e-02 -1.298757e-01 -1.827706e-01 5.990419e-02 -3.949409e-02 -6.526661e-02 -1.654417e-02 -2.227422e-02 -5.120723e-02
<VARIANCE> 39
 2.993671e+00 7.409347e+00 1.874297e+01 7.246053e+00 3.766340e+01 3.330250e+01 2.667946e+01 2.988198e+01 5.623420e+01 2.405668e+01 3.416784e+01 1.350256e+01 3.830581e+00 2.910315e-01 5.503219e-01 2.795826e+00 6.886427e-01 1.125936e+00 2.488395e+00 1.934226e+00 1.045299e+00 1.232821e+00 1.409353e+00 1.487755e+00 9.637598e-01 7.967644e-02 2.854079e-02 1.128560e-01 1.347951e-01 1.019298e-01 1.793996e-01 2.293761e-01 1.318465e-01 1.650852e-01 2.341814e-01 2.490936e-01 2.885636e-01 1.573971e-01 2.168560e-02
<GCONST> 8.032314e+01
<STATE> 4
<MEAN> 39
 -1.023688e+01 -2.668994e+00 3.781839e+00 -7.358258e+00 1.100714e+01 -2.923455e+01 -1.315504e+01 -5.340947e+00 9.664285e-01 -1.523716e+01 9.371462e+00 -6.807579e+00 8.547672e+01 -5.761763e-01 5.055643e-01 1.991216e+00 1.131069e+00 3.162103e-01 -2.086901e-02 -2.064255e-01 -2.058771e-01 -1.357530e+00 -4.696332e-01 -1.315774e+00 1.954090e-01 -1.276001e+00 1.887251e-01 4.152567e-02 -5.805416e-01 -2.195346e-01 -1.381011e-01 7.200984e-01 4.747325e-01 -1.388010e-01 -1.067104e-01 2.462047e-01 -1.645617e-01 1.261857e-01 -3.834050e-01
<VARIANCE> 39
 5.476415e+00 1.794194e+01 5.506178e+01 1.762407e+01 1.349447e+01 1.909083e+01 1.802849e+01 2.375581e+01 3.301691e+01 1.746471e+01 2.177306e+01 1.187012e+01 1.370950e+01 5.082979e-01 9.000448e-01 3.288957e+00 7.617034e-01 1.168404e+00 5.508187e+00 4.095788e+00 1.414862e+00 1.172897e+00 1.626879e+00 1.652820e+00 9.412339e-01 1.674037e+00 2.844047e-02 2.460303e-01 4.389007e-01 1.690733e-01 4.277741e-01 3.227313e-01 3.128905e-01 2.875143e-01 3.407640e-01 5.052388e-01 2.441434e-01 2.324663e-01 1.147573e-01
<GCONST> 9.589743e+01
<STATE> 5
<MEAN> 39
 -1.628640e+01 -6.396301e+00 1.562606e+00 -9.569656e+00 1.408123e+00 -1.187736e+01 -6.876209e+00 -7.895439e+00 -2.432682e+00 -5.114802e+00 3.966343e-01 -3.557206e+00 7.178476e+01 -3.297762e-01 -4.957892e-01 -3.685629e-01 -2.810311e-01 -6.656014e-01 9.426261e-01 1.608836e-01 2.792394e-01 2.414266e-01 9.593661e-01 -9.893902e-02 2.113604e-01 -7.074167e-01 -2.014967e-02 2.433977e-02 1.182311e-01 7.360231e-02 3.886472e-02 -1.624753e-01 -1.002108e-01 5.513912e-02 2.083178e-02 -8.185338e-02 1.762226e-02 -2.772729e-02 1.063091e-01
<VARIANCE> 39
 3.859343e+01 2.491574e+01 1.739697e+01 2.616301e+01 2.756543e+01 2.989006e+01 2.071755e+01 1.934962e+01 2.129873e+01 3.578396e+01 2.231149e+01 2.316511e+01 7.489559e+01 4.332884e+00 1.849020e+00 3.987641e+00 3.275398e+00 2.960473e+00 5.746597e+00 3.058790e+00 2.556861e+00 1.943898e+00 4.739876e+00 2.197299e+00 2.823673e+00 1.309266e+01 8.593664e-01 3.633267e-01 7.534055e-01 6.727887e-01 5.063778e-01 8.708600e-01 7.421298e-01 4.380165e-01 3.988270e-01 7.983094e-01 4.917978e-01 5.329518e-01 2.278960e+00
<GCONST> 1.252877e+02
<TRANSP> 6
 0.000000e+00 1.000000e+00 0.000000e+00 0.000000e+00 0.000000e+00 0.000000e+00
 0.000000e+00 9.486642e-01 5.133574e-02 0.000000e+00 0.000000e+00 0.000000e+00
 0.000000e+00 0.000000e+00 9.439322e-01 5.606784e-02 0.000000e+00 0.000000e+00
 0.000000e+00 0.000000e+00 0.000000e+00 8.934177e-01 1.065823e-01 0.000000e+00
 0.000000e+00 0.000000e+00 0.000000e+00 0.000000e+00 9.447579e-01 5.524203e-02
 0.000000e+00 0.000000e+00 0.000000e+00 0.000000e+00 0.000000e+00 0.000000e+00
<ENDHMM>
