~o
<STREAMINFO> 1 39
<VECSIZE> 39<NULLD><MFCC_D_A_0><DIAGC>
~h "multiply"
<BEGINHMM>
<NUMSTATES> 6
<STATE> 2
<MEAN> 39
 -4.812579e+00 6.821373e+00 -3.145662e+00 -1.469171e+01 -2.160363e+00 -1.554872e+01 1.093468e+01 -8.211334e+00 -2.352960e+01 -1.672382e+01 -4.494251e+00 -8.312985e+00 8.175020e+01 -3.963910e-01 7.358397e-03 -2.630835e-02 -1.851103e-01 -1.812726e-01 -1.948323e-01 6.094516e-02 -3.526816e-01 4.517480e-01 -1.225024e-01 3.977767e-01 -2.928369e-01 7.762160e-01 -3.090250e-01 -2.794079e-01 -7.624994e-02 8.498465e-02 -1.130948e-01 1.510429e-01 -1.436472e-01 3.153040e-02 4.118715e-01 2.937984e-01 2.366687e-01 1.229010e-01 1.594510e-02
<VARIANCE> 39
 1.820488e+01 1.296367e+01 4.712870e+01 2.449831e+01 7.970481e+01 3.188489e+01 4.249763e+01 2.130664e+01 4.991098e+01 2.268309e+01 6.241995e+01 3.373154e+01 5.277287e+01 5.419992e+00 2.684104e+00 3.759469e+00 3.149275e+00 6.903929e+00 5.514342e+00 4.563004e+00 2.727469e+00 1.255679e+01 3.788486e+00 7.233536e+00 3.225281e+00 6.324284e+00 5.845538e-01 6.395930e-01 6.211457e-01 5.247650e-01 9.935227e-01 8.940827e-01 6.267354e-01 5.836942e-01 1.721206e+00 7.030955e-01 1.248086e+00 6.034930e-01 6.572587e-01
<GCONST> 1.339165e+02
<STATE> 3
<MEAN> 39
 -1.209376e+01 -1.724707e+00 -1.263436e+00 -7.745031e+00 -2.792136e-01 -1.601244e+01 -2.102715e+00 -9.361563e+00 -3.917936e+00 -8.017729e+00 7.341784e-01 -3.876497e+00 8.091362e+01 3.202120e-01 -1.786846e-02 -3.163594e-01 -2.283242e-01 -1.264272e-01 -1.436875e-01 9.562571e-03 1.071585e-01 1.378064e-01 -8.288456e-02 1.324271e-01 3.828861e-01 2.177274e-01 1.193083e-01 4.592306e-02 -9.262647e-03 -2.029404e-02 1.073955e-01 -4.018933e-02 6.925050e-02 2.067468e-02 -1.004133e-01 -8.942621e-02 -6.394399e-02 -1.123466e-02 -7.397943e-02
<VARIANCE> 39
 3.156086e+01 5.557405e+01 1.794229e+01 4.494241e+01 3.839684e+01 9.818038e+01 3.382319e+01 2.124651e+01 1.870750e+01 3.931468e+01 3.178993e+01 2.545196e+01 9.711968e+01 2.911975e+00 7.479157e+00 2.218987e+00 2.180184e+00 3.455942e+00 6.817710e+00 2.904992e+00 2.224806e+00 2.930643e+00 5.202099e+00 3.729713e+00 2.042077e+00 6.194731e+00 6.582621e-01 1.308715e+00 4.192319e-01 3.361247e-01 5.550123e-01 1.006098e+00 5.171863e-01 4.445636e-01 8.030587e-01 8.438949e-01 7.472851e-01 4.282161e-01 8.607132e-01
<GCONST> 1.289455e+02
<STATE> 4
<MEAN> 39
 -6.916799e+00 -1.066983e+00 -1.147716e+01 -2.047961e+01 8.555519e+00 -1.337601e+01 9.385267e-01 -1.027535e+01 1.060918e+01 -1.827640e+01 4.254728e+00 1.168678e+00 8.953328e+01 -1.791089e-01 -3.291720e-01 2.432855e-01 3.136757e-01 6.803858e-01 -2.844294e-01 -6.127331e-01 -1.527142e-01 9.000379e-01 7.338788e-02 1.721509e-01 -4.906075e-01 -3.232715e-01 -7.904440e-02 1.017674e-01 2.036791e-01 1.344362e-01 -1.472393e-01 -9.785431e-02 -6.464435e-02 1.661484e-02 -1.473235e-01 2.745245e-02 -5.997881e-02 -6.930575e-02 -7.993733e-02
<VARIANCE> 39
 4.025858e+00 1.230791e+01 1.482778e+01 1.103011e+01 4.121521e+01 2.476921e+01 1.938460e+01 1.804438e+01 4.537326e+01 2.468928e+01 1.499030e+01 3.221628e+01 1.117447e+01 3.115798e-01 7.267228e-01 1.488805e+00 1.276170e+00 1.913347e+00 1.975208e+00 1.013872e+00 1.039757e+00 2.058818e+00 1.735124e+00 1.045346e+00 1.163049e+00 2.691544e-01 5.475006e-02 1.170275e-01 1.409140e-01 1.724494e-01 2.666824e-01 2.170922e-01 1.526307e-01 2.215367e-01 2.308941e-01 2.730955e-01 1.962352e-01 1.958013e-01 4.082575e-02
<GCONST> 8.554793e+01
<STATE> 5
<MEAN> 39
 -1.308397e+01 -8.642707e+00 5.046350e+00 -3.262046e+00 3.055951e+00 -2.415417e+01 -7.681061e+00 7.911655e-01 4.718287e+00 -1.089556e+01 -5.932405e-02 -3.864663e+00 7.431348e+01 -1.443659e-01 -3.383306e-01 2.454112e-01 7.678819e-01 -6.720163e-01 2.654761e-01 1.109127e-01 8.807716e-01 -7.351169e-01 3.610276e-01 -4.443370e-01 2.607691e-01 -1.077977e+00 4.365686e-02 6.412975e-02 -1.163120e-01 -1.206724e-01 5.383399e-02 1.818630e-01 4.579953e-02 -1.004931e-01 -2.458839e-03 -2.685592e-03 -3.967552e-03 1.414624e-02 9.088710e-03
<VARIANCE> 39
 7.197725e+00 3.375683e+01 4.463279e+01 4.527908e+01 7.613185e+01 4.479734e+01 2.063984e+01 9.005965e+01 5.536694e+01 4.066714e+01 3.157189e+01 3.435321e+01 5.690582e+01 8.971530e-01 1.782183e+00 2.443542e+00 1.742839e+00 3.440277e+00 3.753011e+00 1.682308e+00 3.227380e+00 1.997942e+00 3.251606e+00 1.860692e+00 1.503898e+00 4.234688e-01 1.414760e-01 2.138415e-01 1.975035e-01 2.804100e-01 5.375412e-01 4.638246e-01 2.799173e-01 4.578900e-01 3.570006e-01 6.505198e-01 3.653607e-01 2.449460e-01 7.766879e-02
<GCONST> 1.111388e+02
<TRANSP> 6
 0.000000e+00 1.000000e+00 0.000000e+00 0.000000e+00 0.000000e+00 0.000000e+00
 0.000000e+00 9.553593e-01 4.464067e-02 0.000000e+00 0.000000e+00 0.000000e+00
 0.000000e+00 0.000000e+00 9.730892e-01 2.691086e-02 0.000000e+00 0.000000e+00
 0.000000e+00 0.000000e+00 0.000000e+00 9.430333e-01 5.696667e-02 0.000000e+00
 0.000000e+00 0.000000e+00 0.000000e+00 0.000000e+00 9.523461e-01 4.765384e-02
 0.000000e+00 0.000000e+00 0.000000e+00 0.000000e+00 0.000000e+00 0.000000e+00
<ENDHMM>
