~o
<STREAMINFO> 1 39
<VECSIZE> 39<NULLD><MFCC_D_A_0><DIAGC>
~h "sil"
<BEGINHMM>
<NUMSTATES> 6
<STATE> 2
<MEAN> 39
 -1.558964e+01 -3.384715e+00 -4.508813e-01 -4.583971e+00 1.939463e+00 -3.063212e+00 -2.112180e+00 -3.654642e+00 -3.734645e+00 -2.724212e+00 -6.042096e-02 -1.837443e+00 6.193971e+01 2.888250e-02 -4.302004e-03 -7.671043e-02 9.907462e-02 -1.109393e-01 1.220416e-01 -1.894115e-02 -5.402023e-03 3.845046e-02 -4.480421e-02 -7.180336e-02 -3.128023e-02 -9.186270e-02 1.657015e-02 -6.558667e-03 4.629263e-03 2.256813e-02 -3.601673e-02 -2.707294e-02 -2.744447e-03 -1.743216e-02 3.704196e-02 -4.428682e-03 5.729157e-03 -1.198878e-02 2.856691e-02
<VARIANCE> 39
 2.263391e+01 2.433044e+01 3.644893e+01 4.175482e+01 2.544621e+01 3.075178e+01 2.353634e+01 3.408629e+01 2.444518e+01 2.036814e+01 2.330844e+01 2.011542e+01 1.684884e+01 1.253820e+00 1.328784e+00 1.642339e+00 2.032809e+00 2.148315e+00 2.224833e+00 2.160826e+00 2.202934e+00 2.124580e+00 2.001462e+00 1.599052e+00 1.531709e+00 1.695543e+00 2.225722e-01 2.330479e-01 2.953375e-01 3.431424e-01 4.018516e-01 3.937914e-01 4.143831e-01 4.082892e-01 4.179972e-01 3.911943e-01 3.039620e-01 2.944189e-01 3.212670e-01
<GCONST> 1.073344e+02
<STATE> 3
<MEAN> 39
 -1.551854e+01 -2.474392e+00 -1.245197e+00 -3.222749e+00 -4.564345e-01 -3.540815e+00 -2.004241e+00 -3.049862e+00 -2.188865e+00 -2.760972e+00 -1.325268e+00 -2.205256e+00 5.995485e+01 2.769999e-02 -3.523943e-02 3.559364e-03 2.486917e-02 -2.581389e-02 -1.850285e-03 2.786989e-02 -1.030187e-02 3.314060e-02 -2.703771e-02 -8.839078e-03 -1.955115e-02 5.101643e-02 1.492036e-03 -2.330764e-03 9.599814e-03 -1.439375e-02 9.013647e-03 -3.572614e-03 -8.456628e-03 6.060066e-05 -1.327588e-02 6.613461e-03 4.410561e-03 2.071469e-03 1.092255e-02
<VARIANCE> 39
 5.861362e+00 4.565427e+00 7.222609e+00 1.011177e+01 8.873483e+00 1.080639e+01 1.025309e+01 1.277624e+01 1.090320e+01 1.074958e+01 1.073010e+01 9.508240e+00 3.735303e+00 1.699412e-01 2.227065e-01 3.908584e-01 6.102615e-01 8.155006e-01 9.133035e-01 1.044307e+00 1.086115e+00 1.146052e+00 1.083755e+00 1.051080e+00 9.085482e-01 8.218573e-02 3.327904e-02 4.536187e-02 8.114096e-02 1.201496e-01 1.622027e-01 1.872598e-01 2.195223e-01 2.213738e-01 2.343149e-01 2.268760e-01 2.209563e-01 1.882335e-01 1.326626e-02
<GCONST> 6.411436e+01
<STATE> 4
<MEAN> 39
 -1.427739e+01 -4.354661e+00 -1.122165e+00 -2.802510e+00 -2.313217e+00 -2.472759e+00 -3.123580e+00 -1.721804e+00 -3.032227e+00 -1.951369e+00 -2.399523e+00 -1.561976e+00 5.905267e+01 -3.833169e-03 3.003641e-03 -8.534360e-03 1.096234e-02 -2.142968e-02 2.230862e-02 -2.491001e-02 9.168718e-03 -4.457328e-03 2.130394e-02 4.791651e-04 9.874263e-03 -3.822415e-02 6.270110e-04 3.626514e-03 4.542796e-03 -2.593208e-03 9.415654e-03 -3.728714e-03 6.212232e-03 5.681369e-03 -1.086219e-03 2.103470e-04 2.803561e-04 1.015484e-03 5.095087e-03
<VARIANCE> 39
 1.933777e+00 2.325359e+00 2.866569e+00 4.735175e+00 5.257732e+00 6.304987e+00 7.062125e+00 7.681415e+00 7.845236e+00 7.720806e+00 7.167803e+00 6.599331e+00 1.546591e+00 6.302001e-02 1.302797e-01 2.304570e-01 3.468042e-01 4.641961e-01 5.796480e-01 6.737746e-01 7.533807e-01 7.772064e-01 7.973335e-01 7.348813e-01 6.354222e-01 1.981411e-02 1.290669e-02 2.695970e-02 4.831446e-02 7.134756e-02 9.569226e-02 1.197975e-01 1.388984e-01 1.554145e-01 1.603608e-01 1.649991e-01 1.531100e-01 1.275777e-01 3.917569e-03
<GCONST> 4.215049e+01
<STATE> 5
<MEAN> 39
 -1.531949e+01 -2.431587e+00 5.527274e-01 -4.626194e+00 1.996944e+00 -4.203028e+00 -9.612221e-01 -3.430239e+00 -2.725888e+00 -2.944734e+00 -1.225628e+00 -2.754995e+00 6.397202e+01 5.367846e-02 4.225885e-02 3.556142e-01 -5.525175e-01 5.143177e-01 -6.036850e-01 1.662438e-01 -3.873735e-01 -1.634297e-01 -1.840593e-01 6.338867e-03 -2.492722e-01 1.232119e+00 1.682764e-02 6.556632e-03 3.717386e-02 -9.639224e-02 3.711294e-02 -1.614103e-01 2.389639e-03 -1.161188e-01 -2.902792e-02 -1.187465e-01 2.030692e-02 -6.763716e-02 3.079511e-01
<VARIANCE> 39
 2.235353e+01 2.793482e+01 2.603995e+01 4.178529e+01 2.800135e+01 4.041323e+01 2.279026e+01 2.829621e+01 2.528384e+01 2.029484e+01 2.167422e+01 1.535633e+01 4.221692e+01 2.709898e+00 3.188200e+00 2.734259e+00 3.610181e+00 3.108298e+00 4.412131e+00 2.434056e+00 2.645690e+00 2.887672e+00 2.630385e+00 2.386474e+00 1.548838e+00 6.534346e+00 4.422886e-01 5.364092e-01 4.975032e-01 6.580128e-01 5.700483e-01 7.593624e-01 5.008356e-01 4.788392e-01 4.795012e-01 4.890479e-01 4.267607e-01 2.887565e-01 9.866817e-01
<GCONST> 1.201587e+02
<TRANSP> 6
 0.000000e+00 6.148816e-01 3.851184e-01 0.000000e+00 0.000000e+00 0.000000e+00
 0.000000e+00 9.221153e-01 7.548346e-02 2.401246e-03 0.000000e+00 0.000000e+00
 0.000000e+00 0.000000e+00 9.508438e-01 3.272927e-02 1.642696e-02 0.000000e+00
 0.000000e+00 0.000000e+00 0.000000e+00 9.706858e-01 1.085259e-02 1.846160e-02
 0.000000e+00 0.000000e+00 0.000000e+00 0.000000e+00 8.972319e-01 1.027681e-01
 0.000000e+00 0.000000e+00 0.000000e+00 0.000000e+00 0.000000e+00 0.000000e+00
<ENDHMM>
