~o
<STREAMINFO> 1 39
<VECSIZE> 39<NULLD><MFCC_D_A_0><DIAGC>
~h "nine"
<BEGINHMM>
<NUMSTATES> 6
<STATE> 2
<MEAN> 39
 -3.250676e+00 6.732203e+00 5.822592e+00 -6.120635e+00 1.271917e+01 -1.571243e+01 3.187282e+00 -1.227993e+01 -1.553838e+01 -5.822886e+00 -5.405469e+00 -3.578017e+00 7.693812e+01 5.094877e-01 -3.680514e-01 -4.729379e-01 -1.834279e+00 -6.629226e-01 -1.524689e+00 1.196058e+00 -3.166918e-01 2.181914e-01 -5.323853e-01 1.509973e+00 7.128511e-02 2.780960e+00 -2.958048e-01 -4.305959e-01 -4.808323e-01 -2.224066e-01 -3.552465e-01 1.655449e-01 9.089433e-02 4.123614e-01 3.516383e-01 -2.783858e-02 2.750403e-01 1.353340e-01 7.133604e-03
<VARIANCE> 39
 9.106273e+00 1.906405e+01 1.106624e+01 4.888381e+01 5.084267e+01 3.067632e+01 4.261373e+01 2.639053e+01 3.809415e+01 1.569752e+01 5.015665e+01 2.000321e+01 6.884875e+01 2.860204e+00 4.321705e+00 3.040446e+00 2.428611e+00 7.999789e+00 3.730761e+00 3.016743e+00 3.905233e+00 5.759038e+00 1.295120e+00 4.896757e+00 2.131544e+00 2.268499e+00 3.066372e-01 5.519578e-01 2.970949e-01 4.818723e-01 1.280971e+00 9.051718e-01 6.242009e-01 5.362454e-01 8.453132e-01 2.412633e-01 8.660629e-01 4.513471e-01 5.809571e-01
<GCONST> 1.228527e+02
<STATE> 3
<MEAN> 39
 -4.088790e+00 -1.592939e+00 -7.229166e+00 -2.017669e+01 7.498923e+00 -1.873979e+01 1.025344e+01 -6.457722e+00 -2.001508e+00 -1.693066e+01 5.929507e+00 2.630357e+00 9.296959e+01 -6.351262e-02 -2.308149e-01 -2.011679e-01 -7.179465e-02 6.016241e-01 -1.314839e-02 -3.517239e-01 1.681101e-01 7.828740e-01 -4.292802e-01 3.441724e-01 -2.707284e-02 -2.833699e-02 -3.979884e-02 4.373101e-02 2.255378e-01 1.609076e-01 7.462766e-02 -9.209310e-02 -1.101132e-01 -7.037298e-02 1.327652e-02 8.116293e-02 -5.253798e-02 -1.580212e-01 -1.323879e-01
<VARIANCE> 39
 2.439203e+00 6.492919e+00 1.605286e+01 8.817219e+00 2.203662e+01 2.270761e+01 1.567886e+01 1.046795e+01 3.701937e+01 3.695037e+01 2.280928e+01 2.025815e+01 2.934703e+00 2.055548e-01 4.702398e-01 1.548388e+00 7.716178e-01 1.269431e+00 2.895550e+00 1.148616e+00 1.045015e+00 1.492665e+00 2.553170e+00 1.892837e+00 2.423441e+00 2.602257e-01 3.218516e-02 8.769391e-02 1.415513e-01 2.095549e-01 2.698454e-01 4.832409e-01 1.492615e-01 1.719625e-01 2.830819e-01 3.548202e-01 4.416474e-01 2.546116e-01 1.165909e-01
<GCONST> 8.426205e+01
<STATE> 4
<MEAN> 39
 -1.021328e+01 -3.592865e+00 7.788910e+00 -1.062265e+01 1.368590e+01 -3.397392e+01 -1.089390e+00 -5.302567e+00 6.874319e+00 -1.602083e+01 8.176600e+00 -7.647097e+00 8.745350e+01 -5.333438e-01 1.548730e-02 1.782970e+00 1.203731e+00 -1.758560e-01 -1.121685e+00 -3.942626e-01 3.430097e-01 -4.672184e-01 -1.155436e-01 -1.001597e+00 -2.629049e-01 -8.141943e-01 8.382416e-03 -2.660281e-02 -5.536380e-02 -3.296614e-02 -4.988631e-02 2.735954e-01 1.360303e-01 4.706916e-02 -2.101960e-01 -5.615459e-02 -8.794964e-02 1.882048e-01 -7.279828e-02
<VARIANCE> 39
 7.991444e+00 5.548968e+00 5.928882e+01 2.786357e+01 1.089136e+01 3.186405e+01 1.009536e+01 1.479049e+01 2.069557e+01 1.050037e+01 3.002575e+01 1.660262e+01 1.373319e+01 2.045104e-01 4.880776e-01 4.851422e-01 5.528236e-01 7.775770e-01 1.797603e+00 1.172024e+00 1.238084e+00 1.691696e+00 1.243190e+00 1.104501e+00 1.621375e+00 2.119865e-01 3.372629e-02 6.592345e-02 6.993592e-02 8.083351e-02 1.440665e-01 1.812903e-01 1.481514e-01 1.996770e-01 1.735702e-01 2.192406e-01 2.323645e-01 1.840602e-01 1.729421e-02
<GCONST> 7.588071e+01
<STATE> 5
<MEAN> 39
 -1.526615e+01 -8.114040e+00 1.586858e+01 -2.190962e+00 4.766169e+00 -2.672817e+01 -1.150063e+00 3.064394e+00 -6.597475e+00 -1.330604e+01 -4.165517e-01 -1.168586e+00 7.276257e+01 1.930030e-02 -1.907837e-01 -1.100330e+00 4.954487e-01 -1.218686e+00 1.986785e+00 -3.324550e-02 5.916526e-01 -5.607014e-01 8.057292e-01 -2.151331e-01 5.054538e-01 -1.387466e+00 6.858128e-02 9.286594e-02 -2.119210e-01 -8.954047e-02 -3.089853e-02 8.466054e-02 -2.592100e-02 -1.367468e-01 1.984548e-01 4.859628e-02 2.304631e-02 -6.274538e-02 1.582550e-02
<VARIANCE> 39
 1.441693e+01 2.576615e+01 4.537059e+01 1.788972e+01 6.076420e+01 9.087186e+01 2.145807e+01 3.542124e+01 4.076025e+01 3.060995e+01 1.697024e+01 3.347223e+01 3.175425e+01 8.538434e-01 1.312412e+00 2.233807e+00 1.281583e+00 2.693280e+00 1.863424e+00 1.829824e+00 2.398150e+00 2.895412e+00 2.004955e+00 1.405394e+00 1.783355e+00 4.067734e-01 1.205114e-01 1.407707e-01 1.998704e-01 3.085016e-01 5.565786e-01 3.033205e-01 3.909860e-01 3.922818e-01 4.049301e-01 3.760714e-01 2.568425e-01 3.164071e-01 4.821851e-02
<GCONST> 1.045681e+02
<TRANSP> 6
 0.000000e+00 1.000000e+00 0.000000e+00 0.000000e+00 0.000000e+00 0.000000e+00
 0.000000e+00 8.967031e-01 1.032969e-01 0.000000e+00 0.000000e+00 0.000000e+00
 0.000000e+00 0.000000e+00 9.470717e-01 5.292829e-02 0.000000e+00 0.000000e+00
 0.000000e+00 0.000000e+00 0.000000e+00 9.210564e-01 7.894354e-02 0.000000e+00
 0.000000e+00 0.000000e+00 0.000000e+00 0.000000e+00 9.222324e-01 7.776763e-02
 0.000000e+00 0.000000e+00 0.000000e+00 0.000000e+00 0.000000e+00 0.000000e+00
<ENDHMM>
