~o
<STREAMINFO> 1 39
<VECSIZE> 39<NULLD><MFCC_D_A_0><DIAGC>
~h "zero"
<BEGINHMM>
<NUMSTATES> 6
<STATE> 2
<MEAN> 39
 -2.529343e+01 -8.345574e+00 1.008144e+01 -1.912551e+01 1.164119e+01 -1.575123e+01 -4.549336e-01 -1.197528e+01 2.033302e+00 -8.311982e+00 1.080693e-01 -8.781777e+00 8.148518e+01 1.378743e+00 2.068783e-01 3.203679e-01 8.042052e-01 1.155164e-01 -1.739875e+00 -9.953861e-01 -9.879940e-01 -9.276863e-01 -6.225524e-01 -6.399350e-01 -7.557497e-01 1.600484e+00 5.395364e-01 1.671921e-01 -2.960547e-01 4.944125e-01 -3.906853e-01 -6.183176e-02 -2.255241e-01 1.311601e-01 -3.310368e-01 6.624793e-02 -1.520602e-01 1.464948e-01 -2.904825e-01
<VARIANCE> 39
 8.405726e+01 3.503894e+01 3.451714e+01 4.574210e+01 2.005657e+01 3.180586e+01 4.577090e+01 2.452154e+01 3.467328e+01 2.087053e+01 3.875499e+01 2.316182e+01 2.588598e+01 1.070924e+01 6.298529e+00 4.950048e+00 8.265489e+00 3.907564e+00 5.162712e+00 4.184022e+00 2.637919e+00 4.657290e+00 2.444221e+00 5.111514e+00 2.774431e+00 2.810794e+00 1.210822e+00 1.012660e+00 1.367002e+00 1.160825e+00 7.384445e-01 8.974743e-01 7.655882e-01 5.609908e-01 6.531637e-01 5.764732e-01 8.109459e-01 5.685712e-01 2.476926e-01
<GCONST> 1.328575e+02
<STATE> 3
<MEAN> 39
 -4.178515e+00 -2.668364e+00 4.235322e+00 -7.066888e+00 7.229739e+00 -3.375516e+01 -6.273060e+00 -1.985696e+01 -8.236366e+00 -1.076239e+01 -5.651723e+00 -1.084592e+01 8.657439e+01 5.870017e-01 1.477968e-01 -1.477191e+00 -1.922889e-01 2.711136e-01 -1.918520e-01 4.323434e-01 -2.875177e-01 -5.546470e-02 2.870393e-01 3.290360e-01 1.215665e-01 -1.499743e-01 -8.274697e-02 2.217207e-02 -3.295660e-02 -2.075185e-01 1.815575e-01 3.278745e-01 -1.323450e-02 5.034468e-02 7.576574e-02 -2.241837e-02 4.852407e-02 -2.211956e-02 -7.855260e-02
<VARIANCE> 39
 9.739150e+00 5.408758e+00 6.207209e+01 1.129103e+01 1.098717e+01 1.365161e+01 2.729882e+01 1.646640e+01 1.779184e+01 1.787733e+01 1.463685e+01 1.456051e+01 2.696398e+00 1.569048e-01 7.957283e-01 1.382072e+00 9.634635e-01 1.287957e+00 1.988724e+00 1.456517e+00 1.012994e+00 1.001717e+00 1.351961e+00 7.484965e-01 8.645945e-01 2.225384e-01 9.128871e-02 1.423243e-01 1.995581e-01 2.169110e-01 1.113050e-01 2.469348e-01 3.052519e-01 2.226271e-01 2.467832e-01 2.302924e-01 1.524792e-01 1.449938e-01 1.162271e-02
<GCONST> 7.842867e+01
<STATE> 4
<MEAN> 39
 3.191549e+00 4.728457e+00 -1.012146e+01 -2.133873e+01 1.686259e+01 -2.248603e+01 -5.143196e+00 -1.304235e+01 -1.019834e+01 -1.204092e+01 -8.075114e-01 -1.967975e+00 8.097223e+01 1.086044e-01 8.837465e-02 3.814147e-01 -7.067127e-01 -6.984579e-01 5.442300e-01 1.910759e-01 1.050413e+00 2.807489e-01 -7.868834e-01 -6.233907e-02 7.716607e-01 -2.149750e-01 -4.222117e-02 -4.301888e-02 1.310783e-01 1.192836e-01 -2.596579e-01 -7.652546e-02 1.052764e-01 3.064190e-02 3.865053e-02 -2.569729e-02 -8.609008e-02 -5.476893e-02 -2.153298e-02
<VARIANCE> 39
 3.044830e+00 9.474055e+00 9.039386e+00 2.986968e+01 4.703931e+01 2.076414e+01 3.236098e+01 7.044197e+01 2.868378e+01 3.232375e+01 2.907961e+01 4.262973e+01 3.635216e+00 1.593402e-01 9.312101e-01 5.609533e-01 1.507162e+00 4.479258e+00 1.603767e+00 3.418528e+00 2.537341e+00 1.361449e+00 1.641707e+00 2.554111e+00 1.148892e+00 2.711073e-01 1.835787e-02 1.023132e-01 7.670020e-02 1.504137e-01 2.651962e-01 2.275726e-01 5.975135e-01 4.694282e-01 1.811068e-01 2.819573e-01 4.426087e-01 2.556328e-01 3.737553e-02
<GCONST> 8.987189e+01
<STATE> 5
<MEAN> 39
 -1.349248e+00 3.516718e+00 -1.622786e+00 -1.606659e+01 -9.219923e+00 -1.065960e+01 2.025971e+00 1.704543e+00 -5.181481e+00 -1.411539e+01 -7.899606e+00 -3.847114e+00 6.969353e+01 -6.503987e-01 -2.620452e-01 1.999348e-02 6.978324e-01 -4.361506e-01 8.841776e-01 2.361296e-02 3.524019e-01 1.720092e-01 1.023636e+00 -2.038090e-02 -4.128528e-01 -8.665324e-01 -2.845054e-02 -4.346372e-02 -4.595485e-02 3.385868e-02 1.929753e-01 -1.695815e-02 -7.632512e-02 -1.004437e-01 -1.412596e-02 8.430532e-02 7.500927e-02 5.001590e-02 2.706678e-02
<VARIANCE> 39
 2.084288e+01 2.091603e+01 1.696059e+01 2.291025e+01 2.035931e+01 6.034177e+01 2.322995e+01 2.287714e+01 1.894975e+01 6.913874e+01 2.443563e+01 2.578684e+01 2.549210e+01 6.154741e-01 1.301608e+00 1.213187e+00 1.077160e+00 2.301860e+00 1.807994e+00 1.473527e+00 1.938337e+00 2.106228e+00 1.833898e+00 2.278750e+00 1.941210e+00 2.281245e-01 8.571223e-02 1.426015e-01 1.301491e-01 1.934681e-01 2.392865e-01 3.203675e-01 2.630472e-01 3.702185e-01 4.220541e-01 2.877577e-01 3.524043e-01 2.609076e-01 3.147962e-02
<GCONST> 9.691330e+01
<TRANSP> 6
 0.000000e+00 1.000000e+00 0.000000e+00 0.000000e+00 0.000000e+00 0.000000e+00
 0.000000e+00 9.114240e-01 8.857590e-02 0.000000e+00 0.000000e+00 0.000000e+00
 0.000000e+00 0.000000e+00 9.375625e-01 6.243752e-02 0.000000e+00 0.000000e+00
 0.000000e+00 0.000000e+00 0.000000e+00 9.450004e-01 5.499962e-02 0.000000e+00
 0.000000e+00 0.000000e+00 0.000000e+00 0.000000e+00 9.482186e-01 5.178139e-02
 0.000000e+00 0.000000e+00 0.000000e+00 0.000000e+00 0.000000e+00 0.000000e+00
<ENDHMM>
