~o
<STREAMINFO> 1 39
<VECSIZE> 39<NULLD><MFCC_D_A_0><DIAGC>
~h "ten"
<BEGINHMM>
<NUMSTATES> 6
<STATE> 2
<MEAN> 39
 -1.063002e+01 -1.074602e+01 1.905550e+00 -1.149380e+01 3.869039e+00 -1.818934e+01 9.670488e+00 -1.142097e+01 3.919032e+00 -2.752323e+00 3.759286e+00 -7.345989e+00 9.348625e+01 7.832447e-01 2.578895e-01 -5.864238e-01 -7.538027e-02 -1.890805e-01 -1.174618e+00 1.326649e-01 -2.256871e-01 -9.713988e-01 2.658901e-02 -3.509214e-01 -3.844753e-01 7.070456e-01 -1.784593e-02 2.182065e-01 -2.225171e-01 9.846347e-02 -1.964841e-01 1.309587e-01 -2.160037e-01 1.441475e-01 -3.053713e-01 -5.070196e-02 -1.308445e-01 1.454640e-01 -4.822151e-01
<VARIANCE> 39
 2.593572e+01 2.349474e+01 2.362294e+01 1.239129e+01 1.008452e+01 4.755585e+01 2.859243e+01 1.416270e+01 4.344205e+01 1.682124e+01 1.906436e+01 1.938053e+01 5.996415e+00 2.089166e+00 4.540033e+00 1.960265e+00 1.861661e+00 1.640003e+00 2.497477e+00 3.874278e+00 2.064384e+00 6.345037e+00 2.354654e+00 3.118549e+00 2.736418e+00 3.327977e+00 4.578390e-01 5.694695e-01 3.613134e-01 5.676478e-01 2.445107e-01 6.188143e-01 4.854664e-01 5.085625e-01 9.039242e-01 4.128499e-01 7.368837e-01 6.902685e-01 1.227914e+00
<GCONST> 1.156545e+02
<STATE> 3
<MEAN> 39
 -5.732355e+00 -2.327605e+00 -4.421921e+00 -1.580381e+01 1.050190e+00 -2.360761e+01 4.225339e+00 -1.325581e+01 -1.000880e+01 -4.542665e+00 8.689206e+00 -5.593032e+00 9.530532e+01 6.779934e-02 6.130692e-02 3.840298e-01 -5.505837e-01 7.681369e-01 7.426592e-02 5.124493e-02 -2.046501e-01 -2.383828e-01 -6.697981e-02 1.892599e+00 3.127808e-01 -2.540744e-01 -7.567466e-02 -1.434762e-01 2.460756e-01 1.190361e-02 3.108270e-01 -1.493591e-02 2.389942e-01 -7.436634e-02 1.910534e-01 1.441590e-02 9.594548e-02 -1.031853e-01 -1.835589e-01
<VARIANCE> 39
 2.404525e+00 8.528667e+00 8.054379e+00 1.431649e+01 2.063286e+01 2.087045e+01 3.447592e+01 1.152656e+01 1.697506e+01 1.813786e+01 6.392333e+01 2.580260e+01 4.633189e+00 9.078673e-02 7.257585e-01 1.076267e+00 4.790635e-01 1.760165e+00 1.103010e+00 2.198663e+00 9.320337e-01 1.587889e+00 1.486720e+00 1.457048e+00 1.842296e+00 2.437148e-01 3.723245e-02 1.845023e-01 1.013313e-01 1.127911e-01 2.048482e-01 2.230831e-01 3.117587e-01 1.660704e-01 4.831693e-01 3.204278e-01 5.824234e-01 2.794148e-01 3.817925e-02
<GCONST> 8.215490e+01
<STATE> 4
<MEAN> 39
 -6.532417e+00 2.677815e-01 5.088128e+00 -1.087203e+01 1.408472e+01 -1.668776e+01 4.411332e+00 -1.506162e+01 -1.180250e+01 -7.101717e+00 8.534621e+00 -5.032205e+00 8.086317e+01 4.667463e-02 5.853265e-01 4.474507e-01 1.303289e+00 2.578427e-01 1.167038e+00 -5.338318e-01 4.236838e-01 -2.755204e-01 -1.883254e-01 -1.739522e+00 2.003422e-01 -1.767898e+00 8.945365e-02 1.108743e-02 -1.670526e-01 1.201389e-01 -2.711142e-01 5.184513e-02 -1.265647e-01 1.493821e-01 -5.723828e-02 4.340442e-02 -1.311193e-01 1.719447e-02 -1.762631e-02
<VARIANCE> 39
 1.691518e+01 2.884862e+01 9.405635e+00 3.775896e+01 1.845955e+01 4.140802e+01 2.127773e+01 1.420569e+01 1.857710e+01 1.699060e+01 7.140665e+01 2.484593e+01 4.379998e+01 2.162500e+00 1.674496e+00 1.308536e+00 2.942265e+00 3.182421e+00 2.010099e+00 2.025648e+00 1.748334e+00 2.302551e+00 1.177899e+00 3.034543e+00 1.704166e+00 1.766796e+00 4.408333e-01 3.551676e-01 1.910532e-01 6.954023e-01 4.032273e-01 4.635921e-01 4.204055e-01 2.899388e-01 4.998575e-01 2.189388e-01 7.567338e-01 3.121979e-01 3.544803e-01
<GCONST> 1.097242e+02
<STATE> 5
<MEAN> 39
 -5.317028e+00 2.605167e+00 5.482083e+00 6.205776e-01 5.432793e+00 -6.037142e+00 -3.472013e+00 -7.056635e+00 -1.361540e+01 -7.061313e+00 -3.931500e+00 -6.401126e+00 6.690156e+01 -3.904880e-01 -4.104087e-01 -3.197044e-01 2.865373e-01 -1.091967e+00 7.516966e-01 -3.768270e-01 6.265811e-01 5.399731e-01 2.434250e-01 -2.281355e-01 3.419215e-02 -8.376315e-01 -1.096024e-01 -7.032185e-02 -5.081955e-02 -1.522146e-01 1.719971e-02 -3.869418e-02 9.063864e-02 -5.135104e-02 1.961697e-01 4.260706e-02 9.412745e-02 5.751088e-02 9.144438e-02
<VARIANCE> 39
 8.934054e+00 1.223660e+01 9.827680e+00 1.777754e+01 2.230985e+01 1.914083e+01 1.407451e+01 1.637846e+01 1.877363e+01 2.082688e+01 1.826085e+01 2.170603e+01 9.881984e+00 5.811123e-01 9.047362e-01 1.575078e+00 2.390885e+00 1.027904e+00 1.347023e+00 1.557571e+00 1.631971e+00 1.660178e+00 1.975752e+00 1.596316e+00 2.152399e+00 2.533988e-01 8.907893e-02 1.302908e-01 3.007546e-01 3.468694e-01 2.032716e-01 2.841212e-01 2.635752e-01 3.117233e-01 2.514816e-01 3.735988e-01 2.672306e-01 3.488488e-01 3.342689e-02
<GCONST> 9.006113e+01
<TRANSP> 6
 0.000000e+00 1.000000e+00 0.000000e+00 0.000000e+00 0.000000e+00 0.000000e+00
 0.000000e+00 9.186027e-01 8.139731e-02 0.000000e+00 0.000000e+00 0.000000e+00
 0.000000e+00 0.000000e+00 9.091480e-01 9.085199e-02 0.000000e+00 0.000000e+00
 0.000000e+00 0.000000e+00 0.000000e+00 9.121823e-01 8.781768e-02 0.000000e+00
 0.000000e+00 0.000000e+00 0.000000e+00 0.000000e+00 9.124374e-01 8.756263e-02
 0.000000e+00 0.000000e+00 0.000000e+00 0.000000e+00 0.000000e+00 0.000000e+00
<ENDHMM>
