~o
<STREAMINFO> 1 39
<VECSIZE> 39<NULLD><MFCC_D_A_0><DIAGC>
~h "divide"
<BEGINHMM>
<NUMSTATES> 6
<STATE> 2
<MEAN> 39
 -9.253382e+00 2.898283e+00 5.337974e+00 -6.162008e+00 6.655050e+00 -1.780210e+01 -8.142133e+00 -9.774477e+00 -8.973218e+00 -1.548034e+01 -4.152493e+00 -9.069015e+00 8.191544e+01 9.089082e-01 1.815590e-01 -6.113756e-01 -5.454378e-01 -2.241889e-01 -2.099229e-01 1.383416e-01 -1.663708e-01 -7.429807e-01 -1.655794e-01 2.925853e-01 1.048632e-01 4.639225e-01 1.808911e-02 -8.784372e-02 -2.186275e-01 -6.605931e-02 -9.468143e-02 1.943949e-01 1.593276e-01 3.721163e-02 1.021552e-01 1.897184e-01 6.551614e-02 7.321571e-02 -1.923939e-01
<VARIANCE> 39
 3.845265e+01 3.087480e+01 4.361749e+01 6.363504e+01 3.182142e+01 6.462682e+01 5.094221e+01 3.259890e+01 3.594336e+01 2.700235e+01 2.919083e+01 2.136213e+01 1.550389e+01 4.263624e+00 2.898464e+00 3.396682e+00 5.354453e+00 3.174894e+00 7.760395e+00 5.280629e+00 1.939916e+00 3.609624e+00 4.011678e+00 3.051050e+00 2.282419e+00 2.432933e+00 8.621496e-01 3.864688e-01 2.654389e-01 8.188623e-01 3.448953e-01 9.728588e-01 7.117727e-01 3.797224e-01 8.269035e-01 6.807909e-01 5.084151e-01 3.877108e-01 5.685629e-01
<GCONST> 1.264433e+02
<STATE> 3
<MEAN> 39
 -1.517695e+00 -2.255482e+00 -1.687929e+01 -1.851319e+01 1.018777e+00 -1.393606e+01 1.669155e+00 -1.041834e+01 -4.168406e+00 -1.408218e+01 5.816158e+00 -4.787978e+00 8.821883e+01 -2.361272e-01 -1.493549e-01 -4.598592e-02 3.248250e-01 7.650954e-01 -3.596623e-01 -3.472079e-01 2.380688e-01 1.140520e+00 7.623751e-03 4.849894e-01 -2.419675e-01 4.365076e-02 -1.141767e-01 4.937170e-02 2.901700e-01 9.939052e-02 4.763952e-02 -1.298757e-01 -1.827652e-01 5.990163e-02 -3.949159e-02 -6.526110e-02 -1.654326e-02 -2.228077e-02 -5.120803e-02
<VARIANCE> 39
 2.993591e+00 7.409447e+00 1.874269e+01 7.245705e+00 3.766397e+01 3.330247e+01 2.667816e+01 2.988190e+01 5.623579e+01 2.405770e+01 3.416752e+01 1.350235e+01 3.830604e+00 2.910250e-01 5.503126e-01 2.795794e+00 6.886156e-01 1.125975e+00 2.488384e+00 1.934135e+00 1.045284e+00 1.232800e+00 1.409411e+00 1.487731e+00 9.637488e-01 7.967830e-02 2.854198e-02 1.128531e-01 1.347975e-01 1.019289e-01 1.794042e-01 2.293779e-01 1.318400e-01 1.650856e-01 2.341767e-01 2.491025e-01 2.885619e-01 1.573965e-01 2.168639e-02
<GCONST> 8.032302e+01
<STATE> 4
<MEAN> 39
 -1.023696e+01 -2.669034e+00 3.781852e+00 -7.358256e+00 1.100724e+01 -2.923450e+01 -1.315493e+01 -5.340889e+00 9.663317e-01 -1.523700e+01 9.371436e+00 -6.807614e+00 8.547683e+01 -5.761764e-01 5.055851e-01 1.991194e+00 1.131080e+00 3.161964e-01 -2.087600e-02 -2.064275e-01 -2.058809e-01 -1.357521e+00 -4.696559e-01 -1.315735e+00 1.953820e-01 -1.276007e+00 1.887245e-01 4.151841e-02 -5.805331e-01 -2.195319e-01 -1.380980e-01 7.200962e-01 4.747227e-01 -1.388008e-01 -1.067054e-01 2.461922e-01 -1.645657e-01 1.261842e-01 -3.834043e-01
<VARIANCE> 39
 5.476427e+00 1.794198e+01 5.506174e+01 1.762416e+01 1.349488e+01 1.909118e+01 1.802883e+01 2.375593e+01 3.301632e+01 1.746551e+01 2.177214e+01 1.186957e+01 1.370971e+01 5.082986e-01 9.000039e-01 3.288880e+00 7.616847e-01 1.168411e+00 5.508295e+00 4.095726e+00 1.414870e+00 1.172896e+00 1.626869e+00 1.652872e+00 9.412276e-01 1.674065e+00 2.844066e-02 2.460230e-01 4.388778e-01 1.690695e-01 4.277720e-01 3.227310e-01 3.128974e-01 2.875127e-01 3.407552e-01 5.052500e-01 2.441366e-01 2.324664e-01 1.147612e-01
<GCONST> 9.589737e+01
<STATE> 5
<MEAN> 39
 -1.628647e+01 -6.396264e+00 1.562615e+00 -9.569665e+00 1.408185e+00 -1.187738e+01 -6.876166e+00 -7.895509e+00 -2.432764e+00 -5.114871e+00 3.967215e-01 -3.557285e+00 7.178484e+01 -3.297753e-01 -4.957853e-01 -3.685654e-01 -2.810402e-01 -6.656026e-01 9.426185e-01 1.608882e-01 2.792308e-01 2.414361e-01 9.593605e-01 -9.893188e-02 2.113635e-01 -7.074150e-01 -2.015108e-02 2.433764e-02 1.182327e-01 7.360107e-02 3.886620e-02 -1.624769e-01 -1.002097e-01 5.514155e-02 2.083245e-02 -8.184887e-02 1.761864e-02 -2.772439e-02 1.063116e-01
<VARIANCE> 39
 3.859343e+01 2.491540e+01 1.739661e+01 2.616348e+01 2.756549e+01 2.988974e+01 2.071787e+01 1.934980e+01 2.129899e+01 3.578410e+01 2.231131e+01 2.316466e+01 7.489671e+01 4.332886e+00 1.848984e+00 3.987551e+00 3.275410e+00 2.960427e+00 5.746580e+00 3.058815e+00 2.556912e+00 1.943890e+00 4.739936e+00 2.197310e+00 2.823664e+00 1.309280e+01 8.593690e-01 3.633191e-01 7.533908e-01 6.727911e-01 5.063674e-01 8.708683e-01 7.421340e-01 4.380226e-01 3.988285e-01 7.983223e-01 4.918064e-01 5.329563e-01 2.278982e+00
<GCONST> 1.252878e+02
<TRANSP> 6
 0.000000e+00 1.000000e+00 0.000000e+00 0.000000e+00 0.000000e+00 0.000000e+00
 0.000000e+00 9.486644e-01 5.133564e-02 0.000000e+00 0.000000e+00 0.000000e+00
 0.000000e+00 0.000000e+00 9.439324e-01 5.606761e-02 0.000000e+00 0.000000e+00
 0.000000e+00 0.000000e+00 0.000000e+00 8.934189e-01 1.065811e-01 0.000000e+00
 0.000000e+00 0.000000e+00 0.000000e+00 0.000000e+00 9.447582e-01 5.524177e-02
 0.000000e+00 0.000000e+00 0.000000e+00 0.000000e+00 0.000000e+00 0.000000e+00
<ENDHMM>
