~o
<STREAMINFO> 1 39
<VECSIZE> 39<NULLD><MFCC_D_A_0><DIAGC>
~h "two"
<BEGINHMM>
<NUMSTATES> 6
<STATE> 2
<MEAN> 39
 -2.023989e+01 -8.883748e+00 7.731729e-01 -8.156821e+00 2.103997e+00 -1.010749e+01 2.197810e-01 -1.204995e+01 -4.211634e+00 2.950482e-01 4.798771e+00 -7.703279e+00 8.995043e+01 7.405199e-01 6.409069e-01 -3.284596e-01 -2.686399e-01 5.968609e-01 -6.610409e-01 9.076795e-02 -1.084406e+00 -1.186210e+00 -3.518184e-01 -4.717498e-02 1.343857e-01 1.204616e+00 4.084266e-01 4.524898e-01 -5.195559e-02 1.914132e-01 -1.138546e-01 -7.120870e-02 2.855743e-02 7.489808e-02 -3.232452e-01 -3.263928e-01 -4.572413e-01 1.696265e-01 -6.227474e-01
<VARIANCE> 39
 2.312387e+01 1.460976e+01 1.712342e+01 1.010685e+01 2.135950e+01 2.435937e+01 1.570801e+01 2.321976e+01 1.901946e+01 1.706227e+01 2.051067e+01 1.455409e+01 4.724805e+01 3.879311e+00 3.949758e+00 1.781301e+00 1.597978e+00 1.933639e+00 5.232869e+00 1.749094e+00 2.035135e+00 3.797453e+00 3.167973e+00 5.778503e+00 2.240687e+00 1.226243e+01 3.555182e-01 3.610329e-01 3.873727e-01 2.712887e-01 5.473943e-01 1.078283e+00 3.661317e-01 3.808906e-01 5.134615e-01 5.112275e-01 5.970231e-01 3.757526e-01 1.679245e+00
<GCONST> 1.159410e+02
<STATE> 3
<MEAN> 39
 -7.196020e+00 5.076169e+00 3.003463e-01 -1.039267e+01 -3.247617e+00 -2.004962e+01 3.888663e+00 -1.580972e+01 -1.819100e+01 -1.089577e+01 -7.316180e+00 -5.066930e+00 9.086798e+01 4.273854e-01 6.166183e-01 4.485126e-01 -5.736114e-01 -5.075681e-01 -1.974685e-01 6.060508e-01 5.150025e-01 -1.374326e-01 -9.377952e-01 -5.890662e-01 -1.943908e-01 -1.914441e-03 -1.546693e-01 -1.757024e-01 1.446076e-01 -1.858282e-01 1.139905e-01 8.011313e-02 1.317056e-01 1.235477e-01 2.952782e-01 -4.683865e-03 2.365523e-01 -8.260676e-02 -1.461940e-01
<VARIANCE> 39
 4.119595e+00 1.317588e+01 1.348503e+01 1.584499e+01 2.040471e+01 4.317851e+01 4.946252e+01 2.976759e+01 2.837136e+01 3.083647e+01 1.585072e+01 2.068615e+01 1.048077e+01 8.402926e-01 1.352142e+00 1.375834e+00 1.932757e+00 2.115364e+00 5.514863e+00 4.567550e+00 3.183491e+00 3.861897e+00 2.835599e+00 2.077407e+00 1.572667e+00 1.284840e+00 1.518503e-01 2.647485e-01 2.559414e-01 4.387390e-01 3.018946e-01 1.127026e+00 8.461123e-01 6.552610e-01 5.896221e-01 5.567737e-01 4.510293e-01 3.038981e-01 2.080402e-01
<GCONST> 1.083555e+02
<STATE> 4
<MEAN> 39
 -7.160136e+00 8.888706e+00 6.962824e+00 -1.838459e+01 5.984702e-02 -1.844024e+01 8.682847e+00 -5.475453e+00 -1.141135e+01 -1.436269e+01 -9.647674e+00 -8.910050e+00 7.828149e+01 -1.910967e-02 -4.334558e-01 -3.479102e-01 -4.398130e-02 9.679905e-02 9.846016e-01 -6.629951e-01 7.843909e-01 6.346040e-01 9.297320e-01 3.323852e-01 2.258737e-01 -1.469132e+00 -2.580061e-02 -1.413270e-01 -2.178089e-01 3.442402e-01 -1.122266e-01 2.795720e-01 -2.662553e-01 1.760583e-02 7.991652e-02 2.663067e-01 1.073427e-01 1.872315e-01 -5.954833e-03
<VARIANCE> 39
 8.227531e+00 3.391348e+01 2.424930e+01 2.870202e+01 3.035483e+01 5.422073e+01 5.203365e+01 2.076795e+01 1.825192e+01 7.515485e+01 2.394929e+01 3.460303e+01 4.662674e+01 1.155098e+00 4.444284e+00 4.407756e+00 5.154160e+00 4.163211e+00 7.245719e+00 5.935596e+00 2.177475e+00 1.973703e+00 5.836534e+00 2.512831e+00 4.269850e+00 1.719591e+00 2.352932e-01 7.850751e-01 8.214056e-01 1.145775e+00 6.529617e-01 1.088860e+00 1.119979e+00 4.812803e-01 3.415277e-01 1.042496e+00 3.686100e-01 7.126768e-01 3.723623e-01
<GCONST> 1.260490e+02
<STATE> 5
<MEAN> 39
 -6.321509e+00 2.668443e+00 2.946206e+00 -3.741774e+00 -1.819727e+00 -1.827338e+00 4.646794e-01 4.898497e-01 -2.895114e+00 -2.680504e+00 -3.181466e+00 -2.939401e+00 6.477333e+01 -4.287997e-01 -2.151180e-01 3.407830e-01 1.723301e+00 4.593534e-01 7.183536e-01 -1.203712e-01 -8.077076e-02 4.868123e-01 3.058688e-01 2.432650e-01 1.420965e-01 -7.172640e-01 -8.263592e-02 5.304982e-02 8.727847e-02 -1.956007e-01 2.101918e-01 -2.241535e-01 8.609970e-02 -1.103752e-01 -1.268777e-01 -1.109412e-01 -9.843279e-02 -1.042981e-01 9.761665e-02
<VARIANCE> 39
 1.130603e+01 1.645033e+01 2.730384e+01 5.018284e+01 2.228228e+01 1.518049e+01 1.297526e+01 1.455608e+01 1.033785e+01 8.839112e+00 9.947628e+00 8.120685e+00 5.260887e+00 1.091129e+00 1.248137e+00 1.900936e+00 3.899130e+00 2.185647e+00 1.382907e+00 1.304764e+00 1.720710e+00 1.253490e+00 1.288504e+00 1.297839e+00 1.002739e+00 8.710978e-01 1.748437e-01 2.934552e-01 4.527374e-01 5.242103e-01 5.151013e-01 3.577091e-01 2.939032e-01 3.744957e-01 2.709706e-01 3.006038e-01 3.271488e-01 2.647497e-01 1.610261e-01
<GCONST> 9.550266e+01
<TRANSP> 6
 0.000000e+00 1.000000e+00 0.000000e+00 0.000000e+00 0.000000e+00 0.000000e+00
 0.000000e+00 8.946580e-01 1.053420e-01 0.000000e+00 0.000000e+00 0.000000e+00
 0.000000e+00 0.000000e+00 9.277486e-01 7.225145e-02 0.000000e+00 0.000000e+00
 0.000000e+00 0.000000e+00 0.000000e+00 9.241176e-01 7.588246e-02 0.000000e+00
 0.000000e+00 0.000000e+00 0.000000e+00 0.000000e+00 8.967835e-01 1.032165e-01
 0.000000e+00 0.000000e+00 0.000000e+00 0.000000e+00 0.000000e+00 0.000000e+00
<ENDHMM>
