~o
<STREAMINFO> 1 39
<VECSIZE> 39<NULLD><MFCC_D_A_0><DIAGC>
~h "seven"
<BEGINHMM>
<NUMSTATES> 6
<STATE> 2
<MEAN> 39
 -2.639265e+01 -7.994819e+00 3.044757e+00 -2.050554e+01 1.056336e+01 -1.536587e+01 4.629948e+00 -8.414783e+00 3.885484e+00 -3.612692e+00 1.882720e+00 -4.558643e+00 8.751934e+01 -5.207194e-02 2.461927e-01 4.305874e-02 2.802913e-02 2.651822e-01 -7.992355e-01 -6.454730e-02 -5.365155e-01 -1.731514e-01 -3.843413e-01 6.563962e-02 -1.777467e-01 1.158718e+00 2.492332e-01 1.859129e-01 -1.537379e-01 2.082132e-01 -1.901483e-01 -1.285292e-02 -2.021040e-01 1.873808e-02 -1.722181e-01 -5.016801e-02 -2.306154e-02 6.773150e-02 -1.594099e-01
<VARIANCE> 39
 6.254702e+01 1.777007e+01 1.702308e+01 2.461281e+01 2.788839e+01 3.021992e+01 3.233875e+01 2.028369e+01 1.133296e+01 1.654539e+01 1.265690e+01 1.027848e+01 4.025489e+01 8.328952e+00 2.847579e+00 2.198319e+00 3.315384e+00 2.961938e+00 2.659667e+00 4.484615e+00 3.405885e+00 2.418651e+00 1.946194e+00 1.433752e+00 1.342142e+00 2.887769e+00 6.990307e-01 4.732522e-01 3.855617e-01 4.716857e-01 2.637310e-01 4.751630e-01 4.400989e-01 6.020986e-01 3.553112e-01 3.824967e-01 3.025068e-01 2.930166e-01 2.568519e-01
<GCONST> 1.129615e+02
<STATE> 3
<MEAN> 39
 -6.328154e+00 3.116181e-02 -5.675942e+00 -1.470506e+01 5.882793e-01 -2.330292e+01 -6.406532e+00 -1.555425e+01 -4.157752e+00 -8.614692e+00 1.539671e+00 -2.788857e+00 9.463329e+01 1.179251e+00 1.872774e-01 -8.419032e-01 -2.113584e-01 -4.941176e-01 -5.352741e-01 2.299977e-01 8.433999e-02 -3.391749e-01 -7.893962e-01 2.161606e-01 5.196289e-01 -1.295205e-01 -4.583668e-01 -2.180405e-01 2.760756e-01 -5.920086e-02 4.069538e-01 1.984948e-01 5.577450e-01 1.865332e-01 8.155151e-02 -2.010534e-01 -3.790246e-02 -7.282718e-02 -4.166554e-01
<VARIANCE> 39
 2.641135e+00 5.788816e+00 1.391920e+01 9.003030e+00 8.237313e+00 2.429523e+01 1.153538e+01 2.056785e+01 1.873256e+01 3.745985e+01 1.282378e+01 2.379173e+01 5.000574e+00 1.910894e+00 8.465607e-01 1.294287e+00 8.819724e-01 1.650487e+00 1.738219e+00 2.521352e+00 2.551257e+00 2.882892e+00 4.148129e+00 1.369532e+00 1.962540e+00 1.762677e+00 5.888625e-01 2.626494e-01 1.930726e-01 2.411729e-01 1.251495e-01 4.212971e-01 3.293445e-01 6.915326e-01 8.319117e-01 7.691677e-01 3.004169e-01 3.951611e-01 1.027914e-01
<GCONST> 9.724449e+01
<STATE> 4
<MEAN> 39
 -4.842155e+00 -5.759645e-01 1.081962e-01 -1.408525e+01 7.071449e+00 -2.173677e+01 2.134453e+00 -1.572290e+01 -8.276315e+00 -1.614207e+01 3.900270e+00 -2.838902e+00 8.565852e+01 -8.387578e-02 1.204870e-01 6.183064e-01 3.262427e-01 7.182716e-01 4.197522e-01 1.481471e-01 4.259210e-02 -8.610047e-02 1.851639e-01 1.388133e-01 -4.389575e-02 -6.354804e-01 1.648129e-02 -2.659917e-02 -5.279407e-02 1.273454e-01 -1.419022e-02 7.931396e-02 -1.689275e-01 1.080613e-01 4.888728e-03 1.976805e-01 -1.110869e-01 4.735164e-02 1.693689e-02
<VARIANCE> 39
 1.143146e+01 2.346570e+01 2.497657e+01 2.434350e+01 1.884950e+01 4.303402e+01 2.041725e+01 2.422235e+01 2.397448e+01 4.708046e+01 6.798722e+01 3.138475e+01 3.064351e+01 1.488016e+00 2.180653e+00 1.905607e+00 3.905200e+00 2.145324e+00 5.051800e+00 2.014789e+00 2.250499e+00 2.537790e+00 4.508928e+00 6.018425e+00 4.294128e+00 5.018656e+00 3.618374e-01 4.008733e-01 3.779167e-01 6.249134e-01 3.511054e-01 8.990016e-01 3.819560e-01 4.600755e-01 4.859300e-01 7.427661e-01 9.053029e-01 9.483880e-01 5.942122e-01
<GCONST> 1.211220e+02
<STATE> 5
<MEAN> 39
 -4.729017e+00 8.314937e-01 3.770931e+00 -3.307844e-01 1.058234e+01 -6.600435e+00 -3.804655e+00 -8.684563e+00 -1.012199e+01 -5.309531e+00 -1.037078e+00 -2.945514e+00 6.942720e+01 -4.369103e-01 -3.555138e-01 -3.386444e-01 5.775104e-01 -8.798420e-01 1.091434e+00 -3.185829e-01 5.671725e-01 2.122080e-01 6.984829e-01 -3.683457e-01 -7.671516e-02 -1.082026e+00 -1.197604e-01 -1.449908e-02 -4.015410e-02 -2.162214e-01 -1.593367e-01 -1.233293e-01 1.014115e-01 -7.954258e-02 1.249329e-01 -5.236412e-02 1.941416e-01 -2.464861e-02 9.083915e-02
<VARIANCE> 39
 1.840326e+01 7.053849e+00 8.715752e+00 2.255712e+01 3.193559e+01 4.901720e+01 1.330733e+01 1.825494e+01 3.062477e+01 1.828466e+01 1.944875e+01 1.627763e+01 2.674277e+01 1.715331e+00 7.638030e-01 1.055379e+00 3.218877e+00 1.526834e+00 2.041085e+00 1.687886e+00 1.763815e+00 2.830899e+00 1.187887e+00 2.730227e+00 2.043463e+00 4.892550e-01 2.251131e-01 1.569095e-01 2.219996e-01 4.391943e-01 3.341798e-01 3.720933e-01 3.065409e-01 3.271478e-01 3.799776e-01 2.461411e-01 4.925147e-01 4.045827e-01 1.123167e-01
<GCONST> 9.975787e+01
<TRANSP> 6
 0.000000e+00 1.000000e+00 0.000000e+00 0.000000e+00 0.000000e+00 0.000000e+00
 0.000000e+00 9.492388e-01 5.076125e-02 0.000000e+00 0.000000e+00 0.000000e+00
 0.000000e+00 0.000000e+00 8.820564e-01 1.179436e-01 0.000000e+00 0.000000e+00
 0.000000e+00 0.000000e+00 0.000000e+00 9.486389e-01 5.136115e-02 0.000000e+00
 0.000000e+00 0.000000e+00 0.000000e+00 0.000000e+00 9.326665e-01 6.733356e-02
 0.000000e+00 0.000000e+00 0.000000e+00 0.000000e+00 0.000000e+00 0.000000e+00
<ENDHMM>
