~o
<STREAMINFO> 1 39
<VECSIZE> 39<NULLD><MFCC_D_A_0><DIAGC>
~h "zero"
<BEGINHMM>
<NUMSTATES> 6
<STATE> 2
<MEAN> 39
 -2.529518e+01 -8.346632e+00 1.008061e+01 -1.912672e+01 1.164074e+01 -1.575015e+01 -4.540248e-01 -1.197484e+01 2.034083e+00 -8.311738e+00 1.088585e-01 -8.781806e+00 8.148462e+01 1.378729e+00 2.067483e-01 3.207078e-01 8.040481e-01 1.155413e-01 -1.739829e+00 -9.952868e-01 -9.880889e-01 -9.276785e-01 -6.227046e-01 -6.400592e-01 -7.560492e-01 1.600608e+00 5.396972e-01 1.673337e-01 -2.960094e-01 4.945305e-01 -3.906059e-01 -6.186852e-02 -2.256073e-01 1.311512e-01 -3.310431e-01 6.630528e-02 -1.521181e-01 1.465336e-01 -2.905192e-01
<VARIANCE> 39
 8.403239e+01 3.503612e+01 3.451438e+01 4.573571e+01 2.005442e+01 3.179989e+01 4.576677e+01 2.452310e+01 3.466722e+01 2.087297e+01 3.875249e+01 2.316409e+01 2.588659e+01 1.070999e+01 6.299045e+00 4.949506e+00 8.266118e+00 3.907983e+00 5.163187e+00 4.184324e+00 2.637966e+00 4.657528e+00 2.444261e+00 5.111810e+00 2.773710e+00 2.810863e+00 1.210592e+00 1.012551e+00 1.367079e+00 1.160796e+00 7.384725e-01 8.975455e-01 7.655648e-01 5.610237e-01 6.531956e-01 5.764871e-01 8.109805e-01 5.685877e-01 2.476903e-01
<GCONST> 1.328569e+02
<STATE> 3
<MEAN> 39
 -4.155739e+00 -2.651711e+00 4.155379e+00 -7.060648e+00 7.258895e+00 -3.373074e+01 -6.246597e+00 -1.987044e+01 -8.245466e+00 -1.073224e+01 -5.631746e+00 -1.085943e+01 8.655990e+01 5.855466e-01 1.521467e-01 -1.472863e+00 -2.022471e-01 2.817846e-01 -1.812759e-01 4.199995e-01 -2.830887e-01 -5.660771e-02 2.793649e-01 3.347953e-01 1.197037e-01 -1.514863e-01 -8.322503e-02 2.189350e-02 -2.920670e-02 -2.107388e-01 1.821257e-01 3.257195e-01 -1.209550e-02 5.092214e-02 7.483452e-02 -2.477066e-02 4.821358e-02 -2.173875e-02 -7.779138e-02
<VARIANCE> 39
 9.813356e+00 5.446889e+00 6.323026e+01 1.127608e+01 1.113326e+01 1.372927e+01 2.735269e+01 1.649308e+01 1.779313e+01 1.802247e+01 1.466696e+01 1.455317e+01 2.731062e+00 1.568801e-01 7.963785e-01 1.381274e+00 9.851963e-01 1.308443e+00 2.004704e+00 1.485683e+00 1.012607e+00 9.983541e-01 1.362595e+00 7.544512e-01 8.631052e-01 2.221894e-01 9.099518e-02 1.418254e-01 2.018093e-01 2.184487e-01 1.113902e-01 2.470515e-01 3.043958e-01 2.218532e-01 2.459794e-01 2.307399e-01 1.519210e-01 1.446653e-01 1.169848e-02
<GCONST> 7.858587e+01
<STATE> 4
<MEAN> 39
 3.161965e+00 4.676240e+00 -9.605017e+00 -2.149949e+01 1.555008e+01 -2.234448e+01 -4.643341e+00 -1.218320e+01 -9.778966e+00 -1.282690e+01 -9.738547e-01 -1.511413e+00 8.077657e+01 7.350206e-02 1.209476e-01 4.684455e-01 -6.005757e-01 -8.381792e-01 5.511647e-01 2.193811e-01 1.080645e+00 2.361192e-01 -7.792729e-01 -9.923927e-02 6.525236e-01 -2.879435e-01 -3.535325e-02 -3.072999e-02 1.192604e-01 1.242747e-01 -2.308271e-01 -5.031531e-02 6.820500e-02 3.478707e-02 1.724765e-02 7.167387e-03 -6.833211e-02 -7.662707e-02 -2.636981e-02
<VARIANCE> 39
 3.319497e+00 9.207615e+00 1.204441e+01 2.731223e+01 6.688612e+01 2.020203e+01 3.519404e+01 7.498474e+01 2.956980e+01 3.899492e+01 2.970053e+01 4.306517e+01 3.886840e+00 1.816570e-01 8.974950e-01 6.306353e-01 1.543483e+00 4.382333e+00 1.523722e+00 3.275071e+00 2.468838e+00 1.358556e+00 1.583151e+00 2.459235e+00 1.339992e+00 3.368858e-01 2.109204e-02 1.017414e-01 7.924018e-02 1.415498e-01 2.638984e-01 2.297351e-01 5.804829e-01 4.426883e-01 1.836284e-01 2.879991e-01 4.353098e-01 2.534325e-01 3.647356e-02
<GCONST> 9.130849e+01
<STATE> 5
<MEAN> 39
 -1.668366e+00 3.493109e+00 -1.497063e+00 -1.553656e+01 -9.846121e+00 -9.848733e+00 2.030986e+00 1.980046e+00 -5.240084e+00 -1.345490e+01 -8.280100e+00 -4.446036e+00 6.900048e+01 -6.730533e-01 -3.295518e-01 -1.000784e-01 7.006363e-01 -2.763939e-01 8.970638e-01 -1.064162e-02 2.654320e-01 2.144600e-01 1.161801e+00 1.645799e-02 -3.724969e-01 -8.375609e-01 -3.432510e-02 -5.701439e-02 -4.986575e-02 2.583579e-02 1.950715e-01 -4.057240e-02 -5.078694e-02 -1.159843e-01 5.713693e-03 5.924371e-02 6.818304e-02 8.171780e-02 3.577657e-02
<VARIANCE> 39
 2.058394e+01 2.214881e+01 1.759455e+01 2.054636e+01 1.584612e+01 5.528181e+01 2.316968e+01 2.225008e+01 1.966243e+01 6.660756e+01 2.192682e+01 2.099229e+01 2.090232e+01 6.373329e-01 1.324188e+00 1.087800e+00 1.131236e+00 2.081422e+00 1.907739e+00 1.451155e+00 1.883848e+00 2.178175e+00 1.655912e+00 2.351890e+00 1.984282e+00 2.184524e-01 8.817070e-02 1.464473e-01 1.310598e-01 2.017049e-01 2.514866e-01 3.278677e-01 2.669353e-01 3.901928e-01 4.403752e-01 2.860925e-01 3.587531e-01 2.571494e-01 3.133936e-02
<GCONST> 9.612650e+01
<TRANSP> 6
 0.000000e+00 1.000000e+00 0.000000e+00 0.000000e+00 0.000000e+00 0.000000e+00
 0.000000e+00 9.114161e-01 8.858393e-02 0.000000e+00 0.000000e+00 0.000000e+00
 0.000000e+00 0.000000e+00 9.378536e-01 6.214643e-02 0.000000e+00 0.000000e+00
 0.000000e+00 0.000000e+00 0.000000e+00 9.487985e-01 5.120145e-02 0.000000e+00
 0.000000e+00 0.000000e+00 0.000000e+00 0.000000e+00 9.441006e-01 5.589949e-02
 0.000000e+00 0.000000e+00 0.000000e+00 0.000000e+00 0.000000e+00 0.000000e+00
<ENDHMM>
