~o
<STREAMINFO> 1 39
<VECSIZE> 39<NULLD><MFCC_D_A_0><DIAGC>
~h "five"
<BEGINHMM>
<NUMSTATES> 6
<STATE> 2
<MEAN> 39
 -1.959507e+01 -7.709954e+00 -5.313259e+00 -1.283679e+01 3.335894e+00 -9.712075e+00 2.052667e+00 -7.637596e+00 -5.032879e-01 -7.710225e+00 3.292945e+00 -5.474382e+00 8.271333e+01 6.687240e-01 2.178869e-01 -1.989286e-01 -4.207112e-01 -5.288511e-01 -5.688651e-01 1.200271e-01 3.282285e-02 -1.509255e-01 -6.240944e-01 -3.042787e-01 1.573160e-01 1.212462e+00 7.770389e-02 2.552242e-02 7.511288e-03 2.789674e-02 -5.769122e-02 1.172084e-02 -5.041938e-02 9.784114e-02 3.546520e-02 -9.795883e-03 -7.819088e-03 4.466986e-02 -5.506732e-02
<VARIANCE> 39
 8.355283e+01 3.363293e+01 1.636970e+01 1.646902e+01 3.479246e+01 2.994665e+01 2.293504e+01 1.929340e+01 2.568845e+01 3.177690e+01 2.213008e+01 1.597478e+01 5.655859e+01 6.255941e+00 3.308918e+00 1.928200e+00 1.026072e+00 2.933399e+00 2.492307e+00 2.453907e+00 2.016254e+00 2.691418e+00 2.617297e+00 2.776407e+00 1.459197e+00 1.526505e+00 7.327047e-01 6.704973e-01 3.568432e-01 2.210663e-01 4.951653e-01 5.589473e-01 4.711483e-01 4.061235e-01 5.497231e-01 4.735163e-01 6.008832e-01 2.612522e-01 2.372736e-01
<GCONST> 1.151145e+02
<STATE> 3
<MEAN> 39
 -3.596220e+00 -4.292527e+00 -9.870442e+00 -1.683545e+01 -1.869370e+00 -1.198764e+01 1.991783e+00 -2.940895e+00 -1.915663e-01 -1.542512e+01 5.130925e-01 1.152889e-02 9.330976e+01 -2.505509e-01 -2.588172e-01 1.085500e-01 1.889225e-01 7.839020e-01 -4.037221e-01 -3.740321e-01 5.222961e-02 7.110139e-01 1.989199e-01 4.800886e-01 -1.801438e-01 4.817463e-02 -7.574404e-02 5.564456e-02 1.901741e-01 7.949957e-02 8.682029e-02 -2.191210e-01 -7.722000e-02 -6.208720e-02 1.089891e-02 4.553512e-02 -1.726910e-02 -9.702600e-02 -1.066564e-01
<VARIANCE> 39
 7.470943e+00 1.252509e+01 9.628469e+00 1.592826e+01 3.354784e+01 3.966277e+01 2.236883e+01 1.870568e+01 2.530009e+01 4.338010e+01 2.433264e+01 1.435574e+01 7.260187e+00 3.320150e-01 6.467962e-01 1.020390e+00 1.510533e+00 1.606212e+00 4.679204e+00 1.882801e+00 1.470785e+00 1.990097e+00 1.992513e+00 1.178280e+00 1.274447e+00 2.960332e-01 6.529576e-02 1.281791e-01 1.125078e-01 2.991578e-01 3.423741e-01 4.100471e-01 2.744422e-01 2.480387e-01 3.850414e-01 4.194698e-01 2.208352e-01 1.975810e-01 6.820461e-02
<GCONST> 9.134906e+01
<STATE> 4
<MEAN> 39
 -1.091922e+01 -3.963368e+00 5.441419e+00 -6.761013e+00 1.017195e+01 -2.966248e+01 -8.465204e+00 -6.156508e+00 2.538384e+00 -1.398021e+01 -2.935932e-01 -6.317531e+00 8.300095e+01 -4.794942e-01 -1.042492e-01 3.644451e-01 4.016595e-01 2.171201e-01 7.672375e-01 -4.282886e-02 -2.163147e-01 -5.602826e-01 3.064390e-01 -5.062726e-01 -1.860583e-01 -1.231367e+00 -1.554197e-01 3.195883e-03 -2.236053e-01 -1.499754e-01 -1.400899e-01 3.727758e-01 2.668120e-01 -2.553771e-02 -5.429332e-02 -2.489689e-02 1.129084e-01 1.046712e-01 9.969464e-02
<VARIANCE> 39
 1.394590e+01 2.965876e+01 4.768853e+01 3.183292e+01 3.396675e+01 8.631197e+01 2.171829e+01 1.955972e+01 4.816856e+01 5.257988e+01 5.601095e+01 2.748515e+01 5.677254e+01 1.807463e+00 2.348133e+00 5.238338e+00 2.228740e+00 2.796934e+00 1.016772e+01 3.513498e+00 1.494677e+00 2.776693e+00 5.829857e+00 3.259354e+00 2.095945e+00 1.106066e+00 4.680797e-01 4.227912e-01 5.411441e-01 2.834326e-01 5.244479e-01 1.145444e+00 6.000153e-01 3.079861e-01 6.643248e-01 1.154611e+00 6.163246e-01 4.693708e-01 2.413013e-01
<GCONST> 1.233732e+02
<STATE> 5
<MEAN> 39
 -2.364421e+01 -6.306625e+00 -1.587689e+00 -1.041125e+01 7.699879e+00 -7.212232e+00 9.301894e-01 -7.570421e+00 -1.647138e+00 -7.586854e+00 1.815976e+00 -5.249432e+00 7.438585e+01 3.553605e-02 9.416056e-02 6.455180e-03 1.750628e-01 -4.478922e-01 3.881605e-01 1.168204e-01 2.983049e-01 -9.248096e-02 2.473804e-01 -4.753651e-02 1.987741e-01 -5.712103e-01 1.693957e-01 -6.467850e-03 4.921073e-02 1.162663e-01 1.736332e-03 -6.848767e-02 -1.296250e-01 4.801368e-02 -1.082925e-02 1.525678e-02 -1.104976e-01 9.424069e-03 -7.056523e-02
<VARIANCE> 39
 5.272739e+01 2.544704e+01 1.346057e+01 3.111358e+01 3.004561e+01 3.632885e+01 2.019946e+01 2.667564e+01 2.351928e+01 2.017455e+01 2.626936e+01 1.758258e+01 5.821950e+01 3.769389e+00 1.548431e+00 1.290007e+00 2.329678e+00 2.354554e+00 1.945584e+00 1.732623e+00 1.634825e+00 1.536007e+00 1.913797e+00 2.327796e+00 1.376713e+00 2.355402e+00 2.509944e-01 2.044398e-01 2.135404e-01 3.315452e-01 3.860326e-01 3.960999e-01 2.661268e-01 2.739933e-01 2.929593e-01 4.014428e-01 3.447394e-01 2.369641e-01 2.273218e-01
<GCONST> 1.068494e+02
<TRANSP> 6
 0.000000e+00 1.000000e+00 0.000000e+00 0.000000e+00 0.000000e+00 0.000000e+00
 0.000000e+00 9.514194e-01 4.858069e-02 0.000000e+00 0.000000e+00 0.000000e+00
 0.000000e+00 0.000000e+00 9.428285e-01 5.717155e-02 0.000000e+00 0.000000e+00
 0.000000e+00 0.000000e+00 0.000000e+00 9.361665e-01 6.383350e-02 0.000000e+00
 0.000000e+00 0.000000e+00 0.000000e+00 0.000000e+00 9.538285e-01 4.617155e-02
 0.000000e+00 0.000000e+00 0.000000e+00 0.000000e+00 0.000000e+00 0.000000e+00
<ENDHMM>
