~o
<STREAMINFO> 1 39
<VECSIZE> 39<NULLD><MFCC_D_A_0><DIAGC>
~h "minus"
<BEGINHMM>
<NUMSTATES> 6
<STATE> 2
<MEAN> 39
 -2.269107e+00 7.855202e+00 -9.706029e-01 -1.342424e+01 5.120472e+00 -1.436395e+01 2.820376e+00 -8.242895e+00 -2.127318e+01 -1.778895e+01 -1.274094e+01 -5.602498e+00 7.690398e+01 1.194082e+00 -6.452256e-01 -2.136949e+00 -1.625289e+00 -1.810348e+00 -2.446288e+00 5.323489e-01 -9.418184e-01 4.381615e-01 -1.435685e+00 2.248487e+00 3.575902e-01 3.842727e+00 -7.261176e-01 -9.676861e-01 -4.614310e-01 1.508349e-01 -3.249747e-01 3.519222e-01 -1.539303e-02 9.427669e-02 8.448393e-01 8.067224e-01 8.096803e-01 3.394296e-01 -4.668937e-02
<VARIANCE> 39
 9.191965e+00 1.660228e+01 3.254786e+01 3.049770e+01 5.331168e+01 5.809016e+01 1.496108e+01 2.795025e+01 6.052247e+01 2.306687e+01 7.138879e+01 2.203207e+01 5.539472e+01 3.670507e+00 6.885655e+00 3.724655e+00 2.631264e+00 5.075598e+00 4.613881e+00 1.968626e+00 1.756106e+00 1.279814e+01 6.573145e+00 1.066779e+01 2.801995e+00 2.735246e+00 2.662553e-01 5.962289e-01 7.064143e-01 6.381828e-01 1.067868e+00 1.504361e+00 3.279962e-01 4.077910e-01 1.852232e+00 8.486375e-01 2.087556e+00 5.804819e-01 5.745675e-01
<GCONST> 1.309536e+02
<STATE> 3
<MEAN> 39
 -6.657822e+00 1.363178e+00 -4.035549e+00 -1.169434e+01 2.478990e+00 -2.220724e+01 -2.884069e+00 -1.198924e+01 -1.153776e+01 -1.152431e+01 -9.172513e-01 -1.113518e+01 8.773510e+01 -1.173410e-01 -1.690290e-02 1.668742e-01 1.120905e-01 3.129731e-01 -1.273747e-02 -3.071792e-01 -7.924184e-02 1.332786e-01 4.446859e-01 3.891787e-01 -5.794097e-02 4.003149e-02 4.945006e-02 2.241873e-02 5.043705e-02 -6.315297e-03 6.025079e-02 -2.226902e-03 -1.436445e-02 6.178460e-02 -1.506209e-02 2.078673e-02 -1.724668e-02 3.635834e-02 -7.121938e-02
<VARIANCE> 39
 1.048288e+01 3.486082e+01 7.287661e+01 2.380563e+01 1.852956e+01 7.896100e+01 3.768536e+01 1.726026e+01 2.423387e+01 3.304725e+01 3.586609e+01 3.480764e+01 4.694139e+01 1.325792e+00 2.672154e+00 2.828775e+00 1.419251e+00 1.346916e+00 7.242450e+00 1.542121e+00 1.870232e+00 1.593142e+00 2.779626e+00 4.752749e+00 2.264263e+00 2.828122e+00 2.729787e-01 3.948252e-01 3.485198e-01 2.615763e-01 3.079748e-01 1.192145e+00 2.738988e-01 3.930124e-01 3.068145e-01 4.161515e-01 7.686710e-01 3.093683e-01 3.842391e-01
<GCONST> 1.150580e+02
<STATE> 4
<MEAN> 39
 -9.122396e+00 -2.144277e+00 1.003652e+00 -1.450343e+01 7.146456e+00 -1.635663e+01 -4.712148e+00 -1.089725e+01 -9.812769e+00 -4.969474e+00 9.873737e+00 1.297497e+00 8.572456e+01 -1.122637e+00 -4.052810e-01 6.540006e-01 -1.932683e-01 -1.150718e-01 8.411907e-01 1.194759e-01 2.543554e-01 5.877171e-01 -6.520528e-03 -3.668188e-01 -5.412348e-02 -1.388346e-01 -2.931496e-01 7.117942e-03 4.106525e-04 -1.828531e-02 -8.194661e-02 3.674079e-02 5.649837e-02 1.645191e-02 8.231528e-02 -4.632767e-02 -1.207827e-01 -1.613619e-01 6.987783e-02
<VARIANCE> 39
 3.230824e+01 3.436642e+01 3.838719e+01 1.184236e+01 1.254136e+01 4.298161e+01 3.066505e+01 1.680621e+01 2.572745e+01 2.529966e+01 2.659072e+01 2.358043e+01 2.323924e+01 4.166257e+00 4.177317e+00 1.303266e+00 1.060922e+00 1.385534e+00 1.875638e+00 1.427129e+00 1.749104e+00 3.759670e+00 1.891945e+00 1.674483e+00 3.153556e+00 1.861122e+00 3.922283e-01 7.275828e-01 3.218101e-01 2.157679e-01 2.802254e-01 3.494049e-01 2.616792e-01 2.962184e-01 5.550027e-01 3.597484e-01 3.131750e-01 3.098641e-01 2.672068e-01
<GCONST> 1.086407e+02
<STATE> 5
<MEAN> 39
 -3.261026e+01 -6.164046e+00 3.185355e+00 -1.759122e+01 8.420025e+00 -8.518354e+00 2.689251e+00 -3.924552e+00 2.072168e+00 -3.135403e+00 2.805231e+00 -5.140485e+00 8.399698e+01 2.779883e-01 1.594502e-01 -1.864730e-01 1.606460e-01 -1.625695e-02 -6.438877e-02 1.515502e-01 2.437739e-01 -1.084430e-01 1.293210e-01 -1.759924e-01 1.300301e-01 -9.096663e-01 2.522635e-01 5.499999e-02 -1.142910e-02 9.855868e-02 2.666361e-02 1.360472e-02 -7.075784e-02 -8.452122e-03 -1.332827e-01 1.977177e-02 -3.056806e-02 8.213446e-02 -1.532344e-01
<VARIANCE> 39
 2.681213e+01 1.711929e+01 1.869018e+01 1.882230e+01 2.163845e+01 1.696469e+01 1.814955e+01 1.924213e+01 1.521142e+01 1.063693e+01 1.139566e+01 1.288787e+01 6.168789e+01 3.039848e+00 9.847239e-01 1.324500e+00 1.679931e+00 1.737950e+00 1.459404e+00 1.256723e+00 1.557772e+00 1.061900e+00 8.907731e-01 9.131637e-01 8.488442e-01 2.007879e+00 3.049067e-01 2.039429e-01 2.031822e-01 2.707287e-01 3.085122e-01 3.175695e-01 2.218424e-01 2.550106e-01 2.097055e-01 1.611119e-01 1.654015e-01 1.837045e-01 1.784665e-01
<GCONST> 9.403599e+01
<TRANSP> 6
 0.000000e+00 1.000000e+00 0.000000e+00 0.000000e+00 0.000000e+00 0.000000e+00
 0.000000e+00 8.181092e-01 1.818908e-01 0.000000e+00 0.000000e+00 0.000000e+00
 0.000000e+00 0.000000e+00 9.676877e-01 3.231227e-02 0.000000e+00 0.000000e+00
 0.000000e+00 0.000000e+00 0.000000e+00 9.430665e-01 5.693352e-02 0.000000e+00
 0.000000e+00 0.000000e+00 0.000000e+00 0.000000e+00 9.601440e-01 3.985597e-02
 0.000000e+00 0.000000e+00 0.000000e+00 0.000000e+00 0.000000e+00 0.000000e+00
<ENDHMM>
