~o
<STREAMINFO> 1 39
<VECSIZE> 39<NULLD><MFCC_D_A_0><DIAGC>
~h "multiply"
<BEGINHMM>
<NUMSTATES> 6
<STATE> 2
<MEAN> 39
 -4.812273e+00 6.821449e+00 -3.145593e+00 -1.469179e+01 -2.160121e+00 -1.554910e+01 1.093496e+01 -8.211048e+00 -2.352977e+01 -1.672365e+01 -4.494246e+00 -8.312707e+00 8.174985e+01 -3.963560e-01 7.341564e-03 -2.631759e-02 -1.851029e-01 -1.812830e-01 -1.948369e-01 6.094066e-02 -3.526795e-01 4.517191e-01 -1.224932e-01 3.977647e-01 -2.927943e-01 7.761871e-01 -3.090364e-01 -2.794113e-01 -7.625171e-02 8.497499e-02 -1.131003e-01 1.510445e-01 -1.436487e-01 3.152213e-02 4.118754e-01 2.937898e-01 2.366716e-01 1.228903e-01 1.594732e-02
<VARIANCE> 39
 1.820343e+01 1.296287e+01 4.712945e+01 2.449945e+01 7.970543e+01 3.188560e+01 4.249672e+01 2.130511e+01 4.990837e+01 2.268066e+01 6.242090e+01 3.373140e+01 5.277102e+01 5.419836e+00 2.684079e+00 3.759601e+00 3.149346e+00 6.903998e+00 5.514650e+00 4.562821e+00 2.727331e+00 1.255627e+01 3.788152e+00 7.233612e+00 3.225374e+00 6.324162e+00 5.845289e-01 6.395721e-01 6.211726e-01 5.247734e-01 9.935395e-01 8.941385e-01 6.266628e-01 5.836439e-01 1.721080e+00 7.029836e-01 1.248116e+00 6.035129e-01 6.572395e-01
<GCONST> 1.339157e+02
<STATE> 3
<MEAN> 39
 -1.209376e+01 -1.724747e+00 -1.263352e+00 -7.745069e+00 -2.791425e-01 -1.601241e+01 -2.102403e+00 -9.361173e+00 -3.917809e+00 -8.017861e+00 7.340417e-01 -3.876684e+00 8.091331e+01 3.201883e-01 -1.785987e-02 -3.163551e-01 -2.283349e-01 -1.264215e-01 -1.436806e-01 9.568448e-03 1.071361e-01 1.378177e-01 -8.290311e-02 1.324533e-01 3.828741e-01 2.177390e-01 1.193094e-01 4.592025e-02 -9.266174e-03 -2.028693e-02 1.074003e-01 -4.018828e-02 6.924723e-02 2.067908e-02 -1.004108e-01 -8.941325e-02 -6.394431e-02 -1.122905e-02 -7.398058e-02
<VARIANCE> 39
 3.155949e+01 5.557658e+01 1.794299e+01 4.494446e+01 3.839750e+01 9.818209e+01 3.382144e+01 2.124575e+01 1.870729e+01 3.931618e+01 3.179067e+01 2.545256e+01 9.711932e+01 2.911965e+00 7.479358e+00 2.219058e+00 2.180157e+00 3.455939e+00 6.817653e+00 2.904914e+00 2.224738e+00 2.930893e+00 5.201861e+00 3.729828e+00 2.042156e+00 6.194808e+00 6.582476e-01 1.308743e+00 4.192407e-01 3.361162e-01 5.550020e-01 1.006075e+00 5.171844e-01 4.445631e-01 8.030977e-01 8.438553e-01 7.472951e-01 4.282378e-01 8.607280e-01
<GCONST> 1.289457e+02
<STATE> 4
<MEAN> 39
 -6.916930e+00 -1.067020e+00 -1.147721e+01 -2.047944e+01 8.555768e+00 -1.337609e+01 9.386138e-01 -1.027547e+01 1.060957e+01 -1.827656e+01 4.254704e+00 1.168917e+00 8.953304e+01 -1.791166e-01 -3.291730e-01 2.432755e-01 3.137067e-01 6.803958e-01 -2.844417e-01 -6.127170e-01 -1.527155e-01 9.000535e-01 7.337032e-02 1.721398e-01 -4.906289e-01 -3.232792e-01 -7.904200e-02 1.017707e-01 2.036833e-01 1.344299e-01 -1.472486e-01 -9.785878e-02 -6.464652e-02 1.661970e-02 -1.473424e-01 2.744526e-02 -5.997824e-02 -6.930994e-02 -7.994009e-02
<VARIANCE> 39
 4.026013e+00 1.230870e+01 1.482904e+01 1.102920e+01 4.121393e+01 2.476957e+01 1.938345e+01 1.804506e+01 4.537305e+01 2.468907e+01 1.499039e+01 3.221420e+01 1.117523e+01 3.115698e-01 7.267281e-01 1.488846e+00 1.276080e+00 1.913201e+00 1.975162e+00 1.013847e+00 1.039799e+00 2.059019e+00 1.735011e+00 1.045402e+00 1.163005e+00 2.691773e-01 5.475105e-02 1.170304e-01 1.409218e-01 1.724449e-01 2.666413e-01 2.170725e-01 1.526256e-01 2.215516e-01 2.308925e-01 2.730742e-01 1.962505e-01 1.957968e-01 4.082682e-02
<GCONST> 8.554780e+01
<STATE> 5
<MEAN> 39
 -1.308409e+01 -8.642868e+00 5.045991e+00 -3.262315e+00 3.055556e+00 -2.415393e+01 -7.681084e+00 7.911500e-01 4.717911e+00 -1.089583e+01 -5.900780e-02 -3.864614e+00 7.431323e+01 -1.443776e-01 -3.383436e-01 2.454176e-01 7.678674e-01 -6.720487e-01 2.654674e-01 1.109004e-01 8.808022e-01 -7.351388e-01 3.610405e-01 -4.443585e-01 2.607688e-01 -1.077973e+00 4.365686e-02 6.412914e-02 -1.163108e-01 -1.206710e-01 5.383755e-02 1.818633e-01 4.579933e-02 -1.004919e-01 -2.451810e-03 -2.694203e-03 -3.970782e-03 1.415329e-02 9.088652e-03
<VARIANCE> 39
 7.198533e+00 3.375793e+01 4.463097e+01 4.527623e+01 7.613241e+01 4.479474e+01 2.064040e+01 9.006194e+01 5.537057e+01 4.066772e+01 3.157192e+01 3.435340e+01 5.690365e+01 8.972850e-01 1.782312e+00 2.443495e+00 1.742908e+00 3.440285e+00 3.753043e+00 1.682366e+00 3.227615e+00 1.998006e+00 3.251676e+00 1.860694e+00 1.503912e+00 4.235520e-01 1.415034e-01 2.138664e-01 1.975066e-01 2.804363e-01 5.375554e-01 4.638690e-01 2.799206e-01 4.579369e-01 3.570146e-01 6.505454e-01 3.653672e-01 2.449485e-01 7.768890e-02
<GCONST> 1.111406e+02
<TRANSP> 6
 0.000000e+00 1.000000e+00 0.000000e+00 0.000000e+00 0.000000e+00 0.000000e+00
 0.000000e+00 9.553592e-01 4.464087e-02 0.000000e+00 0.000000e+00 0.000000e+00
 0.000000e+00 0.000000e+00 9.730893e-01 2.691073e-02 0.000000e+00 0.000000e+00
 0.000000e+00 0.000000e+00 0.000000e+00 9.430329e-01 5.696708e-02 0.000000e+00
 0.000000e+00 0.000000e+00 0.000000e+00 0.000000e+00 9.523457e-01 4.765433e-02
 0.000000e+00 0.000000e+00 0.000000e+00 0.000000e+00 0.000000e+00 0.000000e+00
<ENDHMM>
