~o
<STREAMINFO> 1 39
<VECSIZE> 39<NULLD><MFCC_D_A_0><DIAGC>
~h "four"
<BEGINHMM>
<NUMSTATES> 6
<STATE> 2
<MEAN> 39
 -1.690748e+01 -3.891140e+00 -2.832203e+00 -1.466587e+01 4.364404e+00 -1.250177e+01 7.559729e-01 -5.138704e+00 -3.276417e+00 -6.170700e+00 8.408751e-01 -7.919976e+00 8.124091e+01 7.067079e-01 3.909656e-01 2.104794e-01 -6.537890e-01 -7.997648e-01 -1.079445e+00 -4.162862e-01 -4.485830e-01 -1.294027e-01 -2.340807e-01 -2.432289e-01 -1.854180e-01 1.048144e+00 6.026192e-02 -5.736013e-03 -3.643562e-02 1.196069e-01 -1.301397e-01 6.696368e-02 -1.127617e-01 -5.588261e-02 -6.551886e-03 6.172218e-02 4.355132e-03 1.425384e-01 -4.024994e-02
<VARIANCE> 39
 8.201638e+01 5.113869e+01 3.469896e+01 4.195297e+01 5.829488e+01 5.843896e+01 3.380030e+01 2.011295e+01 2.233465e+01 1.781944e+01 2.493530e+01 1.903507e+01 5.741628e+01 5.580508e+00 4.856631e+00 2.821616e+00 2.525782e+00 4.011522e+00 3.707483e+00 3.642070e+00 2.262916e+00 2.786065e+00 1.923462e+00 2.663480e+00 1.779534e+00 2.288006e+00 5.925079e-01 8.319231e-01 4.390089e-01 5.004049e-01 7.975025e-01 9.097384e-01 6.663220e-01 4.775453e-01 5.878901e-01 3.745219e-01 5.379966e-01 3.476904e-01 2.279243e-01
<GCONST> 1.239339e+02
<STATE> 3
<MEAN> 39
 -3.883850e-01 1.749247e+00 -7.768021e-01 -1.551618e+01 -7.706082e+00 -1.980751e+01 -9.058064e+00 -7.337287e+00 -2.182332e+00 -5.437093e+00 -7.040221e-01 -5.201782e+00 8.922512e+01 8.611696e-02 -4.240086e-01 -5.602619e-01 -3.923228e-02 -3.410459e-02 2.478900e-01 9.290988e-02 4.295955e-01 8.169126e-01 -3.094773e-01 1.757588e-01 2.347804e-01 1.500341e-01 1.193959e-03 5.990068e-02 -4.863403e-02 -1.551325e-01 9.614064e-02 2.612179e-02 1.495807e-01 -7.605534e-03 4.418841e-02 -1.117928e-01 -6.710720e-02 -8.744973e-02 -1.028933e-01
<VARIANCE> 39
 2.324135e+00 2.030918e+01 4.173486e+01 1.503383e+01 1.492897e+01 3.515079e+01 2.560408e+01 4.580445e+01 4.617231e+01 2.484591e+01 1.667932e+01 1.885922e+01 1.021624e+01 1.502929e-01 6.749973e-01 8.694854e-01 1.381350e+00 1.207595e+00 2.160481e+00 2.323211e+00 1.705863e+00 2.431692e+00 2.726559e+00 1.125799e+00 1.264978e+00 4.065042e-01 4.785151e-02 1.234091e-01 1.203247e-01 1.729553e-01 2.375088e-01 3.423954e-01 3.039919e-01 3.384951e-01 3.653586e-01 3.698595e-01 1.867451e-01 2.138238e-01 4.844408e-02
<GCONST> 8.996258e+01
<STATE> 4
<MEAN> 39
 2.542765e+00 2.700191e+00 -1.447299e+01 -1.996012e+01 3.952089e+00 -9.696139e+00 -1.523229e+00 -1.540069e+01 -3.623483e+00 -9.621592e+00 -2.773317e-01 -1.108032e+00 7.809059e+01 -1.700247e-01 -8.119029e-02 -2.974765e-01 3.281678e-01 5.606735e-01 1.223319e+00 6.178761e-02 -7.234448e-01 -1.096915e+00 4.897610e-01 2.251911e-01 2.251016e-01 -1.140767e+00 -9.999458e-02 -1.319801e-01 6.860410e-02 1.062772e-01 -1.246547e-01 2.707593e-02 -5.562720e-02 1.887661e-01 4.363935e-02 2.013878e-01 9.073756e-02 2.048433e-02 -1.007308e-02
<VARIANCE> 39
 2.268436e+01 2.285250e+01 3.136706e+01 3.111128e+01 7.308940e+01 6.515622e+01 2.725068e+01 5.668340e+01 1.285342e+02 3.886304e+01 3.054082e+01 2.127293e+01 4.943255e+01 2.914182e+00 2.093150e+00 3.139892e+00 2.687414e+00 4.994132e+00 2.382913e+00 3.090334e+00 3.931805e+00 3.571423e+00 2.991321e+00 1.728483e+00 1.665351e+00 1.355849e+00 5.047253e-01 2.699350e-01 4.045752e-01 3.803965e-01 7.403606e-01 4.008996e-01 5.953959e-01 4.812931e-01 7.495975e-01 5.781596e-01 3.286310e-01 2.944281e-01 2.442790e-01
<GCONST> 1.212507e+02
<STATE> 5
<MEAN> 39
 -8.491862e+00 -5.545131e+00 -8.953702e+00 -9.237507e+00 1.774766e+00 3.981762e+00 -2.816199e+00 -9.399809e+00 -8.250897e+00 1.082042e+00 4.877652e+00 1.403124e+00 6.369975e+01 -1.041523e+00 -3.646228e-01 8.101749e-01 8.569609e-01 -1.361276e-01 -1.479146e-01 2.283286e-01 1.061918e+00 7.189087e-01 2.470474e-01 -2.006122e-01 8.119571e-02 -6.478231e-01 7.482135e-02 1.735397e-01 9.747716e-02 1.208029e-02 5.099482e-02 -2.267096e-01 7.443042e-04 -1.383778e-01 -5.596916e-02 -1.946125e-01 -1.748084e-01 -7.485145e-02 7.333536e-02
<VARIANCE> 39
 1.530730e+01 7.027626e+00 4.016861e+01 3.047223e+01 1.392444e+01 1.782028e+01 1.397564e+01 2.192058e+01 1.599187e+01 2.535770e+01 3.236422e+01 1.497039e+01 6.296598e+00 2.822047e-01 5.404904e-01 1.200598e+00 1.255307e+00 1.223612e+00 1.382781e+00 1.168526e+00 1.478784e+00 1.339272e+00 2.340501e+00 2.377048e+00 1.221734e+00 1.088891e-01 6.638544e-02 5.967639e-02 1.652961e-01 2.449604e-01 2.628914e-01 2.524602e-01 2.424802e-01 2.950678e-01 1.884234e-01 3.322786e-01 3.121850e-01 1.765415e-01 2.798460e-02
<GCONST> 8.499321e+01
<TRANSP> 6
 0.000000e+00 1.000000e+00 0.000000e+00 0.000000e+00 0.000000e+00 0.000000e+00
 0.000000e+00 9.490258e-01 5.097422e-02 0.000000e+00 0.000000e+00 0.000000e+00
 0.000000e+00 0.000000e+00 9.441572e-01 5.584282e-02 0.000000e+00 0.000000e+00
 0.000000e+00 0.000000e+00 0.000000e+00 9.455954e-01 5.440458e-02 0.000000e+00
 0.000000e+00 0.000000e+00 0.000000e+00 0.000000e+00 9.056042e-01 9.439576e-02
 0.000000e+00 0.000000e+00 0.000000e+00 0.000000e+00 0.000000e+00 0.000000e+00
<ENDHMM>
