~o
<STREAMINFO> 1 39
<VECSIZE> 39<NULLD><MFCC_D_A_0><DIAGC>
~h "ten"
<BEGINHMM>
<NUMSTATES> 6
<STATE> 2
<MEAN> 39
 -1.062995e+01 -1.074603e+01 1.905571e+00 -1.149384e+01 3.869018e+00 -1.818938e+01 9.670566e+00 -1.142094e+01 3.919066e+00 -2.752294e+00 3.759257e+00 -7.345977e+00 9.348623e+01 7.832450e-01 2.578777e-01 -5.864397e-01 -7.537758e-02 -1.890866e-01 -1.174597e+00 1.326635e-01 -2.256654e-01 -9.714008e-01 2.660399e-02 -3.509322e-01 -3.844710e-01 7.070363e-01 -1.785292e-02 2.182101e-01 -2.225202e-01 9.846170e-02 -1.964843e-01 1.309576e-01 -2.160036e-01 1.441452e-01 -3.053686e-01 -5.070318e-02 -1.308435e-01 1.454621e-01 -4.822114e-01
<VARIANCE> 39
 2.593497e+01 2.349481e+01 2.362308e+01 1.239140e+01 1.008458e+01 4.755495e+01 2.859286e+01 1.416267e+01 4.344216e+01 1.682141e+01 1.906454e+01 1.938082e+01 5.996546e+00 2.089152e+00 4.540044e+00 1.960268e+00 1.861682e+00 1.640016e+00 2.497454e+00 3.874329e+00 2.064367e+00 6.345044e+00 2.354675e+00 3.118583e+00 2.736453e+00 3.327884e+00 4.578333e-01 5.694605e-01 3.613179e-01 5.676526e-01 2.445103e-01 6.188120e-01 4.854644e-01 5.085611e-01 9.039188e-01 4.128515e-01 7.368917e-01 6.902812e-01 1.227911e+00
<GCONST> 1.156545e+02
<STATE> 3
<MEAN> 39
 -5.732373e+00 -2.327594e+00 -4.422081e+00 -1.580371e+01 1.049943e+00 -2.360748e+01 4.225148e+00 -1.325569e+01 -1.000890e+01 -4.542605e+00 8.688979e+00 -5.592948e+00 9.530540e+01 6.781262e-02 6.130446e-02 3.840121e-01 -5.505987e-01 7.681319e-01 7.425804e-02 5.125591e-02 -2.046593e-01 -2.383780e-01 -6.696744e-02 1.892631e+00 3.127977e-01 -2.540604e-01 -7.567270e-02 -1.434848e-01 2.460796e-01 1.189322e-02 3.108362e-01 -1.494002e-02 2.389987e-01 -7.437361e-02 1.910582e-01 1.442570e-02 9.595885e-02 -1.031916e-01 -1.835523e-01
<VARIANCE> 39
 2.404567e+00 8.528282e+00 8.054364e+00 1.431641e+01 2.063170e+01 2.086985e+01 3.447625e+01 1.152587e+01 1.697519e+01 1.813750e+01 6.392344e+01 2.580249e+01 4.633014e+00 9.078153e-02 7.257804e-01 1.076262e+00 4.790533e-01 1.760224e+00 1.103030e+00 2.198749e+00 9.320365e-01 1.587931e+00 1.486731e+00 1.457043e+00 1.842349e+00 2.437047e-01 3.723380e-02 1.845007e-01 1.013310e-01 1.127865e-01 2.048543e-01 2.230907e-01 3.117617e-01 1.660656e-01 4.831707e-01 3.204297e-01 5.824320e-01 2.794199e-01 3.817625e-02
<GCONST> 8.215472e+01
<STATE> 4
<MEAN> 39
 -6.532405e+00 2.676809e-01 5.088027e+00 -1.087215e+01 1.408467e+01 -1.668784e+01 4.411473e+00 -1.506167e+01 -1.180252e+01 -7.101511e+00 8.534802e+00 -5.032335e+00 8.086339e+01 4.665944e-02 5.853207e-01 4.474854e-01 1.303283e+00 2.578783e-01 1.167022e+00 -5.338284e-01 4.236811e-01 -2.755138e-01 -1.883300e-01 -1.739483e+00 2.003238e-01 -1.767883e+00 8.945093e-02 1.109160e-02 -1.670495e-01 1.201485e-01 -2.711136e-01 5.184508e-02 -1.265588e-01 1.493909e-01 -5.724086e-02 4.339451e-02 -1.311241e-01 1.720050e-02 -1.763550e-02
<VARIANCE> 39
 1.691568e+01 2.884933e+01 9.405919e+00 3.775998e+01 1.845998e+01 4.140889e+01 2.127782e+01 1.420547e+01 1.857676e+01 1.699014e+01 7.140662e+01 2.484561e+01 4.380085e+01 2.162615e+00 1.674510e+00 1.308540e+00 2.942257e+00 3.182483e+00 2.010094e+00 2.025607e+00 1.748327e+00 2.302555e+00 1.177886e+00 3.034618e+00 1.704177e+00 1.766780e+00 4.408571e-01 3.551662e-01 1.910527e-01 6.954036e-01 4.032454e-01 4.635855e-01 4.204009e-01 2.899363e-01 4.998564e-01 2.189442e-01 7.567438e-01 3.122022e-01 3.544802e-01
<GCONST> 1.097246e+02
<STATE> 5
<MEAN> 39
 -5.317004e+00 2.605098e+00 5.482057e+00 6.205967e-01 5.432868e+00 -6.037085e+00 -3.471975e+00 -7.056675e+00 -1.361531e+01 -7.061248e+00 -3.931281e+00 -6.401167e+00 6.690163e+01 -3.904837e-01 -4.104092e-01 -3.197203e-01 2.865441e-01 -1.091982e+00 7.516956e-01 -3.768334e-01 6.265665e-01 5.399587e-01 2.434162e-01 -2.281451e-01 3.420684e-02 -8.376463e-01 -1.096028e-01 -7.031921e-02 -5.081896e-02 -1.522154e-01 1.719882e-02 -3.869388e-02 9.063385e-02 -5.135332e-02 1.961665e-01 4.260712e-02 9.412042e-02 5.750939e-02 9.144488e-02
<VARIANCE> 39
 8.933990e+00 1.223684e+01 9.827446e+00 1.777750e+01 2.231055e+01 1.914072e+01 1.407467e+01 1.637755e+01 1.877365e+01 2.082707e+01 1.826086e+01 2.170576e+01 9.882514e+00 5.811067e-01 9.047338e-01 1.574981e+00 2.390867e+00 1.027876e+00 1.347017e+00 1.557586e+00 1.631842e+00 1.660137e+00 1.975753e+00 1.596285e+00 2.152367e+00 2.534077e-01 8.907656e-02 1.302885e-01 3.007318e-01 3.468606e-01 2.032656e-01 2.841210e-01 2.635787e-01 3.116953e-01 2.514777e-01 3.735999e-01 2.672273e-01 3.488454e-01 3.342683e-02
<GCONST> 9.006065e+01
<TRANSP> 6
 0.000000e+00 1.000000e+00 0.000000e+00 0.000000e+00 0.000000e+00 0.000000e+00
 0.000000e+00 9.186028e-01 8.139727e-02 0.000000e+00 0.000000e+00 0.000000e+00
 0.000000e+00 0.000000e+00 9.091469e-01 9.085312e-02 0.000000e+00 0.000000e+00
 0.000000e+00 0.000000e+00 0.000000e+00 9.121831e-01 8.781690e-02 0.000000e+00
 0.000000e+00 0.000000e+00 0.000000e+00 0.000000e+00 9.124377e-01 8.756236e-02
 0.000000e+00 0.000000e+00 0.000000e+00 0.000000e+00 0.000000e+00 0.000000e+00
<ENDHMM>
