~o
<STREAMINFO> 1 39
<VECSIZE> 39<NULLD><MFCC_D_A_0><DIAGC>
~h "sil"
<BEGINHMM>
<NUMSTATES> 6
<STATE> 2
<MEAN> 39
 -1.558961e+01 -3.384698e+00 -4.509258e-01 -4.583960e+00 1.939493e+00 -3.063228e+00 -2.112170e+00 -3.654674e+00 -3.734654e+00 -2.724225e+00 -6.042363e-02 -1.837445e+00 6.193971e+01 2.888323e-02 -4.306795e-03 -7.671194e-02 9.907844e-02 -1.109415e-01 1.220462e-01 -1.894573e-02 -5.402230e-03 3.845004e-02 -4.480892e-02 -7.180318e-02 -3.128118e-02 -9.186596e-02 1.657002e-02 -6.558430e-03 4.629112e-03 2.256892e-02 -3.601762e-02 -2.707266e-02 -2.743642e-03 -1.743306e-02 3.704157e-02 -4.428387e-03 5.729556e-03 -1.198920e-02 2.856723e-02
<VARIANCE> 39
 2.263393e+01 2.433086e+01 3.644901e+01 4.175526e+01 2.544632e+01 3.075171e+01 2.353632e+01 3.408656e+01 2.444529e+01 2.036838e+01 2.330857e+01 2.011568e+01 1.684875e+01 1.253817e+00 1.328809e+00 1.642333e+00 2.032816e+00 2.148322e+00 2.224846e+00 2.160819e+00 2.202928e+00 2.124580e+00 2.001484e+00 1.599063e+00 1.531711e+00 1.695540e+00 2.225710e-01 2.330517e-01 2.953366e-01 3.431446e-01 4.018544e-01 3.937958e-01 4.143822e-01 4.082878e-01 4.179964e-01 3.911984e-01 3.039646e-01 2.944190e-01 3.212656e-01
<GCONST> 1.073346e+02
<STATE> 3
<MEAN> 39
 -1.551855e+01 -2.474363e+00 -1.245195e+00 -3.222756e+00 -4.564171e-01 -3.540832e+00 -2.004239e+00 -3.049868e+00 -2.188863e+00 -2.760993e+00 -1.325256e+00 -2.205262e+00 5.995487e+01 2.770065e-02 -3.523912e-02 3.561484e-03 2.486995e-02 -2.581334e-02 -1.851501e-03 2.786995e-02 -1.030208e-02 3.314011e-02 -2.703757e-02 -8.838714e-03 -1.955204e-02 5.101787e-02 1.492045e-03 -2.330845e-03 9.599219e-03 -1.439375e-02 9.013339e-03 -3.572954e-03 -8.456588e-03 6.048608e-05 -1.327538e-02 6.614167e-03 4.410909e-03 2.071569e-03 1.092243e-02
<VARIANCE> 39
 5.861388e+00 4.565446e+00 7.222580e+00 1.011187e+01 8.873593e+00 1.080649e+01 1.025314e+01 1.277638e+01 1.090326e+01 1.074972e+01 1.073009e+01 9.508316e+00 3.735370e+00 1.699425e-01 2.227071e-01 3.908589e-01 6.102668e-01 8.155026e-01 9.133068e-01 1.044302e+00 1.086116e+00 1.146052e+00 1.083762e+00 1.051083e+00 9.085489e-01 8.218644e-02 3.327924e-02 4.536174e-02 8.114095e-02 1.201504e-01 1.622035e-01 1.872600e-01 2.195209e-01 2.213738e-01 2.343138e-01 2.268772e-01 2.209565e-01 1.882340e-01 1.326634e-02
<GCONST> 6.411456e+01
<STATE> 4
<MEAN> 39
 -1.427738e+01 -4.354655e+00 -1.122165e+00 -2.802514e+00 -2.313220e+00 -2.472772e+00 -3.123590e+00 -1.721823e+00 -3.032248e+00 -1.951395e+00 -2.399540e+00 -1.561999e+00 5.905268e+01 -3.833113e-03 3.003110e-03 -8.534514e-03 1.096256e-02 -2.142951e-02 2.230863e-02 -2.491015e-02 9.168825e-03 -4.458128e-03 2.130425e-02 4.792292e-04 9.874408e-03 -3.822426e-02 6.271205e-04 3.626648e-03 4.542845e-03 -2.593208e-03 9.415640e-03 -3.728566e-03 6.212344e-03 5.681507e-03 -1.086095e-03 2.104745e-04 2.804509e-04 1.015424e-03 5.095127e-03
<VARIANCE> 39
 1.933770e+00 2.325328e+00 2.866553e+00 4.735115e+00 5.257674e+00 6.304912e+00 7.062130e+00 7.681325e+00 7.845215e+00 7.720769e+00 7.167761e+00 6.599311e+00 1.546591e+00 6.301910e-02 1.302786e-01 2.304551e-01 3.468004e-01 4.641904e-01 5.796432e-01 6.737714e-01 7.533707e-01 7.771999e-01 7.973270e-01 7.348737e-01 6.354171e-01 1.981411e-02 1.290648e-02 2.695950e-02 4.831407e-02 7.134678e-02 9.569135e-02 1.197966e-01 1.388980e-01 1.554126e-01 1.603595e-01 1.649976e-01 1.531080e-01 1.275761e-01 3.917515e-03
<GCONST> 4.215017e+01
<STATE> 5
<MEAN> 39
 -1.531947e+01 -2.431567e+00 5.527228e-01 -4.626091e+00 1.996913e+00 -4.203071e+00 -9.612284e-01 -3.430311e+00 -2.725854e+00 -2.944733e+00 -1.225609e+00 -2.755039e+00 6.397204e+01 5.368396e-02 4.225652e-02 3.556131e-01 -5.525130e-01 5.143115e-01 -6.036835e-01 1.662429e-01 -3.873807e-01 -1.634201e-01 -1.840482e-01 6.347378e-03 -2.492668e-01 1.232114e+00 1.682615e-02 6.553395e-03 3.717544e-02 -9.639356e-02 3.711507e-02 -1.614068e-01 2.391073e-03 -1.161180e-01 -2.902712e-02 -1.187450e-01 2.030452e-02 -6.763612e-02 3.079496e-01
<VARIANCE> 39
 2.235388e+01 2.793520e+01 2.603986e+01 4.178526e+01 2.800159e+01 4.041377e+01 2.279039e+01 2.829644e+01 2.528353e+01 2.029501e+01 2.167406e+01 1.535664e+01 4.221699e+01 2.709898e+00 3.188214e+00 2.734252e+00 3.610155e+00 3.108325e+00 4.412144e+00 2.434074e+00 2.645677e+00 2.887650e+00 2.630385e+00 2.386439e+00 1.548841e+00 6.534313e+00 4.422932e-01 5.364129e-01 4.975015e-01 6.580050e-01 5.700514e-01 7.593673e-01 5.008422e-01 4.788380e-01 4.794941e-01 4.890474e-01 4.267573e-01 2.887593e-01 9.866790e-01
<GCONST> 1.201588e+02
<TRANSP> 6
 0.000000e+00 6.148782e-01 3.851218e-01 0.000000e+00 0.000000e+00 0.000000e+00
 0.000000e+00 9.221144e-01 7.548431e-02 2.401338e-03 0.000000e+00 0.000000e+00
 0.000000e+00 0.000000e+00 9.508440e-01 3.272906e-02 1.642696e-02 0.000000e+00
 0.000000e+00 0.000000e+00 0.000000e+00 9.706858e-01 1.085271e-02 1.846152e-02
 0.000000e+00 0.000000e+00 0.000000e+00 0.000000e+00 8.972318e-01 1.027682e-01
 0.000000e+00 0.000000e+00 0.000000e+00 0.000000e+00 0.000000e+00 0.000000e+00
<ENDHMM>
