~o
<STREAMINFO> 1 39
<VECSIZE> 39<NULLD><MFCC_D_A_0><DIAGC>
~h "six"
<BEGINHMM>
<NUMSTATES> 6
<STATE> 2
<MEAN> 39
 -3.054925e+01 -5.336002e+00 3.619070e+00 -1.631816e+01 7.357513e+00 -1.063785e+01 2.792135e+00 -7.349584e+00 2.465037e+00 -2.807995e+00 1.640606e+00 -4.341028e+00 8.660556e+01 -2.036608e-01 2.127686e-01 9.176508e-02 -3.068720e-01 1.965510e-01 -8.017904e-01 -1.713609e-01 -3.636620e-01 -1.091676e-01 -3.172659e-01 -9.047109e-02 -2.780898e-01 1.116100e+00 3.912743e-01 1.237871e-01 -1.024695e-01 2.503063e-01 -1.259994e-01 -1.181590e-01 -2.156523e-01 -4.608102e-02 -1.556586e-01 -5.333747e-02 -9.725793e-02 -8.163211e-02 -1.588690e-01
<VARIANCE> 39
 6.336201e+01 1.676068e+01 2.726892e+01 1.814537e+01 2.492136e+01 2.059308e+01 2.415126e+01 2.367594e+01 1.982933e+01 1.809899e+01 1.133396e+01 1.067657e+01 4.404022e+01 7.658986e+00 1.526438e+00 2.820221e+00 2.617311e+00 2.105242e+00 2.454652e+00 3.883812e+00 2.924708e+00 2.438720e+00 1.874425e+00 1.593929e+00 1.549067e+00 2.169051e+00 6.004415e-01 3.086582e-01 5.497978e-01 4.046771e-01 3.464429e-01 4.662950e-01 3.991261e-01 4.755253e-01 3.228586e-01 3.727266e-01 2.472239e-01 2.634400e-01 1.942225e-01
<GCONST> 1.104700e+02
<STATE> 3
<MEAN> 39
 -1.106176e+01 -3.930500e+00 2.133525e+00 -2.333024e+00 2.297621e+00 -2.450650e+01 -8.427383e+00 -7.158828e+00 -6.261384e+00 -7.068349e+00 -3.039724e+00 -4.798838e+00 8.007686e+01 4.471167e-01 -7.783830e-02 -2.746286e-01 6.824371e-01 -3.119228e-01 5.463374e-01 -1.305003e-02 5.308492e-01 5.496354e-03 1.831200e-01 -2.442655e-02 3.143241e-01 -1.347183e+00 -3.499561e-01 -8.006703e-02 -5.703570e-02 -2.396473e-01 1.898635e-01 1.535002e-01 1.689164e-01 5.171693e-02 1.760229e-01 9.759957e-02 8.935792e-02 2.321822e-02 1.184505e-01
<VARIANCE> 39
 7.455509e+00 1.715572e+01 1.719338e+01 2.437201e+01 2.731437e+01 1.120813e+02 2.345980e+01 4.281628e+01 1.133166e+01 1.948339e+01 2.022156e+01 2.127577e+01 1.694304e+02 3.078387e+00 1.613059e+00 2.036325e+00 2.054118e+00 2.888598e+00 9.218044e+00 2.855657e+00 2.498697e+00 1.654907e+00 2.459386e+00 2.104406e+00 1.873335e+00 3.775380e+00 4.829678e-01 3.432940e-01 4.505826e-01 3.855435e-01 6.270944e-01 1.296332e+00 4.948745e-01 6.257067e-01 2.844662e-01 5.163157e-01 4.581286e-01 4.522512e-01 7.234194e-01
<GCONST> 1.177409e+02
<STATE> 4
<MEAN> 39
 -2.066967e+01 -8.579315e+00 -2.684549e+00 -1.190139e+01 9.954247e+00 -1.023938e+01 -7.011686e+00 -8.463330e+00 6.527102e-01 -9.968976e-01 6.030827e-01 -5.809299e+00 8.187988e+01 -2.727032e+00 -6.366583e-01 2.555911e-01 -2.325372e+00 1.573705e+00 -1.689135e-01 3.799738e-01 -8.321032e-01 1.240471e+00 3.453065e-01 8.816384e-01 -4.322817e-01 4.393878e+00 -1.322735e-01 1.344427e-01 3.656901e-01 2.581002e-01 -4.350886e-01 1.127647e-01 3.131434e-01 3.525297e-01 -2.247615e-02 -1.339779e-01 -9.357229e-02 1.314737e-01 -2.824417e-01
<VARIANCE> 39
 4.638969e+01 1.568195e+01 2.627688e+01 5.988552e+01 4.802563e+01 3.133214e+01 1.482961e+01 2.833865e+01 2.603829e+01 9.698247e+00 2.250529e+01 1.237873e+01 1.619694e+02 1.549275e+00 1.539327e+00 5.263402e+00 5.824297e+00 7.450476e+00 3.099011e+00 2.468244e+00 3.905910e+00 1.940344e+00 1.069907e+00 2.270822e+00 1.597511e+00 6.692438e+00 4.051450e-01 2.794571e-01 7.885146e-01 1.164093e+00 1.259096e+00 6.291480e-01 4.494422e-01 6.579421e-01 4.786445e-01 1.923230e-01 4.860976e-01 2.949983e-01 2.447414e+00
<GCONST> 1.217031e+02
<STATE> 5
<MEAN> 39
 -3.070274e+01 -5.366041e+00 3.842052e+00 -1.777632e+01 1.008125e+01 -9.394501e+00 2.452637e+00 -4.547994e+00 4.051575e-01 -1.988423e+00 2.224252e+00 -4.278624e+00 8.484168e+01 5.719193e-01 2.285207e-01 4.354586e-02 3.171323e-01 -1.835811e-01 1.098001e-01 3.468221e-02 2.760982e-01 -3.980108e-01 7.854503e-02 -2.648315e-01 1.227478e-01 -1.143236e+00 1.278245e-01 -2.378900e-02 -5.460720e-02 9.701736e-02 5.039115e-03 2.039757e-02 -1.082250e-01 -3.040418e-02 -2.684317e-02 -3.545402e-03 -2.193174e-02 -2.146594e-02 -6.345768e-02
<VARIANCE> 39
 5.703862e+01 7.675292e+00 1.185828e+01 2.286386e+01 1.303246e+01 1.442468e+01 2.205030e+01 1.521097e+01 1.842429e+01 9.921553e+00 1.323550e+01 8.902683e+00 1.177939e+02 2.197414e+00 7.407701e-01 1.134201e+00 1.646975e+00 1.248885e+00 1.092328e+00 1.695036e+00 1.472674e+00 1.140545e+00 1.249704e+00 1.172979e+00 8.183532e-01 1.579548e+00 2.598135e-01 1.483517e-01 2.172142e-01 2.189229e-01 2.456172e-01 2.290556e-01 2.481671e-01 2.729186e-01 2.659139e-01 2.656547e-01 2.095199e-01 1.593847e-01 1.623718e-01
<GCONST> 9.252863e+01
<TRANSP> 6
 0.000000e+00 1.000000e+00 0.000000e+00 0.000000e+00 0.000000e+00 0.000000e+00
 0.000000e+00 9.485649e-01 5.143513e-02 0.000000e+00 0.000000e+00 0.000000e+00
 0.000000e+00 0.000000e+00 9.520367e-01 4.796325e-02 0.000000e+00 0.000000e+00
 0.000000e+00 0.000000e+00 0.000000e+00 8.607453e-01 1.392548e-01 0.000000e+00
 0.000000e+00 0.000000e+00 0.000000e+00 0.000000e+00 9.639350e-01 3.606499e-02
 0.000000e+00 0.000000e+00 0.000000e+00 0.000000e+00 0.000000e+00 0.000000e+00
<ENDHMM>
