~o
<STREAMINFO> 1 39
<VECSIZE> 39<NULLD><MFCC_D_A_0><DIAGC>
~h "two"
<BEGINHMM>
<NUMSTATES> 6
<STATE> 2
<MEAN> 39
 -2.023982e+01 -8.883648e+00 7.732590e-01 -8.156853e+00 2.104030e+00 -1.010751e+01 2.197462e-01 -1.205005e+01 -4.211663e+00 2.950156e-01 4.798654e+00 -7.703309e+00 8.995047e+01 7.405482e-01 6.409547e-01 -3.284541e-01 -2.686274e-01 5.968090e-01 -6.610934e-01 9.076364e-02 -1.084397e+00 -1.186280e+00 -3.518354e-01 -4.722470e-02 1.343935e-01 1.204620e+00 4.084161e-01 4.524828e-01 -5.195533e-02 1.914232e-01 -1.138671e-01 -7.120099e-02 2.855019e-02 7.490394e-02 -3.232260e-01 -3.263734e-01 -4.572331e-01 1.696256e-01 -6.227282e-01
<VARIANCE> 39
 2.312445e+01 1.460988e+01 1.712325e+01 1.010666e+01 2.135961e+01 2.435885e+01 1.570798e+01 2.322036e+01 1.902112e+01 1.706250e+01 2.051080e+01 1.455376e+01 4.724741e+01 3.879322e+00 3.949897e+00 1.781293e+00 1.597989e+00 1.933824e+00 5.232881e+00 1.749049e+00 2.035125e+00 3.797745e+00 3.167944e+00 5.778621e+00 2.240675e+00 1.226225e+01 3.555280e-01 3.610433e-01 3.873737e-01 2.712834e-01 5.474036e-01 1.078264e+00 3.661238e-01 3.808931e-01 5.135143e-01 5.112401e-01 5.970193e-01 3.757433e-01 1.679259e+00
<GCONST> 1.159413e+02
<STATE> 3
<MEAN> 39
 -7.195179e+00 5.078824e+00 3.039638e-01 -1.039745e+01 -3.248249e+00 -2.004869e+01 3.893231e+00 -1.580717e+01 -1.819072e+01 -1.090032e+01 -7.318419e+00 -5.068492e+00 9.086638e+01 4.275185e-01 6.166067e-01 4.500311e-01 -5.755549e-01 -5.071331e-01 -1.986041e-01 6.084678e-01 5.149003e-01 -1.373449e-01 -9.395100e-01 -5.890341e-01 -1.950492e-01 -3.178871e-03 -1.546174e-01 -1.756636e-01 1.444511e-01 -1.857461e-01 1.138802e-01 7.991208e-02 1.313101e-01 1.237144e-01 2.951629e-01 -4.633015e-03 2.364375e-01 -8.240113e-02 -1.461758e-01
<VARIANCE> 39
 4.120782e+00 1.318798e+01 1.350037e+01 1.587183e+01 2.040056e+01 4.316936e+01 4.948642e+01 2.976707e+01 2.835942e+01 3.086723e+01 1.586025e+01 2.069794e+01 1.047964e+01 8.400230e-01 1.351522e+00 1.379433e+00 1.938908e+00 2.114933e+00 5.514115e+00 4.576873e+00 3.183077e+00 3.860026e+00 2.841000e+00 2.076625e+00 1.573159e+00 1.286820e+00 1.517779e-01 2.647626e-01 2.558643e-01 4.386247e-01 3.018907e-01 1.126476e+00 8.460051e-01 6.550589e-01 5.893614e-01 5.566583e-01 4.508166e-01 3.039120e-01 2.079636e-01
<GCONST> 1.083674e+02
<STATE> 4
<MEAN> 39
 -7.160989e+00 8.888774e+00 6.963277e+00 -1.838502e+01 6.256811e-02 -1.844009e+01 8.681288e+00 -5.471161e+00 -1.140716e+01 -1.435998e+01 -9.646887e+00 -8.911161e+00 7.827444e+01 -1.961284e-02 -4.342254e-01 -3.500367e-01 -4.153213e-02 9.675667e-02 9.866686e-01 -6.664148e-01 7.846689e-01 6.351221e-01 9.328038e-01 3.330660e-01 2.268602e-01 -1.468829e+00 -2.576820e-02 -1.413323e-01 -2.178670e-01 3.445100e-01 -1.122378e-01 2.798993e-01 -2.660811e-01 1.735810e-02 7.990263e-02 2.664340e-01 1.073595e-01 1.871950e-01 -5.901663e-03
<VARIANCE> 39
 8.228716e+00 3.392736e+01 2.426344e+01 2.871898e+01 3.035380e+01 5.424141e+01 5.204307e+01 2.074395e+01 1.823096e+01 7.517678e+01 2.395201e+01 3.460493e+01 4.658714e+01 1.155231e+00 4.446248e+00 4.402935e+00 5.147538e+00 4.165187e+00 7.243600e+00 5.919154e+00 2.177101e+00 1.973847e+00 5.823543e+00 2.513380e+00 4.270663e+00 1.720051e+00 2.354099e-01 7.854380e-01 8.219104e-01 1.146264e+00 6.532039e-01 1.089261e+00 1.120535e+00 4.813119e-01 3.416621e-01 1.042883e+00 3.688172e-01 7.130352e-01 3.725219e-01
<GCONST> 1.260480e+02
<STATE> 5
<MEAN> 39
 -6.321637e+00 2.668427e+00 2.946359e+00 -3.741504e+00 -1.819614e+00 -1.827139e+00 4.648784e-01 4.899222e-01 -2.894852e+00 -2.680479e+00 -3.181465e+00 -2.939386e+00 6.477317e+01 -4.287697e-01 -2.150919e-01 3.407552e-01 1.723264e+00 4.593983e-01 7.183288e-01 -1.203344e-01 -8.074611e-02 4.867669e-01 3.058806e-01 2.431981e-01 1.420880e-01 -7.172641e-01 -8.263227e-02 5.303362e-02 8.724673e-02 -1.956136e-01 2.101727e-01 -2.241518e-01 8.607023e-02 -1.103833e-01 -1.269098e-01 -1.109548e-01 -9.841796e-02 -1.042978e-01 9.763467e-02
<VARIANCE> 39
 1.130638e+01 1.645041e+01 2.730279e+01 5.018091e+01 2.228299e+01 1.518067e+01 1.297455e+01 1.455586e+01 1.033480e+01 8.839316e+00 9.947799e+00 8.120961e+00 5.260369e+00 1.091114e+00 1.248137e+00 1.900989e+00 3.899344e+00 2.185574e+00 1.382882e+00 1.304750e+00 1.720726e+00 1.253416e+00 1.288476e+00 1.297765e+00 1.002762e+00 8.711707e-01 1.748484e-01 2.934490e-01 4.527084e-01 5.242326e-01 5.151172e-01 3.577138e-01 2.938677e-01 3.744962e-01 2.709315e-01 3.005969e-01 3.271582e-01 2.647612e-01 1.610235e-01
<GCONST> 9.550208e+01
<TRANSP> 6
 0.000000e+00 1.000000e+00 0.000000e+00 0.000000e+00 0.000000e+00 0.000000e+00
 0.000000e+00 8.946589e-01 1.053411e-01 0.000000e+00 0.000000e+00 0.000000e+00
 0.000000e+00 0.000000e+00 9.277954e-01 7.220462e-02 0.000000e+00 0.000000e+00
 0.000000e+00 0.000000e+00 0.000000e+00 9.240664e-01 7.593355e-02 0.000000e+00
 0.000000e+00 0.000000e+00 0.000000e+00 0.000000e+00 8.967803e-01 1.032197e-01
 0.000000e+00 0.000000e+00 0.000000e+00 0.000000e+00 0.000000e+00 0.000000e+00
<ENDHMM>
