~o
<STREAMINFO> 1 39
<VECSIZE> 39<NULLD><MFCC_D_A_0><DIAGC>
~h "eight"
<BEGINHMM>
<NUMSTATES> 6
<STATE> 2
<MEAN> 39
 -7.488114e+00 -4.498240e+00 1.990846e+00 -7.328287e+00 3.685092e+00 -3.448521e+01 -2.412311e+00 -1.104705e+01 -1.777902e+00 -1.100152e+01 2.076398e+00 -6.995585e+00 9.055767e+01 -9.087814e-02 7.805928e-01 1.194988e+00 9.543580e-02 7.680170e-01 -4.501430e-01 -4.748301e-01 9.760962e-02 -1.143681e-01 -2.045802e+00 -3.312414e-01 -1.890467e-01 3.350212e-01 -1.679839e-01 9.285355e-02 5.016628e-02 7.851508e-02 4.091699e-02 4.842613e-01 2.437207e-02 1.707764e-01 -7.221304e-02 -3.287398e-02 -1.070994e-01 7.635650e-02 -5.669874e-01
<VARIANCE> 39
 8.738311e+00 2.863929e+01 5.290125e+01 1.265628e+01 3.103279e+01 3.901057e+01 3.873537e+01 2.162820e+01 2.240395e+01 1.213149e+02 1.967080e+01 2.648506e+01 3.408533e+01 1.270273e+00 2.141007e+00 1.772075e+00 1.352818e+00 2.285257e+00 5.318647e+00 2.726969e+00 1.870695e+00 2.041840e+00 2.513418e+00 1.764846e+00 1.965273e+00 7.570915e+00 1.338543e-01 5.786910e-01 3.807629e-01 2.136417e-01 4.989314e-01 1.585011e+00 5.954866e-01 3.141605e-01 3.818765e-01 9.005998e-01 4.359895e-01 3.377994e-01 5.956682e-01
<GCONST> 1.156549e+02
<STATE> 3
<MEAN> 39
 -1.338006e+01 -7.466559e-01 5.007556e+00 -5.470825e+00 4.867095e+00 -1.651267e+01 -3.263159e+00 -3.483824e+00 -3.259749e+00 -1.042232e+01 -2.351076e+00 -3.330009e+00 6.771343e+01 -5.148990e-02 -2.599609e-01 -1.090981e+00 -4.270837e-02 -1.018050e+00 2.300875e+00 1.098436e-01 3.763774e-01 6.725172e-02 1.755412e+00 -1.648703e-01 5.130156e-01 -1.518090e+00 1.338407e-02 -1.284634e-01 -2.777353e-02 -1.256068e-01 -1.851463e-02 -1.347485e-01 2.316492e-02 -5.266025e-02 8.208501e-02 -1.355062e-02 9.578695e-02 -4.904964e-02 3.622865e-01
<VARIANCE> 39
 7.635197e+00 9.306704e+00 4.008696e+01 2.114701e+01 7.482054e+01 1.242607e+02 1.787062e+01 1.690674e+01 2.140527e+01 1.223380e+02 3.371231e+01 2.872996e+01 4.492402e+01 9.897906e-01 8.937806e-01 2.599847e+00 2.141842e+00 4.464786e+00 2.325879e+00 2.329321e+00 1.884130e+00 2.009237e+00 5.399140e+00 2.604080e+00 2.200312e+00 1.577956e+00 2.387803e-01 1.709795e-01 7.164521e-01 5.615684e-01 9.004539e-01 5.450857e-01 4.792559e-01 3.446848e-01 4.049413e-01 1.193111e+00 4.541382e-01 4.133272e-01 3.791431e-01
<GCONST> 1.160912e+02
<STATE> 4
<MEAN> 39
 -2.146698e+01 -7.809834e+00 2.118822e+00 -1.401325e+01 3.680802e+00 -7.501132e+00 -3.153132e-01 -5.363850e+00 1.800358e+00 -5.760155e+00 1.297989e+00 -4.783155e+00 7.927011e+01 -2.182887e+00 -1.048113e+00 1.135004e+00 -2.124867e+00 1.231245e+00 -1.142851e+00 4.568171e-01 -1.309128e+00 1.511911e+00 -8.608930e-01 9.480028e-01 -1.045938e+00 5.347678e+00 2.791805e-01 2.240120e-01 1.760256e-01 4.785605e-01 -3.167031e-01 1.421031e-02 -6.345849e-02 -2.200521e-01 2.054754e-02 9.386483e-02 -9.177537e-02 4.881430e-02 -9.743075e-02
<VARIANCE> 39
 5.126831e+01 2.562923e+01 3.197427e+01 5.522639e+01 3.993333e+01 2.203690e+01 2.050464e+01 2.261843e+01 2.578271e+01 1.790525e+01 1.108002e+01 2.037019e+01 2.162579e+02 3.338650e+00 2.804882e+00 3.432337e+00 6.523346e+00 4.938171e+00 1.640077e+00 2.922351e+00 1.689556e+00 1.467750e+00 1.832242e+00 1.086887e+00 1.733608e+00 9.736121e+00 1.213619e+00 6.303506e-01 7.696313e-01 1.598765e+00 1.076183e+00 5.059466e-01 5.373237e-01 3.474524e-01 4.861543e-01 4.903951e-01 2.368584e-01 4.255708e-01 3.906435e+00
<GCONST> 1.244046e+02
<STATE> 5
<MEAN> 39
 -1.564378e+01 -8.252501e+00 8.060863e+00 -9.807129e+00 1.562099e+00 -8.433005e+00 2.008188e+00 -1.052326e+01 3.801928e+00 -4.266285e+00 4.019273e+00 -7.459560e+00 8.402139e+01 1.013741e+00 3.721298e-01 -1.923889e-01 8.676721e-01 -4.040170e-01 5.512973e-01 -1.030198e-01 4.488000e-01 -5.164730e-01 5.112702e-01 -2.503197e-01 2.446385e-01 -1.885551e+00 -6.102590e-02 1.088594e-03 -1.022714e-01 -3.836995e-02 6.661651e-02 9.154721e-02 3.671100e-03 1.486314e-01 -3.298616e-02 -2.528027e-02 -7.141411e-02 4.006984e-02 -1.830831e-01
<VARIANCE> 39
 4.073407e+01 1.572796e+01 1.931732e+01 2.218311e+01 1.289455e+01 1.849360e+01 2.065750e+01 2.692228e+01 2.524958e+01 2.080229e+01 1.420715e+01 1.467118e+01 1.358300e+02 1.211031e+00 1.311743e+00 1.811355e+00 1.210034e+00 1.241701e+00 1.981108e+00 2.227187e+00 1.926148e+00 1.618029e+00 1.382028e+00 1.573732e+00 1.536494e+00 2.053938e+00 1.992324e-01 2.677878e-01 2.716431e-01 2.751835e-01 2.476012e-01 4.192006e-01 3.671165e-01 2.857443e-01 2.873848e-01 2.746388e-01 2.861757e-01 2.558701e-01 2.859035e-01
<GCONST> 1.020716e+02
<TRANSP> 6
 0.000000e+00 1.000000e+00 0.000000e+00 0.000000e+00 0.000000e+00 0.000000e+00
 0.000000e+00 9.380187e-01 6.198129e-02 0.000000e+00 0.000000e+00 0.000000e+00
 0.000000e+00 0.000000e+00 9.304767e-01 6.952325e-02 0.000000e+00 0.000000e+00
 0.000000e+00 0.000000e+00 0.000000e+00 8.446327e-01 1.553674e-01 0.000000e+00
 0.000000e+00 0.000000e+00 0.000000e+00 0.000000e+00 9.380655e-01 6.193451e-02
 0.000000e+00 0.000000e+00 0.000000e+00 0.000000e+00 0.000000e+00 0.000000e+00
<ENDHMM>
