~o
<STREAMINFO> 1 39
<VECSIZE> 39<NULLD><MFCC_D_A_0><DIAGC>
~h "plus"
<BEGINHMM>
<NUMSTATES> 6
<STATE> 2
<MEAN> 39
 -1.125036e+01 -3.787796e+00 -4.824332e+00 -1.182678e+01 -5.948602e+00 -1.120614e+01 3.247190e+00 -1.500345e+01 -8.158360e+00 -9.800536e+00 2.220554e+00 -1.138344e+00 8.535882e+01 8.727832e-01 7.198520e-01 -9.200612e-01 -4.977126e-01 -6.057060e-01 -1.233116e+00 2.810239e-01 -7.658896e-01 -1.157948e+00 -7.096376e-01 -2.055862e-01 1.499389e-01 1.376487e+00 4.911277e-02 3.004069e-02 -6.094251e-02 7.703546e-02 1.284224e-01 1.284655e-02 -7.611649e-02 2.507715e-01 1.336103e-01 1.404028e-01 -1.380974e-01 -3.940860e-02 -4.047655e-01
<VARIANCE> 39
 3.125471e+01 5.942371e+01 1.973753e+01 1.303797e+01 2.130813e+01 5.752195e+01 2.562629e+01 2.654464e+01 5.446122e+01 3.743476e+01 3.174666e+01 1.549470e+01 1.446533e+01 2.433675e+00 5.846650e+00 1.879017e+00 1.618318e+00 1.592546e+00 3.942863e+00 1.600080e+00 2.350443e+00 4.222190e+00 3.173746e+00 3.539275e+00 1.633349e+00 2.588428e+00 5.295448e-01 1.233001e+00 3.578506e-01 3.023538e-01 2.728671e-01 7.542384e-01 3.063833e-01 4.490884e-01 1.037612e+00 6.207581e-01 7.854123e-01 3.169056e-01 6.014132e-01
<GCONST> 1.185551e+02
<STATE> 3
<MEAN> 39
 -3.833242e+00 -5.607760e+00 -1.700321e+01 -1.639693e+01 2.421871e-01 -1.521228e+01 2.770232e+00 -1.306716e+01 -1.160708e+00 -1.260961e+01 3.792020e+00 -2.317263e+00 8.852122e+01 6.154804e-02 -4.856533e-01 -1.096912e-01 -2.173496e-01 5.935211e-01 4.200744e-01 -8.688887e-02 1.131351e-01 1.292652e+00 -1.309858e-01 2.783144e-01 1.956750e-01 -6.081056e-01 -8.018395e-02 1.543591e-01 1.634747e-01 1.610531e-02 -4.322829e-02 5.081382e-02 -3.315485e-02 -8.671622e-02 -7.941697e-02 -3.271585e-02 -7.666600e-03 6.724640e-02 -1.344860e-01
<VARIANCE> 39
 4.101905e+00 1.816079e+01 2.204840e+01 1.320275e+01 2.527289e+01 2.526307e+01 1.759501e+01 1.705399e+01 9.119026e+01 2.817031e+01 3.308134e+01 2.807941e+01 1.558621e+01 4.081925e-01 1.249351e+00 2.134923e+00 6.240194e-01 1.284773e+00 1.414993e+00 1.224102e+00 1.787898e+00 2.179938e+00 1.872949e+00 1.944057e+00 1.755888e+00 6.809704e-01 7.652020e-02 1.596123e-01 2.367712e-01 1.322808e-01 2.572705e-01 2.578946e-01 2.511772e-01 2.662010e-01 3.958677e-01 3.739646e-01 3.093011e-01 2.645970e-01 7.650932e-02
<GCONST> 9.423079e+01
<STATE> 4
<MEAN> 39
 -1.256162e+01 -3.709539e+00 -4.754966e+00 -1.928115e+01 5.592052e+00 -9.175802e+00 -4.417059e-01 -1.479169e+01 4.013029e+00 -1.056424e+01 6.954401e+00 1.562540e+00 7.669744e+01 -2.873593e+00 -1.910059e-01 2.147679e+00 -2.440430e-01 3.327686e-03 8.308467e-01 -3.289117e-01 1.178580e+00 -9.029630e-01 1.643780e+00 -3.464859e-01 -6.829953e-01 4.437027e-01 -4.913402e-01 -2.576845e-01 -9.041542e-02 1.073213e-01 -1.128791e-01 1.362289e-02 2.163533e-01 4.226213e-01 4.084081e-02 1.334771e-01 -1.234619e-01 -1.893398e-01 5.476727e-01
<VARIANCE> 39
 4.499403e+01 2.121642e+01 4.234600e+01 1.223108e+01 1.747925e+01 2.852082e+01 2.627462e+01 2.830344e+01 5.764375e+01 6.087531e+01 2.176712e+01 3.520540e+01 2.257427e+01 4.707913e+00 4.217307e+00 1.567082e+00 1.164846e+00 2.839234e+00 2.123283e+00 3.013640e+00 4.571909e+00 3.506565e+00 6.519851e+00 1.718821e+00 2.751739e+00 5.596696e+00 5.435729e-01 7.277195e-01 3.618055e-01 2.112317e-01 6.009187e-01 4.494165e-01 5.433844e-01 5.346683e-01 6.875831e-01 1.357076e+00 3.237342e-01 4.673118e-01 5.074624e-01
<GCONST> 1.212683e+02
<STATE> 5
<MEAN> 39
 -3.304090e+01 -5.795033e+00 2.781459e+00 -1.675029e+01 7.942790e+00 -7.646504e+00 2.914096e+00 -4.263600e+00 1.240313e+00 -3.103423e+00 1.845508e+00 -4.163474e+00 8.351788e+01 3.310984e-01 2.151389e-01 5.035926e-02 3.094885e-01 1.165358e-01 -1.182196e-01 3.889359e-02 6.459849e-02 -1.696646e-01 -3.649317e-03 -2.441865e-01 4.797422e-02 -7.914731e-01 2.523612e-01 3.568440e-02 -6.512558e-02 2.673937e-02 1.042440e-03 -1.163057e-02 -5.967155e-02 -6.228702e-02 -6.656352e-02 -2.442061e-02 -5.628327e-03 5.547310e-02 -1.730333e-01
<VARIANCE> 39
 3.581845e+01 6.885416e+00 1.137245e+01 1.384033e+01 1.781676e+01 1.680874e+01 1.575444e+01 1.211922e+01 1.114157e+01 9.140499e+00 9.055285e+00 7.126264e+00 4.665850e+01 3.335997e+00 6.342477e-01 7.413577e-01 8.734373e-01 1.454470e+00 1.399830e+00 1.558225e+00 1.571186e+00 1.241801e+00 1.325640e+00 9.473175e-01 7.372211e-01 2.250734e+00 3.631388e-01 1.429813e-01 1.330183e-01 1.548419e-01 2.432720e-01 2.427510e-01 2.780524e-01 3.534026e-01 2.321391e-01 3.426753e-01 1.866668e-01 1.310617e-01 1.466442e-01
<GCONST> 8.855150e+01
<TRANSP> 6
 0.000000e+00 1.000000e+00 0.000000e+00 0.000000e+00 0.000000e+00 0.000000e+00
 0.000000e+00 9.129149e-01 8.708517e-02 0.000000e+00 0.000000e+00 0.000000e+00
 0.000000e+00 0.000000e+00 9.433364e-01 5.666362e-02 0.000000e+00 0.000000e+00
 0.000000e+00 0.000000e+00 0.000000e+00 8.695601e-01 1.304400e-01 0.000000e+00
 0.000000e+00 0.000000e+00 0.000000e+00 0.000000e+00 9.585106e-01 4.148944e-02
 0.000000e+00 0.000000e+00 0.000000e+00 0.000000e+00 0.000000e+00 0.000000e+00
<ENDHMM>
