~o
<STREAMINFO> 1 39
<VECSIZE> 39<NULLD><MFCC_D_A_0><DIAGC>
~h "multiply"
<BEGINHMM>
<NUMSTATES> 6
<STATE> 2
<MEAN> 39
 -4.812473e+00 6.821421e+00 -3.145635e+00 -1.469165e+01 -2.160270e+00 -1.554887e+01 1.093474e+01 -8.211306e+00 -2.352967e+01 -1.672391e+01 -4.494152e+00 -8.312803e+00 8.175016e+01 -3.963701e-01 7.341932e-03 -2.632215e-02 -1.850903e-01 -1.812957e-01 -1.948328e-01 6.094163e-02 -3.526634e-01 4.517544e-01 -1.224729e-01 3.977872e-01 -2.928277e-01 7.761913e-01 -3.090278e-01 -2.794057e-01 -7.624231e-02 8.497887e-02 -1.130950e-01 1.510448e-01 -1.436475e-01 3.152104e-02 4.118743e-01 2.937997e-01 2.366679e-01 1.228973e-01 1.594662e-02
<VARIANCE> 39
 1.820404e+01 1.296287e+01 4.712719e+01 2.449960e+01 7.970826e+01 3.188684e+01 4.249746e+01 2.130628e+01 4.991038e+01 2.268292e+01 6.242432e+01 3.373167e+01 5.277286e+01 5.419746e+00 2.684021e+00 3.759400e+00 3.149375e+00 6.904162e+00 5.514713e+00 4.563062e+00 2.727386e+00 1.255683e+01 3.788497e+00 7.233828e+00 3.225415e+00 6.324217e+00 5.845385e-01 6.395778e-01 6.211184e-01 5.247765e-01 9.935262e-01 8.941607e-01 6.267473e-01 5.836738e-01 1.721205e+00 7.031301e-01 1.248111e+00 6.035374e-01 6.572557e-01
<GCONST> 1.339168e+02
<STATE> 3
<MEAN> 39
 -1.209379e+01 -1.724750e+00 -1.263363e+00 -7.744920e+00 -2.790855e-01 -1.601234e+01 -2.102591e+00 -9.361359e+00 -3.917875e+00 -8.017645e+00 7.341110e-01 -3.876474e+00 8.091357e+01 3.201890e-01 -1.786187e-02 -3.163466e-01 -2.283289e-01 -1.264136e-01 -1.436951e-01 9.568956e-03 1.071479e-01 1.378133e-01 -8.288620e-02 1.324331e-01 3.828799e-01 2.177303e-01 1.193087e-01 4.592389e-02 -9.269448e-03 -2.028843e-02 1.073991e-01 -4.019302e-02 6.924866e-02 2.067935e-02 -1.004169e-01 -8.942205e-02 -6.394381e-02 -1.123418e-02 -7.398073e-02
<VARIANCE> 39
 3.155903e+01 5.557445e+01 1.794307e+01 4.494154e+01 3.839627e+01 9.817821e+01 3.382269e+01 2.124699e+01 1.870820e+01 3.931468e+01 3.179000e+01 2.545235e+01 9.712085e+01 2.911913e+00 7.479129e+00 2.219035e+00 2.180067e+00 3.455891e+00 6.817564e+00 2.904963e+00 2.224888e+00 2.930834e+00 5.202085e+00 3.729806e+00 2.042151e+00 6.194798e+00 6.582283e-01 1.308705e+00 4.192402e-01 3.361080e-01 5.550038e-01 1.006098e+00 5.171912e-01 4.445958e-01 8.030865e-01 8.438930e-01 7.472964e-01 4.282303e-01 8.607219e-01
<GCONST> 1.289456e+02
<STATE> 4
<MEAN> 39
 -6.916839e+00 -1.066752e+00 -1.147711e+01 -2.047961e+01 8.555634e+00 -1.337653e+01 9.385900e-01 -1.027533e+01 1.060866e+01 -1.827626e+01 4.255023e+00 1.168090e+00 8.953318e+01 -1.791074e-01 -3.291698e-01 2.432947e-01 3.136579e-01 6.803755e-01 -2.844403e-01 -6.127324e-01 -1.527002e-01 8.999854e-01 7.341505e-02 1.721697e-01 -4.906498e-01 -3.232598e-01 -7.904615e-02 1.017566e-01 2.036931e-01 1.344331e-01 -1.472441e-01 -9.784896e-02 -6.464864e-02 1.661737e-02 -1.473297e-01 2.745343e-02 -5.999182e-02 -6.929257e-02 -7.993652e-02
<VARIANCE> 39
 4.025951e+00 1.230825e+01 1.482951e+01 1.102999e+01 4.121664e+01 2.476965e+01 1.938390e+01 1.804459e+01 4.536902e+01 2.468977e+01 1.498960e+01 3.221440e+01 1.117480e+01 3.115766e-01 7.266705e-01 1.488854e+00 1.276210e+00 1.913432e+00 1.975210e+00 1.013804e+00 1.039805e+00 2.058912e+00 1.735146e+00 1.045425e+00 1.163032e+00 2.691737e-01 5.475052e-02 1.170211e-01 1.409178e-01 1.724503e-01 2.666981e-01 2.170980e-01 1.526241e-01 2.215549e-01 2.309114e-01 2.731095e-01 1.962568e-01 1.958057e-01 4.082777e-02
<GCONST> 8.554855e+01
<STATE> 5
<MEAN> 39
 -1.308391e+01 -8.642883e+00 5.046297e+00 -3.262079e+00 3.055400e+00 -2.415422e+01 -7.680915e+00 7.911755e-01 4.717775e+00 -1.089537e+01 -5.956256e-02 -3.864638e+00 7.431331e+01 -1.443767e-01 -3.383394e-01 2.453951e-01 7.678631e-01 -6.720208e-01 2.654765e-01 1.109050e-01 8.807783e-01 -7.350653e-01 3.610041e-01 -4.443363e-01 2.607985e-01 -1.077964e+00 4.365707e-02 6.413060e-02 -1.163127e-01 -1.206674e-01 5.383775e-02 1.818544e-01 4.579585e-02 -1.004892e-01 -2.454430e-03 -2.686162e-03 -3.960757e-03 1.414528e-02 9.089368e-03
<VARIANCE> 39
 7.198660e+00 3.375608e+01 4.463211e+01 4.527888e+01 7.613352e+01 4.479781e+01 2.064050e+01 9.005776e+01 5.536491e+01 4.066569e+01 3.157251e+01 3.435386e+01 5.690530e+01 8.972764e-01 1.782128e+00 2.443456e+00 1.742907e+00 3.440300e+00 3.753055e+00 1.682335e+00 3.227254e+00 1.997925e+00 3.251735e+00 1.860738e+00 1.503828e+00 4.235513e-01 1.415012e-01 2.138366e-01 1.974909e-01 2.804244e-01 5.375437e-01 4.638691e-01 2.799102e-01 4.578917e-01 3.569938e-01 6.505637e-01 3.653649e-01 2.449343e-01 7.768818e-02
<GCONST> 1.111397e+02
<TRANSP> 6
 0.000000e+00 1.000000e+00 0.000000e+00 0.000000e+00 0.000000e+00 0.000000e+00
 0.000000e+00 9.553592e-01 4.464081e-02 0.000000e+00 0.000000e+00 0.000000e+00
 0.000000e+00 0.000000e+00 9.730893e-01 2.691068e-02 0.000000e+00 0.000000e+00
 0.000000e+00 0.000000e+00 0.000000e+00 9.430332e-01 5.696679e-02 0.000000e+00
 0.000000e+00 0.000000e+00 0.000000e+00 0.000000e+00 9.523469e-01 4.765316e-02
 0.000000e+00 0.000000e+00 0.000000e+00 0.000000e+00 0.000000e+00 0.000000e+00
<ENDHMM>
