~o
<STREAMINFO> 1 39
<VECSIZE> 39<NULLD><MFCC_D_A_0><DIAGC>
~h "one"
<BEGINHMM>
<NUMSTATES> 6
<STATE> 2
<MEAN> 39
 -4.896256e+00 1.075882e+01 1.261659e+00 -1.334545e+01 -4.817082e+00 -1.783418e+01 -2.146675e+00 -4.088745e+00 -6.239561e+00 -9.124254e+00 -5.545492e+00 -9.044154e+00 8.101940e+01 6.829988e-01 -8.414425e-01 -1.010742e+00 -3.327711e-01 -9.391377e-01 -4.014298e-02 -1.424554e-02 1.786000e-01 2.064677e-01 -7.666077e-02 -1.600346e-01 3.335277e-01 2.466535e+00 -2.108808e-01 -3.450927e-01 -1.767593e-01 1.322447e-01 1.772164e-01 3.008588e-01 1.201625e-01 1.317122e-01 2.246753e-01 1.201576e-01 1.048521e-01 1.450347e-01 -1.541216e-01
<VARIANCE> 39
 1.974802e+01 5.236953e+01 2.885329e+01 4.849438e+01 6.286830e+01 6.312234e+01 6.015385e+01 2.467728e+01 2.583302e+01 4.372128e+01 2.312861e+01 2.933970e+01 9.229578e+01 1.734057e+00 8.788505e+00 2.821067e+00 3.509486e+00 5.672903e+00 6.343307e+00 2.973562e+00 2.086912e+00 3.949590e+00 5.218148e+00 2.082088e+00 2.456063e+00 2.827821e+00 2.955282e-01 1.510056e+00 5.515990e-01 6.884940e-01 1.097046e+00 9.710411e-01 5.146902e-01 3.748315e-01 7.318705e-01 1.001121e+00 4.971055e-01 3.663081e-01 5.444379e-01
<GCONST> 1.296684e+02
<STATE> 3
<MEAN> 39
 -5.861819e+00 2.859031e+00 -5.738521e+00 -1.520859e+01 -1.806853e+00 -1.296905e+01 1.585587e+00 -1.632582e+00 -4.411324e+00 -1.279214e+01 4.618769e+00 1.383698e-02 9.299326e+01 -4.347187e-01 4.933092e-01 3.798850e-01 7.521450e-02 1.191760e+00 -1.135741e-01 2.914273e-01 -4.730833e-01 -4.913836e-01 -3.718179e-01 1.858124e+00 1.342243e-01 -3.657707e-01 1.715613e-03 1.901896e-01 2.251349e-01 1.467991e-01 1.400595e-01 -2.418901e-02 -1.120622e-01 -1.374276e-01 -8.571792e-02 9.371692e-02 -1.570302e-01 -1.358923e-01 -2.611336e-01
<VARIANCE> 39
 5.374033e+00 1.241916e+01 1.583435e+01 1.132743e+01 3.597191e+01 2.355771e+01 3.310182e+01 3.121396e+01 4.666399e+01 3.081261e+01 9.800239e+01 2.364491e+01 4.522158e+00 1.770197e-01 8.543277e-01 1.215188e+00 1.417817e+00 1.757242e+00 2.030553e+00 1.475160e+00 2.671505e+00 2.145213e+00 2.896949e+00 3.534391e+00 2.752902e+00 6.360694e-01 4.462228e-02 1.946433e-01 1.885527e-01 3.355762e-01 2.790464e-01 5.041249e-01 1.791437e-01 4.258557e-01 4.830960e-01 5.257134e-01 1.024997e+00 3.373252e-01 1.000562e-01
<GCONST> 9.945081e+01
<STATE> 4
<MEAN> 39
 -7.747937e+00 5.287211e+00 3.881069e+00 -5.936274e+00 1.678303e+01 -1.033906e+01 -3.055720e+00 -7.541839e+00 -4.556789e+00 -7.613250e+00 6.523447e+00 -5.306626e+00 7.761418e+01 2.970981e-01 -5.194587e-01 5.657121e-01 1.093465e+00 6.466529e-01 7.534388e-01 -5.675101e-01 -1.969173e-02 3.006079e-01 6.555327e-01 -1.367140e+00 -1.283216e-01 -1.525114e+00 6.845707e-02 -1.263869e-01 -2.090203e-01 -7.862095e-02 -3.553839e-01 -5.464895e-02 3.049184e-02 9.539784e-02 -8.578719e-03 -4.764574e-02 9.674000e-02 5.403249e-02 1.057929e-01
<VARIANCE> 39
 1.616141e+01 1.476266e+01 1.653956e+01 2.913160e+01 4.064794e+01 3.879459e+01 2.498635e+01 2.283999e+01 5.949810e+01 2.785501e+01 7.672181e+01 1.381994e+01 3.024485e+01 6.102033e-01 6.086234e-01 1.399523e+00 3.361592e+00 4.312221e+00 2.231400e+00 1.793338e+00 2.303828e+00 2.022788e+00 2.153782e+00 3.734110e+00 9.778537e-01 1.273927e+00 1.174440e-01 1.421040e-01 2.159517e-01 6.728517e-01 6.168125e-01 4.264986e-01 3.216978e-01 3.964374e-01 3.482712e-01 3.879085e-01 7.576138e-01 1.426965e-01 2.006131e-01
<GCONST> 1.068285e+02
<STATE> 5
<MEAN> 39
 -5.674131e+00 8.466517e-01 4.011752e+00 3.264631e+00 8.561711e+00 -3.339047e+00 -6.551819e+00 -6.941167e+00 -5.370140e+00 -1.466896e+00 1.012633e+00 -5.357996e+00 6.693936e+01 -3.848425e-01 -3.195872e-01 -2.040076e-01 3.067475e-01 -7.559308e-01 4.971238e-01 1.083466e-01 2.946473e-01 8.617293e-02 3.918144e-01 -2.322906e-01 6.525097e-02 -6.811795e-01 -7.358648e-02 1.869184e-02 3.654416e-02 -1.170508e-01 1.138448e-01 -3.899948e-02 5.378440e-02 2.355877e-02 1.890850e-02 -5.053729e-02 6.229134e-03 2.856228e-02 4.732766e-02
<VARIANCE> 39
 1.565193e+01 1.952255e+01 1.634606e+01 8.288866e+00 2.795715e+01 1.848354e+01 2.530194e+01 2.114415e+01 1.986751e+01 5.436438e+01 2.469389e+01 2.080847e+01 1.470422e+01 6.576517e-01 7.042829e-01 9.334556e-01 9.750541e-01 1.671257e+00 1.481554e+00 1.792537e+00 1.687203e+00 1.465296e+00 1.979886e+00 1.246923e+00 1.547483e+00 2.089555e-01 7.989456e-02 1.167752e-01 1.431513e-01 1.408587e-01 2.586147e-01 2.948706e-01 2.920975e-01 3.487276e-01 2.705013e-01 3.473277e-01 2.578125e-01 3.178433e-01 3.471596e-02
<GCONST> 9.039584e+01
<TRANSP> 6
 0.000000e+00 1.000000e+00 0.000000e+00 0.000000e+00 0.000000e+00 0.000000e+00
 0.000000e+00 8.927296e-01 1.072704e-01 0.000000e+00 0.000000e+00 0.000000e+00
 0.000000e+00 0.000000e+00 9.222888e-01 7.771122e-02 0.000000e+00 0.000000e+00
 0.000000e+00 0.000000e+00 0.000000e+00 9.111110e-01 8.888905e-02 0.000000e+00
 0.000000e+00 0.000000e+00 0.000000e+00 0.000000e+00 9.245829e-01 7.541709e-02
 0.000000e+00 0.000000e+00 0.000000e+00 0.000000e+00 0.000000e+00 0.000000e+00
<ENDHMM>
