~o
<STREAMINFO> 1 39
<VECSIZE> 39<NULLD><MFCC_D_A_0><DIAGC>
~h "four"
<BEGINHMM>
<NUMSTATES> 6
<STATE> 2
<MEAN> 39
 -1.675874e+01 -3.818332e+00 -2.807958e+00 -1.465598e+01 4.292814e+00 -1.260940e+01 6.924510e-01 -5.248846e+00 -3.301507e+00 -6.144503e+00 7.831914e-01 -7.882929e+00 8.130630e+01 7.014118e-01 3.743319e-01 1.949066e-01 -6.376997e-01 -7.924685e-01 -1.041086e+00 -4.193485e-01 -4.523735e-01 -1.408112e-01 -2.290509e-01 -2.249506e-01 -1.603088e-01 1.052526e+00 5.162801e-02 -1.222180e-02 -3.952348e-02 1.159222e-01 -1.266065e-01 7.817929e-02 -1.036616e-01 -4.662386e-02 -5.160090e-03 5.504988e-02 1.129349e-02 1.415112e-01 -4.224228e-02
<VARIANCE> 39
 8.372762e+01 5.135971e+01 3.453173e+01 4.163201e+01 5.840225e+01 5.957475e+01 3.440829e+01 2.143457e+01 2.224976e+01 1.784167e+01 2.511695e+01 1.917286e+01 5.740265e+01 5.534594e+00 4.853954e+00 2.834425e+00 2.535544e+00 3.982925e+00 3.862107e+00 3.621878e+00 2.258975e+00 2.779570e+00 1.914077e+00 2.677352e+00 1.836513e+00 2.274350e+00 5.960338e-01 8.295344e-01 4.366168e-01 4.983006e-01 7.927531e-01 9.173464e-01 6.765521e-01 4.857003e-01 5.841005e-01 3.772895e-01 5.388013e-01 3.453007e-01 2.263648e-01
<GCONST> 1.241266e+02
<STATE> 3
<MEAN> 39
 -3.894504e-01 1.752519e+00 -7.306026e-01 -1.554250e+01 -7.757110e+00 -1.977728e+01 -9.101273e+00 -7.296690e+00 -2.210649e+00 -5.432259e+00 -6.287109e-01 -5.219524e+00 8.921539e+01 8.231626e-02 -4.244676e-01 -5.556572e-01 -4.098843e-02 -3.049315e-02 2.249656e-01 7.403041e-02 4.403301e-01 8.698943e-01 -3.066097e-01 1.541683e-01 2.130933e-01 1.465209e-01 6.113871e-03 6.263089e-02 -3.873798e-02 -1.455310e-01 8.306137e-02 9.343297e-03 1.389267e-01 -5.693391e-03 5.010520e-02 -1.129313e-01 -7.737022e-02 -9.111729e-02 -9.845392e-02
<VARIANCE> 39
 2.336854e+00 2.039324e+01 4.199072e+01 1.519664e+01 1.477749e+01 3.498099e+01 2.535340e+01 4.495164e+01 4.611810e+01 2.501087e+01 1.659296e+01 1.894551e+01 1.028627e+01 1.489310e-01 6.484122e-01 8.592759e-01 1.373765e+00 1.220601e+00 2.075408e+00 2.262187e+00 1.695461e+00 2.274123e+00 2.749862e+00 1.108288e+00 1.221655e+00 3.759418e-01 3.716834e-02 1.140349e-01 1.158114e-01 1.658244e-01 2.248014e-01 3.275469e-01 2.898413e-01 3.142048e-01 3.645341e-01 3.665076e-01 1.802954e-01 2.155623e-01 4.686914e-02
<GCONST> 8.893615e+01
<STATE> 4
<MEAN> 39
 2.517497e+00 2.664713e+00 -1.440215e+01 -1.991421e+01 3.859374e+00 -9.767495e+00 -1.574224e+00 -1.527282e+01 -3.548438e+00 -9.610505e+00 -3.071482e-01 -1.140253e+00 7.820266e+01 -1.645570e-01 -7.386117e-02 -2.948384e-01 3.154518e-01 5.515160e-01 1.208440e+00 8.811936e-02 -7.108709e-01 -1.108964e+00 4.738880e-01 2.299834e-01 2.226813e-01 -1.139474e+00 -9.509164e-02 -1.252745e-01 6.134163e-02 9.616793e-02 -1.118583e-01 3.058790e-02 -5.085224e-02 1.758096e-01 3.705307e-02 2.051841e-01 9.096467e-02 2.190420e-02 -1.350996e-02
<VARIANCE> 39
 2.257828e+01 2.284689e+01 3.179196e+01 3.111475e+01 7.359253e+01 6.532671e+01 2.741943e+01 5.816702e+01 1.283254e+02 3.859924e+01 3.040851e+01 2.127830e+01 5.052151e+01 2.893366e+00 2.085037e+00 3.114638e+00 2.687275e+00 4.966180e+00 2.392446e+00 3.144666e+00 3.923850e+00 3.601552e+00 3.002506e+00 1.724399e+00 1.657406e+00 1.345572e+00 5.036219e-01 2.745294e-01 4.073251e-01 3.903403e-01 7.538070e-01 3.994744e-01 5.976704e-01 4.984176e-01 7.489547e-01 5.753624e-01 3.277475e-01 2.928863e-01 2.447543e-01
<GCONST> 1.213908e+02
<STATE> 5
<MEAN> 39
 -8.491805e+00 -5.545797e+00 -8.955162e+00 -9.238146e+00 1.775227e+00 3.983075e+00 -2.815364e+00 -9.398740e+00 -8.249187e+00 1.083524e+00 4.880123e+00 1.404019e+00 6.369989e+01 -1.041467e+00 -3.645025e-01 8.102199e-01 8.568090e-01 -1.359607e-01 -1.483116e-01 2.283013e-01 1.061689e+00 7.187145e-01 2.472221e-01 -2.010992e-01 8.162009e-02 -6.477296e-01 7.476985e-02 1.734439e-01 9.755213e-02 1.213457e-02 5.086592e-02 -2.267022e-01 5.799256e-04 -1.383859e-01 -5.600104e-02 -1.946336e-01 -1.747765e-01 -7.485343e-02 7.325958e-02
<VARIANCE> 39
 1.531069e+01 7.023958e+00 4.017065e+01 3.048023e+01 1.392432e+01 1.781115e+01 1.397497e+01 2.191634e+01 1.597981e+01 2.534564e+01 3.234042e+01 1.496825e+01 6.298543e+00 2.823482e-01 5.404158e-01 1.200762e+00 1.255455e+00 1.223401e+00 1.381711e+00 1.168750e+00 1.478459e+00 1.339221e+00 2.341592e+00 2.375474e+00 1.220829e+00 1.088346e-01 6.638504e-02 5.963083e-02 1.653033e-01 2.449980e-01 2.628076e-01 2.525014e-01 2.423260e-01 2.950694e-01 1.884513e-01 3.323187e-01 3.121693e-01 1.765958e-01 2.795694e-02
<GCONST> 8.498701e+01
<TRANSP> 6
 0.000000e+00 1.000000e+00 0.000000e+00 0.000000e+00 0.000000e+00 0.000000e+00
 0.000000e+00 9.494832e-01 5.051683e-02 0.000000e+00 0.000000e+00 0.000000e+00
 0.000000e+00 0.000000e+00 9.430795e-01 5.692045e-02 0.000000e+00 0.000000e+00
 0.000000e+00 0.000000e+00 0.000000e+00 9.460728e-01 5.392718e-02 0.000000e+00
 0.000000e+00 0.000000e+00 0.000000e+00 0.000000e+00 9.055963e-01 9.440374e-02
 0.000000e+00 0.000000e+00 0.000000e+00 0.000000e+00 0.000000e+00 0.000000e+00
<ENDHMM>
