~o
<STREAMINFO> 1 39
<VECSIZE> 39<NULLD><MFCC_D_A_0><DIAGC>
~h "ten"
<BEGINHMM>
<NUMSTATES> 6
<STATE> 2
<MEAN> 39
 -1.062981e+01 -1.074595e+01 1.905701e+00 -1.149375e+01 3.868995e+00 -1.818931e+01 9.670591e+00 -1.142101e+01 3.918890e+00 -2.752353e+00 3.759257e+00 -7.346015e+00 9.348624e+01 7.832372e-01 2.578737e-01 -5.864316e-01 -7.537943e-02 -1.890863e-01 -1.174599e+00 1.326789e-01 -2.256724e-01 -9.714013e-01 2.659116e-02 -3.509196e-01 -3.844717e-01 7.070413e-01 -1.784579e-02 2.182050e-01 -2.225166e-01 9.846428e-02 -1.964875e-01 1.309537e-01 -2.160037e-01 1.441511e-01 -3.053671e-01 -5.070305e-02 -1.308465e-01 1.454610e-01 -4.822129e-01
<VARIANCE> 39
 2.593593e+01 2.349388e+01 2.362242e+01 1.239099e+01 1.008459e+01 4.755503e+01 2.859218e+01 1.416271e+01 4.344146e+01 1.682139e+01 1.906440e+01 1.938067e+01 5.996111e+00 2.089109e+00 4.539828e+00 1.960221e+00 1.861666e+00 1.640013e+00 2.497402e+00 3.874223e+00 2.064395e+00 6.344917e+00 2.354687e+00 3.118570e+00 2.736441e+00 3.327957e+00 4.578294e-01 5.694384e-01 3.613080e-01 5.676530e-01 2.445128e-01 6.187966e-01 4.854532e-01 5.085690e-01 9.039072e-01 4.128507e-01 7.368822e-01 6.902733e-01 1.227915e+00
<GCONST> 1.156541e+02
<STATE> 3
<MEAN> 39
 -5.732311e+00 -2.327721e+00 -4.421910e+00 -1.580382e+01 1.049990e+00 -2.360760e+01 4.225530e+00 -1.325584e+01 -1.000891e+01 -4.542696e+00 8.689148e+00 -5.593227e+00 9.530534e+01 6.779794e-02 6.131820e-02 3.840228e-01 -5.505937e-01 7.681385e-01 7.425791e-02 5.125697e-02 -2.046558e-01 -2.383831e-01 -6.697085e-02 1.892609e+00 3.127849e-01 -2.540719e-01 -7.567342e-02 -1.434730e-01 2.460765e-01 1.190772e-02 3.108316e-01 -1.493661e-02 2.389926e-01 -7.436570e-02 1.910534e-01 1.442286e-02 9.595166e-02 -1.031771e-01 -1.835574e-01
<VARIANCE> 39
 2.404395e+00 8.529140e+00 8.054778e+00 1.431614e+01 2.063314e+01 2.087035e+01 3.447635e+01 1.152634e+01 1.697568e+01 1.813873e+01 6.392467e+01 2.580390e+01 4.632920e+00 9.078927e-02 7.257711e-01 1.076278e+00 4.790620e-01 1.760218e+00 1.103052e+00 2.198754e+00 9.320304e-01 1.587953e+00 1.486729e+00 1.457073e+00 1.842287e+00 2.437135e-01 3.723349e-02 1.844947e-01 1.013321e-01 1.127915e-01 2.048488e-01 2.230913e-01 3.117626e-01 1.660703e-01 4.831824e-01 3.204311e-01 5.824333e-01 2.794165e-01 3.817689e-02
<GCONST> 8.215527e+01
<STATE> 4
<MEAN> 39
 -6.532385e+00 2.677946e-01 5.088103e+00 -1.087199e+01 1.408457e+01 -1.668780e+01 4.411556e+00 -1.506170e+01 -1.180257e+01 -7.101738e+00 8.534781e+00 -5.032357e+00 8.086327e+01 4.667391e-02 5.853362e-01 4.474587e-01 1.303322e+00 2.578552e-01 1.167052e+00 -5.338612e-01 4.236834e-01 -2.755105e-01 -1.883351e-01 -1.739538e+00 2.003537e-01 -1.767911e+00 8.945513e-02 1.108924e-02 -1.670552e-01 1.201355e-01 -2.711163e-01 5.184503e-02 -1.265653e-01 1.493869e-01 -5.724194e-02 4.340908e-02 -1.311228e-01 1.719458e-02 -1.762905e-02
<VARIANCE> 39
 1.691540e+01 2.884972e+01 9.405569e+00 3.775967e+01 1.845934e+01 4.140906e+01 2.127844e+01 1.420539e+01 1.857652e+01 1.698999e+01 7.140678e+01 2.484500e+01 4.380030e+01 2.162552e+00 1.674522e+00 1.308533e+00 2.942261e+00 3.182384e+00 2.010184e+00 2.025697e+00 1.748356e+00 2.302614e+00 1.177883e+00 3.034641e+00 1.704190e+00 1.766794e+00 4.408438e-01 3.551737e-01 1.910530e-01 6.954020e-01 4.032292e-01 4.636123e-01 4.204208e-01 2.899381e-01 4.998710e-01 2.189373e-01 7.567658e-01 3.122000e-01 3.544820e-01
<GCONST> 1.097246e+02
<STATE> 5
<MEAN> 39
 -5.316977e+00 2.605244e+00 5.482072e+00 6.206062e-01 5.432741e+00 -6.037076e+00 -3.472067e+00 -7.056823e+00 -1.361542e+01 -7.061341e+00 -3.931500e+00 -6.401136e+00 6.690158e+01 -3.904878e-01 -4.104013e-01 -3.197013e-01 2.865243e-01 -1.091954e+00 7.516837e-01 -3.768404e-01 6.265612e-01 5.399526e-01 2.434210e-01 -2.281466e-01 3.419365e-02 -8.376293e-01 -1.096010e-01 -7.032201e-02 -5.081896e-02 -1.522090e-01 1.719953e-02 -3.869051e-02 9.063555e-02 -5.135203e-02 1.961693e-01 4.260345e-02 9.412609e-02 5.750502e-02 9.144419e-02
<VARIANCE> 39
 8.934170e+00 1.223630e+01 9.827464e+00 1.777718e+01 2.231005e+01 1.914076e+01 1.407521e+01 1.637775e+01 1.877329e+01 2.082685e+01 1.826093e+01 2.170604e+01 9.882281e+00 5.811008e-01 9.047362e-01 1.575038e+00 2.390772e+00 1.027897e+00 1.347019e+00 1.557589e+00 1.631916e+00 1.660136e+00 1.975783e+00 1.596367e+00 2.152370e+00 2.533954e-01 8.907696e-02 1.302854e-01 3.007445e-01 3.468522e-01 2.032693e-01 2.841246e-01 2.635770e-01 3.117124e-01 2.514792e-01 3.736059e-01 2.672423e-01 3.488480e-01 3.342629e-02
<GCONST> 9.006081e+01
<TRANSP> 6
 0.000000e+00 1.000000e+00 0.000000e+00 0.000000e+00 0.000000e+00 0.000000e+00
 0.000000e+00 9.186030e-01 8.139703e-02 0.000000e+00 0.000000e+00 0.000000e+00
 0.000000e+00 0.000000e+00 9.091481e-01 9.085193e-02 0.000000e+00 0.000000e+00
 0.000000e+00 0.000000e+00 0.000000e+00 9.121813e-01 8.781869e-02 0.000000e+00
 0.000000e+00 0.000000e+00 0.000000e+00 0.000000e+00 9.124388e-01 8.756119e-02
 0.000000e+00 0.000000e+00 0.000000e+00 0.000000e+00 0.000000e+00 0.000000e+00
<ENDHMM>
