~o
<STREAMINFO> 1 39
<VECSIZE> 39<NULLD><MFCC_D_A_0><DIAGC>
~h "seven"
<BEGINHMM>
<NUMSTATES> 6
<STATE> 2
<MEAN> 39
 -2.639273e+01 -7.994703e+00 3.044754e+00 -2.050540e+01 1.056338e+01 -1.536569e+01 4.629891e+00 -8.414628e+00 3.885482e+00 -3.612674e+00 1.882565e+00 -4.558591e+00 8.751950e+01 -5.208753e-02 2.461998e-01 4.305137e-02 2.804057e-02 2.651701e-01 -7.992427e-01 -6.454614e-02 -5.365165e-01 -1.731536e-01 -3.843344e-01 6.563455e-02 -1.777411e-01 1.158723e+00 2.492334e-01 1.859139e-01 -1.537345e-01 2.082140e-01 -1.901437e-01 -1.284637e-02 -2.021084e-01 1.874453e-02 -1.722235e-01 -5.016668e-02 -2.305987e-02 6.773456e-02 -1.594167e-01
<VARIANCE> 39
 6.254893e+01 1.777045e+01 1.702271e+01 2.461191e+01 2.788811e+01 3.021889e+01 3.233846e+01 2.028393e+01 1.133311e+01 1.654484e+01 1.265707e+01 1.027852e+01 4.025457e+01 8.329155e+00 2.847561e+00 2.198301e+00 3.315269e+00 2.961895e+00 2.659611e+00 4.484641e+00 3.406083e+00 2.418717e+00 1.946126e+00 1.433788e+00 1.342106e+00 2.887835e+00 6.990747e-01 4.732458e-01 3.855598e-01 4.716807e-01 2.637281e-01 4.751477e-01 4.401021e-01 6.021361e-01 3.553196e-01 3.824776e-01 3.025167e-01 2.930101e-01 2.568568e-01
<GCONST> 1.129615e+02
<STATE> 3
<MEAN> 39
 -6.317493e+00 2.996484e-02 -5.692280e+00 -1.470593e+01 5.863147e-01 -2.331246e+01 -6.383182e+00 -1.556647e+01 -4.158768e+00 -8.600134e+00 1.550230e+00 -2.791003e+00 9.462432e+01 1.179439e+00 1.860172e-01 -8.376759e-01 -2.114952e-01 -4.892424e-01 -5.346948e-01 2.360434e-01 7.966395e-02 -3.401871e-01 -7.940965e-01 2.153418e-01 5.188203e-01 -1.340991e-01 -4.578329e-01 -2.167542e-01 2.769093e-01 -5.667475e-02 4.065452e-01 2.004537e-01 5.560905e-01 1.874652e-01 8.059908e-02 -2.020444e-01 -4.059622e-02 -7.160205e-02 -4.173188e-01
<VARIANCE> 39
 2.680094e+00 5.788241e+00 1.400165e+01 8.987052e+00 8.224569e+00 2.428887e+01 1.176015e+01 2.072293e+01 1.869191e+01 3.771749e+01 1.285018e+01 2.374443e+01 5.023839e+00 1.906168e+00 8.455151e-01 1.298137e+00 8.833181e-01 1.655669e+00 1.734419e+00 2.530759e+00 2.560805e+00 2.878912e+00 4.147129e+00 1.369405e+00 1.958595e+00 1.767913e+00 5.875110e-01 2.626394e-01 1.929556e-01 2.434708e-01 1.250042e-01 4.217492e-01 3.302228e-01 6.907392e-01 8.301890e-01 7.706922e-01 3.025315e-01 3.956790e-01 1.027150e-01
<GCONST> 9.732147e+01
<STATE> 4
<MEAN> 39
 -4.845150e+00 -5.758193e-01 1.218208e-01 -1.408388e+01 7.079769e+00 -2.173053e+01 2.133641e+00 -1.571767e+01 -8.280797e+00 -1.615653e+01 3.898335e+00 -2.838007e+00 8.565220e+01 -8.529543e-02 1.209277e-01 6.180363e-01 3.269915e-01 7.175189e-01 4.206380e-01 1.453573e-01 4.466330e-02 -8.547392e-02 1.883425e-01 1.390136e-01 -4.412817e-02 -6.340809e-01 1.677721e-02 -2.695162e-02 -5.352473e-02 1.264269e-01 -1.449332e-02 7.830773e-02 -1.690040e-01 1.075630e-01 5.216461e-03 1.985676e-01 -1.099912e-01 4.695280e-02 1.772938e-02
<VARIANCE> 39
 1.143575e+01 2.348539e+01 2.483420e+01 2.436943e+01 1.881009e+01 4.304124e+01 2.042287e+01 2.416010e+01 2.398032e+01 4.681990e+01 6.805179e+01 3.141322e+01 3.064400e+01 1.487797e+00 2.182700e+00 1.907608e+00 3.907947e+00 2.147050e+00 5.056686e+00 2.009796e+00 2.246227e+00 2.539022e+00 4.504590e+00 6.023843e+00 4.298586e+00 5.021513e+00 3.621469e-01 4.012107e-01 3.777860e-01 6.247454e-01 3.513640e-01 8.990926e-01 3.821046e-01 4.600759e-01 4.863434e-01 7.415239e-01 9.051848e-01 9.488884e-01 5.943096e-01
<GCONST> 1.211148e+02
<STATE> 5
<MEAN> 39
 -4.729120e+00 8.315275e-01 3.770927e+00 -3.305752e-01 1.058230e+01 -6.600055e+00 -3.804833e+00 -8.684366e+00 -1.012204e+01 -5.309226e+00 -1.037614e+00 -2.945616e+00 6.942691e+01 -4.370065e-01 -3.554933e-01 -3.386112e-01 5.774106e-01 -8.799472e-01 1.091358e+00 -3.185461e-01 5.670732e-01 2.123552e-01 6.984594e-01 -3.682620e-01 -7.677835e-02 -1.082008e+00 -1.197670e-01 -1.449241e-02 -4.015304e-02 -2.162057e-01 -1.593300e-01 -1.233179e-01 1.014103e-01 -7.954187e-02 1.249448e-01 -5.239117e-02 1.941534e-01 -2.465794e-02 9.081791e-02
<VARIANCE> 39
 1.840439e+01 7.054110e+00 8.716017e+00 2.255681e+01 3.193763e+01 4.901477e+01 1.330767e+01 1.825391e+01 3.062598e+01 1.828213e+01 1.944272e+01 1.627834e+01 2.674140e+01 1.715223e+00 7.638185e-01 1.055394e+00 3.218776e+00 1.526795e+00 2.041054e+00 1.687853e+00 1.763741e+00 2.830484e+00 1.187935e+00 2.729929e+00 2.043421e+00 4.892803e-01 2.251357e-01 1.569171e-01 2.220057e-01 4.392259e-01 3.342075e-01 3.721308e-01 3.065487e-01 3.271609e-01 3.799734e-01 2.461420e-01 4.925154e-01 4.045965e-01 1.123149e-01
<GCONST> 9.975774e+01
<TRANSP> 6
 0.000000e+00 1.000000e+00 0.000000e+00 0.000000e+00 0.000000e+00 0.000000e+00
 0.000000e+00 9.492383e-01 5.076168e-02 0.000000e+00 0.000000e+00 0.000000e+00
 0.000000e+00 0.000000e+00 8.823578e-01 1.176421e-01 0.000000e+00 0.000000e+00
 0.000000e+00 0.000000e+00 0.000000e+00 9.485832e-01 5.141675e-02 0.000000e+00
 0.000000e+00 0.000000e+00 0.000000e+00 0.000000e+00 9.326633e-01 6.733677e-02
 0.000000e+00 0.000000e+00 0.000000e+00 0.000000e+00 0.000000e+00 0.000000e+00
<ENDHMM>
