~o
<STREAMINFO> 1 39
<VECSIZE> 39<NULLD><MFCC_D_A_0><DIAGC>
~h "two"
<BEGINHMM>
<NUMSTATES> 6
<STATE> 2
<MEAN> 39
 -2.024158e+01 -8.884804e+00 7.737536e-01 -8.156408e+00 2.103489e+00 -1.010620e+01 2.205986e-01 -1.204792e+01 -4.209246e+00 2.963597e-01 4.799890e+00 -7.703826e+00 8.995078e+01 7.401457e-01 6.401923e-01 -3.285546e-01 -2.690368e-01 5.976246e-01 -6.606188e-01 9.078081e-02 -1.084481e+00 -1.185405e+00 -3.515211e-01 -4.626860e-02 1.340571e-01 1.204677e+00 4.086080e-01 4.525996e-01 -5.209381e-02 1.913487e-01 -1.136667e-01 -7.143490e-02 2.861257e-02 7.475108e-02 -3.235927e-01 -3.266418e-01 -4.573472e-01 1.697648e-01 -6.230898e-01
<VARIANCE> 39
 2.311534e+01 1.460586e+01 1.712571e+01 1.010802e+01 2.136271e+01 2.435737e+01 1.570664e+01 2.320613e+01 1.899857e+01 1.705770e+01 2.050826e+01 1.455542e+01 4.725753e+01 3.879485e+00 3.948126e+00 1.781636e+00 1.597623e+00 1.931168e+00 5.233034e+00 1.749342e+00 2.035486e+00 3.795019e+00 3.168206e+00 5.775767e+00 2.240631e+00 1.226512e+01 3.554264e-01 3.610610e-01 3.873714e-01 2.713146e-01 5.473484e-01 1.078246e+00 3.661796e-01 3.808697e-01 5.130093e-01 5.110016e-01 5.970913e-01 3.757333e-01 1.679028e+00
<GCONST> 1.159351e+02
<STATE> 3
<MEAN> 39
 -7.207814e+00 5.041344e+00 2.459179e-01 -1.032096e+01 -3.235463e+00 -2.006423e+01 3.822067e+00 -1.584366e+01 -1.819639e+01 -1.083781e+01 -7.275691e+00 -5.040844e+00 9.089070e+01 4.249425e-01 6.173193e-01 4.264489e-01 -5.450875e-01 -5.143524e-01 -1.804819e-01 5.687845e-01 5.179217e-01 -1.385522e-01 -9.138516e-01 -5.887305e-01 -1.853383e-01 1.678125e-02 -1.556486e-01 -1.765081e-01 1.467284e-01 -1.870513e-01 1.155612e-01 8.343211e-02 1.367045e-01 1.210467e-01 2.967427e-01 -4.179805e-03 2.385162e-01 -8.646843e-02 -1.460815e-01
<VARIANCE> 39
 4.104953e+00 1.303327e+01 1.324000e+01 1.541115e+01 2.045073e+01 4.331037e+01 4.915539e+01 2.977512e+01 2.854482e+01 3.054540e+01 1.566643e+01 2.044492e+01 1.049981e+01 8.446423e-01 1.361029e+00 1.321483e+00 1.840432e+00 2.123506e+00 5.520802e+00 4.415537e+00 3.188520e+00 3.887609e+00 2.762223e+00 2.088083e+00 1.570866e+00 1.253557e+00 1.528170e-01 2.645822e-01 2.568209e-01 4.398461e-01 3.018161e-01 1.134142e+00 8.479139e-01 6.578726e-01 5.934047e-01 5.584075e-01 4.537036e-01 3.036607e-01 2.092087e-01
<GCONST> 1.081680e+02
<STATE> 4
<MEAN> 39
 -7.162205e+00 8.919911e+00 6.992000e+00 -1.837528e+01 1.718139e-02 -1.849658e+01 8.759501e+00 -5.553623e+00 -1.146596e+01 -1.441613e+01 -9.698397e+00 -8.923670e+00 7.841203e+01 -1.075963e-02 -4.215166e-01 -3.171727e-01 -8.331581e-02 1.094173e-01 9.547702e-01 -6.094846e-01 7.809018e-01 6.209469e-01 8.837625e-01 3.121476e-01 2.061875e-01 -1.476330e+00 -2.446178e-02 -1.445749e-01 -2.212949e-01 3.378772e-01 -1.142012e-01 2.780109e-01 -2.729164e-01 2.127011e-02 7.764559e-02 2.647003e-01 1.104923e-01 1.907413e-01 -6.122745e-03
<VARIANCE> 39
 8.181869e+00 3.353009e+01 2.372368e+01 2.852272e+01 3.048400e+01 5.323670e+01 5.115067e+01 2.123926e+01 1.857790e+01 7.472492e+01 2.365643e+01 3.460317e+01 4.713959e+01 1.152028e+00 4.430281e+00 4.488288e+00 5.254382e+00 4.100899e+00 7.300479e+00 6.206430e+00 2.189792e+00 1.968346e+00 6.015177e+00 2.486577e+00 4.252173e+00 1.715955e+00 2.332961e-01 7.784272e-01 8.104962e-01 1.140172e+00 6.499512e-01 1.083360e+00 1.108225e+00 4.824905e-01 3.382498e-01 1.039281e+00 3.628283e-01 7.082381e-01 3.704731e-01
<GCONST> 1.259977e+02
<STATE> 5
<MEAN> 39
 -6.307819e+00 2.652152e+00 2.911727e+00 -3.818168e+00 -1.812640e+00 -1.831833e+00 4.276788e-01 4.736718e-01 -2.946135e+00 -2.697287e+00 -3.168109e+00 -2.934854e+00 6.479951e+01 -4.282721e-01 -2.184923e-01 3.373828e-01 1.721410e+00 4.412356e-01 7.198220e-01 -1.263134e-01 -7.983854e-02 4.962302e-01 3.122921e-01 2.575278e-01 1.512652e-01 -7.173384e-01 -8.461782e-02 5.721649e-02 9.257177e-02 -1.896413e-01 2.119446e-01 -2.267807e-01 9.174065e-02 -1.096587e-01 -1.217079e-01 -1.111243e-01 -1.027726e-01 -1.059702e-01 9.551670e-02
<VARIANCE> 39
 1.129419e+01 1.643252e+01 2.742693e+01 5.119572e+01 2.221156e+01 1.514699e+01 1.324277e+01 1.455107e+01 1.084599e+01 8.878086e+00 1.000268e+01 8.088438e+00 5.377664e+00 1.091515e+00 1.246000e+00 1.896943e+00 3.889931e+00 2.247703e+00 1.380735e+00 1.307071e+00 1.713766e+00 1.267652e+00 1.305280e+00 1.336753e+00 1.022922e+00 8.676091e-01 1.749823e-01 2.961445e-01 4.564113e-01 5.305195e-01 5.133455e-01 3.575966e-01 2.993329e-01 3.730021e-01 2.756616e-01 3.001538e-01 3.299919e-01 2.644365e-01 1.615980e-01
<GCONST> 9.577074e+01
<TRANSP> 6
 0.000000e+00 1.000000e+00 0.000000e+00 0.000000e+00 0.000000e+00 0.000000e+00
 0.000000e+00 8.946363e-01 1.053637e-01 0.000000e+00 0.000000e+00 0.000000e+00
 0.000000e+00 0.000000e+00 9.270630e-01 7.293698e-02 0.000000e+00 0.000000e+00
 0.000000e+00 0.000000e+00 0.000000e+00 9.246027e-01 7.539733e-02 0.000000e+00
 0.000000e+00 0.000000e+00 0.000000e+00 0.000000e+00 8.972836e-01 1.027164e-01
 0.000000e+00 0.000000e+00 0.000000e+00 0.000000e+00 0.000000e+00 0.000000e+00
<ENDHMM>
