~o
<STREAMINFO> 1 39
<VECSIZE> 39<NULLD><MFCC_D_A_0><DIAGC>
~h "divide"
<BEGINHMM>
<NUMSTATES> 6
<STATE> 2
<MEAN> 39
 -9.254597e+00 2.898206e+00 5.339506e+00 -6.160023e+00 6.656872e+00 -1.780292e+01 -8.142621e+00 -9.775853e+00 -8.973346e+00 -1.548061e+01 -4.154804e+00 -9.070807e+00 8.191428e+01 9.090497e-01 1.818182e-01 -6.111594e-01 -5.457318e-01 -2.239868e-01 -2.100319e-01 1.384666e-01 -1.668095e-01 -7.430064e-01 -1.661661e-01 2.926203e-01 1.049799e-01 4.638401e-01 1.819318e-02 -8.787508e-02 -2.186579e-01 -6.613033e-02 -9.482870e-02 1.943716e-01 1.592170e-01 3.725449e-02 1.021588e-01 1.898258e-01 6.566063e-02 7.337382e-02 -1.923793e-01
<VARIANCE> 39
 3.845130e+01 3.088044e+01 4.360876e+01 6.362162e+01 3.180719e+01 6.462956e+01 5.094880e+01 3.259320e+01 3.594880e+01 2.700666e+01 2.916350e+01 2.134335e+01 1.549753e+01 4.264351e+00 2.898559e+00 3.396933e+00 5.354729e+00 3.175108e+00 7.761424e+00 5.281249e+00 1.938966e+00 3.610270e+00 4.010090e+00 3.051553e+00 2.282637e+00 2.433286e+00 8.622451e-01 3.865399e-01 2.654724e-01 8.189734e-01 3.448105e-01 9.729840e-01 7.117832e-01 3.797806e-01 8.270616e-01 6.808344e-01 5.083572e-01 3.876083e-01 5.686532e-01
<GCONST> 1.264416e+02
<STATE> 3
<MEAN> 39
 -1.517843e+00 -2.254731e+00 -1.687706e+01 -1.851307e+01 1.018255e+00 -1.393567e+01 1.667525e+00 -1.041673e+01 -4.168706e+00 -1.408190e+01 5.817276e+00 -4.786805e+00 8.821891e+01 -2.361254e-01 -1.495679e-01 -4.621455e-02 3.250292e-01 7.646939e-01 -3.595967e-01 -3.473051e-01 2.384848e-01 1.140209e+00 8.263030e-03 4.848924e-01 -2.420144e-01 4.378885e-02 -1.142609e-01 4.940170e-02 2.901123e-01 9.943865e-02 4.776558e-02 -1.297993e-01 -1.825895e-01 5.984985e-02 -3.949267e-02 -6.534778e-02 -1.669382e-02 -2.243165e-02 -5.125361e-02
<VARIANCE> 39
 2.993841e+00 7.412962e+00 1.876841e+01 7.244519e+00 3.766487e+01 3.329726e+01 2.668584e+01 2.989272e+01 5.623169e+01 2.405456e+01 3.416489e+01 1.351029e+01 3.830039e+00 2.910166e-01 5.505466e-01 2.796179e+00 6.887366e-01 1.126632e+00 2.488192e+00 1.933997e+00 1.046121e+00 1.233211e+00 1.411488e+00 1.487513e+00 9.636003e-01 7.981569e-02 2.858612e-02 1.128527e-01 1.347949e-01 1.019279e-01 1.794803e-01 2.293714e-01 1.320229e-01 1.650706e-01 2.341572e-01 2.491003e-01 2.886485e-01 1.575205e-01 2.169369e-02
<GCONST> 8.033516e+01
<STATE> 4
<MEAN> 39
 -1.023711e+01 -2.668498e+00 3.782718e+00 -7.357945e+00 1.100729e+01 -2.923505e+01 -1.315561e+01 -5.340738e+00 9.658092e-01 -1.523746e+01 9.371263e+00 -6.807467e+00 8.547636e+01 -5.761231e-01 5.056096e-01 1.991094e+00 1.131014e+00 3.161905e-01 -2.072598e-02 -2.062809e-01 -2.058991e-01 -1.357649e+00 -4.697293e-01 -1.315816e+00 1.953834e-01 -1.276051e+00 1.887267e-01 4.148065e-02 -5.805574e-01 -2.195314e-01 -1.380926e-01 7.201340e-01 4.747669e-01 -1.387956e-01 -1.066639e-01 2.462275e-01 -1.645662e-01 1.261807e-01 -3.833979e-01
<VARIANCE> 39
 5.475811e+00 1.794083e+01 5.505107e+01 1.761991e+01 1.349555e+01 1.908917e+01 1.802591e+01 2.375737e+01 3.301732e+01 1.746482e+01 2.177366e+01 1.186941e+01 1.370975e+01 5.082850e-01 8.999480e-01 3.288975e+00 7.616867e-01 1.168327e+00 5.508352e+00 4.095951e+00 1.414951e+00 1.172760e+00 1.626833e+00 1.652989e+00 9.412081e-01 1.674031e+00 2.843983e-02 2.460067e-01 4.388616e-01 1.690644e-01 4.277639e-01 3.227329e-01 3.129008e-01 2.875247e-01 3.407660e-01 5.052530e-01 2.441459e-01 2.324540e-01 1.147624e-01
<GCONST> 9.589645e+01
<STATE> 5
<MEAN> 39
 -1.628645e+01 -6.396157e+00 1.562559e+00 -9.569755e+00 1.408171e+00 -1.187735e+01 -6.876205e+00 -7.895512e+00 -2.432833e+00 -5.114788e+00 3.966011e-01 -3.557140e+00 7.178483e+01 -3.297690e-01 -4.957872e-01 -3.685615e-01 -2.810267e-01 -6.656032e-01 9.426156e-01 1.608663e-01 2.792336e-01 2.414573e-01 9.593642e-01 -9.891286e-02 2.113833e-01 -7.073995e-01 -2.015336e-02 2.434162e-02 1.182317e-01 7.360108e-02 3.886946e-02 -1.624784e-01 -1.002121e-01 5.513481e-02 2.083025e-02 -8.185247e-02 1.762257e-02 -2.772857e-02 1.063056e-01
<VARIANCE> 39
 3.859335e+01 2.491622e+01 1.739641e+01 2.616355e+01 2.756492e+01 2.988932e+01 2.071766e+01 1.934991e+01 2.129981e+01 3.578564e+01 2.231135e+01 2.316462e+01 7.489704e+01 4.332821e+00 1.849038e+00 3.987496e+00 3.275392e+00 2.960363e+00 5.746572e+00 3.058668e+00 2.556841e+00 1.943877e+00 4.740086e+00 2.197237e+00 2.823641e+00 1.309274e+01 8.593416e-01 3.633199e-01 7.533866e-01 6.727836e-01 5.063469e-01 8.708672e-01 7.421011e-01 4.380068e-01 3.988230e-01 7.983455e-01 4.917940e-01 5.329435e-01 2.278974e+00
<GCONST> 1.252875e+02
<TRANSP> 6
 0.000000e+00 1.000000e+00 0.000000e+00 0.000000e+00 0.000000e+00 0.000000e+00
 0.000000e+00 9.486569e-01 5.134314e-02 0.000000e+00 0.000000e+00 0.000000e+00
 0.000000e+00 0.000000e+00 9.439437e-01 5.605632e-02 0.000000e+00 0.000000e+00
 0.000000e+00 0.000000e+00 0.000000e+00 8.934146e-01 1.065854e-01 0.000000e+00
 0.000000e+00 0.000000e+00 0.000000e+00 0.000000e+00 9.447585e-01 5.524155e-02
 0.000000e+00 0.000000e+00 0.000000e+00 0.000000e+00 0.000000e+00 0.000000e+00
<ENDHMM>
