~o
<STREAMINFO> 1 39
<VECSIZE> 39<NULLD><MFCC_D_A_0><DIAGC>
~h "nine"
<BEGINHMM>
<NUMSTATES> 6
<STATE> 2
<MEAN> 39
 -3.250934e+00 6.731896e+00 5.822174e+00 -6.121293e+00 1.271849e+01 -1.571293e+01 3.187453e+00 -1.227974e+01 -1.553831e+01 -5.822587e+00 -5.404315e+00 -3.578654e+00 7.693925e+01 5.094580e-01 -3.681096e-01 -4.730010e-01 -1.834221e+00 -6.630018e-01 -1.524721e+00 1.195902e+00 -3.165877e-01 2.182954e-01 -5.323352e-01 1.509901e+00 7.127913e-02 2.780910e+00 -2.957638e-01 -4.305708e-01 -4.807623e-01 -2.223333e-01 -3.551390e-01 1.655626e-01 9.089822e-02 4.123493e-01 3.516150e-01 -2.787299e-02 2.749247e-01 1.353826e-01 7.045513e-03
<VARIANCE> 39
 9.106564e+00 1.906420e+01 1.107007e+01 4.888726e+01 5.084651e+01 3.067963e+01 4.261505e+01 2.639107e+01 3.809376e+01 1.569797e+01 5.016601e+01 2.000455e+01 6.886322e+01 2.860064e+00 4.321393e+00 3.040235e+00 2.428618e+00 7.999378e+00 3.730653e+00 3.017416e+00 3.905394e+00 5.759002e+00 1.295222e+00 4.896342e+00 2.131454e+00 2.268373e+00 3.066656e-01 5.519423e-01 2.971453e-01 4.819430e-01 1.281128e+00 9.051679e-01 6.241989e-01 5.362463e-01 8.453221e-01 2.412569e-01 8.662106e-01 4.513575e-01 5.810378e-01
<GCONST> 1.228545e+02
<STATE> 3
<MEAN> 39
 -4.087526e+00 -1.591818e+00 -7.230502e+00 -2.017700e+01 7.495159e+00 -1.873730e+01 1.025644e+01 -6.457713e+00 -2.003479e+00 -1.693169e+01 5.927078e+00 2.633704e+00 9.296968e+01 -6.332094e-02 -2.305915e-01 -2.017230e-01 -7.223595e-02 6.014995e-01 -1.202001e-02 -3.511629e-01 1.679717e-01 7.827354e-01 -4.301184e-01 3.445806e-01 -2.659632e-02 -2.838910e-02 -3.981537e-02 4.368097e-02 2.255898e-01 1.607811e-01 7.471400e-02 -9.204827e-02 -1.102348e-01 -7.040365e-02 1.322642e-02 8.133589e-02 -5.240406e-02 -1.582230e-01 -1.323724e-01
<VARIANCE> 39
 2.436820e+00 6.489238e+00 1.604929e+01 8.819505e+00 2.200919e+01 2.270008e+01 1.566080e+01 1.047135e+01 3.700348e+01 3.695964e+01 2.280313e+01 2.023969e+01 2.934765e+00 2.055443e-01 4.701993e-01 1.547929e+00 7.714058e-01 1.269191e+00 2.893921e+00 1.148287e+00 1.045273e+00 1.493014e+00 2.552284e+00 1.893224e+00 2.423589e+00 2.602370e-01 3.218489e-02 8.771258e-02 1.415805e-01 2.095880e-01 2.698400e-01 4.834311e-01 1.492584e-01 1.720025e-01 2.831484e-01 3.548432e-01 4.416342e-01 2.545840e-01 1.165859e-01
<GCONST> 8.425676e+01
<STATE> 4
<MEAN> 39
 -1.021006e+01 -3.593936e+00 7.777631e+00 -1.063063e+01 1.368776e+01 -3.396668e+01 -1.086724e+00 -5.304143e+00 6.874446e+00 -1.601936e+01 8.181248e+00 -7.646281e+00 8.745873e+01 -5.332977e-01 1.516131e-02 1.782741e+00 1.203787e+00 -1.752232e-01 -1.123229e+00 -3.951328e-01 3.429576e-01 -4.658070e-01 -1.145490e-01 -1.001286e+00 -2.637559e-01 -8.136032e-01 8.375745e-03 -2.645925e-02 -5.517645e-02 -3.271000e-02 -4.991612e-02 2.733131e-01 1.360959e-01 4.699036e-02 -2.099433e-01 -5.641394e-02 -8.813373e-02 1.883815e-01 -7.278989e-02
<VARIANCE> 39
 7.992687e+00 5.548713e+00 5.931150e+01 2.789028e+01 1.089391e+01 3.191224e+01 1.010545e+01 1.478338e+01 2.069803e+01 1.048546e+01 3.000656e+01 1.659907e+01 1.372833e+01 2.043027e-01 4.883210e-01 4.854372e-01 5.525857e-01 7.790685e-01 1.796983e+00 1.172068e+00 1.237431e+00 1.691408e+00 1.244848e+00 1.104221e+00 1.621262e+00 2.123188e-01 3.372418e-02 6.593269e-02 6.987250e-02 8.091480e-02 1.440429e-01 1.813849e-01 1.481206e-01 1.995469e-01 1.735751e-01 2.191838e-01 2.324198e-01 1.839647e-01 1.728789e-02
<GCONST> 7.588387e+01
<STATE> 5
<MEAN> 39
 -1.526521e+01 -8.112164e+00 1.586991e+01 -2.191095e+00 4.768285e+00 -2.673118e+01 -1.150110e+00 3.062672e+00 -6.595631e+00 -1.330785e+01 -4.161198e-01 -1.169598e+00 7.276455e+01 1.910270e-02 -1.908530e-01 -1.099653e+00 4.955096e-01 -1.218304e+00 1.986567e+00 -3.324039e-02 5.916850e-01 -5.611705e-01 8.054776e-01 -2.154361e-01 5.055190e-01 -1.387432e+00 6.853908e-02 9.280525e-02 -2.119961e-01 -8.951432e-02 -3.098531e-02 8.468468e-02 -2.591515e-02 -1.366527e-01 1.983150e-01 4.867421e-02 2.308717e-02 -6.279977e-02 1.579043e-02
<VARIANCE> 39
 1.441462e+01 2.576845e+01 4.536729e+01 1.788575e+01 6.076599e+01 9.088297e+01 2.145583e+01 3.542318e+01 4.076309e+01 3.062192e+01 1.696817e+01 3.346386e+01 3.176027e+01 8.538707e-01 1.312038e+00 2.235044e+00 1.281253e+00 2.693245e+00 1.863317e+00 1.829809e+00 2.397768e+00 2.896119e+00 2.004778e+00 1.405472e+00 1.783220e+00 4.066713e-01 1.204868e-01 1.407446e-01 1.998551e-01 3.084423e-01 5.564765e-01 3.032549e-01 3.909088e-01 3.922940e-01 4.049874e-01 3.760644e-01 2.568098e-01 3.163620e-01 4.821401e-02
<GCONST> 1.045663e+02
<TRANSP> 6
 0.000000e+00 1.000000e+00 0.000000e+00 0.000000e+00 0.000000e+00 0.000000e+00
 0.000000e+00 8.967075e-01 1.032925e-01 0.000000e+00 0.000000e+00 0.000000e+00
 0.000000e+00 0.000000e+00 9.470480e-01 5.295201e-02 0.000000e+00 0.000000e+00
 0.000000e+00 0.000000e+00 0.000000e+00 9.210819e-01 7.891813e-02 0.000000e+00
 0.000000e+00 0.000000e+00 0.000000e+00 0.000000e+00 9.222526e-01 7.774743e-02
 0.000000e+00 0.000000e+00 0.000000e+00 0.000000e+00 0.000000e+00 0.000000e+00
<ENDHMM>
