~o
<STREAMINFO> 1 39
<VECSIZE> 39<NULLD><MFCC_D_A_0><DIAGC>
~h "six"
<BEGINHMM>
<NUMSTATES> 6
<STATE> 2
<MEAN> 39
 -3.054927e+01 -5.336061e+00 3.619213e+00 -1.631827e+01 7.357402e+00 -1.063769e+01 2.792314e+00 -7.349652e+00 2.465372e+00 -2.808250e+00 1.640650e+00 -4.340896e+00 8.660552e+01 -2.037622e-01 2.127331e-01 9.180880e-02 -3.069592e-01 1.965859e-01 -8.017492e-01 -1.713118e-01 -3.636574e-01 -1.091126e-01 -3.172860e-01 -9.044756e-02 -2.780760e-01 1.116163e+00 3.913035e-01 1.237949e-01 -1.024607e-01 2.503093e-01 -1.259841e-01 -1.181610e-01 -2.156514e-01 -4.608906e-02 -1.556662e-01 -5.333446e-02 -9.726392e-02 -8.163827e-02 -1.588683e-01
<VARIANCE> 39
 6.336083e+01 1.676069e+01 2.727056e+01 1.814670e+01 2.492336e+01 2.059260e+01 2.415063e+01 2.367519e+01 1.982935e+01 1.810016e+01 1.133439e+01 1.067626e+01 4.404527e+01 7.658964e+00 1.526428e+00 2.820347e+00 2.617175e+00 2.105338e+00 2.454519e+00 3.883678e+00 2.924788e+00 2.438623e+00 1.874539e+00 1.593940e+00 1.549007e+00 2.169227e+00 6.004318e-01 3.086554e-01 5.498282e-01 4.046791e-01 3.464563e-01 4.663175e-01 3.991069e-01 4.755471e-01 3.228616e-01 3.727530e-01 2.472423e-01 2.634309e-01 1.942469e-01
<GCONST> 1.104707e+02
<STATE> 3
<MEAN> 39
 -1.106162e+01 -3.930837e+00 2.133511e+00 -2.333065e+00 2.297648e+00 -2.450641e+01 -8.427254e+00 -7.158941e+00 -6.261428e+00 -7.068251e+00 -3.039641e+00 -4.798779e+00 8.007750e+01 4.472046e-01 -7.781377e-02 -2.746761e-01 6.825066e-01 -3.119355e-01 5.462531e-01 -1.309182e-02 5.308414e-01 5.421196e-03 1.831119e-01 -2.444339e-02 3.142956e-01 -1.347182e+00 -3.499817e-01 -8.006854e-02 -5.704317e-02 -2.396471e-01 1.898503e-01 1.534976e-01 1.689119e-01 5.172360e-02 1.760246e-01 9.759210e-02 8.936343e-02 2.321911e-02 1.184485e-01
<VARIANCE> 39
 7.456482e+00 1.715597e+01 1.719503e+01 2.437355e+01 2.731373e+01 1.120749e+02 2.345982e+01 4.281836e+01 1.133142e+01 1.948347e+01 2.022006e+01 2.127561e+01 1.694326e+02 3.078773e+00 1.613147e+00 2.036536e+00 2.054219e+00 2.888623e+00 9.218246e+00 2.855759e+00 2.498734e+00 1.655104e+00 2.459390e+00 2.104415e+00 1.873382e+00 3.775575e+00 4.830239e-01 3.433137e-01 4.506099e-01 3.855453e-01 6.271142e-01 1.296329e+00 4.948753e-01 6.257043e-01 2.844636e-01 5.163288e-01 4.581212e-01 4.522539e-01 7.234530e-01
<GCONST> 1.177420e+02
<STATE> 4
<MEAN> 39
 -2.066940e+01 -8.579129e+00 -2.684496e+00 -1.190134e+01 9.954392e+00 -1.023960e+01 -7.011602e+00 -8.463245e+00 6.524329e-01 -9.970148e-01 6.032330e-01 -5.809306e+00 8.188000e+01 -2.727083e+00 -6.366302e-01 2.556225e-01 -2.325467e+00 1.573742e+00 -1.688699e-01 3.799560e-01 -8.321916e-01 1.240523e+00 3.453367e-01 8.816528e-01 -4.322987e-01 4.393909e+00 -1.322913e-01 1.344115e-01 3.656856e-01 2.580972e-01 -4.350971e-01 1.127578e-01 3.131647e-01 3.525327e-01 -2.246152e-02 -1.339670e-01 -9.359428e-02 1.314723e-01 -2.824315e-01
<VARIANCE> 39
 4.639083e+01 1.568164e+01 2.627717e+01 5.988874e+01 4.802593e+01 3.133134e+01 1.482892e+01 2.833905e+01 2.603846e+01 9.698544e+00 2.250532e+01 1.237894e+01 1.619709e+02 1.549356e+00 1.539156e+00 5.263243e+00 5.824464e+00 7.450480e+00 3.099085e+00 2.468221e+00 3.905883e+00 1.940228e+00 1.069904e+00 2.270881e+00 1.597490e+00 6.692466e+00 4.051683e-01 2.794344e-01 7.884858e-01 1.164160e+00 1.259113e+00 6.291745e-01 4.494245e-01 6.579595e-01 4.786208e-01 1.923199e-01 4.861089e-01 2.949918e-01 2.447476e+00
<GCONST> 1.217032e+02
<STATE> 5
<MEAN> 39
 -3.070267e+01 -5.366097e+00 3.842221e+00 -1.777656e+01 1.008129e+01 -9.394704e+00 2.452958e+00 -4.548228e+00 4.052457e-01 -1.988464e+00 2.224299e+00 -4.278620e+00 8.484192e+01 5.719199e-01 2.285201e-01 4.354689e-02 3.171353e-01 -1.835830e-01 1.097995e-01 3.469433e-02 2.761125e-01 -3.980154e-01 7.854965e-02 -2.648301e-01 1.227632e-01 -1.143243e+00 1.278238e-01 -2.378459e-02 -5.460914e-02 9.701945e-02 5.041742e-03 2.039817e-02 -1.082330e-01 -3.040356e-02 -2.684651e-02 -3.545192e-03 -2.192922e-02 -2.146378e-02 -6.345665e-02
<VARIANCE> 39
 5.703880e+01 7.675281e+00 1.185858e+01 2.286312e+01 1.303250e+01 1.442431e+01 2.204954e+01 1.521089e+01 1.842439e+01 9.921503e+00 1.323552e+01 8.902956e+00 1.177963e+02 2.197415e+00 7.407684e-01 1.134217e+00 1.646919e+00 1.248879e+00 1.092330e+00 1.695083e+00 1.472645e+00 1.140534e+00 1.249683e+00 1.172997e+00 8.183779e-01 1.579553e+00 2.598082e-01 1.483547e-01 2.172151e-01 2.189088e-01 2.456174e-01 2.290500e-01 2.481733e-01 2.729129e-01 2.659157e-01 2.656504e-01 2.095226e-01 1.593909e-01 1.623718e-01
<GCONST> 9.252859e+01
<TRANSP> 6
 0.000000e+00 1.000000e+00 0.000000e+00 0.000000e+00 0.000000e+00 0.000000e+00
 0.000000e+00 9.485639e-01 5.143610e-02 0.000000e+00 0.000000e+00 0.000000e+00
 0.000000e+00 0.000000e+00 9.520369e-01 4.796311e-02 0.000000e+00 0.000000e+00
 0.000000e+00 0.000000e+00 0.000000e+00 8.607439e-01 1.392561e-01 0.000000e+00
 0.000000e+00 0.000000e+00 0.000000e+00 0.000000e+00 9.639350e-01 3.606502e-02
 0.000000e+00 0.000000e+00 0.000000e+00 0.000000e+00 0.000000e+00 0.000000e+00
<ENDHMM>
