~o
<STREAMINFO> 1 39
<VECSIZE> 39<NULLD><MFCC_D_A_0><DIAGC>
~h "multiply"
<BEGINHMM>
<NUMSTATES> 6
<STATE> 2
<MEAN> 39
 -4.812460e+00 6.821374e+00 -3.145594e+00 -1.469162e+01 -2.160297e+00 -1.554891e+01 1.093477e+01 -8.211265e+00 -2.352964e+01 -1.672377e+01 -4.494270e+00 -8.312854e+00 8.175005e+01 -3.963735e-01 7.349752e-03 -2.632000e-02 -1.851074e-01 -1.812838e-01 -1.948413e-01 6.094187e-02 -3.526732e-01 4.517319e-01 -1.224807e-01 3.977759e-01 -2.928250e-01 7.761983e-01 -3.090271e-01 -2.794072e-01 -7.624695e-02 8.498001e-02 -1.130941e-01 1.510457e-01 -1.436480e-01 3.152468e-02 4.118697e-01 2.937933e-01 2.366682e-01 1.228950e-01 1.594741e-02
<VARIANCE> 39
 1.820436e+01 1.296305e+01 4.712757e+01 2.449924e+01 7.970613e+01 3.188629e+01 4.249695e+01 2.130577e+01 4.991063e+01 2.268249e+01 6.242197e+01 3.373137e+01 5.277269e+01 5.419865e+00 2.684066e+00 3.759440e+00 3.149383e+00 6.903967e+00 5.514667e+00 4.562975e+00 2.727375e+00 1.255669e+01 3.788372e+00 7.233633e+00 3.225365e+00 6.324256e+00 5.845435e-01 6.395834e-01 6.211402e-01 5.247813e-01 9.935102e-01 8.941485e-01 6.267264e-01 5.836670e-01 1.721160e+00 7.030874e-01 1.248095e+00 6.035221e-01 6.572596e-01
<GCONST> 1.339165e+02
<STATE> 3
<MEAN> 39
 -1.209382e+01 -1.724768e+00 -1.263368e+00 -7.744868e+00 -2.791362e-01 -1.601240e+01 -2.102620e+00 -9.361293e+00 -3.917866e+00 -8.017665e+00 7.341436e-01 -3.876616e+00 8.091341e+01 3.202034e-01 -1.784052e-02 -3.163497e-01 -2.283270e-01 -1.264316e-01 -1.436893e-01 9.569355e-03 1.071560e-01 1.377944e-01 -8.290705e-02 1.324312e-01 3.828685e-01 2.177272e-01 1.193068e-01 4.592277e-02 -9.265323e-03 -2.029132e-02 1.073988e-01 -4.019143e-02 6.924861e-02 2.067544e-02 -1.004175e-01 -8.941948e-02 -6.394262e-02 -1.123005e-02 -7.397693e-02
<VARIANCE> 39
 3.155947e+01 5.557531e+01 1.794277e+01 4.494109e+01 3.839669e+01 9.818118e+01 3.382327e+01 2.124661e+01 1.870780e+01 3.931503e+01 3.179015e+01 2.545142e+01 9.712032e+01 2.911926e+00 7.479163e+00 2.219015e+00 2.180099e+00 3.455892e+00 6.817696e+00 2.905005e+00 2.224828e+00 2.930757e+00 5.202013e+00 3.729785e+00 2.042117e+00 6.194838e+00 6.582431e-01 1.308722e+00 4.192366e-01 3.361082e-01 5.550041e-01 1.006102e+00 5.171962e-01 4.445831e-01 8.030773e-01 8.438830e-01 7.472934e-01 4.282290e-01 8.607306e-01
<GCONST> 1.289456e+02
<STATE> 4
<MEAN> 39
 -6.917015e+00 -1.067002e+00 -1.147645e+01 -2.047896e+01 8.555371e+00 -1.337708e+01 9.378535e-01 -1.027548e+01 1.060903e+01 -1.827574e+01 4.254924e+00 1.168172e+00 8.953312e+01 -1.791836e-01 -3.290995e-01 2.434397e-01 3.137854e-01 6.802570e-01 -2.845967e-01 -6.127322e-01 -1.526720e-01 8.998641e-01 7.339582e-02 1.721688e-01 -4.906064e-01 -3.233047e-01 -7.904318e-02 1.017530e-01 2.036843e-01 1.344026e-01 -1.471827e-01 -9.782968e-02 -6.463026e-02 1.663419e-02 -1.473190e-01 2.738066e-02 -6.000598e-02 -6.930569e-02 -7.996137e-02
<VARIANCE> 39
 4.026044e+00 1.230795e+01 1.483215e+01 1.103378e+01 4.121345e+01 2.477510e+01 1.938884e+01 1.804315e+01 4.537443e+01 2.469171e+01 1.499225e+01 3.221679e+01 1.117529e+01 3.116653e-01 7.270057e-01 1.489084e+00 1.276284e+00 1.913428e+00 1.975353e+00 1.013811e+00 1.039834e+00 2.059135e+00 1.735078e+00 1.045465e+00 1.163034e+00 2.692120e-01 5.475840e-02 1.170174e-01 1.409159e-01 1.724564e-01 2.667032e-01 2.170803e-01 1.526151e-01 2.215386e-01 2.308979e-01 2.731231e-01 1.962560e-01 1.957867e-01 4.083818e-02
<GCONST> 8.555130e+01
<STATE> 5
<MEAN> 39
 -1.308426e+01 -8.643240e+00 5.047059e+00 -3.261313e+00 3.055080e+00 -2.415428e+01 -7.681018e+00 7.920557e-01 4.717139e+00 -1.089540e+01 -5.990179e-02 -3.864742e+00 7.431232e+01 -1.443118e-01 -3.384291e-01 2.452654e-01 7.677928e-01 -6.720060e-01 2.656523e-01 1.109681e-01 8.808117e-01 -7.350670e-01 3.610663e-01 -4.443902e-01 2.608446e-01 -1.077969e+00 4.367011e-02 6.413388e-02 -1.163393e-01 -1.206622e-01 5.380048e-02 1.818589e-01 4.579132e-02 -1.005104e-01 -2.447510e-03 -2.634611e-03 -3.945187e-03 1.415383e-02 9.109678e-03
<VARIANCE> 39
 7.196978e+00 3.375591e+01 4.462677e+01 4.527375e+01 7.613591e+01 4.479855e+01 2.064134e+01 9.005679e+01 5.535930e+01 4.066904e+01 3.156965e+01 3.435463e+01 5.689593e+01 8.971974e-01 1.782114e+00 2.443367e+00 1.742915e+00 3.440537e+00 3.752875e+00 1.682341e+00 3.227524e+00 1.998001e+00 3.251846e+00 1.860709e+00 1.503924e+00 4.235487e-01 1.414918e-01 2.138591e-01 1.975005e-01 2.804327e-01 5.375725e-01 4.638950e-01 2.799311e-01 4.579253e-01 3.570190e-01 6.505561e-01 3.653741e-01 2.449573e-01 7.767602e-02
<GCONST> 1.111396e+02
<TRANSP> 6
 0.000000e+00 1.000000e+00 0.000000e+00 0.000000e+00 0.000000e+00 0.000000e+00
 0.000000e+00 9.553593e-01 4.464072e-02 0.000000e+00 0.000000e+00 0.000000e+00
 0.000000e+00 0.000000e+00 9.730891e-01 2.691089e-02 0.000000e+00 0.000000e+00
 0.000000e+00 0.000000e+00 0.000000e+00 9.430394e-01 5.696065e-02 0.000000e+00
 0.000000e+00 0.000000e+00 0.000000e+00 0.000000e+00 9.523433e-01 4.765667e-02
 0.000000e+00 0.000000e+00 0.000000e+00 0.000000e+00 0.000000e+00 0.000000e+00
<ENDHMM>
