~o
<STREAMINFO> 1 39
<VECSIZE> 39<NULLD><MFCC_D_A_0><DIAGC>
~h "zero"
<BEGINHMM>
<NUMSTATES> 6
<STATE> 2
<MEAN> 39
 -2.529531e+01 -8.346514e+00 1.008034e+01 -1.912688e+01 1.164058e+01 -1.574994e+01 -4.539862e-01 -1.197490e+01 2.034127e+00 -8.311584e+00 1.088846e-01 -8.781799e+00 8.148456e+01 1.378720e+00 2.067337e-01 3.207356e-01 8.040335e-01 1.155606e-01 -1.739786e+00 -9.952880e-01 -9.880951e-01 -9.276738e-01 -6.226986e-01 -6.400572e-01 -7.560803e-01 1.600610e+00 5.397056e-01 1.673392e-01 -2.960006e-01 4.945332e-01 -3.905994e-01 -6.189195e-02 -2.256165e-01 1.311560e-01 -3.310432e-01 6.630009e-02 -1.521201e-01 1.465204e-01 -2.905159e-01
<VARIANCE> 39
 8.403135e+01 3.503596e+01 3.451450e+01 4.573529e+01 2.005303e+01 3.179812e+01 4.576773e+01 2.452307e+01 3.466636e+01 2.087146e+01 3.875150e+01 2.316479e+01 2.588738e+01 1.071017e+01 6.299074e+00 4.949589e+00 8.266228e+00 3.907756e+00 5.163248e+00 4.184564e+00 2.637945e+00 4.657529e+00 2.444091e+00 5.111734e+00 2.773622e+00 2.810911e+00 1.210596e+00 1.012545e+00 1.367113e+00 1.160809e+00 7.384163e-01 8.975510e-01 7.656184e-01 5.610331e-01 6.531994e-01 5.764463e-01 8.109623e-01 5.685897e-01 2.477032e-01
<GCONST> 1.328567e+02
<STATE> 3
<MEAN> 39
 -4.155237e+00 -2.651280e+00 4.153663e+00 -7.060750e+00 7.259886e+00 -3.373015e+01 -6.246007e+00 -1.987044e+01 -8.245286e+00 -1.073139e+01 -5.631130e+00 -1.086014e+01 8.655959e+01 5.855218e-01 1.522614e-01 -1.472749e+00 -2.024766e-01 2.820455e-01 -1.810489e-01 4.197215e-01 -2.829483e-01 -5.658921e-02 2.792033e-01 3.349301e-01 1.197117e-01 -1.515183e-01 -8.323636e-02 2.188551e-02 -2.913043e-02 -2.107995e-01 1.821203e-01 3.256828e-01 -1.206326e-02 5.093062e-02 7.481499e-02 -2.481137e-02 4.819813e-02 -2.170957e-02 -7.777580e-02
<VARIANCE> 39
 9.815089e+00 5.447583e+00 6.325551e+01 1.127514e+01 1.113788e+01 1.372915e+01 2.735302e+01 1.649290e+01 1.779487e+01 1.802626e+01 1.466757e+01 1.455322e+01 2.731683e+00 1.568809e-01 7.963828e-01 1.381244e+00 9.856422e-01 1.308869e+00 2.005137e+00 1.486293e+00 1.012553e+00 9.982271e-01 1.362799e+00 7.545008e-01 8.630816e-01 2.221839e-01 9.099114e-02 1.418123e-01 2.018542e-01 2.184645e-01 1.113911e-01 2.470543e-01 3.043756e-01 2.218202e-01 2.459563e-01 2.307415e-01 1.518928e-01 1.446607e-01 1.169941e-02
<GCONST> 7.858855e+01
<STATE> 4
<MEAN> 39
 3.162788e+00 4.675591e+00 -9.585170e+00 -2.150254e+01 1.550111e+01 -2.234126e+01 -4.622040e+00 -1.215153e+01 -9.762216e+00 -1.285465e+01 -9.832245e-01 -1.493679e+00 8.076958e+01 7.287347e-02 1.222883e-01 4.711912e-01 -5.966210e-01 -8.429649e-01 5.517694e-01 2.202407e-01 1.081896e+00 2.336027e-01 -7.784495e-01 -1.008686e-01 6.482697e-01 -2.902652e-01 -3.540020e-02 -3.033053e-02 1.185524e-01 1.242998e-01 -2.294993e-01 -4.932693e-02 6.685906e-02 3.470388e-02 1.657828e-02 7.977616e-03 -6.782366e-02 -7.743502e-02 -2.662908e-02
<VARIANCE> 39
 3.317145e+00 9.198784e+00 1.216072e+01 2.723287e+01 6.762001e+01 2.017444e+01 3.533941e+01 7.515821e+01 2.962479e+01 3.925042e+01 2.971720e+01 4.310053e+01 3.896114e+00 1.818885e-01 8.964866e-01 6.322776e-01 1.545412e+00 4.378337e+00 1.522319e+00 3.271185e+00 2.467333e+00 1.359242e+00 1.580532e+00 2.456937e+00 1.346055e+00 3.383589e-01 2.115091e-02 1.017281e-01 7.938385e-02 1.413060e-01 2.640197e-01 2.298429e-01 5.799394e-01 4.416093e-01 1.836617e-01 2.883380e-01 4.350848e-01 2.532354e-01 3.645149e-02
<GCONST> 9.134855e+01
<STATE> 5
<MEAN> 39
 -1.683367e+00 3.490700e+00 -1.494715e+00 -1.551744e+01 -9.867298e+00 -9.814176e+00 2.027370e+00 1.988472e+00 -5.244448e+00 -1.342643e+01 -8.291723e+00 -4.472427e+00 6.897281e+01 -6.746021e-01 -3.324652e-01 -1.046937e-01 7.003216e-01 -2.698345e-01 8.972653e-01 -1.202569e-02 2.616653e-01 2.171825e-01 1.166658e+00 1.842139e-02 -3.707819e-01 -8.366157e-01 -3.425512e-02 -5.753218e-02 -4.964934e-02 2.560273e-02 1.948365e-01 -4.162790e-02 -4.967824e-02 -1.163492e-01 6.422478e-03 5.855123e-02 6.803626e-02 8.304958e-02 3.623827e-02
<VARIANCE> 39
 2.056213e+01 2.219762e+01 1.763433e+01 2.046623e+01 1.572027e+01 5.501706e+01 2.316006e+01 2.225948e+01 1.967736e+01 6.643836e+01 2.187830e+01 2.074361e+01 2.070126e+01 6.377299e-01 1.324553e+00 1.083017e+00 1.133551e+00 2.071510e+00 1.910592e+00 1.449334e+00 1.879737e+00 2.180110e+00 1.651126e+00 2.353349e+00 1.986267e+00 2.184311e-01 8.830085e-02 1.465743e-01 1.311907e-01 2.020736e-01 2.520397e-01 3.280749e-01 2.669744e-01 3.912018e-01 4.411307e-01 2.857760e-01 3.588604e-01 2.570564e-01 3.130513e-02
<GCONST> 9.608919e+01
<TRANSP> 6
 0.000000e+00 1.000000e+00 0.000000e+00 0.000000e+00 0.000000e+00 0.000000e+00
 0.000000e+00 9.114157e-01 8.858432e-02 0.000000e+00 0.000000e+00 0.000000e+00
 0.000000e+00 0.000000e+00 9.378612e-01 6.213877e-02 0.000000e+00 0.000000e+00
 0.000000e+00 0.000000e+00 0.000000e+00 9.489325e-01 5.106745e-02 0.000000e+00
 0.000000e+00 0.000000e+00 0.000000e+00 0.000000e+00 9.439349e-01 5.606506e-02
 0.000000e+00 0.000000e+00 0.000000e+00 0.000000e+00 0.000000e+00 0.000000e+00
<ENDHMM>
