~o
<STREAMINFO> 1 39
<VECSIZE> 39<NULLD><MFCC_D_A_0><DIAGC>
~h "eight"
<BEGINHMM>
<NUMSTATES> 6
<STATE> 2
<MEAN> 39
 -7.486687e+00 -4.499849e+00 1.986484e+00 -7.329350e+00 3.682505e+00 -3.448447e+01 -2.411920e+00 -1.104812e+01 -1.776606e+00 -1.099597e+01 2.077000e+00 -6.994915e+00 9.056026e+01 -9.050617e-02 7.804651e-01 1.195312e+00 9.543588e-02 7.677581e-01 -4.507035e-01 -4.753095e-01 9.715875e-02 -1.139036e-01 -2.046186e+00 -3.311175e-01 -1.889814e-01 3.358986e-01 -1.681186e-01 9.292745e-02 5.047364e-02 7.862981e-02 4.094214e-02 4.841791e-01 2.437202e-02 1.708912e-01 -7.230496e-02 -3.322908e-02 -1.069986e-01 7.632536e-02 -5.671625e-01
<VARIANCE> 39
 8.733060e+00 2.863736e+01 5.284641e+01 1.265482e+01 3.101560e+01 3.901406e+01 3.874023e+01 2.162936e+01 2.239379e+01 1.212333e+02 1.966849e+01 2.648956e+01 3.406966e+01 1.270113e+00 2.141396e+00 1.771833e+00 1.352960e+00 2.285430e+00 5.318828e+00 2.726847e+00 1.870417e+00 2.041794e+00 2.513160e+00 1.765179e+00 1.965543e+00 7.570171e+00 1.338199e-01 5.788105e-01 3.805077e-01 2.135989e-01 4.990529e-01 1.585333e+00 5.956231e-01 3.141824e-01 3.818964e-01 9.003528e-01 4.359818e-01 3.378765e-01 5.956879e-01
<GCONST> 1.156511e+02
<STATE> 3
<MEAN> 39
 -1.337984e+01 -7.461153e-01 5.011659e+00 -5.470258e+00 4.869708e+00 -1.651939e+01 -3.263641e+00 -3.485054e+00 -3.260436e+00 -1.042915e+01 -2.350044e+00 -3.332085e+00 6.771809e+01 -5.191450e-02 -2.594697e-01 -1.090594e+00 -4.265110e-02 -1.017199e+00 2.300643e+00 1.101623e-01 3.768014e-01 6.665166e-02 1.754643e+00 -1.651032e-01 5.127518e-01 -1.518503e+00 1.348997e-02 -1.284824e-01 -2.809685e-02 -1.256666e-01 -1.853901e-02 -1.344439e-01 2.316503e-02 -5.270194e-02 8.213060e-02 -1.315537e-02 9.560477e-02 -4.896380e-02 3.621818e-01
<VARIANCE> 39
 7.634006e+00 9.308969e+00 4.012410e+01 2.114285e+01 7.481555e+01 1.243587e+02 1.787140e+01 1.690618e+01 2.141379e+01 1.224413e+02 3.371261e+01 2.873369e+01 4.497519e+01 9.901371e-01 8.944795e-01 2.599845e+00 2.141373e+00 4.465765e+00 2.325573e+00 2.328989e+00 1.884245e+00 2.009571e+00 5.400060e+00 2.603503e+00 2.200171e+00 1.578039e+00 2.387435e-01 1.709595e-01 7.165809e-01 5.614909e-01 9.001507e-01 5.453165e-01 4.791440e-01 3.446154e-01 4.049062e-01 1.193324e+00 4.542118e-01 4.132382e-01 3.790815e-01
<GCONST> 1.160956e+02
<STATE> 4
<MEAN> 39
 -2.146740e+01 -7.810069e+00 2.119012e+00 -1.401335e+01 3.680782e+00 -7.501532e+00 -3.154621e-01 -5.364251e+00 1.800490e+00 -5.760280e+00 1.297933e+00 -4.783576e+00 7.927150e+01 -2.182461e+00 -1.047930e+00 1.134932e+00 -2.124378e+00 1.230928e+00 -1.142654e+00 4.569494e-01 -1.309089e+00 1.511847e+00 -8.607962e-01 9.479718e-01 -1.045930e+00 5.347072e+00 2.792181e-01 2.240997e-01 1.760465e-01 4.785377e-01 -3.166339e-01 1.423441e-02 -6.339270e-02 -2.200674e-01 2.054141e-02 9.383724e-02 -9.174908e-02 4.881119e-02 -9.752308e-02
<VARIANCE> 39
 5.126792e+01 2.562683e+01 3.197387e+01 5.522342e+01 3.992899e+01 2.203682e+01 2.050206e+01 2.262226e+01 2.578147e+01 1.790485e+01 1.107966e+01 2.037381e+01 2.162709e+02 3.339632e+00 2.804891e+00 3.432122e+00 6.525016e+00 4.938071e+00 1.640474e+00 2.922324e+00 1.689438e+00 1.467618e+00 1.832099e+00 1.086853e+00 1.733483e+00 9.737737e+00 1.213563e+00 6.303842e-01 7.695620e-01 1.598605e+00 1.076027e+00 5.059521e-01 5.372909e-01 3.474650e-01 4.861051e-01 4.903758e-01 2.368569e-01 4.255260e-01 3.906115e+00
<GCONST> 1.244043e+02
<STATE> 5
<MEAN> 39
 -1.564312e+01 -8.252324e+00 8.061175e+00 -9.806730e+00 1.561827e+00 -8.432781e+00 2.008359e+00 -1.052333e+01 3.801929e+00 -4.266170e+00 4.019231e+00 -7.459480e+00 8.402093e+01 1.013751e+00 3.721454e-01 -1.924462e-01 8.676227e-01 -4.039770e-01 5.513015e-01 -1.030797e-01 4.488554e-01 -5.165413e-01 5.113016e-01 -2.503419e-01 2.446853e-01 -1.885668e+00 -6.106777e-02 1.052258e-03 -1.022920e-01 -3.839141e-02 6.662201e-02 9.153125e-02 3.647060e-03 1.486452e-01 -3.298480e-02 -2.527959e-02 -7.141805e-02 4.006533e-02 -1.830425e-01
<VARIANCE> 39
 4.073016e+01 1.572854e+01 1.931618e+01 2.218090e+01 1.289369e+01 1.849324e+01 2.065793e+01 2.692229e+01 2.525036e+01 2.080260e+01 1.420701e+01 1.467135e+01 1.358277e+02 1.211098e+00 1.311752e+00 1.811323e+00 1.209948e+00 1.241649e+00 1.981037e+00 2.227133e+00 1.926108e+00 1.617978e+00 1.382073e+00 1.573742e+00 1.536556e+00 2.053740e+00 1.991945e-01 2.677478e-01 2.716192e-01 2.751776e-01 2.476068e-01 4.192065e-01 3.671092e-01 2.857502e-01 2.873900e-01 2.746276e-01 2.861807e-01 2.558964e-01 2.858711e-01
<GCONST> 1.020707e+02
<TRANSP> 6
 0.000000e+00 1.000000e+00 0.000000e+00 0.000000e+00 0.000000e+00 0.000000e+00
 0.000000e+00 9.380010e-01 6.199906e-02 0.000000e+00 0.000000e+00 0.000000e+00
 0.000000e+00 0.000000e+00 9.304984e-01 6.950165e-02 0.000000e+00 0.000000e+00
 0.000000e+00 0.000000e+00 0.000000e+00 8.446534e-01 1.553466e-01 0.000000e+00
 0.000000e+00 0.000000e+00 0.000000e+00 0.000000e+00 9.380624e-01 6.193764e-02
 0.000000e+00 0.000000e+00 0.000000e+00 0.000000e+00 0.000000e+00 0.000000e+00
<ENDHMM>
