~o
<STREAMINFO> 1 39
<VECSIZE> 39<NULLD><MFCC_D_A_0><DIAGC>
~h "minus"
<BEGINHMM>
<NUMSTATES> 6
<STATE> 2
<MEAN> 39
 -2.268984e+00 7.853991e+00 -9.722107e-01 -1.342412e+01 5.119064e+00 -1.436511e+01 2.820276e+00 -8.242890e+00 -2.127240e+01 -1.778854e+01 -1.273878e+01 -5.602500e+00 7.690545e+01 1.193827e+00 -6.455193e-01 -2.137100e+00 -1.625197e+00 -1.810255e+00 -2.446003e+00 5.323457e-01 -9.420070e-01 4.380949e-01 -1.435241e+00 2.248404e+00 3.576577e-01 3.842740e+00 -7.261065e-01 -9.675069e-01 -4.612010e-01 1.508400e-01 -3.248084e-01 3.521615e-01 -1.540850e-02 9.427997e-02 8.446816e-01 8.067070e-01 8.093228e-01 3.393438e-01 -4.685238e-02
<VARIANCE> 39
 9.191920e+00 1.661116e+01 3.256734e+01 3.049610e+01 5.331323e+01 5.809678e+01 1.496087e+01 2.794678e+01 6.051625e+01 2.306856e+01 7.141345e+01 2.202921e+01 5.540667e+01 3.670847e+00 6.885920e+00 3.724460e+00 2.631104e+00 5.074768e+00 4.615113e+00 1.968981e+00 1.756539e+00 1.279655e+01 6.574000e+00 1.066675e+01 2.801977e+00 2.734804e+00 2.662507e-01 5.964472e-01 7.068571e-01 6.382013e-01 1.067889e+00 1.504804e+00 3.279957e-01 4.077496e-01 1.852102e+00 8.485743e-01 2.088477e+00 5.804896e-01 5.747283e-01
<GCONST> 1.309572e+02
<STATE> 3
<MEAN> 39
 -6.657997e+00 1.363255e+00 -4.035319e+00 -1.169370e+01 2.478295e+00 -2.220824e+01 -2.883204e+00 -1.198964e+01 -1.153816e+01 -1.152557e+01 -9.194775e-01 -1.113660e+01 8.773454e+01 -1.175551e-01 -1.635842e-02 1.671114e-01 1.123049e-01 3.129932e-01 -1.271923e-02 -3.072188e-01 -7.941572e-02 1.330183e-01 4.446240e-01 3.887535e-01 -5.823692e-02 3.984089e-02 4.945277e-02 2.238901e-02 5.028762e-02 -6.396885e-03 6.028623e-02 -2.318346e-03 -1.438319e-02 6.185852e-02 -1.501382e-02 2.085801e-02 -1.700849e-02 3.635811e-02 -7.108456e-02
<VARIANCE> 39
 1.048382e+01 3.486710e+01 7.288750e+01 2.380677e+01 1.852594e+01 7.896447e+01 3.768370e+01 1.726228e+01 2.423334e+01 3.303650e+01 3.584853e+01 3.480173e+01 4.694789e+01 1.325735e+00 2.671025e+00 2.828961e+00 1.418770e+00 1.346970e+00 7.243155e+00 1.542253e+00 1.869913e+00 1.592827e+00 2.779581e+00 4.752653e+00 2.264169e+00 2.828219e+00 2.729855e-01 3.948984e-01 3.484661e-01 2.615353e-01 3.078904e-01 1.192174e+00 2.739210e-01 3.930351e-01 3.068401e-01 4.161243e-01 7.684708e-01 3.094133e-01 3.841911e-01
<GCONST> 1.150562e+02
<STATE> 4
<MEAN> 39
 -9.121910e+00 -2.143026e+00 1.001462e+00 -1.450320e+01 7.146274e+00 -1.635695e+01 -4.713374e+00 -1.089704e+01 -9.813018e+00 -4.968717e+00 9.873856e+00 1.295650e+00 8.572627e+01 -1.121938e+00 -4.059935e-01 6.535379e-01 -1.935319e-01 -1.149363e-01 8.408848e-01 1.193799e-01 2.546349e-01 5.880217e-01 -6.339040e-03 -3.658586e-01 -5.361397e-02 -1.385447e-01 -2.930074e-01 7.158956e-03 6.419044e-04 -1.814837e-02 -8.198164e-02 3.679151e-02 5.651988e-02 1.634097e-02 8.219655e-02 -4.645956e-02 -1.210889e-01 -1.612672e-01 6.963842e-02
<VARIANCE> 39
 3.229961e+01 3.436162e+01 3.839082e+01 1.184073e+01 1.254247e+01 4.298228e+01 3.066319e+01 1.680286e+01 2.573143e+01 2.529789e+01 2.658322e+01 2.358729e+01 2.323786e+01 4.166716e+00 4.177985e+00 1.303753e+00 1.061544e+00 1.385479e+00 1.876372e+00 1.426933e+00 1.749350e+00 3.759029e+00 1.892271e+00 1.676952e+00 3.153318e+00 1.860866e+00 3.922408e-01 7.273694e-01 3.219008e-01 2.158180e-01 2.803692e-01 3.494316e-01 2.616639e-01 2.962347e-01 5.549318e-01 3.597422e-01 3.134270e-01 3.098136e-01 2.673195e-01
<GCONST> 1.086448e+02
<STATE> 5
<MEAN> 39
 -3.261040e+01 -6.163839e+00 3.185455e+00 -1.759087e+01 8.419781e+00 -8.518205e+00 2.689093e+00 -3.924636e+00 2.072121e+00 -3.135454e+00 2.805180e+00 -5.140190e+00 8.399699e+01 2.780291e-01 1.594671e-01 -1.864642e-01 1.606629e-01 -1.622845e-02 -6.440452e-02 1.515733e-01 2.437568e-01 -1.084527e-01 1.293042e-01 -1.760004e-01 1.300100e-01 -9.096963e-01 2.522635e-01 5.499591e-02 -1.143230e-02 9.855452e-02 2.665885e-02 1.360950e-02 -7.076302e-02 -8.457565e-03 -1.332707e-01 1.977372e-02 -3.056080e-02 8.213160e-02 -1.532347e-01
<VARIANCE> 39
 2.681186e+01 1.711929e+01 1.869021e+01 1.882221e+01 2.163859e+01 1.696548e+01 1.814987e+01 1.924011e+01 1.521154e+01 1.063645e+01 1.139517e+01 1.288664e+01 6.168683e+01 3.039659e+00 9.847509e-01 1.324492e+00 1.679832e+00 1.738006e+00 1.459482e+00 1.256690e+00 1.557713e+00 1.061867e+00 8.907566e-01 9.130749e-01 8.487985e-01 2.007859e+00 3.049056e-01 2.039521e-01 2.031814e-01 2.707160e-01 3.085151e-01 3.175839e-01 2.218324e-01 2.549999e-01 2.096883e-01 1.611120e-01 1.653992e-01 1.836936e-01 1.784812e-01
<GCONST> 9.403535e+01
<TRANSP> 6
 0.000000e+00 1.000000e+00 0.000000e+00 0.000000e+00 0.000000e+00 0.000000e+00
 0.000000e+00 8.181307e-01 1.818694e-01 0.000000e+00 0.000000e+00 0.000000e+00
 0.000000e+00 0.000000e+00 9.676807e-01 3.231929e-02 0.000000e+00 0.000000e+00
 0.000000e+00 0.000000e+00 0.000000e+00 9.430859e-01 5.691413e-02 0.000000e+00
 0.000000e+00 0.000000e+00 0.000000e+00 0.000000e+00 9.601434e-01 3.985658e-02
 0.000000e+00 0.000000e+00 0.000000e+00 0.000000e+00 0.000000e+00 0.000000e+00
<ENDHMM>
