~o
<STREAMINFO> 1 39
<VECSIZE> 39<NULLD><MFCC_D_A_0><DIAGC>
~h "three"
<BEGINHMM>
<NUMSTATES> 6
<STATE> 2
<MEAN> 39
 -1.622958e+01 -6.551738e+00 3.956961e-01 -1.113201e+01 1.807235e+00 -1.166681e+01 -3.816385e+00 -9.516300e+00 -4.194117e-01 -7.527692e+00 5.044245e-01 -6.844331e+00 8.579221e+01 1.581769e+00 2.043797e+00 5.961838e-01 8.383142e-01 1.676857e+00 -2.664412e+00 -1.125707e+00 -2.020502e+00 -1.900110e+00 -7.305439e-01 -1.126218e+00 -7.067867e-01 2.828431e+00 6.112375e-01 8.735752e-01 -1.019283e-01 9.542000e-01 4.500105e-01 -2.859233e-02 5.810175e-02 8.075835e-02 -6.657844e-01 1.428229e-01 -5.093652e-01 4.504125e-01 -1.490705e+00
<VARIANCE> 39
 1.464232e+01 3.908038e+01 9.891258e+00 4.553781e+01 3.449166e+01 2.536414e+01 1.990046e+01 2.628490e+01 3.955750e+01 2.810284e+01 2.606199e+01 1.953207e+01 9.180083e+01 3.788828e+00 7.966502e+00 1.191664e+00 1.115005e+01 3.301200e+00 2.529907e+00 1.148326e+00 2.319902e+00 7.441960e+00 3.258906e+00 3.675167e+00 2.597411e+00 2.113837e+01 3.671706e-01 1.045533e+00 2.979810e-01 1.533554e+00 5.860837e-01 3.953687e-01 4.328416e-01 4.174514e-01 9.531955e-01 8.253192e-01 5.046711e-01 5.132556e-01 2.463714e+00
<GCONST> 1.269258e+02
<STATE> 3
<MEAN> 39
 -3.678269e+00 8.196674e+00 -7.154220e+00 -9.641594e+00 1.393521e+01 -2.158117e+01 -9.202523e-01 -1.691744e+01 -1.114335e+01 -1.090160e+01 -7.902184e+00 -2.507507e+00 8.628268e+01 2.759404e-01 1.115303e-01 -5.854452e-01 2.408184e-01 9.536077e-02 -4.519361e-01 -1.633449e-02 -1.896487e-01 3.073797e-01 -9.474038e-03 6.425852e-02 -6.909458e-02 1.354146e-01 -1.932736e-01 -1.930486e-01 9.978493e-02 1.698941e-02 -1.727095e-01 6.208653e-02 -1.654875e-02 1.536768e-01 2.125920e-01 -2.018728e-02 9.873206e-02 -1.347651e-01 4.495874e-02
<VARIANCE> 39
 6.786152e+00 1.089195e+01 3.340181e+01 4.401189e+01 2.946169e+01 3.603455e+01 3.985903e+01 2.235622e+01 3.329227e+01 2.219835e+01 2.606674e+01 2.088410e+01 1.525884e+01 8.775877e-01 1.650780e+00 1.235435e+00 3.894163e+00 4.122624e+00 3.518344e+00 3.965296e+00 2.313024e+00 2.825092e+00 2.454511e+00 2.373444e+00 2.320616e+00 7.202731e-01 1.240996e-01 2.174444e-01 2.251670e-01 5.290729e-01 7.545431e-01 8.192458e-01 5.985897e-01 4.914505e-01 4.889017e-01 5.177698e-01 3.465481e-01 3.019601e-01 1.150548e-01
<GCONST> 1.095721e+02
<STATE> 4
<MEAN> 39
 -1.060613e+01 2.837217e+00 6.542407e+00 2.495175e+00 5.835156e+00 -2.936282e+01 -6.713032e+00 -7.581601e+00 -2.914197e+00 -1.837043e+01 -7.416562e-01 -8.220209e+00 8.791142e+01 -6.513698e-01 5.292581e-02 1.957294e+00 2.641611e-01 -1.197330e-01 -1.181187e-01 4.930400e-01 9.643373e-01 -1.140365e-01 -9.092545e-01 1.428723e-01 4.560926e-03 -6.180776e-01 3.953740e-02 2.225192e-02 -3.094137e-02 -1.135202e-01 9.304197e-02 1.560805e-01 1.633725e-01 -9.489364e-02 -9.290010e-02 9.873283e-02 -3.508694e-02 9.424042e-02 -1.208965e-01
<VARIANCE> 39
 8.594038e+00 1.955812e+01 9.280472e+01 8.466522e+00 1.302742e+01 2.820886e+01 1.963484e+01 4.527346e+01 2.397233e+01 4.311160e+01 1.366084e+01 1.853463e+01 1.482507e+01 2.294976e-01 1.027398e+00 1.472872e+00 7.190062e-01 1.294760e+00 3.395959e+00 1.420875e+00 1.998355e+00 1.488550e+00 2.164146e+00 9.720014e-01 2.010819e+00 6.394646e-01 3.665771e-02 1.779916e-01 3.071711e-01 1.590113e-01 1.748003e-01 7.705594e-01 1.633209e-01 3.066216e-01 3.398934e-01 4.140503e-01 2.188353e-01 4.387330e-01 5.440634e-02
<GCONST> 9.360035e+01
<STATE> 5
<MEAN> 39
 -1.507600e+01 -9.980629e-01 1.388694e+01 8.644413e-01 4.350016e+00 -1.530856e+01 9.631099e-01 -2.201252e+00 -5.192330e+00 -1.256169e+01 -1.750211e+00 -5.156734e+00 7.043530e+01 1.919859e-01 -7.162467e-01 -1.618350e+00 -5.318243e-01 -6.529450e-01 2.160452e+00 -1.152540e-01 2.416713e-01 -1.694966e-02 1.566401e+00 -1.411080e-01 6.034843e-01 -1.431275e+00 5.542153e-02 1.717950e-02 -1.897321e-01 -8.379438e-02 -6.371669e-02 -1.591955e-02 -1.098112e-01 1.476926e-02 3.636387e-02 1.264974e-03 2.487069e-02 7.082244e-02 8.731519e-02
<VARIANCE> 39
 6.006593e+00 2.766450e+01 8.735876e+01 2.766304e+01 2.780206e+01 1.139765e+02 2.713659e+01 3.028108e+01 2.336918e+01 7.079536e+01 1.350742e+01 2.156940e+01 4.880197e+01 9.985162e-01 1.616101e+00 6.222111e+00 2.554926e+00 2.060496e+00 4.690767e+00 2.412475e+00 1.878556e+00 2.069156e+00 2.765020e+00 1.600989e+00 1.916240e+00 8.792592e-01 1.349650e-01 3.249077e-01 1.232787e+00 5.023943e-01 4.615334e-01 9.516426e-01 4.645791e-01 2.635778e-01 4.094516e-01 5.484037e-01 3.194426e-01 4.425720e-01 1.501755e-01
<GCONST> 1.142124e+02
<TRANSP> 6
 0.000000e+00 1.000000e+00 0.000000e+00 0.000000e+00 0.000000e+00 0.000000e+00
 0.000000e+00 7.777904e-01 2.222096e-01 0.000000e+00 0.000000e+00 0.000000e+00
 0.000000e+00 0.000000e+00 9.498534e-01 5.014661e-02 0.000000e+00 0.000000e+00
 0.000000e+00 0.000000e+00 0.000000e+00 9.356183e-01 6.438174e-02 0.000000e+00
 0.000000e+00 0.000000e+00 0.000000e+00 0.000000e+00 9.201661e-01 7.983385e-02
 0.000000e+00 0.000000e+00 0.000000e+00 0.000000e+00 0.000000e+00 0.000000e+00
<ENDHMM>
