~o
<STREAMINFO> 1 39
<VECSIZE> 39<NULLD><MFCC_D_A_0><DIAGC>
~h "five"
<BEGINHMM>
<NUMSTATES> 6
<STATE> 2
<MEAN> 39
 -1.959784e+01 -7.712425e+00 -5.313875e+00 -1.283556e+01 3.338193e+00 -9.710168e+00 2.052203e+00 -7.638886e+00 -5.031420e-01 -7.707201e+00 3.293827e+00 -5.476082e+00 8.271145e+01 6.686168e-01 2.179737e-01 -1.991757e-01 -4.201857e-01 -5.292097e-01 -5.686314e-01 1.194702e-01 3.269900e-02 -1.514663e-01 -6.233652e-01 -3.048123e-01 1.570737e-01 1.212799e+00 7.780888e-02 2.575143e-02 7.540980e-03 2.792809e-02 -5.802193e-02 1.152645e-02 -5.046402e-02 9.791087e-02 3.539843e-02 -9.912027e-03 -7.875433e-03 4.475433e-02 -5.493839e-02
<VARIANCE> 39
 8.353025e+01 3.360755e+01 1.636692e+01 1.646587e+01 3.477266e+01 2.993265e+01 2.293801e+01 1.928336e+01 2.569014e+01 3.174034e+01 2.212988e+01 1.596445e+01 5.655317e+01 6.257139e+00 3.309470e+00 1.928162e+00 1.024821e+00 2.933248e+00 2.492530e+00 2.452683e+00 2.016309e+00 2.690423e+00 2.614801e+00 2.775545e+00 1.458981e+00 1.526164e+00 7.327814e-01 6.703500e-01 3.568425e-01 2.210804e-01 4.946978e-01 5.588428e-01 4.711987e-01 4.061635e-01 5.497856e-01 4.734977e-01 6.009455e-01 2.612592e-01 2.372402e-01
<GCONST> 1.151057e+02
<STATE> 3
<MEAN> 39
 -3.596903e+00 -4.290521e+00 -9.868478e+00 -1.683567e+01 -1.870615e+00 -1.198983e+01 1.992120e+00 -2.940431e+00 -1.915522e-01 -1.542652e+01 5.128028e-01 1.200043e-02 9.330951e+01 -2.502260e-01 -2.588009e-01 1.088294e-01 1.881340e-01 7.840646e-01 -4.041151e-01 -3.732616e-01 5.235928e-02 7.114737e-01 1.978431e-01 4.805639e-01 -1.798344e-01 4.802865e-02 -7.583570e-02 5.537229e-02 1.900981e-01 7.944465e-02 8.716880e-02 -2.188271e-01 -7.715257e-02 -6.213701e-02 1.096850e-02 4.565417e-02 -1.720896e-02 -9.707753e-02 -1.068021e-01
<VARIANCE> 39
 7.471267e+00 1.254240e+01 9.644728e+00 1.592531e+01 3.355030e+01 3.967241e+01 2.236585e+01 1.870598e+01 2.529840e+01 4.338173e+01 2.432937e+01 1.435457e+01 7.258919e+00 3.324220e-01 6.466949e-01 1.020540e+00 1.512708e+00 1.606058e+00 4.678746e+00 1.884985e+00 1.470708e+00 1.990477e+00 1.997089e+00 1.178910e+00 1.275083e+00 2.961272e-01 6.533748e-02 1.284910e-01 1.125725e-01 2.991087e-01 3.428478e-01 4.103087e-01 2.744013e-01 2.479798e-01 3.849870e-01 4.194586e-01 2.208689e-01 1.975662e-01 6.827381e-02
<GCONST> 9.136523e+01
<STATE> 4
<MEAN> 39
 -1.091903e+01 -3.962907e+00 5.441537e+00 -6.760047e+00 1.017081e+01 -2.966018e+01 -8.465083e+00 -6.156135e+00 2.537403e+00 -1.397958e+01 -2.944089e-01 -6.317477e+00 8.299880e+01 -4.795547e-01 -1.043423e-01 3.641664e-01 4.015497e-01 2.168993e-01 7.675012e-01 -4.252999e-02 -2.161615e-01 -5.603060e-01 3.066492e-01 -5.061750e-01 -1.857228e-01 -1.231297e+00 -1.554332e-01 3.180926e-03 -2.235960e-01 -1.500492e-01 -1.400290e-01 3.727037e-01 2.667289e-01 -2.554738e-02 -5.423929e-02 -2.497694e-02 1.129917e-01 1.046592e-01 9.978399e-02
<VARIANCE> 39
 1.394430e+01 2.965771e+01 4.768192e+01 3.183780e+01 3.398116e+01 8.635318e+01 2.171681e+01 1.955956e+01 4.817098e+01 5.257968e+01 5.601033e+01 2.748323e+01 5.680103e+01 1.807452e+00 2.348206e+00 5.238237e+00 2.228709e+00 2.797086e+00 1.016637e+01 3.513879e+00 1.494704e+00 2.776528e+00 5.829992e+00 3.259248e+00 2.096482e+00 1.106098e+00 4.681006e-01 4.227768e-01 5.411153e-01 2.835144e-01 5.244839e-01 1.145440e+00 6.000259e-01 3.079571e-01 6.642914e-01 1.154576e+00 6.163065e-01 4.693245e-01 2.413320e-01
<GCONST> 1.233748e+02
<STATE> 5
<MEAN> 39
 -2.364495e+01 -6.306966e+00 -1.588065e+00 -1.041172e+01 7.700320e+00 -7.211881e+00 9.304976e-01 -7.570491e+00 -1.647049e+00 -7.586678e+00 1.816331e+00 -5.249490e+00 7.438638e+01 3.562235e-02 9.424348e-02 6.589637e-03 1.751429e-01 -4.478180e-01 3.880464e-01 1.166297e-01 2.982378e-01 -9.247619e-02 2.472337e-01 -4.761055e-02 1.986022e-01 -5.712109e-01 1.694223e-01 -6.458861e-03 4.921354e-02 1.163333e-01 1.703014e-03 -6.846722e-02 -1.295866e-01 4.802978e-02 -1.085301e-02 1.531956e-02 -1.105580e-01 9.418223e-03 -7.063164e-02
<VARIANCE> 39
 5.271666e+01 2.544585e+01 1.345875e+01 3.110635e+01 3.003829e+01 3.632917e+01 2.019830e+01 2.667529e+01 2.352033e+01 2.017534e+01 2.626723e+01 1.758466e+01 5.821659e+01 3.769447e+00 1.548359e+00 1.289923e+00 2.329755e+00 2.354526e+00 1.945588e+00 1.732269e+00 1.634869e+00 1.535914e+00 1.913375e+00 2.327820e+00 1.376356e+00 2.355542e+00 2.509504e-01 2.044460e-01 2.135548e-01 3.314705e-01 3.860278e-01 3.961319e-01 2.661285e-01 2.740043e-01 2.929599e-01 4.013992e-01 3.447022e-01 2.369893e-01 2.272757e-01
<GCONST> 1.068473e+02
<TRANSP> 6
 0.000000e+00 1.000000e+00 0.000000e+00 0.000000e+00 0.000000e+00 0.000000e+00
 0.000000e+00 9.514099e-01 4.859013e-02 0.000000e+00 0.000000e+00 0.000000e+00
 0.000000e+00 0.000000e+00 9.428434e-01 5.715657e-02 0.000000e+00 0.000000e+00
 0.000000e+00 0.000000e+00 0.000000e+00 9.361715e-01 6.382849e-02 0.000000e+00
 0.000000e+00 0.000000e+00 0.000000e+00 0.000000e+00 9.538257e-01 4.617431e-02
 0.000000e+00 0.000000e+00 0.000000e+00 0.000000e+00 0.000000e+00 0.000000e+00
<ENDHMM>
