~o
<STREAMINFO> 1 39
<VECSIZE> 39<NULLD><MFCC_D_A_0><DIAGC>
~h "one"
<BEGINHMM>
<NUMSTATES> 6
<STATE> 2
<MEAN> 39
 -4.871307e+00 1.063307e+01 1.185718e+00 -1.335070e+01 -4.835709e+00 -1.775595e+01 -2.205374e+00 -4.054635e+00 -6.147853e+00 -9.078905e+00 -5.534411e+00 -9.015072e+00 8.117702e+01 6.660661e-01 -8.391635e-01 -1.009336e+00 -3.276230e-01 -9.314889e-01 -2.737863e-02 -7.364553e-04 1.936038e-01 2.283494e-01 -7.805265e-02 -1.533735e-01 3.436691e-01 2.447477e+00 -2.096278e-01 -3.285086e-01 -1.657066e-01 1.278248e-01 1.747651e-01 2.920861e-01 1.235987e-01 1.342978e-01 2.118482e-01 1.045632e-01 1.064803e-01 1.519567e-01 -1.593248e-01
<VARIANCE> 39
 1.962140e+01 5.302665e+01 2.905121e+01 4.805204e+01 6.225013e+01 6.298660e+01 5.971731e+01 2.465861e+01 2.631124e+01 4.338597e+01 2.300672e+01 2.913620e+01 9.312150e+01 1.737897e+00 8.680924e+00 2.790204e+00 3.479338e+00 5.610584e+00 6.278150e+00 2.955820e+00 2.101925e+00 3.945455e+00 5.166147e+00 2.071532e+00 2.438745e+00 2.823491e+00 2.926125e-01 1.513869e+00 5.563434e-01 6.838053e-01 1.089774e+00 9.664630e-01 5.121381e-01 3.745489e-01 7.394606e-01 1.010268e+00 4.960411e-01 3.670557e-01 5.416825e-01
<GCONST> 1.295761e+02
<STATE> 3
<MEAN> 39
 -5.892302e+00 2.886846e+00 -5.740782e+00 -1.522076e+01 -1.748225e+00 -1.299226e+01 1.668503e+00 -1.642075e+00 -4.478535e+00 -1.285827e+01 4.729210e+00 7.115828e-02 9.298245e+01 -4.319747e-01 5.050562e-01 3.944633e-01 7.934763e-02 1.208524e+00 -1.209022e-01 2.828200e-01 -4.910114e-01 -5.125028e-01 -3.705227e-01 1.863887e+00 1.253704e-01 -3.819348e-01 3.232609e-03 1.819706e-01 2.200900e-01 1.506959e-01 1.423603e-01 -1.911571e-02 -1.176692e-01 -1.417151e-01 -7.754213e-02 1.050979e-01 -1.633054e-01 -1.433474e-01 -2.588962e-01
<VARIANCE> 39
 5.286368e+00 1.245352e+01 1.588890e+01 1.128176e+01 3.610426e+01 2.369063e+01 3.266962e+01 3.134379e+01 4.689942e+01 3.050963e+01 9.812312e+01 2.334054e+01 4.543557e+00 1.759589e-01 8.485420e-01 1.210331e+00 1.429267e+00 1.751711e+00 2.037591e+00 1.477981e+00 2.644151e+00 2.103363e+00 2.913785e+00 3.570501e+00 2.760448e+00 6.331062e-01 4.448562e-02 1.898988e-01 1.866201e-01 3.352975e-01 2.768814e-01 5.073954e-01 1.763171e-01 4.242970e-01 4.808931e-01 5.138655e-01 1.032217e+00 3.327414e-01 9.868661e-02
<GCONST> 9.929487e+01
<STATE> 4
<MEAN> 39
 -7.734491e+00 5.279061e+00 3.898026e+00 -5.904926e+00 1.680365e+01 -1.032198e+01 -3.075423e+00 -7.542041e+00 -4.543493e+00 -7.601338e+00 6.484028e+00 -5.314011e+00 7.757734e+01 2.979825e-01 -5.218328e-01 5.603913e-01 1.089834e+00 6.368775e-01 7.502888e-01 -5.658787e-01 -1.710309e-02 2.982933e-01 6.529031e-01 -1.362355e+00 -1.288066e-01 -1.521160e+00 6.755984e-02 -1.253346e-01 -2.090722e-01 -7.962582e-02 -3.573067e-01 -5.570013e-02 3.193617e-02 9.491070e-02 -1.090072e-02 -4.747048e-02 1.008859e-01 5.364120e-02 1.071566e-01
<VARIANCE> 39
 1.624581e+01 1.475486e+01 1.645654e+01 2.900889e+01 4.043676e+01 3.867550e+01 2.489943e+01 2.283712e+01 5.930121e+01 2.797487e+01 7.660488e+01 1.382881e+01 2.994023e+01 6.093657e-01 6.025469e-01 1.397955e+00 3.357064e+00 4.309354e+00 2.231129e+00 1.793729e+00 2.299106e+00 2.023403e+00 2.157293e+00 3.726267e+00 9.771830e-01 1.269448e+00 1.173489e-01 1.421726e-01 2.157075e-01 6.718134e-01 6.147565e-01 4.246471e-01 3.215184e-01 3.965285e-01 3.468122e-01 3.878824e-01 7.504175e-01 1.422282e-01 1.994227e-01
<GCONST> 1.067470e+02
<STATE> 5
<MEAN> 39
 -5.680830e+00 8.385528e-01 4.008591e+00 3.276917e+00 8.540114e+00 -3.320642e+00 -6.557133e+00 -6.943211e+00 -5.368155e+00 -1.453538e+00 1.012244e+00 -5.356281e+00 6.692094e+01 -3.866264e-01 -3.198815e-01 -2.037318e-01 3.056265e-01 -7.547147e-01 4.980163e-01 1.085544e-01 2.948329e-01 8.755387e-02 3.923272e-01 -2.314730e-01 6.520862e-02 -6.806684e-01 -7.351899e-02 1.849608e-02 3.702417e-02 -1.171768e-01 1.149878e-01 -3.967056e-02 5.374938e-02 2.409444e-02 1.957252e-02 -5.104487e-02 5.474086e-03 2.891292e-02 4.727452e-02
<VARIANCE> 39
 1.564262e+01 1.953904e+01 1.637941e+01 8.239560e+00 2.782844e+01 1.830123e+01 2.531606e+01 2.115892e+01 1.978411e+01 5.427836e+01 2.464017e+01 2.083062e+01 1.459690e+01 6.578182e-01 7.049474e-01 9.343113e-01 9.757998e-01 1.673471e+00 1.483606e+00 1.796152e+00 1.690711e+00 1.465172e+00 1.979409e+00 1.248807e+00 1.550401e+00 2.093111e-01 8.006416e-02 1.169335e-01 1.433136e-01 1.410403e-01 2.583474e-01 2.948375e-01 2.920263e-01 3.490223e-01 2.705712e-01 3.478385e-01 2.578999e-01 3.184493e-01 3.477480e-02
<GCONST> 9.039016e+01
<TRANSP> 6
 0.000000e+00 1.000000e+00 0.000000e+00 0.000000e+00 0.000000e+00 0.000000e+00
 0.000000e+00 8.940787e-01 1.059214e-01 0.000000e+00 0.000000e+00 0.000000e+00
 0.000000e+00 0.000000e+00 9.217125e-01 7.828752e-02 0.000000e+00 0.000000e+00
 0.000000e+00 0.000000e+00 0.000000e+00 9.111908e-01 8.880917e-02 0.000000e+00
 0.000000e+00 0.000000e+00 0.000000e+00 0.000000e+00 9.243891e-01 7.561100e-02
 0.000000e+00 0.000000e+00 0.000000e+00 0.000000e+00 0.000000e+00 0.000000e+00
<ENDHMM>
