~o
<STREAMINFO> 1 39
<VECSIZE> 39<NULLD><MFCC_D_A_0><DIAGC>
~h "plus"
<BEGINHMM>
<NUMSTATES> 6
<STATE> 2
<MEAN> 39
 -1.124422e+01 -3.777488e+00 -4.833823e+00 -1.182897e+01 -5.951334e+00 -1.121371e+01 3.246986e+00 -1.500657e+01 -8.167088e+00 -9.806506e+00 2.223444e+00 -1.138021e+00 8.536790e+01 8.715805e-01 7.171684e-01 -9.200981e-01 -4.983413e-01 -6.032491e-01 -1.232005e+00 2.807788e-01 -7.633284e-01 -1.154135e+00 -7.063550e-01 -2.046913e-01 1.489074e-01 1.375456e+00 4.948129e-02 2.915379e-02 -6.001023e-02 7.693005e-02 1.284510e-01 1.312278e-02 -7.634949e-02 2.509456e-01 1.342062e-01 1.407191e-01 -1.393246e-01 -3.922796e-02 -4.047170e-01
<VARIANCE> 39
 3.124541e+01 5.944459e+01 1.979076e+01 1.304159e+01 2.129735e+01 5.753947e+01 2.564464e+01 2.652509e+01 5.445679e+01 3.743231e+01 3.172965e+01 1.550344e+01 1.451866e+01 2.431880e+00 5.845944e+00 1.877488e+00 1.616621e+00 1.595574e+00 3.939114e+00 1.598918e+00 2.353349e+00 4.230390e+00 3.179499e+00 3.540033e+00 1.634178e+00 2.586076e+00 5.290551e-01 1.232122e+00 3.584121e-01 3.020146e-01 2.725917e-01 7.540132e-01 3.061998e-01 4.486026e-01 1.036980e+00 6.205749e-01 7.860702e-01 3.167659e-01 6.007112e-01
<GCONST> 1.185579e+02
<STATE> 3
<MEAN> 39
 -3.831400e+00 -5.617623e+00 -1.700405e+01 -1.640097e+01 2.494499e-01 -1.520786e+01 2.768687e+00 -1.306533e+01 -1.143076e+00 -1.261064e+01 3.793583e+00 -2.314800e+00 8.851463e+01 6.088961e-02 -4.838594e-01 -1.078363e-01 -2.167521e-01 5.927315e-01 4.211596e-01 -8.738949e-02 1.120751e-01 1.291153e+00 -1.323181e-01 2.778788e-01 1.965929e-01 -6.099147e-01 -8.067867e-02 1.551602e-01 1.630947e-01 1.618408e-02 -4.309205e-02 5.074326e-02 -3.292907e-02 -8.684134e-02 -8.017948e-02 -3.278508e-02 -6.734319e-03 6.704312e-02 -1.343650e-01
<VARIANCE> 39
 4.095700e+00 1.809086e+01 2.205465e+01 1.319572e+01 2.522104e+01 2.526013e+01 1.757479e+01 1.705206e+01 9.114168e+01 2.818503e+01 3.310089e+01 2.809907e+01 1.559655e+01 4.093392e-01 1.250430e+00 2.137521e+00 6.238540e-01 1.284953e+00 1.415494e+00 1.224721e+00 1.787304e+00 2.182058e+00 1.870509e+00 1.941904e+00 1.755302e+00 6.817274e-01 7.641599e-02 1.591527e-01 2.365395e-01 1.322962e-01 2.575029e-01 2.576305e-01 2.512368e-01 2.662709e-01 3.953992e-01 3.738169e-01 3.082024e-01 2.646330e-01 7.650262e-02
<GCONST> 9.421846e+01
<STATE> 4
<MEAN> 39
 -1.257150e+01 -3.702063e+00 -4.745761e+00 -1.928209e+01 5.597013e+00 -9.173226e+00 -4.429709e-01 -1.479031e+01 4.006961e+00 -1.055593e+01 6.952291e+00 1.560216e+00 7.669022e+01 -2.875751e+00 -1.930301e-01 2.148068e+00 -2.439842e-01 2.911434e-03 8.303266e-01 -3.284135e-01 1.180332e+00 -9.035438e-01 1.645477e+00 -3.467240e-01 -6.846519e-01 4.470484e-01 -4.915616e-01 -2.585230e-01 -9.085255e-02 1.073040e-01 -1.136529e-01 1.339484e-02 2.166100e-01 4.227002e-01 4.143964e-02 1.330702e-01 -1.236774e-01 -1.892942e-01 5.487672e-01
<VARIANCE> 39
 4.497358e+01 2.118885e+01 4.233318e+01 1.223661e+01 1.747714e+01 2.852960e+01 2.630206e+01 2.832266e+01 5.762717e+01 6.087238e+01 2.177410e+01 3.521365e+01 2.254901e+01 4.710417e+00 4.219380e+00 1.567661e+00 1.165791e+00 2.842048e+00 2.124999e+00 3.016225e+00 4.575274e+00 3.507602e+00 6.524113e+00 1.720880e+00 2.751204e+00 5.593743e+00 5.441188e-01 7.279845e-01 3.619052e-01 2.114847e-01 6.010650e-01 4.496932e-01 5.437535e-01 5.351965e-01 6.880063e-01 1.358486e+00 3.239422e-01 4.677371e-01 5.070486e-01
<GCONST> 1.212825e+02
<STATE> 5
<MEAN> 39
 -3.304085e+01 -5.795028e+00 2.781667e+00 -1.675019e+01 7.942843e+00 -7.646481e+00 2.914100e+00 -4.263400e+00 1.240222e+00 -3.103364e+00 1.845508e+00 -4.163557e+00 8.351782e+01 3.310888e-01 2.151385e-01 5.036105e-02 3.094967e-01 1.165437e-01 -1.182054e-01 3.889707e-02 6.460819e-02 -1.696732e-01 -3.657722e-03 -2.441904e-01 4.796921e-02 -7.914650e-01 2.523633e-01 3.568427e-02 -6.512719e-02 2.674092e-02 1.040431e-03 -1.163192e-02 -5.967384e-02 -6.229399e-02 -6.655779e-02 -2.441886e-02 -5.623454e-03 5.547673e-02 -1.730337e-01
<VARIANCE> 39
 3.581829e+01 6.885351e+00 1.137300e+01 1.384060e+01 1.781649e+01 1.680836e+01 1.575302e+01 1.211896e+01 1.114133e+01 9.140618e+00 9.055635e+00 7.126201e+00 4.665822e+01 3.336033e+00 6.342424e-01 7.413548e-01 8.734820e-01 1.454484e+00 1.399809e+00 1.558104e+00 1.571170e+00 1.241769e+00 1.325649e+00 9.473502e-01 7.372132e-01 2.250727e+00 3.631352e-01 1.429824e-01 1.330148e-01 1.548498e-01 2.432752e-01 2.427432e-01 2.780307e-01 3.533992e-01 2.321347e-01 3.426787e-01 1.866729e-01 1.310605e-01 1.466423e-01
<GCONST> 8.855131e+01
<TRANSP> 6
 0.000000e+00 1.000000e+00 0.000000e+00 0.000000e+00 0.000000e+00 0.000000e+00
 0.000000e+00 9.130254e-01 8.697464e-02 0.000000e+00 0.000000e+00 0.000000e+00
 0.000000e+00 0.000000e+00 9.433235e-01 5.667648e-02 0.000000e+00 0.000000e+00
 0.000000e+00 0.000000e+00 0.000000e+00 8.693833e-01 1.306167e-01 0.000000e+00
 0.000000e+00 0.000000e+00 0.000000e+00 0.000000e+00 9.585107e-01 4.148933e-02
 0.000000e+00 0.000000e+00 0.000000e+00 0.000000e+00 0.000000e+00 0.000000e+00
<ENDHMM>
