~o
<STREAMINFO> 1 39
<VECSIZE> 39<NULLD><MFCC_D_A_0><DIAGC>
~h "four"
<BEGINHMM>
<NUMSTATES> 6
<STATE> 2
<MEAN> 39
 -1.692572e+01 -3.900708e+00 -2.836143e+00 -1.466656e+01 4.372625e+00 -1.248906e+01 7.645599e-01 -5.126527e+00 -3.273305e+00 -6.173942e+00 8.480149e-01 -7.923326e+00 8.123294e+01 7.073251e-01 3.927059e-01 2.122781e-01 -6.556615e-01 -8.006355e-01 -1.083750e+00 -4.160323e-01 -4.478807e-01 -1.278790e-01 -2.348863e-01 -2.455677e-01 -1.883414e-01 1.047694e+00 6.130879e-02 -4.847681e-03 -3.598696e-02 1.200318e-01 -1.305646e-01 6.553330e-02 -1.139701e-01 -5.694027e-02 -6.632039e-03 6.252807e-02 3.444282e-03 1.425755e-01 -4.001359e-02
<VARIANCE> 39
 8.180933e+01 5.110620e+01 3.471107e+01 4.199498e+01 5.829018e+01 5.831994e+01 3.371989e+01 1.997218e+01 2.234333e+01 1.781360e+01 2.491045e+01 1.902185e+01 5.741778e+01 5.586328e+00 4.857882e+00 2.820406e+00 2.524890e+00 4.015128e+00 3.691143e+00 3.645124e+00 2.263137e+00 2.786565e+00 1.923997e+00 2.661561e+00 1.773117e+00 2.289825e+00 5.921113e-01 8.320881e-01 4.392512e-01 5.006980e-01 7.981219e-01 9.086090e-01 6.650284e-01 4.766419e-01 5.882890e-01 3.742519e-01 5.378013e-01 3.479641e-01 2.281243e-01
<GCONST> 1.239114e+02
<STATE> 3
<MEAN> 39
 -3.889051e-01 1.751323e+00 -7.771240e-01 -1.551423e+01 -7.699783e+00 -1.981119e+01 -9.055225e+00 -7.345606e+00 -2.184469e+00 -5.435405e+00 -7.106199e-01 -5.201546e+00 8.922518e+01 8.632802e-02 -4.244745e-01 -5.610586e-01 -3.833026e-02 -3.415811e-02 2.507763e-01 9.291969e-02 4.278050e-01 8.131872e-01 -3.089223e-01 1.780857e-01 2.372779e-01 1.512589e-01 2.650892e-04 5.902649e-02 -4.936347e-02 -1.555384e-01 9.674429e-02 2.786788e-02 1.506927e-01 -6.966032e-03 4.394382e-02 -1.122159e-01 -6.588899e-02 -8.710218e-02 -1.031663e-01
<VARIANCE> 39
 2.323355e+00 2.030256e+01 4.169451e+01 1.501922e+01 1.494701e+01 3.516996e+01 2.562927e+01 4.588312e+01 4.616135e+01 2.483607e+01 1.669026e+01 1.885790e+01 1.020929e+01 1.502959e-01 6.769794e-01 8.706502e-01 1.381738e+00 1.206151e+00 2.169272e+00 2.323882e+00 1.708261e+00 2.438824e+00 2.725097e+00 1.128056e+00 1.269870e+00 4.090781e-01 4.890455e-02 1.243736e-01 1.205941e-01 1.731125e-01 2.378686e-01 3.444071e-01 3.053304e-01 3.401717e-01 3.653291e-01 3.700063e-01 1.875844e-01 2.137191e-01 4.847308e-02
<GCONST> 9.004171e+01
<STATE> 4
<MEAN> 39
 2.543921e+00 2.701412e+00 -1.447584e+01 -1.996176e+01 3.955542e+00 -9.693437e+00 -1.521044e+00 -1.540563e+01 -3.626436e+00 -9.621765e+00 -2.762994e-01 -1.106500e+00 7.808666e+01 -1.702056e-01 -8.149200e-02 -2.976081e-01 3.286588e-01 5.609670e-01 1.223814e+00 6.088447e-02 -7.238969e-01 -1.096657e+00 4.904402e-01 2.249154e-01 2.252759e-01 -1.140804e+00 -1.001773e-01 -1.322223e-01 6.888603e-02 1.066297e-01 -1.251326e-01 2.694488e-02 -5.581505e-02 1.892723e-01 4.390306e-02 2.012553e-01 9.066177e-02 2.041395e-02 -9.961279e-03
<VARIANCE> 39
 2.268670e+01 2.285407e+01 3.134606e+01 3.111415e+01 7.307476e+01 6.514581e+01 2.724225e+01 5.661882e+01 1.285281e+02 3.887183e+01 3.054570e+01 2.127022e+01 4.938963e+01 2.914941e+00 2.093432e+00 3.140705e+00 2.687410e+00 4.995266e+00 2.382636e+00 3.088659e+00 3.932245e+00 3.570825e+00 2.990582e+00 1.728413e+00 1.665649e+00 1.356219e+00 5.047652e-01 2.697675e-01 4.044306e-01 3.800514e-01 7.398328e-01 4.009276e-01 5.953044e-01 4.805393e-01 7.495726e-01 5.782406e-01 3.286723e-01 2.944857e-01 2.442651e-01
<GCONST> 1.212444e+02
<STATE> 5
<MEAN> 39
 -8.491831e+00 -5.545249e+00 -8.953925e+00 -9.237696e+00 1.774773e+00 3.981750e+00 -2.816352e+00 -9.400107e+00 -8.251004e+00 1.082139e+00 4.877719e+00 1.403053e+00 6.369978e+01 -1.041551e+00 -3.646566e-01 8.101518e-01 8.569450e-01 -1.361723e-01 -1.478926e-01 2.283319e-01 1.061949e+00 7.189044e-01 2.470216e-01 -2.005956e-01 8.119028e-02 -6.478424e-01 7.482716e-02 1.735541e-01 9.747855e-02 1.208019e-02 5.100695e-02 -2.267197e-01 7.659752e-04 -1.383802e-01 -5.596943e-02 -1.946205e-01 -1.748224e-01 -7.485387e-02 7.334440e-02
<VARIANCE> 39
 1.530782e+01 7.027822e+00 4.016785e+01 3.047109e+01 1.392323e+01 1.782036e+01 1.397570e+01 2.192097e+01 1.599265e+01 2.535798e+01 3.236573e+01 1.497028e+01 6.296647e+00 2.822040e-01 5.405220e-01 1.200632e+00 1.255274e+00 1.223562e+00 1.382838e+00 1.168567e+00 1.478775e+00 1.339284e+00 2.340495e+00 2.377294e+00 1.221859e+00 1.088975e-01 6.638365e-02 5.968150e-02 1.652976e-01 2.449478e-01 2.628815e-01 2.524433e-01 2.425134e-01 2.950470e-01 1.884201e-01 3.322742e-01 3.121825e-01 1.765442e-01 2.798598e-02
<GCONST> 8.499364e+01
<TRANSP> 6
 0.000000e+00 1.000000e+00 0.000000e+00 0.000000e+00 0.000000e+00 0.000000e+00
 0.000000e+00 9.489684e-01 5.103163e-02 0.000000e+00 0.000000e+00 0.000000e+00
 0.000000e+00 0.000000e+00 9.442440e-01 5.575605e-02 0.000000e+00 0.000000e+00
 0.000000e+00 0.000000e+00 0.000000e+00 9.455780e-01 5.442201e-02 0.000000e+00
 0.000000e+00 0.000000e+00 0.000000e+00 0.000000e+00 9.056051e-01 9.439489e-02
 0.000000e+00 0.000000e+00 0.000000e+00 0.000000e+00 0.000000e+00 0.000000e+00
<ENDHMM>
